SVM-light Version V6.02
0 # kernel type
3 # kernel parameter -d 
1 # kernel parameter -g 
1 # kernel parameter -s 
1 # kernel parameter -r 
empty# kernel parameter -u 
15 # highest feature index 
57506 # number of training documents 
150 # number of support vectors plus 1 
2.5085526 # threshold b, each following line is a SV (starting with alpha*y)
0.0023022198947728611528873443603516 1:20.43775 2:25.494905 3:30.317778 4:20 5:20 6:20 7:19 8:25 9:30 10:10.514967 11:10.322586 12:10.510326 13:2418 14:1832 15:1670 #
0.027104666089855077720782716710346 1:6.862165 2:4.7422199 3:7.5612316 4:21 5:21 6:21 7:12 8:1 9:2 10:16.817112 11:15.514217 12:16.222628 13:5740 14:5507 15:5515 #
0.024886512637575686213153858261649 1:53.684616 2:55.733727 3:56.667744 4:143 5:143 6:143 7:58 8:58 9:58 10:28.415607 11:30.83016 12:30.419506 13:10415 14:10387 15:10432 #
5.9608588155796095753996555188792e-08 1:43.904613 2:43.123726 3:42.907745 4:143 5:143 6:143 7:34 8:30 9:29 10:22.154364 11:26.163992 12:26.044373 13:9511 14:9428 15:9409 #
-0.08022421097939509693208748331017 1:25.38883 2:31.666315 3:36.774582 4:16 5:16 6:16 7:22 8:27 9:35 10:9.6538906 11:9.439187 12:8.1982212 13:10686 14:10480 15:10396 #
-0.001176984321306454375766215036947 1:9.367835 2:19.15222 3:24.081232 4:244 5:244 6:244 7:3 8:14 9:18 10:15.257005 11:15.518928 12:16.504004 13:6446 14:6131 15:6186 #
-8.5464382769086886929878199570254e-05 1:1.0641378 2:2.496031 3:2.8689406 4:239 5:239 6:239 7:0 8:10 9:12 10:13.640751 11:23.085161 12:31.727886 13:5890 14:5209 15:5183 #
0.10000000000000000555111512312578 1:73.136192 2:19.997271 3:19.195412 4:276 5:276 6:276 7:77 8:21 9:20 10:27.321964 11:7.737042 12:7.2597713 13:3690 14:1465 15:1334 #
-0.0013686895087054770214080035017901 1:64.280922 2:49.408997 3:42.716686 4:83 5:83 6:83 7:89 8:89 9:84 10:16.169771 11:18.636728 12:12.01262 13:11572 14:6571 15:5909 #
-0.071326773718847213956451014382765 1:82.586197 2:33.517269 3:28.995413 4:285 5:285 6:285 7:86 8:33 9:29 10:30.974751 11:13.909637 12:12.176557 13:2882 14:604 15:609 #
0.00028008484261046804990324954331982 1:66.87619 2:14.14727 3:13.505412 4:11 5:11 6:11 7:68 8:13 9:12 10:29.95874 11:9.7556581 12:8.5950928 13:4528 14:2252 15:2231 #
-1.0048115939630125484707812155705e-05 1:33.925861 2:68.836029 3:78.10894 4:569 5:569 6:569 7:34 8:76 9:88 10:6.6851754 11:15.739743 12:25.325663 13:7926 14:8435 15:8648 #
0.0063293788190503658119823171546159 1:47.266872 2:43.395649 3:40.451626 4:158 5:158 6:158 7:7 8:3 9:1 10:45.736336 11:46.839764 12:46.3237 13:5677 14:5664 15:5721 #
0.0010107470852498462356855446486747 1:65.601921 2:75.507088 3:81.782379 4:67 5:67 6:67 7:70 8:83 9:90 10:21.287775 11:20.084244 12:18.706692 13:10537 14:11087 15:11020 #
1.6567224732039031168855450215638e-06 1:30.238983 2:31.280489 3:32.135696 4:152 5:152 6:152 7:25 8:21 9:20 10:17.17495 11:20.086935 12:20.515186 13:9696 14:9675 15:9595 #
-0.0013993105034168784595038914631004 1:33.389336 2:37.6306 3:37.315182 4:487 5:487 6:487 7:37 8:39 9:39 10:7.909133 11:12.437645 12:11.382879 13:11148 14:10272 15:9378 #
1.8284546336564885815612058195256e-05 1:67.326195 2:28.107269 3:23.225412 4:284 5:284 6:284 7:63 8:28 9:24 10:19.855442 11:9.4538002 12:8.0497923 13:4053 14:1308 15:1295 #
-0.0015332903639695416586619103327394 1:18.54883 2:24.986315 3:30.524582 4:40 5:40 6:40 7:18 8:26 9:36 10:0.43988916 11:5.4679503 12:10.284232 13:9513 14:9460 15:9447 #
-0.00060648215799186111496510420693085 1:18.295862 2:58.846031 3:85.268944 4:571 5:571 6:571 7:18 8:65 9:94 10:8.3826208 11:17.629311 12:26.647823 13:7135 14:7842 15:8672 #
-0.0018501478485703909404591627207992 1:38.515305 2:38.050362 3:38.321758 4:340 5:340 6:340 7:65 8:64 9:62 10:22.285234 11:22.832035 12:22.012016 13:7934 14:7779 15:7803 #
-2.5236460503806488120046025436238e-06 1:0.39907497 2:0.89899832 3:2.7466848 4:221 5:221 6:221 7:2 8:8 9:13 10:16.516083 11:24.411566 12:29.684258 13:6189 14:5390 15:4246 #
1.4470935177889868075012946846414e-07 1:51.156193 2:4.7072701 3:7.6154122 4:3 5:3 6:3 7:55 8:4 9:6 10:25.794529 11:6.9921055 12:5.3313794 13:4407 14:2015 15:1729 #
0.00031379393057320457624537191065883 1:20.843807 2:4.59273 3:4.4845877 4:1 5:1 6:1 7:17 8:3 9:3 10:30.767057 11:9.4478598 12:8.406024 13:7500 14:2839 15:2650 #
-1.9589366477439952574091108772336e-06 1:6.3093357 2:10.350599 3:8.3051825 4:232 5:232 6:232 7:8 8:10 9:4 10:8.8232975 11:13.326966 12:12.970417 13:9884 14:9009 15:8106 #
-0.0050432924005655082808075029277006 1:4.9540901 2:7.3868299 3:6.7187424 4:15 5:15 6:15 7:16 8:17 9:9 10:5.9187713 11:2.9246752 12:7.3700204 13:7405 14:6108 15:2760 #
-0.00078980502042506374460462126307903 1:12.575862 2:41.296032 3:58.228939 4:550 5:550 6:550 7:12 8:48 9:67 10:3.3358099 11:13.660472 12:23.636951 13:7168 14:7401 15:7857 #
-0.016300720275929769798040069872513 1:82.016197 2:12.46727 3:19.605412 4:32 5:32 6:32 7:111 8:23 9:29 10:9.321147 11:3.5042706 12:2.6548069 13:3498 14:1689 15:1312 #
6.4427569620720097354205080364409e-05 1:15.354695 2:16.329638 3:21.738243 4:158 5:158 6:158 7:4 8:5 9:12 10:19.774858 11:22.972986 12:20.499578 13:9468 14:9356 15:9538 #
-0.0020884428871772962865716039004838 1:40.599335 2:44.020599 3:45.045181 4:254 5:254 6:254 7:45 8:45 9:46 10:10.786538 11:15.301501 12:14.060943 13:11354 14:10422 15:9616 #
0.011505961502678241359376443142537 1:36.845802 2:27.236923 3:33.753494 4:98 5:98 6:98 7:29 8:10 9:32 10:23.282827 11:29.33638 12:31.118166 13:10794 14:10473 15:8688 #
0.011486149720927079503907108914973 1:43.773808 2:16.172729 3:14.944588 4:247 5:247 6:247 7:37 8:10 9:10 10:23.539736 11:2.1046915 12:1.316951 13:9831 14:4784 15:4535 #
-0.0028003565481526937475109662045725 1:10.678082 2:14.537087 3:18.482378 4:274 5:274 6:274 7:11 8:14 9:17 10:5.8240795 11:7.7810307 12:10.911711 13:5086 14:6184 15:5975 #
0.0085989172646980804870509018655866 1:41.763271 2:62.479679 3:72.939896 4:400 5:400 6:400 7:44 8:71 9:87 10:14.628279 11:20.952217 12:24.01259 13:4618 14:3000 15:1094 #
-0.0038305114613071400420096779271262 1:26.144138 2:1.7360309 3:4.8389406 4:20 5:20 6:20 7:25 8:10 9:15 10:8.5815678 11:17.796873 12:26.765684 13:5469 14:5699 15:5705 #
2.2789480758067526267041102983057e-07 1:20.224695 2:23.659637 3:27.398243 4:98 5:98 6:98 7:0 8:4 9:8 10:16.640841 11:18.230062 12:16.929537 13:8681 14:8741 15:8772 #
-0.0068255288670138192230751883471385 1:103.45216 2:86.557777 3:75.34877 4:138 5:138 6:138 7:111 8:94 9:83 10:14.972934 11:16.679363 12:20.582016 13:2122 14:2119 15:2235 #
0.0055119651780783929240215002209879 1:61.786194 2:10.51727 3:11.125412 4:14 5:14 6:14 7:66 8:10 9:12 10:26.902622 11:6.7809877 12:6.3143144 13:4660 14:2444 15:2255 #
-0.011159877691544466127293588897373 1:44.223808 2:13.14273 3:13.944588 4:347 5:347 6:347 7:41 8:13 9:15 10:31.192173 11:11.574378 12:10.454502 13:8007 14:2800 15:2622 #
-0.0044315427631316109749470832923635 1:13.925862 2:47.436031 3:69.278938 4:611 5:611 6:611 7:13 8:54 9:79 10:14.365779 11:3.9883964 12:6.4895487 13:9712 14:10053 15:10641 #
-0.00031678686394265298531536245718598 1:6.9793358 2:12.170599 3:11.025183 4:444 5:444 6:444 7:5 8:10 9:7 10:3.7082512 11:8.5368032 12:7.9269457 13:10205 14:9408 15:8496 #
-0.0029947362898822271759513569122646 1:48.039337 2:52.160599 3:52.325184 4:41 5:41 6:41 7:49 8:51 9:51 10:15.414508 11:19.929598 12:18.96694 13:11130 14:10281 15:9403 #
0.02757722546017715714583573571872 1:2.1593359 2:0.75940102 3:0.07481771 4:471 5:471 6:471 7:4 8:4 9:1 10:2.7283697 11:6.3988543 12:4.6376939 13:10358 14:9226 15:8365 #
-0.021255479909310759367713217216078 1:35.906193 2:19.98727 3:17.675413 4:446 5:446 6:446 7:45 8:22 9:20 10:20.241795 11:6.9606142 12:5.9079156 13:5456 14:1935 15:1785 #
-5.7472905091540771945098076134428e-05 1:9.6119184 2:6.4329123 3:3.3423781 4:506 5:506 6:506 7:9 8:6 9:2 10:3.0517676 11:6.1001287 12:7.7077889 13:6153 14:5660 15:5714 #
0.00014584682449256589466604627780555 1:19.028082 2:13.802913 3:22.147621 4:15 5:15 6:15 7:13 8:7 9:20 10:9.2728195 11:7.1498847 12:1.5713568 13:5543 14:5964 15:5365 #
0.00042373746832244168439990383845384 1:56.826195 2:5.9972701 3:9.3454123 4:7 5:7 6:7 7:58 8:6 9:8 10:27.092033 11:8.0686779 12:6.4465961 13:4848 14:2535 15:2255 #
-1.0599206076594100975687973154038e-05 1:11.068099 2:4.79071 3:1.7828976 4:507 5:507 6:507 7:10 8:7 9:4 10:9.5029335 11:16.990065 12:21.082794 13:5166 14:5886 15:5254 #
0.00069542295057158467260632894735295 1:49.20327 2:70.85968 3:82.469894 4:410 5:410 6:410 7:52 8:78 9:93 10:18.371281 11:25.784216 12:31.680407 13:3940 14:2297 15:454 #
-0.0020567343656216268907299671298006 1:4.9953051 2:3.6503627 3:3.9817574 4:539 5:539 6:539 7:17 8:15 9:15 10:7.4754872 11:7.449039 12:8.1229286 13:8763 14:8720 15:8676 #
3.63884173982359200930081222225e-05 1:54.514694 2:58.109638 3:60.118244 4:158 5:158 6:158 7:47 8:50 9:53 10:8.6620483 11:9.8162975 12:9.2344608 13:9744 14:9765 15:9806 #
0.0015670343852232822279280100019605 1:59.854694 2:54.519638 3:52.698242 4:158 5:158 6:158 7:50 8:44 9:42 10:0.91137183 11:6.7939634 12:7.9146633 13:10042 14:9758 15:9717 #
0.0010184507276997933900020143482834 1:4.157835 2:30.40778 3:38.518768 4:17 5:17 6:17 7:1 8:34 9:42 10:13.083746 11:0.65247089 12:0.87493324 13:6254 14:4399 15:3890 #
-0.0017107569872216732420611151610501 1:23.409336 2:27.7106 3:26.075182 4:260 5:260 6:260 7:27 8:29 9:28 10:6.800437 11:11.415004 12:10.684473 13:11066 14:10207 15:9302 #
0.01819098986351463942412465257803 1:116.78687 2:119.90565 3:112.14162 4:158 5:158 6:158 7:122 8:129 9:121 10:2.5424812 11:2.4273064 12:2.2625914 13:2421 14:2199 15:2467 #
-0.0055985167924214292514695223701437 1:39.319336 2:43.6306 3:42.235184 4:29 5:29 6:29 7:42 8:44 9:44 10:4.8584538 11:9.3860626 12:8.3911829 13:10972 14:10159 15:9247 #
4.1181493344311093096621334552765e-05 1:45.174694 2:47.119637 3:49.738243 4:158 5:158 6:158 7:36 8:36 9:40 10:2.4446945 11:4.0255389 12:3.3813565 13:9435 14:9368 15:9437 #
3.5578310478774508755024554712554e-06 1:28.228983 2:29.120487 3:32.005695 4:152 5:152 6:152 7:14 8:14 9:16 10:17.37974 11:19.801836 12:19.863922 13:9044 14:8955 15:8996 #
-0.00020950477631496392406235118599511 1:29.938984 2:26.920488 3:26.785694 4:207 5:207 6:207 7:40 8:35 9:33 10:15.536477 11:15.084132 12:14.679245 13:9149 14:8984 15:8921 #
1.7737187447681816709899038642106e-07 1:11.481918 2:28.057087 3:30.522379 4:267 5:267 6:267 7:1 8:15 9:16 10:18.161463 11:17.187681 12:13.960889 13:8578 14:9306 15:8912 #
-0.00062810850033850939080903863498406 1:0.84586215 2:5.3860312 3:8.7589407 4:241 5:241 6:241 7:1 8:12 9:18 10:13.999934 11:24.101521 12:33.108364 13:5911 14:5289 15:5279 #
-0.00082133016388707957844417251180857 1:37.439075 2:32.209 3:22.886684 4:189 5:189 6:189 7:41 8:40 9:34 10:15.953827 11:24.734688 12:30.178873 13:4709 14:4059 15:3455 #
-0.00012141914486106858612514403095162 1:3.351918 2:0.14708774 3:7.6376219 4:493 5:493 6:493 7:3 8:0 9:8 10:5.6760979 11:7.2460122 12:10.811165 13:5470 14:5601 15:4858 #
3.2690805791793259050008121913145e-06 1:39.106194 2:0.68273002 3:3.6754124 4:7 5:7 6:7 7:42 8:1 9:4 10:28.850204 11:9.3001871 12:7.9053216 13:5632 14:2944 15:2614 #
-0.0025113695963683291267898312071338 1:41.995861 2:81.296028 3:113.63894 4:611 5:611 6:611 7:43 8:90 9:125 10:8.7973499 11:17.597103 12:26.79187 13:7828 14:8401 15:9453 #
-0.00075648107999271019252773839980364 1:6.3488302 2:6.2963147 3:5.0045819 4:10 5:10 6:10 7:2 8:4 9:0 10:1.5135401 11:5.3833656 12:9.6105537 13:9265 14:9078 15:8730 #
8.2096258828681772235077648836032e-07 1:44.458984 2:46.700489 3:48.855694 4:152 5:152 6:152 7:38 8:38 9:41 10:25.537811 11:28.053558 12:27.134905 13:10298 14:10282 15:10345 #
0.030657463941270592100440950389384 1:64.784698 2:63.839638 3:67.36824 4:98 5:98 6:98 7:87 8:83 9:90 10:16.388124 11:20.693348 12:18.733326 13:12510 14:12381 15:12466 #
-0.00010285614994888806969508543431857 1:9.6577501 2:7.9749055 3:7.1677766 4:485 5:485 6:485 7:12 8:11 9:10 10:0.67832398 11:1.0163393 12:1.1618738 13:3384 14:3007 15:2984 #
-1.004017379077275326938051280834e-05 1:2.331918 2:5.6470876 3:2.7723782 4:505 5:505 6:505 7:1 8:5 9:2 10:5.9749823 11:8.4468021 12:11.768546 13:5268 14:5709 15:5194 #
3.4016374635265891803598270470843e-06 1:37.971901 2:36.740711 3:45.402897 4:8 5:8 6:8 7:14 8:11 9:16 10:28.314774 11:23.790281 12:25.292961 13:8692 14:8813 15:8795 #
8.3552293913399181945339533328365e-06 1:32.221901 2:31.640711 3:42.372898 4:277 5:277 6:277 7:20 8:18 9:28 10:14.716254 11:10.556239 12:7.6035547 13:9035 14:9142 15:8958 #
4.8300430220483110747121220304723e-07 1:31.963272 2:60.509682 3:83.189896 4:389 5:389 6:389 7:34 8:67 9:93 10:18.64332 11:26.17606 12:31.701393 13:4517 14:2620 15:289 #
0.0012096094005354732225931968514487 1:25.701918 2:34.697086 3:42.912376 4:1 5:1 6:1 7:7 8:16 9:27 10:26.066925 11:24.200039 12:21.395718 13:8892 14:9352 15:9446 #
-4.5105109480005528598337005696806e-07 1:18.420925 2:20.031002 3:19.303316 4:246 5:246 6:246 7:17 8:14 9:10 10:14.138581 11:21.388725 12:27.510599 13:6899 14:6144 15:5132 #
-0.017377611801663334079037781521038 1:65.681915 2:76.497086 3:84.582375 4:371 5:371 6:371 7:78 8:91 9:100 10:28.010845 11:25.057842 12:23.05266 13:9466 14:9996 15:9982 #
-0.001843853984901796519077499247885 1:16.055801 2:17.516924 3:16.686506 4:19 5:19 6:19 7:15 8:18 9:17 10:0.49608931 11:1.0746865 12:1.2163651 13:9261 14:9116 15:9015 #
7.2238886963461222895724334058798e-06 1:23.361917 2:26.757088 3:35.622379 4:263 5:263 6:263 7:7 8:10 9:21 10:24.074316 11:22.654381 12:19.187634 13:8977 14:9268 15:9310 #
0.0011283193887918763209654571255669 1:105.0858 2:109.01692 3:116.28349 4:98 5:98 6:98 7:103 8:107 9:126 10:22.673397 11:22.472706 12:0.81914586 13:9307 14:9303 15:1623 #
0.0021773642508811086315745342290029 1:47.096195 2:14.61727 3:14.195413 4:260 5:260 6:260 7:49 8:13 9:12 10:27.876637 11:6.9111261 12:6.0103378 13:5837 14:2958 15:2742 #
-0.0085269997146381077551824390070578 1:42.685909 2:40.513172 3:16.628742 4:13 5:13 6:13 7:39 8:39 9:14 10:18.941444 11:16.339249 12:12.573831 13:9084 14:7776 15:2339 #
-6.8606474244134495795582884269947e-06 1:4.1889834 2:3.010488 3:3.0356948 4:548 5:548 6:548 7:2 8:2 9:0 10:12.722814 11:13.314046 12:12.815194 13:8277 14:8148 15:8087 #
-6.7622057373488024317395583828727e-06 1:9.8393364 2:16.3606 3:15.605183 4:21 5:21 6:21 7:15 8:19 9:17 10:8.9031515 11:13.532701 12:12.551054 13:11432 14:10655 15:9745 #
0.00083460953419489669613540172576904 1:23.164696 2:23.399637 3:23.798243 4:521 5:521 6:521 7:10 8:11 9:11 10:12.140482 11:13.030856 12:12.3955 13:9900 14:9823 15:9835 #
2.7347502430905630717294929610262e-05 1:27.771917 2:28.977087 3:36.352379 4:256 5:256 6:256 7:12 8:16 9:23 10:20.114777 11:17.8577 12:14.483932 13:8606 14:8816 15:8676 #
-1.7716211269772053592264082766405e-05 1:14.568983 2:17.700487 3:17.455694 4:508 5:508 6:508 7:11 8:12 9:12 10:12.703133 11:14.373624 12:14.288893 13:8103 14:8208 15:8145 #
-8.9704554886269037176438692626768e-06 1:20.319336 2:22.7906 3:20.245182 4:473 5:473 6:473 7:24 8:23 9:19 10:6.6486607 11:10.546937 12:9.3171043 13:11444 14:10485 15:9530 #
0.001118036274766804998026525908017 1:48.761917 2:51.977089 3:48.522377 4:37 5:37 6:37 7:42 8:46 9:39 10:19.546394 11:16.662201 12:22.012951 13:9806 14:9808 15:9402 #
-0.0010945807373938054671974606790741 1:41.799076 2:38.528999 3:28.006685 4:425 5:425 6:425 7:43 8:45 9:37 10:16.195024 11:24.454226 12:29.311981 13:4757 14:3981 15:3354 #
3.5063672964123432178838724038172e-06 1:64.176193 2:9.1572704 3:10.715412 4:257 5:257 6:257 7:66 8:7 9:10 10:27.433203 11:7.7722359 12:7.1379852 13:4326 14:2337 15:2061 #
0.00014866526465122145684270849042008 1:30.158983 2:33.030487 3:35.965694 4:152 5:152 6:152 7:13 8:15 9:17 10:20.722406 11:22.348433 12:21.984213 13:8972 14:8950 15:8975 #
9.0487446336155370288389411526087e-07 1:53.751919 2:61.507088 3:68.372375 4:371 5:371 6:371 7:48 8:57 9:62 10:23.649303 11:21.216915 12:19.778021 13:9479 14:9942 15:9764 #
0.0011770910102002450636771158087868 1:55.814693 2:59.359638 3:60.128242 4:158 5:158 6:158 7:51 8:55 9:58 10:9.0263014 11:13.278994 12:12.969416 13:9837 14:9775 15:9837 #
6.2129608047911026938447953682498e-06 1:48.878983 2:51.99049 3:51.865696 4:152 5:152 6:152 7:44 8:46 9:46 10:18.285545 11:21.55854 12:20.905142 13:10162 14:10167 15:10095 #
-0.00015120861631354594019696624407345 1:40.249077 2:33.058998 3:23.856686 4:428 5:428 6:428 7:42 8:41 9:33 10:15.33209 11:23.441761 12:29.683912 13:4835 14:4246 15:3573 #
-2.9624713870429565672888711034411e-08 1:34.425861 2:61.016029 3:75.378944 4:566 5:566 6:566 7:35 8:68 9:86 10:5.3874555 11:16.571053 12:25.96991 13:8039 14:8178 15:8593 #
0.00095760444139947331620987824862823 1:43.155804 2:35.546925 3:56.133492 4:98 5:98 6:98 7:24 8:8 9:49 10:30.787395 11:38.041275 12:22.316401 13:10243 14:10202 15:7781 #
-0.0027027819522793274618910341899891 1:10.239336 2:8.920599 3:3.2951822 4:27 5:27 6:27 7:14 8:10 9:1 10:0.51701701 11:3.0285459 12:1.5235468 13:10185 14:9084 15:7998 #
1.3891969464607800688327188254334e-05 1:42.974693 2:45.859638 3:47.118244 4:158 5:158 6:158 7:31 8:33 9:35 10:18.492617 11:19.712193 12:19.319878 13:9485 14:9508 15:9476 #
-1.0067171911631674191523432015938e-05 1:19.015862 2:61.426029 3:84.578941 4:575 5:575 6:575 7:20 8:69 9:94 10:9.9907846 11:20.395918 12:30.772715 13:6685 14:7437 15:8182 #
-0.004871730066884382912006934418514 1:44.069077 2:40.998997 3:37.526684 4:184 5:184 6:184 7:48 8:49 9:48 10:15.104019 11:23.735775 12:29.67841 13:4675 14:3819 15:2978 #
8.7168155587530953237566933022862e-05 1:104.8758 2:109.50693 3:126.21349 4:98 5:98 6:98 7:103 8:108 9:137 10:22.491343 11:22.877937 12:0.89104164 13:9363 14:9319 15:1369 #
-0.044290439045182553035040484701312 1:122.46619 2:27.577271 3:32.655411 4:517 5:517 6:517 7:125 8:27 9:32 10:37.523132 11:16.07975 12:15.084518 13:1144 14:496 15:136 #
-0.0029238651790134571537005392372066 1:2.0280495 2:8.4476318 3:8.4657774 4:503 5:503 6:503 7:7 8:6 9:7 10:15.008833 11:27.444975 12:27.946777 13:5151 14:5171 15:5145 #
0.046642025109340352895248571485354 1:66.456192 2:11.69727 3:14.075413 4:466 5:466 6:466 7:70 8:11 9:14 10:28.615515 11:7.9631653 12:7.3086815 13:4632 14:2564 15:2300 #
-2.0373441566576271929229699497732e-05 1:36.215862 2:65.476028 3:84.258942 4:304 5:304 6:304 7:40 8:76 9:96 10:0.012387617 11:9.6008005 12:19.00699 13:8613 14:8838 15:9417 #
-0.00042310474495110481085724529748404 1:23.014694 2:21.809637 3:21.838242 4:26 5:26 6:26 7:24 8:21 9:22 10:5.8816299 11:6.6199927 12:6.8291683 13:9934 14:9728 15:9731 #
4.8453917522458114580056337539204e-07 1:40.158985 2:43.780487 3:45.495693 4:152 5:152 6:152 7:26 8:29 9:31 10:28.710743 11:30.800047 12:30.98547 13:9894 14:9921 15:9919 #
0.00074939757837455545086413621902466 1:62.681919 2:67.897087 3:65.462379 4:371 5:371 6:371 7:46 8:55 9:47 10:22.175766 11:17.739397 12:22.903816 13:10102 14:10489 15:10056 #
2.0739970923111528122717572841793e-05 1:72.531898 2:66.770714 3:73.8629 4:633 5:633 6:633 7:64 8:60 9:66 10:12.234275 11:7.0301843 12:10.431658 13:9241 14:9123 15:9062 #
1.4204596625582571745027848919563e-06 1:26.137751 2:28.544905 3:33.547775 4:464 5:464 6:464 7:25 8:29 9:33 10:10.176348 11:10.864215 12:11.576057 13:2238 14:1690 15:1489 #
-0.0071868801534190011187641644596624 1:16.340925 2:20.641001 3:22.453316 4:249 5:249 6:249 7:15 8:16 9:13 10:15.285657 11:20.289461 12:27.339443 13:6783 14:6059 15:5105 #
0.00094759780634712242886052990797907 1:0.65191805 2:25.857088 3:39.462379 4:9 5:9 6:9 7:1 8:25 9:38 10:1.1474296 11:2.69137 12:4.7385445 13:5786 14:6880 15:7081 #
2.7008401333462363214099610786434e-05 1:29.414696 2:34.639637 3:39.358242 4:158 5:158 6:158 7:16 8:22 9:28 10:10.266835 11:11.798504 12:9.5698738 13:9261 14:9366 15:9452 #
-0.00030519227715444633992208922634859 1:49.074696 2:48.699638 3:46.138241 4:36 5:36 6:36 7:48 8:49 9:46 10:6.8162045 11:6.110642 12:6.0160828 13:9437 14:9321 15:9210 #
-0.0025696136544841735593891485223139 1:14.555862 2:39.666031 3:60.528942 4:586 5:586 6:586 7:25 8:63 9:91 10:5.419704 11:4.5522785 12:5.3183861 13:7017 14:7137 15:7756 #
-0.025140191245517234247541793479286 1:2.8161936 2:7.1272697 3:2.2454123 4:398 5:398 6:398 7:5 8:7 9:2 10:34.301113 11:13.107481 12:12.109691 13:5792 14:1561 15:1559 #
0.0012485405725396088449929976604835 1:27.406193 2:1.7972699 3:4.4554124 4:5 5:5 6:5 7:30 8:1 9:4 10:29.841614 11:8.3729267 12:7.1751752 13:5818 14:2681 15:2403 #
0.0006885315394047656842313465119787 1:41.216194 2:0.25726998 3:1.3954123 4:5 5:5 6:5 7:43 8:0 9:1 10:28.040569 11:7.2238631 12:5.9492254 13:5737 14:3209 15:2992 #
0.0064377578828771391331042828198861 1:0.33783519 2:31.707781 3:37.448769 4:7 5:7 6:7 7:3 8:31 9:41 10:14.214682 11:0.42039582 12:0.40651658 13:6200 14:4293 15:3762 #
-0.00062649768569556895780187089073365 1:31.855862 2:69.226028 3:94.098938 4:310 5:310 6:310 7:34 8:78 9:104 10:3.0640588 11:13.781306 12:23.3862 13:7612 14:8169 15:8933 #
0.0015028880866757999678479107430462 1:68.776192 2:18.857269 3:16.555412 4:470 5:470 6:470 7:74 8:21 9:18 10:25.64691 11:7.5621457 12:5.9685707 13:4359 14:1973 15:1819 #
0.0022045684344524935777132057523886 1:30.144695 2:30.139637 3:29.738243 4:98 5:98 6:98 7:27 8:26 9:25 10:12.343329 11:13.626451 12:13.763072 13:9901 14:9741 15:9741 #
-0.0018487608662960397509777976665646 1:34.235863 2:69.636032 3:100.12894 4:588 5:588 6:588 7:34 8:76 9:109 10:6.3262391 11:16.164251 12:25.282606 13:7921 14:8409 15:9382 #
-0.001461315590964851196531526511535 1:36.319077 2:34.799 3:32.776684 4:46 5:46 6:46 7:39 8:42 9:42 10:16.781157 11:24.141249 12:28.071659 13:4990 14:4104 15:3186 #
5.0957072412934855713752442529785e-08 1:29.434694 2:31.699636 3:34.108242 4:158 5:158 6:158 7:24 8:25 9:29 10:8.7931051 11:10.14561 12:9.8827486 13:9190 14:9207 15:9261 #
3.0239414029274833042165715468741e-06 1:44.054615 2:40.143726 3:38.187744 4:399 5:399 6:399 7:34 8:31 9:28 10:17.255592 11:19.132528 12:18.498339 13:9677 14:9449 15:9384 #
-0.0021861926067447507923691141229483 1:21.699335 2:26.480598 3:22.945183 4:32 5:32 6:32 7:21 8:23 9:18 10:7.9763412 11:13.047952 12:12.125675 13:10428 14:9591 15:8671 #
-0.00020825278491959849937707749401028 1:8.4546947 2:6.8596373 3:4.7582426 4:501 5:501 6:501 7:9 8:7 9:5 10:0.6582939 11:1.4521554 12:1.855765 13:9838 14:9719 15:9593 #
0.0077594810534883373875914003292564 1:40.45327 2:60.49968 3:71.769897 4:400 5:400 6:400 7:44 8:69 9:82 10:16.345053 11:21.8204 12:24.857639 13:4270 14:2681 15:810 #
2.3726135790503630711286917054359e-05 1:22.731918 2:23.617088 3:27.552378 4:264 5:264 6:264 7:10 8:6 9:10 10:20.555544 11:24.900595 12:26.137171 13:8943 14:9270 15:9229 #
0.0030020166525162039761198684573174 1:22.35775 2:27.774906 3:30.947777 4:22 5:22 6:22 7:21 8:28 9:30 10:11.729682 11:11.207643 12:11.461578 13:2172 14:1539 15:1403 #
1.968023987574058289440337432552e-08 1:53.616192 2:5.7272701 3:8.3854122 4:10 5:10 6:10 7:58 8:6 9:9 10:26.096855 11:6.0306377 12:5.1002855 13:5228 14:2819 15:2530 #
0.013032608391228552371932103426388 1:21.077749 2:24.994905 3:28.907776 4:469 5:469 6:469 7:20 8:25 9:29 10:10.489655 11:10.472223 12:10.666834 13:2358 14:1779 15:1610 #
0.0041901225769400696208322187885642 1:50.798985 2:51.830486 3:50.315693 4:152 5:152 6:152 7:52 8:47 9:43 10:19.177843 11:21.153145 12:22.066109 13:11223 14:11183 15:11060 #
7.8509852358063785416480984125087e-07 1:20.586193 2:2.5372701 3:2.9754124 4:3 5:3 6:3 7:23 8:1 9:2 10:26.944632 11:6.1841993 12:5.7755008 13:6063 14:2744 15:2477 #
7.5913886584723027194850108502477e-08 1:46.476192 2:5.84727 3:8.9054127 4:9 5:9 6:9 7:49 8:5 9:8 10:26.893629 11:6.1577244 12:5.046864 13:6046 14:3408 15:3030 #
-0.0021097787170560877711977809667587 1:0.78619355 2:6.1072698 3:0.84541231 4:259 5:259 6:259 7:3 8:6 9:1 10:34.477924 11:13.522437 12:12.377106 13:5885 14:1596 15:1639 #
-0.0011065156500154361973731198531823 1:12.685802 2:14.116924 3:16.076506 4:13 5:13 6:13 7:24 8:25 9:28 10:17.319817 11:17.263756 12:16.973627 13:10455 14:10280 15:10299 #
5.2103333058198803679449129244716e-08 1:42.205803 2:36.176926 3:60.403492 4:98 5:98 6:98 7:21 8:9 9:55 10:33.524517 11:40.678455 12:25.501257 13:10432 14:10267 15:7496 #
0.001977650868842717457596336316783 1:36.766193 2:10.10727 3:9.5954123 4:6 5:6 6:6 7:38 8:9 9:9 10:27.34866 11:7.1760554 12:6.1660404 13:5984 14:2729 15:2590 #
9.3544238726228100592151315506584e-05 1:41.0219 2:41.570709 3:50.132896 4:18 5:18 6:18 7:27 8:28 9:36 10:25.379072 11:19.16754 12:14.510363 13:9678 14:9883 15:9629 #
5.7200393899509290821653317848927e-08 1:41.376194 2:11.27727 3:13.575413 4:12 5:12 6:12 7:43 8:12 9:13 10:25.846027 11:6.5346889 12:6.2491627 13:5976 14:2849 15:2646 #
9.4756056835657801601380256784068e-05 1:22.657749 2:28.954905 3:31.897778 4:23 5:23 6:23 7:21 8:29 9:31 10:12.087828 11:12.853756 12:12.705156 13:2241 14:1603 15:1443 #
-1.2114907667613148312298065878423e-07 1:43.919334 2:48.350597 3:48.155182 4:49 5:49 6:49 7:45 8:47 9:47 10:11.120757 11:15.397654 12:14.18567 13:11243 14:10469 15:9605 #
-0.0011477132891605922471872647250279 1:28.835863 2:67.30603 3:98.128944 4:584 5:584 6:584 7:30 8:75 9:107 10:3.8456247 11:13.460443 12:22.546591 13:8136 14:8691 15:9716 #
0.0042391213751784562191460281610489 1:58.936195 2:11.60727 3:9.6654119 4:454 5:454 6:454 7:62 8:11 9:10 10:25.358053 11:7.6156812 12:6.9960208 13:4539 14:2091 15:1999 #
-0.0013818334638244778034277260303497 1:72.916191 2:30.88727 3:26.505413 4:281 5:281 6:281 7:77 8:31 9:26 10:33.750156 11:14.241694 12:13.424814 13:3129 14:615 15:564 #
-4.2688902312605161427601970641765e-07 1:33.315861 2:68.526031 3:88.198944 4:611 5:611 6:611 7:37 8:79 9:99 10:5.7052774 11:3.4993322 12:12.808231 13:8876 14:9401 15:9937 #
2.3540352931728567131611207750852e-07 1:39.825909 2:80.693169 3:171.69125 4:82 5:82 6:82 7:36 8:79 9:172 10:18.770056 11:16.668034 12:11.626862 13:8859 14:9072 15:8988 #
