SVM-light Version V6.02
0 # kernel type
3 # kernel parameter -d 
1 # kernel parameter -g 
1 # kernel parameter -s 
1 # kernel parameter -r 
empty# kernel parameter -u 
15 # highest feature index 
8748 # number of training documents 
58 # number of support vectors plus 1 
-2.6149132 # threshold b, each following line is a SV (starting with alpha*y)
-0.97644116491086008213784452891559 1:3.4468741 2:2.653482 3:9.6435518 4:227 5:227 6:227 7:3 8:3 9:10 10:11.624248 11:12.438622 12:16.546032 13:6180 14:5055 15:4255 #
1 1:15.956874 2:14.903481 3:16.963552 4:246 5:246 6:246 7:16 8:16 9:18 10:13.1103 11:14.499577 12:15.313523 13:5663 14:4513 15:3969 #
-0.3469979684437574096733669648529 1:10.711013 2:2.135869 3:0.056523439 4:234 5:234 6:234 7:10 8:5 9:8 10:15.328856 11:18.077389 12:30.636744 13:2412 14:1270 15:1010 #
0.061193476199463511799869763763127 1:47.039715 2:47.924538 3:16.118755 4:400 5:400 6:400 7:60 8:50 9:9 10:24.504618 11:19.958073 12:16.502203 13:6033 14:2344 15:1487 #
-0.096982402475818837994658849765983 1:10.671012 2:121.72587 3:206.23347 4:460 5:460 6:460 7:10 8:125 9:214 10:15.123958 11:15.132047 12:28.964869 13:2483 14:5646 15:8464 #
0.18905288431607009114188144849322 1:56.139694 2:49.880737 3:11.585969 4:18 5:18 6:18 7:34 8:47 9:13 10:59.019588 11:63.037491 12:5.3179655 13:9218 14:6661 15:792 #
0.075962778661079255471122451126575 1:5.5503078 2:58.58926 3:3.3359692 4:2 5:2 6:2 7:28 8:67 9:2 10:51.378002 11:44.171875 12:5.9813285 13:7050 14:2925 15:1218 #
1 1:6.9210124 2:0.43413085 3:2.1965234 4:461 5:461 6:461 7:7 8:2 9:6 10:16.031086 11:17.672499 12:30.434189 13:2258 14:1197 15:924 #
-0.29018931573817474678378403041279 1:87.189865 2:63.573822 3:36.336357 4:3 5:3 6:3 7:84 8:48 9:27 10:52.957695 11:56.059822 12:31.51664 13:3036 14:1426 15:968 #
-0.61538771227747757208703660580795 1:13.201013 2:2.385869 3:1.4165235 4:456 5:456 6:456 7:13 8:5 9:6 10:15.798038 11:17.573063 12:30.347231 13:2489 14:1276 15:944 #
0.48627011639523154418185413305764 1:32.73103 2:42.072136 3:50.345905 4:4 5:4 6:4 7:16 8:27 9:47 10:36.064552 11:38.343761 12:41.600449 13:11519 14:11118 15:10800 #
0.052655490261570764287668566794309 1:75.15329 2:64.791679 3:46.610561 4:308 5:308 6:308 7:82 8:70 9:49 10:5.9262891 11:6.4392767 12:8.5903301 13:3833 14:3447 15:2989 #
1 1:3.9810123 2:0.18586914 3:1.7534766 4:236 5:236 6:236 7:4 8:3 9:10 10:15.519632 11:18.258192 12:30.346146 13:2164 14:1178 15:1054 #
-1 1:0.48101237 2:4.364131 3:2.9365234 4:241 5:241 6:241 7:0 8:2 9:5 10:15.843366 11:18.083834 12:30.656231 13:2099 14:1117 15:987 #
0.25582542354611836898925503192004 1:31.970285 2:33.715466 3:15.401244 4:281 5:281 6:281 7:34 8:48 9:29 10:9.4512625 11:8.5475702 12:3.2136204 13:11162 14:8077 15:5163 #
0.36572718562190686952817486599088 1:35.560287 2:12.335464 3:4.1187553 4:24 5:24 6:24 7:31 8:11 9:5 10:20.950882 11:3.9709604 12:1.1843985 13:11669 14:7286 15:4651 #
-0.62277500021491560833197809188277 1:8.8867083 2:10.958321 3:11.249439 4:460 5:460 6:460 7:9 8:12 9:12 10:6.1446223 11:3.4137883 12:0.42491752 13:9946 14:9271 15:8167 #
0.56845519373900277315669882227667 1:12.471012 2:6.2658691 3:9.2765236 4:234 5:234 6:234 7:11 8:8 9:2 10:12.701607 11:15.481188 12:28.326504 13:2643 14:1531 15:836 #
0.037811068475037443170627682320628 1:33.15329 2:19.001678 3:15.930561 4:32 5:32 6:32 7:40 8:23 9:22 10:12.471014 11:12.185458 12:8.9530964 13:6356 14:6137 15:5120 #
-0.014980302505440268659442359933109 1:9.3710127 2:0.35413086 3:3.3865235 4:460 5:460 6:460 7:9 8:2 9:4 10:16.460464 11:18.260376 12:30.612724 13:2345 14:1161 15:856 #
-0.83554440148918562858426639650133 1:26.440287 2:22.005465 3:5.4212446 4:24 5:24 6:24 7:25 8:31 9:16 10:12.367101 11:2.2546511 12:0.15749662 13:12484 14:8775 15:5868 #
0.35111966802323008041142315960315 1:1.8702857 2:29.224537 3:11.008756 4:210 5:210 6:210 7:8 8:29 9:7 10:22.472824 11:17.467382 12:11.090679 13:8496 14:3795 15:2508 #
-0.032500266444236071416984401594164 1:0.31013107 2:14.57382 3:10.736358 4:375 5:375 6:375 7:2 8:3 9:6 10:40.088291 11:40.043327 12:16.861055 13:8993 14:5996 15:4705 #
0.05340168647263190959684209246916 1:52.289715 2:47.494537 3:16.788755 4:2 5:2 6:2 7:59 8:46 9:11 10:30.250542 11:24.724396 12:17.35428 13:5637 14:2285 15:1322 #
0.088999599986028465892218264343683 1:30.713291 2:28.691679 3:21.72056 4:14 5:14 6:14 7:32 8:29 9:20 10:14.558681 11:13.57384 12:11.780322 13:6524 14:5899 15:5081 #
-0.04998817202788499725052417943516 1:8.0710125 2:1.4158691 3:0.78347659 4:14 5:14 6:14 7:7 8:4 9:8 10:14.953586 11:17.222216 12:29.992546 13:2339 14:1260 15:1112 #
-0.011504135940693771544829360209405 1:8.0632915 2:10.121679 3:10.370561 4:455 5:455 6:455 7:7 8:8 9:9 10:15.182817 11:12.719896 12:10.155602 13:6759 14:5941 15:4850 #
-0.4183833606008261485342814012256 1:23.713541 2:18.215391 3:14.675143 4:0 5:0 6:0 7:24 8:9 9:2 10:8.3701248 11:23.695763 12:26.106695 13:2001 14:249 15:225 #
-0.013459868004560299886707142036357 1:50.849869 2:53.303822 3:29.346357 4:11 5:11 6:11 7:47 8:36 9:20 10:46.536556 11:50.917633 12:27.835197 13:5048 14:2318 15:1710 #
0.10624406386378891509192357034408 1:41.693291 2:35.08168 3:19.110561 4:275 5:275 6:275 7:54 8:46 9:27 10:5.8447843 11:5.1514473 12:6.7346387 13:5350 14:4828 15:4254 #
-0.061219941610247019525559153407812 1:15.856709 2:17.43832 3:23.059439 4:228 5:228 6:228 7:13 8:14 9:20 10:7.4214067 11:5.1448259 12:1.4290996 13:8181 14:7472 15:6628 #
0.26873281590712849720148369669914 1:33.453293 2:23.691679 3:21.910561 4:244 5:244 6:244 7:34 8:24 9:23 10:16.143093 11:15.431314 12:12.867634 13:6624 14:6254 15:5225 #
-0.6085725673160243820447590223921 1:80.640129 2:76.966179 3:35.193642 4:257 5:257 6:257 7:93 8:103 9:53 10:37.570267 11:34.240978 12:11.184319 13:12493 14:10084 15:7082 #
-0.2236431975278895256664668522717 1:9.0889874 2:3.884131 3:4.8034763 4:241 5:241 6:241 7:9 8:1 9:13 10:15.252267 11:17.835566 12:29.918659 13:1725 14:1057 15:1180 #
-0.017051750195891945960369184831507 1:1.0010123 2:2.625869 3:8.4634762 4:23 5:23 6:23 7:0 8:5 9:17 10:15.199439 11:17.56028 12:29.933722 13:2115 14:1368 15:1404 #
0.10057486095111348167741027737065 1:10.279715 2:23.364536 3:13.628756 4:208 5:208 6:208 7:21 8:25 9:11 10:27.852859 11:18.057291 12:7.4509931 13:7866 14:3831 15:2391 #
-0.008506615902659692141085656658106 1:33.140285 2:16.935465 3:0.04124447 4:184 5:184 6:184 7:24 8:16 9:4 10:27.694471 11:18.819258 12:10.52159 13:10305 14:6230 15:3633 #
0.051467920713719195191515609622002 1:21.043291 2:19.38168 3:23.010561 4:492 5:492 6:492 7:24 8:22 9:24 10:19.441229 11:16.80443 12:15.889195 13:6031 14:5303 15:4042 #
-0.047062384961805037164594978094101 1:20.020287 2:11.425464 3:6.1087556 4:188 5:188 6:188 7:11 8:12 9:3 10:21.730976 11:11.54118 12:5.026535 13:10791 14:6970 15:4403 #
-0.13376897921261896029498927873647 1:11.581013 2:1.3858691 3:2.1965234 4:235 5:235 6:235 7:10 8:4 9:6 10:14.454327 11:18.109068 12:30.588173 13:2534 14:1278 15:992 #
-0.16427473889864785405734437517822 1:8.6502857 2:17.364536 3:21.618755 4:210 5:210 6:210 7:2 8:18 9:17 10:28.734848 11:20.149546 12:14.626454 13:8792 14:4324 15:2090 #
0.064288378118343272871193505579868 1:38.203293 2:36.90168 3:33.830563 4:554 5:554 6:554 7:40 8:39 9:34 10:3.3831947 11:5.2433648 12:9.2585211 13:6532 14:5838 15:4869 #
-0.11553250509638957055358332581818 1:4.5935416 2:12.105391 3:12.285143 4:2 5:2 6:2 7:2 8:3 9:0 10:12.452161 11:20.189503 12:24.101671 13:3055 14:894 15:674 #
0.0026705540038734288180166664972148 1:44.733292 2:37.181679 3:27.620562 4:267 5:267 6:267 7:50 8:41 9:29 10:16.501972 11:15.652583 12:12.09577 13:5189 14:4695 15:3888 #
0.044505537001514383632638782728463 1:24.193291 2:21.681679 3:22.64056 4:27 5:27 6:27 7:24 8:23 9:22 10:16.35022 11:14.386412 12:11.523567 13:6509 14:5842 15:4714 #
-0.014450884536623576082092768047005 1:41.189713 2:30.145464 3:87.051247 4:389 5:389 6:389 7:50 8:31 9:94 10:36.51585 11:27.419233 12:16.494818 13:5649 14:4730 15:4763 #
0.12735469579765157366324501708732 1:20.051012 2:13.625869 3:1.8165234 4:12 5:12 6:12 7:20 8:18 9:5 10:10.156162 11:12.835592 12:27.432043 13:2942 14:1840 15:1110 #
0.47329623234022932809494932371308 1:36.023293 2:32.15168 3:24.260561 4:513 5:513 6:513 7:50 8:46 9:33 10:3.2527282 11:4.753911 12:5.6010895 13:7167 14:6503 15:5739 #
0.032884000448007100203540176153183 1:40.413292 2:37.091679 3:27.56056 4:276 5:276 6:276 7:49 8:45 9:30 10:2.2397368 11:2.0334053 12:4.7214293 13:5994 14:5315 15:4561 #
0.011242399632923505414794362877728 1:20.149714 2:35.874535 3:21.608755 4:369 5:369 6:369 7:29 8:38 9:16 10:25.540771 11:18.246725 12:16.304676 13:6871 14:2794 15:1438 #
0.035324232343477035556134069338441 1:35.291012 2:23.425869 3:2.0334766 4:216 5:216 6:216 7:33 8:24 9:7 10:6.1073956 11:7.4142189 12:21.834358 13:3771 14:2499 15:1554 #
-0.62439809245759325673219564123428 1:32.498989 2:19.654131 3:14.956524 4:502 5:502 6:502 7:33 8:17 9:7 10:17.104908 11:18.93956 12:31.63702 13:777 14:417 15:381 #
0.09911721917082161326106870546937 1:24.273293 2:23.111679 3:21.680561 4:21 5:21 6:21 7:28 8:31 9:20 10:6.2268348 11:5.9291577 12:7.1174421 13:6112 14:5402 15:4366 #
0.1137290077414897793151027372005 1:83.269867 2:62.463821 3:31.776358 4:0 5:0 6:0 7:92 8:52 9:27 10:33.185013 11:44.078232 12:22.433756 13:3960 14:2265 15:1689 #
0.22994646841074656284931165828311 1:37.791012 2:25.675869 3:5.2034764 4:429 5:429 6:429 7:39 8:30 9:13 10:10.01945 11:12.273157 12:26.362946 13:3702 14:2509 15:1531 #
-0.0040700381254904771655134254615405 1:54.289715 2:13.795464 3:64.551247 4:401 5:401 6:401 7:63 8:15 9:70 10:36.562489 11:26.084393 12:17.79908 13:5166 14:4086 15:3920 #
-0.00016719122648378714757200214080513 1:8.3389874 2:5.4941311 3:0.083476566 4:477 5:477 6:477 7:9 8:3 9:8 10:15.709282 11:17.543934 12:29.518929 13:1696 14:976 15:1011 #
