SVM-light Version V6.02
0 # kernel type
3 # kernel parameter -d 
1 # kernel parameter -g 
1 # kernel parameter -s 
1 # kernel parameter -r 
empty# kernel parameter -u 
15 # highest feature index 
8748 # number of training documents 
6552 # number of support vectors plus 1 
-3.1944893 # threshold b, each following line is a SV (starting with alpha*y)
-0.0010000000000000000208166817117217 1:3.4468741 2:2.653482 3:9.6435518 4:227 5:227 6:227 7:3 8:3 9:10 10:11.624248 11:12.438622 12:16.546032 13:6180 14:5055 15:4255 #
0.0010000000000000000208166817117217 1:15.956874 2:14.903481 3:16.963552 4:246 5:246 6:246 7:16 8:16 9:18 10:13.1103 11:14.499577 12:15.313523 13:5663 14:4513 15:3969 #
-0.0010000000000000000208166817117217 1:28.376709 2:23.048321 3:19.889439 4:443 5:443 6:443 7:22 8:17 9:14 10:13.577006 11:10.326906 12:8.0827389 13:7551 14:6573 15:5396 #
0.0010000000000000000208166817117217 1:32.73103 2:42.072136 3:50.345905 4:4 5:4 6:4 7:16 8:27 9:47 10:36.064552 11:38.343761 12:41.600449 13:11519 14:11118 15:10800 #
-0.0010000000000000000208166817117217 1:27.846708 2:24.218321 3:17.969439 4:14 5:14 6:14 7:28 8:25 9:22 10:4.8500319 11:3.2171116 12:0.71729046 13:7823 14:6919 15:5611 #
-0.0010000000000000000208166817117217 1:7.6167083 2:2.6783211 3:0.189439 4:7 5:7 6:7 7:6 8:0 9:0 10:23.006004 11:20.147694 12:17.997297 13:6588 14:5658 15:4457 #
0.0010000000000000000208166817117217 1:2.2132916 2:0.62167895 3:2.740561 4:471 5:471 6:471 7:4 8:3 9:6 10:21.607073 11:18.251675 12:14.190114 13:6367 14:5642 15:4440 #
-0.0010000000000000000208166817117217 1:8.158988 2:7.0141311 3:7.8165236 4:478 5:478 6:478 7:9 8:4 9:0 10:16.095205 11:17.704502 12:30.672567 13:1733 14:943 15:723 #
-0.0010000000000000000208166817117217 1:13.393541 2:17.26539 3:13.735144 4:256 5:256 6:256 7:13 8:8 9:1 10:14.310999 11:23.285416 12:25.439028 13:2595 14:281 15:359 #
-0.0010000000000000000208166817117217 1:11.460286 2:5.1654639 3:3.0187554 4:174 5:174 6:174 7:5 8:10 9:5 10:24.059839 11:15.407957 12:8.0122871 13:9468 14:5749 15:3326 #
-0.0010000000000000000208166817117217 1:23.353542 2:18.25539 3:14.485144 4:258 5:258 6:258 7:24 8:9 9:2 10:12.116924 11:23.321707 12:25.921194 13:1965 14:249 15:263 #
-0.0010000000000000000208166817117217 1:65.469696 2:52.690739 3:12.675969 4:18 5:18 6:18 7:45 8:52 9:13 10:59.085964 11:56.867435 12:7.1334033 13:9493 14:6759 15:607 #
0.0010000000000000000208166817117217 1:49.260284 2:65.415466 3:64.611244 4:281 5:281 6:281 7:47 8:58 9:48 10:23.764355 11:18.983793 12:34.650223 13:10705 14:8932 15:6922 #
0.0010000000000000000208166817117217 1:24.080526 2:32.841286 3:26.477404 4:387 5:387 6:387 7:24 8:34 9:21 10:20.108725 11:23.214563 12:24.894678 13:6520 14:4195 15:2472 #
-0.0010000000000000000208166817117217 1:9.7967081 2:10.618321 3:0.160561 4:214 5:214 6:214 7:9 8:11 9:1 10:24.415514 11:20.990227 12:15.584379 13:6984 14:6286 15:4782 #
-0.0010000000000000000208166817117217 1:24.790525 2:28.711287 3:33.337402 4:372 5:372 6:372 7:21 8:26 9:27 10:24.785223 11:30.775429 12:28.963453 13:5306 14:3137 15:1034 #
-0.0010000000000000000208166817117217 1:44.710308 2:63.469261 3:3.1159692 4:5 5:5 6:5 7:66 8:66 9:3 10:60.804382 11:65.846886 12:8.8440657 13:5239 14:2254 15:782 #
0.0010000000000000000208166817117217 1:47.530285 2:61.665462 3:39.761246 4:281 5:281 6:281 7:46 8:63 9:32 10:23.559021 11:18.065233 12:21.541786 13:11088 14:9173 15:6395 #
0.0010000000000000000208166817117217 1:17.903292 2:18.161678 3:17.840561 4:490 5:490 6:490 7:18 8:18 9:17 10:8.1152401 11:6.5587482 12:4.2982578 13:7126 14:6362 15:5258 #
-0.0010000000000000000208166817117217 1:63.939693 2:60.290737 3:3.4059691 4:275 5:275 6:275 7:44 8:56 9:3 10:56.920788 11:57.01363 12:1.5015382 13:10007 14:7721 15:1903 #
-0.0010000000000000000208166817117217 1:11.241013 2:0.25586915 3:7.1165233 4:7 5:7 6:7 7:10 8:2 9:1 10:14.36792 11:16.751484 12:30.30777 13:2472 14:1266 15:823 #
0.0010000000000000000208166817117217 1:13.903292 2:18.151678 3:20.680561 4:497 5:497 6:497 7:16 8:19 9:21 10:12.615733 11:10.950225 12:7.0483575 13:6924 14:6031 15:4815 #
-0.0010000000000000000208166817117217 1:10.671012 2:121.72587 3:206.23347 4:460 5:460 6:460 7:10 8:125 9:214 10:15.123958 11:15.132047 12:28.964869 13:2483 14:5646 15:8464 #
0.0010000000000000000208166817117217 1:27.629475 2:31.688713 3:31.102596 4:332 5:332 6:332 7:29 8:33 9:36 10:20.505947 11:24.593023 12:22.090338 13:8227 14:6430 15:4417 #
0.0010000000000000000208166817117217 1:8.9610128 2:0.55586916 3:2.0465233 4:12 5:12 6:12 7:8 8:3 9:6 10:14.3353 11:17.746912 12:29.380331 13:2365 14:1245 15:959 #
-0.0010000000000000000208166817117217 1:12.138988 2:16.414131 3:18.916523 4:4 5:4 6:4 7:13 8:14 9:11 10:15.9201 11:17.758165 12:30.944056 13:1530 14:534 15:262 #
-0.0010000000000000000208166817117217 1:4.5935416 2:12.105391 3:12.285143 4:2 5:2 6:2 7:2 8:3 9:0 10:12.452161 11:20.189503 12:24.101671 13:3055 14:894 15:674 #
0.0010000000000000000208166817117217 1:27.050526 2:32.831287 3:23.607405 4:389 5:389 6:389 7:31 8:36 9:22 10:16.519793 11:20.400511 12:21.307127 13:6648 14:4454 15:2840 #
0.0010000000000000000208166817117217 1:24.430286 2:16.585464 3:6.1987557 4:3 5:3 6:3 7:21 8:21 9:0 10:24.264217 11:16.037277 12:11.524961 13:8631 14:4900 15:2078 #
-0.0010000000000000000208166817117217 1:10.553542 2:15.995391 3:13.775144 4:1 5:1 6:1 7:9 8:7 9:1 10:16.539268 11:23.209578 12:25.774715 13:2395 14:363 15:269 #
0.0010000000000000000208166817117217 1:37.667725 2:40.028801 3:32.209988 4:159 5:159 6:159 7:37 8:39 9:28 10:22.667652 11:21.811127 12:16.506392 13:3916 14:3623 15:3769 #
0.0010000000000000000208166817117217 1:21.943291 2:22.80168 3:23.950562 4:21 5:21 6:21 7:22 8:23 9:23 10:16.591822 11:19.022276 12:17.22378 13:5786 14:5032 15:3871 #
0.0010000000000000000208166817117217 1:4.4432917 2:8.731679 3:9.8605614 4:240 5:240 6:240 7:8 8:14 9:12 10:20.899313 11:18.705343 12:15.785962 13:6342 14:5382 15:4270 #
0.0010000000000000000208166817117217 1:17.841013 2:9.2358694 3:6.2565236 4:5 5:5 6:5 7:16 8:11 9:2 10:9.9273939 11:13.081282 12:27.815397 13:2736 14:1627 15:915 #
-0.0010000000000000000208166817117217 1:7.6035419 2:14.96539 3:13.375143 4:1 5:1 6:1 7:4 8:5 9:1 10:14.892185 11:22.715919 12:25.711552 13:2424 14:356 15:302 #
0.0010000000000000000208166817117217 1:3.6832917 2:7.7216787 3:11.620561 4:232 5:232 6:232 7:2 8:7 9:12 10:6.3173776 11:3.990437 12:1.4436877 13:7520 14:6632 15:5387 #
-0.0010000000000000000208166817117217 1:24.596708 2:21.85832 3:16.67944 4:458 5:458 6:458 7:22 8:19 9:13 10:9.3609209 11:6.2299247 12:1.3501651 13:8658 14:7734 15:6484 #
0.0010000000000000000208166817117217 1:54.733292 2:48.051678 3:33.470562 4:25 5:25 6:25 7:55 8:45 9:31 10:10.185778 11:7.0338349 12:4.6026258 13:4860 14:4395 15:3859 #
0.0010000000000000000208166817117217 1:104.91987 2:71.533821 3:36.756359 4:0 5:0 6:0 7:102 8:56 9:29 10:48.531097 11:53.109749 12:29.626837 13:2762 14:1522 15:1171 #
-0.0010000000000000000208166817117217 1:34.028988 2:18.914131 3:16.056524 4:2 5:2 6:2 7:34 8:16 9:8 10:16.793695 11:18.66173 12:31.399176 13:758 14:488 15:358 #
0.00056378040542156681452778954621863 1:10.610308 2:88.689262 3:0.79596925 4:0 5:0 6:0 7:31 8:89 9:0 10:57.320732 11:62.198917 12:7.1601739 13:6602 14:1521 15:1034 #
-0.0010000000000000000208166817117217 1:39.910286 2:24.425465 3:8.6512442 4:308 5:308 6:308 7:31 8:24 9:14 10:31.208725 11:21.397886 12:12.30112 13:9711 14:5470 15:3081 #
0.0010000000000000000208166817117217 1:15.563292 2:13.691679 3:13.810561 4:244 5:244 6:244 7:17 8:15 9:15 10:22.112202 11:20.862328 12:16.91172 13:5869 14:5129 15:3993 #
0.0010000000000000000208166817117217 1:35.883293 2:37.58168 3:28.960562 4:26 5:26 6:26 7:43 8:42 9:29 10:13.958277 11:14.645342 12:14.840603 13:5287 14:4503 15:3657 #
0.0010000000000000000208166817117217 1:12.023292 2:13.581679 3:11.460561 4:474 5:474 6:474 7:13 8:13 9:12 10:20.889641 11:20.133795 12:17.828327 13:5962 14:5133 15:4109 #
0.0010000000000000000208166817117217 1:21.593292 2:26.451679 3:24.180561 4:255 5:255 6:255 7:21 8:25 9:23 10:14.10646 11:12.296654 12:9.5388784 13:6497 14:5565 15:4449 #
-0.0010000000000000000208166817117217 1:32.730526 2:44.371284 3:41.657402 4:385 5:385 6:385 7:30 8:42 9:36 10:28.120653 11:33.93792 12:31.958889 13:4897 14:2465 15:567 #
-0.0010000000000000000208166817117217 1:4.3110123 2:5.3141308 3:17.026524 4:3 5:3 6:3 7:4 8:2 9:9 10:13.568266 11:16.264956 12:30.452879 13:2196 14:1006 15:397 #
0.0010000000000000000208166817117217 1:2.1767085 2:7.0683212 3:4.1594391 4:455 5:455 6:455 7:4 8:10 9:7 10:19.284426 11:16.282122 12:12.006274 13:6389 14:5824 15:4615 #
0.0010000000000000000208166817117217 1:6.2332916 2:9.8516788 3:9.6305609 4:13 5:13 6:13 7:7 8:11 9:11 10:23.58341 11:22.845526 12:19.054043 13:6294 14:5353 15:4247 #
-0.0010000000000000000208166817117217 1:9.9010124 2:0.35413086 3:5.9465237 4:461 5:461 6:461 7:9 8:2 9:2 10:15.993111 11:17.734303 12:30.24391 13:2370 14:1214 15:827 #
-0.0010000000000000000208166817117217 1:2.2532916 2:6.3816791 3:11.140561 4:223 5:223 6:223 7:2 8:2 9:6 10:17.280254 11:13.997055 12:12.092754 13:6699 14:5766 15:4500 #
-0.0010000000000000000208166817117217 1:10.351012 2:0.91413087 3:7.6565232 4:7 5:7 6:7 7:10 8:2 9:0 10:13.80982 11:17.672091 12:30.597038 13:2423 14:1193 15:753 #
-0.0010000000000000000208166817117217 1:63.799694 2:47.550739 3:8.505969 4:18 5:18 6:18 7:44 8:42 9:10 10:57.583912 11:57.462135 12:3.4730284 13:9915 14:6848 15:1436 #
-0.0010000000000000000208166817117217 1:10.493292 2:9.2416792 3:12.150561 4:244 5:244 6:244 7:10 8:9 9:12 10:14.929992 11:11.817418 12:10.132491 13:6399 14:5702 15:4484 #
0.0010000000000000000208166817117217 1:30.593292 2:25.591679 3:21.350561 4:243 5:243 6:243 7:30 8:24 9:19 10:18.760015 11:16.982132 12:14.21999 13:5900 14:5316 15:4336 #
0.0010000000000000000208166817117217 1:35.240284 2:27.655464 3:4.9287558 4:138 5:138 6:138 7:33 8:35 9:5 10:20.957262 11:10.26867 12:7.0077715 13:9380 14:5617 15:2494 #
0.0010000000000000000208166817117217 1:10.593291 2:13.711679 3:13.720561 4:472 5:472 6:472 7:12 8:12 9:12 10:10.79312 11:8.1041622 12:3.632292 13:7242 14:6337 15:5247 #
-0.0010000000000000000208166817117217 1:64.719696 2:56.98074 3:13.095969 4:18 5:18 6:18 7:44 8:54 9:14 10:58.295708 11:60.175774 12:7.224916 13:9595 14:7046 15:698 #
0.0010000000000000000208166817117217 1:53.15987 2:27.83382 3:2.6936424 4:215 5:215 6:215 7:56 8:20 9:7 10:34.261356 11:37.527527 12:15.820144 13:6314 14:4895 15:4484 #
-0.0010000000000000000208166817117217 1:51.059692 2:47.75074 3:8.7259693 4:299 5:299 6:299 7:30 8:47 9:10 10:57.816872 11:61.358639 12:4.3430028 13:9057 14:6570 15:915 #
0.0010000000000000000208166817117217 1:11.559475 2:3.0687137 3:0.96259606 4:333 5:333 6:333 7:15 8:6 9:7 10:21.080471 11:26.495029 12:26.7668 13:6782 14:4545 15:2502 #
0.0010000000000000000208166817117217 1:4.3197141 2:10.905464 3:22.321245 4:281 5:281 6:281 7:22 8:1 9:16 10:8.8127909 11:4.1796284 12:11.544487 13:10300 14:7119 15:5416 #
0.0010000000000000000208166817117217 1:40.130287 2:66.385468 3:52.061245 4:281 5:281 6:281 7:37 8:63 9:47 10:19.000166 11:11.81134 12:27.555229 13:11427 14:10269 15:7904 #
-0.0010000000000000000208166817117217 1:34.310524 2:32.791286 3:28.237404 4:389 5:389 6:389 7:33 8:32 9:24 10:22.964954 11:28.241957 12:26.54294 13:5759 14:3805 15:2028 #
-0.0010000000000000000208166817117217 1:39.593292 2:35.051678 3:20.050562 4:506 5:506 6:506 7:41 8:37 9:20 10:17.766531 11:15.136774 12:12.261676 13:5746 14:5152 15:4583 #
-0.0010000000000000000208166817117217 1:4.6089878 2:9.864131 3:13.966523 4:0 5:0 6:0 7:5 8:7 9:6 10:15.668331 11:16.868561 12:30.708101 13:1874 14:898 15:544 #
0.0010000000000000000208166817117217 1:21.263292 2:21.171679 3:20.780561 4:24 5:24 6:24 7:24 8:24 9:22 10:27.428713 11:25.340292 12:22.024332 13:5489 14:4674 15:3574 #
-0.0010000000000000000208166817117217 1:7.5132918 2:5.3016791 3:0.26056099 4:254 5:254 6:254 7:8 8:6 9:2 10:10.383309 11:8.2642498 12:5.3739347 13:6903 14:6245 15:5329 #
-0.0010000000000000000208166817117217 1:42.48103 2:41.762135 3:40.495907 4:62 5:62 6:62 7:52 8:53 9:54 10:24.938231 11:29.454042 12:34.18021 13:5594 14:5594 15:5536 #
0.0010000000000000000208166817117217 1:40.659691 2:13.660739 3:5.6859694 4:8 5:8 6:8 7:21 8:13 9:6 10:55.549957 11:60.065716 12:5.8134193 13:8770 14:5510 15:1135 #
0.0010000000000000000208166817117217 1:33.600525 2:37.301285 3:31.017405 4:17 5:17 6:17 7:33 8:36 9:26 10:19.616707 11:25.297676 12:26.481216 13:6503 14:4419 15:2666 #
0.0010000000000000000208166817117217 1:4.4964585 2:0.75460935 3:4.3851433 4:7 5:7 6:7 7:8 8:10 9:6 10:7.4741769 11:13.837767 12:17.763042 13:3514 14:1760 15:1390 #
0.0010000000000000000208166817117217 1:24.823292 2:22.611679 3:15.710561 4:243 5:243 6:243 7:23 8:21 9:15 10:18.100767 11:15.346366 12:12.785959 13:5490 14:4820 15:3941 #
-0.0010000000000000000208166817117217 1:26.150526 2:33.401287 3:32.067406 4:17 5:17 6:17 7:23 8:31 9:26 10:26.505283 11:32.066013 12:30.186335 13:5587 14:3285 15:1386 #
-0.0010000000000000000208166817117217 1:47.909473 2:53.348713 3:46.292595 4:307 5:307 6:307 7:49 8:55 9:53 10:24.455568 11:29.757227 12:27.364971 13:8925 14:7128 15:4996 #
-0.0010000000000000000208166817117217 1:24.090525 2:32.451286 3:30.767405 4:17 5:17 6:17 7:22 8:31 9:26 10:24.721018 11:29.423336 12:28.861073 13:5874 14:3588 15:1701 #
0.0010000000000000000208166817117217 1:39.453293 2:31.491678 3:27.130562 4:258 5:258 6:258 7:41 8:33 9:27 10:22.616755 11:21.416695 12:18.261198 13:5018 14:4512 15:3554 #
0.0010000000000000000208166817117217 1:36.240284 2:13.005464 3:28.591244 4:281 5:281 6:281 7:37 8:6 9:24 10:12.632999 11:15.932244 12:27.655521 13:11210 14:7439 15:5749 #
-0.0010000000000000000208166817117217 1:20.416708 2:23.048321 3:19.569439 4:428 5:428 6:428 7:27 8:29 9:23 10:9.769249 11:8.5060005 12:7.3551788 13:7706 14:7086 15:5756 #
-0.0010000000000000000208166817117217 1:5.9010124 2:3.4058692 3:7.8734765 4:233 5:233 6:233 7:5 8:6 9:16 10:15.739382 11:17.708969 12:30.149208 13:2266 14:1341 15:1332 #
0.0010000000000000000208166817117217 1:15.401012 2:4.365869 3:4.3134766 4:456 5:456 6:456 7:14 8:6 9:11 10:13.952234 11:14.855062 12:26.06477 13:2913 14:1714 15:1509 #
-0.0010000000000000000208166817117217 1:27.866875 2:20.863482 3:18.983553 4:231 5:231 6:231 7:25 8:19 9:17 10:6.1970978 11:7.3844657 12:11.985672 13:5563 14:4638 15:4089 #
0.0010000000000000000208166817117217 1:29.122274 2:35.141201 3:24.310013 4:146 5:146 6:146 7:30 8:36 9:29 10:33.445351 11:33.439667 12:28.987509 13:5768 14:5769 15:5270 #
-0.0010000000000000000208166817117217 1:30.550285 2:38.835464 3:29.391245 4:281 5:281 6:281 7:35 8:47 9:35 10:6.970881 11:0.12921567 12:9.6317759 13:12411 14:8880 15:6395 #
0.0010000000000000000208166817117217 1:6.5110126 2:0.0058691408 3:0.46652344 4:11 5:11 6:11 7:6 8:3 9:7 10:14.819201 11:17.234093 12:29.371664 13:2287 14:1221 15:1059 #
-0.0010000000000000000208166817117217 1:15.128987 2:8.0841312 3:1.1065234 4:245 5:245 6:245 7:16 8:6 9:7 10:16.28499 11:18.272863 12:30.806036 13:1459 14:891 15:967 #
-0.0010000000000000000208166817117217 1:23.140526 2:29.901287 3:34.927402 4:372 5:372 6:372 7:20 8:27 9:28 10:24.492563 11:29.845459 12:28.897661 13:5740 14:3508 15:1346 #
-0.0010000000000000000208166817117217 1:25.370285 2:25.115463 3:31.371244 4:43 5:43 6:43 7:18 8:26 9:37 10:28.117315 11:21.125786 12:14.903161 13:8935 14:5419 15:3686 #
0.0010000000000000000208166817117217 1:19.502275 2:20.5212 3:8.2100134 4:117 5:117 6:117 7:20 8:22 9:12 10:33.001225 11:32.726707 12:29.571819 13:5352 14:5166 15:4591 #
-0.0010000000000000000208166817117217 1:7.3132915 2:8.8616791 3:7.0405612 4:466 5:466 6:466 7:11 8:14 9:12 10:4.7385273 11:1.4948095 12:0.91023827 13:8090 14:7255 15:6209 #
-0.0010000000000000000208166817117217 1:11.586708 2:9.3783207 3:3.6894391 4:450 5:450 6:450 7:10 8:6 9:0 10:7.7157078 11:5.5897465 12:3.9933558 13:7791 14:6947 15:5611 #
0.0010000000000000000208166817117217 1:34.58329 2:28.81168 3:18.630562 4:35 5:35 6:35 7:38 8:33 9:22 10:14.265577 11:13.602081 12:12.620764 13:5318 14:4753 15:4029 #
0.0010000000000000000208166817117217 1:21.030285 2:15.385464 3:0.038755529 4:24 5:24 6:24 7:17 8:18 9:6 10:15.43525 11:5.2819395 12:0.59111339 13:10969 14:7306 15:4569 #
-0.0010000000000000000208166817117217 1:31.109715 2:27.974537 3:10.358755 4:375 5:375 6:375 7:39 8:27 9:5 10:37.461227 11:29.381783 12:20.615435 13:5992 14:2564 15:1268 #
-0.0010000000000000000208166817117217 1:61.349869 2:54.163818 3:25.596357 4:231 5:231 6:231 7:58 8:38 9:17 10:50.988903 11:52.224712 12:28.120123 13:4549 14:2348 15:1813 #
-0.0010000000000000000208166817117217 1:7.0632915 2:6.3216791 3:0.090560995 4:227 5:227 6:227 7:7 8:5 9:2 10:20.821781 11:19.704706 12:13.327098 13:6303 14:5602 15:4711 #
-0.0010000000000000000208166817117217 1:14.326874 2:15.393482 3:15.223552 4:6 5:6 6:6 7:11 8:13 9:14 10:0.10316474 11:3.2862442 12:9.3442183 13:5965 14:4741 15:4193 #
-0.0010000000000000000208166817117217 1:35.633293 2:30.731678 3:20.870562 4:18 5:18 6:18 7:32 8:28 9:21 10:12.25855 11:13.398251 12:15.307354 13:5598 14:4981 15:4223 #
-0.0010000000000000000208166817117217 1:25.710526 2:33.371284 3:32.037403 4:380 5:380 6:380 7:23 8:31 9:26 10:26.11348 11:31.476902 12:29.804314 13:5690 14:3402 15:1500 #
-0.0010000000000000000208166817117217 1:34.953293 2:28.541679 3:19.620562 4:13 5:13 6:13 7:33 8:27 9:16 10:11.29501 11:11.136209 12:8.5700483 13:5741 14:5173 15:4351 #
-0.0010000000000000000208166817117217 1:5.8497143 2:11.114536 3:16.608755 4:24 5:24 6:24 7:3 8:1 9:11 10:3.1071985 11:6.5828953 12:11.195585 13:9080 14:5053 15:2473 #
0.0010000000000000000208166817117217 1:22.461012 2:14.53587 3:1.6365235 4:433 5:433 6:433 7:22 8:17 9:6 10:7.1599388 11:9.9904575 12:23.745264 13:2998 14:1902 15:1135 #
-0.0010000000000000000208166817117217 1:31.899714 2:28.254536 3:12.228756 4:6 5:6 6:6 7:37 8:27 9:6 10:26.187206 11:23.387201 12:13.608165 13:7216 14:3734 15:2394 #
0.0010000000000000000208166817117217 1:13.210526 2:7.7712865 3:11.807404 4:41 5:41 6:41 7:10 8:5 9:6 10:24.988195 11:30.540524 12:29.297682 13:6102 14:4302 15:2185 #
-0.0010000000000000000208166817117217 1:33.723125 2:36.77652 3:47.006447 4:287 5:287 6:287 7:34 8:36 9:48 10:7.8231521 11:8.3547716 12:11.696943 13:8186 14:7113 15:6937 #
-0.0010000000000000000208166817117217 1:5.2767086 2:4.1383209 3:2.1294391 4:217 5:217 6:217 7:6 8:6 9:3 10:19.896965 11:19.021591 12:13.870703 13:6817 14:6000 15:4879 #
0.0010000000000000000208166817117217 1:50.979691 2:34.23074 3:6.3759694 4:290 5:290 6:290 7:31 8:35 9:5 10:56.318005 11:57.949425 12:4.5909595 13:9324 14:6452 15:1315 #
0.0010000000000000000208166817117217 1:49.099693 2:39.200737 3:9.5259695 4:294 5:294 6:294 7:30 8:39 9:10 10:55.859097 11:60.616417 12:6.0194817 13:8985 14:6293 15:891 #
-0.0010000000000000000208166817117217 1:10.713291 2:9.3116789 3:0.91056097 4:465 5:465 6:465 7:9 8:8 9:1 10:20.745481 11:19.232372 12:15.649271 13:6392 14:5686 15:4964 #
0.0010000000000000000208166817117217 1:76.579872 2:54.643822 3:23.466358 4:11 5:11 6:11 7:80 8:45 9:19 10:31.528088 11:34.5084 12:16.304941 13:4967 14:3321 15:2886 #
-0.0010000000000000000208166817117217 1:5.6689878 2:9.824131 3:12.726523 4:474 5:474 6:474 7:6 8:7 9:5 10:16.230946 11:18.065598 12:30.013111 13:1781 14:809 15:505 #
-0.0010000000000000000208166817117217 1:0.30772516 2:0.68119973 3:0.91001332 4:136 5:136 6:136 7:1 8:3 9:5 10:33.014214 11:33.281124 12:29.859804 13:4632 14:4445 15:4358 #
0.0010000000000000000208166817117217 1:83.399872 2:60.31382 3:26.936357 4:239 5:239 6:239 7:80 8:46 9:19 10:46.548321 11:48.28783 12:24.349735 13:4200 14:2577 15:2297 #
-0.0010000000000000000208166817117217 1:37.150288 2:44.435463 3:28.831245 4:281 5:281 6:281 7:40 8:48 9:33 10:12.356051 11:0.52196389 12:8.7938223 13:11869 14:8804 15:6011 #
0.0010000000000000000208166817117217 1:19.361012 2:4.425869 3:3.5465233 4:450 5:450 6:450 7:19 8:7 9:4 10:16.131786 11:18.071194 12:29.669119 13:2707 14:1365 15:904 #
0.0010000000000000000208166817117217 1:19.371012 2:11.375869 3:5.4465237 4:3 5:3 6:3 7:17 8:12 9:1 10:11.398416 11:12.591501 12:26.591093 13:2886 14:1793 15:997 #
-0.0010000000000000000208166817117217 1:4.0302858 2:9.0954638 3:21.261244 4:175 5:175 6:175 7:2 8:12 9:28 10:27.932528 11:23.078724 12:12.933317 13:8334 14:4963 15:3267 #
0.0010000000000000000208166817117217 1:22.451012 2:13.03587 3:3.7465234 4:5 5:5 6:5 7:19 8:13 9:3 10:9.5618391 11:11.771996 12:26.325062 13:3246 14:2067 15:1313 #
-0.0010000000000000000208166817117217 1:21.839693 2:19.890739 3:1.4259692 4:3 5:3 6:3 7:0 8:19 9:2 10:54.078529 11:53.380733 12:4.2993531 13:8197 14:5724 15:1337 #
0.0010000000000000000208166817117217 1:26.460285 2:2.805464 3:22.298756 4:8 5:8 6:8 7:19 8:4 9:16 10:33.856178 11:25.704298 12:18.757435 13:8674 14:4301 15:1336 #
-0.0010000000000000000208166817117217 1:3.6732917 2:2.931679 3:1.5694391 4:2 5:2 6:2 7:3 8:2 9:2 10:12.515394 11:11.664748 12:9.6236582 13:6823 14:6094 15:5210 #
0.0010000000000000000208166817117217 1:30.611012 2:12.205869 3:0.093476564 4:12 5:12 6:12 7:28 8:13 9:7 10:10.616777 11:14.312843 12:28.15234 13:3439 14:2003 15:1342 #
-0.0010000000000000000208166817117217 1:31.533291 2:28.001678 3:22.020561 4:28 5:28 6:28 7:32 8:28 9:22 10:1.3160273 11:2.3925123 12:6.0233626 13:6424 14:5819 15:4922 #
0.0010000000000000000208166817117217 1:43.579693 2:31.840738 3:8.9659691 4:305 5:305 6:305 7:23 8:30 9:9 10:59.600704 11:63.914845 12:7.030695 13:8608 14:5844 15:784 #
0.0010000000000000000208166817117217 1:19.770287 2:0.064536005 3:6.1387553 4:24 5:24 6:24 7:15 8:4 9:3 10:11.809994 11:1.848027 12:0.57244658 13:11439 14:7423 15:4739 #
-0.0010000000000000000208166817117217 1:8.3389874 2:5.4941311 3:0.083476566 4:477 5:477 6:477 7:9 8:3 9:8 10:15.709282 11:17.543934 12:29.518929 13:1696 14:976 15:1011 #
-0.0010000000000000000208166817117217 1:78.199867 2:60.63382 3:32.386356 4:236 5:236 6:236 7:74 8:45 9:23 10:52.230591 11:54.215862 12:30.027245 13:3535 14:1748 15:1283 #
-0.0010000000000000000208166817117217 1:9.0767088 2:11.898321 3:19.949438 4:22 5:22 6:22 7:8 8:11 9:21 10:18.272516 11:17.250217 12:17.514601 13:6657 14:5993 15:5173 #
0.0010000000000000000208166817117217 1:10.243292 2:13.121679 3:15.540561 4:18 5:18 6:18 7:14 8:15 9:17 10:18.290787 11:19.150434 12:16.816463 13:6593 14:5745 15:4525 #
-0.0010000000000000000208166817117217 1:32.768986 2:18.724131 3:15.146523 4:1 5:1 6:1 7:33 8:16 9:7 10:16.765015 11:18.856268 12:31.618286 13:746 14:458 15:388 #
-0.0009735476470218544509105385031944 1:7.8367085 2:5.6783209 3:1.729439 4:217 5:217 6:217 7:9 8:7 9:2 10:21.647814 11:19.115997 12:18.504681 13:6911 14:6081 15:4829 #
0.0010000000000000000208166817117217 1:20.503292 2:18.31168 3:13.910561 4:224 5:224 6:224 7:21 8:18 9:14 10:16.950691 11:14.332304 12:12.693272 13:5704 14:5052 15:4068 #
-0.0010000000000000000208166817117217 1:11.758987 2:8.4241304 3:2.4265234 4:12 5:12 6:12 7:12 8:6 9:6 10:16.024982 11:17.80291 12:30.526804 13:1593 14:911 15:912 #
0.0010000000000000000208166817117217 1:43.517727 2:44.678799 3:31.809986 4:66 5:66 6:66 7:43 8:44 9:28 10:33.003544 11:33.751881 12:28.127209 13:3123 14:2864 15:3190 #
-0.0010000000000000000208166817117217 1:27.089474 2:27.238714 3:18.302595 4:124 5:124 6:124 7:31 8:31 9:26 10:22.495573 11:27.382849 12:25.224154 13:8323 14:6371 15:4111 #
0.0010000000000000000208166817117217 1:34.680286 2:14.425464 3:4.7687554 4:5 5:5 6:5 7:28 8:17 9:0 10:27.288401 11:18.850353 12:11.551458 13:9951 14:5747 15:3091 #
0.0010000000000000000208166817117217 1:29.923292 2:28.261679 3:24.800562 4:252 5:252 6:252 7:27 8:28 9:25 10:17.723015 11:17.92334 12:16.878119 13:5410 14:4731 15:3741 #
-0.0010000000000000000208166817117217 1:4.1932917 2:6.8716788 3:5.8105612 4:229 5:229 6:229 7:4 8:7 9:6 10:13.796862 11:11.176005 12:4.0563836 13:7184 14:6374 15:5345 #
-0.0010000000000000000208166817117217 1:43.059692 2:12.920738 3:1.7859693 4:312 5:312 6:312 7:20 8:11 9:3 10:54.358715 11:56.557701 12:1.7390867 13:9018 14:5518 15:1418 #
0.0010000000000000000208166817117217 1:20.051012 2:13.625869 3:1.8165234 4:12 5:12 6:12 7:20 8:18 9:5 10:10.156162 11:12.835592 12:27.432043 13:2942 14:1840 15:1110 #
-0.0010000000000000000208166817117217 1:34.379475 2:44.888714 3:48.482597 4:94 5:94 6:94 7:36 8:47 9:54 10:23.422075 11:28.396294 12:26.807579 13:8013 14:6365 15:4566 #
-0.0010000000000000000208166817117217 1:1.0010123 2:2.625869 3:8.4634762 4:23 5:23 6:23 7:0 8:5 9:17 10:15.199439 11:17.56028 12:29.933722 13:2115 14:1368 15:1404 #
0.0010000000000000000208166817117217 1:18.271013 2:3.4858692 3:2.3865235 4:10 5:10 6:10 7:18 8:6 9:5 10:14.323607 11:16.925507 12:30.114264 13:2730 14:1398 15:1038 #
0.0010000000000000000208166817117217 1:43.039867 2:45.803822 3:26.856358 4:222 5:222 6:222 7:36 8:30 9:19 10:42.756203 11:47.027283 12:24.785206 13:6234 14:3661 15:2763 #
-0.0010000000000000000208166817117217 1:19.789692 2:40.059261 3:5.2859693 4:7 5:7 6:7 7:0 8:39 9:5 10:56.75491 11:56.674305 12:8.1364346 13:7624 14:3146 15:841 #
-0.0010000000000000000208166817117217 1:37.046459 2:54.914608 3:63.494858 4:410 5:410 6:410 7:38 8:63 9:75 10:10.892284 11:13.713938 12:16.244469 13:5220 14:4157 15:4311 #
-0.0010000000000000000208166817117217 1:12.338987 2:11.894131 3:12.396523 4:1 5:1 6:1 7:13 8:9 9:5 10:15.899966 11:18.241983 12:30.857002 13:1532 14:709 15:476 #
0.0010000000000000000208166817117217 1:21.581013 2:14.015869 3:2.1565235 4:455 5:455 6:455 7:20 8:16 9:6 10:10.800553 11:13.169312 12:28.050346 13:3108 14:2032 15:1236 #
-0.0010000000000000000208166817117217 1:6.3802857 2:12.814536 3:12.468756 4:201 5:201 6:201 7:2 8:12 9:7 10:32.108635 11:23.912256 12:15.163706 13:9016 14:4787 15:2851 #
-0.0010000000000000000208166817117217 1:32.498989 2:19.654131 3:14.956524 4:502 5:502 6:502 7:33 8:17 9:7 10:17.104908 11:18.93956 12:31.63702 13:777 14:417 15:381 #
0.0010000000000000000208166817117217 1:39.850285 2:18.055464 3:19.671244 4:281 5:281 6:281 7:36 8:12 9:19 10:20.61742 11:18.610605 12:13.741572 13:10162 14:6203 15:4148 #
0.0010000000000000000208166817117217 1:3.9164584 2:3.4153907 3:7.0751433 4:238 5:238 6:238 7:6 8:7 9:5 10:14.513719 11:19.501612 12:21.111225 13:3464 14:1474 15:1125 #
-0.0010000000000000000208166817117217 1:36.679714 2:24.864536 3:2.9487555 4:385 5:385 6:385 7:45 8:25 9:3 10:38.581348 11:30.006296 12:20.442711 13:5766 14:2687 15:1509 #
0.0010000000000000000208166817117217 1:33.693291 2:31.941679 3:25.340561 4:502 5:502 6:502 7:38 8:37 9:28 10:21.607876 11:19.474878 12:15.799082 13:5191 14:4515 15:3650 #
-0.0010000000000000000208166817117217 1:24.069714 2:29.824535 3:19.508755 4:4 5:4 6:4 7:32 8:28 9:13 10:32.774216 11:25.403553 12:16.883183 13:7002 14:3270 15:1647 #
-0.0010000000000000000208166817117217 1:18.662275 2:17.4312 3:9.3300133 4:122 5:122 6:122 7:19 8:18 9:13 10:33.148003 11:32.644028 12:28.898024 13:5493 14:5221 15:4818 #
0.0010000000000000000208166817117217 1:44.479691 2:36.940739 3:4.525969 4:300 5:300 6:300 7:26 8:39 9:4 10:53.646301 11:55.788124 12:3.7495842 13:8908 14:6345 15:1345 #
-0.0010000000000000000208166817117217 1:43.106709 2:37.308323 3:27.299438 4:403 5:403 6:403 7:46 8:40 9:28 10:11.664528 11:9.4773951 12:6.7379255 13:8523 14:7539 15:6109 #
0.0010000000000000000208166817117217 1:7.7232914 2:7.1016788 3:9.1205606 4:227 5:227 6:227 7:7 8:6 9:10 10:19.197458 11:16.505541 12:15.572619 13:6299 14:5590 15:4413 #
0.0010000000000000000208166817117217 1:17.116709 2:18.518322 3:22.399439 4:199 5:199 6:199 7:18 8:16 9:21 10:0.99043924 11:4.9044333 12:8.6002035 13:9136 14:8484 15:7511 #
0.0010000000000000000208166817117217 1:36.390285 2:27.045464 3:50.191246 4:281 5:281 6:281 7:37 8:36 9:53 10:14.891848 11:1.167436 12:0.5544396 13:11780 14:8094 15:7291 #
-0.0010000000000000000208166817117217 1:19.066458 2:29.00461 3:30.284857 4:39 5:39 6:39 7:20 8:38 9:42 10:11.227507 11:15.095121 12:18.140583 13:4821 14:3561 15:3481 #
0.0010000000000000000208166817117217 1:1.0668741 2:4.3265181 3:1.206448 4:3 5:3 6:3 7:0 8:4 9:1 10:10.035501 11:10.4705 12:14.296632 13:6540 14:5574 15:4891 #
-0.0010000000000000000208166817117217 1:26.389475 2:33.108715 3:30.272596 4:104 5:104 6:104 7:28 8:32 9:33 10:19.353046 11:22.67004 12:19.747459 13:7896 14:6141 15:4169 #
-0.0010000000000000000208166817117217 1:24.549475 2:30.388714 3:19.052595 4:70 5:70 6:70 7:26 8:32 9:27 10:22.330545 11:27.199728 12:24.317955 13:8141 14:6359 15:3980 #
0.0010000000000000000208166817117217 1:7.6705256 2:13.021286 3:11.707404 4:42 5:42 6:42 7:5 8:11 9:6 10:23.722601 11:28.617941 12:27.774591 13:6388 14:4201 15:2283 #
-0.0010000000000000000208166817117217 1:23.708988 2:17.224131 3:18.456524 4:254 5:254 6:254 7:24 8:15 9:11 10:16.155153 11:18.508747 12:31.15074 13:1138 14:536 15:310 #
0.0010000000000000000208166817117217 1:40.027725 2:40.938801 3:29.909986 4:71 5:71 6:71 7:40 8:40 9:26 10:33.694504 11:34.1996 12:29.993345 13:3151 14:2888 15:3212 #
-0.0010000000000000000208166817117217 1:31.096708 2:29.518322 3:25.569439 4:24 5:24 6:24 7:30 8:28 9:25 10:15.360174 11:13.932986 12:12.366293 13:7670 14:6859 15:5661 #
0.0010000000000000000208166817117217 1:46.270287 2:69.095467 3:35.351246 4:281 5:281 6:281 7:48 8:73 9:43 10:20.307583 11:8.5788107 12:1.2287253 13:11889 14:9414 15:6158 #
0.0010000000000000000208166817117217 1:9.333292 2:10.241679 3:15.050561 4:232 5:232 6:232 7:9 8:8 9:17 10:16.710371 11:15.010534 12:13.436248 13:5937 14:5138 15:3877 #
0.0010000000000000000208166817117217 1:9.1610126 2:1.6158692 3:3.3665235 4:10 5:10 6:10 7:8 8:4 9:4 10:15.382816 11:17.722248 12:30.740496 13:2417 14:1318 15:943 #
-0.0010000000000000000208166817117217 1:17.058989 2:9.2241306 3:1.4365234 4:248 5:248 6:248 7:18 8:7 9:5 10:14.391033 11:15.954877 12:27.493231 13:1548 14:996 15:1124 #
-0.0010000000000000000208166817117217 1:0.41898763 2:4.0241308 3:3.4565234 4:241 5:241 6:241 7:1 8:1 9:5 10:15.943686 11:18.574783 12:30.926128 13:2037 14:1013 15:892 #
0.0010000000000000000208166817117217 1:10.521012 2:0.38586915 3:0.99652344 4:13 5:13 6:13 7:10 8:3 9:7 10:15.45223 11:17.568211 12:30.459686 13:2459 14:1223 15:1020 #
0.0010000000000000000208166817117217 1:11.981012 2:1.7958691 3:2.4765234 4:11 5:11 6:11 7:11 8:4 9:5 10:14.809396 11:17.676304 12:30.659702 13:2497 14:1310 15:928 #
-0.0010000000000000000208166817117217 1:5.2632918 2:8.0316792 3:11.790561 4:254 5:254 6:254 7:10 8:6 9:7 10:0.53096336 11:2.7534423 12:3.2390261 13:7553 14:6678 15:5431 #
-0.0010000000000000000208166817117217 1:2.2889876 2:5.634131 3:12.556523 4:1 5:1 6:1 7:3 8:3 9:5 10:16.488279 11:18.070042 12:31.191307 13:1912 14:978 15:514 #
-0.0010000000000000000208166817117217 1:7.0068741 2:3.123482 3:2.0535519 4:235 5:235 6:235 7:8 8:4 9:3 10:14.132799 11:15.567435 12:17.312252 13:5825 14:4833 15:4327 #
-0.0010000000000000000208166817117217 1:4.0667086 2:3.808321 3:9.8794394 4:230 5:230 6:230 7:1 8:2 9:8 10:12.714306 11:11.04549 12:8.4286575 13:6962 14:6224 15:5327 #
-0.0010000000000000000208166817117217 1:41.499714 2:35.654537 3:15.798756 4:383 5:383 6:383 7:48 8:34 9:10 10:30.603086 11:24.327616 12:16.11145 13:6534 14:3212 15:1857 #
-0.0010000000000000000208166817117217 1:15.966708 2:16.348322 3:14.149439 4:198 5:198 6:198 7:18 8:20 9:16 10:13.83714 11:14.487823 12:13.479877 13:7018 14:6238 15:5053 #
-0.0010000000000000000208166817117217 1:68.459869 2:59.603821 3:29.386358 4:13 5:13 6:13 7:64 8:43 9:20 10:52.048012 11:53.579754 12:29.416727 13:4028 14:1919 15:1520 #
0.0010000000000000000208166817117217 1:42.370285 2:38.975464 3:7.6812444 4:281 5:281 6:281 7:36 8:44 9:12 10:23.16939 11:2.2295349 12:1.2559398 13:10217 14:7181 15:3805 #
-0.0010000000000000000208166817117217 1:43.396709 2:38.068321 3:35.669437 4:192 5:192 6:192 7:43 8:36 9:33 10:20.406252 11:19.263683 12:14.51714 13:8334 14:7373 15:6220 #
0.0010000000000000000208166817117217 1:30.313292 2:26.821678 3:20.670561 4:489 5:489 6:489 7:31 8:27 9:20 10:23.67869 11:20.862679 12:17.136602 13:5263 14:4645 15:3752 #
0.0010000000000000000208166817117217 1:26.480286 2:23.645464 3:6.3412447 4:34 5:34 6:34 7:22 8:27 9:15 10:16.665686 11:8.4671803 12:3.5053878 13:10908 14:7220 15:4611 #
-0.0010000000000000000208166817117217 1:31.099474 2:40.338715 3:43.512596 4:316 5:316 6:316 7:34 8:43 9:50 10:25.003599 11:30.356495 12:28.927422 13:7775 14:6119 15:4253 #
0.0010000000000000000208166817117217 1:7.7002859 2:39.675465 3:51.831245 4:281 5:281 6:281 7:5 8:12 9:17 10:0.75158721 11:35.364632 12:49.600555 13:10180 14:8214 15:6709 #
0.0010000000000000000208166817117217 1:12.353292 2:15.091679 3:17.15056 4:18 5:18 6:18 7:15 8:18 9:18 10:21.266645 11:21.044605 12:18.447916 13:5758 14:4916 15:3732 #
-0.0010000000000000000208166817117217 1:18.476707 2:12.938321 3:13.709439 4:442 5:442 6:442 7:21 8:16 9:18 10:8.7007198 11:6.0378418 12:3.0267239 13:8464 14:7577 15:6395 #
0.0010000000000000000208166817117217 1:74.879868 2:60.343819 3:30.356358 4:0 5:0 6:0 7:78 8:46 9:23 10:38.497833 11:46.13871 12:24.505873 13:4777 14:2847 15:2175 #
-0.0010000000000000000208166817117217 1:74.567726 2:70.878799 3:52.349987 4:211 5:211 6:211 7:74 8:69 9:48 10:35.404686 11:35.726162 12:31.558561 13:1726 14:1656 15:2207 #
0.0010000000000000000208166817117217 1:70.209869 2:59.31382 3:32.016357 4:0 5:0 6:0 7:57 8:43 9:25 10:36.849239 11:48.39032 12:26.571339 13:4416 14:2395 15:1762 #
-0.0010000000000000000208166817117217 1:2.9567084 2:4.6383209 3:4.1894388 4:4 5:4 6:4 7:3 8:4 9:4 10:13.403129 11:12.398019 12:11.942245 13:7495 14:6826 15:5661 #
-0.0010000000000000000208166817117217 1:9.3167086 2:7.2483211 3:6.3694391 4:6 5:6 6:6 7:7 8:7 9:7 10:19.126354 11:18.694712 12:16.743738 13:6903 14:6082 15:4921 #
0.0010000000000000000208166817117217 1:41.330284 2:58.005463 3:35.241245 4:281 5:281 6:281 7:39 8:54 9:37 10:18.304504 11:12.054079 12:15.055835 13:11188 14:8980 15:6055 #
-0.0010000000000000000208166817117217 1:72.007729 2:68.568802 3:48.519985 4:44 5:44 6:44 7:71 8:67 9:44 10:35.343796 11:35.880486 12:30.34321 13:1942 14:1848 15:2543 #
0.0010000000000000000208166817117217 1:1.2297142 2:7.4045358 3:4.9987555 4:342 5:342 6:342 7:11 8:6 9:1 10:30.429682 11:22.895164 12:13.114077 13:8188 14:4446 15:2520 #
0.0010000000000000000208166817117217 1:0.57670838 2:2.901679 3:3.750561 4:458 5:458 6:458 7:2 8:3 9:5 10:13.769985 11:12.199244 12:11.57621 13:7226 14:6323 15:5184 #
-0.0010000000000000000208166817117217 1:44.446709 2:43.738319 3:34.239437 4:423 5:423 6:423 7:46 8:44 9:35 10:15.510736 11:15.277688 12:11.368391 13:8118 14:7360 15:5870 #
0.0010000000000000000208166817117217 1:18.476707 2:16.718321 3:18.479439 4:28 5:28 6:28 7:20 8:18 9:20 10:7.3608947 11:5.1698308 12:1.6071502 13:9159 14:8337 15:7292 #
-0.0010000000000000000208166817117217 1:26.898987 2:18.994131 3:17.036524 4:255 5:255 6:255 7:27 8:16 9:9 10:16.785707 11:18.699139 12:31.211517 13:1019 14:473 15:386 #
-0.0010000000000000000208166817117217 1:18.106874 2:15.593482 3:24.353552 4:243 5:243 6:243 7:18 8:16 9:25 10:12.956818 11:15.388062 12:17.222698 13:5575 14:4458 15:3583 #
-0.0010000000000000000208166817117217 1:29.849474 2:29.138714 3:22.352596 4:326 5:326 6:326 7:33 8:32 9:29 10:21.741106 11:27.097229 12:25.344326 13:8123 14:6107 15:3911 #
0.0010000000000000000208166817117217 1:42.067726 2:42.978802 3:31.949987 4:180 5:180 6:180 7:41 8:42 9:27 10:33.847984 11:34.369057 12:30.081381 13:3172 14:2908 15:3216 #
0.0010000000000000000208166817117217 1:22.973291 2:20.47168 3:21.530561 4:246 5:246 6:246 7:23 8:21 9:22 10:27.091633 11:26.601847 12:23.175636 13:5205 14:4530 15:3396 #
0.0010000000000000000208166817117217 1:20.260286 2:12.775464 3:10.298756 4:6 5:6 6:6 7:15 8:15 9:6 10:25.934336 11:17.400562 12:15.29969 13:8486 14:4760 15:1953 #
-0.0010000000000000000208166817117217 1:20.238987 2:4.0041308 3:17.123476 4:491 5:491 6:491 7:21 8:2 9:24 10:15.477439 11:16.808424 12:27.455498 13:1313 14:1102 15:1693 #
-0.0010000000000000000208166817117217 1:16.693127 2:12.796518 3:15.556448 4:259 5:259 6:259 7:20 8:16 9:20 10:5.5184631 11:6.4394283 12:10.281346 13:7687 14:6271 15:5757 #
-0.0010000000000000000208166817117217 1:33.850285 2:23.585464 3:11.601245 4:12 5:12 6:12 7:28 8:24 9:16 10:23.818228 11:12.205533 12:7.6313953 13:10022 14:6178 15:3752 #
-0.0010000000000000000208166817117217 1:2.9532917 2:1.6616789 3:1.289439 4:10 5:10 6:10 7:3 8:4 9:5 10:3.5077021 11:4.4212956 12:3.9891601 13:7263 14:6539 15:5566 #
-0.0010000000000000000208166817117217 1:66.977722 2:67.4888 3:44.559986 4:47 5:47 6:47 7:66 8:66 9:40 10:34.462009 11:35.08419 12:30.988514 13:2146 14:1888 15:2565 #
-0.0010000000000000000208166817117217 1:34.283127 2:36.316517 3:46.666447 4:186 5:186 6:186 7:35 8:36 9:46 10:12.481333 11:13.719588 12:18.263472 13:7556 14:6452 15:6234 #
0.0010000000000000000208166817117217 1:0.66312587 2:0.11651808 3:1.3464479 4:225 5:225 6:225 7:1 8:1 9:5 10:10.889035 11:10.817453 12:11.049766 13:6180 14:4997 15:4600 #
0.0010000000000000000208166817117217 1:47.679691 2:33.18074 3:9.2059689 4:118 5:118 6:118 7:27 8:33 9:9 10:58.87669 11:61.545357 12:6.2148166 13:8845 14:5998 15:892 #
-0.0010000000000000000208166817117217 1:12.026459 2:7.5446095 3:5.415143 4:8 5:8 6:8 7:15 8:18 9:6 10:11.681814 11:16.668493 12:20.276369 13:4517 14:2532 15:1817 #
-0.0010000000000000000208166817117217 1:31.829475 2:32.068714 3:21.522596 4:66 5:66 6:66 7:35 8:35 9:28 10:23.007118 11:28.360012 12:26.66864 13:8071 14:6091 15:3751 #
0.0010000000000000000208166817117217 1:4.4068742 2:7.8534818 3:9.2935524 4:218 5:218 6:218 7:3 8:8 9:6 10:6.6747704 11:6.3026147 12:6.9619122 13:6010 14:4718 15:4204 #
0.0010000000000000000208166817117217 1:1.9902858 2:0.93453598 3:7.7287555 4:319 5:319 6:319 7:1 8:4 9:7 10:9.0106306 11:4.0816889 12:6.401794 13:9156 14:5547 15:3289 #
-0.0010000000000000000208166817117217 1:5.5202856 2:17.414536 3:22.998756 4:203 5:203 6:203 7:1 8:15 9:18 10:28.849453 11:19.600086 12:15.460415 13:8378 14:4075 15:1738 #
-0.0010000000000000000208166817117217 1:39.716709 2:40.058323 3:40.729439 4:417 5:417 6:417 7:39 8:39 9:37 10:8.5364447 11:6.292644 12:3.4857213 13:9603 14:8876 15:7746 #
-0.0010000000000000000208166817117217 1:28.419474 2:29.328714 3:18.592596 4:320 5:320 6:320 7:34 8:34 9:27 10:20.351456 11:22.639936 12:19.206093 13:8325 14:6387 15:3995 #
-0.0010000000000000000208166817117217 1:14.878987 2:9.1658688 3:46.993477 4:485 5:485 6:485 7:16 8:12 9:54 10:15.666711 11:16.14784 12:25.880901 13:1565 14:1577 15:2733 #
-0.0010000000000000000208166817117217 1:29.259474 2:29.148714 3:17.052595 4:340 5:340 6:340 7:31 8:31 9:24 10:21.941999 11:26.781261 12:24.937965 13:8315 14:6375 15:3918 #
-0.0010000000000000000208166817117217 1:21.010525 2:15.401286 3:10.127404 4:167 5:167 6:167 7:18 8:14 9:6 10:21.998734 11:27.550716 12:26.929468 13:6050 14:4233 15:2535 #
-0.0010000000000000000208166817117217 1:58.179474 2:70.418716 3:72.962593 4:133 5:133 6:133 7:62 8:74 9:81 10:21.463537 11:26.816431 12:25.023899 13:10045 14:8497 15:6629 #
0.0010000000000000000208166817117217 1:11.160525 2:15.771286 3:19.557404 4:382 5:382 6:382 7:9 8:13 9:13 10:21.322363 11:25.627602 12:25.258162 13:6709 14:4540 15:2463 #
-0.0010000000000000000208166817117217 1:0.48101237 2:4.364131 3:2.9365234 4:241 5:241 6:241 7:0 8:2 9:5 10:15.843366 11:18.083834 12:30.656231 13:2099 14:1117 15:987 #
-0.0010000000000000000208166817117217 1:21.630526 2:19.591286 3:21.447405 4:175 5:175 6:175 7:20 8:19 9:17 10:23.902193 11:28.963207 12:27.257008 13:6125 14:4237 15:2205 #
0.0010000000000000000208166817117217 1:23.740526 2:18.481287 3:18.297403 4:23 5:23 6:23 7:22 8:17 9:11 10:20.408792 11:25.36227 12:23.739105 13:7668 14:5828 15:3922 #
0.0010000000000000000208166817117217 1:42.107727 2:45.2188 3:32.399986 4:70 5:70 6:70 7:42 8:44 9:29 10:33.884285 11:34.314919 12:29.348902 13:3219 14:2893 15:3239 #
-0.0010000000000000000208166817117217 1:3.2489877 2:3.374131 3:1.3465234 4:12 5:12 6:12 7:4 8:1 9:6 10:15.653354 11:17.628994 12:30.138227 13:1984 14:1193 15:1056 #
-0.0010000000000000000208166817117217 1:30.210285 2:21.765465 3:10.111244 4:169 5:169 6:169 7:25 8:25 9:16 10:21.763922 11:16.429754 12:8.5046921 13:10145 14:6366 15:4080 #
0.0010000000000000000208166817117217 1:17.583292 2:20.681679 3:19.290562 4:21 5:21 6:21 7:15 8:20 9:19 10:19.244221 11:18.072842 12:15.300546 13:5920 14:5059 15:3979 #
0.0010000000000000000208166817117217 1:36.90329 2:32.801678 3:27.750561 4:249 5:249 6:249 7:37 8:33 9:26 10:21.596926 11:19.124685 12:16.629417 13:5124 14:4461 15:3601 #
-0.0010000000000000000208166817117217 1:24.036709 2:19.928322 3:12.679439 4:443 5:443 6:443 7:18 8:15 9:9 10:15.738393 11:14.754499 12:13.636541 13:7465 14:6491 15:5103 #
-0.0010000000000000000208166817117217 1:17.076708 2:14.438321 3:2.979439 4:436 5:436 6:436 7:20 8:17 9:7 10:8.9769707 11:6.8291373 12:5.134932 13:7601 14:6756 15:5189 #
-0.0010000000000000000208166817117217 1:11.788987 2:7.304131 3:3.0465233 4:481 5:481 6:481 7:12 8:4 9:5 10:16.558931 11:18.019299 12:30.270935 13:1564 14:933 15:883 #
-0.0010000000000000000208166817117217 1:16.396458 2:6.8346095 3:3.0251431 4:232 5:232 6:232 7:18 8:17 9:8 10:12.197811 11:17.482576 12:18.788763 13:4136 14:2084 15:1879 #
-0.0010000000000000000208166817117217 1:58.259476 2:68.238716 3:68.502594 4:84 5:84 6:84 7:63 8:72 9:77 10:21.956636 11:27.353388 12:24.916279 13:10572 14:8941 15:7002 #
0.0010000000000000000208166817117217 1:2.1067083 2:3.171679 3:5.0805612 4:462 5:462 6:462 7:0 8:5 9:6 10:25.203161 11:21.254705 12:18.019949 13:6336 14:5307 15:4125 #
-0.0010000000000000000208166817117217 1:1.1389877 2:1.4958692 3:7.9134765 4:234 5:234 6:234 7:2 8:4 9:16 10:15.573838 11:17.353254 12:29.22673 13:2067 14:1329 15:1344 #
-0.0010000000000000000208166817117217 1:2.6010125 2:2.8241308 3:5.5665236 4:240 5:240 6:240 7:2 8:1 9:0 10:14.828668 11:16.148716 12:26.516369 13:2218 14:1171 15:857 #
0.0010000000000000000208166817117217 1:40.969692 2:29.710739 3:6.9959693 4:303 5:303 6:303 7:22 8:30 9:7 10:55.335247 11:58.488785 12:5.116425 13:8473 14:5727 15:998 #
0.0010000000000000000208166817117217 1:90.019867 2:67.293823 3:33.576359 4:0 5:0 6:0 7:95 8:55 9:28 10:37.947811 11:45.662613 12:23.542297 13:3639 14:1995 15:1625 #
0.0010000000000000000208166817117217 1:46.637726 2:47.818802 3:34.899986 4:66 5:66 6:66 7:45 8:46 9:29 10:32.613216 11:33.359093 12:27.412991 13:3037 14:2775 15:3137 #
-0.0010000000000000000208166817117217 1:27.119474 2:36.358715 3:40.722595 4:91 5:91 6:91 7:31 8:40 9:48 10:23.837206 11:29.1901 12:27.312294 13:7977 14:6321 15:4520 #
-0.0010000000000000000208166817117217 1:39.290287 2:60.255463 3:30.671244 4:281 5:281 6:281 7:40 8:67 9:42 10:17.116659 11:3.4438391 12:2.2190759 13:10125 14:7523 15:4485 #
-0.0010000000000000000208166817117217 1:10.341012 2:10.895869 3:19.063477 4:474 5:474 6:474 7:10 8:14 9:30 10:4.8928814 11:10.34936 12:21.830029 13:2630 14:1787 15:1912 #
-0.0010000000000000000208166817117217 1:24.408987 2:19.924131 3:19.076523 4:5 5:5 6:5 7:25 8:17 9:11 10:16.00716 11:18.120173 12:31.309551 13:1132 14:479 15:324 #
-0.0010000000000000000208166817117217 1:13.273292 2:10.431679 3:4.4205608 4:492 5:492 6:492 7:18 8:14 9:7 10:9.2938557 11:7.8801031 12:6.5069818 13:6931 14:6311 15:5439 #
-0.0010000000000000000208166817117217 1:10.251013 2:0.95586914 3:0.25652343 4:458 5:458 6:458 7:10 8:3 9:8 10:15.377294 11:16.974667 12:29.967857 13:2482 14:1300 15:1117 #
0.0010000000000000000208166817117217 1:85.739868 2:63.283821 3:32.906357 4:0 5:0 6:0 7:90 8:49 9:26 10:35.708782 11:48.811016 12:26.872961 13:3466 14:1866 15:1355 #
-0.0010000000000000000208166817117217 1:13.613292 2:15.901679 3:10.580561 4:239 5:239 6:239 7:12 8:14 9:9 10:15.230354 11:12.241047 12:8.5808725 13:7242 14:6419 15:5518 #
-0.0010000000000000000208166817117217 1:14.379714 2:21.614536 3:19.268755 4:357 5:357 6:357 7:21 8:20 9:14 10:33.358746 11:26.249611 12:18.269068 13:7183 14:3372 15:1482 #
-0.0010000000000000000208166817117217 1:58.277725 2:58.9888 3:38.479988 4:198 5:198 6:198 7:58 8:58 9:35 10:34.245804 11:34.743149 12:30.702433 13:2473 14:2221 15:2846 #
-0.0010000000000000000208166817117217 1:13.436459 2:17.394609 3:15.864857 4:420 5:420 6:420 7:16 8:27 9:23 10:4.3087707 11:7.6925702 12:6.5053306 13:4054 14:2552 15:2533 #
-0.0010000000000000000208166817117217 1:1.6789876 2:5.5841308 3:12.316524 4:1 5:1 6:1 7:2 8:3 9:5 10:16.235388 11:18.187273 12:31.082315 13:1939 14:965 15:534 #
-0.0010000000000000000208166817117217 1:50.849869 2:53.303822 3:29.346357 4:11 5:11 6:11 7:47 8:36 9:20 10:46.536556 11:50.917633 12:27.835197 13:5048 14:2318 15:1710 #
0.0010000000000000000208166817117217 1:1.2667084 2:6.2916789 3:9.7905607 4:461 5:461 6:461 7:1 8:8 9:11 10:22.354216 11:19.665478 12:16.943159 13:6480 14:5462 15:4241 #
-0.0010000000000000000208166817117217 1:30.286709 2:20.60832 3:19.289438 4:220 5:220 6:220 7:30 8:19 9:18 10:17.696459 11:13.804582 12:9.4116144 13:7827 14:6711 15:5624 #
0.0010000000000000000208166817117217 1:1.6297143 2:11.084536 3:17.358755 4:24 5:24 6:24 7:9 8:9 9:12 10:23.329762 11:16.514364 12:12.136993 13:8939 14:5032 15:2747 #
0.0010000000000000000208166817117217 1:40.650288 2:52.055466 3:47.821243 4:281 5:281 6:281 7:44 8:50 9:50 10:15.108386 11:20.919306 12:21.22014 13:12042 14:9466 15:7432 #
0.0010000000000000000208166817117217 1:38.220287 2:40.905464 3:34.091244 4:281 5:281 6:281 7:32 8:43 9:39 10:20.450886 11:0.24848481 12:4.6969075 13:11497 14:8381 15:6061 #
-0.0010000000000000000208166817117217 1:29.783291 2:15.371679 3:10.400561 4:245 5:245 6:245 7:32 8:18 9:9 10:16.827505 11:14.949244 12:10.984137 13:5820 14:5578 15:4623 #
-0.0010000000000000000208166817117217 1:1.0389876 2:3.6041307 3:3.5865235 4:240 5:240 6:240 7:2 8:1 9:5 10:15.707846 11:17.992243 12:28.306183 13:2047 14:1114 15:898 #
-0.0010000000000000000208166817117217 1:28.688988 2:18.224131 3:16.726524 4:3 5:3 6:3 7:29 8:16 9:9 10:16.38822 11:18.382332 12:31.222347 13:951 14:519 15:337 #
0.0010000000000000000208166817117217 1:0.75329161 2:4.0016789 3:8.9405613 4:460 5:460 6:460 7:2 8:5 9:10 10:22.370598 11:20.520823 12:16.415236 13:6692 14:5812 15:4519 #
0.0010000000000000000208166817117217 1:37.26329 2:38.40168 3:24.770561 4:495 5:495 6:495 7:33 8:33 9:22 10:2.1844792 11:0.090513393 12:1.7603309 13:6551 14:5710 15:5063 #
-0.0010000000000000000208166817117217 1:0.2432916 2:6.8316789 3:5.950561 4:227 5:227 6:227 7:0 8:7 9:6 10:23.479637 11:21.555571 12:16.565607 13:6340 14:5323 15:4329 #
-0.0010000000000000000208166817117217 1:14.790286 2:24.345465 3:23.591244 4:157 5:157 6:157 7:6 8:22 9:26 10:17.507113 11:9.2236824 12:1.58267 13:10682 14:7567 15:5493 #
-0.0010000000000000000208166817117217 1:41.260284 2:26.875463 3:13.931245 4:165 5:165 6:165 7:32 8:25 9:18 10:27.785948 11:16.855545 12:9.3473101 13:10207 14:6206 15:3804 #
-0.0010000000000000000208166817117217 1:24.890526 2:35.201286 3:36.857403 4:0 5:0 6:0 7:22 8:33 9:31 10:24.138147 11:27.972816 12:28.529245 13:5885 14:3496 15:1427 #
-0.0010000000000000000208166817117217 1:47.926708 2:49.988319 3:51.509438 4:410 5:410 6:410 7:47 8:50 9:54 10:4.1962514 11:1.3600724 12:2.1749041 13:10445 14:9601 15:8537 #
-0.0010000000000000000208166817117217 1:10.853292 2:8.7516794 3:5.0705609 4:3 5:3 6:3 7:9 8:8 9:2 10:7.8799176 11:7.4914393 12:3.8438675 13:7025 14:6366 15:5384 #
0.0010000000000000000208166817117217 1:26.162275 2:11.481199 3:32.639988 4:122 5:122 6:122 7:26 8:12 9:28 10:34.55011 11:35.078979 12:30.90449 13:5462 14:4707 15:3016 #
0.0010000000000000000208166817117217 1:47.039715 2:47.924538 3:16.118755 4:400 5:400 6:400 7:60 8:50 9:9 10:24.504618 11:19.958073 12:16.502203 13:6033 14:2344 15:1487 #
0.0010000000000000000208166817117217 1:21.873291 2:16.401678 3:13.510561 4:242 5:242 6:242 7:24 8:19 9:16 10:24.567049 11:22.811289 12:19.832474 13:5653 14:5074 15:4079 #
0.0010000000000000000208166817117217 1:33.950287 2:42.775463 3:51.901245 4:281 5:281 6:281 7:39 8:40 9:63 10:10.570985 11:7.8344498 12:7.0844464 13:11185 14:8579 15:7050 #
-0.0010000000000000000208166817117217 1:53.156708 2:47.948322 3:45.569439 4:407 5:407 6:407 7:53 8:47 9:47 10:16.201347 11:13.024043 12:10.228066 13:9180 14:8227 15:7015 #
-0.0010000000000000000208166817117217 1:15.853541 2:17.67539 3:14.215143 4:1 5:1 6:1 7:14 8:9 9:2 10:13.748325 11:23.255354 12:25.837065 13:2253 14:251 15:256 #
-0.0010000000000000000208166817117217 1:40.686707 2:37.358322 3:34.909439 4:427 5:427 6:427 7:40 8:37 9:33 10:16.140741 11:13.210184 12:8.3530788 13:9146 14:8271 15:7130 #
0.0010000000000000000208166817117217 1:33.693291 2:25.441679 3:30.07056 4:252 5:252 6:252 7:36 8:27 9:31 10:19.475491 11:17.956259 12:13.17543 13:5889 14:5386 15:4096 #
-0.0010000000000000000208166817117217 1:18.860525 2:23.821287 3:34.247402 4:0 5:0 6:0 7:15 8:20 9:27 10:23.498249 11:28.654736 12:28.434341 13:5819 14:3673 15:1273 #
0.0010000000000000000208166817117217 1:40.560287 2:27.635464 3:40.221245 4:281 5:281 6:281 7:34 8:28 9:43 10:21.43988 11:6.4600511 12:9.6721354 13:12465 14:8639 15:6982 #
-0.0010000000000000000208166817117217 1:34.598988 2:16.754131 3:14.656524 4:504 5:504 6:504 7:35 8:14 9:7 10:17.058792 11:18.893444 12:31.445471 13:710 14:530 15:412 #
-0.0010000000000000000208166817117217 1:25.331013 2:8.9058695 3:1.7265234 4:230 5:230 6:230 7:23 8:9 9:5 10:10.282527 11:13.099986 12:27.446325 13:3068 14:1620 15:1027 #
-0.0010000000000000000208166817117217 1:7.4431257 2:13.036518 3:20.306448 4:215 5:215 6:215 7:7 8:12 9:20 10:14.168041 11:15.237122 12:17.709358 13:6557 14:5611 15:5254 #
0.0010000000000000000208166817117217 1:31.769691 2:21.290739 3:8.3859692 4:9 5:9 6:9 7:11 8:20 9:8 10:58.519989 11:62.250313 12:7.6732392 13:8140 14:5446 15:843 #
-0.0010000000000000000208166817117217 1:22.670286 2:31.565464 3:32.401245 4:148 5:148 6:148 7:15 8:34 9:41 10:21.867294 11:11.735056 12:1.8288809 13:9783 14:6615 15:4783 #
-0.0010000000000000000208166817117217 1:7.1367083 2:6.4583211 3:3.489439 4:3 5:3 6:3 7:13 8:9 9:5 10:14.045069 11:13.275286 12:14.311719 13:6973 14:6230 15:5025 #
0.0010000000000000000208166817117217 1:12.031013 2:4.2058692 3:1.3634765 4:232 5:232 6:232 7:12 8:7 9:9 10:13.938695 11:16.66993 12:28.993387 13:2558 14:1376 15:1152 #
-0.0010000000000000000208166817117217 1:53.106709 2:51.268322 3:44.729439 4:411 5:411 6:411 7:51 8:50 9:44 10:18.501856 11:16.782255 12:13.593524 13:9100 14:8308 15:6909 #
-0.0010000000000000000208166817117217 1:10.888988 2:32.275867 3:95.673477 4:479 5:479 6:479 7:11 8:34 9:101 10:14.940535 11:13.583794 12:21.237307 13:1810 14:2517 15:4698 #
0.0010000000000000000208166817117217 1:52.289715 2:47.494537 3:16.788755 4:2 5:2 6:2 7:59 8:46 9:11 10:30.250542 11:24.724396 12:17.35428 13:5637 14:2285 15:1322 #
-0.0010000000000000000208166817117217 1:28.546709 2:24.558321 3:24.159439 4:19 5:19 6:19 7:28 8:25 9:23 10:2.2455676 11:1.4861497 12:1.10583 13:8251 14:7373 15:6224 #
-0.0010000000000000000208166817117217 1:13.918987 2:36.475868 3:104.76347 4:484 5:484 6:484 7:15 8:40 9:115 10:15.238845 11:13.8099 12:21.175629 13:1668 14:2666 15:4929 #
0.0010000000000000000208166817117217 1:93.919868 2:68.88382 3:35.196358 4:0 5:0 6:0 7:91 8:55 9:29 10:46.273422 11:48.631653 12:25.492815 13:3957 14:2384 15:1819 #
-0.0010000000000000000208166817117217 1:12.503291 2:7.461679 3:3.9005611 4:12 5:12 6:12 7:14 8:8 9:5 10:9.6230564 11:8.4068832 12:8.1420946 13:6180 14:5644 15:4666 #
0.0010000000000000000208166817117217 1:8.2132912 2:10.941679 3:11.020561 4:16 5:16 6:16 7:11 8:14 9:13 10:23.03759 11:20.253124 12:17.15893 13:6105 14:5228 15:4121 #
0.0010000000000000000208166817117217 1:37.100285 2:59.805466 3:63.931244 4:281 5:281 6:281 7:47 8:71 9:73 10:7.9046803 11:28.105827 12:31.245682 13:10729 14:8692 15:6842 #
0.0010000000000000000208166817117217 1:67.49987 2:57.933819 3:32.206356 4:0 5:0 6:0 7:50 8:39 9:24 10:31.482426 11:45.59037 12:26.996254 13:4359 14:2209 15:1474 #
-0.0010000000000000000208166817117217 1:25.956709 2:24.088322 3:16.079439 4:431 5:431 6:431 7:26 8:23 9:16 10:23.639694 11:20.854446 12:17.573797 13:7640 14:6781 15:5457 #
0.0010000000000000000208166817117217 1:19.001013 2:3.5458691 3:0.82652342 4:233 5:233 6:233 7:18 8:6 9:7 10:15.902815 11:17.77532 12:29.984791 13:2762 14:1338 15:996 #
-0.0010000000000000000208166817117217 1:19.029715 2:20.114536 3:11.858755 4:206 5:206 6:206 7:27 8:20 9:7 10:35.952518 11:28.018213 12:18.644184 13:6937 14:3377 15:1717 #
0.0010000000000000000208166817117217 1:15.663292 2:11.891679 3:13.620561 4:465 5:465 6:465 7:13 8:11 9:14 10:16.548359 11:14.335491 12:12.899115 13:6428 14:5770 15:4595 #
-0.0010000000000000000208166817117217 1:30.910526 2:40.671288 3:39.577404 4:387 5:387 6:387 7:29 8:39 9:34 10:25.7826 11:31.050329 12:29.766111 13:5552 14:3205 15:1260 #
-0.0010000000000000000208166817117217 1:54.577724 2:55.2188 3:34.949986 4:331 5:331 6:331 7:54 8:54 9:30 10:34.449162 11:34.895767 12:30.887966 13:2646 14:2400 15:3027 #
-0.0010000000000000000208166817117217 1:56.597725 2:58.298801 3:34.589985 4:55 5:55 6:55 7:56 8:57 9:30 10:33.869049 11:34.64558 12:30.499525 13:2624 14:2320 15:3059 #
-0.0010000000000000000208166817117217 1:7.3567085 2:7.848321 3:7.549439 4:455 5:455 6:455 7:5 8:6 9:6 10:9.4313517 11:7.0656967 12:3.9907012 13:8216 14:7494 15:6404 #
0.0010000000000000000208166817117217 1:10.041013 2:1.5458691 3:1.4165235 4:235 5:235 6:235 7:9 8:3 9:6 10:12.531549 11:14.843814 12:27.933008 13:2593 14:1430 15:1141 #
0.0010000000000000000208166817117217 1:51.883293 2:43.481678 3:26.790562 4:266 5:266 6:266 7:54 8:44 9:25 10:20.015663 11:19.154203 12:16.306221 13:4418 14:3960 15:3515 #
-0.0010000000000000000208166817117217 1:49.047726 2:51.788799 3:33.569988 4:332 5:332 6:332 7:48 8:50 9:29 10:34.421219 11:34.925735 12:30.92034 13:2885 14:2573 15:3118 #
-0.0010000000000000000208166817117217 1:11.576709 2:12.258321 3:11.359439 4:3 5:3 6:3 7:12 8:12 9:10 10:17.578772 11:16.866058 12:17.102457 13:6699 14:5951 15:4764 #
-0.0010000000000000000208166817117217 1:35.517727 2:42.028801 3:22.799986 4:70 5:70 6:70 7:35 8:41 9:18 10:34.409595 11:35.030277 12:30.400524 13:3269 14:2815 15:3391 #
-0.0010000000000000000208166817117217 1:42.426456 2:67.804611 3:79.834854 4:406 5:406 6:406 7:44 8:79 9:94 10:10.876062 11:14.575494 12:16.205427 13:6031 14:5187 15:5522 #
-0.0010000000000000000208166817117217 1:42.733292 2:33.591679 3:33.64056 4:41 5:41 6:41 7:49 8:37 9:38 10:9.3541422 11:10.94819 12:10.129026 13:5423 14:5022 15:3968 #
0.0010000000000000000208166817117217 1:24.173292 2:21.331678 3:26.370562 4:26 5:26 6:26 7:24 8:21 9:25 10:20.707697 11:18.75178 12:14.707695 13:6334 14:5673 15:4403 #
-0.0010000000000000000208166817117217 1:42.610287 2:28.105465 3:14.291245 4:159 5:159 6:159 7:34 8:28 9:21 10:30.318918 11:20.877302 12:10.529547 13:10183 14:6051 15:3597 #
-0.0010000000000000000208166817117217 1:46.110287 2:63.665462 3:65.911247 4:281 5:281 6:281 7:39 8:64 9:73 10:29.218639 11:20.404182 12:11.31851 13:10715 14:7938 15:6080 #
0.0010000000000000000208166817117217 1:8.2667084 2:9.018321 3:11.629439 4:218 5:218 6:218 7:9 8:7 9:9 10:10.892035 11:9.4546452 12:5.7294955 13:8476 14:7829 15:6846 #
0.0010000000000000000208166817117217 1:2.2032917 2:1.351679 3:3.480561 4:7 5:7 6:7 7:3 8:2 9:4 10:18.531631 11:18.037756 12:17.299482 13:6435 14:5748 15:4491 #
0.0010000000000000000208166817117217 1:31.970285 2:33.715466 3:15.401244 4:281 5:281 6:281 7:34 8:48 9:29 10:9.4512625 11:8.5475702 12:3.2136204 13:11162 14:8077 15:5163 #
-0.0010000000000000000208166817117217 1:0.15898763 2:1.3458692 3:6.4634767 4:234 5:234 6:234 7:1 8:4 9:14 10:14.987172 11:17.166407 12:29.547466 13:2046 14:1281 15:1242 #
0.0010000000000000000208166817117217 1:26.946875 2:22.263481 3:17.023552 4:40 5:40 6:40 7:30 8:25 9:18 10:2.2743256 11:5.7468109 12:11.585405 13:5745 14:4769 15:4368 #
0.0010000000000000000208166817117217 1:32.610287 2:28.815464 3:26.071245 4:281 5:281 6:281 7:38 8:35 9:33 10:7.6604981 11:4.2016687 12:5.5697732 13:11349 14:7983 15:5769 #
-0.0010000000000000000208166817117217 1:33.260525 2:44.881287 3:40.457405 4:7 5:7 6:7 7:31 8:43 9:35 10:26.394733 11:30.776897 12:31.311069 13:5037 14:2635 15:840 #
-0.0010000000000000000208166817117217 1:2.3310125 2:32.275867 3:58.663475 4:467 5:467 6:467 7:2 8:35 9:67 10:14.661533 11:15.592053 12:26.797825 13:2225 14:2468 15:3194 #
0.0010000000000000000208166817117217 1:28.072275 2:30.6912 3:20.330013 4:143 5:143 6:143 7:29 8:32 9:25 10:34.014935 11:35.118664 12:29.870033 13:5644 14:5465 15:5030 #
-0.0010000000000000000208166817117217 1:53.639473 2:67.528717 3:71.332596 4:301 5:301 6:301 7:55 8:69 9:77 10:26.331493 11:31.660105 12:28.802128 13:8861 14:7379 15:5586 #
0.0010000000000000000208166817117217 1:30.453291 2:25.251678 3:12.470561 4:471 5:471 6:471 7:35 8:29 9:17 10:5.1752443 11:7.0692816 12:7.2941022 13:6030 14:5420 15:4795 #
0.0010000000000000000208166817117217 1:6.5167084 2:0.21832104 3:1.800561 4:453 5:453 6:453 7:5 8:2 9:3 10:26.137522 11:23.849365 12:20.595413 13:6472 14:5509 15:4367 #
0.0010000000000000000208166817117217 1:94.06987 2:69.283821 3:35.736359 4:0 5:0 6:0 7:90 8:54 9:28 10:48.776024 11:50.730415 12:28.109358 13:3735 14:2142 15:1767 #
0.0010000000000000000208166817117217 1:9.3210125 2:1.5158691 3:0.87652344 4:236 5:236 6:236 7:9 8:4 9:7 10:14.933874 11:17.011499 12:29.43535 13:2540 14:1416 15:1139 #
-0.0010000000000000000208166817117217 1:94.330132 2:121.89618 3:74.203644 4:257 5:257 6:257 7:104 8:145 9:90 10:44.97224 11:41.379459 12:17.546112 13:12478 14:11360 15:8096 #
-0.0010000000000000000208166817117217 1:14.608988 2:17.19413 3:18.336523 4:483 5:483 6:483 7:15 8:14 9:10 10:16.078979 11:17.675972 12:30.359779 13:1509 14:592 15:379 #
0.0010000000000000000208166817117217 1:29.513292 2:26.621679 3:25.510561 4:501 5:501 6:501 7:32 8:28 9:26 10:22.133072 11:19.80267 12:16.868309 13:5557 14:4921 15:3872 #
-0.0010000000000000000208166817117217 1:64.309471 2:76.548714 3:79.112595 4:318 5:318 6:318 7:67 8:79 9:86 10:19.018593 11:24.371487 12:22.588263 13:9861 14:8313 15:6439 #
-0.0010000000000000000208166817117217 1:43.800285 2:44.375465 3:36.731243 4:303 5:303 6:303 7:34 8:47 9:42 10:29.709103 11:20.173149 12:9.9130058 13:9744 14:6270 15:4046 #
0.0010000000000000000208166817117217 1:66.959869 2:56.553822 3:25.796358 4:0 5:0 6:0 7:68 8:44 9:19 10:36.550011 11:41.849972 12:19.355122 13:5503 14:3345 15:2890 #
-0.0010000000000000000208166817117217 1:10.066709 2:11.478321 3:14.559439 4:454 5:454 6:454 7:8 8:12 9:14 10:2.0390463 11:0.94332314 12:3.59357 13:7845 14:7177 15:6168 #
-0.0010000000000000000208166817117217 1:32.901012 2:15.065869 3:0.32347655 4:441 5:441 6:441 7:31 8:17 9:8 10:12.440611 11:14.831049 12:28.764107 13:3366 14:1883 15:1159 #
-0.0010000000000000000208166817117217 1:46.010525 2:58.571285 3:45.207405 4:0 5:0 6:0 7:43 8:55 9:39 10:27.669699 11:32.762421 12:32.594887 13:4507 14:2083 15:520 #
-0.0010000000000000000208166817117217 1:2.3932917 2:0.11167896 3:1.579439 4:479 5:479 6:479 7:12 8:9 9:4 10:4.1197963 11:1.0988545 12:0.28657728 13:7278 14:6652 15:5593 #
0.0010000000000000000208166817117217 1:33.663292 2:28.531679 3:25.420561 4:514 5:514 6:514 7:45 8:38 9:33 10:3.0952151 11:3.9873443 12:5.3113208 13:7188 14:6631 15:5629 #
-0.0010000000000000000208166817117217 1:56.057724 2:51.288799 3:34.609985 4:58 5:58 6:58 7:56 8:51 9:31 10:33.459488 11:34.009941 12:29.7209 13:2767 14:2732 15:3269 #
-0.0010000000000000000208166817117217 1:59.379475 2:72.378716 3:77.722595 4:130 5:130 6:130 7:60 8:73 9:83 10:21.492081 11:27.270548 12:24.534889 13:9825 14:8304 15:6501 #
-0.0010000000000000000208166817117217 1:10.003291 2:10.061679 3:4.6905608 4:484 5:484 6:484 7:15 8:15 9:8 10:11.041795 11:9.6886864 12:6.5639796 13:7002 14:6253 15:5343 #
-0.0010000000000000000208166817117217 1:46.429691 2:56.940739 3:15.084031 4:98 5:98 6:98 7:27 8:55 9:12 10:52.308754 11:55.026463 12:6.4577341 13:9706 14:7751 15:2705 #
0.0010000000000000000208166817117217 1:58.289867 2:55.353821 3:32.136356 4:228 5:228 6:228 7:54 8:39 9:23 10:50.168034 11:51.780468 12:27.664022 13:4803 14:2439 15:1744 #
-0.0010000000000000000208166817117217 1:13.609715 2:22.794537 3:18.178755 4:1 5:1 6:1 7:19 8:21 9:12 10:31.413273 11:26.461506 12:18.516565 13:7193 14:3310 15:1505 #
-0.0010000000000000000208166817117217 1:35.573292 2:31.921679 3:23.690561 4:257 5:257 6:257 7:39 8:32 9:25 10:4.0609961 11:3.6747181 12:2.5484719 13:6168 14:5526 15:4679 #
0.0010000000000000000208166817117217 1:28.971012 2:14.82587 3:7.5534763 4:459 5:459 6:459 7:30 8:20 9:18 10:3.8838661 11:8.8150492 12:24.261721 13:3223 14:1870 15:1470 #
0.0010000000000000000208166817117217 1:20.512276 2:24.401199 3:15.730013 4:385 5:385 6:385 7:22 8:26 9:21 10:33.632732 11:33.491753 12:29.588274 13:5366 14:5300 15:4866 #
0.0010000000000000000208166817117217 1:20.633291 2:21.191679 3:22.590561 4:229 5:229 6:229 7:24 8:23 9:25 10:10.03657 11:9.3572989 12:7.0268931 13:6636 14:5887 15:4708 #
-0.0010000000000000000208166817117217 1:22.353292 2:23.621679 3:20.07056 4:258 5:258 6:258 7:27 8:30 9:21 10:1.3183535 11:2.5305369 12:2.466589 13:6252 14:5445 15:4436 #
-0.0010000000000000000208166817117217 1:19.549692 2:10.639261 3:4.255969 4:3 5:3 6:3 7:1 8:13 9:4 10:55.729504 11:59.193981 12:6.9038777 13:7751 14:4377 15:973 #
-0.0010000000000000000208166817117217 1:0.87670839 2:1.158321 3:4.0994391 4:459 5:459 6:459 7:1 8:2 9:1 10:7.6851821 11:6.0202885 12:1.4032779 13:7945 14:7218 15:6136 #
0.0010000000000000000208166817117217 1:34.523293 2:30.251678 3:18.520561 4:252 5:252 6:252 7:36 8:31 9:17 10:26.462698 11:24.53998 12:18.090199 13:4829 14:4237 15:3568 #
0.0010000000000000000208166817117217 1:92.909866 2:66.283821 3:32.336357 4:0 5:0 6:0 7:91 8:53 9:26 10:41.920998 11:46.630829 12:23.227049 13:3779 14:2387 15:1941 #
-0.0010000000000000000208166817117217 1:43.290527 2:47.911285 3:35.307404 4:206 5:206 6:206 7:42 8:50 9:34 10:20.124521 11:22.0233 12:20.716427 13:5635 14:3496 15:1864 #
-0.0010000000000000000208166817117217 1:66.799477 2:78.418716 3:81.492599 4:123 5:123 6:123 7:69 8:81 9:87 10:19.979614 11:25.856083 12:23.875868 13:10233 14:8604 15:6776 #
-0.0010000000000000000208166817117217 1:11.038987 2:7.8741307 3:4.9765234 4:481 5:481 6:481 7:12 8:6 9:3 10:15.86705 11:17.687252 12:29.031309 13:1640 14:959 15:892 #
0.0010000000000000000208166817117217 1:5.9567084 2:8.2383213 3:6.449439 4:366 5:366 6:366 7:11 8:10 9:7 10:8.2953825 11:11.756925 12:10.448869 13:9063 14:8365 15:7212 #
-0.0010000000000000000208166817117217 1:16.618988 2:12.774131 3:11.556523 4:486 5:486 6:486 7:17 8:10 9:3 10:17.022583 11:18.857237 12:31.217976 13:1383 14:699 15:540 #
0.0010000000000000000208166817117217 1:6.6332917 2:10.661679 3:9.0805607 4:467 5:467 6:467 7:8 8:12 9:10 10:28.137976 11:25.722912 12:23.156206 13:5850 14:4927 15:3854 #
0.0010000000000000000208166817117217 1:29.913292 2:24.31168 3:25.790562 4:31 5:31 6:31 7:32 8:26 9:27 10:22.881187 11:20.541132 12:17.756311 13:5778 14:5247 15:4042 #
-0.0010000000000000000208166817117217 1:15.560526 2:20.451286 3:30.047403 4:174 5:174 6:174 7:14 8:19 9:25 10:27.762684 11:33.137558 12:31.205318 13:5774 14:3621 15:1317 #
-0.0010000000000000000208166817117217 1:6.2567086 2:0.38832104 3:11.150561 4:15 5:15 6:15 7:4 8:2 9:13 10:19.239956 11:17.457277 12:14.269291 13:6966 14:5943 15:4421 #
0.0010000000000000000208166817117217 1:14.121013 2:2.635869 3:2.7765234 4:234 5:234 6:234 7:13 8:5 9:5 10:15.822597 11:17.805317 12:30.291317 13:2573 14:1334 15:941 #
-0.0010000000000000000208166817117217 1:46.169716 2:39.664536 3:17.568756 4:219 5:219 6:219 7:54 8:38 9:12 10:31.60762 11:25.108393 12:16.546955 13:6198 14:2890 15:1704 #
0.0010000000000000000208166817117217 1:4.8032918 2:2.431679 3:4.4605608 4:228 5:228 6:228 7:8 8:4 9:6 10:11.892852 11:9.5695534 12:7.2978873 13:8011 14:7433 15:6137 #
-0.0010000000000000000208166817117217 1:33.711014 2:19.525869 3:7.8534765 4:16 5:16 6:16 7:29 8:19 9:15 10:2.1982753 11:8.801837 12:25.933781 13:3758 14:2482 15:1899 #
-0.0010000000000000000208166817117217 1:18.919714 2:15.264536 3:5.5887556 4:204 5:204 6:204 7:27 8:15 9:0 10:36.124722 11:27.549932 12:19.114143 13:6716 14:3359 15:1810 #
0.0010000000000000000208166817117217 1:41.773293 2:35.791679 3:21.160561 4:260 5:260 6:260 7:44 8:36 9:21 10:26.996212 11:25.39641 12:22.638342 13:4556 14:4019 15:3391 #
0.0010000000000000000208166817117217 1:45.250286 2:55.795464 3:69.451248 4:281 5:281 6:281 7:40 8:58 9:73 10:23.602737 11:25.150681 12:31.339417 13:11221 14:8911 15:7273 #
-0.0010000000000000000208166817117217 1:29.680286 2:11.715464 3:9.4087553 4:177 5:177 6:177 7:20 8:11 9:5 10:28.691048 11:20.152914 12:13.38209 13:9901 14:5744 15:2984 #
0.0010000000000000000208166817117217 1:31.391012 2:19.87587 3:3.1834764 4:215 5:215 6:215 7:34 8:24 9:12 10:10.134992 11:13.450675 12:26.916088 13:3287 14:2055 15:1272 #
0.0010000000000000000208166817117217 1:11.611012 2:0.76586914 3:2.3065233 4:459 5:459 6:459 7:11 8:3 9:5 10:15.347561 11:16.682514 12:27.627094 13:2527 14:1285 15:1037 #
-0.0010000000000000000208166817117217 1:4.9468741 2:9.9334822 3:12.243552 4:231 5:231 6:231 7:6 8:11 9:13 10:14.63693 11:16.421049 12:17.601114 13:6060 14:4655 15:4107 #
0.0010000000000000000208166817117217 1:30.50103 2:32.202133 3:32.465904 4:221 5:221 6:221 7:23 8:24 9:25 10:8.6421633 11:5.858788 12:4.7485147 13:9338 14:9226 15:9110 #
0.0010000000000000000208166817117217 1:22.821012 2:14.815869 3:11.543476 4:14 5:14 6:14 7:26 8:22 9:19 10:2.8672678 11:7.4744802 12:22.636791 13:3789 14:2613 15:2315 #
0.0010000000000000000208166817117217 1:4.2868743 2:3.2834818 3:1.426448 4:4 5:4 6:4 7:4 8:3 9:1 10:13.249764 11:14.565733 12:17.739046 13:6154 14:5012 15:4604 #
0.0010000000000000000208166817117217 1:19.551012 2:11.875869 3:1.5365235 4:234 5:234 6:234 7:16 8:11 9:3 10:4.5298429 11:8.1329651 12:22.21224 13:3154 14:2086 15:1383 #
0.00023095474664583393042960324237356 1:10.841012 2:2.9658692 3:0.73347658 4:235 5:235 6:235 7:10 8:6 9:8 10:14.563618 11:16.803663 12:28.030586 13:2451 14:1328 15:1094 #
-0.0010000000000000000208166817117217 1:13.420286 2:16.395464 3:13.351245 4:168 5:168 6:168 7:8 8:17 9:13 10:18.666086 11:10.999775 12:5.2640018 13:10067 14:6368 15:4198 #
0.0010000000000000000208166817117217 1:9.333292 2:8.2416792 3:16.580561 4:476 5:476 6:476 7:10 8:10 9:19 10:10.495195 11:9.1089334 12:4.2602057 13:6976 14:6227 15:4830 #
-0.0010000000000000000208166817117217 1:13.313292 2:14.861679 3:9.4605608 4:244 5:244 6:244 7:14 8:16 9:7 10:14.123444 11:12.534909 12:12.773861 13:6500 14:5678 15:4698 #
0.0010000000000000000208166817117217 1:28.211031 2:34.652134 3:42.035904 4:20 5:20 6:20 7:3 8:4 9:5 10:24.525127 11:28.182997 12:31.825283 13:9318 14:9093 15:8696 #
-0.0010000000000000000208166817117217 1:13.546874 2:11.013482 3:14.413552 4:226 5:226 6:226 7:13 8:11 9:15 10:11.256967 11:13.870633 12:18.94943 13:5772 14:4700 15:4036 #
0.0010000000000000000208166817117217 1:2.3489692 2:1.7121344 3:6.6759057 4:250 5:250 6:250 7:9 8:9 9:9 10:4.3417521 11:7.2337308 12:10.155849 13:8342 14:8143 15:7846 #
0.0010000000000000000208166817117217 1:14.301012 2:3.1858692 3:1.8665234 4:234 5:234 6:234 7:13 8:6 9:6 10:15.164645 11:17.680784 12:29.697994 13:2694 14:1428 15:1112 #
0.0010000000000000000208166817117217 1:5.5167084 2:1.1283211 3:2.470561 4:458 5:458 6:458 7:3 8:1 9:4 10:21.498278 11:16.826944 12:12.297752 13:6797 14:5875 15:4628 #
0.0010000000000000000208166817117217 1:22.653292 2:22.741678 3:20.450562 4:488 5:488 6:488 7:25 8:24 9:22 10:19.191797 11:16.792374 12:11.38738 13:6167 14:5392 15:4352 #
0.0010000000000000000208166817117217 1:15.860308 2:103.89926 3:0.69596922 4:1 5:1 6:1 7:38 8:106 9:0 10:59.00502 11:65.032074 12:8.7264071 13:6326 14:849 15:881 #
-0.0010000000000000000208166817117217 1:17.493292 2:17.501678 3:12.570561 4:500 5:500 6:500 7:25 8:24 9:17 10:3.2702739 11:4.4568825 12:5.7640347 13:7423 14:6674 15:5734 #
-0.0010000000000000000208166817117217 1:5.6032915 2:1.701679 3:7.1305609 4:229 5:229 6:229 7:8 8:4 9:9 10:22.637426 11:21.659672 12:18.688334 13:5978 14:5373 15:4040 #
0.0010000000000000000208166817117217 1:0.31329161 2:0.17167896 3:5.449439 4:235 5:235 6:235 7:5 8:5 9:2 10:14.549905 11:12.160839 12:6.6603541 13:7510 14:6789 15:5913 #
-0.0010000000000000000208166817117217 1:15.759714 2:15.484536 3:8.7587557 4:7 5:7 6:7 7:24 8:13 9:3 10:33.253418 11:25.17955 12:18.927856 13:6690 14:3184 15:1588 #
-0.0010000000000000000208166817117217 1:1.3032916 2:0.35167897 3:1.109439 4:455 5:455 6:455 7:4 8:3 9:6 10:11.041702 11:8.9049864 12:4.8995709 13:7172 14:6446 15:5344 #
0.0010000000000000000208166817117217 1:28.219692 2:1.5707386 3:0.32596925 4:8 5:8 6:8 7:7 8:1 9:2 10:54.049103 11:56.758755 12:1.1040981 13:9156 14:5919 15:2279 #
-0.0010000000000000000208166817117217 1:42.516457 2:64.644608 3:73.274857 4:87 5:87 6:87 7:46 8:74 9:85 10:6.9370761 11:13.735385 12:16.71784 13:6009 14:5054 15:5105 #
0.0010000000000000000208166817117217 1:16.089693 2:20.029261 3:4.3359694 4:5 5:5 6:5 7:5 8:20 9:4 10:56.448357 11:56.003269 12:6.3242121 13:7814 14:4217 15:1156 #
-0.0010000000000000000208166817117217 1:52.000286 2:38.565464 3:13.081244 4:281 5:281 6:281 7:44 8:38 9:17 10:33.225548 11:22.391489 12:10.774414 13:10252 14:6335 15:3406 #
-0.0010000000000000000208166817117217 1:51.850525 2:51.371284 3:37.127403 4:0 5:0 6:0 7:50 8:50 9:33 10:23.137827 11:28.276569 12:26.281664 13:5341 14:3377 15:1856 #
-0.0010000000000000000208166817117217 1:14.276709 2:9.9483213 3:3.1105609 4:8 5:8 6:8 7:14 8:9 9:3 10:21.376003 11:18.860071 12:14.880102 13:7200 14:6309 15:4689 #
0.0010000000000000000208166817117217 1:7.9467082 2:7.4083209 3:8.4294386 4:36 5:36 6:36 7:12 8:12 9:13 10:12.177313 11:12.59382 12:10.590215 13:8764 14:7962 15:6910 #
0.0010000000000000000208166817117217 1:93.259872 2:66.693817 3:34.546356 4:0 5:0 6:0 7:95 8:54 9:28 10:37.739571 11:47.825783 12:26.22093 13:3437 14:1825 15:1353 #
0.0010000000000000000208166817117217 1:19.891012 2:9.5658693 3:5.0734768 4:226 5:226 6:226 7:19 8:12 9:13 10:14.687278 11:16.422729 12:28.244225 13:2909 14:1665 15:1343 #
0.0010000000000000000208166817117217 1:20.703291 2:21.671679 3:21.120562 4:21 5:21 6:21 7:21 8:21 9:20 10:24.011576 11:22.01685 12:18.818129 13:6030 14:5245 15:4128 #
-0.0010000000000000000208166817117217 1:10.360286 2:3.5745361 3:2.2487555 4:336 5:336 6:336 7:1 8:4 9:2 10:30.247248 11:22.172213 12:11.614564 13:9127 14:5026 15:3120 #
-0.0010000000000000000208166817117217 1:48.920525 2:60.261288 3:41.067406 4:0 5:0 6:0 7:43 8:56 9:40 10:13.678982 11:19.615498 12:26.256121 13:5312 14:2901 15:1312 #
-0.0010000000000000000208166817117217 1:25.800285 2:18.455463 3:14.641245 4:165 5:165 6:165 7:18 8:19 9:20 10:22.861992 11:16.629494 12:8.9026957 13:9867 14:6087 15:4033 #
-0.0010000000000000000208166817117217 1:11.506874 2:9.5334816 3:6.733552 4:6 5:6 6:6 7:11 8:7 9:7 10:3.3560817 11:3.7926509 12:7.8130493 13:5787 14:4657 15:4332 #
0.0010000000000000000208166817117217 1:27.920286 2:44.275463 3:50.371246 4:281 5:281 6:281 7:25 8:29 9:39 10:10.22066 11:25.855152 12:29.503517 13:11235 14:8933 15:6776 #
-0.0010000000000000000208166817117217 1:37.24329 2:40.781677 3:40.600559 4:468 5:468 6:468 7:34 8:36 9:35 10:0.75092888 11:0.056530472 12:0.88586664 13:6142 14:5276 15:4110 #
0.0010000000000000000208166817117217 1:92.199867 2:67.403824 3:34.966358 4:0 5:0 6:0 7:92 8:52 9:28 10:41.600468 11:49.483562 12:27.798124 13:3391 14:1724 15:1291 #
-0.0010000000000000000208166817117217 1:44.391014 2:25.095869 3:3.7734766 4:436 5:436 6:436 7:42 8:26 9:11 10:8.7280893 11:10.933982 12:25.44581 13:3861 14:2337 15:1356 #
-0.0010000000000000000208166817117217 1:67.009476 2:80.208717 3:85.122597 4:280 5:280 6:280 7:71 8:83 9:93 10:22.799431 11:28.16493 12:26.589445 13:9488 14:7984 15:6136 #
-0.0010000000000000000208166817117217 1:34.01329 2:34.361679 3:30.490561 4:109 5:109 6:109 7:30 8:29 9:28 10:4.3187432 11:7.6196079 12:9.1883345 13:6521 14:5774 15:4680 #
-0.0010000000000000000208166817117217 1:32.543293 2:34.111679 3:33.600559 4:297 5:297 6:297 7:34 8:36 9:31 10:1.987891 11:3.7905259 12:7.98206 13:7095 14:6237 15:5084 #
0.0010000000000000000208166817117217 1:35.870285 2:24.675465 3:33.571243 4:281 5:281 6:281 7:32 8:32 9:38 10:16.824528 11:15.173911 12:15.278475 13:11517 14:8466 15:6602 #
-0.0010000000000000000208166817117217 1:13.898988 2:10.564131 3:3.3465235 4:11 5:11 6:11 7:14 8:8 9:5 10:15.979857 11:17.93943 12:30.994673 13:1540 14:828 15:889 #
0.0010000000000000000208166817117217 1:35.726707 2:36.318321 3:29.499439 4:182 5:182 6:182 7:40 8:42 9:32 10:6.4526453 11:4.1572032 12:4.3997149 13:8965 14:8225 15:6808 #
0.0010000000000000000208166817117217 1:44.663292 2:38.521679 3:28.89056 4:270 5:270 6:270 7:52 8:45 9:33 10:13.490268 11:12.165486 12:11.143363 13:5635 14:5062 15:4298 #
0.0010000000000000000208166817117217 1:3.9597142 2:15.065464 3:18.251244 4:281 5:281 6:281 7:16 8:8 9:2 10:8.164361 11:24.902746 12:31.088671 13:10330 14:7634 15:6102 #
-0.0010000000000000000208166817117217 1:4.0368743 2:3.2434819 3:3.3035519 4:235 5:235 6:235 7:5 8:4 9:4 10:10.553308 11:13.231732 12:15.692457 13:6085 14:4992 15:4448 #
-0.0010000000000000000208166817117217 1:29.950285 2:23.455463 3:14.241244 4:281 5:281 6:281 7:23 8:25 9:20 10:19.425501 11:12.579559 12:2.4726443 13:11296 14:7564 15:5198 #
0.0010000000000000000208166817117217 1:35.253292 2:35.261681 3:29.31056 4:265 5:265 6:265 7:39 8:40 9:31 10:19.20722 11:17.581781 12:15.715449 13:5461 14:4629 15:3734 #
-0.0010000000000000000208166817117217 1:13.960286 2:12.545464 3:15.241244 4:32 5:32 6:32 7:5 8:14 9:22 10:36.08794 11:27.33881 12:18.940416 13:7842 14:4269 15:2362 #
-0.0010000000000000000208166817117217 1:72.687729 2:69.398804 3:48.849987 4:317 5:317 6:317 7:72 8:68 9:44 10:35.653801 11:36.151146 12:31.840872 13:1842 14:1734 15:2335 #
-0.0010000000000000000208166817117217 1:4.0189877 2:8.4341307 3:13.396523 4:1 5:1 6:1 7:4 8:6 9:5 10:16.062965 11:17.793613 12:30.689919 13:1909 14:909 15:548 #
-0.0010000000000000000208166817117217 1:16.833292 2:12.631679 3:6.8905611 4:490 5:490 6:490 7:26 8:22 9:13 10:2.9694626 11:2.4827623 12:1.0566896 13:7174 14:6528 15:5590 #
0.0010000000000000000208166817117217 1:29.723291 2:27.901678 3:22.440561 4:253 5:253 6:253 7:33 8:30 9:24 10:16.773455 11:16.577841 12:14.06282 13:5978 14:5334 15:4472 #
0.0010000000000000000208166817117217 1:34.001011 2:15.015869 3:1.7865235 4:12 5:12 6:12 7:33 8:18 9:6 10:11.60958 11:14.633341 12:28.662468 13:3631 14:2123 15:1297 #
0.0010000000000000000208166817117217 1:32.359474 2:29.578714 3:22.542597 4:323 5:323 6:323 7:36 8:33 9:29 10:18.453793 11:22.685863 12:20.93568 13:9593 14:7485 15:5227 #
0.0010000000000000000208166817117217 1:28.510286 2:6.105464 3:19.568756 4:3 5:3 6:3 7:22 8:8 9:11 10:30.005436 11:21.241379 12:14.589306 13:9124 14:4792 15:1863 #
0.0010000000000000000208166817117217 1:15.123292 2:18.991678 3:17.110561 4:226 5:226 6:226 7:12 8:17 9:14 10:16.719818 11:13.343875 12:8.2307234 13:5887 14:4976 15:3865 #
0.0010000000000000000208166817117217 1:26.180525 2:30.891287 3:25.627403 4:382 5:382 6:382 7:25 8:31 9:20 10:19.919378 11:23.711823 12:23.604733 13:6190 14:4045 15:2290 #
-0.0010000000000000000208166817117217 1:95.230133 2:141.00618 3:97.11364 4:257 5:257 6:257 7:103 8:160 9:112 10:49.398472 11:47.538597 12:20.300117 13:10668 14:10073 15:7091 #
-0.0010000000000000000208166817117217 1:12.510285 2:3.135464 3:0.97875553 4:338 5:338 6:338 7:5 8:4 9:5 10:30.954979 11:23.083548 12:13.589257 13:9376 14:5509 15:3361 #
0.0010000000000000000208166817117217 1:23.939474 2:15.178714 3:6.0825963 4:336 5:336 6:336 7:26 8:17 9:11 10:17.803516 11:23.281305 12:20.458004 13:9434 14:7138 15:4857 #
-0.0010000000000000000208166817117217 1:22.279715 2:22.604536 3:14.718756 4:3 5:3 6:3 7:29 8:20 9:10 10:23.995424 11:18.427179 12:12.269468 13:7954 14:4326 15:2694 #
0.0010000000000000000208166817117217 1:17.649475 2:9.4887133 3:2.347404 4:341 5:341 6:341 7:20 8:11 9:3 10:18.935783 11:24.140959 12:22.992937 13:9584 14:7297 15:4973 #
0.0010000000000000000208166817117217 1:49.511032 2:55.862133 3:60.235905 4:479 5:479 6:479 7:54 8:63 9:73 10:17.612715 11:17.041096 12:18.050558 13:9162 14:8944 15:8667 #
-0.0010000000000000000208166817117217 1:13.101012 2:0.19586915 3:8.2765236 4:457 5:457 6:457 7:13 8:3 9:1 10:15.076483 11:17.316687 12:30.235657 13:2514 14:1192 15:713 #
-0.0010000000000000000208166817117217 1:11.038987 2:15.064131 3:16.816523 4:480 5:480 6:480 7:11 8:12 9:9 10:16.140213 11:18.062027 12:30.80456 13:1595 14:640 15:426 #
-0.0010000000000000000208166817117217 1:95.380135 2:149.54617 3:113.37364 4:257 5:257 6:257 7:102 8:172 9:130 10:49.692238 11:45.625057 12:16.265944 13:10235 14:9749 15:7079 #
-0.0010000000000000000208166817117217 1:12.330286 2:6.1354642 3:0.30124447 4:333 5:333 6:333 7:6 8:10 9:9 10:30.839249 11:22.360006 12:10.993937 13:8916 14:5105 15:2897 #
-0.0010000000000000000208166817117217 1:42.860287 2:32.895466 3:13.721245 4:281 5:281 6:281 7:34 8:31 9:18 10:28.109669 11:17.876669 12:9.2060404 13:10368 14:6548 15:3866 #
0.0010000000000000000208166817117217 1:44.560287 2:23.305464 3:19.931244 4:281 5:281 6:281 7:35 8:23 9:15 10:26.064339 11:20.955002 12:22.314461 13:10612 14:6863 15:4706 #
0.0010000000000000000208166817117217 1:22.880285 2:8.2254639 3:39.021244 4:281 5:281 6:281 7:22 8:3 9:36 10:9.2415619 11:5.284842 12:15.899831 13:11392 14:7177 15:6108 #
-0.0010000000000000000208166817117217 1:34.120285 2:28.175465 3:29.471245 4:317 5:317 6:317 7:25 8:28 9:35 10:33.326466 11:24.252573 12:17.016771 13:8831 14:5127 15:3212 #
-0.0010000000000000000208166817117217 1:61.359692 2:114.97074 3:9.8959694 4:18 5:18 6:18 7:41 8:117 9:14 10:58.326656 11:57.496132 12:1.3806548 13:9545 14:9042 15:979 #
-0.0010000000000000000208166817117217 1:22.590286 2:24.255465 3:32.741245 4:165 5:165 6:165 7:14 8:25 9:39 10:31.692379 11:24.036283 12:16.57007 13:8247 14:4796 15:3133 #
-0.0010000000000000000208166817117217 1:11.520286 2:4.7645359 3:11.308756 4:195 5:195 6:195 7:2 8:5 9:6 10:33.077194 11:24.858841 12:16.169735 13:8966 14:4813 15:2628 #
-0.0010000000000000000208166817117217 1:37.150288 2:66.125465 3:47.901245 4:281 5:281 6:281 7:29 8:67 9:51 10:19.246962 11:6.4782596 12:1.529978 13:10291 14:7971 15:5365 #
-0.0010000000000000000208166817117217 1:5.1967082 2:1.8683211 3:2.710561 4:448 5:448 6:448 7:7 8:4 9:1 10:16.763929 11:14.141334 12:11.099508 13:7181 14:6282 15:5022 #
0.0010000000000000000208166817117217 1:4.4135418 2:5.2053905 3:7.0951433 4:4 5:4 6:4 7:3 8:5 9:4 10:9.7059746 11:16.00094 12:20.642235 13:3227 14:1485 15:1198 #
-0.0010000000000000000208166817117217 1:8.1602859 2:7.374536 3:8.188756 4:347 5:347 6:347 7:2 8:8 9:3 10:30.370253 11:21.853168 12:13.069441 13:8861 14:4850 15:2780 #
0.0010000000000000000208166817117217 1:1.4032916 2:0.20832105 3:0.79943901 4:206 5:206 6:206 7:1 8:3 9:4 10:8.2951078 11:5.2744145 12:2.1439049 13:8077 14:7459 15:6285 #
0.0010000000000000000208166817117217 1:33.920525 2:37.951286 3:28.927404 4:389 5:389 6:389 7:33 8:37 9:24 10:18.442476 11:24.415567 12:24.205942 13:6609 14:4535 15:2811 #
-0.0010000000000000000208166817117217 1:34.896709 2:33.948322 3:31.899439 4:398 5:398 6:398 7:41 8:45 9:43 10:2.7998788 11:4.2800512 12:5.9380722 13:9427 14:8612 15:7405 #
-0.0010000000000000000208166817117217 1:13.420286 2:4.8254638 3:5.4012446 4:326 5:326 6:326 7:5 8:4 9:10 10:27.181929 11:18.551556 12:8.7354126 13:9925 14:6113 15:4133 #
-0.0010000000000000000208166817117217 1:20.123125 2:22.076519 3:26.056448 4:208 5:208 6:208 7:19 8:21 9:27 10:8.9614191 11:10.009575 12:11.326874 13:7039 14:5964 15:5514 #
0.0010000000000000000208166817117217 1:7.2332916 2:7.4516788 3:10.680561 4:20 5:20 6:20 7:11 8:10 9:12 10:17.495369 11:15.741395 12:14.797566 13:6367 14:5616 15:4335 #
-0.0010000000000000000208166817117217 1:14.630286 2:7.0554638 3:10.771244 4:321 5:321 6:321 7:6 8:8 9:17 10:29.808146 11:21.117413 12:9.2537737 13:8887 14:5031 15:3272 #
-0.0010000000000000000208166817117217 1:2.2032917 2:2.0916789 3:2.3605609 4:220 5:220 6:220 7:1 8:3 9:3 10:10.199427 11:7.4629269 12:4.1494255 13:7674 14:6940 15:5837 #
-0.0010000000000000000208166817117217 1:34.918987 2:17.074131 3:15.056523 4:505 5:505 6:505 7:36 8:15 9:7 10:16.899441 11:18.734093 12:31.326756 13:703 14:523 15:411 #
-0.0010000000000000000208166817117217 1:0.80329162 2:2.191679 3:2.6194389 4:490 5:490 6:490 7:4 8:6 9:3 10:6.7462797 11:5.9780474 12:5.9385214 13:7565 14:6777 15:5851 #
0.0010000000000000000208166817117217 1:10.699715 2:11.995464 3:25.381245 4:281 5:281 6:281 7:18 8:17 9:31 10:13.993989 11:18.890879 12:11.71734 13:10743 14:7866 15:6312 #
0.0010000000000000000208166817117217 1:30.060526 2:28.641287 3:26.587404 4:384 5:384 6:384 7:28 8:26 9:21 10:18.796461 11:22.188528 12:22.640356 13:6155 14:4211 15:2274 #
0.0010000000000000000208166817117217 1:3.2931259 2:6.4865179 3:7.6264482 4:2 5:2 6:2 7:2 8:5 9:7 10:12.038065 11:13.05722 12:15.706668 13:6485 14:5431 15:4997 #
-0.0010000000000000000208166817117217 1:3.5689876 2:4.1941309 3:8.2065239 4:474 5:474 6:474 7:4 8:2 9:1 10:15.822116 11:18.215616 12:29.997793 13:1913 14:1083 15:730 #
0.0010000000000000000208166817117217 1:19.030285 2:9.5154638 3:29.731245 4:281 5:281 6:281 7:19 8:11 9:41 10:4.276629 11:4.2542238 12:5.86587 13:10762 14:7026 15:5594 #
0.0010000000000000000208166817117217 1:15.496709 2:15.148321 3:12.399439 4:439 5:439 6:439 7:15 8:15 9:11 10:10.657125 11:7.2363672 12:1.3597215 13:8665 14:7887 15:6713 #
-0.0010000000000000000208166817117217 1:5.4967084 2:2.608321 3:1.670561 4:225 5:225 6:225 7:5 8:2 9:2 10:16.133303 11:13.048715 12:10.676636 13:6864 14:6003 15:4762 #
0.0010000000000000000208166817117217 1:40.409473 2:37.458714 3:32.102596 4:308 5:308 6:308 7:42 8:40 9:39 10:20.026522 11:23.814503 12:22.375135 13:9624 14:7545 15:5388 #
-0.0010000000000000000208166817117217 1:18.923292 2:18.691679 3:16.32056 4:5 5:5 6:5 7:18 8:19 9:14 10:0.30283934 11:2.5123529 12:6.9146566 13:7514 14:6742 15:5708 #
-0.0010000000000000000208166817117217 1:34.040287 2:20.075464 3:13.171245 4:171 5:171 6:171 7:24 8:20 9:19 10:32.352234 11:24.042236 12:11.848598 13:9479 14:5454 15:3180 #
0.0010000000000000000208166817117217 1:53.559692 2:52.73074 3:2.3559692 4:18 5:18 6:18 7:34 8:52 9:3 10:53.293289 11:56.360794 12:0.33041304 13:9347 14:7020 15:1430 #
-0.0010000000000000000208166817117217 1:28.510525 2:39.871284 3:40.577404 4:380 5:380 6:380 7:25 8:37 9:35 10:26.477386 11:31.834827 12:30.618862 13:5549 14:3150 15:1105 #
-0.0010000000000000000208166817117217 1:13.829474 2:11.258714 3:7.2725959 4:125 5:125 6:125 7:18 8:14 9:14 10:18.868635 11:22.738861 12:20.269182 13:7563 14:5486 15:3426 #
-0.0010000000000000000208166817117217 1:9.9622746 2:8.0511999 3:3.5800133 4:129 5:129 6:129 7:10 8:9 9:8 10:33.449425 11:33.882214 12:29.582005 13:5156 14:4882 15:4597 #
-0.0010000000000000000208166817117217 1:70.700523 2:73.391289 3:43.307404 4:0 5:0 6:0 7:68 8:71 9:41 10:22.986094 11:29.009209 12:29.125214 13:4194 14:2080 15:1006 #
0.0010000000000000000208166817117217 1:12.920131 2:8.0761795 3:12.143642 4:340 5:340 6:340 7:18 8:26 9:22 10:45.406769 11:45.69627 12:21.400909 13:8555 14:6016 15:4566 #
-0.0010000000000000000208166817117217 1:58.689693 2:104.71074 3:41.204029 4:284 5:284 6:284 7:40 8:107 9:40 10:54.564777 11:55.468056 12:0.84359938 13:9781 14:9272 15:3397 #
0.0010000000000000000208166817117217 1:34.253292 2:33.571678 3:25.830561 4:486 5:486 6:486 7:31 8:32 9:24 10:15.063525 11:12.214317 12:9.3565474 13:5698 14:4954 15:4107 #
-0.0010000000000000000208166817117217 1:11.066875 2:7.2934818 3:6.4935522 4:235 5:235 6:235 7:10 8:8 9:7 10:7.99892 11:8.3990211 12:11.371236 13:6493 14:5478 15:4946 #
0.0010000000000000000208166817117217 1:11.763291 2:8.6416788 3:9.9805613 4:237 5:237 6:237 7:11 8:9 9:10 10:6.057466 11:7.4674067 12:5.1708498 13:6903 14:6278 15:5115 #
0.0010000000000000000208166817117217 1:1.4867084 2:6.3116789 3:10.030561 4:243 5:243 6:243 7:2 8:13 9:13 10:22.571123 11:18.175646 12:16.971569 13:6357 14:5303 15:4086 #
-0.0010000000000000000208166817117217 1:19.813292 2:18.961679 3:18.840561 4:26 5:26 6:26 7:26 8:25 9:24 10:9.2896004 11:5.3088861 12:0.88694334 13:7133 14:6458 15:5295 #
-0.0010000000000000000208166817117217 1:17.406708 2:14.758321 3:9.6794386 4:11 5:11 6:11 7:18 8:15 9:11 10:17.537737 11:14.967061 12:12.557314 13:7615 14:6733 15:5431 #
-0.0010000000000000000208166817117217 1:36.538986 2:17.994131 3:13.526524 4:255 5:255 6:255 7:37 8:15 9:6 10:16.526062 11:18.550241 12:31.040405 13:677 14:509 15:495 #
-0.0010000000000000000208166817117217 1:26.393126 2:32.136517 3:38.956448 4:200 5:200 6:200 7:25 8:31 9:38 10:8.4279613 11:7.3887362 12:10.958549 13:7567 14:6653 15:6284 #
0.0010000000000000000208166817117217 1:69.649872 2:50.483822 3:14.746358 4:427 5:427 6:427 7:64 8:33 9:4 10:46.356552 11:44.656254 12:21.401501 13:4995 14:3218 15:2978 #
-0.0010000000000000000208166817117217 1:28.533291 2:29.06168 3:27.520561 4:502 5:502 6:502 7:38 8:37 9:32 10:8.4557619 11:7.9532466 12:8.740221 13:5702 14:4932 15:3881 #
0.0010000000000000000208166817117217 1:15.590286 2:13.105464 3:12.881245 4:281 5:281 6:281 7:2 8:1 9:4 10:12.518885 11:19.840647 12:12.768888 13:10342 14:7100 15:4952 #
0.0010000000000000000208166817117217 1:35.491013 2:19.96587 3:7.6534767 4:24 5:24 6:24 7:39 8:25 9:16 10:7.9765882 11:12.452954 12:27.933884 13:3533 14:2125 15:1459 #
-0.0010000000000000000208166817117217 1:27.378988 2:18.654131 3:16.326523 4:497 5:497 6:497 7:28 8:16 9:8 10:16.379694 11:18.351622 12:31.138796 13:1040 14:509 15:373 #
0.0010000000000000000208166817117217 1:27.983292 2:23.751678 3:16.370562 4:31 5:31 6:31 7:33 8:28 9:18 10:13.201757 11:11.614196 12:9.4757109 13:5779 14:5192 15:4271 #
-0.0010000000000000000208166817117217 1:3.8967085 2:1.2183211 3:2.740561 4:224 5:224 6:224 7:2 8:0 9:4 10:23.384375 11:20.929636 12:17.505793 13:6527 14:5644 15:4413 #
0.0010000000000000000208166817117217 1:4.4632916 2:7.6316791 3:12.240561 4:456 5:456 6:456 7:1 8:5 9:10 10:19.875498 11:17.77352 12:13.874321 13:6221 14:5328 15:4059 #
-0.0010000000000000000208166817117217 1:37.610287 2:23.335464 3:0.77875555 4:315 5:315 6:315 7:31 8:22 9:5 10:26.516508 11:15.334679 12:11.883544 13:9437 14:5364 15:2612 #
-0.0010000000000000000208166817117217 1:21.693291 2:22.071678 3:24.89056 4:20 5:20 6:20 7:23 8:23 9:20 10:1.8893089 11:1.2581455 12:3.907176 13:6704 14:5904 15:4651 #
-0.0010000000000000000208166817117217 1:7.7067084 2:8.1083212 3:7.259439 4:444 5:444 6:444 7:10 8:10 9:7 10:17.907501 11:15.473861 12:15.206761 13:7192 14:6473 15:5333 #
0.0010000000000000000208166817117217 1:88.949867 2:65.293823 3:32.796356 4:0 5:0 6:0 7:91 8:53 9:28 10:34.612156 11:43.60685 12:22.382685 13:3614 14:2063 15:1417 #
0.0010000000000000000208166817117217 1:9.0532913 2:10.091679 3:13.170561 4:483 5:483 6:483 7:12 8:15 9:19 10:5.3456516 11:0.26792637 12:4.8678131 13:6932 14:6119 15:4915 #
0.0010000000000000000208166817117217 1:39.40329 2:28.06168 3:28.100561 4:39 5:39 6:39 7:46 8:34 9:33 10:15.791849 11:16.790228 12:14.145835 13:4898 14:4512 15:3416 #
0.0010000000000000000208166817117217 1:8.9194746 2:1.5087137 3:8.0874043 4:48 5:48 6:48 7:12 8:5 9:1 10:22.426062 11:27.511759 12:26.224558 13:7838 14:5533 15:3232 #
-0.0010000000000000000208166817117217 1:1.6867085 2:4.538321 3:0.309439 4:7 5:7 6:7 7:4 8:0 9:3 10:16.113352 11:14.466907 12:12.698295 13:6757 14:6121 15:4829 #
0.0010000000000000000208166817117217 1:29.393291 2:27.281679 3:18.200562 4:19 5:19 6:19 7:31 8:28 9:19 10:25.277657 11:24.550083 12:22.005619 13:5076 14:4366 15:3668 #
-0.0010000000000000000208166817117217 1:43.54987 2:47.323822 3:27.536358 4:404 5:404 6:404 7:37 8:30 9:18 10:51.049828 11:52.50259 12:28.319284 13:5225 14:2628 15:1916 #
-0.0010000000000000000208166817117217 1:36.843292 2:36.231678 3:30.040562 4:8 5:8 6:8 7:37 8:35 9:29 10:8.4722166 11:9.6078005 12:9.8007736 13:5069 14:4315 15:3434 #
-0.0010000000000000000208166817117217 1:58.089474 2:68.348717 3:69.742599 4:303 5:303 6:303 7:59 8:70 9:75 10:17.948906 11:22.97555 12:20.495972 13:8805 14:7187 15:5301 #
-0.0010000000000000000208166817117217 1:26.063292 2:27.731678 3:31.110561 4:253 5:253 6:253 7:26 8:28 9:30 10:23.797335 11:21.804176 12:17.34761 13:5269 14:4466 15:3240 #
0.0010000000000000000208166817117217 1:17.657724 2:16.618801 3:7.9899869 4:359 5:359 6:359 7:17 8:15 9:3 10:33.15398 11:33.413368 12:30.137478 13:4206 14:3973 15:4171 #
0.0010000000000000000208166817117217 1:3.8767085 2:0.19167896 3:5.1194391 4:462 5:462 6:462 7:0 8:3 9:1 10:23.757694 11:21.330948 12:15.441984 13:6381 14:5488 15:4636 #
-0.0010000000000000000208166817117217 1:25.679474 2:21.438713 3:12.822597 4:126 5:126 6:126 7:28 8:23 9:19 10:21.997082 11:27.5865 12:25.672945 13:7994 14:5873 15:3594 #
-0.0010000000000000000208166817117217 1:78.870529 2:77.631287 3:46.087402 4:0 5:0 6:0 7:77 8:76 9:42 10:26.619055 11:31.971949 12:31.446634 13:3587 14:1643 15:645 #
0.0010000000000000000208166817117217 1:26.483292 2:24.071678 3:24.98056 4:490 5:490 6:490 7:30 8:26 9:26 10:16.775331 11:15.431287 12:11.240103 13:6044 14:5365 15:4260 #
0.0010000000000000000208166817117217 1:31.993292 2:26.741678 3:19.990561 4:25 5:25 6:25 7:33 8:27 9:21 10:16.567646 11:16.232893 12:16.224291 13:5653 14:5062 15:4243 #
-0.0010000000000000000208166817117217 1:61.889713 2:48.884537 3:16.738756 4:232 5:232 6:232 7:69 8:47 9:10 10:34.803722 11:27.666882 12:19.07972 13:5227 14:2208 15:1432 #
0.0010000000000000000208166817117217 1:81.239868 2:63.033821 3:31.276358 4:0 5:0 6:0 7:83 8:52 9:26 10:36.563488 11:43.464378 12:22.284382 13:4364 14:2538 15:1948 #
-0.0010000000000000000208166817117217 1:35.476707 2:31.418322 3:16.01944 4:409 5:409 6:409 7:39 8:36 9:20 10:6.722827 11:4.5821991 12:2.1649342 13:8610 14:7684 15:6004 #
0.0010000000000000000208166817117217 1:42.34013 2:40.226181 3:26.983643 4:319 5:319 6:319 7:49 8:59 9:36 10:40.362747 11:41.627251 12:19.464296 13:9631 14:7108 15:5216 #
-0.0010000000000000000208166817117217 1:97.682274 2:102.4112 3:106.04002 4:0 5:0 6:0 7:138 8:144 9:149 10:22.984615 11:23.947264 12:26.182423 13:9527 14:9502 15:9560 #
0.0010000000000000000208166817117217 1:14.651031 2:12.912134 3:8.0159054 4:473 5:473 6:473 7:24 8:24 9:21 10:26.058071 11:30.629255 12:35.038696 13:6663 14:6692 15:6770 #
0.0010000000000000000208166817117217 1:9.1701307 2:5.4761796 3:10.113643 4:351 5:351 6:351 7:16 8:21 9:19 10:43.39727 11:43.662472 12:19.976112 13:9055 14:6488 15:5185 #
-0.0010000000000000000208166817117217 1:17.518988 2:13.655869 3:61.373478 4:486 5:486 6:486 7:18 8:14 9:66 10:15.738701 11:14.300496 12:23.266777 13:1525 14:1793 15:3315 #
0.0010000000000000000208166817117217 1:36.209694 2:7.1292615 3:3.1559691 4:1 5:1 6:1 7:13 8:14 9:2 10:53.463158 11:44.503708 12:5.278841 13:8766 14:4820 15:1383 #
0.0010000000000000000208166817117217 1:40.973293 2:32.321678 3:18.870562 4:505 5:505 6:505 7:43 8:34 9:19 10:21.792397 11:19.763771 12:17.284372 13:4925 14:4528 15:3883 #
-0.0010000000000000000208166817117217 1:4.2402859 2:16.595465 3:22.261244 4:17 5:17 6:17 7:4 8:14 9:16 10:10.061158 11:1.5297694 12:16.841576 13:10927 14:7659 15:5642 #
-0.0010000000000000000208166817117217 1:45.837727 2:45.248798 3:29.539988 4:182 5:182 6:182 7:45 8:44 9:25 10:34.181656 11:34.229603 12:30.386221 13:2928 14:2762 15:3240 #
0.0010000000000000000208166817117217 1:93.209869 2:68.56382 3:34.146358 4:0 5:0 6:0 7:93 8:54 9:28 10:43.047184 11:47.301128 12:24.513376 13:4334 14:2858 15:2381 #
-0.0010000000000000000208166817117217 1:13.783292 2:12.581679 3:10.240561 4:461 5:461 6:461 7:11 8:8 9:9 10:5.2383046 11:5.1306629 12:9.5389795 13:6444 14:5771 15:4741 #
0.0010000000000000000208166817117217 1:15.539692 2:59.879261 3:1.7159692 4:1 5:1 6:1 7:6 8:67 9:1 10:55.876911 11:52.808369 12:6.9064803 13:7600 14:2589 15:1042 #
-0.0010000000000000000208166817117217 1:11.629692 2:9.2392616 3:5.8459692 4:330 5:330 6:330 7:6 8:8 9:5 10:56.265682 11:57.564735 12:8.1444464 13:7374 14:4339 15:810 #
0.0010000000000000000208166817117217 1:31.373291 2:31.161678 3:26.07056 4:501 5:501 6:501 7:35 8:34 9:26 10:9.7779026 11:5.5974941 12:2.3895416 13:6187 14:5494 15:4499 #
0.0010000000000000000208166817117217 1:26.059692 2:6.6892614 3:5.545969 4:13 5:13 6:13 7:4 8:13 9:6 10:49.2103 11:43.645142 12:3.123137 13:8660 14:5271 15:1539 #
-0.0010000000000000000208166817117217 1:3.3767085 2:1.428321 3:1.260561 4:456 5:456 6:456 7:4 8:3 9:1 10:13.83803 11:11.535262 12:7.549542 13:7464 14:6687 15:5398 #
0.0010000000000000000208166817117217 1:21.166458 2:33.324608 3:40.664856 4:430 5:430 6:430 7:18 8:27 9:29 10:4.3867621 11:15.518816 12:23.150894 13:4983 14:3777 15:4105 #
-0.0010000000000000000208166817117217 1:94.580132 2:137.31618 3:93.43364 4:257 5:257 6:257 7:104 8:159 9:107 10:45.751347 11:43.979691 12:17.692228 13:10958 14:10131 15:7003 #
-0.0010000000000000000208166817117217 1:11.433291 2:16.921679 3:19.240561 4:231 5:231 6:231 7:9 8:15 9:17 10:16.898857 11:13.978326 12:11.582828 13:6392 14:5487 15:4253 #
0.0010000000000000000208166817117217 1:3.4594746 2:2.8912864 3:9.3374043 4:340 5:340 6:340 7:9 8:3 9:2 10:15.204444 11:20.549139 12:23.042028 13:7284 14:5060 15:2797 #
0.0010000000000000000208166817117217 1:42.669476 2:41.948715 3:31.252596 4:77 5:77 6:77 7:46 8:46 9:35 10:18.133579 11:21.655972 12:19.480959 13:9177 14:7191 15:4834 #
-0.0010000000000000000208166817117217 1:18.769714 2:60.905464 3:113.14124 4:364 5:364 6:364 7:27 8:61 9:119 10:33.59478 11:25.801649 12:16.778416 13:6788 14:6112 15:6027 #
0.0010000000000000000208166817117217 1:27.313292 2:23.121679 3:22.670561 4:259 5:259 6:259 7:31 8:29 9:27 10:10.3917 11:11.470531 12:8.9144745 13:5880 14:5330 15:4168 #
-0.0010000000000000000208166817117217 1:6.0032916 2:7.3116789 3:14.890561 4:226 5:226 6:226 7:7 8:7 9:14 10:21.344885 11:19.201077 12:17.856506 13:6165 14:5358 15:3978 #
0.0010000000000000000208166817117217 1:23.233292 2:24.681679 3:24.040562 4:21 5:21 6:21 7:20 8:22 9:22 10:13.966223 11:12.531786 12:12.760871 13:5968 14:5172 15:4065 #
-0.0010000000000000000208166817117217 1:9.4867086 2:5.038321 3:0.749439 4:445 5:445 6:445 7:7 8:2 9:0 10:19.600096 11:17.474962 12:12.575421 13:7083 14:6153 15:4937 #
-0.0010000000000000000208166817117217 1:31.539474 2:40.778713 3:43.142597 4:335 5:335 6:335 7:33 8:42 9:48 10:21.541851 11:26.894747 12:25.165133 13:8348 14:6692 15:4820 #
0.0010000000000000000208166817117217 1:11.496874 2:7.573482 3:7.7835522 4:229 5:229 6:229 7:12 8:9 9:8 10:11.830435 11:13.287474 12:14.097224 13:5746 14:4708 15:4157 #
-0.0010000000000000000208166817117217 1:55.089474 2:67.298714 3:70.752594 4:296 5:296 6:296 7:58 8:70 9:77 10:21.172712 11:26.517786 12:24.811895 13:9642 14:8097 15:6259 #
-0.0010000000000000000208166817117217 1:24.699715 2:41.385464 3:91.161247 4:370 5:370 6:370 7:33 8:42 9:96 10:34.981987 11:26.344719 12:18.534988 13:6724 14:5593 15:5388 #
-0.0010000000000000000208166817117217 1:9.3798685 2:12.15382 3:4.7036424 4:369 5:369 6:369 7:3 8:5 9:15 10:42.651077 11:41.395077 12:18.024384 13:8465 14:5944 15:5064 #
0.0010000000000000000208166817117217 1:22.433292 2:22.13168 3:20.240561 4:250 5:250 6:250 7:26 8:24 9:19 10:20.984081 11:18.905254 12:15.645883 13:5811 14:5022 15:4006 #
-0.0010000000000000000208166817117217 1:39.593124 2:46.806519 3:57.356449 4:186 5:186 6:186 7:39 8:46 9:57 10:13.811065 11:14.592764 12:17.587711 13:7691 14:6730 15:6571 #
-0.0010000000000000000208166817117217 1:17.976707 2:16.668322 3:12.699439 4:451 5:451 6:451 7:18 8:17 9:13 10:21.517683 11:19.23839 12:15.967813 13:7360 14:6540 15:5320 #
-0.0010000000000000000208166817117217 1:1.9567084 2:0.55832106 3:1.9405609 4:456 5:456 6:456 7:1 8:1 9:4 10:22.174316 11:18.015059 12:15.733976 13:6304 14:5479 15:4298 #
-0.0010000000000000000208166817117217 1:30.558989 2:15.71413 3:12.736524 4:500 5:500 6:500 7:31 8:13 9:5 10:16.940933 11:18.775587 12:31.446375 13:843 14:555 15:478 #
-0.0010000000000000000208166817117217 1:0.99670839 2:0.40167895 3:1.670561 4:459 5:459 6:459 7:1 8:0 9:2 10:13.304434 11:10.262584 12:7.3991833 13:7499 14:6720 15:5483 #
0.0010000000000000000208166817117217 1:6.5294747 2:1.2212863 3:6.2574039 4:157 5:157 6:157 7:8 8:2 9:1 10:18.239492 11:23.876347 12:21.93873 13:8218 14:5942 15:3822 #
-0.0010000000000000000208166817117217 1:11.153292 2:13.551679 3:13.650561 4:465 5:465 6:465 7:7 8:12 9:11 10:17.341846 11:16.449823 12:13.727693 13:6497 14:5653 15:4544 #
0.0010000000000000000208166817117217 1:3.4732916 2:6.4116788 3:13.720561 4:456 5:456 6:456 7:2 8:5 9:12 10:18.533781 11:18.20513 12:15.095176 13:6288 14:5430 15:4058 #
0.0010000000000000000208166817117217 1:11.320286 2:16.565464 3:0.26124448 4:325 5:325 6:325 7:8 8:21 9:8 10:15.043051 11:8.4368057 12:4.3907661 13:9327 14:5912 15:3329 #
-0.0010000000000000000208166817117217 1:8.2767086 2:2.4283211 3:3.1605611 4:457 5:457 6:457 7:5 8:1 9:3 10:8.8245335 11:8.0296021 12:5.5694447 13:7348 14:6451 15:5087 #
0.0010000000000000000208166817117217 1:43.163292 2:39.691677 3:31.82056 4:253 5:253 6:253 7:45 8:39 9:30 10:9.2000847 11:8.4852934 12:8.4812174 13:5447 14:4788 15:3972 #
0.0010000000000000000208166817117217 1:22.230526 2:22.451286 3:24.087404 4:173 5:173 6:173 7:21 8:21 9:19 10:17.206541 11:21.855782 12:21.329329 13:7772 14:5754 15:3592 #
0.0010000000000000000208166817117217 1:5.7132916 2:8.8616791 3:13.680561 4:16 5:16 6:16 7:8 8:11 9:15 10:24.099585 11:21.75182 12:19.436481 13:5934 14:5086 15:3818 #
0.0010000000000000000208166817117217 1:17.753292 2:18.981678 3:20.81056 4:245 5:245 6:245 7:17 8:20 9:19 10:17.084146 11:15.813209 12:11.571519 13:6265 14:5392 15:4243 #
-0.0010000000000000000208166817117217 1:8.330286 2:9.105464 3:14.981244 4:30 5:30 6:30 7:1 8:11 9:22 10:35.855118 11:27.630241 12:18.985687 13:7746 14:4249 15:2488 #
-0.0010000000000000000208166817117217 1:35.939476 2:47.578712 3:50.742596 4:322 5:322 6:322 7:38 8:50 9:57 10:25.660275 11:30.713511 12:28.840895 13:8272 14:6710 15:4871 #
0.0010000000000000000208166817117217 1:36.340286 2:6.1454639 3:18.321245 4:281 5:281 6:281 7:36 8:4 9:19 10:15.466735 11:6.8177161 12:7.0960612 13:10170 14:5737 15:4145 #
-0.0010000000000000000208166817117217 1:25.978987 2:19.344131 3:15.946524 4:256 5:256 6:256 7:27 8:17 9:8 10:16.011381 11:18.609398 12:31.193813 13:1103 14:469 15:403 #
0.0010000000000000000208166817117217 1:7.3894744 2:1.0212862 3:5.8974037 4:359 5:359 6:359 7:11 8:2 9:0 10:15.615102 11:21.600439 12:20.224529 13:8309 14:6014 15:3868 #
0.0010000000000000000208166817117217 1:28.533291 2:24.30168 3:14.350561 4:257 5:257 6:257 7:33 8:30 9:19 10:18.069143 11:15.666394 12:12.404602 13:5789 14:5184 15:4388 #
-0.0010000000000000000208166817117217 1:21.546709 2:17.978321 3:10.769439 4:447 5:447 6:447 7:18 8:16 9:8 10:21.855158 11:18.992346 12:15.099294 13:7062 14:6205 15:4822 #
-0.0010000000000000000208166817117217 1:2.5067084 2:1.178321 3:2.719439 4:1 5:1 6:1 7:1 8:2 9:1 10:14.471315 11:11.830909 12:10.849077 13:7002 14:6198 15:5174 #
-0.0010000000000000000208166817117217 1:13.976708 2:11.878321 3:15.189439 4:450 5:450 6:450 7:12 8:9 9:15 10:22.27957 11:19.683969 12:16.661747 13:7564 14:6686 15:5736 #
0.0010000000000000000208166817117217 1:18.057726 2:17.9888 3:8.9599867 4:157 5:157 6:157 7:17 8:17 9:4 10:33.488796 11:33.734516 12:29.625492 13:4127 14:3914 15:4109 #
-0.0010000000000000000208166817117217 1:28.463291 2:26.701679 3:23.450562 4:253 5:253 6:253 7:30 8:28 9:25 10:25.067394 11:22.600365 12:18.409348 13:5143 14:4460 15:3452 #
-0.0010000000000000000208166817117217 1:6.207725 2:11.468801 3:16.999987 4:146 5:146 6:146 7:6 8:10 9:12 10:32.058727 11:30.365046 12:25.310955 13:4537 14:4066 15:3791 #
-0.0010000000000000000208166817117217 1:38.249474 2:47.958714 3:48.672596 4:109 5:109 6:109 7:41 8:50 9:55 10:21.981022 11:26.920809 12:25.459225 13:9680 14:8115 15:6144 #
0.0010000000000000000208166817117217 1:27.083292 2:23.911678 3:24.110561 4:255 5:255 6:255 7:33 8:29 9:28 10:15.995779 11:14.297491 12:11.4028 13:6231 14:5589 15:4475 #
-0.0010000000000000000208166817117217 1:13.576709 2:7.9983211 3:1.989439 4:3 5:3 6:3 7:11 8:7 9:1 10:17.126257 11:13.972847 12:12.139936 13:6943 14:6000 15:4642 #
0.0010000000000000000208166817117217 1:70.073288 2:58.801678 3:39.450562 4:287 5:287 6:287 7:73 8:61 9:40 10:25.69508 11:23.900949 12:20.507025 13:3630 14:3294 15:2817 #
0.0010000000000000000208166817117217 1:5.3367085 2:3.4483211 3:0.059439003 4:2 5:2 6:2 7:3 8:2 9:1 10:24.69655 11:21.971882 12:19.05435 13:6383 14:5503 15:4304 #
