SVM-light Version V6.02
0 # kernel type
3 # kernel parameter -d 
1 # kernel parameter -g 
1 # kernel parameter -s 
1 # kernel parameter -r 
empty# kernel parameter -u 
15 # highest feature index 
57506 # number of training documents 
4038 # number of support vectors plus 1 
-1.4298577 # threshold b, each following line is a SV (starting with alpha*y)
-0.010000000000000000208166817117217 1:9.367835 2:19.15222 3:24.081232 4:244 5:244 6:244 7:3 8:14 9:18 10:15.257005 11:15.518928 12:16.504004 13:6446 14:6131 15:6186 #
0.010000000000000000208166817117217 1:6.862165 2:4.7422199 3:7.5612316 4:21 5:21 6:21 7:12 8:1 9:2 10:16.817112 11:15.514217 12:16.222628 13:5740 14:5507 15:5515 #
-0.010000000000000000208166817117217 1:16.151901 2:23.76071 3:31.372898 4:24 5:24 6:24 7:18 8:26 9:34 10:8.1637468 11:15.638395 12:19.572655 13:6459 14:6862 15:6594 #
-0.010000000000000000208166817117217 1:72.916191 2:30.88727 3:26.505413 4:281 5:281 6:281 7:77 8:31 9:26 10:33.750156 11:14.241694 12:13.424814 13:3129 14:615 15:564 #
-0.010000000000000000208166817117217 1:25.38883 2:31.666315 3:36.774582 4:16 5:16 6:16 7:22 8:27 9:35 10:9.6538906 11:9.439187 12:8.1982212 13:10686 14:10480 15:10396 #
0.010000000000000000208166817117217 1:53.684616 2:55.733727 3:56.667744 4:143 5:143 6:143 7:58 8:58 9:58 10:28.415607 11:30.83016 12:30.419506 13:10415 14:10387 15:10432 #
0.010000000000000000208166817117217 1:67.30619 2:10.43727 3:10.495412 4:460 5:460 6:460 7:68 8:11 9:11 10:25.581724 11:6.3880329 12:6.0713205 13:4781 14:2616 15:2506 #
0.010000000000000000208166817117217 1:73.136192 2:19.997271 3:19.195412 4:276 5:276 6:276 7:77 8:21 9:20 10:27.321964 11:7.737042 12:7.2597713 13:3690 14:1465 15:1334 #
0.010000000000000000208166817117217 1:65.601921 2:75.507088 3:81.782379 4:67 5:67 6:67 7:70 8:83 9:90 10:21.287775 11:20.084244 12:18.706692 13:10537 14:11087 15:11020 #
-0.010000000000000000208166817117217 1:9.8393364 2:16.3606 3:15.605183 4:21 5:21 6:21 7:15 8:19 9:17 10:8.9031515 11:13.532701 12:12.551054 13:11432 14:10655 15:9745 #
-0.010000000000000000208166817117217 1:71.426193 2:32.017269 3:25.715412 4:283 5:283 6:283 7:74 8:31 9:25 10:33.986759 11:13.359096 12:12.204 13:3410 14:798 15:796 #
0.010000000000000000208166817117217 1:8.9458618 2:2.193969 3:4.7710595 4:9 5:9 6:9 7:9 8:4 9:5 10:11.9132 11:20.838102 12:27.696589 13:6254 14:5071 15:4847 #
0.010000000000000000208166817117217 1:11.81775 2:17.264906 3:20.587776 4:473 5:473 6:473 7:14 8:21 9:24 10:4.2509279 11:3.5758293 12:4.0197415 13:3137 14:2495 15:2352 #
-0.010000000000000000208166817117217 1:14.275862 2:47.37603 3:49.348942 4:529 5:529 6:529 7:8 8:49 9:50 10:12.140017 11:4.5743546 12:5.8784518 13:8342 14:8709 15:8727 #
0.010000000000000000208166817117217 1:67.326195 2:28.107269 3:23.225412 4:284 5:284 6:284 7:63 8:28 9:24 10:19.855442 11:9.4538002 12:8.0497923 13:4053 14:1308 15:1295 #
-0.010000000000000000208166817117217 1:21.77883 2:24.556314 3:26.024582 4:280 5:280 6:280 7:19 8:24 9:25 10:8.2871132 11:5.7883587 12:1.9626411 13:9298 14:8918 15:8657 #
0.010000000000000000208166817117217 1:19.511917 2:27.647087 3:25.702377 4:2 5:2 6:2 7:6 8:15 9:12 10:18.44412 11:16.569859 12:16.272438 13:8062 14:8528 15:8136 #
-0.010000000000000000208166817117217 1:82.586197 2:33.517269 3:28.995413 4:285 5:285 6:285 7:86 8:33 9:29 10:30.974751 11:13.909637 12:12.176557 13:2882 14:604 15:609 #
-0.010000000000000000208166817117217 1:20.151901 2:19.150711 3:24.702898 4:285 5:285 6:285 7:21 8:22 9:27 10:7.8837533 11:15.54615 12:19.368227 13:6609 14:6616 15:6285 #
-0.010000000000000000208166817117217 1:22.891901 2:15.48071 3:23.862898 4:280 5:280 6:280 7:24 8:18 9:26 10:9.2486649 11:17.571791 12:20.955479 13:6455 14:6140 15:6037 #
-0.010000000000000000208166817117217 1:64.280922 2:49.408997 3:42.716686 4:83 5:83 6:83 7:89 8:89 9:84 10:16.169771 11:18.636728 12:12.01262 13:11572 14:6571 15:5909 #
-0.010000000000000000208166817117217 1:121.37619 2:26.48727 3:31.565413 4:517 5:517 6:517 7:124 8:26 9:31 10:37.522427 11:16.079044 12:15.083813 13:1172 14:524 15:164 #
0.010000000000000000208166817117217 1:2.1593359 2:0.75940102 3:0.07481771 4:471 5:471 6:471 7:4 8:4 9:1 10:2.7283697 11:6.3988543 12:4.6376939 13:10358 14:9226 15:8365 #
-0.010000000000000000208166817117217 1:15.939336 2:20.930599 3:19.685183 4:470 5:470 6:470 7:15 8:18 9:16 10:12.801603 11:17.464121 12:16.335752 13:9968 14:9145 15:8241 #
0.010000000000000000208166817117217 1:15.354695 2:16.329638 3:21.738243 4:158 5:158 6:158 7:4 8:5 9:12 10:19.774858 11:22.972986 12:20.499578 13:9468 14:9356 15:9538 #
0.010000000000000000208166817117217 1:28.765862 2:61.776031 3:85.088943 4:580 5:580 6:580 7:32 8:71 9:99 10:11.47999 11:3.216542 12:8.718461 13:8794 14:9151 15:9728 #
0.010000000000000000208166817117217 1:71.341949 2:89.20237 3:86.534225 4:409 5:409 6:409 7:80 8:104 9:102 10:15.572824 11:29.127975 12:29.467163 13:2485 14:1638 15:1738 #
0.010000000000000000208166817117217 1:4.5564132 2:4.3691869 3:3.8081067 4:520 5:520 6:520 7:5 8:4 9:4 10:0.10287047 11:0.88678652 12:0.73010188 13:4381 14:4325 15:4392 #
0.010000000000000000208166817117217 1:47.614616 2:47.913727 3:51.927746 4:143 5:143 6:143 7:46 8:44 9:51 10:32.246456 11:37.418121 12:34.171146 13:9654 14:9584 15:9700 #
-0.010000000000000000208166817117217 1:4.1889834 2:3.010488 3:3.0356948 4:548 5:548 6:548 7:2 8:2 9:0 10:12.722814 11:13.314046 12:12.815194 13:8277 14:8148 15:8087 #
-0.010000000000000000208166817117217 1:0.94586217 2:2.4360309 3:3.2389405 4:489 5:489 6:489 7:2 8:9 9:13 10:9.9918652 11:19.141415 12:28.865118 13:6364 14:5594 15:5507 #
-0.010000000000000000208166817117217 1:43.815861 2:75.476028 3:82.018944 4:314 5:314 6:314 7:45 8:83 9:92 10:9.6276112 11:19.467951 12:29.125093 13:7857 14:8189 15:8327 #
-0.010000000000000000208166817117217 1:7.4058623 2:40.03603 3:52.408939 4:14 5:14 6:14 7:8 8:48 9:64 10:9.0591516 11:18.659172 12:27.029047 13:6664 14:7124 15:7393 #
0.010000000000000000208166817117217 1:30.547834 2:8.45222 3:2.951232 4:480 5:480 6:480 7:28 8:7 9:1 10:13.745855 11:14.106561 12:19.153967 13:7228 14:5804 15:5402 #
-0.010000000000000000208166817117217 1:119.3662 2:24.55727 3:29.195412 4:30 5:30 6:30 7:122 8:24 9:29 10:37.511662 11:15.918468 12:15.297904 13:1231 14:567 15:212 #
0.010000000000000000208166817117217 1:86.846191 2:31.517269 3:27.285412 4:284 5:284 6:284 7:94 8:32 9:28 10:20.330551 11:11.226807 12:10.48503 13:3360 14:1221 15:1188 #
0.010000000000000000208166817117217 1:48.505863 2:77.426033 3:93.718941 4:611 5:611 6:611 7:49 8:88 9:111 10:1.1628596 11:5.1523371 12:11.453174 13:9192 14:9503 15:9788 #
0.010000000000000000208166817117217 1:7.1478353 2:2.83778 3:6.0987682 4:227 5:227 6:227 7:2 8:6 9:11 10:18.412605 11:19.928785 12:22.311092 13:6221 14:5206 15:5026 #
-0.010000000000000000208166817117217 1:19.598984 2:19.310488 3:18.215694 4:33 5:33 6:33 7:22 8:19 9:18 10:1.8316545 11:1.4172475 12:0.81075245 13:8505 14:8409 15:8300 #
-0.010000000000000000208166817117217 1:43.722164 2:24.647779 3:17.278769 4:452 5:452 6:452 7:48 8:29 9:22 10:19.421579 11:20.575321 12:23.862082 13:4291 14:4365 15:4238 #
0.010000000000000000208166817117217 1:99.43898 2:107.67049 3:107.82569 4:152 5:152 6:152 7:99 8:107 9:107 10:21.314606 11:21.09663 12:20.300297 13:9153 14:9219 15:9265 #
0.010000000000000000208166817117217 1:50.671902 2:46.45071 3:43.132896 4:377 5:377 6:377 7:32 8:25 9:27 10:31.407608 11:26.778887 12:38.76276 13:8860 14:8917 15:8281 #
0.010000000000000000208166817117217 1:17.581919 2:25.467087 3:28.412378 4:514 5:514 6:514 7:5 8:13 9:14 10:19.780441 11:18.035521 12:16.966593 13:7196 14:7746 15:7618 #
-0.010000000000000000208166817117217 1:20.319336 2:22.7906 3:20.245182 4:473 5:473 6:473 7:24 8:23 9:19 10:6.6486607 11:10.546937 12:9.3171043 13:11444 14:10485 15:9530 #
0.010000000000000000208166817117217 1:4.495862 2:34.076031 3:54.868942 4:535 5:535 6:535 7:3 8:39 9:60 10:1.0273979 11:9.5525417 12:17.274023 13:7533 14:7852 15:8506 #
0.010000000000000000208166817117217 1:74.466194 2:21.697269 3:19.825413 4:475 5:475 6:475 7:79 8:21 9:19 10:22.654921 11:7.0601816 12:6.6546583 13:4343 14:2124 15:1968 #
0.010000000000000000208166817117217 1:32.804695 2:34.329636 3:36.508244 4:158 5:158 6:158 7:20 8:20 9:23 10:12.286737 11:14.204094 12:13.837451 13:10124 14:10065 15:10122 #
-0.010000000000000000208166817117217 1:30.264694 2:32.569637 3:32.378242 4:502 5:502 6:502 7:25 8:28 9:29 10:19.048611 11:19.184675 12:18.311697 13:7349 14:7313 15:7261 #
-0.010000000000000000208166817117217 1:1.764695 2:13.010363 3:30.671757 4:580 5:580 6:580 7:18 8:21 9:37 10:23.873695 11:16.240301 12:9.9678497 13:8052 14:7421 15:6732 #
0.010000000000000000208166817117217 1:20.895863 2:51.686031 3:75.908943 4:565 5:565 6:565 7:20 8:58 9:86 10:3.5771477 11:13.51373 12:21.763578 13:7772 14:8119 15:8862 #
-0.010000000000000000208166817117217 1:15.95883 2:15.396315 3:15.154582 4:482 5:482 6:482 7:15 8:13 9:10 10:12.768079 11:14.380749 12:14.046945 13:9036 14:8543 15:8272 #
0.010000000000000000208166817117217 1:14.755385 2:14.306273 3:14.782256 4:532 5:532 6:532 7:16 8:15 9:17 10:8.0387945 11:7.4150281 12:6.6842752 13:5956 14:5850 15:5864 #
0.010000000000000000208166817117217 1:2.0746951 2:4.3296375 3:6.3682427 4:270 5:270 6:270 7:6 8:3 9:0 10:21.03417 11:20.880476 12:19.849503 13:9444 14:9378 15:9410 #
-0.010000000000000000208166817117217 1:29.068983 2:29.160488 3:30.235695 4:152 5:152 6:152 7:22 8:20 9:20 10:30.688145 11:33.515759 12:33.445412 13:8988 14:8939 15:8917 #
0.010000000000000000208166817117217 1:43.141918 2:56.267086 3:42.452377 4:627 5:627 6:627 7:38 8:53 9:39 10:20.986893 11:15.835753 12:24.54727 13:8615 14:9273 15:8587 #
0.010000000000000000208166817117217 1:5.6353855 2:6.0062737 3:4.9822559 4:514 5:514 6:514 7:7 8:4 9:4 10:8.2520933 11:8.2614279 12:8.4376335 13:6023 14:5915 15:5899 #
0.010000000000000000208166817117217 1:22.86775 2:28.344906 3:31.337776 4:26 5:26 6:26 7:22 8:29 9:32 10:11.063973 11:10.260784 12:10.96525 13:2149 14:1550 15:1418 #
-0.010000000000000000208166817117217 1:0.11883026 2:2.2236855 3:9.8754177 4:258 5:258 6:258 7:1 8:2 9:9 10:6.1843367 11:4.7565184 12:5.7398276 13:9028 14:8562 15:7979 #
0.010000000000000000208166817117217 1:38.548985 2:41.15049 3:43.195694 4:152 5:152 6:152 7:48 8:49 9:51 10:33.375839 11:35.873062 12:35.294964 13:11055 14:11138 15:11146 #
-0.010000000000000000208166817117217 1:7.4293361 2:10.580599 3:12.655182 4:204 5:204 6:204 7:6 8:7 9:8 10:3.1808276 11:8.0891123 12:7.2722554 13:9362 14:8474 15:7680 #
0.010000000000000000208166817117217 1:26.123272 2:34.889679 3:33.199894 4:396 5:396 6:396 7:30 8:45 9:45 10:10.703958 11:13.062755 12:15.005484 13:5136 14:3933 15:2513 #
-0.010000000000000000208166817117217 1:6.6080494 2:14.567632 3:13.855778 4:248 5:248 6:248 7:2 8:1 9:2 10:18.15774 11:31.57951 12:31.693502 13:4948 14:5023 15:4984 #
0.010000000000000000208166817117217 1:18.089336 2:22.410599 3:20.805182 4:220 5:220 6:220 7:18 8:20 9:19 10:8.4032965 11:13.010176 12:11.808024 13:10406 14:9560 15:8631 #
0.010000000000000000208166817117217 1:41.763271 2:62.479679 3:72.939896 4:400 5:400 6:400 7:44 8:71 9:87 10:14.628279 11:20.952217 12:24.01259 13:4618 14:3000 15:1094 #
-0.010000000000000000208166817117217 1:4.1046948 2:4.4496374 3:11.348243 4:26 5:26 6:26 7:9 8:10 9:16 10:5.4431863 11:6.8668404 12:6.2975931 13:10109 14:10068 15:10255 #
-0.010000000000000000208166817117217 1:51.785912 2:58.603168 3:7.7687421 4:328 5:328 6:328 7:48 8:58 9:7 10:20.450981 11:18.372162 12:9.0732412 13:9191 14:8244 15:2658 #
0.010000000000000000208166817117217 1:60.561916 2:69.487091 3:77.482376 4:627 5:627 6:627 7:59 8:72 9:77 10:24.950996 11:23.038918 12:20.643814 13:9855 14:10286 15:10297 #
-0.010000000000000000208166817117217 1:25.884695 2:28.639637 3:29.098242 4:514 5:514 6:514 7:19 8:22 9:22 10:4.7396693 11:3.9491947 12:1.9102788 13:8345 14:8378 15:8396 #
0.010000000000000000208166817117217 1:0.56538552 2:0.5537262 3:1.3677441 4:508 5:508 6:508 7:0 8:2 9:2 10:3.2733815 11:3.2565095 12:2.9092262 13:6192 14:6197 15:6222 #
0.010000000000000000208166817117217 1:7.5446949 2:7.2696376 3:5.8682427 4:539 5:539 6:539 7:3 8:2 9:4 10:1.5564291 11:0.91027939 12:1.0051149 13:8450 14:8254 15:8215 #
-0.010000000000000000208166817117217 1:7.2019014 2:17.59071 3:27.192898 4:524 5:524 6:524 7:2 8:13 9:21 10:10.786877 11:4.3606339 12:3.4402707 13:6723 14:7275 15:7418 #
0.010000000000000000208166817117217 1:0.84030533 2:13.14531 3:1.7413317 4:266 5:266 6:266 7:0 8:22 9:5 10:15.748899 11:6.4416747 12:10.695259 13:5765 14:5186 15:5796 #
-0.010000000000000000208166817117217 1:10.57591 2:11.57683 3:30.528742 4:367 5:367 6:367 7:8 8:13 9:31 10:16.81856 11:14.695947 12:8.9653873 13:8378 14:6289 15:2231 #
-0.010000000000000000208166817117217 1:33.925861 2:68.836029 3:78.10894 4:569 5:569 6:569 7:34 8:76 9:88 10:6.6851754 11:15.739743 12:25.325663 13:7926 14:8435 15:8648 #
-0.010000000000000000208166817117217 1:5.3153048 2:6.1203628 3:4.6017575 4:521 5:521 6:521 7:6 8:5 9:3 10:3.5582492 11:5.1533546 12:5.6618714 13:9368 14:9230 15:9278 #
-0.010000000000000000208166817117217 1:11.649336 2:14.950599 3:15.595182 4:466 5:466 6:466 7:12 8:13 9:14 10:8.5638008 11:13.161443 12:12.644339 13:10129 14:9227 15:8405 #
0.010000000000000000208166817117217 1:1.8653855 2:3.1262739 3:4.5622559 4:504 5:504 6:504 7:0 8:1 9:3 10:6.1994848 11:5.325593 12:5.2332892 13:6594 14:6482 15:6400 #
-0.010000000000000000208166817117217 1:76.365303 2:69.600365 3:62.111759 4:595 5:595 6:595 7:76 8:69 9:62 10:20.416615 11:20.280582 12:20.329151 13:3468 14:3586 15:3869 #
-0.010000000000000000208166817117217 1:36.215862 2:65.476028 3:84.258942 4:304 5:304 6:304 7:40 8:76 9:96 10:0.012387617 11:9.6008005 12:19.00699 13:8613 14:8838 15:9417 #
-0.010000000000000000208166817117217 1:27.365862 2:58.39603 3:75.128944 4:293 5:293 6:293 7:29 8:66 9:86 10:3.6090689 11:13.07671 12:21.125494 13:7807 14:8145 15:8619 #
0.010000000000000000208166817117217 1:10.029336 2:13.270599 3:11.325182 4:204 5:204 6:204 7:8 8:9 9:9 10:8.2404461 11:13.609518 12:13.240321 13:10281 14:9392 15:8462 #
0.010000000000000000208166817117217 1:13.605863 2:31.206032 3:30.918941 4:26 5:26 6:26 7:15 8:38 9:40 10:25.673813 11:17.990009 12:8.7151079 13:10372 14:10203 15:10047 #
0.010000000000000000208166817117217 1:19.561918 2:29.607088 3:3.2923782 4:6 5:6 6:6 7:20 8:30 9:2 10:7.5429907 11:7.3372488 12:7.1112547 13:6881 14:7435 15:6290 #
0.010000000000000000208166817117217 1:0.52774978 2:0.2049055 3:0.30222324 4:10 5:10 6:10 7:1 8:0 9:1 10:0.069573127 11:0.29235446 12:0.074635796 13:4341 14:3954 15:3946 #
-0.010000000000000000208166817117217 1:69.786194 2:30.597269 3:24.675413 4:285 5:285 6:285 7:73 8:31 9:25 10:33.977222 11:13.24621 12:11.763431 13:3609 14:941 15:1041 #
-0.010000000000000000208166817117217 1:5.4011698 2:9.3236856 3:14.535419 4:248 5:248 6:248 7:5 8:7 9:13 10:6.0084057 11:5.9082251 12:4.4150224 13:8169 14:7571 15:7116 #
-0.010000000000000000208166817117217 1:20.594694 2:21.209637 3:21.448242 4:511 5:511 6:511 7:16 8:15 9:16 10:9.1803637 11:8.6822453 12:9.0970345 13:8418 14:8344 15:8345 #
-0.010000000000000000208166817117217 1:25.034695 2:20.949636 3:21.188242 4:510 5:510 6:510 7:19 8:15 9:17 10:10.514253 11:10.529149 12:10.335708 13:8289 14:8032 15:8000 #
0.010000000000000000208166817117217 1:30.35409 2:24.99683 3:6.3612576 4:395 5:395 6:395 7:29 8:24 9:10 10:0.46587381 11:2.2616596 12:2.0488737 13:7432 14:6103 15:4143 #
0.010000000000000000208166817117217 1:26.424614 2:20.573727 3:17.337744 4:462 5:462 6:462 7:26 8:21 9:17 10:0.70457739 11:1.4988554 12:1.1288022 13:7770 14:7518 15:7406 #
0.010000000000000000208166817117217 1:3.8989832 2:3.6804881 3:3.6356947 4:517 5:517 6:517 7:5 8:4 9:5 10:11.486851 11:12.078618 12:12.637633 13:9474 14:9365 15:9301 #
-0.010000000000000000208166817117217 1:37.723125 2:37.804352 3:37.258373 4:282 5:282 6:282 7:35 8:35 9:34 10:14.991687 11:15.163485 12:15.026649 13:7294 14:7145 15:7101 #
-0.010000000000000000208166817117217 1:75.506195 2:33.477268 3:28.635412 4:28 5:28 6:28 7:78 8:33 9:28 10:34.383995 11:14.416255 12:13.102149 13:3169 14:568 15:559 #
0.010000000000000000208166817117217 1:20.495863 2:51.71603 3:74.508942 4:550 5:550 6:550 7:20 8:56 9:84 10:2.6450069 11:5.8906517 12:15.372701 13:8082 14:8440 15:9004 #
-0.010000000000000000208166817117217 1:6.9953856 2:7.7162738 3:8.3322563 4:224 5:224 6:224 7:1 8:1 9:1 10:13.716329 11:13.097122 12:12.76485 13:7235 14:7132 15:7112 #
0.010000000000000000208166817117217 1:66.87619 2:14.14727 3:13.505412 4:11 5:11 6:11 7:68 8:13 9:12 10:29.95874 11:9.7556581 12:8.5950928 13:4528 14:2252 15:2231 #
-0.010000000000000000208166817117217 1:14.31883 2:20.276314 3:24.014582 4:235 5:235 6:235 7:11 8:18 9:21 10:11.218344 11:10.317717 12:6.4063716 13:9623 14:9371 15:9079 #
0.010000000000000000208166817117217 1:14.184695 2:14.829638 3:15.918242 4:508 5:508 6:508 7:10 8:11 9:13 10:2.9639297 11:2.200146 12:2.165477 13:9431 14:9344 15:9349 #
-0.010000000000000000208166817117217 1:37.825863 2:68.94603 3:78.778938 4:33 5:33 6:33 7:36 8:73 9:86 10:2.9699709 11:12.706743 12:22.313248 13:7950 14:8263 15:8537 #
0.010000000000000000208166817117217 1:3.368082 2:13.017088 3:11.552378 4:515 5:515 6:515 7:3 8:14 9:12 10:3.3538785 11:4.2297258 12:6.2102761 13:5443 14:6243 15:5906 #
0.010000000000000000208166817117217 1:1.0693359 2:5.9705992 3:6.3951821 4:24 5:24 6:24 7:4 8:2 9:1 10:0.40888426 11:4.5098481 12:3.4540391 13:11093 14:10257 15:9418 #
0.010000000000000000208166817117217 1:13.544615 2:13.443727 3:15.727744 4:517 5:517 6:517 7:0 8:1 9:2 10:20.918837 11:22.585197 12:22.72999 13:8117 14:8071 15:8134 #
0.010000000000000000208166817117217 1:16.297758 2:14.899233 3:0.84387845 4:449 5:449 6:449 7:14 8:14 9:0 10:12.811166 11:11.893447 12:10.214521 13:6622 14:6029 15:4534 #
-0.010000000000000000208166817117217 1:20.64883 2:19.216314 3:17.164581 4:489 5:489 6:489 7:13 8:10 9:9 10:8.1006756 11:6.4731331 12:4.9079475 13:10116 14:9611 15:9149 #
-0.010000000000000000208166817117217 1:20.624695 2:14.339638 3:14.278242 4:248 5:248 6:248 7:13 8:6 9:8 10:5.9253707 11:7.0923157 12:6.9301915 13:8100 14:7783 15:7785 #
-0.010000000000000000208166817117217 1:48.039337 2:52.160599 3:52.325184 4:41 5:41 6:41 7:49 8:51 9:51 10:15.414508 11:19.929598 12:18.96694 13:11130 14:10281 15:9403 #
0.010000000000000000208166817117217 1:0.27672824 2:2.5603201 3:5.6801062 4:358 5:358 6:358 7:1 8:4 9:5 10:4.0742764 11:9.6445408 12:14.264028 13:6112 14:5292 15:3892 #
-0.010000000000000000208166817117217 1:14.47883 2:17.896315 3:21.974583 4:220 5:220 6:220 7:14 8:14 9:19 10:13.051553 11:11.546853 12:9.0243664 13:8570 14:8267 15:8160 #
0.010000000000000000208166817117217 1:37.605862 2:69.466034 3:85.10894 4:295 5:295 6:295 7:34 8:72 9:92 10:2.878104 11:6.4199309 12:17.367138 13:9547 14:9835 15:10179 #
0.010000000000000000208166817117217 1:43.134613 2:44.503727 3:44.897743 4:146 5:146 6:146 7:43 8:44 9:45 10:23.122347 11:25.548443 12:24.848288 13:9672 14:9641 15:9658 #
-0.010000000000000000208166817117217 1:36.415863 2:65.706032 3:87.258942 4:611 5:611 6:611 7:40 8:75 9:102 10:3.5345092 11:4.7165179 12:9.4937849 13:8756 14:9050 15:9766 #
-0.010000000000000000208166817117217 1:34.754696 2:33.629639 3:33.168243 4:245 5:245 6:245 7:29 8:27 9:28 10:13.217113 11:13.116628 12:12.700185 13:8251 14:8097 15:8092 #
-0.010000000000000000208166817117217 1:8.2953854 2:11.006274 3:10.072256 4:513 5:513 6:513 7:6 8:7 9:6 10:8.2305622 11:7.6507387 12:7.0819764 13:5874 14:5680 15:5703 #
-0.010000000000000000208166817117217 1:31.268099 2:46.469292 3:55.487103 4:28 5:28 6:28 7:31 8:44 9:53 10:9.3845768 11:16.986757 12:20.003832 13:4645 14:4195 15:3361 #
-0.010000000000000000208166817117217 1:60.916195 2:26.947269 3:24.565413 4:281 5:281 6:281 7:63 8:27 9:25 10:30.690155 11:11.79745 12:10.378028 13:3744 14:902 15:813 #
0.010000000000000000208166817117217 1:32.797836 2:9.0177803 3:21.138767 4:213 5:213 6:213 7:28 8:13 9:27 10:17.026131 11:16.462881 12:20.259481 13:7322 14:5168 15:4415 #
-0.010000000000000000208166817117217 1:34.104694 2:31.709637 3:30.898243 4:491 5:491 6:491 7:31 8:28 9:28 10:17.028866 11:16.215616 12:15.682711 13:7977 14:7737 15:7715 #
-0.010000000000000000208166817117217 1:45.13591 2:54.66317 3:44.421257 4:338 5:338 6:338 7:41 8:53 9:47 10:21.100073 11:19.197897 12:11.586283 13:9339 14:8375 15:5094 #
-0.010000000000000000208166817117217 1:14.568983 2:17.700487 3:17.455694 4:508 5:508 6:508 7:11 8:12 9:12 10:12.703133 11:14.373624 12:14.288893 13:8103 14:8208 15:8145 #
-0.010000000000000000208166817117217 1:5.4058623 2:35.936031 3:47.44894 4:7 5:7 6:7 7:8 8:44 9:58 10:2.3866391 11:11.922337 12:20.81328 13:7701 14:8033 15:8306 #
-0.010000000000000000208166817117217 1:32.154694 2:32.529636 3:32.218243 4:488 5:488 6:488 7:32 8:32 9:32 10:21.694294 11:20.954035 12:20.649984 13:7487 14:7371 15:7334 #
-0.010000000000000000208166817117217 1:21.255386 2:23.846273 3:23.912256 4:22 5:22 6:22 7:20 8:22 9:23 10:11.382255 11:11.384817 12:10.930313 13:5399 14:5227 15:5201 #
-0.010000000000000000208166817117217 1:42.671902 2:40.160709 3:35.592899 4:284 5:284 6:284 7:34 8:31 9:21 10:7.158731 11:2.1714542 12:8.8592892 13:7584 14:7686 15:7101 #
-0.010000000000000000208166817117217 1:7.6210165 2:8.1095123 3:8.3943052 4:274 5:274 6:274 7:6 8:9 9:9 10:11.04148 11:10.354847 12:10.000092 13:6082 14:5972 15:5895 #
-0.010000000000000000208166817117217 1:21.245386 2:19.926273 3:21.362255 4:17 5:17 6:17 7:21 8:19 9:20 10:13.72745 11:14.123746 12:13.688339 13:4952 14:4913 15:4841 #
-0.010000000000000000208166817117217 1:22.018829 2:24.616314 3:30.124582 4:246 5:246 6:246 7:20 8:21 9:26 10:14.576907 11:13.171223 12:11.110318 13:8978 14:8670 15:8626 #
-0.010000000000000000208166817117217 1:9.3846149 2:9.5137262 3:8.3977442 4:256 5:256 6:256 7:5 8:4 9:1 10:4.0544324 11:4.9357457 12:5.1618819 13:7556 14:7447 15:7394 #
0.010000000000000000208166817117217 1:1.2777498 2:1.2749054 3:0.6277768 4:239 5:239 6:239 7:1 8:2 9:1 10:1.6171702 11:1.3867104 12:1.293764 13:4535 14:4089 15:4079 #
0.010000000000000000208166817117217 1:1.1993359 2:5.2905989 3:3.1951823 4:23 5:23 6:23 7:1 8:1 9:0 10:6.4457922 11:10.720622 12:9.6219807 13:9524 14:8687 15:7686 #
0.010000000000000000208166817117217 1:12.408831 2:13.746315 3:12.244582 4:8 5:8 6:8 7:6 8:9 9:10 10:4.147737 11:0.65909016 12:0.76862025 13:9744 14:9374 15:9049 #
0.010000000000000000208166817117217 1:47.54192 2:56.817089 3:63.342377 4:627 5:627 6:627 7:46 8:55 9:68 10:24.27096 11:21.292114 12:24.550152 13:8632 14:9095 15:9314 #
-0.010000000000000000208166817117217 1:33.364697 2:31.959637 3:31.968243 4:496 5:496 6:496 7:27 8:28 9:29 10:16.391665 11:16.2183 12:16.046579 13:8063 14:7909 15:7917 #
0.010000000000000000208166817117217 1:24.197836 2:4.1577802 3:17.498768 4:223 5:223 6:223 7:20 8:9 9:24 10:16.13368 11:14.844425 12:17.678455 13:6860 14:5209 15:4485 #
-0.010000000000000000208166817117217 1:97.652168 2:81.06778 3:71.508766 4:113 5:113 6:113 7:103 8:85 9:77 10:17.383329 11:18.894518 12:21.750784 13:2314 14:2305 15:2491 #
0.010000000000000000208166817117217 1:89.564697 2:97.959641 3:97.198242 4:158 5:158 6:158 7:93 8:102 9:102 10:16.879215 11:16.335245 12:15.942439 13:10170 14:10315 15:10330 #
-0.010000000000000000208166817117217 1:38.1819 2:46.810711 3:62.102898 4:633 5:633 6:633 7:23 8:34 9:48 10:19.518475 11:11.26204 12:8.08039 13:8972 14:9344 15:9459 #
-0.010000000000000000208166817117217 1:11.91883 2:12.756314 3:15.324582 4:511 5:511 6:511 7:7 8:10 9:11 10:8.6056509 11:4.9293289 12:4.6239305 13:9660 14:9411 15:9248 #
0.010000000000000000208166817117217 1:23.295101 2:3.4279768 3:3.8366737 4:3 5:3 6:3 7:25 8:3 9:5 10:5.9907036 11:3.2265198 12:6.532167 13:5270 14:6420 15:6183 #
-0.010000000000000000208166817117217 1:52.544613 2:36.513725 3:20.477745 4:399 5:399 6:399 7:41 8:31 9:24 10:21.729259 11:17.886198 12:11.077302 13:9150 14:8653 15:8075 #
-0.010000000000000000208166817117217 1:2.0790749 2:19.548998 3:39.706684 4:415 5:415 6:415 7:6 8:28 9:50 10:14.284492 11:20.595201 12:26.295048 13:6027 14:4559 15:3036 #
-0.010000000000000000208166817117217 1:33.36591 2:27.25317 3:7.7787423 4:351 5:351 6:351 7:30 8:26 9:8 10:15.786506 11:14.888157 12:11.565988 13:9187 14:7672 15:3050 #
-0.010000000000000000208166817117217 1:120.96619 2:25.347269 3:32.535412 4:35 5:35 6:35 7:124 8:25 9:33 10:36.162598 11:14.726356 12:13.700459 13:1389 14:712 15:245 #
0.010000000000000000208166817117217 1:27.245911 2:41.953171 3:62.371258 4:353 5:353 6:353 7:25 8:40 9:53 10:16.848076 11:15.186513 12:10.037681 13:9051 14:8279 15:5745 #
-0.010000000000000000208166817117217 1:100.46217 2:83.807777 3:73.828766 4:138 5:138 6:138 7:106 8:89 9:79 10:14.60104 11:15.988355 12:20.060471 13:2202 14:2173 15:2239 #
0.010000000000000000208166817117217 1:28.551901 2:27.44071 3:37.702896 4:24 5:24 6:24 7:21 8:19 9:30 10:10.688042 11:5.1888771 12:0.33847719 13:7245 14:7309 15:7100 #
0.010000000000000000208166817117217 1:42.716873 2:41.005646 3:36.441624 4:244 5:244 6:244 7:13 8:9 9:6 10:30.883875 11:33.483147 12:31.510515 13:6442 14:6415 15:6513 #
0.010000000000000000208166817117217 1:1.9235867 2:2.5108132 3:0.76189333 4:514 5:514 6:514 7:0 8:0 9:2 10:5.0925984 11:7.9425268 12:6.8969097 13:4469 14:4470 15:4469 #
0.010000000000000000208166817117217 1:34.981903 2:30.70071 3:41.032898 4:275 5:275 6:275 7:22 8:17 9:25 10:18.762234 11:13.111972 12:11.46944 13:8534 14:8393 15:8215 #
-0.010000000000000000208166817117217 1:7.1119013 2:33.070709 3:44.652897 4:539 5:539 6:539 7:0 8:29 9:39 10:16.62488 11:10.050349 12:6.3468571 13:8101 14:9129 15:8990 #
0.010000000000000000208166817117217 1:89.386871 2:89.305649 3:82.381622 4:158 5:158 6:158 7:115 8:121 9:113 10:27.551344 11:31.334135 12:32.363182 13:4269 14:4169 15:4425 #
-0.010000000000000000208166817117217 1:39.685909 2:48.063171 3:14.801258 4:348 5:348 6:348 7:36 8:47 9:17 10:19.878582 11:18.916487 12:2.6108615 13:9073 14:8122 15:3925 #
0.010000000000000000208166817117217 1:60.784695 2:65.539635 3:66.778244 4:98 5:98 6:98 7:63 8:69 9:70 10:1.480657 11:2.4153123 12:2.4638338 13:10683 14:10767 15:10813 #
0.010000000000000000208166817117217 1:44.458984 2:46.700489 3:48.855694 4:152 5:152 6:152 7:38 8:38 9:41 10:25.537811 11:28.053558 12:27.134905 13:10298 14:10282 15:10345 #
-0.010000000000000000208166817117217 1:25.9681 2:41.539291 3:62.867104 4:17 5:17 6:17 7:25 8:39 9:60 10:8.6891603 11:16.266439 12:16.551497 13:4628 14:4173 15:3181 #
0.010000000000000000208166817117217 1:84.444695 2:92.889641 3:92.268242 4:158 5:158 6:158 7:87 8:96 9:96 10:15.176041 11:13.391415 12:14.076864 13:9340 14:9559 15:9509 #
0.010000000000000000208166817117217 1:26.137751 2:28.544905 3:33.547775 4:464 5:464 6:464 7:25 8:29 9:33 10:10.176348 11:10.864215 12:11.576057 13:2238 14:1690 15:1489 #
0.010000000000000000208166817117217 1:21.077749 2:24.994905 3:28.907776 4:469 5:469 6:469 7:20 8:25 9:29 10:10.489655 11:10.472223 12:10.666834 13:2358 14:1779 15:1610 #
-0.010000000000000000208166817117217 1:28.329336 2:32.020599 3:33.005184 4:261 5:261 6:261 7:32 8:33 9:35 10:7.2981524 11:12.046751 12:10.574733 13:10703 14:9836 15:8982 #
0.010000000000000000208166817117217 1:88.694695 2:95.489639 3:94.918243 4:161 5:161 6:161 7:91 8:98 9:98 10:17.812679 11:16.730167 12:16.646688 13:10130 14:10282 15:10233 #
-0.010000000000000000208166817117217 1:64.270927 2:61.718998 3:54.266685 4:83 5:83 6:83 7:89 8:90 9:84 10:20.023695 11:3.9901345 12:2.1048412 13:9911 14:4417 15:3839 #
-0.010000000000000000208166817117217 1:51.683807 2:19.972731 3:17.094587 4:17 5:17 6:17 7:49 8:21 9:18 10:28.180294 11:6.9338565 12:5.8885727 13:9196 14:3978 15:3700 #
-0.010000000000000000208166817117217 1:12.26883 2:15.306314 3:16.444582 4:4 5:4 6:4 7:10 8:15 9:18 10:9.9547625 11:8.2297668 12:4.828907 13:9312 14:9107 15:8994 #
0.010000000000000000208166817117217 1:19.451918 2:29.477087 3:25.292377 4:0 5:0 6:0 7:4 8:15 9:5 10:26.006281 11:24.155901 12:28.083384 13:7218 14:7776 15:7328 #
-0.010000000000000000208166817117217 1:13.50591 2:2.1831703 3:11.698742 4:371 5:371 6:371 7:12 8:2 9:11 10:13.861449 11:11.700319 12:9.2421837 13:8407 14:6759 15:2855 #
0.010000000000000000208166817117217 1:89.09687 2:89.865646 3:80.691628 4:368 5:368 6:368 7:94 8:98 9:88 10:7.3244157 11:8.7384195 12:8.2817659 13:3895 14:3716 15:3994 #
-0.010000000000000000208166817117217 1:43.119694 2:47.055309 3:51.048668 4:196 5:196 6:196 7:44 8:56 9:58 10:18.78014 11:20.962349 12:21.099051 13:3961 14:3759 15:3684 #
0.010000000000000000208166817117217 1:35.534695 2:42.099636 3:44.128242 4:158 5:158 6:158 7:23 8:30 9:34 10:23.456009 11:24.916496 12:23.506208 13:10607 14:10696 15:10755 #
-0.010000000000000000208166817117217 1:9.7258625 2:48.276031 3:76.42894 4:573 5:573 6:573 7:12 8:58 9:88 10:5.0497675 11:14.635037 12:23.744667 13:7071 14:7685 15:8560 #
0.010000000000000000208166817117217 1:51.595802 2:46.566925 3:51.573494 4:98 5:98 6:98 7:55 8:47 9:43 10:29.456209 11:37.300449 12:32.415062 13:11489 14:11385 15:8446 #
-0.010000000000000000208166817117217 1:24.188099 2:41.65929 3:44.357101 4:220 5:220 6:220 7:23 8:40 9:41 10:10.237715 11:17.625729 12:17.405096 13:4489 14:3967 15:3676 #
-0.010000000000000000208166817117217 1:27.065863 2:52.46603 3:72.728943 4:289 5:289 6:289 7:27 8:61 9:90 10:1.1858904 11:7.7720118 12:10.84022 13:8043 14:8125 15:8685 #
0.010000000000000000208166817117217 1:8.3321648 2:67.287781 3:77.34877 4:396 5:396 6:396 7:13 8:69 9:81 10:14.735512 11:14.834164 12:20.051844 13:5759 14:3057 15:2292 #
-0.010000000000000000208166817117217 1:45.515862 2:81.316032 3:108.05894 4:43 5:43 6:43 7:46 8:88 9:116 10:11.208011 11:20.597029 12:29.794836 13:7947 14:8444 15:9350 #
0.010000000000000000208166817117217 1:37.414696 2:38.549637 3:40.608242 4:14 5:14 6:14 7:27 8:26 9:27 10:0.40252012 11:3.1511497 12:2.5403264 13:8134 14:8048 15:8111 #
0.010000000000000000208166817117217 1:11.465862 2:51.266029 3:82.828941 4:21 5:21 6:21 7:13 8:57 9:91 10:8.0018072 11:12.843188 12:18.24449 13:6785 14:7431 15:8515 #
-0.010000000000000000208166817117217 1:103.45216 2:86.557777 3:75.34877 4:138 5:138 6:138 7:111 8:94 9:83 10:14.972934 11:16.679363 12:20.582016 13:2122 14:2119 15:2235 #
0.010000000000000000208166817117217 1:5.08775 2:10.944905 3:15.347776 4:221 5:221 6:221 7:9 8:18 9:23 10:0.95494562 11:2.7162085 12:3.0880761 13:3618 14:2961 15:2819 #
0.010000000000000000208166817117217 1:28.801918 2:36.687088 3:45.152378 4:627 5:627 6:627 7:11 8:19 9:25 10:28.810026 11:27.803469 12:27.105261 13:10068 14:10473 15:10526 #
0.010000000000000000208166817117217 1:17.247749 2:26.504906 3:29.277777 4:465 5:465 6:465 7:17 8:28 9:31 10:5.5972362 11:5.3475347 12:5.4209166 13:3257 14:2508 15:2367 #
-0.010000000000000000208166817117217 1:48.781918 2:39.33709 3:54.012379 4:627 5:627 6:627 7:38 8:27 9:39 10:29.053675 11:28.876566 12:27.008312 13:8978 14:8834 15:8921 #
-0.010000000000000000208166817117217 1:28.549074 2:34.348999 3:30.516685 4:417 5:417 6:417 7:32 8:44 9:43 10:13.220915 11:20.735579 12:26.983002 13:5218 14:4199 15:3292 #
0.010000000000000000208166817117217 1:21.89591 2:10.12317 3:2.1087422 4:359 5:359 6:359 7:20 8:10 9:1 10:18.604813 11:16.266832 12:11.080027 13:9101 14:7426 15:3638 #
-0.010000000000000000208166817117217 1:30.035862 2:64.066032 3:83.828941 4:300 5:300 6:300 7:33 8:73 9:96 10:5.0638866 11:14.714256 12:23.213024 13:7798 14:8248 15:8884 #
-0.010000000000000000208166817117217 1:24.868984 2:20.780489 3:19.335695 4:459 5:459 6:459 7:32 8:28 9:26 10:9.4058599 11:9.2725573 12:8.8478909 13:7840 14:7621 15:7477 #
-0.010000000000000000208166817117217 1:26.985863 2:62.19603 3:66.92894 4:315 5:315 6:315 7:28 8:70 9:76 10:4.6604333 11:4.8545818 12:13.866604 13:8896 14:9421 15:9472 #
-0.010000000000000000208166817117217 1:1.8277497 2:1.1849055 3:3.0677767 4:500 5:500 6:500 7:2 8:2 9:1 10:3.3432188 11:3.8125973 12:4.4474492 13:3427 14:3007 15:2902 #
-0.010000000000000000208166817117217 1:89.932167 2:69.217781 3:45.698769 4:95 5:95 6:95 7:90 8:69 9:48 10:9.9974461 11:12.210461 12:17.862293 13:2735 14:2895 15:3368 #
0.010000000000000000208166817117217 1:10.116194 2:6.9272699 3:5.1554122 4:1 5:1 6:1 7:12 8:6 9:3 10:26.432482 11:5.8191786 12:4.5904188 13:6701 14:2780 15:2658 #
-0.010000000000000000208166817117217 1:23.409336 2:27.7106 3:26.075182 4:260 5:260 6:260 7:27 8:29 9:28 10:6.800437 11:11.415004 12:10.684473 13:11066 14:10207 15:9302 #
-0.010000000000000000208166817117217 1:26.389074 2:26.798998 3:25.206684 4:197 5:197 6:197 7:28 8:33 9:35 10:15.519487 11:22.063345 12:29.087032 13:5264 14:4448 15:3443 #
0.010000000000000000208166817117217 1:27.142242 2:38.170769 3:48.956123 4:490 5:490 6:490 7:28 8:39 9:49 10:14.97016 11:13.811052 12:10.83015 13:5065 14:4114 15:2741 #
0.010000000000000000208166817117217 1:21.915102 2:3.4679768 3:5.9666739 4:283 5:283 6:283 7:24 8:3 9:7 10:7.4211812 11:4.4035311 12:6.1305909 13:4972 14:6066 15:5897 #
-0.010000000000000000208166817117217 1:10.695862 2:41.546032 3:54.74894 4:288 5:288 6:288 7:11 8:49 9:64 10:2.9805779 11:7.5379767 12:16.282244 13:8114 14:8445 15:8779 #
0.010000000000000000208166817117217 1:12.72591 2:9.4031706 3:0.38125774 4:0 5:0 6:0 7:13 8:13 9:1 10:12.768601 11:8.8394957 12:8.2406111 13:8483 14:7099 15:3469 #
0.010000000000000000208166817117217 1:24.752243 2:37.310768 3:53.616123 4:488 5:488 6:488 7:26 8:38 9:54 10:15.291864 11:14.50775 12:12.101792 13:5056 14:4080 15:2555 #
0.010000000000000000208166817117217 1:81.834694 2:87.119637 3:91.208244 4:98 5:98 6:98 7:99 8:106 9:106 10:10.002586 11:12.268636 12:5.8330774 13:9755 14:9792 15:9832 #
-0.010000000000000000208166817117217 1:19.169336 2:23.3606 3:24.415182 4:5 5:5 6:5 7:18 8:19 9:22 10:5.9784884 11:10.33082 12:9.4200287 13:10246 14:9395 15:8577 #
-0.010000000000000000208166817117217 1:65.681915 2:76.497086 3:84.582375 4:371 5:371 6:371 7:78 8:91 9:100 10:28.010845 11:25.057842 12:23.05266 13:9466 14:9996 15:9982 #
-0.010000000000000000208166817117217 1:81.94619 2:33.137268 3:27.605412 4:30 5:30 6:30 7:87 8:33 9:28 10:31.107853 11:14.475192 12:13.236851 13:2815 14:484 15:461 #
-0.010000000000000000208166817117217 1:13.613272 2:6.5496798 3:0.29989386 4:371 5:371 6:371 7:14 8:12 9:9 10:10.02034 11:17.660093 12:23.247458 13:6068 14:5476 15:4165 #
0.010000000000000000208166817117217 1:11.741918 2:18.447088 3:4.8423781 4:252 5:252 6:252 7:4 8:2 9:21 10:18.700523 11:21.61717 12:29.11433 13:6656 14:7197 15:6576 #
-0.010000000000000000208166817117217 1:16.324198 2:14.973076 3:13.913493 4:15 5:15 6:15 7:15 8:14 9:12 10:8.4881325 11:9.1511126 12:9.6698503 13:6194 14:6093 15:6048 #
0.010000000000000000208166817117217 1:93.894691 2:101.90964 3:101.76824 4:158 5:158 6:158 7:100 8:109 9:108 10:14.78021 11:13.879557 12:13.995581 13:10679 14:10817 15:10786 #
0.010000000000000000208166817117217 1:4.9919505 2:2.2823684 3:1.0357776 4:16 5:16 6:16 7:13 8:17 9:14 10:14.749993 11:24.616383 12:24.67642 13:4751 14:4649 15:4809 #
0.010000000000000000208166817117217 1:4.0868735 2:3.3856475 3:3.1316249 4:268 5:268 6:268 7:8 8:7 9:6 10:16.30131 11:15.414882 12:15.522431 13:5472 14:5352 15:5320 #
-0.010000000000000000208166817117217 1:23.314138 2:14.086031 3:42.42894 4:19 5:19 6:19 7:20 8:24 9:55 10:5.4067101 11:14.002399 12:22.777121 13:5793 14:6338 15:7277 #
0.010000000000000000208166817117217 1:28.995911 2:25.453171 3:23.971258 4:359 5:359 6:359 7:26 8:23 9:26 10:18.481188 11:15.214473 12:13.424554 13:8696 14:7314 15:3798 #
-0.010000000000000000208166817117217 1:13.955862 2:57.266029 3:87.838943 4:290 5:290 6:290 7:14 8:63 9:96 10:7.1880007 11:17.409046 12:26.28097 13:7279 14:8024 15:9010 #
0.010000000000000000208166817117217 1:36.544697 2:39.529636 3:38.388241 4:31 5:31 6:31 7:31 8:34 9:33 10:3.1165767 11:5.3023386 12:5.6058941 13:9443 14:9480 15:9402 #
-0.010000000000000000208166817117217 1:35.645863 2:72.276031 3:97.828941 4:37 5:37 6:37 7:36 8:79 9:106 10:5.6160583 11:15.098536 12:22.988205 13:8200 14:8739 15:9507 #
-0.010000000000000000208166817117217 1:49.915909 2:55.48317 3:54.291256 4:99 5:99 6:99 7:47 8:55 9:54 10:19.733971 11:15.692235 12:0.7114253 13:9574 14:8538 15:5619 #
0.010000000000000000208166817117217 1:11.17591 2:0.86682963 3:1.5787423 4:374 5:374 6:374 7:7 8:6 9:8 10:13.193261 11:9.3914156 12:7.8108692 13:8797 14:7023 15:4484 #
-0.010000000000000000208166817117217 1:26.20883 2:25.836315 3:21.844582 4:17 5:17 6:17 7:22 8:24 9:20 10:15.612207 11:14.361863 12:12.508574 13:9473 14:9142 15:8647 #
-0.010000000000000000208166817117217 1:49.074696 2:48.699638 3:46.138241 4:36 5:36 6:36 7:48 8:49 9:46 10:6.8162045 11:6.110642 12:6.0160828 13:9437 14:9321 15:9210 #
-0.010000000000000000208166817117217 1:23.56883 2:29.906315 3:34.12458 4:35 5:35 6:35 7:20 8:27 9:31 10:6.5216317 11:1.18246 12:4.6036348 13:9722 14:9463 15:9297 #
-0.010000000000000000208166817117217 1:1.8241378 2:31.936031 3:59.098942 4:549 5:549 6:549 7:0 8:41 9:70 10:3.8797791 11:13.69471 12:22.103983 13:6415 14:6831 15:7705 #
0.010000000000000000208166817117217 1:16.592241 2:32.490768 3:58.416122 4:485 5:485 6:485 7:18 8:34 9:58 10:11.949054 11:11.557877 12:8.7337227 13:5456 14:4319 15:2411 #
-0.010000000000000000208166817117217 1:6.4819012 2:37.27071 3:45.122898 4:7 5:7 6:7 7:3 8:34 9:41 10:1.8691911 11:4.8363323 12:8.6867943 13:7123 14:8361 15:8094 #
0.010000000000000000208166817117217 1:22.35775 2:27.774906 3:30.947777 4:22 5:22 6:22 7:21 8:28 9:30 10:11.729682 11:11.207643 12:11.461578 13:2172 14:1539 15:1403 #
-0.010000000000000000208166817117217 1:30.678099 2:42.019291 3:61.547104 4:24 5:24 6:24 7:29 8:40 9:57 10:8.7535963 11:16.25704 12:16.770676 13:4504 14:4286 15:3284 #
0.010000000000000000208166817117217 1:80.834618 2:84.243729 3:82.227745 4:143 5:143 6:143 7:86 8:93 9:90 10:3.7032967 11:5.2965479 12:5.2752709 13:10704 14:10759 15:10665 #
-0.010000000000000000208166817117217 1:22.579336 2:26.800598 3:25.405182 4:500 5:500 6:500 7:30 8:32 9:32 10:5.3556981 11:10.031711 12:8.8350267 13:10777 14:9913 15:9009 #
0.010000000000000000208166817117217 1:32.464695 2:33.509636 3:36.788242 4:17 5:17 6:17 7:29 8:29 9:33 10:5.2698421 11:4.4202042 12:4.3606381 13:8097 14:8057 15:8167 #
0.010000000000000000208166817117217 1:27.684694 2:32.979637 3:35.138241 4:158 5:158 6:158 7:19 8:22 9:27 10:4.5230665 11:5.6530528 12:5.2113185 13:9015 14:9094 15:9122 #
-0.010000000000000000208166817117217 1:16.231901 2:29.10071 3:40.992897 4:285 5:285 6:285 7:8 8:22 9:33 10:20.62488 11:12.811023 12:10.519739 13:9062 14:9651 15:9556 #
-0.010000000000000000208166817117217 1:37.525909 2:34.553169 3:7.191258 4:345 5:345 6:345 7:36 8:34 9:2 10:21.125572 11:18.484264 12:5.2546444 13:9207 14:7974 15:4628 #
0.010000000000000000208166817117217 1:27.112242 2:38.080769 3:58.22612 4:492 5:492 6:492 7:28 8:40 9:59 10:14.305485 11:12.981977 12:7.9947605 13:5044 14:4102 15:2416 #
0.010000000000000000208166817117217 1:16.555862 2:13.696031 3:16.898941 4:9 5:9 6:9 7:17 8:21 9:28 10:4.9137836 11:9.9610605 12:17.470581 13:7231 14:6304 15:6382 #
-0.010000000000000000208166817117217 1:16.408081 2:17.947088 3:16.252378 4:518 5:518 6:518 7:17 8:18 9:16 10:5.5777426 11:7.4164162 12:10.573755 13:4877 14:6310 15:5937 #
-0.010000000000000000208166817117217 1:23.669336 2:25.890598 3:26.695183 4:5 5:5 6:5 7:22 8:22 9:23 10:7.424499 11:12.100512 12:10.888528 13:9958 14:9022 15:8194 #
-0.010000000000000000208166817117217 1:26.046194 2:15.77727 3:13.925412 4:14 5:14 6:14 7:28 8:15 9:13 10:32.48983 11:13.123444 12:12.1692 13:5208 14:1478 15:1381 #
0.010000000000000000208166817117217 1:47.567837 2:15.35222 3:5.1712317 4:44 5:44 6:44 7:45 8:13 9:2 10:14.873793 11:14.310175 12:17.113779 13:7935 14:6191 15:5536 #
-0.010000000000000000208166817117217 1:21.699335 2:26.480598 3:22.945183 4:32 5:32 6:32 7:21 8:23 9:18 10:7.9763412 11:13.047952 12:12.125675 13:10428 14:9591 15:8671 #
-0.010000000000000000208166817117217 1:60.470924 2:47.238998 3:41.726685 4:83 5:83 6:83 7:86 8:89 9:82 10:16.914259 11:17.273165 12:8.482686 13:11181 14:6756 15:5977 #
0.010000000000000000208166817117217 1:18.724091 2:13.77317 3:101.92126 4:401 5:401 6:401 7:23 8:13 9:103 10:13.062589 11:12.528629 12:2.4737964 13:7082 14:6917 15:7273 #
0.010000000000000000208166817117217 1:1.729075 2:7.8589983 3:1.9266847 4:193 5:193 6:193 7:15 8:31 9:27 10:6.808568 11:9.6630383 12:13.63953 13:9093 14:8572 15:7815 #
0.010000000000000000208166817117217 1:56.071949 2:80.592369 3:78.054222 4:158 5:158 6:158 7:65 8:96 9:94 10:12.68749 11:26.045248 12:25.900972 13:3317 14:2198 15:2293 #
0.010000000000000000208166817117217 1:13.175862 2:5.2539692 3:15.191059 4:467 5:467 6:467 7:13 8:3 9:12 10:1.8390985 11:8.2419662 12:16.341347 13:8107 14:6541 15:6091 #
-0.010000000000000000208166817117217 1:44.069077 2:40.998997 3:37.526684 4:184 5:184 6:184 7:48 8:49 9:48 10:15.104019 11:23.735775 12:29.67841 13:4675 14:3819 15:2978 #
0.010000000000000000208166817117217 1:30.69591 2:42.923172 3:67.201256 4:127 5:127 6:127 7:30 8:39 9:71 10:12.364403 11:5.3989487 12:23.986202 13:8783 14:7980 15:6124 #
-0.010000000000000000208166817117217 1:39.735909 2:40.793171 3:22.901258 4:344 5:344 6:344 7:38 8:41 9:22 10:20.628181 11:19.047928 12:0.35195071 13:8872 14:7641 15:4127 #
0.010000000000000000208166817117217 1:31.594614 2:33.493725 3:35.437744 4:143 5:143 6:143 7:12 8:13 9:16 10:24.731274 11:26.7815 12:25.411512 13:9081 14:9123 15:9127 #
-0.010000000000000000208166817117217 1:31.838099 2:48.81929 3:56.597103 4:30 5:30 6:30 7:32 8:47 9:54 10:8.7673607 11:16.347029 12:19.515894 13:4516 14:4026 15:3255 #
-0.010000000000000000208166817117217 1:13.355863 2:45.866032 3:73.948944 4:567 5:567 6:567 7:14 8:53 9:84 10:0.78977573 11:9.3878078 12:18.196663 13:8425 14:8786 15:9702 #
0.010000000000000000208166817117217 1:36.774139 2:13.383969 3:2.8310595 4:36 5:36 6:36 7:31 8:2 9:12 10:5.4725113 11:1.8452975 12:9.6144104 13:5830 14:5929 15:6220 #
0.010000000000000000208166817117217 1:10.56883 2:10.366315 3:9.6445818 4:25 5:25 6:25 7:7 8:6 9:4 10:11.815131 11:5.0774865 12:0.12769912 13:8137 14:7808 15:7523 #
-0.010000000000000000208166817117217 1:32.028099 2:49.669289 3:58.577103 4:27 5:27 6:27 7:31 8:48 9:57 10:8.9561415 11:16.85969 12:20.060909 13:4445 14:3848 15:3018 #
0.010000000000000000208166817117217 1:26.245911 2:13.39317 3:1.0412577 4:346 5:346 6:346 7:26 8:15 9:5 10:18.459196 11:16.230089 12:8.1632605 13:8808 14:7070 15:3319 #
0.010000000000000000208166817117217 1:62.331951 2:87.102371 3:86.954224 4:405 5:405 6:405 7:72 8:103 9:104 10:12.918717 11:27.38835 12:27.319042 13:3311 14:2142 15:2168 #
-0.010000000000000000208166817117217 1:47.176872 2:46.325649 3:47.461624 4:310 5:310 6:310 7:50 8:49 9:50 10:15.204568 11:14.995856 12:15.143486 13:4001 14:3968 15:3876 #
-0.010000000000000000208166817117217 1:17.355862 2:46.076031 3:65.458939 4:296 5:296 6:296 7:23 8:58 9:80 10:9.0383358 11:0.23326834 12:9.5394926 13:9021 14:9259 15:9833 #
-0.010000000000000000208166817117217 1:21.514198 2:21.963076 3:19.923494 4:13 5:13 6:13 7:18 8:19 9:18 10:6.3096018 11:5.9766102 12:5.7655916 13:8565 14:8391 15:8379 #
-0.010000000000000000208166817117217 1:43.066193 2:21.937269 3:19.305412 4:28 5:28 6:28 7:46 8:24 9:21 10:20.494593 11:7.4244862 12:6.3300357 13:5204 14:1839 15:1777 #
0.010000000000000000208166817117217 1:25.701918 2:34.697086 3:42.912376 4:1 5:1 6:1 7:7 8:16 9:27 10:26.066925 11:24.200039 12:21.395718 13:8892 14:9352 15:9446 #
0.010000000000000000208166817117217 1:1.941918 2:28.227087 3:35.162376 4:1 5:1 6:1 7:2 8:28 9:34 10:2.725177 11:3.6175981 12:3.7413545 13:6214 14:7320 15:7327 #
0.010000000000000000208166817117217 1:20.429695 2:49.41531 3:38.838669 4:63 5:63 6:63 7:22 8:59 9:47 10:18.662102 11:20.167391 12:20.162514 13:5154 14:3978 15:4501 #
0.010000000000000000208166817117217 1:29.414696 2:34.639637 3:39.358242 4:158 5:158 6:158 7:16 8:22 9:28 10:10.266835 11:11.798504 12:9.5698738 13:9261 14:9366 15:9452 #
-0.010000000000000000208166817117217 1:22.774137 2:8.6960306 3:28.058941 4:13 5:13 6:13 7:21 8:20 9:45 10:5.2000294 11:7.6825686 12:11.680441 13:5430 14:5759 15:6363 #
0.010000000000000000208166817117217 1:1.808082 2:14.317088 3:9.1423779 4:281 5:281 6:281 7:1 8:15 9:10 10:2.539964 11:1.0866799 12:0.38687131 13:6665 14:7385 15:6904 #
-0.010000000000000000208166817117217 1:2.7758622 2:33.746033 3:71.258942 4:558 5:558 6:558 7:3 8:40 9:80 10:7.7365103 11:18.701885 12:28.677774 13:6525 14:6849 15:8042 #
-0.010000000000000000208166817117217 1:24.418831 2:26.486315 3:23.744581 4:30 5:30 6:30 7:19 8:21 9:22 10:6.413764 11:6.3020229 12:5.2873425 13:10173 14:9886 15:9386 #
-0.010000000000000000208166817117217 1:16.949076 2:32.078999 3:45.116684 4:26 5:26 6:26 7:19 8:40 9:57 10:16.960424 11:21.873589 12:26.530212 13:5558 14:4333 15:2828 #
0.010000000000000000208166817117217 1:4.3131266 2:5.9943523 3:9.5683746 4:3 5:3 6:3 7:4 8:6 9:9 10:1.5814006 11:1.3774939 12:1.8143549 13:6223 14:6130 15:6289 #
0.010000000000000000208166817117217 1:26.091902 2:16.400711 3:7.3071027 4:18 5:18 6:18 7:19 8:10 9:24 10:10.293864 11:5.213881 12:16.971165 13:7007 14:6764 15:5689 #
0.010000000000000000208166817117217 1:21.116194 2:14.49727 3:10.575413 4:267 5:267 6:267 7:29 8:15 9:12 10:21.165867 11:5.5389977 12:4.3432355 13:6475 14:2408 15:2474 #
-0.010000000000000000208166817117217 1:20.838831 2:19.066315 3:16.494581 4:2 5:2 6:2 7:15 8:14 9:11 10:8.562829 11:6.769949 12:3.009552 13:9394 14:8948 15:8610 #
-0.010000000000000000208166817117217 1:43.866875 2:43.055649 3:43.751625 4:308 5:308 6:308 7:47 8:46 9:47 10:16.157539 11:15.722282 12:15.354077 13:4096 14:4005 15:3957 #
0.010000000000000000208166817117217 1:42.273808 2:13.52273 3:12.104588 4:336 5:336 6:336 7:40 8:14 9:14 10:21.664843 11:0.47785693 12:0.48967227 13:10017 14:4819 15:4588 #
-0.010000000000000000208166817117217 1:24.81883 2:28.546314 3:32.474583 4:6 5:6 6:6 7:24 8:28 9:33 10:9.372777 11:7.8697906 12:5.0484891 13:9526 14:9363 15:9249 #
-0.010000000000000000208166817117217 1:47.446873 2:45.755646 3:47.351624 4:311 5:311 6:311 7:51 8:48 9:51 10:16.402342 11:15.757205 12:15.242382 13:3954 14:3905 15:3793 #
-0.010000000000000000208166817117217 1:23.345909 2:0.59317034 3:30.348742 4:355 5:355 6:355 7:21 8:0 9:29 10:19.157894 11:17.270609 12:11.712601 13:8585 14:6526 15:2045 #
0.010000000000000000208166817117217 1:8.9377499 2:10.354905 3:11.027777 4:236 5:236 6:236 7:10 8:11 9:12 10:3.0379848 11:1.7362443 12:1.4616477 13:3328 14:2842 15:2770 #
-0.010000000000000000208166817117217 1:47.006874 2:45.825649 3:45.851624 4:312 5:312 6:312 7:51 8:49 9:49 10:16.342836 11:15.796124 12:15.848057 13:4013 14:3934 15:3900 #
0.010000000000000000208166817117217 1:33.681919 2:48.207088 3:34.952377 4:34 5:34 6:34 7:31 8:45 9:32 10:15.685866 11:13.102011 12:20.772844 13:8241 14:8951 15:8317 #
-0.010000000000000000208166817117217 1:1.2619181 2:3.4029121 3:17.737621 4:255 5:255 6:255 7:0 8:4 9:16 10:4.734036 11:6.8503513 12:7.3203363 13:5529 14:5599 15:4849 #
0.010000000000000000208166817117217 1:32.461952 2:69.142372 3:69.704224 4:423 5:423 6:423 7:42 8:86 9:87 10:15.06139 11:28.376654 12:28.500948 13:3775 14:2259 15:2236 #
-0.010000000000000000208166817117217 1:46.326874 2:45.835648 3:46.051624 4:310 5:310 6:310 7:50 8:49 9:49 10:16.082569 11:15.823768 12:15.895052 13:3996 14:3878 15:3826 #
0.010000000000000000208166817117217 1:1.5631264 2:4.5243526 3:5.5983748 4:0 5:0 6:0 7:4 8:6 9:6 10:0.8900494 11:0.94547731 12:0.10216669 13:6623 14:6581 15:6587 #
-0.010000000000000000208166817117217 1:37.056873 2:34.805649 3:35.621624 4:300 5:300 6:300 7:40 8:38 9:39 10:17.214663 11:17.086708 12:17.157007 13:4291 14:4222 15:4156 #
0.010000000000000000208166817117217 1:22.564198 2:23.573076 3:23.163494 4:22 5:22 6:22 7:17 8:18 9:19 10:3.7511122 11:2.7381921 12:1.9535909 13:7942 14:7759 15:7734 #
0.010000000000000000208166817117217 1:54.54195 2:80.412369 3:82.304222 4:147 5:147 6:147 7:64 8:96 9:97 10:10.654 11:26.671938 12:26.535433 13:3452 14:2288 15:2229 #
-0.010000000000000000208166817117217 1:40.599335 2:44.020599 3:45.045181 4:254 5:254 6:254 7:45 8:45 9:46 10:10.786538 11:15.301501 12:14.060943 13:11354 14:10422 15:9616 #
0.010000000000000000208166817117217 1:3.1161935 2:14.67273 3:8.0345879 4:238 5:238 6:238 7:10 8:14 9:6 10:18.159807 11:2.0047171 12:1.7031686 13:7261 14:3783 15:3358 #
-0.010000000000000000208166817117217 1:12.773807 2:1.7127301 3:1.8945876 4:375 5:375 6:375 7:12 8:4 9:4 10:22.689035 11:0.89264452 12:0.21152399 13:9377 14:4961 15:4787 #
0.010000000000000000208166817117217 1:28.466194 2:4.59273 3:3.0754123 4:268 5:268 6:268 7:16 8:3 9:4 10:14.293267 11:1.3837117 12:5.8051839 13:6186 14:3202 15:2875 #
-0.010000000000000000208166817117217 1:16.323126 2:15.854352 3:14.158375 4:250 5:250 6:250 7:13 8:13 9:11 10:14.975506 11:14.585938 12:14.19792 13:6241 14:6085 15:5977 #
-0.010000000000000000208166817117217 1:17.306194 2:7.63727 3:9.2154121 4:16 5:16 6:16 7:24 8:8 9:9 10:16.476599 11:3.8012855 12:3.6010988 13:6062 14:2232 15:2012 #
0.010000000000000000208166817117217 1:4.969336 2:7.690599 3:5.6051822 4:214 5:214 6:214 7:7 8:6 9:4 10:4.4564972 11:10.164967 12:9.5497303 13:10099 14:9148 15:8212 #
0.010000000000000000208166817117217 1:16.869335 2:20.500599 3:21.255182 4:240 5:240 6:240 7:22 8:23 9:24 10:6.3545971 11:11.297815 12:10.363451 13:10794 14:9870 15:9034 #
0.010000000000000000208166817117217 1:2.3067281 2:11.21032 3:11.140106 4:89 5:89 6:89 7:1 8:2 9:1 10:6.2201409 11:13.417264 12:18.87499 13:7230 14:6681 15:5126 #
-0.010000000000000000208166817117217 1:0.29408997 2:21.49683 3:35.218742 4:47 5:47 6:47 7:5 8:23 9:37 10:11.048006 11:8.229003 12:8.9448891 13:7469 14:5428 15:1431 #
0.010000000000000000208166817117217 1:5.5393357 2:5.0405989 3:4.1751823 4:207 5:207 6:207 7:1 8:1 9:0 10:6.4902086 11:11.942319 12:11.236792 13:9884 14:8841 15:7832 #
0.010000000000000000208166817117217 1:22.407749 2:26.204905 3:29.677776 4:21 5:21 6:21 7:21 8:27 9:29 10:9.1211529 11:8.7347679 12:9.1904621 13:2922 14:2337 15:2202 #
0.010000000000000000208166817117217 1:52.525803 2:48.066925 3:50.623493 4:98 5:98 6:98 7:93 8:98 9:44 10:35.714886 11:44.505581 12:33.518192 13:10400 14:10276 15:7663 #
0.010000000000000000208166817117217 1:2.1893358 2:2.8305991 3:3.4551823 4:210 5:210 6:210 7:3 8:2 9:3 10:4.5039487 11:8.6712093 12:7.3966088 13:10373 14:9340 15:8496 #
0.010000000000000000208166817117217 1:6.1067281 2:12.77032 3:14.900106 4:111 5:111 6:111 7:5 8:7 9:7 10:10.872867 11:17.522497 12:23.276663 13:6946 14:6290 15:4844 #
0.010000000000000000208166817117217 1:13.924615 2:17.233727 3:19.607744 4:143 5:143 6:143 7:1 8:2 9:2 10:22.360086 11:24.188791 12:24.199488 13:8145 14:8181 15:8211 #
0.010000000000000000208166817117217 1:24.505911 2:38.673172 3:54.121258 4:351 5:351 6:351 7:23 8:37 9:43 10:15.548971 11:8.6505613 12:31.637678 13:8480 14:7787 15:5931 #
0.010000000000000000208166817117217 1:22.657749 2:28.954905 3:31.897778 4:23 5:23 6:23 7:21 8:29 9:31 10:12.087828 11:12.853756 12:12.705156 13:2241 14:1603 15:1443 #
-0.010000000000000000208166817117217 1:31.906193 2:16.027269 3:13.775413 4:18 5:18 6:18 7:35 8:17 9:14 10:29.427979 11:9.3392982 12:8.5648527 13:5704 14:2160 15:2109 #
-0.010000000000000000208166817117217 1:55.680923 2:48.418999 3:42.556686 4:83 5:83 6:83 7:89 8:90 9:83 10:22.84761 11:14.937879 12:6.9752083 13:11428 14:6346 15:5634 #
0.010000000000000000208166817117217 1:1.5403053 2:32.365311 3:18.178669 4:263 5:263 6:263 7:0 8:44 9:29 10:18.041952 11:13.930063 12:14.413092 13:5858 14:4522 15:5112 #
-0.010000000000000000208166817117217 1:121.64619 2:26.997271 3:30.935411 4:33 5:33 6:33 7:125 8:27 9:31 10:36.026855 11:15.444113 12:13.981321 13:1360 14:642 15:359 #
-0.010000000000000000208166817117217 1:25.193806 2:4.2127299 3:6.0445876 4:9 5:9 6:9 7:22 8:4 9:6 10:30.575817 11:9.2527132 12:8.2217436 13:7099 14:2289 15:2176 #
0.010000000000000000208166817117217 1:49.623806 2:18.26273 3:17.054588 4:247 5:247 6:247 7:46 8:19 9:17 10:25.967852 11:4.7588806 12:3.4778774 13:9390 14:4205 15:3921 #
0.010000000000000000208166817117217 1:5.740664 2:1.1494011 3:1.2148178 4:37 5:37 6:37 7:12 8:9 9:6 10:0.4657653 11:4.1520681 12:3.5529008 13:10019 14:9149 15:8269 #
-0.010000000000000000208166817117217 1:8.8432722 2:1.7796799 3:3.550106 4:132 5:132 6:132 7:11 8:9 9:7 10:12.392765 11:19.853474 12:25.1761 13:5945 14:5320 15:4017 #
0.010000000000000000208166817117217 1:61.671951 2:87.712372 3:86.444221 4:72 5:72 6:72 7:69 8:104 9:103 10:13.188735 11:27.735802 12:28.353544 13:3402 14:2287 15:2305 #
0.010000000000000000208166817117217 1:37.687836 2:1.79778 3:18.578768 4:37 5:37 6:37 7:33 8:7 9:25 10:12.767977 11:11.215292 12:14.382937 13:7487 14:5553 15:4602 #
0.010000000000000000208166817117217 1:73.826195 2:27.40727 3:24.905413 4:35 5:35 6:35 7:74 8:28 9:26 10:18.760612 11:8.4562597 12:9.0504608 13:4186 14:1692 15:1596 #
-0.010000000000000000208166817117217 1:14.649336 2:20.990599 3:20.565182 4:236 5:236 6:236 7:14 8:18 9:18 10:5.8065166 11:10.395909 12:9.5011501 13:10548 14:9767 15:8872 #
-0.010000000000000000208166817117217 1:5.0690751 2:1.3610016 3:11.773315 4:218 5:218 6:218 7:9 8:9 9:1 10:12.84353 11:18.866922 12:25.652868 13:6106 14:5469 15:4823 #
-0.010000000000000000208166817117217 1:17.469336 2:21.670599 3:21.635181 4:35 5:35 6:35 7:15 8:16 9:16 10:0.12284653 11:4.9188833 12:3.9667819 13:10561 14:9714 15:8808 #
-0.010000000000000000208166817117217 1:32.004089 2:46.096828 3:27.638742 4:419 5:419 6:419 7:36 8:47 9:28 10:16.097559 11:13.798376 12:9.7400045 13:6678 14:4906 15:2256 #
0.010000000000000000208166817117217 1:6.8609252 2:3.3989983 3:12.816685 4:9 5:9 6:9 7:0 8:14 9:25 10:5.3272109 11:6.5218582 12:11.564981 13:7154 14:6208 15:4873 #
0.010000000000000000208166817117217 1:21.13591 2:3.6368296 3:33.768742 4:359 5:359 6:359 7:20 8:3 9:31 10:21.98542 11:19.787354 12:15.026886 13:8147 14:5986 15:1594 #
-0.010000000000000000208166817117217 1:26.90591 2:9.9231701 3:23.338743 4:354 5:354 6:354 7:25 8:9 9:23 10:15.164324 11:12.936236 12:7.5853472 13:8607 14:6749 15:2413 #
0.010000000000000000208166817117217 1:4.9832716 2:21.50968 3:32.299892 4:373 5:373 6:373 7:11 8:37 9:55 10:1.5619379 11:3.4948373 12:2.3557496 13:6811 14:5283 15:3433 #
-0.010000000000000000208166817117217 1:26.12883 2:37.456314 3:44.794582 4:273 5:273 6:273 7:24 8:35 9:46 10:8.0027332 11:8.8320141 12:9.4800158 13:9677 14:9631 15:9441 #
0.010000000000000000208166817117217 1:31.929075 2:49.069 3:58.366684 4:408 5:408 6:408 7:31 8:52 9:66 10:4.2185674 11:7.9511967 12:17.2817 13:5353 14:3937 15:2660 #
-0.010000000000000000208166817117217 1:48.716194 2:21.577271 3:20.175413 4:23 5:23 6:23 7:55 8:22 9:21 10:26.041594 11:12.091246 12:11.183663 13:4174 14:1222 15:1026 #
-0.010000000000000000208166817117217 1:5.9990749 2:0.98100168 3:9.5733156 4:222 5:222 6:222 7:7 8:8 9:0 10:10.78259 11:18.959618 12:24.562546 13:6026 14:5386 15:4676 #
0.010000000000000000208166817117217 1:3.40591 2:0.88317037 3:2.4587421 4:380 5:380 6:380 7:1 8:2 9:1 10:12.967206 11:11.378338 12:4.1386609 13:7988 14:6622 15:3238 #
-0.010000000000000000208166817117217 1:43.919334 2:48.350597 3:48.155182 4:49 5:49 6:49 7:45 8:47 9:47 10:11.120757 11:15.397654 12:14.18567 13:11243 14:10469 15:9605 #
-0.010000000000000000208166817117217 1:0.42312646 2:0.21564755 3:0.21162504 4:263 5:263 6:263 7:2 8:3 9:3 10:14.367337 11:13.829747 12:13.722362 13:5704 14:5546 15:5501 #
-0.010000000000000000208166817117217 1:0.30190134 2:37.330711 3:45.162899 4:5 5:5 6:5 7:1 8:40 9:47 10:9.3825884 11:17.2377 12:20.568954 13:5372 14:6809 15:6655 #
0.010000000000000000208166817117217 1:10.623806 2:5.09273 3:2.3545876 4:236 5:236 6:236 7:9 8:5 9:2 10:27.926519 11:5.5325193 12:6.0629754 13:6935 14:2614 15:2353 #
-0.010000000000000000208166817117217 1:4.6441379 2:31.766031 3:59.888939 4:276 5:276 6:276 7:3 8:40 9:71 10:5.0180888 11:14.336423 12:23.746134 13:6021 14:6573 15:7494 #
-0.010000000000000000208166817117217 1:96.932167 2:76.167778 3:56.768768 4:151 5:151 6:151 7:101 8:80 9:61 10:18.158199 11:20.384085 12:22.917528 13:2521 14:2622 15:3005 #
-0.010000000000000000208166817117217 1:10.299335 2:14.290599 3:12.345182 4:19 5:19 6:19 7:11 8:13 9:11 10:2.609591 11:6.9607596 12:5.2226667 13:10721 14:9808 15:8935 #
0.010000000000000000208166817117217 1:1.1390749 2:0.13100167 3:1.2133152 4:223 5:223 6:223 7:4 8:8 9:9 10:15.242449 11:23.48377 12:29.109747 13:6201 14:5279 15:4341 #
0.010000000000000000208166817117217 1:35.849075 2:48.718998 3:58.166683 4:395 5:395 6:395 7:38 8:56 9:69 10:13.133832 11:17.432936 12:24.687956 13:4974 14:3726 15:2396 #
0.010000000000000000208166817117217 1:1.0058023 2:3.3230758 3:8.8834934 4:43 5:43 6:43 7:2 8:6 9:12 10:7.7773881 11:9.0586214 12:10.100107 13:9732 14:9369 15:9140 #
0.010000000000000000208166817117217 1:21.463806 2:12.30273 3:8.7645874 4:366 5:366 6:366 7:20 8:14 9:11 10:27.44598 11:4.5034523 12:4.9591265 13:7425 14:3010 15:2708 #
0.010000000000000000208166817117217 1:82.216194 2:27.267269 3:25.335413 4:35 5:35 6:35 7:85 8:28 9:26 10:24.970913 11:9.4117832 12:8.9101353 13:3907 14:1776 15:1636 #
0.010000000000000000208166817117217 1:20.863806 2:13.25273 3:8.8045874 4:2 5:2 6:2 7:17 8:12 9:9 10:23.386158 11:3.9357007 12:3.3700535 13:7921 14:3735 15:3320 #
-0.010000000000000000208166817117217 1:32.119335 2:36.170597 3:35.835182 4:235 5:235 6:235 7:37 8:39 9:38 10:4.1381111 11:8.7433167 12:7.6252108 13:10429 14:9552 15:8710 #
0.010000000000000000208166817117217 1:27.501169 2:23.153685 3:15.755418 4:71 5:71 6:71 7:32 8:28 9:17 10:1.5505536 11:2.2391963 12:5.1448455 13:8032 14:7824 15:7729 #
-0.010000000000000000208166817117217 1:41.006195 2:17.747271 3:15.275413 4:20 5:20 6:20 7:51 8:21 9:18 10:15.882671 11:5.0204821 12:5.2454958 13:4551 14:1215 15:1131 #
-0.010000000000000000208166817117217 1:18.939337 2:21.000599 3:21.045183 4:29 5:29 6:29 7:24 8:24 9:24 10:6.6081948 11:11.329598 12:10.027104 13:10508 14:9563 15:8714 #
0.010000000000000000208166817117217 1:6.9967284 2:12.26032 3:16.990107 4:100 5:100 6:100 7:3 8:2 9:5 10:8.1113777 11:14.341665 12:20.475262 13:7148 14:6500 15:5144 #
0.010000000000000000208166817117217 1:16.61883 2:12.986315 3:9.9245815 4:213 5:213 6:213 7:13 8:11 9:9 10:8.2017403 11:6.210896 12:3.3066187 13:9755 14:9259 15:8838 #
-0.010000000000000000208166817117217 1:3.6059101 2:9.9231701 3:22.881258 4:138 5:138 6:138 7:4 8:12 9:23 10:12.375644 11:11.644157 12:1.4061022 13:8063 14:6934 15:4842 #
-0.010000000000000000208166817117217 1:58.236195 2:27.017269 3:22.785412 4:21 5:21 6:21 7:62 8:27 9:23 10:30.62553 11:11.717884 12:10.791244 13:4192 14:1271 15:1204 #
-0.010000000000000000208166817117217 1:34.04591 2:43.403172 3:16.441257 4:352 5:352 6:352 7:30 8:41 9:21 10:18.049776 11:15.896616 12:3.5699079 13:9345 14:8431 15:4378 #
0.010000000000000000208166817117217 1:20.23591 2:46.473171 3:99.731255 4:363 5:363 6:363 7:19 8:45 9:104 10:18.491251 11:17.847754 12:0.35987589 13:8646 14:8304 15:7371 #
0.010000000000000000208166817117217 1:1.2464134 2:0.32081333 3:1.3818933 4:518 5:518 6:518 7:3 8:2 9:1 10:5.280766 11:8.1088696 12:6.4083414 13:4338 14:4374 15:4514 #
-0.010000000000000000208166817117217 1:5.4309249 2:2.9089983 3:11.806684 4:6 5:6 6:6 7:2 8:11 9:22 10:12.056444 11:14.288895 12:15.139751 13:6427 14:5375 15:3991 #
0.010000000000000000208166817117217 1:66.25898 2:69.58049 3:71.895699 4:152 5:152 6:152 7:88 8:91 9:92 10:18.421175 11:21.030495 12:20.583443 13:11672 14:11774 15:11754 #
0.010000000000000000208166817117217 1:21.856194 2:3.9172699 3:6.4654121 4:264 5:264 6:264 7:25 8:3 9:6 10:29.538227 11:8.8079023 12:7.737505 13:5749 14:2295 15:2028 #
-0.010000000000000000208166817117217 1:23.713806 2:5.36273 3:5.1945877 4:2 5:2 6:2 7:20 8:6 9:6 10:30.9839 11:10.31706 12:9.2524948 13:7335 14:2550 15:2377 #
0.010000000000000000208166817117217 1:26.108829 2:26.956314 3:25.924582 4:19 5:19 6:19 7:25 8:28 9:27 10:8.7048883 11:5.8826599 12:4.4779058 13:9948 14:9636 15:9208 #
-0.010000000000000000208166817117217 1:8.9193363 2:12.380599 3:14.125182 4:4 5:4 6:4 7:10 8:10 9:13 10:10.119338 11:14.87995 12:13.241758 13:10647 14:9730 15:9001 #
-0.010000000000000000208166817117217 1:5.2361937 2:4.2472701 3:3.7054124 4:256 5:256 6:256 7:7 8:4 9:3 10:32.782257 11:12.998688 12:11.112457 13:5697 14:1628 15:1483 #
0.010000000000000000208166817117217 1:65.266197 2:15.77727 3:17.985413 4:279 5:279 6:279 7:68 8:17 9:18 10:26.207951 11:6.2655263 12:5.746067 13:4692 14:2470 15:2177 #
-0.010000000000000000208166817117217 1:7.4741378 2:26.38603 3:41.78894 4:271 5:271 6:271 7:4 8:37 9:55 10:4.3761978 11:13.544341 12:23.242434 13:6316 14:6764 15:7177 #
-0.010000000000000000208166817117217 1:0.93672824 2:9.0403204 3:10.770106 4:370 5:370 6:370 7:2 8:2 9:1 10:8.7947359 11:15.603811 12:21.294861 13:6489 14:5964 15:4485 #
0.010000000000000000208166817117217 1:4.0061936 2:4.7472701 3:1.0354123 4:10 5:10 6:10 7:6 8:3 9:0 10:23.923409 11:5.2361655 12:3.9944699 13:7274 14:3192 15:3110 #
-0.010000000000000000208166817117217 1:2.6538064 2:1.59727 3:0.13541232 4:8 5:8 6:8 7:1 8:0 9:2 10:24.579693 11:4.7883224 12:3.7284262 13:7990 14:3801 15:3646 #
-0.010000000000000000208166817117217 1:3.69591 2:2.7268298 3:25.998743 4:374 5:374 6:374 7:2 8:3 9:24 10:19.383646 11:17.779846 12:13.086761 13:7589 14:6099 15:1779 #
0.010000000000000000208166817117217 1:0.66092503 2:6.8089981 3:13.856685 4:17 5:17 6:17 7:7 8:20 9:33 10:9.0089846 11:10.906493 12:12.916245 13:6326 14:5347 15:4071 #
-0.010000000000000000208166817117217 1:6.8661938 2:4.7072701 3:4.2354121 4:8 5:8 6:8 7:12 8:6 9:5 10:25.756157 11:4.9536324 12:3.8899488 13:7148 14:3240 15:3045 #
0.010000000000000000208166817117217 1:48.878983 2:51.99049 3:51.865696 4:152 5:152 6:152 7:44 8:46 9:46 10:18.285545 11:21.55854 12:20.905142 13:10162 14:10167 15:10095 #
0.010000000000000000208166817117217 1:9.3653851 2:15.576274 3:15.212255 4:6 5:6 6:6 7:9 8:13 9:14 10:6.4781923 11:6.6949921 12:6.2757106 13:6475 14:6179 15:6171 #
-0.010000000000000000208166817117217 1:24.95883 2:31.426315 3:37.37458 4:24 5:24 6:24 7:21 8:28 9:35 10:13.588146 11:11.857677 12:7.8987885 13:9222 14:9093 15:9140 #
-0.010000000000000000208166817117217 1:7.7361937 2:3.2372699 3:2.0854123 4:405 5:405 6:405 7:13 8:6 9:4 10:22.476368 11:1.6252799 12:0.73005694 13:7936 14:3982 15:3842 #
0.010000000000000000208166817117217 1:43.773808 2:16.172729 3:14.944588 4:247 5:247 6:247 7:37 8:10 9:10 10:23.539736 11:2.1046915 12:1.316951 13:9831 14:4784 15:4535 #
0.010000000000000000208166817117217 1:2.6361935 2:1.51727 3:2.0554123 4:386 5:386 6:386 7:6 8:1 9:2 10:9.2010269 11:5.2621059 12:2.9886715 13:6924 14:2739 15:2481 #
-0.010000000000000000208166817117217 1:122.46619 2:27.577271 3:32.655411 4:517 5:517 6:517 7:125 8:27 9:32 10:37.523132 11:16.07975 12:15.084518 13:1144 14:496 15:136 #
0.010000000000000000208166817117217 1:32.483273 2:44.969681 3:49.459892 4:400 5:400 6:400 7:39 8:59 9:65 10:10.052326 11:12.557601 12:13.090089 13:5035 14:3758 15:2080 #
0.010000000000000000208166817117217 1:17.955803 2:9.7669239 3:50.013493 4:98 5:98 6:98 7:3 8:16 9:32 10:32.436424 11:37.498257 12:25.706924 13:10081 14:9730 15:7748 #
-0.010000000000000000208166817117217 1:15.50591 2:9.6068296 3:25.178741 4:374 5:374 6:374 7:11 8:12 9:25 10:16.373301 11:14.55166 12:8.5521984 13:8912 14:6743 15:2884 #
0.010000000000000000208166817117217 1:10.043272 2:35.489681 3:58.149895 4:380 5:380 6:380 7:16 8:49 9:75 10:1.1642272 11:1.7381328 12:4.5471611 13:6232 14:4469 15:2161 #
0.010000000000000000208166817117217 1:35.974693 2:35.939636 3:37.228241 4:158 5:158 6:158 7:23 8:19 9:22 10:11.489027 11:15.512115 12:15.254225 13:10177 14:10034 15:10066 #
-0.010000000000000000208166817117217 1:9.836874 2:7.3456473 3:9.4816246 4:242 5:242 6:242 7:8 8:7 9:8 10:1.2952391 11:1.377786 12:0.677459 13:6550 14:6468 15:6406 #
-0.010000000000000000208166817117217 1:18.983807 2:0.34273005 3:1.5945877 4:376 5:376 6:376 7:16 8:1 9:1 10:24.386755 11:4.8889394 12:4.5639482 13:7661 14:2913 15:2817 #
-0.010000000000000000208166817117217 1:9.9368734 2:10.085648 3:11.301625 4:231 5:231 6:231 7:13 8:13 9:15 10:4.2689829 11:4.0660024 12:3.3391166 13:6548 14:6404 15:6358 #
0.010000000000000000208166817117217 1:27.085802 2:23.036924 3:7.7765064 4:98 5:98 6:98 7:17 8:16 9:13 10:15.695494 11:17.333313 12:11.13396 13:9997 14:9874 15:9231 #
0.010000000000000000208166817117217 1:2.6609249 2:1.4389983 3:2.4166846 4:5 5:5 6:5 7:2 8:4 9:8 10:5.327599 11:9.9477158 12:14.362659 13:6778 14:5889 15:4918 #
0.010000000000000000208166817117217 1:9.8546143 2:11.463726 3:10.427744 4:18 5:18 6:18 7:16 8:13 9:14 10:29.780172 11:30.623835 12:30.462971 13:7887 14:7836 15:7795 #
0.010000000000000000208166817117217 1:3.89591 2:0.44317034 3:1.3487422 4:1 5:1 6:1 7:5 8:3 9:2 10:12.92659 11:10.274131 12:7.6587529 13:7888 14:6506 15:3096 #
-0.010000000000000000208166817117217 1:39.319336 2:43.6306 3:42.235184 4:29 5:29 6:29 7:42 8:44 9:44 10:4.8584538 11:9.3860626 12:8.3911829 13:10972 14:10159 15:9247 #
0.010000000000000000208166817117217 1:53.944614 2:55.073727 3:54.367744 4:143 5:143 6:143 7:61 8:60 9:59 10:24.808466 11:27.713242 12:27.319946 13:10071 14:10078 15:10009 #
0.010000000000000000208166817117217 1:36.184696 2:38.599636 3:38.678242 4:158 5:158 6:158 7:27 8:29 9:31 10:13.209296 11:15.946942 12:15.832943 13:10269 14:10221 15:10208 #
-0.010000000000000000208166817117217 1:6.1946144 2:5.0837264 3:5.2477441 4:500 5:500 6:500 7:7 8:7 9:7 10:11.23335 11:11.587878 12:11.681546 13:5944 14:5814 15:5803 #
-0.010000000000000000208166817117217 1:27.116194 2:3.5227301 3:2.9654124 4:35 5:35 6:35 7:4 8:7 9:3 10:17.677984 11:2.0583081 12:5.7448068 13:5979 14:2778 15:2356 #
-0.010000000000000000208166817117217 1:20.855862 2:60.89603 3:86.868942 4:611 5:611 6:611 7:23 8:67 9:98 10:11.571966 11:0.6069476 12:10.453866 13:8628 14:9297 15:10065 #
-0.010000000000000000208166817117217 1:13.196194 2:2.5072699 3:2.2754123 4:2 5:2 6:2 7:14 8:1 9:1 10:28.524269 11:7.7780986 12:7.2680974 13:6377 14:2706 15:2509 #
-0.010000000000000000208166817117217 1:37.416195 2:18.077271 3:17.015411 4:18 5:18 6:18 7:40 8:18 9:17 10:31.765957 11:12.346661 12:11.858239 13:4967 14:1622 15:1362 #
0.010000000000000000208166817117217 1:50.839073 2:71.959 3:78.206688 4:371 5:371 6:371 7:55 8:79 9:90 10:11.16835 11:16.801176 12:26.008547 13:4598 14:2980 15:1614 #
-0.010000000000000000208166817117217 1:48.47591 2:53.033169 3:0.93125772 4:334 5:334 6:334 7:45 8:52 9:0 10:19.812677 11:17.117523 12:9.4823647 13:9584 14:8554 15:3407 #
-0.010000000000000000208166817117217 1:9.9141378 2:22.106031 3:47.078941 4:2 5:2 6:2 7:6 8:32 9:60 10:0.74009937 11:10.368876 12:18.97072 13:6351 14:6722 15:7487 #
-0.010000000000000000208166817117217 1:52.45591 2:62.453171 3:26.821259 4:336 5:336 6:336 7:50 8:62 9:28 10:19.011263 11:15.775833 12:11.52361 13:9646 14:8753 15:4233 #
-0.010000000000000000208166817117217 1:38.179337 2:41.580601 3:43.545181 4:34 5:34 6:34 7:42 8:43 9:45 10:4.5446577 11:9.13976 12:7.6386991 13:10661 14:9789 15:8999 #
-0.010000000000000000208166817117217 1:37.689335 2:39.760597 3:41.565182 4:12 5:12 6:12 7:42 8:43 9:44 10:10.55364 11:14.974347 12:13.976636 13:10449 14:9507 15:8725 #
-0.010000000000000000208166817117217 1:5.969336 2:10.550599 3:9.9051819 4:221 5:221 6:221 7:2 8:5 9:5 10:0.17310652 11:5.326128 12:4.8077979 13:10158 14:9285 15:8392 #
0.010000000000000000208166817117217 1:17.414696 2:17.569637 3:16.938242 4:414 5:414 6:414 7:15 8:15 9:13 10:10.25437 11:10.86804 12:10.794905 13:9881 14:9761 15:9687 #
0.010000000000000000208166817117217 1:26.023806 2:11.93273 3:8.9245872 4:12 5:12 6:12 7:24 8:13 9:10 10:23.680376 11:5.4872274 12:4.5902414 13:8196 14:3728 15:3410 #
0.010000000000000000208166817117217 1:51.406193 2:8.7472696 3:10.565413 4:268 5:268 6:268 7:55 8:9 9:11 10:27.807299 11:7.4490094 12:6.6541371 13:4648 14:2125 15:1852 #
-0.010000000000000000208166817117217 1:7.9668736 2:6.9156475 3:8.081625 4:256 5:256 6:256 7:3 8:1 9:4 10:0.51179969 11:0.84545755 12:1.8444954 13:6939 14:6819 15:6753 #
-0.010000000000000000208166817117217 1:32.123634 2:35.130207 3:40.494709 4:39 5:39 6:39 7:34 8:38 9:45 10:16.218529 11:18.203989 12:21.038649 13:8164 14:8164 15:8452 #
-0.010000000000000000208166817117217 1:45.223808 2:18.18273 3:14.574588 4:231 5:231 6:231 7:42 8:19 9:15 10:33.325153 11:12.006911 12:11.280016 13:7887 14:2905 15:2530 #
0.010000000000000000208166817117217 1:83.486191 2:27.197269 3:24.495413 4:35 5:35 6:35 7:84 8:29 9:26 10:20.727198 11:7.839798 12:6.7812977 13:3730 14:1780 15:1582 #
-0.010000000000000000208166817117217 1:92.482162 2:70.637779 3:50.41877 4:160 5:160 6:160 7:94 8:72 9:54 10:14.215343 11:17.479649 12:21.910343 13:2681 14:2873 15:3212 #
-0.010000000000000000208166817117217 1:0.10066406 2:3.5205989 3:4.5251822 4:233 5:233 6:233 7:1 8:2 9:3 10:7.5978932 11:12.12417 12:11.204015 13:9967 14:9080 15:8263 #
0.010000000000000000208166817117217 1:17.284695 2:18.269638 3:18.558243 4:503 5:503 6:503 7:18 8:16 9:17 10:8.2621059 11:9.9370317 12:10.122495 13:9616 14:9552 15:9526 #
0.010000000000000000208166817117217 1:1.5922502 2:1.4449055 3:5.8477769 4:238 5:238 6:238 7:2 8:1 9:6 10:2.6423392 11:1.8290709 12:2.0980852 13:3947 14:3377 15:3222 #
-0.010000000000000000208166817117217 1:19.71883 2:20.376314 3:17.774582 4:5 5:5 6:5 7:18 8:19 9:22 10:4.3868861 11:0.80555928 12:2.963155 13:10526 14:10276 15:9909 #
0.010000000000000000208166817117217 1:27.328831 2:31.476315 3:33.414581 4:520 5:520 6:520 7:24 8:29 9:36 10:5.9793963 11:1.2048765 12:1.1673717 13:9760 14:9622 15:9397 #
0.010000000000000000208166817117217 1:1.110664 2:0.19940104 3:2.0048177 4:257 5:257 6:257 7:3 8:4 9:5 10:2.997164 11:9.0859976 12:8.690958 13:10218 14:9193 15:8247 #
-0.010000000000000000208166817117217 1:32.619335 2:36.840599 3:34.645184 4:26 5:26 6:26 7:34 8:36 9:34 10:11.407173 11:16.083185 12:14.871202 13:10623 14:9759 15:8823 #
-0.010000000000000000208166817117217 1:22.81883 2:24.966314 3:26.394583 4:218 5:218 6:218 7:22 8:27 9:28 10:10.002364 11:8.7391186 12:5.0357447 13:9841 14:9506 15:9481 #
0.010000000000000000208166817117217 1:8.16117 2:19.513685 3:26.415419 4:464 5:464 6:464 7:15 8:24 9:28 10:8.2145844 11:5.0404277 12:2.3567524 13:8891 14:8067 15:7500 #
-0.010000000000000000208166817117217 1:0.77312648 2:0.65435243 3:0.30837497 4:264 5:264 6:264 7:3 8:3 9:3 10:14.493176 11:14.247999 12:13.87329 13:5643 14:5502 15:5453 #
-0.010000000000000000208166817117217 1:2.3641379 2:29.286032 3:35.718941 4:260 5:260 6:260 7:5 8:33 9:44 10:12.326478 11:2.6317141 12:6.1492767 13:8961 14:9337 15:9443 #
0.010000000000000000208166817117217 1:59.351952 2:76.45237 3:75.664223 4:153 5:153 6:153 7:72 8:101 9:101 10:2.3983092 11:12.462953 12:11.155876 13:2852 14:2081 15:2091 #
0.010000000000000000208166817117217 1:2.8196948 2:18.08531 3:5.7286682 4:268 5:268 6:268 7:4 8:31 9:14 10:17.089109 11:2.7588589 12:8.2023468 13:5593 14:5072 15:5556 #
0.010000000000000000208166817117217 1:36.845802 2:27.236923 3:33.753494 4:98 5:98 6:98 7:29 8:10 9:32 10:23.282827 11:29.33638 12:31.118166 13:10794 14:10473 15:8688 #
0.010000000000000000208166817117217 1:2.0777497 2:1.2749054 3:3.2277768 4:1 5:1 6:1 7:1 8:1 9:3 10:6.9258146 11:6.5096459 12:6.630908 13:3617 14:3189 15:3061 #
0.010000000000000000208166817117217 1:2.139075 2:0.10100166 3:1.4066848 4:460 5:460 6:460 7:1 8:3 9:9 10:8.920536 11:15.33668 12:21.980284 13:6518 14:5709 15:4612 #
0.010000000000000000208166817117217 1:42.501949 2:66.322365 3:64.514221 4:151 5:151 6:151 7:57 8:93 9:89 10:0.71335411 11:4.4245796 12:6.1161175 13:4490 14:3437 15:3459 #
0.010000000000000000208166817117217 1:4.8741975 2:9.853076 3:23.433493 4:98 5:98 6:98 7:15 8:20 9:28 10:23.869797 11:25.04563 12:17.329769 13:9649 14:9456 15:8854 #
-0.010000000000000000208166817117217 1:3.2990749 2:0.48100168 3:5.6733155 4:217 5:217 6:217 7:9 8:11 9:8 10:11.999869 11:18.039312 12:23.800934 13:6121 14:5434 15:4636 #
0.010000000000000000208166817117217 1:35.956192 2:10.02727 3:7.5354123 4:441 5:441 6:441 7:42 8:10 9:9 10:26.072987 11:6.5309362 12:5.0633469 13:5542 14:2345 15:2316 #
-0.010000000000000000208166817117217 1:32.219337 2:34.4506 3:35.035183 4:34 5:34 6:34 7:37 8:37 9:38 10:5.4197478 11:9.9545097 12:9.0539474 13:10740 14:9806 15:8978 #
-0.010000000000000000208166817117217 1:2.7259099 2:20.206829 3:39.448742 4:47 5:47 6:47 7:0 8:21 9:40 10:18.647058 11:16.75783 12:14.152296 13:7827 14:5745 15:1590 #
-0.010000000000000000208166817117217 1:18.479336 2:22.970598 3:22.315182 4:24 5:24 6:24 7:19 8:22 9:22 10:5.4071379 11:10.065131 12:9.3825407 13:10540 14:9677 15:8813 #
0.010000000000000000208166817117217 1:5.6659102 2:0.27317035 3:13.538742 4:166 5:166 6:166 7:4 8:2 9:12 10:16.251019 11:14.07446 12:10.319969 13:7706 14:6240 15:2408 #
-0.010000000000000000208166817117217 1:17.049335 2:20.340599 3:19.045183 4:12 5:12 6:12 7:18 8:18 9:17 10:5.4349933 11:10.819403 12:10.166383 13:11531 14:10586 15:9672 #
-0.010000000000000000208166817117217 1:51.413807 2:20.09273 3:18.754587 4:343 5:343 6:343 7:49 8:20 9:20 10:29.736431 11:9.1269026 12:8.2023544 13:8854 14:3557 15:3362 #
-0.010000000000000000208166817117217 1:19.906193 2:10.48727 3:10.805412 4:268 5:268 6:268 7:26 8:12 9:12 10:23.21591 11:6.4812088 12:5.8831606 13:6203 14:2335 15:2092 #
-0.010000000000000000208166817117217 1:10.196194 2:5.3127298 3:0.78458768 4:35 5:35 6:35 7:5 8:7 9:3 10:5.5536065 11:0.1011169 12:2.0716465 13:6733 14:3122 15:2824 #
-0.010000000000000000208166817117217 1:2.6132717 2:1.6296799 3:4.5401063 4:92 5:92 6:92 7:5 8:8 9:4 10:8.9261608 11:16.659096 12:22.156281 13:6315 14:5518 15:4189 #
-0.010000000000000000208166817117217 1:21.959335 2:26.180599 3:23.985182 4:9 5:9 6:9 7:21 8:23 9:21 10:11.917284 11:16.593296 12:15.381313 13:10268 14:9404 15:8468 #
0.010000000000000000208166817117217 1:65.026192 2:15.38727 3:15.895412 4:444 5:444 6:444 7:67 8:16 9:16 10:22.990417 11:7.6765556 12:6.3365574 13:4572 14:2305 15:2132 #
0.010000000000000000208166817117217 1:88.256195 2:19.48727 3:19.125412 4:35 5:35 6:35 7:91 8:20 9:20 10:26.1966 11:7.9037199 12:6.6035433 13:4304 14:2574 15:2400 #
0.010000000000000000208166817117217 1:53.7658 2:44.486923 3:60.323494 4:98 5:98 6:98 7:80 8:71 9:62 10:33.552525 11:45.629635 12:30.473536 13:11801 14:11833 15:8672 #
-0.010000000000000000208166817117217 1:2.9368734 2:3.1256475 3:3.1216249 4:262 5:262 6:262 7:7 8:7 9:7 10:14.133793 11:13.89741 12:13.895097 13:5524 14:5378 15:5343 #
0.010000000000000000208166817117217 1:20.328831 2:21.026314 3:20.424582 4:0 5:0 6:0 7:16 8:18 9:22 10:10.72259 11:8.1640034 12:5.3928733 13:10143 14:9738 15:9431 #
0.010000000000000000208166817117217 1:0.11092503 2:0.74899834 3:0.4133153 4:461 5:461 6:461 7:1 8:4 9:6 10:8.6748753 11:14.583282 12:20.911879 13:6527 14:5666 15:4654 #
0.010000000000000000208166817117217 1:9.9980822 2:0.96708775 3:3.3876219 4:261 5:261 6:261 7:9 8:3 9:1 10:0.30901051 11:0.10267793 12:3.0298133 13:5780 14:6513 15:5893 #
-0.010000000000000000208166817117217 1:7.2388301 2:0.2336854 3:7.4754181 4:233 5:233 6:233 7:3 8:0 9:7 10:3.6854453 11:4.1707726 12:4.7689052 13:10059 14:9326 15:8714 #
0.010000000000000000208166817117217 1:1.4677498 2:0.82490551 3:3.3377767 4:5 5:5 6:5 7:1 8:1 9:0 10:2.6490469 11:1.8834403 12:2.1021371 13:3963 14:3540 15:3405 #
0.010000000000000000208166817117217 1:15.725305 2:13.480363 3:14.801758 4:548 5:548 6:548 7:17 8:15 9:16 10:5.1918917 11:4.7581186 12:4.565166 13:6591 14:6545 15:6479 #
0.010000000000000000208166817117217 1:28.04591 2:16.41317 3:13.458742 4:19 5:19 6:19 7:29 8:19 9:13 10:14.908695 11:13.053515 12:10.778547 13:8307 14:6628 15:2169 #
0.010000000000000000208166817117217 1:13.693807 2:6.36273 3:6.2945876 4:2 5:2 6:2 7:23 8:7 9:8 10:10.794731 11:4.4661312 12:4.0729899 13:7461 14:2984 15:2779 #
-0.010000000000000000208166817117217 1:16.406193 2:10.64727 3:7.8954124 4:263 5:263 6:263 7:20 8:11 9:8 10:33.609772 11:13.104815 12:12.019072 13:5353 14:1483 15:1407 #
-0.010000000000000000208166817117217 1:119.57619 2:24.72727 3:30.405413 4:276 5:276 6:276 7:122 8:24 9:29 10:37.425781 11:15.985599 12:14.215844 13:1216 14:586 15:249 #
-0.010000000000000000208166817117217 1:58.666195 2:24.73727 3:24.345413 4:278 5:278 6:278 7:66 8:26 9:25 10:25.593176 11:9.8784962 12:9.4888258 13:4104 14:1136 15:976 #
0.010000000000000000208166817117217 1:19.775101 2:0.40797684 3:0.19667372 4:0 5:0 6:0 7:22 8:0 9:1 10:7.3678699 11:4.5125928 12:7.2023964 13:5160 14:6129 15:5818 #
0.010000000000000000208166817117217 1:58.936195 2:11.60727 3:9.6654119 4:454 5:454 6:454 7:62 8:11 9:10 10:25.358053 11:7.6156812 12:6.9960208 13:4539 14:2091 15:1999 #
-0.010000000000000000208166817117217 1:11.826874 2:10.415648 3:9.9916248 4:22 5:22 6:22 7:15 8:14 9:13 10:15.890348 11:15.37906 12:15.574917 13:5386 14:5290 15:5265 #
-0.010000000000000000208166817117217 1:2.4719181 2:2.8429122 3:21.417622 4:254 5:254 6:254 7:2 8:3 9:21 10:6.1504169 11:7.974021 12:7.1787105 13:5522 14:5518 15:4464 #
0.010000000000000000208166817117217 1:6.3389835 2:7.4604878 3:6.4256949 4:244 5:244 6:244 7:3 8:3 9:3 10:10.132805 11:10.981581 12:10.929175 13:8810 14:8763 15:8687 #
-0.010000000000000000208166817117217 1:16.758831 2:16.346315 3:15.224582 4:244 5:244 6:244 7:14 8:14 9:13 10:9.6990128 11:9.0824022 12:8.359148 13:9443 14:9054 15:8713 #
-0.010000000000000000208166817117217 1:2.7859101 2:7.7668295 3:27.188742 4:377 5:377 6:377 7:2 8:7 9:26 10:15.960988 11:13.667663 12:10.128936 13:7382 14:5736 15:1638 #
-0.010000000000000000208166817117217 1:27.498098 2:43.309288 3:49.697102 4:457 5:457 6:457 7:27 8:41 9:47 10:8.0492811 11:15.730369 12:20.129837 13:4649 14:4111 15:3440 #
-0.010000000000000000208166817117217 1:19.015862 2:61.426029 3:84.578941 4:575 5:575 6:575 7:20 8:69 9:94 10:9.9907846 11:20.395918 12:30.772715 13:6685 14:7437 15:8182 #
-0.010000000000000000208166817117217 1:20.063272 2:21.719681 3:16.489893 4:386 5:386 6:386 7:24 8:30 9:28 10:11.752781 11:17.394184 12:23.475191 13:5364 14:4437 15:3096 #
-0.010000000000000000208166817117217 1:0.63066405 2:1.359401 3:3.9848177 4:211 5:211 6:211 7:1 8:1 9:5 10:5.6703539 11:11.095492 12:10.177416 13:9545 14:8458 15:7515 #
-0.010000000000000000208166817117217 1:10.924695 2:12.649637 3:11.448242 4:502 5:502 6:502 7:7 8:10 9:9 10:7.5260544 11:8.4383669 12:8.5131836 13:9921 14:9934 15:9854 #
0.010000000000000000208166817117217 1:25.39591 2:4.1031704 3:22.278742 4:353 5:353 6:353 7:25 8:5 9:20 10:17.77832 11:15.917795 12:10.945085 13:9012 14:6995 15:2760 #
0.010000000000000000208166817117217 1:28.505861 2:71.80603 3:102.28894 4:611 5:611 6:611 7:28 8:78 9:114 10:0.88490421 11:7.0590854 12:17.52582 13:8306 14:9146 15:10099 #
-0.010000000000000000208166817117217 1:21.945862 2:55.226032 3:61.618942 4:560 5:560 6:560 7:26 8:63 9:74 10:5.197248 11:4.9093866 12:13.495951 13:8594 14:9046 15:9134 #
0.010000000000000000208166817117217 1:8.6158028 2:8.1269245 3:8.0065069 4:3 5:3 6:3 7:8 8:7 9:9 10:9.0412884 11:9.0599394 12:9.1444025 13:8748 14:8593 15:8550 #
0.010000000000000000208166817117217 1:20.373806 2:5.8727303 3:6.2945876 4:366 5:366 6:366 7:19 8:8 9:9 10:26.630518 11:7.3742752 12:6.7248607 13:7446 14:2829 15:2657 #
-0.010000000000000000208166817117217 1:5.611918 2:0.52291226 3:9.9723778 4:513 5:513 6:513 7:5 8:1 9:9 10:3.981673 11:6.1682272 12:9.5238914 13:6010 14:5937 15:5902 #
-0.010000000000000000208166817117217 1:35.768097 2:48.859291 3:57.707104 4:447 5:447 6:447 7:35 8:47 9:56 10:8.5269957 11:15.937517 12:19.547256 13:4595 14:4158 15:3310 #
0.010000000000000000208166817117217 1:22.174614 2:20.543726 3:18.747744 4:501 5:501 6:501 7:11 8:12 9:9 10:15.565882 11:16.741796 12:16.684763 13:8933 14:8827 15:8730 #
0.010000000000000000208166817117217 1:11.481918 2:28.057087 3:30.522379 4:267 5:267 6:267 7:1 8:15 9:16 10:18.161463 11:17.187681 12:13.960889 13:8578 14:9306 15:8912 #
0.010000000000000000208166817117217 1:82.416191 2:11.11727 3:20.385412 4:32 5:32 6:32 7:108 8:18 9:28 10:4.2619596 11:0.37030196 12:1.7424765 13:3707 14:2013 15:1467 #
-0.010000000000000000208166817117217 1:92.252167 2:73.347778 3:55.558769 4:105 5:105 6:105 7:99 8:78 9:61 10:17.917366 11:17.932938 12:20.921349 13:2574 14:2652 15:3115 #
-0.010000000000000000208166817117217 1:9.3058624 2:41.10603 3:46.028942 4:19 5:19 6:19 7:12 8:51 9:58 10:10.650671 11:1.5266653 12:7.5305457 13:9225 14:9614 15:9664 #
0.010000000000000000208166817117217 1:21.35775 2:26.654905 3:30.007776 4:217 5:217 6:217 7:20 8:26 9:29 10:10.579982 11:11.349689 12:11.508533 13:2432 14:1772 15:1628 #
0.010000000000000000208166817117217 1:23.67775 2:28.724905 3:32.297775 4:215 5:215 6:215 7:22 8:29 9:32 10:10.398314 11:10.225896 12:10.497569 13:2264 14:1685 15:1510 #
0.010000000000000000208166817117217 1:35.976192 2:3.4172699 3:5.5754123 4:7 5:7 6:7 7:40 8:4 9:6 10:28.220804 11:8.5325079 12:7.3291631 13:5430 14:2550 15:2260 #
0.010000000000000000208166817117217 1:8.7590752 2:6.6189985 3:7.0166845 4:219 5:219 6:219 7:10 8:13 9:16 10:15.080584 11:22.338303 12:29.351814 13:5919 14:5132 15:4078 #
-0.010000000000000000208166817117217 1:46.984695 2:44.729637 3:42.758244 4:414 5:414 6:414 7:48 8:46 9:43 10:2.0462098 11:2.4795444 12:1.7067833 13:9608 14:9462 15:9357 #
-0.010000000000000000208166817117217 1:33.779076 2:30.638998 3:27.686686 4:43 5:43 6:43 7:36 8:38 9:38 10:18.549208 11:24.981421 12:29.964975 13:4933 14:4247 15:3342 #
-0.010000000000000000208166817117217 1:28.7181 2:44.72929 3:49.287102 4:457 5:457 6:457 7:27 8:42 9:46 10:8.9334307 11:16.462914 12:19.619829 13:4570 14:4001 15:3355 #
0.010000000000000000208166817117217 1:20.17775 2:25.844906 3:29.787777 4:220 5:220 6:220 7:19 8:26 9:29 10:11.427863 11:11.839098 12:11.944874 13:2451 14:1761 15:1641 #
-0.010000000000000000208166817117217 1:8.1041374 2:25.64603 3:42.638939 4:8 5:8 6:8 7:1 8:37 9:58 10:21.122341 11:10.245777 12:0.1785363 13:8990 14:9406 15:9895 #
-0.010000000000000000208166817117217 1:114.69619 2:21.917271 3:30.385412 4:274 5:274 6:274 7:119 8:22 9:31 10:35.238991 11:13.941003 12:13.236241 13:1618 14:916 15:448 #
-0.010000000000000000208166817117217 1:25.349337 2:30.070599 3:30.355183 4:478 5:478 6:478 7:27 8:29 9:30 10:2.7918112 11:7.1120181 12:6.0981421 13:10462 14:9636 15:8754 #
0.010000000000000000208166817117217 1:2.4306641 2:1.6494011 3:1.7448177 4:0 5:0 6:0 7:3 8:0 9:1 10:3.1509738 11:7.3182268 12:7.2147236 13:10053 14:9078 15:8185 #
0.010000000000000000208166817117217 1:51.711918 2:62.767086 3:53.172379 4:371 5:371 6:371 7:42 8:55 9:44 10:22.063313 11:18.850502 12:27.780745 13:9013 14:9413 15:9220 #
0.010000000000000000208166817117217 1:23.45775 2:29.534906 3:33.947777 4:213 5:213 6:213 7:23 8:30 9:33 10:10.499028 11:10.899234 12:12.181861 13:2315 14:1694 15:1440 #
0.010000000000000000208166817117217 1:23.164696 2:23.399637 3:23.798243 4:521 5:521 6:521 7:10 8:11 9:11 10:12.140482 11:13.030856 12:12.3955 13:9900 14:9823 15:9835 #
0.010000000000000000208166817117217 1:17.103271 2:47.819679 3:75.69989 4:378 5:378 6:378 7:20 8:56 9:85 10:14.688779 11:21.957678 12:28.515671 13:5294 14:3269 15:791 #
-0.010000000000000000208166817117217 1:2.0719013 2:34.940712 3:38.032898 4:539 5:539 6:539 7:3 8:37 9:40 10:8.8770714 11:16.429087 12:19.58819 13:5649 14:6880 15:6665 #
0.010000000000000000208166817117217 1:18.879074 2:29.908998 3:38.766685 4:188 5:188 6:188 7:24 8:39 9:50 10:10.204045 11:16.012499 12:24.014006 13:5621 14:4474 15:3185 #
-0.010000000000000000208166817117217 1:66.486191 2:29.37727 3:24.345413 4:282 5:282 6:282 7:70 8:30 9:25 10:33.636189 11:12.494707 12:11.502834 13:3691 14:951 15:969 #
-0.010000000000000000208166817117217 1:14.068082 2:28.182913 3:22.117622 4:231 5:231 6:231 7:14 8:28 9:23 10:3.2005966 11:5.804152 12:8.1420059 13:5492 14:5080 15:5113 #
0.010000000000000000208166817117217 1:18.224615 2:18.563726 3:18.127745 4:518 5:518 6:518 7:4 8:6 9:5 10:19.768049 11:19.420418 12:19.641073 13:7955 14:7879 15:7836 #
0.010000000000000000208166817117217 1:0.025304973 2:4.7996373 3:6.6482425 4:535 5:535 6:535 7:4 8:0 9:4 10:1.8481485 11:1.1405995 12:1.7602912 13:7838 14:7913 15:7978 #
-0.010000000000000000208166817117217 1:42.685909 2:40.513172 3:16.628742 4:13 5:13 6:13 7:39 8:39 9:14 10:18.941444 11:16.339249 12:12.573831 13:9084 14:7776 15:2339 #
-0.010000000000000000208166817117217 1:32.3181 2:45.649288 3:53.927101 4:453 5:453 6:453 7:31 8:43 9:51 10:8.8869066 11:16.649908 12:19.378096 13:4577 14:4190 15:3364 #
0.010000000000000000208166817117217 1:19.353806 2:8.0227299 3:7.2345877 4:12 5:12 6:12 7:17 8:8 9:7 10:17.729645 11:2.5968266 12:1.1544799 13:9423 14:4934 15:4822 #
-0.010000000000000000208166817117217 1:16.078831 2:16.696314 3:19.054583 4:21 5:21 6:21 7:16 8:18 9:21 10:8.4992619 11:4.6312604 12:0.60996222 13:9887 14:9452 15:9247 #
-0.010000000000000000208166817117217 1:2.7790749 2:12.958999 3:22.696684 4:11 5:11 6:11 7:5 8:20 9:33 10:17.080748 11:23.267794 12:28.553211 13:6155 14:5023 15:3594 #
-0.010000000000000000208166817117217 1:1.568082 2:7.5329123 3:0.68762183 4:249 5:249 6:249 7:2 8:8 9:1 10:5.8072338 11:7.483922 12:9.7287121 13:5468 14:5447 15:5397 #
0.010000000000000000208166817117217 1:32.444695 2:30.819637 3:29.818243 4:158 5:158 6:158 7:27 8:27 9:24 10:14.538685 11:16.944897 12:16.912848 13:9945 14:9750 15:9717 #
0.010000000000000000208166817117217 1:8.3846951 2:7.7596374 3:7.2482424 4:514 5:514 6:514 7:9 8:11 9:9 10:3.8726621 11:3.6921034 12:4.3573823 13:9698 14:9593 15:9570 #
0.010000000000000000208166817117217 1:23.858984 2:22.220488 3:24.615694 4:408 5:408 6:408 7:15 8:11 9:16 10:16.930046 11:20.058552 12:19.991222 13:9098 14:8987 15:8943 #
-0.010000000000000000208166817117217 1:32.0681 2:47.29929 3:59.757103 4:444 5:444 6:444 7:31 8:46 9:58 10:8.5292625 11:17.14496 12:21.922112 13:4364 14:3844 15:2878 #
-0.010000000000000000208166817117217 1:10.251918 2:0.63291228 3:4.982378 4:257 5:257 6:257 7:10 8:1 9:5 10:4.3505783 11:6.0665097 12:6.5424829 13:6059 14:5825 15:5931 #
-0.010000000000000000208166817117217 1:4.2019181 2:4.2870879 3:0.097621836 4:3 5:3 6:3 7:5 8:4 9:1 10:4.72364 11:6.6844625 12:9.9332886 13:5776 14:5987 15:5500 #
-0.010000000000000000208166817117217 1:35.678097 2:45.719292 3:53.637104 4:220 5:220 6:220 7:35 8:44 9:52 10:8.5073099 11:16.485485 12:20.518078 13:4351 14:4102 15:3299 #
0.010000000000000000208166817117217 1:42.873806 2:16.752729 3:15.674587 4:26 5:26 6:26 7:45 8:22 9:22 10:20.510561 11:0.58647001 12:0.38622373 13:10485 14:5366 15:5141 #
0.010000000000000000208166817117217 1:17.327749 2:23.244905 3:26.077776 4:220 5:220 6:220 7:16 8:23 9:25 10:9.677537 11:9.6260509 12:9.6809006 13:2673 14:2049 15:1906 #
0.010000000000000000208166817117217 1:24.183807 2:8.8827305 3:7.7745876 4:379 5:379 6:379 7:21 8:9 9:8 10:30.272785 11:8.9275408 12:7.8127761 13:7653 14:3000 15:2804 #
-0.010000000000000000208166817117217 1:1.3161936 2:6.7172699 3:3.1654124 4:268 5:268 6:268 7:6 8:7 9:4 10:25.284712 11:4.8200455 12:3.4645462 13:7283 14:3047 15:3013 #
0.010000000000000000208166817117217 1:20.885101 2:2.2179768 3:0.20667373 4:1 5:1 6:1 7:22 8:2 9:1 10:6.9048591 11:4.4862137 12:6.5804558 13:5092 14:6126 15:5823 #
-0.010000000000000000208166817117217 1:10.311017 2:8.7095118 3:5.1843052 4:262 5:262 6:262 7:9 8:9 9:6 10:7.6194754 11:6.5275669 12:5.7342052 13:6655 14:6612 15:6685 #
0.010000000000000000208166817117217 1:18.92775 2:26.784906 3:31.197777 4:215 5:215 6:215 7:17 8:27 9:31 10:10.004008 11:10.140261 12:9.8569231 13:2436 14:1727 15:1549 #
0.010000000000000000208166817117217 1:5.5359101 2:14.163171 3:50.081257 4:368 5:368 6:368 7:3 8:16 9:51 10:15.488351 11:12.443099 12:2.580569 13:8429 14:7580 15:5714 #
-0.010000000000000000208166817117217 1:90.732162 2:70.897781 3:53.618767 4:160 5:160 6:160 7:95 8:74 9:58 10:19.702991 11:21.65333 12:23.567421 13:2569 14:2666 15:3051 #
-0.010000000000000000208166817117217 1:40.945862 2:78.106033 3:106.71894 4:311 5:311 6:311 7:41 8:83 9:117 10:8.3397694 11:18.354433 12:24.733137 13:7798 14:8327 15:9265 #
0.010000000000000000208166817117217 1:48.581951 2:81.972366 3:82.11422 4:64 5:64 6:64 7:59 8:98 9:99 10:14.696147 11:29.341299 12:29.108797 13:3310 14:1893 15:1876 #
-0.010000000000000000208166817117217 1:58.826195 2:27.87727 3:25.045412 4:281 5:281 6:281 7:62 8:29 9:25 10:26.445206 11:10.636539 12:9.757411 13:4225 14:1271 15:1208 #
0.010000000000000000208166817117217 1:25.993807 2:8.3827305 3:8.2245874 4:372 5:372 6:372 7:22 8:8 9:9 10:24.47291 11:4.5755687 12:3.7476921 13:8244 14:3640 15:3484 #
0.010000000000000000208166817117217 1:23.087749 2:25.844906 3:29.887777 4:216 5:216 6:216 7:22 8:25 9:29 10:10.769981 11:11.120941 12:11.427271 13:2245 14:1669 15:1519 #
0.010000000000000000208166817117217 1:40.693806 2:17.78273 3:17.564589 4:11 5:11 6:11 7:39 8:18 9:18 10:27.177031 11:6.0921497 12:4.8636174 13:8991 14:4054 15:3892 #
0.010000000000000000208166817117217 1:18.86591 2:26.08317 3:43.521259 4:136 5:136 6:136 7:19 8:25 9:37 10:15.310512 11:19.020716 12:2.9771824 13:8206 14:7119 15:5252 #
-0.010000000000000000208166817117217 1:9.2980824 2:8.7070875 3:5.5923781 4:267 5:267 6:267 7:10 8:9 9:5 10:6.5599923 11:8.4435234 12:8.65026 13:4992 14:5866 15:5667 #
-0.010000000000000000208166817117217 1:32.415863 2:68.80603 3:94.508942 4:611 5:611 6:611 7:30 8:72 9:104 10:4.0502653 11:5.6037049 12:17.417862 13:8660 14:9152 15:9769 #
0.010000000000000000208166817117217 1:30.238983 2:31.280489 3:32.135696 4:152 5:152 6:152 7:25 8:21 9:20 10:17.17495 11:20.086935 12:20.515186 13:9696 14:9675 15:9595 #
0.010000000000000000208166817117217 1:63.319077 2:77.868996 3:80.366684 4:366 5:366 6:366 7:67 8:84 9:92 10:14.232079 11:18.624447 12:28.01997 13:4148 14:2803 15:1636 #
-0.010000000000000000208166817117217 1:5.729075 2:23.498999 3:40.686684 4:18 5:18 6:18 7:9 8:30 9:50 10:15.270954 11:21.271439 12:24.177498 13:6156 14:4688 15:3288 #
0.010000000000000000208166817117217 1:74.851173 2:58.333687 3:39.645416 4:180 5:180 6:180 7:81 8:62 9:42 10:11.514153 11:10.813294 12:10.003221 13:5481 14:5670 15:6075 #
-0.010000000000000000208166817117217 1:24.653807 2:7.0227299 3:7.4845877 4:367 5:367 6:367 7:25 8:9 9:11 10:27.452076 11:8.144433 12:6.7401881 13:7507 14:2807 15:2647 #
-0.010000000000000000208166817117217 1:11.36591 2:5.9831705 3:25.871258 4:373 5:373 6:373 7:6 8:6 9:25 10:14.650392 11:13.601369 12:1.4111887 13:8756 14:7157 15:4831 #
0.010000000000000000208166817117217 1:8.9978352 2:29.647779 3:42.808769 4:7 5:7 6:7 7:3 8:34 9:51 10:16.529367 11:10.065557 12:10.561883 13:6261 14:4487 15:3752 #
-0.010000000000000000208166817117217 1:2.780664 2:0.77059895 3:2.5651822 4:474 5:474 6:474 7:2 8:4 9:4 10:5.0171061 11:9.4391356 12:9.1404419 13:10460 14:9570 15:8779 #
0.010000000000000000208166817117217 1:26.754614 2:22.623726 3:23.297745 4:494 5:494 6:494 7:15 8:9 9:10 10:18.990713 11:22.387754 12:21.962366 13:8323 14:8117 15:8161 #
-0.010000000000000000208166817117217 1:22.079075 2:22.648998 3:20.616684 4:426 5:426 6:426 7:25 8:28 9:30 10:13.957646 11:20.303711 12:27.130028 13:5664 14:4849 15:3712 #
0.010000000000000000208166817117217 1:7.0790749 2:5.5589981 3:2.1866846 4:446 5:446 6:446 7:9 8:13 9:13 10:16.970789 11:23.597916 12:28.598623 13:6060 14:5411 15:4401 #
-0.010000000000000000208166817117217 1:1.3610166 2:0.65951192 3:1.3356948 4:513 5:513 6:513 7:3 8:2 9:4 10:9.5128183 11:8.240263 12:7.0361586 13:6225 14:6137 15:6153 #
-0.010000000000000000208166817117217 1:8.9140902 2:13.35683 3:24.608742 4:383 5:383 6:383 7:9 8:14 9:24 10:17.561943 11:16.314777 12:9.6225452 13:7291 14:5872 15:2225 #
-0.010000000000000000208166817117217 1:17.738831 2:24.606314 3:28.124582 4:533 5:533 6:533 7:13 8:25 9:28 10:9.3914375 11:6.0485559 12:1.5197062 13:9254 14:9085 15:8946 #
-0.010000000000000000208166817117217 1:2.4238064 2:2.65727 3:0.9854123 4:407 5:407 6:407 7:0 8:3 9:0 10:26.6628 11:6.6521163 12:5.2238231 13:7153 14:2854 15:2775 #
0.010000000000000000208166817117217 1:6.2706642 2:3.599401 3:6.4948177 4:445 5:445 6:445 7:6 8:4 9:9 10:6.531435 11:11.219722 12:10.316796 13:9975 14:9060 15:8124 #
-0.010000000000000000208166817117217 1:38.854092 2:18.23683 3:29.471258 4:423 5:423 6:423 7:41 8:19 9:30 10:20.876719 11:18.729082 12:12.365092 13:6097 14:5558 15:3947 #
0.010000000000000000208166817117217 1:3.7740901 2:4.6168299 3:10.918742 4:400 5:400 6:400 7:9 8:7 9:9 10:12.201017 11:9.0224419 12:10.501185 13:7789 14:6528 15:2958 #
0.010000000000000000208166817117217 1:23.20591 2:24.613171 3:43.731258 4:357 5:357 6:357 7:21 8:24 9:41 10:18.680752 11:17.386169 12:1.4664681 13:8533 14:7386 15:4967 #
0.010000000000000000208166817117217 1:32.639076 2:44.598999 3:53.276684 4:197 5:197 6:197 7:34 8:47 9:60 10:4.5648189 11:9.5538416 12:18.359205 13:5340 14:4095 15:2786 #
-0.010000000000000000208166817117217 1:49.325909 2:49.693169 3:23.941257 4:338 5:338 6:338 7:46 8:50 9:27 10:19.454975 11:17.800209 12:3.4863672 13:9534 14:8296 15:4520 #
-0.010000000000000000208166817117217 1:32.031902 2:47.910709 3:61.212898 4:377 5:377 6:377 7:16 8:34 9:47 10:24.30337 11:15.44737 12:11.761415 13:8851 14:9484 15:9371 #
-0.010000000000000000208166817117217 1:46.373806 2:18.04273 3:17.104588 4:353 5:353 6:353 7:43 8:17 9:17 10:30.393627 11:9.5476809 12:8.2950392 13:8372 14:3230 15:3095 #
-0.010000000000000000208166817117217 1:20.238831 2:22.056314 3:23.434582 4:14 5:14 6:14 7:19 8:21 9:25 10:11.660334 11:11.417475 12:10.88208 13:9831 14:9376 15:9081 #
-0.010000000000000000208166817117217 1:6.9209251 2:7.2110019 3:10.133315 4:2 5:2 6:2 7:5 8:1 9:1 10:15.252551 11:21.325214 12:27.114063 13:6725 14:5725 15:4715 #
-0.010000000000000000208166817117217 1:48.485909 2:41.02317 3:14.958742 4:17 5:17 6:17 7:46 8:40 9:16 10:21.44182 11:19.173643 12:11.397248 13:8992 14:7514 15:2233 #
0.010000000000000000208166817117217 1:25.142164 2:73.957779 3:81.84877 4:41 5:41 6:41 7:31 8:83 9:90 10:14.791529 11:8.282937 12:14.113256 13:5080 14:2719 15:2117 #
0.010000000000000000208166817117217 1:2.3758023 2:1.6469241 3:0.013493413 4:10 5:10 6:10 7:0 8:0 9:2 10:2.3205683 11:2.2006991 12:2.6033764 13:8326 14:8138 15:8009 #
0.010000000000000000208166817117217 1:20.226194 2:2.37727 3:2.6454124 4:474 5:474 6:474 7:21 8:3 9:5 10:5.8440442 11:1.6812844 12:2.4235108 13:6918 14:3922 15:3566 #
0.010000000000000000208166817117217 1:31.963272 2:60.509682 3:83.189896 4:389 5:389 6:389 7:34 8:67 9:93 10:18.64332 11:26.17606 12:31.701393 13:4517 14:2620 15:289 #
-0.010000000000000000208166817117217 1:39.145908 2:49.133171 3:28.091257 4:338 5:338 6:338 7:39 8:50 9:18 10:16.957949 11:13.561005 12:13.204831 13:8950 14:8190 15:5009 #
-0.010000000000000000208166817117217 1:42.873806 2:16.84273 3:13.564588 4:344 5:344 6:344 7:41 8:17 9:13 10:30.061098 11:9.2125797 12:8.121685 13:7888 14:2924 15:2661 #
0.010000000000000000208166817117217 1:8.4759102 2:19.303171 3:58.491257 4:375 5:375 6:375 7:7 8:22 9:79 10:13.524194 11:0.7590642 12:27.595362 13:8225 14:7281 15:5774 #
0.010000000000000000208166817117217 1:3.4946949 2:5.0096374 3:2.6282425 4:539 5:539 6:539 7:1 8:1 9:1 10:5.8183436 11:4.8966532 12:4.973938 13:8650 14:8626 15:8504 #
0.010000000000000000208166817117217 1:19.02775 2:24.844906 3:30.987778 4:26 5:26 6:26 7:19 8:26 9:32 10:7.3839231 11:6.5630822 12:6.9822812 13:2646 14:2038 15:1805 #
-0.010000000000000000208166817117217 1:23.538099 2:34.90929 3:52.907101 4:451 5:451 6:451 7:23 8:33 9:51 10:8.2361345 11:16.514637 12:20.781488 13:4824 14:4364 15:3189 #
-0.010000000000000000208166817117217 1:18.098082 2:12.067088 3:13.122378 4:271 5:271 6:271 7:19 8:12 9:14 10:6.6823835 11:8.1650639 12:8.0867195 13:4538 14:5855 15:5746 #
-0.010000000000000000208166817117217 1:34.224899 2:34.847977 3:42.536674 4:251 5:251 6:251 7:19 8:20 9:28 10:18.21603 11:23.264357 12:20.895041 13:7980 14:8208 15:8241 #
-0.010000000000000000208166817117217 1:35.4781 2:46.24929 3:51.037102 4:217 5:217 6:217 7:34 8:44 9:49 10:9.5882559 11:17.014547 12:20.067816 13:4219 14:3951 15:3211 #
-0.010000000000000000208166817117217 1:56.223808 2:23.87273 3:20.834587 4:23 5:23 6:23 7:53 8:25 9:21 10:31.849913 11:10.572778 12:9.5317669 13:8498 14:3190 15:2916 #
-0.010000000000000000208166817117217 1:26.608099 2:43.829288 3:50.987103 4:222 5:222 6:222 7:25 8:42 9:49 10:8.1996746 11:16.116198 12:20.198746 13:4645 14:4092 15:3392 #
-0.010000000000000000208166817117217 1:41.706192 2:20.497271 3:17.875412 4:274 5:274 6:274 7:44 8:21 9:17 10:30.944025 11:10.517301 12:9.8196936 13:5528 14:2056 15:1948 #
-0.010000000000000000208166817117217 1:35.170925 2:39.551003 3:42.643314 4:496 5:496 6:496 7:35 8:33 9:33 10:13.147872 11:20.891794 12:27.622257 13:7382 14:6732 15:5868 #
0.010000000000000000208166817117217 1:4.6093359 2:4.4105988 3:0.014817708 4:7 5:7 6:7 7:5 8:1 9:3 10:9.4265356 11:15.154743 12:13.98073 13:9901 14:8908 15:7907 #
0.010000000000000000208166817117217 1:10.60775 2:13.484905 3:17.267776 4:218 5:218 6:218 7:14 8:20 9:22 10:1.6182834 11:3.1021378 12:3.6362059 13:3463 14:2930 15:2753 #
0.010000000000000000208166817117217 1:5.6211696 2:5.4536853 3:3.0054181 4:59 5:59 6:59 7:12 8:16 9:11 10:3.7058165 11:10.14594 12:13.360368 13:8720 14:8508 15:8418 #
0.010000000000000000208166817117217 1:13.89775 2:17.544905 3:20.707777 4:219 5:219 6:219 7:15 8:21 9:23 10:2.0931375 11:1.6141567 12:2.1438954 13:3292 14:2722 15:2588 #
0.010000000000000000208166817117217 1:19.077749 2:18.724905 3:20.467777 4:26 5:26 6:26 7:19 8:20 9:22 10:4.4879203 11:5.2468219 12:5.3800244 13:2799 14:2365 15:2258 #
0.010000000000000000208166817117217 1:0.44216481 2:33.787781 3:43.438766 4:191 5:191 6:191 7:7 8:41 9:51 10:15.07816 11:14.610931 12:16.874731 13:5920 14:4169 15:3505 #
-0.010000000000000000208166817117217 1:5.754138 2:20.843969 3:36.871059 4:451 5:451 6:451 7:5 8:14 9:28 10:13.846302 11:23.22588 12:33.306927 13:5640 14:4319 15:3634 #
0.010000000000000000208166817117217 1:15.705101 2:4.9579768 3:8.983326 4:285 5:285 6:285 7:23 8:0 9:13 10:3.7785521 11:6.1706476 12:4.5447755 13:6537 14:7488 15:6744 #
0.010000000000000000208166817117217 1:15.724614 2:17.473726 3:16.817743 4:516 5:516 6:516 7:6 8:3 9:4 10:24.770294 11:25.756548 12:25.765001 13:8975 14:8931 15:8904 #
0.010000000000000000208166817117217 1:0.98408997 2:4.3768296 3:14.248742 4:377 5:377 6:377 7:2 8:2 9:13 10:12.546406 11:10.612875 12:8.2591877 13:7821 14:6393 15:2797 #
0.010000000000000000208166817117217 1:55.461918 2:64.897087 3:55.652378 4:371 5:371 6:371 7:60 8:70 9:65 10:31.212042 11:29.262985 12:41.046616 13:9268 14:9745 15:9075 #
-0.010000000000000000208166817117217 1:3.7277498 2:2.8149054 3:3.6077769 4:240 5:240 6:240 7:4 8:4 9:4 10:1.3119813 11:2.2587583 12:2.5220132 13:3732 14:3274 15:3225 #
-0.010000000000000000208166817117217 1:15.20883 2:16.576315 3:18.294582 4:2 5:2 6:2 7:12 8:17 9:20 10:7.7451015 11:8.0192137 12:5.6400886 13:10273 14:9931 15:9690 #
-0.010000000000000000208166817117217 1:43.096195 2:20.847269 3:18.645412 4:442 5:442 6:442 7:47 8:21 9:18 10:28.634115 11:8.8456087 12:8.5937719 13:5259 14:1992 15:1843 #
0.010000000000000000208166817117217 1:40.158985 2:43.780487 3:45.495693 4:152 5:152 6:152 7:26 8:29 9:31 10:28.710743 11:30.800047 12:30.98547 13:9894 14:9921 15:9919 #
-0.010000000000000000208166817117217 1:18.23591 2:6.3568296 3:38.138741 4:47 5:47 6:47 7:16 8:6 9:37 10:19.154932 11:17.231718 12:13.310045 13:8123 14:5938 15:1413 #
0.010000000000000000208166817117217 1:47.513805 2:18.10273 3:16.034588 4:347 5:347 6:347 7:45 8:20 9:17 10:27.956398 11:6.8723569 12:5.8828802 13:9221 14:4108 15:3844 #
-0.010000000000000000208166817117217 1:50.806194 2:23.22727 3:22.585413 4:444 5:444 6:444 7:52 8:23 9:22 10:30.775124 11:11.212062 12:10.527217 13:4638 14:1543 15:1424 #
0.010000000000000000208166817117217 1:57.556194 2:9.5572701 3:13.115413 4:267 5:267 6:267 7:59 8:10 9:13 10:27.691992 11:8.5012188 12:7.1574907 13:4678 14:2340 15:2021 #
-0.010000000000000000208166817117217 1:19.638083 2:12.017088 3:3.9423783 4:270 5:270 6:270 7:20 8:12 9:3 10:6.006381 11:7.7353258 12:10.78511 13:4745 14:6073 15:5469 #
-0.010000000000000000208166817117217 1:35.79586 2:65.266029 3:94.268944 4:304 5:304 6:304 7:35 8:71 9:103 10:3.3917873 11:12.156715 12:21.283945 13:8321 14:8614 15:9428 #
-0.010000000000000000208166817117217 1:15.315862 2:46.926029 3:55.648941 4:289 5:289 6:289 7:18 8:55 9:66 10:0.29344878 11:9.7266521 12:18.209682 13:7506 14:7839 15:8084 #
0.010000000000000000208166817117217 1:6.4121647 2:61.42778 3:72.148766 4:398 5:398 6:398 7:13 8:69 9:80 10:15.065929 11:12.49043 12:18.830872 13:5746 14:3175 15:2431 #
