SVM-light Version V6.02
0 # kernel type
3 # kernel parameter -d 
1 # kernel parameter -g 
1 # kernel parameter -s 
1 # kernel parameter -r 
empty# kernel parameter -u 
15 # highest feature index 
8748 # number of training documents 
263 # number of support vectors plus 1 
1.0720497 # threshold b, each following line is a SV (starting with alpha*y)
-2.6916658255025822654715739190578 1:11.983126 2:12.946518 3:19.786448 4:10 5:10 6:10 7:12 8:12 9:20 10:10.947381 11:11.910861 12:14.758188 13:0.99678332 14:0.99614412 15:0.99559677 #
-10 1:7.9068742 2:5.573482 3:4.7835522 4:230 5:230 6:230 7:7 8:6 9:4 10:13.313523 11:15.162368 12:16.782471 13:0.9980613 14:0.99740648 15:0.9971298 #
-3.4244232155624274582805810496211 1:27.203125 2:30.366518 3:35.326447 4:196 5:196 6:196 7:29 8:32 9:35 10:9.9127026 11:9.1402597 12:12.049578 13:0.99657375 14:0.99582064 15:0.99537253 #
-10 1:2.066874 2:0.34348193 3:3.963552 4:228 5:228 6:228 7:3 8:2 9:6 10:13.905477 11:13.040572 12:13.171206 13:0.99777269 14:0.99712646 15:0.99699289 #
10 1:15.956874 2:14.903481 3:16.963552 4:246 5:246 6:246 7:16 8:16 9:18 10:13.1103 11:14.499577 12:15.313523 13:0.99829489 14:0.997742 15:0.99747443 #
5.7003102481881260388263399363495 1:10.026875 2:6.903482 3:3.713552 4:236 5:236 6:236 7:10 8:7 9:3 10:11.592473 11:11.00419 12:13.75532 13:0.99781853 14:0.99710715 15:0.99665302 #
-0.014662361433011028566397726535797 1:16.656708 2:16.258322 3:10.359439 4:3 5:3 6:3 7:9 8:8 9:8 10:2.8499279 11:1.8392335 12:3.0577765 13:0.99997044 14:0.99997276 15:0.99997735 #
3.3456152114691306564964179415256 1:1.0668741 2:4.3265181 3:1.206448 4:3 5:3 6:3 7:0 8:4 9:1 10:10.035501 11:10.4705 12:14.296632 13:0.99729061 14:0.99646151 15:0.99638629 #
0.066423606932593651230867237700295 1:0.83969235 2:91.579262 3:0.35596925 4:1 5:1 6:1 7:20 8:94 9:0 10:59.977493 11:65.351143 12:8.0394135 13:0.99971139 14:0.99994302 15:0.99996096 #
8.3495752248415531227010433212854 1:68.40329 2:64.621681 3:52.360561 4:32 5:32 6:32 7:71 8:67 9:52 10:5.9742575 11:3.3211093 12:1.7817233 13:0.99999237 14:0.99999297 15:0.99999315 #
0.00061812770750080403558968100696802 1:0.33028582 2:9.3545361 3:15.798756 4:1 5:1 6:1 7:8 8:8 9:9 10:22.468136 11:15.971061 12:13.897411 13:0.99977976 14:0.99986798 15:0.99994266 #
10 1:119.73103 2:124.13213 3:128.71591 4:168 5:168 6:168 7:142 8:148 9:157 10:7.1039658 11:3.7557998 12:0.37196249 13:0.99982327 14:0.99997061 15:0.99937701 #
-0.52317476931546025298302993178368 1:2.5932915 2:4.8916788 3:0.48056099 4:0 5:0 6:0 7:5 8:1 9:1 10:6.8873448 11:7.6487031 12:8.7653465 13:0.99997908 14:0.9999814 15:0.99998295 #
-9.8844813418954799999482929706573 1:83.729866 2:63.143822 3:35.836357 4:8 5:8 6:8 7:79 8:46 9:26 10:53.557652 11:55.373554 12:31.373592 13:0.99986696 14:0.99992543 15:0.99995089 #
7.6951430947452870157121651573107 1:4.2168741 2:0.69348192 3:1.936448 4:229 5:229 6:229 7:4 8:1 9:2 10:9.4299135 11:9.935605 12:12.296687 13:0.99770516 14:0.9970299 15:0.996548 #
-10 1:57.663292 2:48.071678 3:39.020561 4:557 5:557 6:557 7:59 8:51 9:39 10:3.5012991 11:4.0203753 12:4.1924963 13:0.99997723 14:0.99997658 15:0.99997717 #
3.282766822081669033650541678071 1:4.4964585 2:0.75460935 3:4.3851433 4:7 5:7 6:7 7:8 8:10 9:6 10:7.4741769 11:13.837767 12:17.763042 13:0.99799252 14:0.99840385 15:0.9987613 #
3.9760376309776859216071898117661 1:7.8197141 2:4.9945359 3:14.471245 4:369 5:369 6:369 7:26 8:19 9:4 10:18.487564 11:0.18916732 12:12.738914 13:0.99978304 14:0.99985385 15:0.99988973 #
0.0089738220207307151099485054146498 1:1.6502858 2:10.174536 3:13.388756 4:1 5:1 6:1 7:6 8:8 9:7 10:31.429121 11:24.102907 12:15.48925 13:0.99978644 14:0.99988037 15:0.99994648 #
3.4297927225147160079643526842119 1:2.0267084 2:0.061678953 3:0.070560992 4:12 5:12 6:12 7:10 8:8 9:8 10:0.38958326 11:1.0955131 12:3.8831756 13:0.99997342 14:0.99997562 15:0.99997842 #
-0.99760955753707492021931102499366 1:9.6777248 2:9.3888006 3:4.8799868 4:358 5:358 6:358 7:10 8:9 9:1 10:34.010365 11:34.50771 12:29.917625 13:0.99884182 14:0.99890071 15:0.99914426 #
9.9192409575701958601712249219418 1:42.669476 2:41.948715 3:31.252596 4:77 5:77 6:77 7:46 8:46 9:35 10:18.133579 11:21.655972 12:19.480959 13:0.99802643 14:0.99798417 15:0.99834144 #
3.3627207865952186693903058767319 1:11.120308 2:99.349258 3:0.62403077 4:359 5:359 6:359 7:33 8:102 9:1 10:61.647087 11:66.852165 12:8.791791 13:0.99973458 14:0.99995977 15:0.99996209 #
-2.1923020680268940907353680813685 1:33.007725 2:39.7188 3:18.289988 4:347 5:347 6:347 7:32 8:38 9:14 10:33.702049 11:34.199394 12:30.483826 13:0.99924225 14:0.99941945 15:0.99937958 #
-6.1167025608456242480315268039703 1:1.2210124 2:4.6741309 3:9.4765234 4:4 5:4 6:4 7:0 8:2 9:2 10:15.687937 11:17.383001 12:30.618296 13:0.99881041 14:0.99936777 15:0.99960274 #
-7.1977253461526918831836496792675e-05 1:0.91898763 2:5.4041309 3:8.3465233 4:243 5:243 6:243 7:2 8:3 9:1 10:15.618815 11:17.497355 12:30.170408 13:0.99883986 14:0.99939311 15:0.99956208 #
10 1:33.491032 2:46.372135 3:62.925907 4:6 5:6 6:6 7:61 8:82 9:107 10:14.079626 11:17.526644 12:22.794668 13:0.99697113 14:0.99728626 15:0.9969278 #
-8.7842405559877381193700784933753 1:99.902275 2:104.2112 3:108.15002 4:512 5:512 6:512 7:138 8:144 9:151 10:19.26178 11:20.858898 12:24.145973 13:0.99639976 14:0.99639285 15:0.99669999 #
-3.7904745075865520220759208314121 1:11.871013 2:6.0358691 3:0.57652342 4:234 5:234 6:234 7:10 8:7 9:7 10:12.372726 11:13.813062 12:24.313917 13:0.99825257 14:0.99882597 15:0.99916714 #
-4.1930669160757503277636715210974 1:92.939713 2:38.114536 3:11.371244 4:27 5:27 6:27 7:101 8:37 9:18 10:38.395775 11:30.152931 12:21.418428 13:0.99994814 14:0.99995655 15:0.99995619 #
-3.6726742080261942646757233887911 1:0.71898764 2:0.024130858 3:6.8434768 4:22 5:22 6:22 7:1 8:3 9:15 10:14.57837 11:16.971659 12:30.064249 13:0.99878812 14:0.99916744 15:0.99908739 #
-2.3219083815677876714289595838636 1:4.1289878 2:9.4841309 3:13.346523 4:474 5:474 6:474 7:5 8:7 9:6 10:16.569635 11:17.281027 12:30.415943 13:0.9989807 14:0.99954271 15:0.99971473 #
-0.0010748430257763175177387893199921 1:2.2667084 2:1.758321 3:2.0905609 4:1 5:1 6:1 7:3 8:2 9:0 10:1.6373948 11:1.2671766 12:0.79486328 13:0.99997342 14:0.99997514 15:0.99997896 #
6.8869369176366035389946773648262 1:40.969692 2:29.710739 3:6.9959693 4:303 5:303 6:303 7:22 8:30 9:7 10:55.335247 11:58.488785 12:5.116425 13:0.99963129 14:0.99972034 15:0.99996305 #
-10 1:67.209869 2:59.553822 3:32.926357 4:0 5:0 6:0 7:63 8:43 9:24 10:51.093063 11:52.112179 12:28.101757 13:0.99955112 14:0.99970716 15:0.99971473 #
10 1:21.581013 2:14.015869 3:2.1565235 4:455 5:455 6:455 7:20 8:16 9:6 10:10.800553 11:13.169312 12:28.050346 13:0.99797809 14:0.99854529 15:0.99918628 #
-10 1:0.37101236 2:63.745869 3:145.36348 4:472 5:472 6:472 7:0 8:65 9:152 10:14.730274 11:11.698895 12:21.234056 13:0.99861705 14:0.99708724 15:0.99515384 #
6.8788132406313611255654905107804 1:5.6596923 2:54.83926 3:4.4559693 4:5 5:5 6:5 7:16 8:58 9:4 10:57.479389 11:56.09449 12:7.3213124 13:0.9996981 14:0.99987078 15:0.99996775 #
-1.0128934400634879153813017182983 1:13.863542 2:3.9753907 3:1.4948567 4:463 5:463 6:463 7:13 8:4 9:12 10:10.367163 11:13.804567 12:14.946198 13:0.99794453 14:0.99804103 15:0.99791437 #
2.5303474544514799049466091673821 1:43.719692 2:34.100739 3:6.9859691 4:10 5:10 6:10 7:24 8:32 9:8 10:57.332867 11:60.467583 12:4.9530978 13:0.99961179 14:0.99969637 15:0.99995577 #
9.963159488862324053570773685351 1:63.020287 2:139.75546 3:147.21124 4:281 5:281 6:281 7:55 8:144 9:160 10:39.833817 11:17.12878 12:3.477704 13:0.99974734 14:0.99971908 15:0.99976307 #
-10 1:3.8210123 2:101.86587 3:189.49347 4:463 5:463 6:463 7:4 8:106 9:200 10:14.033133 11:9.8417892 12:22.310316 13:0.99859953 14:0.99597406 15:0.99399507 #
-0.015632139549447171544827028810687 1:12.268988 2:10.074131 3:10.276524 4:483 5:483 6:483 7:13 8:7 9:2 10:15.698415 11:17.324192 12:30.495321 13:0.9991796 14:0.99956638 15:0.99964643 #
-0.22855070774221530882641673088074 1:33.452274 2:36.311199 3:22.220013 4:391 5:391 6:391 7:35 8:38 9:27 10:32.547985 11:32.657471 12:28.837816 13:0.99809909 14:0.99811852 15:0.99865443 #
-0.0028769485054525034684047568589449 1:2.2697141 2:11.804536 3:14.418756 4:3 5:3 6:3 7:5 8:6 9:8 10:19.574492 11:11.322584 12:15.302774 13:0.9998017 14:0.99988997 15:0.99996024 #
-8.0949316299477640512805010075681 1:2.0498688 2:20.75382 3:14.966357 4:24 5:24 6:24 7:2 8:4 9:6 10:41.795647 11:43.410881 12:20.260807 13:0.99875277 14:0.99911261 15:0.99931514 #
-1.4707551129573142034701049851719 1:47.570286 2:36.155464 3:12.121244 4:281 5:281 6:281 7:37 8:33 9:15 10:30.516922 11:15.255435 12:9.5915146 13:0.99973917 14:0.99982947 15:0.99992222 #
5.7651494119949360239729685417842 1:49.189693 2:30.820738 3:7.3759694 4:10 5:10 6:10 7:30 8:29 9:7 10:55.496887 11:58.993458 12:4.3995152 13:0.99959695 14:0.99969876 15:0.99995029 #
-0.12653419935772802773499279282987 1:18.053291 2:13.991679 3:15.430561 4:2 5:2 6:2 7:12 8:11 9:11 10:9.0691338 11:9.497716 12:15.351637 13:0.99996531 14:0.99996608 15:0.99996924 #
-7.2458466748215197839044776628725 1:108.4603 2:98.609261 3:1.8940308 4:458 5:458 6:458 7:130 8:101 9:3 10:60.603245 11:66.341377 12:8.3589478 13:0.99990982 14:0.99995524 15:0.99995708 #
-0.15043882710605060992747894488275 1:15.400286 2:1.814536 3:9.8087559 4:0 5:0 6:0 7:5 8:3 9:7 10:28.850325 11:20.724871 12:13.303092 13:0.99976271 14:0.99986058 15:0.99993026 #
9.8467174827143075788171699969098 1:13.519714 2:10.144536 3:0.088755526 4:8 5:8 6:8 7:33 8:20 9:0 10:10.363549 11:0.42696303 12:0.35483798 13:0.99975348 14:0.99982679 15:0.9998824 #
-1.2926839626005248717888207465876 1:0.72898763 2:2.8941309 3:10.156524 4:470 5:470 6:470 7:1 8:0 9:2 10:16.176481 11:17.985155 12:30.623211 13:0.99882549 14:0.99931198 15:0.99961346 #
1.5644005361120283392750707207597 1:35.870285 2:68.795464 3:83.491241 4:281 5:281 6:281 7:42 8:87 9:100 10:10.086719 11:36.130527 12:35.05455 13:0.9996804 14:0.99966615 15:0.99971706 #
-10 1:4.1389875 2:7.2541308 3:14.316524 4:473 5:473 6:473 7:5 8:5 9:6 10:15.656318 11:17.335224 12:30.171867 13:0.99888837 14:0.99940073 15:0.99970549 #
-4.5275153293536654075523983919993 1:93.890129 2:117.99618 3:68.513641 4:257 5:257 6:257 7:102 8:140 9:82 10:46.547554 11:45.119537 12:20.764387 13:0.99820048 14:0.99817872 15:0.99876791 #
-3.1104185931769166018057148903608 1:17.233292 2:11.141679 3:1.160561 4:7 5:7 6:7 7:6 8:1 9:7 10:7.5750718 11:8.5096035 12:9.1191006 13:0.99997127 14:0.99997175 15:0.99997228 #
4.8433720506872415256793829030357 1:44.317726 2:48.838799 3:40.919987 4:68 5:68 6:68 7:39 8:43 9:33 10:26.890701 11:27.601215 12:24.527771 13:0.99928463 14:0.99943411 15:0.99962246 #
-7.0535220328269758738315431401134 1:65.581032 2:64.862137 3:61.995907 4:65 5:65 6:65 7:54 8:55 9:54 10:9.7516279 11:5.235815 12:0.2264325 13:0.99891359 14:0.99891537 15:0.99805301 #
-8.0379020027179741703093895921484 1:27.103292 2:17.14168 3:2.9394391 4:496 5:496 6:496 7:20 8:10 9:7 10:0.97248936 11:2.7466927 12:4.2110577 13:0.99997747 14:0.99997652 15:0.99997437 #
0.10087416651430203273775987327099 1:19.819693 2:12.449262 3:0.11403076 4:328 5:328 6:328 7:0 8:12 9:0 10:53.394749 11:58.507568 12:1.0265666 13:0.99960893 14:0.99973553 15:0.99989814 #
-10 1:30.129692 2:11.510738 3:3.9359694 4:6 5:6 6:6 7:10 8:10 9:5 10:55.227375 11:59.489746 12:4.2140422 13:0.999632 14:0.99973422 15:0.99994767 #
-5.7218124159465943989744118880481 1:72.910522 2:72.891289 3:39.117405 4:0 5:0 6:0 7:74 8:75 9:38 10:16.479967 11:21.273312 12:20.858583 13:0.9995802 14:0.99956822 15:0.99948049 #
-0.0057749498404540133833506843075156 1:5.1489878 2:6.0241308 3:5.7265234 4:474 5:474 6:474 7:6 8:3 9:2 10:15.863246 11:17.304453 12:30.155638 13:0.99893296 14:0.99936604 15:0.9994486 #
-1.7228725818103871603170773596503 1:150.8403 2:116.59926 3:1.3440307 4:272 5:272 6:272 7:172 8:119 9:2 10:61.94128 11:67.78524 12:9.771637 13:0.99999595 14:0.99999756 15:0.99996722 #
1.251193235401046877086628228426 1:14.782275 2:4.5311999 3:28.799986 4:338 5:338 6:338 7:15 8:5 9:25 10:33.108364 11:33.53793 12:28.954718 13:0.9982934 14:0.9985497 15:0.99940586 #
4.256176479227447018161001324188 1:7.7002859 2:39.675465 3:51.831245 4:281 5:281 6:281 7:5 8:12 9:17 10:0.75158721 11:35.364632 12:49.600555 13:0.9997201 14:0.99974221 15:0.99978548 #
-0.46218025781536198337562382221222 1:19.129869 2:36.003819 3:23.636358 4:0 5:0 6:0 7:13 8:20 9:16 10:44.645054 11:47.035191 12:23.190636 13:0.998999 14:0.99935979 15:0.99948716 #
-5.6190119491050722899672109633684 1:11.816709 2:8.808321 3:12.089439 4:0 5:0 6:0 7:12 8:8 9:2 10:0.68813372 11:1.3194611 12:3.9771585 13:0.99996191 14:0.99996418 15:0.99996692 #
-10 1:24.779692 2:3.5607386 3:6.1359692 4:327 5:327 6:327 7:3 8:1 9:6 10:58.406239 11:60.837616 12:6.428503 13:0.99965572 14:0.99976093 15:0.99996495 #
7.17868930555237838575521891471 1:32.260284 2:12.675464 3:7.0812445 4:0 5:0 6:0 7:22 8:7 9:5 10:28.331078 11:11.77992 12:1.3312398 13:0.99974805 14:0.99985278 15:0.99992001 #
0.7902085807753032042910490417853 1:79.923294 2:71.891678 3:58.78056 4:545 5:545 6:545 7:84 8:77 9:59 10:17.21139 11:14.382869 12:10.025047 13:0.99999666 14:0.9999963 15:0.99999595 #
2.4720155065326920862389670219272 1:35.029694 2:7.2007384 3:8.3659697 4:10 5:10 6:10 7:19 8:15 9:8 10:49.824932 11:41.584316 12:6.2390122 13:0.99962622 14:0.99974716 15:0.99995816 #
-0.068607011039327758794570399913937 1:93.820129 2:121.36618 3:69.953644 4:257 5:257 6:257 7:103 8:143 9:84 10:47.165638 11:44.617565 12:20.981543 13:0.99817538 14:0.99813634 15:0.99875021 #
2.7996741411401089294486155267805 1:78.691032 2:102.35213 3:126.22591 4:124 5:124 6:124 7:89 8:117 9:145 10:1.084715 11:2.9717538 12:5.9150481 13:0.99743176 14:0.99827552 15:0.99828285 #
-10 1:61.289692 2:93.620735 3:0.45596924 4:18 5:18 6:18 7:43 8:101 9:9 10:53.739746 11:44.923508 12:8.3009338 13:0.99956143 14:0.99957347 15:0.99991071 #
4.6811008643143310337109141983092 1:35.779694 2:8.0692616 3:0.35403076 4:6 5:6 6:6 7:12 8:12 9:0 10:51.051762 11:42.940987 12:3.6878424 13:0.9996103 14:0.99975944 15:0.99991882 #
-9.6990286356693573566190025303513 1:98.982277 2:103.8212 3:106.99001 4:0 5:0 6:0 7:138 8:144 9:149 10:20.821171 11:21.361214 12:24.462769 13:0.99641025 14:0.99636811 15:0.99669862 #
-3.1056840725796064361929893493652e-06 1:10.336708 2:8.3983212 3:12.829439 4:0 5:0 6:0 7:7 8:7 9:12 10:15.91797 11:14.33377 12:11.964436 13:0.99997765 14:0.99997997 15:0.9999814 #
-10 1:20.859692 2:2.5692616 3:3.7359693 4:4 5:4 6:4 7:0 8:5 9:3 10:56.326172 11:59.036808 12:5.416769 13:0.99963778 14:0.99974728 15:0.99993318 #
-7.3046666580583448080687958281487 1:64.659691 2:67.390739 3:3.2259693 4:280 5:280 6:280 7:44 8:65 9:8 10:58.468544 11:63.244419 12:2.8068862 13:0.99957871 14:0.99964243 15:0.99994338 #
4.863335884229904593212268082425 1:19.371012 2:11.375869 3:5.4465237 4:3 5:3 6:3 7:17 8:12 9:1 10:11.398416 11:12.591501 12:26.591093 13:0.9981547 14:0.99874735 15:0.99936962 #
10 1:28.219692 2:1.5707386 3:0.32596925 4:8 5:8 6:8 7:7 8:1 9:2 10:54.049103 11:56.758755 12:1.1040981 13:0.99959624 14:0.99971068 15:0.99989802 #
-10 1:15.271012 2:137.31587 3:218.01347 4:98 5:98 6:98 7:15 8:140 9:226 10:15.15027 11:16.962353 12:29.659815 13:0.99827087 14:0.99494028 15:0.99323428 #
-0.34426646783864844891809298133012 1:3.2067084 2:0.42167896 3:1.620561 4:15 5:15 6:15 7:2 8:5 9:3 10:16.165541 11:13.762057 12:13.955091 13:0.99997711 14:0.99997967 15:0.99998271 #
10 1:64.140289 2:161.36546 3:189.67125 4:281 5:281 6:281 7:56 8:162 9:195 10:40.881363 11:32.082985 12:19.084705 13:0.99975288 14:0.99970394 15:0.99972087 #
-1.6248387139357731712152599357069 1:7.7702856 2:6.9854641 3:14.521244 4:24 5:24 6:24 7:1 8:9 9:20 10:30.284302 11:23.220583 12:17.795019 13:0.99981165 14:0.99989122 15:0.99994397 #
-6.2712916057194867391899606445804e-05 1:122.80031 2:105.80927 3:3.3440309 4:471 5:471 6:471 7:144 8:108 9:4 10:60.814075 11:66.832787 12:9.024642 13:0.99994189 14:0.99997348 15:0.99996185 #
10 1:39.603291 2:39.06168 3:37.89056 4:518 5:518 6:518 7:45 8:42 9:42 10:16.67981 11:15.078639 12:12.174009 13:0.99999207 14:0.99999362 15:0.99999565 #
-5.127258524986686438751348759979 1:32.373543 2:18.105391 3:15.005143 4:1 5:1 6:1 7:33 8:9 9:3 10:7.2484446 11:23.374533 12:26.278664 13:0.99936777 14:0.99985796 15:0.99992985 #
-10 1:8.9767084 2:2.018321 3:1.840561 4:488 5:488 6:488 7:4 8:9 9:13 10:0.1546469 11:3.7317185 12:6.8992429 13:0.99996912 14:0.99997234 15:0.99997616 #
-0.69169315791746510679871562388144 1:27.160286 2:24.585464 3:29.241245 4:41 5:41 6:41 7:17 8:24 9:34 10:31.754066 11:22.950539 12:17.121521 13:0.99978471 14:0.999865 15:0.9999215 #
-0.68535175183663454845373053103685 1:21.010286 2:17.575464 3:4.6712446 4:1 5:1 6:1 7:17 8:18 9:6 10:12.326241 11:7.9845595 12:1.0437113 13:0.99973524 14:0.99981421 15:0.99989241 #
-0.027713565850697341463870770894573 1:19.016708 2:13.518321 3:6.5994391 4:0 5:0 6:0 7:14 8:9 9:4 10:13.849658 11:10.792877 12:10.681984 13:0.99997133 14:0.99997437 15:0.99997902 #
-1.756921557805981137789785861969 1:19.920286 2:5.9154639 3:8.6287556 4:1 5:1 6:1 7:15 8:10 9:4 10:21.140476 11:12.103714 12:10.060215 13:0.99974167 14:0.99983633 15:0.99992174 #
-0.18078497056126252573449164628983 1:8.0610123 2:2.6558692 3:3.0334766 4:17 5:17 6:17 7:7 8:5 9:11 10:14.497681 11:17.476656 12:30.571968 13:0.99848497 14:0.99910402 15:0.99920547 #
-10 1:63.840309 2:69.519264 3:0.37596923 4:1 5:1 6:1 7:82 8:70 9:0 10:40.552353 11:53.348614 12:7.1432891 13:0.9998253 14:0.99990273 15:0.99995911 #
2.2678234088890034669816486712079 1:10.639714 2:7.5045362 3:7.2987556 4:0 5:0 6:0 7:19 8:7 9:4 10:30.529982 11:21.483816 12:12.903874 13:0.99981177 14:0.9998849 15:0.99994802 #
10 1:92.909866 2:66.283821 3:32.336357 4:0 5:0 6:0 7:91 8:53 9:26 10:41.920998 11:46.630829 12:23.227049 13:0.99969727 14:0.99968529 15:0.99968576 #
5.3540740743351067365551898546983 1:15.359474 2:8.7387133 3:0.19740392 4:44 5:44 6:44 7:17 8:10 9:4 10:21.211487 11:26.511915 12:24.003117 13:0.99819124 14:0.99824715 15:0.99856567 #
10 1:53.053291 2:52.751678 3:44.600559 4:517 5:517 6:517 7:56 8:56 9:44 10:22.800142 11:19.679235 12:14.414049 13:0.99999326 14:0.99999458 15:0.99999481 #
10 1:14.651031 2:12.912134 3:8.0159054 4:473 5:473 6:473 7:24 8:24 9:21 10:26.058071 11:30.629255 12:35.038696 13:0.99840122 14:0.99837798 15:0.99744868 #
3.7204197728409407197602831729455 1:15.539692 2:59.879261 3:1.7159692 4:1 5:1 6:1 7:6 8:67 9:1 10:55.876911 11:52.808369 12:6.9064803 13:0.99967605 14:0.99987841 15:0.99996078 #
-4.7623918487097398610785603523254 1:47.849869 2:47.56382 3:26.676357 4:0 5:0 6:0 7:43 8:32 9:19 10:43.633266 11:45.400032 12:22.145493 13:0.99899095 14:0.99920332 15:0.99927235 #
-10 1:29.279692 2:12.890738 3:3.7459693 4:6 5:6 6:6 7:13 8:15 9:5 10:51.730568 11:54.102001 12:4.2994676 13:0.99962783 14:0.99972153 15:0.9999426 #
-0.63415649918345451396817225031555 1:40.280285 2:30.835464 3:14.321244 4:318 5:318 6:318 7:32 8:26 9:18 10:27.816584 11:13.391154 12:7.9194665 13:0.9997595 14:0.99984229 15:0.99992675 #
4.3995019607432173103234163136221 1:22.909868 2:14.15382 3:0.41635767 4:0 5:0 6:0 7:5 8:25 9:20 10:1.3189145 11:8.1227465 12:0.27866638 13:0.99881816 14:0.99896389 15:0.99911678 #
7.580758536574258243945223512128 1:34.26329 2:34.031677 3:32.790562 4:524 5:524 6:524 7:38 8:37 9:31 10:8.1184483 11:7.855783 12:6.6061702 13:0.99998552 14:0.99998707 15:0.99998993 #
-0.003006110662435834690597857843386 1:7.9389877 2:9.8141308 3:9.2765236 4:479 5:479 6:479 7:9 8:7 9:1 10:15.581947 11:17.706577 12:29.834677 13:0.99899977 14:0.99946749 15:0.9995659 #
1.7446883203250056482147556380369 1:26.460285 2:2.805464 3:22.298756 4:8 5:8 6:8 7:19 8:4 9:16 10:33.856178 11:25.704298 12:18.757435 13:0.9997738 14:0.99988204 15:0.99998015 #
0.13152410837714201274906145044952 1:56.136459 2:97.40461 3:116.50486 4:397 5:397 6:397 7:53 8:112 9:148 10:14.632514 11:24.504677 12:26.428869 13:0.99588817 14:0.99447519 15:0.99390298 #
8.8951892147164297597328186384402 1:9.6067085 2:5.9483209 3:1.289439 4:6 5:6 6:6 7:11 8:7 9:3 10:0.79716831 11:1.5344453 12:0.32696381 13:0.99997681 14:0.99997944 15:0.99998307 #
2.4960461641241913355315773515031 1:6.9602857 2:7.8254638 3:12.331244 4:0 5:0 6:0 7:9 8:10 9:17 10:3.1108687 11:15.43027 12:1.8691154 13:0.99979502 14:0.9998731 15:0.99992967 #
-4.5352793537248743405143613927066 1:50.720524 2:63.831287 3:44.497402 4:0 5:0 6:0 7:48 8:61 9:39 10:26.229492 11:30.980009 12:31.199636 13:0.99964088 14:0.99981201 15:0.99986595 #
1.7799690494272653040752629749477 1:49.099693 2:39.200737 3:9.5259695 4:294 5:294 6:294 7:30 8:39 9:10 10:55.859097 11:60.616417 12:6.0194817 13:0.999605 14:0.99969184 15:0.99996847 #
-3.3958760856353364943061023950577 1:9.7667084 2:11.128321 3:7.6494389 4:4 5:4 6:4 7:5 8:8 9:5 10:8.554842 11:6.9075003 12:2.912622 13:0.99997157 14:0.99997288 15:0.99997669 #
-0.017357516330037014995468780398369 1:20.829714 2:21.924536 3:14.398755 4:2 5:2 6:2 7:25 8:17 9:7 10:21.748943 11:13.893137 12:13.422282 13:0.99980462 14:0.9998818 15:0.99994057 #
-10 1:55.419693 2:54.23074 3:6.8559694 4:12 5:12 6:12 7:36 8:56 9:8 10:54.016197 11:39.208954 12:3.9040782 13:0.99958545 14:0.99965018 15:0.99995804 #
0.80850544321294570693225978175178 1:15.129714 2:0.67453599 3:11.031244 4:4 5:4 6:4 7:32 8:20 9:1 10:9.8017902 11:5.7159128 12:10.515211 13:0.99979728 14:0.99986416 15:0.99991339 #
-9.7614689382809416429154225625098 1:7.0996923 2:12.779262 3:4.6159692 4:7 5:7 6:7 7:13 8:13 9:4 10:57.593708 11:61.862469 12:8.0621033 13:0.9996922 14:0.9997921 15:0.99996871 #
-2.1138573784908514241465127270203 1:128.30031 2:105.73926 3:2.8940308 4:1 5:1 6:1 7:152 8:111 9:3 10:55.568119 11:61.902138 12:8.3351278 13:0.99994117 14:0.99996227 15:0.99995333 #
10 1:40.119869 2:45.093819 3:27.746357 4:13 5:13 6:13 7:37 8:30 9:19 10:48.688499 11:50.20491 12:26.145103 13:0.99920189 14:0.9994421 15:0.99953878 #
-3.1790289182219684249730562441982 1:4.6701312 2:14.42382 3:14.316358 4:0 5:0 6:0 7:12 8:2 9:2 10:34.516594 11:37.172951 12:17.307724 13:0.99841315 14:0.99877125 15:0.999093 #
-10 1:68.193291 2:60.641678 3:48.07056 4:556 5:556 6:556 7:81 8:68 9:52 10:0.97419083 11:0.8524431 12:0.65820593 13:0.99998879 14:0.99998856 15:0.99998844 #
-4.6387462041305260740386984252837 1:3.8432915 2:9.1116791 3:12.830561 4:4 5:4 6:4 7:1 8:5 9:12 10:0.4576773 11:0.91094124 12:1.1117116 13:0.99997485 14:0.99997777 15:0.99998146 #
-3.4139063803293439036679046694189 1:5.2702856 2:12.384536 3:18.938755 4:2 5:2 6:2 7:2 8:13 9:13 10:28.331299 11:19.144094 12:14.061374 13:0.99978393 14:0.99988556 15:0.99995774 #
-1.0026304761068112192390344716841 1:22.613291 2:18.241678 3:14.820561 4:28 5:28 6:28 7:32 8:30 9:24 10:3.3664694 11:1.2424731 12:0.99310184 13:0.99997723 14:0.99997759 15:0.9999795 #
-0.011165038731451915055004064925015 1:6.0967083 2:8.6883211 3:11.759439 4:1 5:1 6:1 7:6 8:8 9:13 10:11.615765 11:9.3105326 12:7.9304399 13:0.99997252 14:0.9999736 15:0.9999758 #
-7.4011284766078304642178409267217 1:61.869694 2:107.54074 3:14.524031 4:286 5:286 6:286 7:41 8:108 9:16 10:58.788036 11:59.114685 12:3.3728285 13:0.99958462 14:0.99957031 15:0.99991792 #
0.20267089627294421205760954762809 1:1.3497142 2:5.1854639 3:13.601245 4:37 5:37 6:37 7:16 8:3 9:15 10:4.4909587 11:5.0191236 12:0.85028315 13:0.99978793 14:0.99986005 15:0.9999066 #
0.51024311540743383375229313969612 1:48.329693 2:38.560738 3:9.3459692 4:14 5:14 6:14 7:30 8:38 9:10 10:54.63216 11:58.571896 12:5.7172661 13:0.99960017 14:0.99968356 15:0.99996531 #
-1.6904539724322531490940946241608 1:3.6302857 2:2.6454639 3:10.418756 4:347 5:347 6:347 7:7 8:0 9:6 10:30.846889 11:21.300135 12:15.289747 13:0.99979407 14:0.9998734 15:0.9999525 #
-0.3528333125651670343359000980854 1:0.84670842 2:0.88832104 3:2.8105609 4:0 5:0 6:0 7:0 8:1 9:1 10:6.2227178 11:4.3139796 12:2.3816259 13:0.99996924 14:0.99997085 15:0.99997437 #
-0.046336852160484012785879315288184 1:31.880285 2:40.555466 3:31.431244 4:281 5:281 6:281 7:34 8:47 9:31 10:10.255387 11:3.9667482 12:20.861385 13:0.99965489 14:0.99971628 15:0.99979216 #
0.044239590404970385861815884709358 1:42.330284 2:105.28546 3:103.62125 4:281 5:281 6:281 7:51 8:139 9:141 10:14.516938 11:24.623615 12:53.327236 13:0.99973154 14:0.99971032 15:0.99975938 #
-0.32560321373816236700804438441992 1:1.8289876 2:3.5841308 3:10.886523 4:240 5:240 6:240 7:3 8:1 9:3 10:16.195097 11:18.132925 12:30.877829 13:0.99889791 14:0.99936438 15:0.99967098 #
-0.54933667743352998513728380203247 1:22.841013 2:14.105869 3:8.9234762 4:15 5:15 6:15 7:15 8:12 9:14 10:4.1967916 11:8.6206245 12:23.507965 13:0.99800271 14:0.99866027 15:0.99895549 #
-0.12069861998290321025706361979246 1:5.6067085 2:5.288321 3:0.079439007 4:2 5:2 6:2 7:1 8:1 9:2 10:1.4997379 11:2.7483504 12:6.9002357 13:0.99996406 14:0.99996567 15:0.99997008 #
-0.11532660739757716328313108533621 1:33.350285 2:16.275463 3:2.1212444 4:6 5:6 6:6 7:26 8:18 9:5 10:23.264154 11:10.518178 12:6.0866656 13:0.99970162 14:0.99980223 15:0.9998799 #
-1.6431359055259271428894862765446 1:15.449715 2:31.074535 3:19.828756 4:6 5:6 6:6 7:22 8:30 9:14 10:27.916306 11:19.540461 12:19.831327 13:0.99983305 14:0.99993485 15:0.9999854 #
3.3243184116555397622505552135408 1:63.450287 2:155.39546 3:172.99124 4:281 5:281 6:281 7:55 8:158 9:179 10:40.54063 11:28.303936 12:16.341087 13:0.99975103 14:0.99970591 15:0.99974042 #
-1.4540302572999195263037108816206 1:16.740286 2:1.074536 3:11.108755 4:1 5:1 6:1 7:6 8:2 9:6 10:29.106764 11:20.754822 12:12.690273 13:0.99974388 14:0.99984318 15:0.99991864 #
-7.0038996993525826084692198492121 1:15.420286 2:25.275463 3:31.561245 4:329 5:329 6:329 7:7 8:18 9:14 10:18.31974 11:1.453025 12:25.314959 13:0.99970871 14:0.99976999 15:0.99981672 #
-0.28989812719191832002252340316772 1:45.700287 2:44.025463 3:9.5012445 4:281 5:281 6:281 7:39 8:45 9:14 10:25.773756 11:7.9916592 12:2.6854553 13:0.99968767 14:0.99975073 15:0.99985868 #
6.0555129339909576913214550586417 1:66.531029 2:89.462135 3:112.7459 4:123 5:123 6:123 7:86 8:115 9:143 10:11.880875 11:13.563742 12:14.898697 13:0.99644619 14:0.99713832 15:0.9971354 #
-0.47141673093722691323392837148276 1:2.5702858 2:5.1345358 3:14.048756 4:24 5:24 6:24 7:3 8:0 9:9 10:20.460238 11:10.412699 12:9.7571754 13:0.99974275 14:0.99982917 15:0.99991244 #
-0.014758368951282241354761026741471 1:10.596708 2:12.208321 3:11.179439 4:3 5:3 6:3 7:8 8:9 9:11 10:15.536113 11:13.103666 12:11.114861 13:0.99997067 14:0.99997169 15:0.99997473 #
0.036034653175192721263897510652896 1:8.6897144 2:9.7045364 3:11.628756 4:6 5:6 6:6 7:27 8:20 9:8 10:15.477764 11:3.5803497 12:7.0792332 13:0.99980241 14:0.99988276 15:0.99994993 #
-0.010862349109515889722388237714767 1:3.4997141 2:2.0054641 3:11.261245 4:328 5:328 6:328 7:8 8:1 9:10 10:10.713923 11:0.82082498 12:8.1685591 13:0.99972397 14:0.99979877 15:0.99984622 #
10 1:13.839692 2:11.419262 3:1.2559693 4:8 5:8 6:8 7:7 8:15 9:2 10:54.742958 11:60.41256 12:4.0441294 13:0.99964941 14:0.99976355 15:0.99993426 #
1.0831380411171949162962846457958 1:19.443291 2:16.961679 3:10.790561 4:500 5:500 6:500 7:30 8:24 9:15 10:7.9018269 11:9.7052174 12:10.069483 13:0.99997157 14:0.99997282 15:0.99997395 #
10 1:61.529869 2:56.983822 3:32.226357 4:0 5:0 6:0 7:59 8:41 9:24 10:49.379784 11:50.955235 12:26.658363 13:0.99947625 14:0.99966544 15:0.99968958 #
-0.58716835932881061843602310545975 1:27.410286 2:20.855465 3:17.501244 4:180 5:180 6:180 7:20 8:15 9:10 10:25.432854 11:9.4066315 12:17.278439 13:0.99972528 14:0.99980491 15:0.99987334 #
-0.29429657435184708447195589542389 1:73.842278 2:79.501198 3:86.530014 4:0 5:0 6:0 7:134 8:141 9:147 10:48.080231 11:48.138691 12:47.249962 13:0.99620092 14:0.99614543 15:0.99639022 #
0.62188066716823797719371214043349 1:48.739693 2:21.270739 3:6.9159694 4:7 5:7 6:7 7:28 8:19 9:6 10:56.07225 11:58.808308 12:5.9294367 13:0.99959892 14:0.99971485 15:0.99995524 #
-0.017557318837708724146295935497619 1:7.6332917 2:10.361679 3:9.6105614 4:1 5:1 6:1 7:7 8:10 9:9 10:11.171294 11:8.3644114 12:6.0188918 13:0.99997139 14:0.99997336 15:0.99997598 #
0.74684303614524738534896641795058 1:21.389692 2:8.5892611 3:6.2659693 4:162 5:162 6:162 7:0 8:10 9:6 10:59.626171 11:64.11808 12:7.6069679 13:0.99966437 14:0.99978507 15:0.99996781 #
-0.023602156557540165948694266262464 1:13.479714 2:19.104536 3:18.078756 4:0 5:0 6:0 7:19 8:16 9:10 10:26.839655 11:20.645668 12:14.23375 13:0.99979937 14:0.99988347 15:0.99994504 #
-0.73211625163460780640889424830675 1:15.350286 2:8.0145359 3:22.468756 4:2 5:2 6:2 7:7 8:8 9:18 10:31.665455 11:23.074938 12:15.012948 13:0.9997611 14:0.99986851 15:0.99995124 #
-10 1:53.163292 2:43.191677 3:32.680561 4:565 5:565 6:565 7:45 8:36 9:27 10:8.9754887 11:10.874136 12:13.743132 13:0.99997932 14:0.99997866 15:0.99997944 #
2.3598587068570395786082372069359 1:5.4532914 2:4.421679 3:1.739439 4:499 5:499 6:499 7:8 8:8 9:3 10:2.2972503 11:3.8026745 12:7.7556047 13:0.99996912 14:0.99997056 15:0.99997145 #
4.8401094870323646546239615418017 1:53.630287 2:122.65546 3:112.86124 4:281 5:281 6:281 7:52 8:125 9:116 10:27.440802 11:5.3383374 12:12.621 13:0.99969739 14:0.9996683 15:0.99974191 #
0.031319647003371642313140910118818 1:40.659691 2:13.660739 3:5.6859694 4:8 5:8 6:8 7:21 8:13 9:6 10:55.549957 11:60.065716 12:5.8134193 13:0.99961603 14:0.9997313 15:0.99995607 #
10 1:94.06987 2:69.283821 3:35.736359 4:0 5:0 6:0 7:90 8:54 9:28 10:48.776024 11:50.730415 12:28.109358 13:0.99970686 14:0.99973935 15:0.99972516 #
-1.8499928608264610829792218282819 1:11.713291 2:13.741679 3:11.970561 4:4 5:4 6:4 7:2 8:5 9:6 10:5.8817301 11:6.2584057 12:9.0059481 13:0.99997956 14:0.99998194 15:0.99998409 #
1.928561085625263515908045519609 1:53.559692 2:52.73074 3:2.3559692 4:18 5:18 6:18 7:34 8:52 9:3 10:53.293289 11:56.360794 12:0.33041304 13:0.99958646 14:0.99965519 15:0.99994111 #
-6.940878765298975849873386323452 1:5.4532914 2:3.161679 3:0.85056102 4:1 5:1 6:1 7:3 8:2 9:2 10:5.4275074 11:3.2503803 12:0.39084178 13:0.99996632 14:0.99996775 15:0.99997014 #
-0.23653740296252800945353556016926 1:11.128987 2:11.354131 3:12.986524 4:479 5:479 6:479 7:11 8:9 9:5 10:15.246458 11:17.117811 12:30.46743 13:0.99913025 14:0.99957401 15:0.99968022 #
-0.0010506211951395449943902349332348 1:20.086708 2:19.428322 3:13.269439 4:1 5:1 6:1 7:17 8:16 9:11 10:13.620459 11:10.735374 12:9.9000139 13:0.99996918 14:0.99997079 15:0.99997532 #
1.5535333060145433137222426012158 1:16.603292 2:12.381679 3:5.2305608 4:497 5:497 6:497 7:31 8:26 9:14 10:2.0692492 11:0.57680964 12:1.589438 13:0.99997604 14:0.99997663 15:0.99997753 #
5.032587339590678610079521604348 1:22.49897 2:24.207865 3:26.074095 4:4 5:4 6:4 7:12 8:13 9:13 10:28.538017 11:33.153191 12:37.75045 13:0.99739337 14:0.99737364 15:0.99651426 #
2.0502578782126334999702521599829 1:33.269691 2:18.369261 3:2.5259693 4:11 5:11 6:11 7:10 8:23 9:3 10:53.826248 11:48.410389 12:3.3375533 13:0.99960738 14:0.99977195 15:0.99993074 #
10 1:24.909868 2:28.32382 3:10.186357 4:35 5:35 6:35 7:19 8:9 9:1 10:47.708038 11:48.81731 12:24.529949 13:0.99906796 14:0.99930221 15:0.9993844 #
-0.12915148454931113519705832004547 1:8.5297146 2:15.464536 3:16.368755 4:0 5:0 6:0 7:15 8:13 9:10 10:29.424141 11:21.769428 12:17.988138 13:0.99982053 14:0.99990469 15:0.99997169 #
-0.57549470812728387159040721599013 1:9.6132917 2:7.8016791 3:5.7905612 4:17 5:17 6:17 7:17 8:16 9:12 10:8.8350515 11:9.909833 12:9.6772337 13:0.99997264 14:0.99997336 15:0.99997544 #
-2.7747809012410016293870285153389 1:1.9289876 2:5.8341308 3:11.496524 4:3 5:3 6:3 7:2 8:3 9:3 10:16.086445 11:17.821014 12:30.899027 13:0.99888676 14:0.99940664 15:0.99966943 #
10 1:104.91987 2:71.533821 3:36.756359 4:0 5:0 6:0 7:102 8:56 9:29 10:48.531097 11:53.109749 12:29.626837 13:0.99991906 14:0.9998762 15:0.99986011 #
3.6717100329699627891955060476903 1:11.200308 2:100.32926 3:0.31403077 4:1 5:1 6:1 7:32 8:102 9:1 10:60.084297 11:65.645462 12:8.0629873 13:0.99972719 14:0.99995434 15:0.99995404 #
0.47672375004981404345016926527023 1:43.579693 2:31.840738 3:8.9659691 4:305 5:305 6:305 7:23 8:30 9:9 10:59.600704 11:63.914845 12:7.030695 13:0.99962431 14:0.99971443 15:0.99997389 #
6.5080503190328720108936977339908 1:31.659693 2:8.2292614 3:4.505969 4:9 5:9 6:9 7:9 8:14 9:5 10:56.612507 11:58.221859 12:5.7868042 13:0.9996385 14:0.99977261 15:0.99995941 #
0.28275471952110819984227418899536 1:83.886459 2:132.0946 3:151.09486 4:356 5:356 6:356 7:88 8:146 9:173 10:1.6166128 11:5.462985 12:4.364738 13:0.99446583 14:0.99266011 15:0.99191773 #
-0.0033661618257951886334922164678574 1:2.9932916 2:1.8283211 3:3.8394389 4:3 5:3 6:3 7:5 8:1 9:4 10:18.736116 11:21.264551 12:19.559437 13:0.99998003 14:0.99998045 15:0.99998271 #
-1.3631187345098467744719528127462 1:0.87971419 2:9.4245358 3:18.188755 4:9 5:9 6:9 7:9 8:8 9:14 10:32.645329 11:24.0263 12:16.460842 13:0.9997943 14:0.99988413 15:0.99995762 #
2.2995771529267230448567715939134 1:31.769691 2:21.290739 3:8.3859692 4:9 5:9 6:9 7:11 8:20 9:8 10:58.519989 11:62.250313 12:7.6732392 13:0.99964833 14:0.99973452 15:0.99997091 #
-0.58858543781832395325182005763054 1:11.816709 2:10.168321 3:1.099439 4:2 5:2 6:2 7:7 8:6 9:1 10:8.0899687 11:6.0807095 12:3.3874476 13:0.99996835 14:0.99997038 15:0.99997526 #
-1.2527151546258106229458917368902 1:15.029715 2:16.254536 3:15.188756 4:10 5:10 6:10 7:20 8:12 9:8 10:25.038416 11:16.008467 12:13.855313 13:0.99979383 14:0.99987358 15:0.99993682 #
-0.0063736436805754692613845691084862 1:9.5498686 2:27.98382 3:20.596357 4:0 5:0 6:0 7:4 8:11 9:11 10:44.021511 11:45.427803 12:22.30019 13:0.99885333 14:0.99920952 15:0.99939412 #
-0.00062166824872012644252750046547362 1:61.259693 2:121.00074 3:10.425969 4:18 5:18 6:18 7:40 8:120 9:15 10:59.038887 11:61.433159 12:1.8668281 13:0.99958265 14:0.9995383 15:0.99996918 #
0.12318114459935713966842740774155 1:43.469692 2:30.710739 3:8.1559696 4:304 5:304 6:304 7:22 8:29 9:9 10:59.439453 11:63.402588 12:4.9831333 13:0.99962389 14:0.99971336 15:0.99996805 #
-0.014192605188692988815724049800338 1:6.8689876 2:7.3541307 3:7.1365232 4:243 5:243 6:243 7:8 8:4 9:2 10:15.452679 11:17.22344 12:29.525982 13:0.99896634 14:0.9994455 15:0.99952298 #
4.6673972506020930950398906134069 1:37.379692 2:29.700739 3:3.5859692 4:306 5:306 6:306 7:19 8:31 9:7 10:52.964691 11:55.006668 12:1.1568393 13:0.99960899 14:0.99969316 15:0.99994034 #
-5.8777514883499826225943252211437 1:10.341012 2:10.895869 3:19.063477 4:474 5:474 6:474 7:10 8:14 9:30 10:4.8928814 11:10.34936 12:21.830029 13:0.99835843 14:0.99875242 15:0.9986679 #
-0.12803215930841815861640498042107 1:36.976707 2:34.978321 3:28.09944 4:7 5:7 6:7 7:29 8:26 9:18 10:8.337121 11:5.2985983 12:0.57419795 13:0.99996316 14:0.99996489 15:0.99996918 #
4.7189909428297198701329762116075 1:5.5503078 2:58.58926 3:3.3359692 4:2 5:2 6:2 7:28 8:67 9:2 10:51.378002 11:44.171875 12:5.9813285 13:0.99970424 14:0.99986148 15:0.99995184 #
2.7273009324134989128651795908809 1:8.4705257 2:15.671287 3:11.997404 4:362 5:362 6:362 7:6 8:13 9:6 10:20.795362 11:25.339552 12:23.531084 13:0.99865341 14:0.99868762 15:0.99889827 #
3.6920467436163066921039899170864 1:8.9497147 2:13.754536 3:6.4687557 4:0 5:0 6:0 7:17 8:13 9:3 10:28.663506 11:20.169546 12:12.317877 13:0.99979907 14:0.99987984 15:0.99993271 #
-5.6648747021076761853919379063882 1:96.740128 2:140.55618 3:94.753639 4:257 5:257 6:257 7:104 8:160 9:105 10:50.74448 11:44.570953 12:15.843919 13:0.99819762 14:0.99794877 15:0.99849486 #
10 1:1.4532917 2:4.3216791 3:6.5805612 4:487 5:487 6:487 7:5 8:9 9:11 10:14.885048 11:13.37993 12:10.89551 13:0.99997979 14:0.99998206 15:0.99998498 #
-0.18328324312847144028637558221817 1:15.659869 2:24.093821 3:15.336358 4:0 5:0 6:0 7:10 8:5 9:4 10:41.869698 11:42.956417 12:20.772566 13:0.99882865 14:0.99910206 15:0.99928069 #
-0.07172191816601980463019572198391 1:6.4232917 2:10.171679 3:13.060561 4:1 5:1 6:1 7:5 8:4 9:9 10:10.912322 11:13.251811 12:12.236798 13:0.99997091 14:0.99997371 15:0.99997795 #
-0.0034576377263419999508187174797058 1:6.8832917 2:6.901679 3:4.0705609 4:4 5:4 6:4 7:7 8:6 9:3 10:0.7823478 11:0.48938939 12:0.99887908 13:0.99996608 14:0.99996775 15:0.99996978 #
0.88824068075946982503410254139453 1:47.679691 2:33.18074 3:9.2059689 4:118 5:118 6:118 7:27 8:33 9:9 10:58.87669 11:61.545357 12:6.2148166 13:0.99961215 14:0.99970669 15:0.99996841 #
-1.6537176703868681215681135654449 1:4.9567084 2:8.2983208 3:9.8794394 4:2 5:2 6:2 7:1 8:7 9:10 10:6.6649361 11:4.5942712 12:2.2389741 13:0.99996573 14:0.99996638 15:0.99996877 #
-7.6604237257433851482346653938293 1:78.642273 2:83.771202 3:90.330017 4:0 5:0 6:0 7:134 8:141 9:147 10:43.424419 11:43.518993 12:43.42239 13:0.9956466 14:0.99559832 15:0.99589503 #
3.0155042696129612522781826555729 1:57.126457 2:83.994606 3:94.984856 4:98 5:98 6:98 7:66 8:116 9:138 10:9.5526781 11:29.207861 12:38.406723 13:0.99531609 14:0.99421448 15:0.99388349 #
0.80015840882285571566967519174796 1:19.762276 2:8.7311993 3:30.639986 4:336 5:336 6:336 7:20 8:10 9:26 10:35.381584 11:35.650517 12:32.017773 13:0.99844676 14:0.99868351 15:0.99965054 #
-0.0064902113640562947294299078748736 1:32.949867 2:43.613819 3:25.376358 4:0 5:0 6:0 7:28 8:27 9:16 10:46.708626 11:47.30962 12:24.117945 13:0.99908823 14:0.99939114 15:0.99948221 #
0.057148434818394377998629352077842 1:7.7203078 2:98.109261 3:0.29403076 4:4 5:4 6:4 7:29 8:101 9:0 10:57.932613 11:62.922413 12:7.6948962 13:0.99971926 14:0.99994731 15:0.99995923 #
3.3854552717012893481296487152576 1:25.24897 2:26.597866 3:28.284094 4:513 5:513 6:513 7:15 8:15 9:16 10:27.181625 11:31.637619 12:35.824276 13:0.99707556 14:0.99706525 15:0.99625778 #
7.6228274904272410594785469584167 1:40.15646 2:67.954613 3:81.674858 4:404 5:404 6:404 7:42 8:85 9:111 10:7.5893307 11:23.090828 12:31.760727 13:0.996319 14:0.99508697 15:0.99461639 #
-2.2861297615986018172407057136297 1:28.770525 2:37.051285 3:34.077404 4:0 5:0 6:0 7:27 8:34 9:30 10:19.347008 11:20.684702 12:23.250898 13:0.99907392 14:0.99914867 15:0.99943626 #
-10 1:7.7105255 2:9.4712858 3:15.827404 4:363 5:363 6:363 7:9 8:11 9:13 10:18.738403 11:22.713083 12:21.645531 13:0.99878466 14:0.99880236 15:0.99911743 #
-10 1:38.899693 2:10.120739 3:4.2659693 4:4 5:4 6:4 7:18 8:8 9:3 10:53.34444 11:57.41396 12:3.8983431 13:0.99960858 14:0.99972606 15:0.9999491 #
-0.11560534187950111117970664054155 1:2.6310124 2:3.6441309 3:6.3965235 4:7 5:7 6:7 7:2 8:1 9:2 10:15.205547 11:17.132111 12:30.708317 13:0.9987523 14:0.99934745 15:0.99951988 #
-1.4177695898450792810763232409954 1:2.1567085 2:5.598321 3:9.529439 4:1 5:1 6:1 7:1 8:5 9:10 10:1.3986083 11:2.1223414 12:2.6642308 13:0.99996501 14:0.99996579 15:0.99996763 #
-0.47947691030052652649828814901412 1:2.5632915 2:3.8416789 3:5.0205612 4:4 5:4 6:4 7:1 8:3 9:3 10:1.8217033 11:0.85513073 12:1.1234258 13:0.99997169 14:0.99997383 15:0.99997675 #
-0.72435125205268491299648303538561 1:41.719715 2:28.194536 3:6.1687555 4:4 5:4 6:4 7:50 8:27 9:0 10:37.574593 11:29.030199 12:21.690849 13:0.99987847 14:0.99993879 15:0.99997282 #
-3.9707792979726264093187637627125 1:8.2567081 2:7.0083208 3:7.3694391 4:2 5:2 6:2 7:5 8:5 9:1 10:1.3066776 11:1.4367099 12:3.3576312 13:0.99996543 14:0.99996752 15:0.99997014 #
-0.18119735964052097187959589064121 1:24.278969 2:26.997866 3:28.864094 4:2 5:2 6:2 7:18 8:19 9:19 10:14.64308 11:19.158894 12:24.168276 13:0.99690241 14:0.99684334 15:0.99602175 #
8.8946770734498272759083192795515 1:5.7932916 2:4.3416791 3:6.0205612 4:483 5:483 6:483 7:15 8:13 9:13 10:8.7534513 11:8.249094 12:6.0562139 13:0.99997813 14:0.99997938 15:0.99998266 #
-0.15661045943194551455235341563821 1:14.656709 2:12.888321 3:18.139439 4:1 5:1 6:1 7:13 8:10 9:13 10:9.7671947 11:7.6886821 12:4.3748894 13:0.99996853 14:0.99997056 15:0.99997205 #
3.6999404652603775645047790021636 1:14.583292 2:8.3816786 3:1.959439 4:494 5:494 6:494 7:27 8:23 9:7 10:1.3474998 11:2.9919 12:2.6591408 13:0.99997389 14:0.99997401 15:0.99997431 #
-0.61439870871270407803876878460869 1:2.4897141 2:11.034536 3:17.158756 4:5 5:5 6:5 7:10 8:8 9:13 10:28.137625 11:18.442139 12:14.465733 13:0.99981529 14:0.99990267 15:0.99997461 #
-0.010601059649391508798998984275386 1:2.9432917 2:0.50167894 3:5.3394389 4:5 5:5 6:5 7:5 8:2 9:6 10:20.693529 11:18.873228 12:18.503115 13:0.99998105 14:0.99998206 15:0.99998361 #
6.2118007061344293617821676889434 1:1.9167084 2:2.538321 3:5.5805612 4:485 5:485 6:485 7:14 8:15 9:21 10:10.522999 11:14.919456 12:15.465918 13:0.99996597 14:0.99996758 15:0.99997264 #
0.011887807628443256002803707360727 1:10.680285 2:0.73546398 3:13.008756 4:0 5:0 6:0 7:3 8:0 9:11 10:12.5367 11:1.7548025 12:7.4742494 13:0.9997763 14:0.99986655 15:0.99994642 #
0.075864015354815350633543857838959 1:28.211031 2:34.652134 3:42.035904 4:20 5:20 6:20 7:3 8:4 9:5 10:24.525127 11:28.182997 12:31.825283 13:0.99603111 14:0.99623823 15:0.99573952 #
-0.26658732363185322356002870947123 1:36.219715 2:29.954536 3:10.688756 4:383 5:383 6:383 7:45 8:29 9:5 10:38.602798 11:29.702795 12:20.917509 13:0.99987465 14:0.9999429 15:0.99998242 #
-4.9284966025703367265009546827059 1:9.3489876 2:5.7041306 3:0.19347656 4:479 5:479 6:479 7:10 8:3 9:8 10:16.316526 11:17.875647 12:30.247942 13:0.99908888 14:0.99942774 15:0.99934965 #
-0.001316549210699236027721781283617 1:7.6702857 2:7.0945358 3:15.918756 4:0 5:0 6:0 7:0 8:5 9:9 10:29.872799 11:21.168026 12:13.489459 13:0.99976093 14:0.99985623 15:0.99993277 #
-3.5502272923820461514310409256723 1:4.7367082 2:0.53832102 3:1.790561 4:485 5:485 6:485 7:4 8:6 9:14 10:0.29255143 11:3.5915396 12:2.520143 13:0.99996662 14:0.99996948 15:0.99997264 #
10 1:49.98103 2:54.172134 3:56.985905 4:477 5:477 6:477 7:22 8:24 9:25 10:30.476135 11:29.732162 12:30.332882 13:0.99631053 14:0.99652517 15:0.99586999 #
-0.16109456667606991686625406146049 1:38.059715 2:41.204536 3:15.968756 4:7 5:7 6:7 7:45 8:40 9:10 10:32.74958 11:23.56424 12:18.807856 13:0.99987167 14:0.99995428 15:0.99998236 #
-0.016416093018733590724878013134003 1:3.7467084 2:0.71832103 3:5.3405609 4:3 5:3 6:3 7:5 8:1 9:2 10:4.7556658 11:2.6738596 12:0.87897331 13:0.99997199 14:0.99997461 15:0.9999789 #
-0.29057156140615347794664558023214 1:27.610287 2:14.835464 3:11.218756 4:1 5:1 6:1 7:18 8:14 9:7 10:28.349239 11:19.869282 12:11.835505 13:0.99971014 14:0.99980402 15:0.99989969 #
1.2542767683012803203723706246819 1:24.339693 2:17.739262 3:3.6859694 4:5 5:5 6:5 7:3 8:19 9:4 10:56.390739 11:61.375385 12:6.0125742 13:0.99965256 14:0.99979544 15:0.99995834 #
0.36581174556151507815116019628476 1:8.4703074 2:99.299263 3:0.22403076 4:1 5:1 6:1 7:29 8:101 9:1 10:59.27779 11:64.531578 12:7.8775373 13:0.99971873 14:0.99994773 15:0.99995309 #
0.0069690813438187809714108311709424 1:56.139694 2:49.880737 3:11.585969 4:18 5:18 6:18 7:34 8:47 9:13 10:59.019588 11:63.037491 12:5.3179655 13:0.99959308 14:0.99967331 15:0.99997348 #
-0.12519122979529129224829375743866 1:58.280525 2:67.761284 3:43.697403 4:0 5:0 6:0 7:56 8:66 9:40 10:22.387863 11:27.935844 12:29.20619 13:0.99948627 14:0.99961358 15:0.9996841 #
-4.2195382447129929914808599278331 1:6.5198689 2:26.74382 3:17.426357 4:0 5:0 6:0 7:1 8:8 9:7 10:43.255135 11:43.563553 12:21.644089 13:0.99876213 14:0.99912411 15:0.99930876 #
-0.0032699807272038583505491260439157 1:21.036709 2:16.52832 3:14.219439 4:2 5:2 6:2 7:15 8:9 9:10 10:15.655946 11:13.821318 12:14.045234 13:0.99997413 14:0.99997711 15:0.99998051 #
-0.056933783366787338309222832322121 1:11.490286 2:10.194536 3:19.738756 4:2 5:2 6:2 7:6 8:8 9:14 10:28.31637 11:19.595942 12:12.748174 13:0.9997673 14:0.99987268 15:0.99994552 #
10 1:19.541012 2:13.525869 3:10.823477 4:471 5:471 6:471 7:14 8:15 9:21 10:0.12713589 11:6.0234761 12:22.41177 13:0.99806321 14:0.9986738 15:0.99892557 #
-0.011971248895498831643635639920831 1:8.5989876 2:8.1541309 3:12.976523 4:478 5:478 6:478 7:9 8:5 9:5 10:16.214529 11:17.785582 12:30.65671 13:0.99907935 14:0.99948269 15:0.99969786 #
2.2350808797826484664028612314723 1:31.319693 2:16.890739 3:5.6559691 4:6 5:6 6:6 7:11 8:16 9:5 10:54.5826 11:57.821957 12:4.7624841 13:0.99962175 14:0.99971181 15:0.99994868 #
-0.0090871590325587447978250565938652 1:96.352272 2:100.4512 3:105.76001 4:512 5:512 6:512 7:138 8:144 9:151 10:24.932915 11:26.628794 12:28.235615 13:0.99650764 14:0.99649185 15:0.99679935 #
-0.00021608637507597450166940689086914 1:22.630285 2:10.845464 3:8.3687553 4:0 5:0 6:0 7:17 8:14 9:5 10:24.455725 11:15.685904 12:9.656126 13:0.99973774 14:0.99983102 15:0.99991578 #
-0.03655386261834792094305157661438 1:6.2997141 2:14.854536 3:18.838755 4:0 5:0 6:0 7:12 8:13 9:13 10:27.502527 11:20.404886 12:13.779425 13:0.99980205 14:0.99989045 15:0.9999603 #
-0.065415946309672179381777823437005 1:111.36031 2:97.169258 3:3.6440308 4:460 5:460 6:460 7:133 8:99 9:4 10:61.539532 11:67.054512 12:9.0277405 13:0.9999156 14:0.99995297 15:0.99995601 #
-0.0019299795458209700882434844970703 1:58.980526 2:68.751289 3:44.437405 4:0 5:0 6:0 7:57 8:67 9:42 10:23.572638 11:28.674343 12:29.406311 13:0.99955171 14:0.9996767 15:0.99971956 #
-8.9026140134547050882223712120478e-06 1:21.330286 2:6.4554639 3:12.978756 4:0 5:0 6:0 7:12 8:7 9:8 10:31.064262 11:22.779007 12:13.967672 13:0.99977309 14:0.99987131 15:0.99995404 #
-0.10236666946951189505199408813496 1:118.20031 2:103.16926 3:3.5840309 4:466 5:466 6:466 7:140 8:106 9:4 10:62.127487 11:67.452751 12:9.648756 13:0.9999373 14:0.99997157 15:0.99996531 #
0.33285418224386376095935702323914 1:12.740308 2:100.42926 3:0.23596925 4:359 5:359 6:359 7:33 8:103 9:0 10:59.876072 11:64.684387 12:7.4445581 13:0.99972939 14:0.99995273 15:0.99995989 #
-8.6404547147367338766343891620636e-05 1:10.376708 2:2.2483211 3:3.0605609 4:3 5:3 6:3 7:10 8:1 9:4 10:3.5281801 11:1.2556063 12:1.3482254 13:0.99996626 14:0.99996954 15:0.99997342 #
0.00034150115153833149328477247763658 1:20.450285 2:0.914536 3:17.948755 4:0 5:0 6:0 7:12 8:1 9:11 10:30.255903 11:22.456736 12:15.505098 13:0.99976516 14:0.99986887 15:0.99995506 #
-0.00055644350959482835605740547180176 1:3.7402859 2:11.684536 3:17.198755 4:2 5:2 6:2 7:3 8:8 9:11 10:25.950472 11:17.124809 12:14.578458 13:0.9997803 14:0.99987936 15:0.9999525 #
-0.0067011974870698765016641118563712 1:13.088987 2:8.2441311 3:3.7065234 4:482 5:482 6:482 7:13 8:5 9:4 10:16.342138 11:18.17679 12:30.575386 13:0.9992218 14:0.99950469 15:0.99943328 #
-0.0029789823567316631169887841679156 1:122.2103 2:104.01926 3:3.7740307 4:472 5:472 6:472 7:144 8:107 9:4 10:60.402973 11:66.177521 12:8.4712591 13:0.99993509 14:0.99996364 15:0.99995613 #
2.6825619717046367984246077464938e-05 1:13.570308 2:101.63926 3:0.18596923 4:0 5:0 6:0 7:36 8:106 9:1 10:58.250698 11:63.23666 12:8.3081379 13:0.99972713 14:0.99995399 15:0.99995559 #
0.00011339273304908359385478888725629 1:10.129714 2:8.4545364 3:12.158755 4:0 5:0 6:0 7:21 8:7 9:6 10:12.092463 11:7.9201984 12:12.650968 13:0.99979275 14:0.99986482 15:0.99993992 #
0.00056882574222072435077279806137085 1:4.5132918 2:5.2516789 3:5.220561 4:518 5:518 6:518 7:8 8:11 9:11 10:5.0229321 11:6.5121613 12:6.6594634 13:0.99996781 14:0.9999693 15:0.99997228 #
-9.650264812979237428547732435824e-06 1:19.723291 2:13.681679 3:2.740561 4:535 5:535 6:535 7:9 8:2 9:4 10:1.4147882 11:4.9385762 12:5.4430852 13:0.999982 14:0.99998224 15:0.99998188 #
