SVM-light Version V6.02
0 # kernel type
3 # kernel parameter -d 
1 # kernel parameter -g 
1 # kernel parameter -s 
1 # kernel parameter -r 
empty# kernel parameter -u 
15 # highest feature index 
8748 # number of training documents 
672 # number of support vectors plus 1 
0.95003866 # threshold b, each following line is a SV (starting with alpha*y)
-1 1:2.066874 2:0.34348193 3:3.963552 4:228 5:228 6:228 7:3 8:2 9:6 10:13.905477 11:13.040572 12:13.171206 13:0.99777269 14:0.99712646 15:0.99699289 #
1 1:15.956874 2:14.903481 3:16.963552 4:246 5:246 6:246 7:16 8:16 9:18 10:13.1103 11:14.499577 12:15.313523 13:0.99829489 14:0.997742 15:0.99747443 #
-1 1:3.8432915 2:9.1116791 3:12.830561 4:4 5:4 6:4 7:1 8:5 9:12 10:0.4576773 11:0.91094124 12:1.1117116 13:0.99997485 14:0.99997777 15:0.99998146 #
-1 1:0.58670837 2:2.7716789 3:5.8605609 4:3 5:3 6:3 7:0 8:2 9:4 10:19.116913 11:16.277704 12:13.398758 13:0.99997997 14:0.99998271 15:0.99998575 #
1 1:19.371012 2:11.375869 3:5.4465237 4:3 5:3 6:3 7:17 8:12 9:1 10:11.398416 11:12.591501 12:26.591093 13:0.9981547 14:0.99874735 15:0.99936962 #
-1 1:22.479692 2:9.3107386 3:3.9440308 4:4 5:4 6:4 7:4 8:8 9:5 10:49.79985 11:52.239101 12:0.021125801 13:0.99962687 14:0.99971449 15:0.99990994 #
1 1:15.419868 2:17.42382 3:0.55635768 4:0 5:0 6:0 7:4 8:6 9:11 10:28.218447 11:30.887203 12:12.821012 13:0.9989835 14:0.99920201 15:0.99930423 #
-1 1:17.036709 2:11.498321 3:1.4405609 4:0 5:0 6:0 7:19 8:16 9:1 10:7.3932228 11:6.7260933 12:10.357503 13:0.99997336 14:0.99997634 15:0.99998194 #
-1 1:53.163292 2:43.191677 3:32.680561 4:565 5:565 6:565 7:45 8:36 9:27 10:8.9754887 11:10.874136 12:13.743132 13:0.99997932 14:0.99997866 15:0.99997944 #
1 1:33.491032 2:46.372135 3:62.925907 4:6 5:6 6:6 7:61 8:82 9:107 10:14.079626 11:17.526644 12:22.794668 13:0.99697113 14:0.99728626 15:0.9969278 #
-1 1:5.9589691 2:5.7378659 3:4.8640943 4:2 5:2 6:2 7:13 8:10 9:8 10:4.6636677 11:9.0907965 12:10.065358 13:0.99696755 14:0.99699128 15:0.99622762 #
1 1:38.203293 2:36.90168 3:33.830563 4:554 5:554 6:554 7:40 8:39 9:34 10:3.3831947 11:5.2433648 12:9.2585211 13:0.99998015 14:0.99998146 15:0.99998313 #
1 1:24.430286 2:16.585464 3:6.1987557 4:3 5:3 6:3 7:21 8:21 9:0 10:24.264217 11:16.037277 12:11.524961 13:0.99977535 14:0.99986064 15:0.99995327 #
-1 1:5.9168739 2:3.2865181 3:1.8564481 4:1 5:1 6:1 7:6 8:2 9:1 10:14.44131 11:16.105032 12:16.9856 13:0.9979651 14:0.99708301 15:0.99686074 #
-1 1:58.750286 2:105.28546 3:76.601242 4:281 5:281 6:281 7:53 8:108 9:81 10:33.439751 11:13.840336 12:3.8439217 13:0.99972665 14:0.99972707 15:0.99982411 #
-1 1:68.193291 2:60.641678 3:48.07056 4:556 5:556 6:556 7:81 8:68 9:52 10:0.97419083 11:0.8524431 12:0.65820593 13:0.99998879 14:0.99998856 15:0.99998844 #
1 1:30.963291 2:29.841679 3:23.330561 4:13 5:13 6:13 7:26 8:25 9:18 10:7.832212 11:6.5456319 12:6.8869877 13:0.99998838 14:0.99999011 15:0.9999907 #
1 1:84.363289 2:77.351677 3:63.78056 4:553 5:553 6:553 7:85 8:79 9:64 10:18.716267 11:17.180159 12:14.291066 13:0.99999958 14:1 15:0.99999899 #
1 1:5.8767085 2:4.5683212 3:0.030560995 4:4 5:4 6:4 7:5 8:3 9:1 10:19.551121 11:17.890959 12:14.875997 13:0.99997997 14:0.99998164 15:0.9999854 #
-1 1:38.960526 2:51.721287 3:43.177402 4:0 5:0 6:0 7:36 8:49 9:38 10:24.877905 11:30.230801 12:30.764685 13:0.99940926 14:0.99956757 15:0.99982536 #
-1 1:11.816709 2:8.808321 3:12.089439 4:0 5:0 6:0 7:12 8:8 9:2 10:0.68813372 11:1.3194611 12:3.9771585 13:0.99996191 14:0.99996418 15:0.99996692 #
1 1:54.379868 2:43.863819 3:14.396358 4:0 5:0 6:0 7:67 8:42 9:14 10:16.438992 11:25.373718 12:8.2431889 13:0.99905092 14:0.99918085 15:0.99918717 #
0.1836527156685002215574797901354 1:57.126457 2:83.994606 3:94.984856 4:98 5:98 6:98 7:66 8:116 9:138 10:9.5526781 11:29.207861 12:38.406723 13:0.99531609 14:0.99421448 15:0.99388349 #
1 1:17.440287 2:0.96453601 3:18.218756 4:2 5:2 6:2 7:12 8:2 9:11 10:28.653332 11:21.352959 12:16.18531 13:0.99976909 14:0.99987298 15:0.99995959 #
0.55289978158977681754748800813104 1:4.4964585 2:0.75460935 3:4.3851433 4:7 5:7 6:7 7:8 8:10 9:6 10:7.4741769 11:13.837767 12:17.763042 13:0.99799252 14:0.99840385 15:0.9987613 #
-1 1:57.663292 2:48.071678 3:39.020561 4:557 5:557 6:557 7:59 8:51 9:39 10:3.5012991 11:4.0203753 12:4.1924963 13:0.99997723 14:0.99997658 15:0.99997717 #
1 1:9.123292 2:7.3316789 3:5.030561 4:1 5:1 6:1 7:9 8:6 9:2 10:15.887346 11:15.503771 12:13.860557 13:0.99997985 14:0.99998128 15:0.99998373 #
-1 1:31.820526 2:40.681286 3:39.397404 4:0 5:0 6:0 7:31 8:40 9:37 10:20.74424 11:25.789322 12:24.517784 13:0.99916273 14:0.99928051 15:0.99953991 #
1 1:44.427727 2:49.338799 3:37.009987 4:64 5:64 6:64 7:41 8:47 9:31 10:26.938896 11:30.184969 12:25.282169 13:0.99916172 14:0.99929845 15:0.999421 #
1 1:19.229475 2:11.758714 3:8.5225964 4:331 5:331 6:331 7:25 8:17 9:16 10:15.275599 11:21.475876 12:20.677626 13:0.99817497 14:0.99824858 15:0.99854213 #
1 1:70.209869 2:59.31382 3:32.016357 4:0 5:0 6:0 7:57 8:43 9:25 10:36.849239 11:48.39032 12:26.571339 13:0.99955827 14:0.99968356 15:0.9997263 #
-1 1:2.2697141 2:11.804536 3:14.418756 4:3 5:3 6:3 7:5 8:6 9:8 10:19.574492 11:11.322584 12:15.302774 13:0.9998017 14:0.99988997 15:0.99996024 #
1 1:0.28670838 2:2.431679 3:1.990561 4:1 5:1 6:1 7:2 8:1 9:2 10:14.543686 11:12.381387 12:9.896965 13:0.99997872 14:0.99998075 15:0.99998355 #
-1 1:22.689692 2:14.840738 3:1.5940307 4:0 5:0 6:0 7:4 8:17 9:1 10:52.267883 11:52.66132 12:6.5666046 13:0.99965602 14:0.99974144 15:0.99994808 #
-1 1:23.713541 2:18.215391 3:14.675143 4:0 5:0 6:0 7:24 8:9 9:2 10:8.3701248 11:23.695763 12:26.106695 13:0.99931192 14:0.99987358 15:0.99989671 #
1 1:32.260284 2:12.675464 3:7.0812445 4:0 5:0 6:0 7:22 8:7 9:5 10:28.331078 11:11.77992 12:1.3312398 13:0.99974805 14:0.99985278 15:0.99992001 #
-1 1:10.376708 2:2.2483211 3:3.0605609 4:3 5:3 6:3 7:10 8:1 9:4 10:3.5281801 11:1.2556063 12:1.3482254 13:0.99996626 14:0.99996954 15:0.99997342 #
-1 1:2.4932916 2:0.21832104 3:7.5994391 4:0 5:0 6:0 7:14 8:11 9:2 10:4.914938 11:5.4758801 12:7.3816032 13:0.99997473 14:0.99997586 15:0.99997652 #
1 1:68.033295 2:61.74168 3:46.200562 4:531 5:531 6:531 7:66 8:60 9:42 10:7.4010668 11:5.7472916 12:4.6278386 13:0.99999541 14:0.99999529 15:0.99999398 #
1 1:32.039867 2:37.323822 3:22.356358 4:0 5:0 6:0 7:26 8:21 9:15 10:38.937389 11:43.837574 12:21.530886 13:0.9988448 14:0.99909341 15:0.99920803 #
1 1:54.179871 2:46.873821 3:19.626358 4:0 5:0 6:0 7:60 8:36 9:16 10:27.918486 11:36.052391 12:15.257824 13:0.99908537 14:0.99925786 15:0.99929249 #
-1 1:5.0167084 2:4.9683208 3:3.6094389 4:1 5:1 6:1 7:3 8:3 9:3 10:24.766533 11:22.713835 12:19.767239 13:0.99998057 14:0.9999826 15:0.99998564 #
1 1:10.539692 2:50.439262 3:2.2859693 4:6 5:6 6:6 7:11 8:52 9:3 10:55.012203 11:49.20829 12:5.2675729 13:0.99968094 14:0.99985719 15:0.99995607 #
-1 1:2.8067083 2:2.4383211 3:0.63056099 4:1 5:1 6:1 7:1 8:1 9:2 10:23.18516 11:21.925261 12:19.796209 13:0.99997872 14:0.99998069 15:0.99998403 #
1 1:1.4802858 2:4.9754639 3:9.2512445 4:0 5:0 6:0 7:23 8:18 9:3 10:2.3425806 11:14.254117 12:8.8147278 13:0.99979788 14:0.99987054 15:0.99993205 #
1 1:5.9303074 2:52.26926 3:3.6159692 4:5 5:5 6:5 7:31 8:62 9:4 10:47.461975 11:40.845463 12:6.1679311 13:0.99970323 14:0.99984974 15:0.99995315 #
1 1:15.129714 2:0.67453599 3:11.031244 4:4 5:4 6:4 7:32 8:20 9:1 10:9.8017902 11:5.7159128 12:10.515211 13:0.99979728 14:0.99986416 15:0.99991339 #
1 1:46.08987 2:34.213821 3:9.416358 4:0 5:0 6:0 7:55 8:26 9:2 10:16.054136 11:20.51346 12:5.1883235 13:0.99888408 14:0.99900055 15:0.99909121 #
1 1:27.806873 2:38.853481 3:48.073551 4:33 5:33 6:33 7:26 8:37 9:49 10:6.7701349 11:8.1257973 12:10.417293 13:0.99848616 14:0.99842507 15:0.99858499 #
-1 1:0.50645834 2:9.2153902 3:11.315144 4:2 5:2 6:2 7:3 8:0 9:1 10:15.174546 11:20.189064 12:23.803558 13:0.99813551 14:0.99893105 15:0.99923688 #
-1 1:9.6967087 2:8.3683214 3:4.239439 4:15 5:15 6:15 7:5 8:3 9:0 10:3.3697188 11:1.3123575 12:0.83694655 13:0.99997091 14:0.99997294 15:0.99997675 #
-1 1:7.3067083 2:2.828321 3:2.4094391 4:4 5:4 6:4 7:8 8:3 9:4 10:4.9804969 11:1.0726153 12:2.0143881 13:0.99996924 14:0.99997216 15:0.99997526 #
-1 1:8.5297146 2:15.464536 3:16.368755 4:0 5:0 6:0 7:15 8:13 9:10 10:29.424141 11:21.769428 12:17.988138 13:0.99982053 14:0.99990469 15:0.99997169 #
1 1:36.209694 2:7.1292615 3:3.1559691 4:1 5:1 6:1 7:13 8:14 9:2 10:53.463158 11:44.503708 12:5.278841 13:0.99961621 14:0.99976605 15:0.99994349 #
-1 1:21.010286 2:17.575464 3:4.6712446 4:1 5:1 6:1 7:17 8:18 9:6 10:12.326241 11:7.9845595 12:1.0437113 13:0.99973524 14:0.99981421 15:0.99989241 #
1 1:7.8402858 2:4.9945359 3:13.038755 4:1 5:1 6:1 7:3 8:2 9:7 10:25.496372 11:18.902719 12:12.903547 13:0.99975705 14:0.9998492 15:0.99992251 #
-1 1:4.6701312 2:14.42382 3:14.316358 4:0 5:0 6:0 7:12 8:2 9:2 10:34.516594 11:37.172951 12:17.307724 13:0.99841315 14:0.99877125 15:0.999093 #
1 1:25.960526 2:34.451286 3:30.177404 4:0 5:0 6:0 7:20 8:29 9:24 10:16.603672 11:23.341154 12:25.625755 13:0.99906343 14:0.99916017 15:0.99935693 #
-1 1:36.976707 2:34.978321 3:28.09944 4:7 5:7 6:7 7:29 8:26 9:18 10:8.337121 11:5.2985983 12:0.57419795 13:0.99996316 14:0.99996489 15:0.99996918 #
1 1:4.5132918 2:5.2516789 3:5.220561 4:518 5:518 6:518 7:8 8:11 9:11 10:5.0229321 11:6.5121613 12:6.6594634 13:0.99996781 14:0.9999693 15:0.99997228 #
1 1:27.720526 2:35.791286 3:25.987404 4:11 5:11 6:11 7:26 8:35 9:21 10:14.0938 11:19.370256 12:19.309332 13:0.99893761 14:0.99902976 15:0.99915838 #
1 1:52.289715 2:47.494537 3:16.788755 4:2 5:2 6:2 7:59 8:46 9:11 10:30.250542 11:24.724396 12:17.35428 13:0.9998821 14:0.99995404 15:0.99998063 #
-1 1:27.288969 2:30.007866 3:31.874094 4:0 5:0 6:0 7:17 8:18 9:18 10:30.558105 11:35.073917 12:40.083302 13:0.99741387 14:0.99735403 15:0.99653023 #
1 1:21.750286 2:34.305466 3:18.701244 4:32 5:32 6:32 7:9 8:29 9:20 10:18.349817 11:6.8878808 12:0.79282272 13:0.99973071 14:0.99979138 15:0.99987662 #
1 1:28.513292 2:27.861679 3:25.57056 4:15 5:15 6:15 7:32 8:30 9:25 10:7.8621502 11:8.1352987 12:7.2785378 13:0.9999789 14:0.99998063 15:0.99998295 #
1 1:68.299866 2:49.773819 3:17.426357 4:0 5:0 6:0 7:70 8:39 9:13 10:34.431477 11:36.717537 12:12.830168 13:0.99920404 14:0.99927044 15:0.99922073 #
0.038029285210826824226160169928335 1:20.389713 2:5.1545358 3:16.601244 4:413 5:413 6:413 7:29 8:16 9:8 10:12.404424 11:7.7457876 12:17.480196 13:0.99977398 14:0.99982631 15:0.99986285 #
1 1:13.839692 2:11.419262 3:1.2559693 4:8 5:8 6:8 7:7 8:15 9:2 10:54.742958 11:60.41256 12:4.0441294 13:0.99964941 14:0.99976355 15:0.99993426 #
-1 1:16.721031 2:16.002134 3:13.135906 4:42 5:42 6:42 7:27 8:28 9:27 10:28.012772 11:32.528584 12:37.537968 13:0.99867791 14:0.99868011 15:0.99781871 #
-1 1:48.579716 2:8.1045361 3:29.511244 4:42 5:42 6:42 7:57 8:8 9:35 10:32.588123 11:24.350151 12:16.146355 13:0.99987549 14:0.99990249 15:0.99991441 #
-1 1:29.719692 2:9.8207388 3:7.4140306 4:3 5:3 6:3 7:9 8:10 9:7 10:49.995312 11:50.637497 12:2.2549841 13:0.99960876 14:0.99970984 15:0.99990779 #
-1 1:65.599716 2:56.054535 3:17.058756 4:1 5:1 6:1 7:73 8:55 9:11 10:35.391186 11:28.633945 12:21.321583 13:0.99991053 14:0.99997783 15:0.99998897 #
-1 1:11.713291 2:13.741679 3:11.970561 4:4 5:4 6:4 7:2 8:5 9:6 10:5.8817301 11:6.2584057 12:9.0059481 13:0.99997956 14:0.99998194 15:0.99998409 #
-1 1:1.4232916 2:2.0316789 3:1.420561 4:1 5:1 6:1 7:1 8:2 9:0 10:21.160379 11:19.209223 12:16.487736 13:0.99997938 14:0.99998128 15:0.99998367 #
1 1:69.459869 2:52.67382 3:20.366358 4:0 5:0 6:0 7:73 8:45 9:20 10:31.785301 11:35.33128 12:13.305638 13:0.99933296 14:0.99942201 15:0.99941087 #
1 1:24.143291 2:26.64168 3:23.610561 4:12 5:12 6:12 7:20 8:24 9:19 10:13.568304 11:12.728292 12:11.226293 13:0.99998504 14:0.99998742 15:0.99998945 #
1 1:2.9368742 2:2.123482 3:5.3435521 4:0 5:0 6:0 7:2 8:0 9:5 10:10.240063 11:11.187546 12:15.341401 13:0.99782997 14:0.99723387 15:0.9971121 #
1 1:1.0967084 2:0.31832105 3:1.490561 4:1 5:1 6:1 7:1 8:0 9:1 10:19.216606 11:17.072668 12:13.507565 13:0.9999761 14:0.99997801 15:0.99998128 #
-1 1:5.2702856 2:12.384536 3:18.938755 4:2 5:2 6:2 7:2 8:13 9:13 10:28.331299 11:19.144094 12:14.061374 13:0.99978393 14:0.99988556 15:0.99995774 #
1 1:1.1467084 2:3.538321 3:1.109439 4:2 5:2 6:2 7:1 8:3 9:1 10:24.057663 11:23.414818 12:22.499577 13:0.99998242 14:0.99998379 15:0.99998689 #
1 1:30.873291 2:30.481678 3:26.590561 4:20 5:20 6:20 7:29 8:29 9:25 10:10.122275 11:6.4038601 12:1.3551371 13:0.99997848 14:0.99998009 15:0.99998188 #
1 1:30.573292 2:27.781679 3:30.380562 4:23 5:23 6:23 7:28 8:25 9:26 10:4.7742467 11:3.0791421 12:0.5911836 13:0.99997813 14:0.99997932 15:0.99998212 #
1 1:2.9397142 2:3.7845361 3:2.7987556 4:3 5:3 6:3 7:14 8:4 9:1 10:28.31031 11:18.039419 12:7.8980188 13:0.99979484 14:0.99987286 15:0.99993497 #
1 1:37.689869 2:38.413818 3:22.576357 4:0 5:0 6:0 7:23 8:19 9:14 10:24.855436 11:38.762321 12:20.937183 13:0.9991048 14:0.99932009 15:0.99940908 #
-0.56153200143040105096758907166077 1:64.279716 2:52.744537 3:18.658756 4:4 5:4 6:4 7:72 8:52 9:12 10:38.361877 11:29.8862 12:21.089005 13:0.9999088 14:0.99997187 15:0.99998921 #
0.41768417833279092299392232234823 1:57.910286 2:122.03546 3:107.40125 4:281 5:281 6:281 7:53 8:139 9:143 10:32.734112 11:6.3449173 12:38.709633 13:0.99971813 14:0.99968785 15:0.99975568 #
-1 1:43.603291 2:36.56168 3:22.07056 4:2 5:2 6:2 7:41 8:31 9:17 10:3.3023012 11:2.4118268 12:0.43731129 13:0.99997795 14:0.99997807 15:0.99997783 #
-1 1:62.659714 2:52.284534 3:14.408755 4:1 5:1 6:1 7:71 8:51 9:9 10:36.610268 11:28.412174 12:20.090063 13:0.9998976 14:0.99996239 15:0.99997759 #
1 1:29.390285 2:44.235462 3:25.801245 4:26 5:26 6:26 7:20 8:39 9:27 10:24.505091 11:12.260179 12:5.8118544 13:0.99975348 14:0.99981123 15:0.99989361 #
-1 1:0.96028578 2:17.554537 3:19.058756 4:4 5:4 6:4 7:6 8:16 9:13 10:30.131248 11:22.026926 12:15.798258 13:0.9997834 14:0.99988431 15:0.99994606 #
1 1:3.7732916 2:5.8116789 3:7.1405611 4:1 5:1 6:1 7:3 8:6 9:5 10:16.865133 11:17.960764 12:17.612446 13:0.99998295 14:0.99998522 15:0.9999876 #
-0.23143438252699433110848303840612 1:11.480308 2:13.999262 3:5.0759692 4:359 5:359 6:359 7:33 8:16 9:5 10:59.167133 11:63.092251 12:7.6611214 13:0.99973255 14:0.99980062 15:0.9999696 #
1 1:78.33329 2:71.071678 3:56.490562 4:550 5:550 6:550 7:82 8:73 9:58 10:15.173746 11:11.110679 12:7.986721 13:0.99999976 14:0.99999988 15:0.99999928 #
1 1:28.173292 2:30.151678 3:27.950562 4:4 5:4 6:4 7:29 8:32 9:27 10:8.0314741 11:7.0494175 12:6.5296736 13:0.99998599 14:0.99998826 15:0.99999046 #
1 1:93.209869 2:68.56382 3:34.146358 4:0 5:0 6:0 7:93 8:54 9:28 10:43.047184 11:47.301128 12:24.513376 13:0.99957615 14:0.99958134 15:0.99958611 #
1 1:17.240286 2:32.365463 3:37.681244 4:44 5:44 6:44 7:9 8:32 9:43 10:11.902336 11:4.9554019 12:0.73245531 13:0.99969411 14:0.99975777 15:0.99981141 #
-1 1:64.989716 2:55.204536 3:17.388756 4:4 5:4 6:4 7:73 8:54 9:12 10:36.762115 11:29.44117 12:21.23214 13:0.99990767 14:0.99997264 15:0.99998879 #
1 1:77.613289 2:66.571678 3:49.350559 4:535 5:535 6:535 7:77 8:67 9:50 10:19.438023 11:17.60998 12:15.669633 13:0.9999994 14:0.99999869 15:0.99999684 #
-1 1:90.330307 2:87.789261 3:2.2040308 4:2 5:2 6:2 7:110 8:90 9:3 10:59.091888 11:66.006371 12:8.3225975 13:0.99987996 14:0.99993837 15:0.99996299 #
1 1:3.5767083 2:0.058321044 3:4.0705609 4:0 5:0 6:0 7:8 8:5 9:1 10:10.039085 11:7.6560774 12:5.2703223 13:0.99997449 14:0.99997699 15:0.99998087 #
1 1:6.0267086 2:4.8383212 3:3.6694391 4:3 5:3 6:3 7:3 8:3 9:3 10:22.001602 11:20.050156 12:16.606939 13:0.99997914 14:0.99998105 15:0.99998373 #
-1 1:98.982277 2:103.8212 3:106.99001 4:0 5:0 6:0 7:138 8:144 9:149 10:20.821171 11:21.361214 12:24.462769 13:0.99641025 14:0.99636811 15:0.99669862 #
1 1:28.219692 2:1.5707386 3:0.32596925 4:8 5:8 6:8 7:7 8:1 9:2 10:54.049103 11:56.758755 12:1.1040981 13:0.99959624 14:0.99971068 15:0.99989802 #
1 1:60.189869 2:53.463821 3:28.126358 4:0 5:0 6:0 7:49 8:36 9:19 10:36.801308 11:46.446835 12:23.731388 13:0.99931157 14:0.99946749 15:0.99950099 #
-1 1:36.710526 2:47.491287 3:42.047405 4:0 5:0 6:0 7:35 8:48 9:37 10:23.025152 11:27.543684 12:29.300013 13:0.9993428 14:0.99947232 15:0.99974674 #
-1 1:30.236708 2:28.568321 3:21.339439 4:38 5:38 6:38 7:25 8:23 9:17 10:5.5798635 11:2.5346055 12:0.30443329 13:0.9999674 14:0.99996942 15:0.99997419 #
1 1:30.583292 2:25.72168 3:15.400561 4:4 5:4 6:4 7:27 8:21 9:12 10:4.7349277 11:2.7575736 12:3.1641598 13:0.99998313 14:0.99998367 15:0.99998415 #
1 1:18.823292 2:15.281679 3:12.200561 4:6 5:6 6:6 7:10 8:9 9:6 10:8.2799616 11:7.6126356 12:6.0485787 13:0.99998122 14:0.99998206 15:0.99998397 #
-1 1:4.1632915 2:4.0516791 3:1.799439 4:2 5:2 6:2 7:5 8:5 9:2 10:15.382077 11:13.346431 12:9.3623266 13:0.99997455 14:0.99997652 15:0.99997753 #
1 1:21.173292 2:22.761679 3:21.590561 4:0 5:0 6:0 7:19 8:24 9:22 10:7.8506923 11:6.1017528 12:4.1948543 13:0.9999842 14:0.99998659 15:0.99998885 #
0.11646872385252579618075685630174 1:14.049692 2:71.279259 3:1.5359693 4:332 5:332 6:332 7:7 8:77 9:1 10:56.556961 11:57.592182 12:6.0378094 13:0.9996742 14:0.99989438 15:0.99995011 #
-1 1:32.949867 2:43.613819 3:25.376358 4:0 5:0 6:0 7:28 8:27 9:16 10:46.708626 11:47.30962 12:24.117945 13:0.99908823 14:0.99939114 15:0.99948221 #
1 1:22.909868 2:14.15382 3:0.41635767 4:0 5:0 6:0 7:5 8:25 9:20 10:1.3189145 11:8.1227465 12:0.27866638 13:0.99881816 14:0.99896389 15:0.99911678 #
1 1:67.49987 2:57.933819 3:32.206356 4:0 5:0 6:0 7:50 8:39 9:24 10:31.482426 11:45.59037 12:26.996254 13:0.99957073 14:0.99972457 15:0.9997915 #
1 1:40.871029 2:45.062134 3:48.655907 4:25 5:25 6:25 7:40 8:46 9:51 10:11.684243 11:9.9590473 12:8.3780527 13:0.99695057 14:0.99717045 15:0.99648404 #
-1 1:41.823292 2:32.121677 3:15.870561 4:27 5:27 6:27 7:42 8:32 9:17 10:0.10099744 11:1.6320338 12:2.7877269 13:0.99998546 14:0.99998456 15:0.99998337 #
-1 1:71.289711 2:33.164536 3:8.271244 4:20 5:20 6:20 7:80 8:32 9:14 10:38.666519 11:30.26104 12:21.525162 13:0.99992085 14:0.99995017 15:0.99995977 #
1 1:6.9602857 2:7.8254638 3:12.331244 4:0 5:0 6:0 7:9 8:10 9:17 10:3.1108687 11:15.43027 12:1.8691154 13:0.99979502 14:0.9998731 15:0.99992967 #
-1 1:106.91031 2:97.159264 3:2.0640306 4:0 5:0 6:0 7:128 8:100 9:2 10:60.877628 11:66.589943 12:9.0883417 13:0.99990356 14:0.9999494 15:0.99995661 #
1 1:28.211031 2:34.652134 3:42.035904 4:20 5:20 6:20 7:3 8:4 9:5 10:24.525127 11:28.182997 12:31.825283 13:0.99603111 14:0.99623823 15:0.99573952 #
-1 1:16.656708 2:16.258322 3:10.359439 4:3 5:3 6:3 7:9 8:8 9:8 10:2.8499279 11:1.8392335 12:3.0577765 13:0.99997044 14:0.99997276 15:0.99997735 #
-1 1:50.720524 2:63.831287 3:44.497402 4:0 5:0 6:0 7:48 8:61 9:39 10:26.229492 11:30.980009 12:31.199636 13:0.99964088 14:0.99981201 15:0.99986595 #
-1 1:9.293292 2:10.351679 3:11.550561 4:6 5:6 6:6 7:1 8:3 9:8 10:0.49504477 11:1.9021342 12:3.0280561 13:0.99997836 14:0.99998015 15:0.99998319 #
1 1:35.103291 2:35.681679 3:33.55056 4:24 5:24 6:24 7:36 8:37 9:33 10:12.488859 11:11.758855 12:10.78788 13:0.9999845 14:0.99998611 15:0.99998826 #
1 1:3.7767084 2:1.398321 3:4.1805611 4:7 5:7 6:7 7:6 8:5 9:0 10:8.7441874 11:8.2275524 12:5.3524108 13:0.99996883 14:0.99997085 15:0.99997509 #
-1 1:32.803291 2:31.88168 3:20.010561 4:483 5:483 6:483 7:27 8:26 9:13 10:4.5653253 11:5.6619773 12:2.8233316 13:0.99998063 14:0.99998212 15:0.99998212 #
-1 1:3.5089877 2:7.304131 3:12.766523 4:1 5:1 6:1 7:4 8:5 9:5 10:16.062763 11:17.697899 12:30.602966 13:0.99899817 14:0.99952412 15:0.99974614 #
1 1:33.600525 2:37.301285 3:31.017405 4:17 5:17 6:17 7:33 8:36 9:26 10:19.616707 11:25.297676 12:26.481216 13:0.9989332 14:0.99895096 15:0.99912685 #
1 1:7.1067085 2:2.098321 3:0.53056097 4:4 5:4 6:4 7:7 8:2 9:1 10:22.143419 11:20.49464 12:19.753952 13:0.9999761 14:0.9999789 15:0.99998206 #
1 1:18.619474 2:9.6587133 3:2.622596 4:324 5:324 6:324 7:21 8:12 9:8 10:20.406792 11:25.863268 12:23.139936 13:0.99844116 14:0.99851954 15:0.99883127 #
-1 1:28.770525 2:37.051285 3:34.077404 4:0 5:0 6:0 7:27 8:34 9:30 10:19.347008 11:20.684702 12:23.250898 13:0.99907392 14:0.99914867 15:0.99943626 #
-1 1:1.6789876 2:5.5841308 3:12.316524 4:1 5:1 6:1 7:2 8:3 9:5 10:16.235388 11:18.187273 12:31.082315 13:0.99890828 14:0.99944723 15:0.99972469 #
1 1:64.140289 2:161.36546 3:189.67125 4:281 5:281 6:281 7:56 8:162 9:195 10:40.881363 11:32.082985 12:19.084705 13:0.99975288 14:0.99970394 15:0.99972087 #
1 1:11.68103 2:17.972134 3:26.595905 4:3 5:3 6:3 7:11 8:13 9:11 10:22.26408 11:27.330027 12:32.173206 13:0.9959079 14:0.99606442 15:0.99554694 #
1 1:32.440285 2:28.845465 3:3.0387554 4:7 5:7 6:7 7:25 8:31 9:2 10:24.70697 11:15.86131 12:12.300461 13:0.99976546 14:0.99984664 15:0.99995202 #
1 1:42.643291 2:47.261681 3:47.700562 4:32 5:32 6:32 7:40 8:45 9:43 10:12.108226 11:8.2916965 12:7.3601289 13:0.9999904 14:0.99999315 15:0.99999636 #
1 1:19.536875 2:17.823483 3:21.363552 4:9 5:9 6:9 7:15 8:12 9:18 10:4.2760124 11:0.43884981 12:2.6338086 13:0.99836934 14:0.99756455 15:0.99747914 #
-1 1:8.0267086 2:5.0083208 3:0.52943903 4:1 5:1 6:1 7:7 8:4 9:2 10:16.686182 11:14.239173 12:11.961966 13:0.99997514 14:0.99997759 15:0.9999814 #
-1 1:35.703293 2:32.481678 3:31.240561 4:536 5:536 6:536 7:31 8:33 9:28 10:7.266891 11:8.1253119 12:5.8439474 13:0.99997401 14:0.99997437 15:0.99997663 #
-1 1:31.009693 2:21.760738 3:7.7340307 4:1 5:1 6:1 7:9 8:18 9:8 10:55.049152 11:57.885826 12:2.2638915 13:0.99962652 14:0.99970722 15:0.99992388 #
-0.80100944769700710423876444110647 1:99.902275 2:104.2112 3:108.15002 4:512 5:512 6:512 7:138 8:144 9:151 10:19.26178 11:20.858898 12:24.145973 13:0.99639976 14:0.99639285 15:0.99669999 #
-1 1:15.933291 2:17.151678 3:12.220561 4:21 5:21 6:21 7:16 8:20 9:17 10:1.4660658 11:0.95406014 12:1.7135442 13:0.9999761 14:0.99997836 15:0.99997985 #
1 1:4.8031259 2:3.396518 3:1.056448 4:2 5:2 6:2 7:4 8:3 9:2 10:12.88905 11:15.987184 12:17.664768 13:0.99761814 14:0.99711198 15:0.99694687 #
1 1:65.269867 2:57.013821 3:31.476358 4:0 5:0 6:0 7:57 8:39 9:22 10:43.074703 11:51.128067 12:28.257568 13:0.99953389 14:0.99972218 15:0.99976927 #
1 1:79.923294 2:71.891678 3:58.78056 4:545 5:545 6:545 7:84 8:77 9:59 10:17.21139 11:14.382869 12:10.025047 13:0.99999666 14:0.9999963 15:0.99999595 #
1 1:18.910286 2:19.445463 3:12.541245 4:2 5:2 6:2 7:10 8:17 9:14 10:17.721519 11:5.6451206 12:3.4033892 13:0.99971813 14:0.99979413 15:0.99986374 #
-1 1:27.573292 2:23.041679 3:9.2005606 4:472 5:472 6:472 7:17 8:13 9:1 10:1.0824729 11:2.3977072 12:4.9268866 13:0.99997956 14:0.99997991 15:0.99997956 #
1 1:19.763292 2:22.401678 3:22.940561 4:526 5:526 6:526 7:15 8:18 9:20 10:3.2519028 11:0.99343759 12:1.6252674 13:0.99997491 14:0.99997687 15:0.99998003 #
-1 1:23.173292 2:23.64168 3:20.040562 4:459 5:459 6:459 7:9 8:9 9:9 10:1.8713814 11:3.9806917 12:0.80813617 13:0.99998301 14:0.99998444 15:0.99998635 #
-1 1:0.67969239 2:16.959261 3:0.78596926 4:3 5:3 6:3 7:23 8:26 9:2 10:51.983067 11:50.266357 12:4.794333 13:0.99969411 14:0.99979055 15:0.99994981 #
1 1:39.883293 2:36.74168 3:27.590561 4:19 5:19 6:19 7:33 8:33 9:21 10:1.7166468 11:2.1346095 12:3.3740897 13:0.99998802 14:0.99998879 15:0.99998951 #
-1 1:61.439693 2:113.56074 3:5.7359691 4:18 5:18 6:18 7:42 8:118 9:10 10:57.00761 11:52.176876 12:1.4510303 13:0.99958092 14:0.99954766 15:0.99995083 #
-1 1:3.8210123 2:101.86587 3:189.49347 4:463 5:463 6:463 7:4 8:106 9:200 10:14.033133 11:9.8417892 12:22.310316 13:0.99859953 14:0.99597406 15:0.99399507 #
-1 1:69.673294 2:62.661678 3:47.540562 4:535 5:535 6:535 7:75 8:69 9:49 10:7.1130905 11:1.8912216 12:3.6106622 13:0.99998862 14:0.99998927 15:0.99998951 #
-1 1:17.963291 2:15.251679 3:4.8205609 4:13 5:13 6:13 7:15 8:14 9:3 10:2.7277968 11:2.4465222 12:2.8299043 13:0.99997568 14:0.99997646 15:0.99997705 #
-1 1:35.303291 2:29.371679 3:27.930561 4:12 5:12 6:12 7:31 8:25 9:17 10:4.2537088 11:2.2054496 12:3.5896122 13:0.99997848 14:0.99997878 15:0.99998099 #
-1 1:22.841013 2:14.105869 3:8.9234762 4:15 5:15 6:15 7:15 8:12 9:14 10:4.1967916 11:8.6206245 12:23.507965 13:0.99800271 14:0.99866027 15:0.99895549 #
-1 1:17.233292 2:11.141679 3:1.160561 4:7 5:7 6:7 7:6 8:1 9:7 10:7.5750718 11:8.5096035 12:9.1191006 13:0.99997127 14:0.99997175 15:0.99997228 #
-1 1:52.613293 2:47.761681 3:36.790562 4:38 5:38 6:38 7:56 8:52 9:37 10:1.0262164 11:3.5327985 12:3.6020608 13:0.99998254 14:0.99998236 15:0.99998242 #
-0.69094643752083206855729713424807 1:39.109715 2:21.795464 3:66.011246 4:168 5:168 6:168 7:49 8:21 9:71 10:36.097408 11:27.252848 12:17.235046 13:0.99987823 14:0.99987686 15:0.99988031 #
1 1:17.403292 2:17.851679 3:16.860561 4:16 5:16 6:16 7:11 8:15 9:15 10:0.65043825 11:3.511898 12:4.0185356 13:0.99998039 14:0.9999817 15:0.99998367 #
-1 1:45.286709 2:35.838322 3:26.069439 4:19 5:19 6:19 7:46 8:35 9:26 10:0.2179514 11:2.999332 12:8.6897192 13:0.99996173 14:0.99996555 15:0.99997044 #
-1 1:34.656708 2:33.298321 3:24.409439 4:14 5:14 6:14 7:30 8:28 9:20 10:4.452878 11:2.1331804 12:1.3425846 13:0.99996185 14:0.9999637 15:0.99996847 #
-1 1:67.209869 2:59.553822 3:32.926357 4:0 5:0 6:0 7:63 8:43 9:24 10:51.093063 11:52.112179 12:28.101757 13:0.99955112 14:0.99970716 15:0.99971473 #
-1 1:8.2567081 2:7.0083208 3:7.3694391 4:2 5:2 6:2 7:5 8:5 9:1 10:1.3066776 11:1.4367099 12:3.3576312 13:0.99996543 14:0.99996752 15:0.99997014 #
-1 1:32.270527 2:40.271286 3:41.017403 4:0 5:0 6:0 7:30 8:38 9:34 10:26.687225 11:31.545448 12:30.189486 13:0.99930078 14:0.99938095 15:0.99967176 #
-1 1:24.499693 2:0.34073853 3:0.63403076 4:0 5:0 6:0 7:2 8:2 9:0 10:51.831615 11:55.647835 12:0.45384818 13:0.99962026 14:0.9997282 15:0.99991876 #
-1 1:36.163292 2:34.42168 3:23.790562 4:13 5:13 6:13 7:35 8:28 9:18 10:1.5598371 11:5.4181695 12:9.0795679 13:0.99997872 14:0.99998069 15:0.99998111 #
1 1:5.5503078 2:58.58926 3:3.3359692 4:2 5:2 6:2 7:28 8:67 9:2 10:51.378002 11:44.171875 12:5.9813285 13:0.99970424 14:0.99986148 15:0.99995184 #
-1 1:3.0267084 2:2.4083211 3:3.510561 4:1 5:1 6:1 7:1 8:0 9:2 10:16.89422 11:15.531319 12:12.520151 13:0.99997675 14:0.99997842 15:0.99998248 #
1 1:4.5167084 2:0.38167897 3:4.6305609 4:0 5:0 6:0 7:14 8:10 9:1 10:2.9850903 11:1.3080176 12:2.6616848 13:0.99997622 14:0.9999792 15:0.99998295 #
0.59329510807368734948141764107277 1:20.739475 2:12.768714 3:3.2025962 4:329 5:329 6:329 7:24 8:15 9:10 10:15.796262 11:21.102802 12:18.056471 13:0.99779075 14:0.99783003 15:0.99812734 #
-1 1:5.6067085 2:5.288321 3:0.079439007 4:2 5:2 6:2 7:1 8:1 9:2 10:1.4997379 11:2.7483504 12:6.9002357 13:0.99996406 14:0.99996567 15:0.99997008 #
1 1:45.193291 2:39.111679 3:22.670561 4:5 5:5 6:5 7:51 8:42 9:22 10:2.5137558 11:3.1012967 12:2.5876167 13:0.99998128 14:0.99998128 15:0.99997985 #
1 1:5.3367085 2:3.4483211 3:0.059439003 4:2 5:2 6:2 7:3 8:2 9:1 10:24.69655 11:21.971882 12:19.05435 13:0.99998116 14:0.99998373 15:0.99998695 #
-1 1:49.433292 2:40.121677 3:27.81056 4:26 5:26 6:26 7:46 8:37 9:25 10:2.2357986 11:0.49388891 12:3.9256558 13:0.99998009 14:0.99997938 15:0.99997926 #
1 1:15.386708 2:10.548321 3:6.4294391 4:3 5:3 6:3 7:14 8:9 9:6 10:10.106635 11:9.0101023 12:3.8540807 13:0.99996966 14:0.9999727 15:0.99997574 #
0.0039299549363120220984990638157797 1:63.330284 2:160.70546 3:188.01125 4:281 5:281 6:281 7:55 8:161 9:194 10:40.306507 11:31.962082 12:16.641836 13:0.99975079 14:0.99970341 15:0.99972457 #
-1 1:11.876708 2:10.358321 3:5.6194391 4:1 5:1 6:1 7:7 8:6 9:5 10:3.4868748 11:5.0949407 12:5.4792581 13:0.99996221 14:0.99996442 15:0.99996787 #
0.07302236393391581259493250399828 1:3.3732915 2:9.191679 3:16.050562 4:20 5:20 6:20 7:4 8:9 9:16 10:20.403219 11:18.118942 12:17.515617 13:0.99997789 14:0.99998093 15:0.99998546 #
-1 1:6.5198689 2:26.74382 3:17.426357 4:0 5:0 6:0 7:1 8:8 9:7 10:43.255135 11:43.563553 12:21.644089 13:0.99876213 14:0.99912411 15:0.99930876 #
1 1:33.999714 2:23.454536 3:5.1987557 4:6 5:6 6:6 7:58 8:33 9:2 10:5.7668509 11:4.9714184 12:7.3352275 13:0.99979782 14:0.9998703 15:0.99991345 #
-1 1:2.8402858 2:7.8054638 3:16.281244 4:25 5:25 6:25 7:6 8:8 9:21 10:32.916138 11:24.639626 12:17.065142 13:0.99981964 14:0.99989283 15:0.99994433 #
1 1:5.7467084 2:2.348321 3:1.3205611 4:1 5:1 6:1 7:7 8:2 9:0 10:19.11986 11:17.528303 12:13.714802 13:0.99997771 14:0.99998039 15:0.99998373 #
-1 1:27.840132 2:20.476179 3:16.083643 4:59 5:59 6:59 7:34 8:39 9:27 10:42.796581 11:43.163628 12:19.284916 13:0.99843431 14:0.99868715 15:0.99893093 #
-1 1:9.330286 2:3.5345361 3:14.318755 4:3 5:3 6:3 7:5 8:1 9:8 10:25.633678 11:18.972343 12:14.095337 13:0.99975979 14:0.99985635 15:0.99993724 #
1 1:58.131031 2:78.382133 3:103.72591 4:87 5:87 6:87 7:69 8:90 9:118 10:17.687433 11:22.361116 12:27.396906 13:0.99774688 14:0.99844307 15:0.99848783 #
-1 1:28.140526 2:35.781288 3:38.007404 4:0 5:0 6:0 7:27 8:35 9:34 10:20.267645 11:25.070488 12:25.191465 13:0.99914378 14:0.99922752 15:0.9995352 #
1 1:22.643291 2:23.30168 3:23.32056 4:15 5:15 6:15 7:28 8:28 9:20 10:4.7710094 11:3.7416661 12:0.041191224 13:0.99997485 14:0.99997658 15:0.99997914 #
-1 1:95.95031 2:92.989258 3:0.44403076 4:1 5:1 6:1 7:117 8:95 9:1 10:60.612171 11:66.557526 12:8.9416904 13:0.99988782 14:0.999946 15:0.99995989 #
-1 1:18.923292 2:18.691679 3:16.32056 4:5 5:5 6:5 7:18 8:19 9:14 10:0.30283934 11:2.5123529 12:6.9146566 13:0.99997348 14:0.99997526 15:0.99997741 #
1 1:20.293291 2:14.741679 3:4.300561 4:10 5:10 6:10 7:23 8:17 9:6 10:2.3867054 11:1.8312762 12:0.19420466 13:0.99997842 14:0.99997896 15:0.99997896 #
-1 1:2.1797142 2:5.7445359 3:3.0412445 4:13 5:13 6:13 7:7 8:3 9:8 10:24.050276 11:19.581095 12:13.062619 13:0.99976891 14:0.99985212 15:0.99989778 #
1 1:49.98103 2:54.172134 3:56.985905 4:477 5:477 6:477 7:22 8:24 9:25 10:30.476135 11:29.732162 12:30.332882 13:0.99631053 14:0.99652517 15:0.99586999 #
1 1:51.961014 2:31.145868 3:8.9534769 4:17 5:17 6:17 7:51 8:35 9:17 10:9.5097132 11:9.8457947 12:23.985817 13:0.99705583 14:0.99803734 15:0.99883968 #
1 1:48.143291 2:44.24168 3:33.220562 4:20 5:20 6:20 7:49 8:45 9:32 10:12.465909 11:10.879463 12:12.183486 13:0.99999183 14:0.99999267 15:0.99999213 #
1 1:14.593291 2:15.291679 3:18.200562 4:2 5:2 6:2 7:14 8:15 9:12 10:4.683825 11:0.45010725 12:0.091151029 13:0.99997652 14:0.99997842 15:0.99998158 #
-1 1:21.856709 2:20.798321 3:14.189439 4:23 5:23 6:23 7:18 8:17 9:10 10:1.2936816 11:2.7221687 12:6.3388252 13:0.99996096 14:0.99996316 15:0.99996716 #
-0.080065915922414826466635418000806 1:76.579712 2:56.484535 3:14.428756 4:1 5:1 6:1 7:85 8:57 9:9 10:37.467842 11:29.42841 12:20.596172 13:0.9999271 14:0.99997854 15:0.9999876 #
1 1:18.113291 2:20.451679 3:25.39056 4:26 5:26 6:26 7:21 8:22 9:26 10:20.076744 11:18.2568 12:13.048008 13:0.99998188 14:0.99998409 15:0.99998796 #
1 1:21.539474 2:12.238713 3:2.4474039 4:334 5:334 6:334 7:24 8:15 9:4 10:24.839075 11:27.742268 12:27.233686 13:0.9986636 14:0.99876189 15:0.99919212 #
1 1:83.269867 2:62.463821 3:31.776358 4:0 5:0 6:0 7:92 8:52 9:27 10:33.185013 11:44.078232 12:22.433756 13:0.99965775 14:0.99971223 15:0.99974281 #
-1 1:6.8832917 2:6.901679 3:4.0705609 4:4 5:4 6:4 7:7 8:6 9:3 10:0.7823478 11:0.48938939 12:0.99887908 13:0.99996608 14:0.99996775 15:0.99996978 #
1 1:21.989475 2:15.548714 3:8.3125963 4:330 5:330 6:330 7:25 8:18 9:13 10:21.214149 11:26.533773 12:24.918577 13:0.99834144 14:0.99838805 15:0.99872404 #
-0.0021179632531046557741838398669643 1:0.84670842 2:0.88832104 3:2.8105609 4:0 5:0 6:0 7:0 8:1 9:1 10:6.2227178 11:4.3139796 12:2.3816259 13:0.99996924 14:0.99997085 15:0.99997437 #
-1 1:61.869694 2:107.54074 3:14.524031 4:286 5:286 6:286 7:41 8:108 9:16 10:58.788036 11:59.114685 12:3.3728285 13:0.99958462 14:0.99957031 15:0.99991792 #
1 1:0.27670839 2:6.0216789 3:9.0705614 4:7 5:7 6:7 7:8 8:3 9:2 10:5.7231832 11:4.5183544 12:1.1459967 13:0.99997157 14:0.99997479 15:0.99997818 #
1 1:32.089714 2:33.004536 3:11.958755 4:2 5:2 6:2 7:44 8:36 9:6 10:26.081465 11:16.807301 12:10.190876 13:0.99981463 14:0.99989384 15:0.99992943 #
1 1:14.950286 2:10.375464 3:8.7387552 4:1 5:1 6:1 7:8 8:12 9:3 10:31.764336 11:24.561428 12:16.100286 13:0.99977052 14:0.99985582 15:0.99994165 #
-1 1:27.460526 2:36.841286 3:40.847404 4:0 5:0 6:0 7:24 8:34 9:35 10:25.593922 11:30.995665 12:30.387402 13:0.99928451 14:0.99939805 15:0.99972504 #
-1 1:8.8232918 2:9.3816786 3:8.760561 4:1 5:1 6:1 7:12 8:14 9:12 10:0.40852916 11:0.91742539 12:2.6741869 13:0.99997503 14:0.99997687 15:0.99997932 #
0.59155422773856347617993378662504 1:79.029869 2:61.113819 3:31.336357 4:0 5:0 6:0 7:88 8:51 9:26 10:26.441109 11:39.362759 12:22.5133 13:0.9994486 14:0.99954343 15:0.99959087 #
-1 1:0.73971421 2:2.7845361 3:5.1887555 4:5 5:5 6:5 7:7 8:0 9:0 10:29.720577 11:23.080151 12:15.953626 13:0.9997825 14:0.99986345 15:0.99993277 #
0.061238081761708751393769034621073 1:3.8002858 2:3.3545361 3:17.458755 4:4 5:4 6:4 7:5 8:2 9:12 10:33.221302 11:25.362152 12:17.097055 13:0.99979514 14:0.99988347 15:0.99996394 #
1 1:4.3197141 2:10.905464 3:22.321245 4:281 5:281 6:281 7:22 8:1 9:16 10:8.8127909 11:4.1796284 12:11.544487 13:0.99971581 14:0.99978137 15:0.99983233 #
-0.00012726730764711646770592778921127 1:20.086708 2:19.428322 3:13.269439 4:1 5:1 6:1 7:17 8:16 9:11 10:13.620459 11:10.735374 12:9.9000139 13:0.99996918 14:0.99997079 15:0.99997532 #
1 1:12.758969 2:12.927866 3:13.834094 4:2 5:2 6:2 7:17 8:16 9:17 10:5.2244654 11:2.3904214 12:0.2182326 13:0.99546874 14:0.99552077 15:0.99472612 #
7.8546384017336220176525377056898e-06 1:0.56329161 2:2.1183209 3:5.1294389 4:489 5:489 6:489 7:1 8:2 9:5 10:14.488711 11:10.771876 12:5.4637632 13:0.99997658 14:0.99997759 15:0.99997914 #
-1 1:0.86329162 2:0.87167895 3:6.8305612 4:0 5:0 6:0 7:2 8:3 9:5 10:14.376483 11:11.87265 12:10.639559 13:0.99998111 14:0.99998295 15:0.99998689 #
-0.13972419541430092237987992120907 1:63.369869 2:57.97382 3:30.716358 4:10 5:10 6:10 7:58 8:42 9:22 10:50.376335 11:52.28109 12:28.529619 13:0.99957794 14:0.99974513 15:0.99977833 #
-1 1:28.933292 2:24.501678 3:11.980561 4:520 5:520 6:520 7:57 8:46 9:29 10:27.01733 11:27.838802 12:21.547329 13:0.99997628 14:0.99997687 15:0.9999764 #
-1 1:30.669714 2:12.544536 3:9.2212448 4:19 5:19 6:19 7:39 8:12 9:14 10:35.064331 11:26.998402 12:16.879686 13:0.99985075 14:0.99990553 15:0.99993879 #
1 1:27.050285 2:10.315464 3:6.4787555 4:6 5:6 6:6 7:19 8:9 9:2 10:26.542099 11:14.545812 12:8.0023842 13:0.99972886 14:0.99982733 15:0.9999088 #
-1 1:0.37101236 2:63.745869 3:145.36348 4:472 5:472 6:472 7:0 8:65 9:152 10:14.730274 11:11.698895 12:21.234056 13:0.99861705 14:0.99708724 15:0.99515384 #
-1 1:10.379714 2:11.604536 3:13.448755 4:1 5:1 6:1 7:13 8:7 9:7 10:25.831276 11:18.304508 12:14.269169 13:0.99980068 14:0.99988186 15:0.99994177 #
1 1:54.59103 2:78.752136 3:104.73591 4:79 5:79 6:79 7:65 8:90 9:118 10:22.202005 11:26.936373 12:31.675922 13:0.99823248 14:0.99902505 15:0.99910814 #
-1 1:66.069717 2:49.134537 3:12.358755 4:3 5:3 6:3 7:74 8:48 9:6 10:38.915878 11:30.825735 12:22.540804 13:0.99991846 14:0.99997598 15:0.99998951 #
-1 1:1.5732917 2:4.0416789 3:3.3405609 4:1 5:1 6:1 7:2 8:2 9:2 10:18.657917 11:16.45048 12:14.793407 13:0.99997771 14:0.99997967 15:0.99998242 #
0.55206911590887175478314929932822 1:27.459869 2:36.353821 3:23.836357 4:0 5:0 6:0 7:21 8:19 9:14 10:46.079212 11:46.818066 12:23.720058 13:0.99891591 14:0.99919343 15:0.99934888 #
1 1:4.4796925 2:34.99926 3:4.6359692 4:7 5:7 6:7 7:20 8:39 9:5 10:49.349098 11:39.20171 12:5.4169393 13:0.99965709 14:0.99979728 15:0.99993461 #
-1 1:66.539711 2:22.434536 3:21.251244 4:33 5:33 6:33 7:75 8:22 9:26 10:37.529343 11:29.702475 12:20.115854 13:0.99991035 14:0.99993157 15:0.99993807 #
1 1:21.030285 2:10.225464 3:13.738755 4:2 5:2 6:2 7:15 8:11 9:9 10:26.253286 11:19.675079 12:16.342869 13:0.99977213 14:0.99986368 15:0.99995697 #
1 1:6.0497141 2:20.195463 3:39.211243 4:358 5:358 6:358 7:21 8:19 9:41 10:9.0078783 11:1.2458624 12:12.08202 13:0.9997105 14:0.99975562 15:0.99979109 #
-1 1:41.523293 2:28.321678 3:11.750561 4:547 5:547 6:547 7:39 8:25 9:9 10:7.9335213 11:9.5261698 12:11.113351 13:0.999973 14:0.99997139 15:0.99996996 #
1 1:26.920286 2:22.265465 3:0.97875553 4:316 5:316 6:316 7:16 8:12 9:6 10:27.394156 11:0.16693024 12:8.2056665 13:0.99976122 14:0.99984384 15:0.99993378 #
1 1:14.749692 2:14.869262 3:5.755969 4:11 5:11 6:11 7:4 8:2 9:5 10:42.456039 11:30.311085 12:6.3429923 13:0.99967206 14:0.99978906 15:0.99996209 #
1 1:17.299475 2:9.2987137 3:0.84740394 4:330 5:330 6:330 7:22 8:13 9:6 10:21.629221 11:25.9548 12:24.026939 13:0.99844253 14:0.99851292 15:0.99887258 #
0.67128488422135601521034686811618 1:15.130307 2:92.389259 3:0.95596921 4:249 5:249 6:249 7:36 8:95 9:0 10:57.837883 11:64.409462 12:7.4796038 13:0.9997313 14:0.99993652 15:0.99995768 #
-1 1:19.723291 2:13.681679 3:2.740561 4:535 5:535 6:535 7:9 8:2 9:4 10:1.4147882 11:4.9385762 12:5.4430852 13:0.999982 14:0.99998224 15:0.99998188 #
0.0017439831267958005867058091098443 1:21.240286 2:19.525463 3:4.5612445 4:324 5:324 6:324 7:13 8:20 9:10 10:32.450459 11:24.402779 12:13.441713 13:0.99976921 14:0.99985051 15:0.99993324 #
-0.0025686653409152312987906441321684 1:26.913292 2:20.711679 3:14.440561 4:5 5:5 6:5 7:31 8:23 9:14 10:5.7356987 11:5.6851892 12:8.5225525 13:0.9999826 14:0.99998254 15:0.99998367 #
0.87474603314080423555054721873603 1:30.549715 2:20.684536 3:0.66124445 4:11 5:11 6:11 7:40 8:18 9:2 10:13.863524 11:8.085268 12:0.52295572 13:0.99977702 14:0.99984574 15:0.99987924 #
1 1:35.279476 2:30.658714 3:31.242596 4:310 5:310 6:310 7:40 8:35 9:40 10:21.433117 11:24.666 12:23.530823 13:0.99838758 14:0.99842608 15:0.99862617 #
-1 1:15.271012 2:137.31587 3:218.01347 4:98 5:98 6:98 7:15 8:140 9:226 10:15.15027 11:16.962353 12:29.659815 13:0.99827087 14:0.99494028 15:0.99323428 #
1 1:7.9296923 2:35.789261 3:3.9859693 4:5 5:5 6:5 7:12 8:39 9:4 10:47.647999 11:39.596123 12:6.5716929 13:0.99968791 14:0.99983561 15:0.99995971 #
-1 1:20.316708 2:20.708321 3:13.339439 4:32 5:32 6:32 7:22 8:24 9:16 10:0.48548877 11:0.94914037 12:1.8502445 13:0.99996734 14:0.99996912 15:0.9999733 #
-1 1:3.7467084 2:0.71832103 3:5.3405609 4:3 5:3 6:3 7:5 8:1 9:2 10:4.7556658 11:2.6738596 12:0.87897331 13:0.99997199 14:0.99997461 15:0.9999789 #
-1 1:20.483292 2:15.901679 3:5.8605609 4:494 5:494 6:494 7:15 8:12 9:1 10:1.4391639 11:1.0599935 12:0.62207603 13:0.99996978 14:0.99997067 15:0.99997056 #
-1 1:5.3667083 2:3.798321 3:5.1794391 4:1 5:1 6:1 7:7 8:5 9:8 10:12.837812 11:10.543721 12:11.127804 13:0.99997509 14:0.99997687 15:0.99997908 #
-1 1:29.459692 2:17.570738 3:5.494031 4:138 5:138 6:138 7:7 8:15 9:4 10:52.384857 11:55.340084 12:2.9078827 13:0.99958456 14:0.99967802 15:0.99987775 #
1 1:61.529869 2:56.983822 3:32.226357 4:0 5:0 6:0 7:59 8:41 9:24 10:49.379784 11:50.955235 12:26.658363 13:0.99947625 14:0.99966544 15:0.99968958 #
-1 1:66.369713 2:54.444534 3:16.008755 4:4 5:4 6:4 7:75 8:54 9:11 10:38.925571 11:30.619455 12:21.459623 13:0.99991554 14:0.99997908 15:0.99999064 #
-1 1:96.500305 2:92.189262 3:0.89403075 4:1 5:1 6:1 7:116 8:93 9:1 10:59.9576 11:65.533653 12:9.3246069 13:0.99989384 14:0.99994957 15:0.99996865 #
-1 1:29.050526 2:38.671288 3:41.597404 4:0 5:0 6:0 7:26 8:36 9:35 10:26.606308 11:31.038034 12:31.108576 13:0.99931538 14:0.99940604 15:0.9997493 #
-1 1:70.359711 2:55.734535 3:15.168756 4:2 5:2 6:2 7:78 8:55 9:10 10:38.713139 11:30.922918 12:21.951433 13:0.9999193 14:0.99997884 15:0.99998999 #
-1 1:71.680305 2:75.079262 3:0.73596925 4:2 5:2 6:2 7:93 8:78 9:0 10:61.171513 11:66.693581 12:9.2206612 13:0.99984664 14:0.99991667 15:0.9999668 #
-1 1:4.1432915 2:2.6983211 3:3.1694391 4:1 5:1 6:1 7:5 8:2 9:2 10:13.618929 11:11.050728 12:11.277162 13:0.99997753 14:0.99997771 15:0.99998039 #
0.2237553304487003291711744168424 1:3.2867084 2:2.298321 3:4.259439 4:14 5:14 6:14 7:6 8:5 9:9 10:12.672791 11:11.00355 12:7.7533145 13:0.99997705 14:0.99997896 15:0.99998152 #
-1 1:0.87971419 2:9.4245358 3:18.188755 4:9 5:9 6:9 7:9 8:8 9:14 10:32.645329 11:24.0263 12:16.460842 13:0.9997943 14:0.99988413 15:0.99995762 #
0.44373189980333960225067357896478 1:1.3497142 2:5.1854639 3:13.601245 4:37 5:37 6:37 7:16 8:3 9:15 10:4.4909587 11:5.0191236 12:0.85028315 13:0.99978793 14:0.99986005 15:0.9999066 #
-1 1:13.923291 2:13.441679 3:5.1705608 4:10 5:10 6:10 7:10 8:11 9:9 10:0.92060137 11:1.2506996 12:1.071317 13:0.99997687 14:0.9999783 15:0.99997902 #
-0.0028393221208267149791026895400137 1:35.759716 2:27.264536 3:6.8987556 4:10 5:10 6:10 7:43 8:26 9:1 10:33.671906 11:26.273722 12:17.853825 13:0.99985498 14:0.99992388 15:0.9999609 #
-1 1:15.493292 2:11.791679 3:8.2905607 4:520 5:520 6:520 7:16 8:15 9:12 10:0.70785284 11:1.1850926 12:0.2964713 13:0.99998158 14:0.99998271 15:0.99998426 #
1 1:104.91987 2:71.533821 3:36.756359 4:0 5:0 6:0 7:102 8:56 9:29 10:48.531097 11:53.109749 12:29.626837 13:0.99991906 14:0.9998762 15:0.99986011 #
-0.016268093242622259919638594283242 1:10.733541 2:16.42539 3:13.675143 4:0 5:0 6:0 7:7 8:8 9:2 10:11.706095 11:22.342709 12:25.437544 13:0.99875903 14:0.9997685 15:0.99974561 #
1 1:37.663292 2:39.251678 3:38.170563 4:23 5:23 6:23 7:34 8:37 9:38 10:3.8064861 11:1.3814573 12:0.61679882 13:0.99998564 14:0.99998742 15:0.99999052 #
1 1:8.6897144 2:9.7045364 3:11.628756 4:6 5:6 6:6 7:27 8:20 9:8 10:15.477764 11:3.5803497 12:7.0792332 13:0.99980241 14:0.99988276 15:0.99994993 #
-0.035684726272023403748079317665542 1:24.103292 2:25.071678 3:17.89056 4:7 5:7 6:7 7:25 8:26 9:17 10:6.5070949 11:4.0513644 12:1.4255599 13:0.99997646 14:0.99997848 15:0.99997944 #
-0.0014638526947412574402695994990609 1:4.1289878 2:9.4841309 3:13.346523 4:474 5:474 6:474 7:5 8:7 9:6 10:16.569635 11:17.281027 12:30.415943 13:0.9989807 14:0.99954271 15:0.99971473 #
1 1:27.629475 2:18.498714 3:14.362597 4:324 5:324 6:324 7:32 8:22 9:22 10:19.434614 11:24.508451 12:22.694389 13:0.99807423 14:0.9981432 15:0.99842113 #
-1 1:33.693291 2:33.63168 3:19.000561 4:483 5:483 6:483 7:30 8:31 9:15 10:5.2511468 11:7.9783964 12:7.0030828 13:0.99997747 14:0.99997872 15:0.99997854 #
1 1:50.783291 2:39.92168 3:22.090561 4:19 5:19 6:19 7:42 8:30 9:14 10:1.5278842 11:1.3530389 12:3.7465382 13:0.9999876 14:0.99998665 15:0.99998462 #
-1 1:2.7932916 2:3.3416789 3:2.1094389 4:1 5:1 6:1 7:3 8:2 9:5 10:17.169384 11:13.919451 12:9.7738533 13:0.99997944 14:0.9999814 15:0.99998266 #
1 1:21.299475 2:14.888714 3:4.8725963 4:343 5:343 6:343 7:25 8:18 9:12 10:19.86516 11:24.862064 12:22.951782 13:0.99819463 14:0.99824089 15:0.99858743 #
-0.56192212448821621251227043103427 1:15.590286 2:29.095465 3:46.931244 4:304 5:304 6:304 7:13 8:34 9:49 10:14.197276 11:12.420223 12:3.2680967 13:0.99973607 14:0.99980146 15:0.99983704 #
-1 1:3.2132916 2:5.421679 3:8.6605606 4:10 5:10 6:10 7:1 8:2 9:7 10:0.022907937 11:2.170917 12:6.315908 13:0.99996376 14:0.99996608 15:0.9999693 #
-0.52601180435229577536659917313955 1:93.890129 2:117.99618 3:68.513641 4:257 5:257 6:257 7:102 8:140 9:82 10:46.547554 11:45.119537 12:20.764387 13:0.99820048 14:0.99817872 15:0.99876791 #
-1 1:83.729866 2:63.143822 3:35.836357 4:8 5:8 6:8 7:79 8:46 9:26 10:53.557652 11:55.373554 12:31.373592 13:0.99986696 14:0.99992543 15:0.99995089 #
1 1:0.61013108 2:1.2038202 3:9.4036427 4:57 5:57 6:57 7:8 8:18 9:22 10:41.391838 11:39.905811 12:16.380424 13:0.99867857 14:0.99889833 15:0.99903619 #
1 1:7.4303074 2:78.619263 3:1.2259692 4:237 5:237 6:237 7:29 8:82 9:1 10:56.627213 11:62.045197 12:5.685606 13:0.99970794 14:0.99990284 15:0.99994683 #
0.077062353840555625206221179723798 1:23.959715 2:20.584536 3:4.1587553 4:11 5:11 6:11 7:33 8:19 9:3 10:20.090796 11:14.897747 12:8.79006 13:0.9997741 14:0.99985057 15:0.99989194 #
-0.01852228460918684677105616742665 1:24.709715 2:18.764536 3:6.3287554 4:4 5:4 6:4 7:47 8:31 9:2 10:0.39457342 11:0.84332716 12:9.5907946 13:0.99980694 14:0.99988395 15:0.99992454 #
-0.00048292868571220282092326669953763 1:14.932275 2:18.471199 3:11.780013 4:375 5:375 6:375 7:16 8:20 9:17 10:32.95089 11:33.54425 12:28.951302 13:0.99836439 14:0.99838752 15:0.99879616 #
0.094282695935475668846947883139364 1:6.3097143 2:5.8645358 3:14.358755 4:359 5:359 6:359 7:15 8:6 9:9 10:33.217152 11:23.503107 12:16.855785 13:0.99981833 14:0.9998942 15:0.99996763 #
0.063951721833084729240681554074399 1:12.699715 2:10.904536 3:2.1412444 4:358 5:358 6:358 7:21 8:17 9:0 10:24.189198 11:9.3474865 12:4.7725606 13:0.99976909 14:0.99984485 15:0.99988616 #
-0.0045336593632379663942888470273829 1:47.240524 2:55.361286 3:43.107403 4:0 5:0 6:0 7:45 8:55 9:40 10:23.426702 11:28.173838 12:28.361975 13:0.99936587 14:0.9994598 15:0.99964172 #
0.018310068116588640307895730074961 1:5.6596923 2:54.83926 3:4.4559693 4:5 5:5 6:5 7:16 8:58 9:4 10:57.479389 11:56.09449 12:7.3213124 13:0.9996981 14:0.99987078 15:0.99996775 #
-0.012924423224543069022018926261808 1:31.569868 2:37.08382 3:22.696358 4:384 5:384 6:384 7:22 8:20 9:14 10:37.705399 11:45.241028 12:23.862282 13:0.99907929 14:0.99935007 15:0.99947995 #
-0.0034695899993221895885042727059044 1:2.2667084 2:1.758321 3:2.0905609 4:1 5:1 6:1 7:3 8:2 9:0 10:1.6373948 11:1.2671766 12:0.79486328 13:0.99997342 14:0.99997514 15:0.99997896 #
-0.0024276364589894683376769535243511 1:38.920525 2:49.841286 3:42.827404 4:0 5:0 6:0 7:37 8:48 9:38 10:24.073044 11:29.299173 12:29.454763 13:0.99924582 14:0.99938166 15:0.99962068 #
-0.00035977907701756350888899760320783 1:45.369713 2:42.124535 3:16.358755 4:3 5:3 6:3 7:54 8:42 9:11 10:38.186081 11:30.369484 12:21.635563 13:0.99988449 14:0.99995911 15:0.99998969 #
-0.0027756057160877034561963228043169 1:13.376708 2:14.168321 3:8.7094393 4:491 5:491 6:491 7:12 8:11 9:4 10:14.94263 11:17.016495 12:19.725885 13:0.99996543 14:0.9999668 15:0.99997079 #
-0.011023715640030899709511658102201 1:14.688988 2:10.624131 3:1.8265234 4:12 5:12 6:12 7:16 8:8 9:6 10:15.82617 11:18.165836 12:30.755417 13:0.99925995 14:0.99958581 15:0.99939489 #
-0.026040067741973871306981891393661 1:3.6332917 2:1.7816789 3:3.4394391 4:478 5:478 6:478 7:0 8:2 9:5 10:0.95065856 11:3.1186941 12:7.6017504 13:0.99996275 14:0.99996382 15:0.99996513 #
-0.0070235417660689039576205061621295 1:114.40031 2:98.469261 3:3.2540307 4:2 5:2 6:2 7:136 8:101 9:4 10:61.61652 11:66.621437 12:9.1252642 13:0.99992102 14:0.99995524 15:0.99995965 #
-0.0002403938655216042441509216587292 1:1.4110308 2:0.69213432 3:2.1740942 4:26 5:26 6:26 7:11 8:12 9:11 10:28.091198 11:32.60701 12:37.616394 13:0.99831015 14:0.99831295 15:0.99745309 #
-6.2763220370343902887455556083296e-05 1:19.866709 2:15.988321 3:5.2494392 4:3 5:3 6:3 7:17 8:14 9:4 10:22.508884 11:21.443539 12:17.03161 13:0.9999761 14:0.99997896 15:0.99998379 #
-0.002775952453536095331648736461716 1:15.449715 2:31.074535 3:19.828756 4:6 5:6 6:6 7:22 8:30 9:14 10:27.916306 11:19.540461 12:19.831327 13:0.99983305 14:0.99993485 15:0.9999854 #
0.042946498041272179735372560571705 1:18.570286 2:10.065464 3:6.4487557 4:330 5:330 6:330 7:7 8:2 9:8 10:24.380657 11:7.7713294 12:2.4026322 13:0.99976432 14:0.99985129 15:0.99993682 #
-0.0036547357012013531596394955158758 1:117.44031 2:104.25926 3:3.8140306 4:2 5:2 6:2 7:139 8:107 9:4 10:60.742344 11:66.52919 12:9.0527906 13:0.9999277 14:0.99996513 15:0.99995619 #
0.058715243317303489334335608873516 1:42.136459 2:73.754608 3:91.474854 4:404 5:404 6:404 7:42 8:84 9:111 10:5.2783623 11:17.290726 12:22.335529 13:0.99631548 14:0.9949683 15:0.99466902 #
-0.017704645937545636369403467824668 1:1.6496924 2:14.379261 3:2.7759693 4:1 5:1 6:1 7:20 8:18 9:3 10:52.816925 11:56.683899 12:5.2561436 13:0.99967384 14:0.99976748 15:0.99993855 #
-9.2830202380646140375777819464531e-06 1:58.969715 2:50.194534 3:17.148756 4:3 5:3 6:3 7:68 8:50 9:11 10:37.746044 11:29.935907 12:21.813377 13:0.99990529 14:0.99997294 15:0.99999112 #
1.263513988323724661659228085675e-05 1:24.39897 2:25.417866 3:27.514093 4:515 5:515 6:515 7:19 8:19 9:20 10:7.4467211 11:11.20138 12:15.233628 13:0.99623913 14:0.99621236 15:0.99538898 #
-0.0034088939278973484463264309596298 1:19.709715 2:17.404535 3:0.48124447 4:372 5:372 6:372 7:29 8:18 9:6 10:34.379467 11:25.955669 12:17.754679 13:0.99983966 14:0.99991155 15:0.99995142 #
0.0016856010507433592804371613738113 1:32.08329 2:32.33168 3:28.97056 4:515 5:515 6:515 7:33 8:32 9:28 10:13.049626 11:8.6185741 12:6.1274529 13:0.99998367 14:0.99998504 15:0.99998689 #
0.17118562069006762471623517285479 1:17.649693 2:15.539262 3:1.5140308 4:10 5:10 6:10 7:6 8:19 9:1 10:52.143902 11:51.749699 12:0.13978943 13:0.99961942 14:0.99974662 15:0.99990386 #
0.00056836299951736415653896772326448 1:39.603291 2:39.06168 3:37.89056 4:518 5:518 6:518 7:45 8:42 9:42 10:16.67981 11:15.078639 12:12.174009 13:0.99999207 14:0.99999362 15:0.99999565 #
-7.2340115505470370393936718755867e-07 1:48.139713 2:40.274536 3:13.128756 4:1 5:1 6:1 7:57 8:40 9:7 10:36.044678 11:27.373056 12:20.355089 13:0.9998886 14:0.99995869 15:0.99998742 #
0.005983217778468996606022756168386 1:0.1632916 2:4.1616788 3:1.500561 4:461 5:461 6:461 7:4 8:0 9:1 10:4.431366 11:0.61713374 12:0.11116915 13:0.99997503 14:0.99997729 15:0.99997866 #
-0.40935253461214970993609085780918 1:47.849869 2:47.56382 3:26.676357 4:0 5:0 6:0 7:43 8:32 9:19 10:43.633266 11:45.400032 12:22.145493 13:0.99899095 14:0.99920332 15:0.99927235 #
0.017511802590319064387713865471596 1:35.779694 2:8.0692616 3:0.35403076 4:6 5:6 6:6 7:12 8:12 9:0 10:51.051762 11:42.940987 12:3.6878424 13:0.9996103 14:0.99975944 15:0.99991882 #
0.14436129221208471307136278483085 1:1.6064583 2:6.1946092 3:11.384857 4:443 5:443 6:443 7:2 8:12 9:16 10:9.4264116 11:7.1327119 12:3.4586523 13:0.99825239 14:0.99852151 15:0.99843383 #
-0.0008030792801580572889963427485327 1:10.202275 2:12.4512 3:0.22001329 4:124 5:124 6:124 7:10 8:13 9:4 10:32.378311 11:33.852676 12:28.885155 13:0.99853325 14:0.9985612 15:0.99907738 #
-0.00053231057404135029287317593116313 1:6.5567083 2:12.078321 3:15.049439 4:210 5:210 6:210 7:11 8:15 9:14 10:10.823755 11:9.9440184 12:10.230123 13:0.9999764 14:0.99997681 15:0.99997908 #
-7.5541624114146960471821712346241e-06 1:29.32897 2:32.047867 3:33.914093 4:3 5:3 6:3 7:20 8:21 9:21 10:27.544422 11:32.060234 12:37.069618 13:0.99707735 14:0.99701804 15:0.99619567 #
-0.033493377356078532502969835604745 1:5.5135417 2:14.00539 3:12.675143 4:449 5:449 6:449 7:4 8:5 9:0 10:17.646414 11:23.052338 12:25.557854 13:0.99874246 14:0.99964398 15:0.99968034 #
-0.0040910476276878604551257012644783 1:27.709715 2:21.744535 3:10.858755 4:4 5:4 6:4 7:31 8:19 9:5 10:26.438787 11:19.757469 12:14.064362 13:0.99982846 14:0.99990261 15:0.99995011 #
0.00020083315849772631622727203648537 1:19.770287 2:0.064536005 3:6.1387553 4:24 5:24 6:24 7:15 8:4 9:3 10:11.809994 11:1.848027 12:0.57244658 13:0.99967515 14:0.99977052 15:0.99985683 #
0.00018378407827006603423095065785731 1:22.49897 2:24.207865 3:26.074095 4:4 5:4 6:4 7:12 8:13 9:13 10:28.538017 11:33.153191 12:37.75045 13:0.99739337 14:0.99737364 15:0.99651426 #
-0.0046893656742065248366202467877883 1:28.848969 2:31.207865 3:34.154095 4:3 5:3 6:3 7:19 8:20 9:20 10:30.047382 11:34.482922 12:39.342239 13:0.99725139 14:0.99719 15:0.99634564 #
-0.022758751873116045416622910124715 1:24.278969 2:26.997866 3:28.864094 4:2 5:2 6:2 7:18 8:19 9:19 10:14.64308 11:19.158894 12:24.168276 13:0.99690241 14:0.99684334 15:0.99602175 #
-0.26684705047615731032806252187584 1:13.863542 2:3.9753907 3:1.4948567 4:463 5:463 6:463 7:13 8:4 9:12 10:10.367163 11:13.804567 12:14.946198 13:0.99794453 14:0.99804103 15:0.99791437 #
5.7950309515580082566233582896942e-05 1:28.59103 2:36.022133 3:42.955906 4:203 5:203 6:203 7:33 8:42 9:49 10:3.1070585 11:3.9313483 12:6.3664308 13:0.99655515 14:0.99683625 15:0.99627817 #
-0.042446899815544059109129193529952 1:8.6432915 2:10.351679 3:4.3405609 4:451 5:451 6:451 7:2 8:2 9:5 10:0.16771968 11:1.6131959 12:3.7148845 13:0.99997663 14:0.99997884 15:0.99997962 #
-0.011850794751518525793620995045785 1:32.373543 2:18.105391 3:15.005143 4:1 5:1 6:1 7:33 8:9 9:3 10:7.2484446 11:23.374533 12:26.278664 13:0.99936777 14:0.99985796 15:0.99992985 #
0.0043139955638183957731257578416262 1:3.5002859 2:7.2654638 3:2.5087554 4:337 5:337 6:337 7:1 8:11 9:6 10:27.927349 11:18.96958 12:9.9448338 13:0.99979389 14:0.99986869 15:0.99993682 #
0.014484982140956587093327811999188 1:40.677727 2:41.518799 3:36.479988 4:169 5:169 6:169 7:38 8:37 9:29 10:28.775276 11:28.05475 12:20.910336 13:0.99932194 14:0.99940479 15:0.99958193 #
8.3037409094322001124055532272905e-06 1:29.713291 2:25.681679 3:16.65056 4:508 5:508 6:508 7:35 8:31 9:22 10:13.214272 11:11.038401 12:8.754611 13:0.99998707 14:0.9999879 15:0.99998754 #
-0.0016940170509621155225943311961601 1:15.436708 2:9.6583214 3:2.9294391 4:2 5:2 6:2 7:17 8:11 9:3 10:21.707378 11:19.398445 12:17.644365 13:0.99997807 14:0.99998146 15:0.99998552 #
5.5582511473597928804667167579368e-05 1:42.873291 2:41.731678 3:36.020561 4:514 5:514 6:514 7:44 8:44 9:39 10:22.639256 11:19.424313 12:13.571276 13:0.99999171 14:0.99999315 15:0.99999398 #
0.031578588418866182507827033987269 1:4.3967085 2:1.188321 3:0.169439 4:462 5:462 6:462 7:3 8:9 9:7 10:8.8400288 11:6.1092134 12:6.0845752 13:0.99997663 14:0.99997944 15:0.999982 #
-3.4314360296285992656529877098404e-06 1:22.939714 2:22.714537 3:12.238755 4:1 5:1 6:1 7:31 8:22 9:7 10:31.962835 11:25.487307 12:17.947701 13:0.99983716 14:0.9999156 15:0.99996221 #
-0.012985582281807239724003011360765 1:29.538969 2:32.257866 3:34.124096 4:3 5:3 6:3 7:20 8:21 9:21 10:30.284275 11:34.800087 12:39.809471 13:0.99732727 14:0.99726754 15:0.99644411 #
5.7461023006029826460370514562559e-06 1:34.113293 2:37.621677 3:38.850559 4:497 5:497 6:497 7:37 8:41 9:40 10:17.67951 11:15.225064 12:9.8201408 13:0.99998349 14:0.99998647 15:0.99998903 #
0.0001884556605698528564118987560505 1:10.129714 2:8.4545364 3:12.158755 4:0 5:0 6:0 7:21 8:7 9:6 10:12.092463 11:7.9201984 12:12.650968 13:0.99979275 14:0.99986482 15:0.99993992 #
-1.8723019420893495951821114409164e-05 1:51.070526 2:54.331287 3:38.957405 4:0 5:0 6:0 7:49 8:52 9:35 10:22.041414 11:27.324642 12:26.61413 13:0.9994483 14:0.99948418 15:0.99961162 #
0.017496392006386640716186775534879 1:59.430286 2:148.28546 3:161.39125 4:281 5:281 6:281 7:54 8:158 9:176 10:34.063457 11:15.913589 12:1.0707895 13:0.99973792 14:0.99969494 15:0.99973089 #
0.003088325661476432060226215980947 1:7.1732917 2:6.3516788 3:10.250561 4:476 5:476 6:476 7:12 8:13 9:18 10:1.4969074 11:0.128784 12:3.0811524 13:0.99997026 14:0.99997193 15:0.99997503 #
-0.019595706282088509730954228871269 1:48.790527 2:61.951286 3:44.237404 4:0 5:0 6:0 7:48 8:61 9:40 10:24.542332 11:30.140276 12:29.667593 13:0.99951136 14:0.99968088 15:0.99976814 #
-0.30624735157813565145090706209885 1:15.420286 2:25.275463 3:31.561245 4:329 5:329 6:329 7:7 8:18 9:14 10:18.31974 11:1.453025 12:25.314959 13:0.99970871 14:0.99976999 15:0.99981672 #
-0.00014566011503354289692221956720175 1:13.201013 2:1.7658691 3:14.016523 4:0 5:0 6:0 7:13 8:4 9:6 10:14.673723 11:16.625431 12:28.898283 13:0.99818814 14:0.99890876 15:0.99948388 #
0.0020536035885512613115289060061741 1:94.06987 2:69.283821 3:35.736359 4:0 5:0 6:0 7:90 8:54 9:28 10:48.776024 11:50.730415 12:28.109358 13:0.99970686 14:0.99973935 15:0.99972516 #
0.017534887527657305739126059052069 1:68.40329 2:64.621681 3:52.360561 4:32 5:32 6:32 7:71 8:67 9:52 10:5.9742575 11:3.3211093 12:1.7817233 13:0.99999237 14:0.99999297 15:0.99999315 #
0.0002916998644302282173157436773181 1:13.703292 2:12.361679 3:18.260561 4:476 5:476 6:476 7:16 8:17 9:22 10:19.63378 11:17.669847 12:15.601648 13:0.99998432 14:0.99998552 15:0.99998975 #
0.024453302903580276250750102917664 1:28.803291 2:27.241678 3:27.290562 4:21 5:21 6:21 7:29 8:28 9:26 10:9.5868053 11:8.0301895 12:3.8958309 13:0.99997771 14:0.99997914 15:0.99998122 #
-0.11336161224354780741041537339697 1:9.5498686 2:27.98382 3:20.596357 4:0 5:0 6:0 7:4 8:11 9:11 10:44.021511 11:45.427803 12:22.30019 13:0.99885333 14:0.99920952 15:0.99939412 #
-0.011060832836538372903056881568773 1:0.4432916 2:1.8283211 3:1.299439 4:482 5:482 6:482 7:12 8:9 9:11 10:0.073463731 11:0.33116683 12:1.8355138 13:0.99997431 14:0.99997538 15:0.99997824 #
0.0878941669243396006550028687343 1:26.059692 2:6.6892614 3:5.545969 4:13 5:13 6:13 7:4 8:13 9:6 10:49.2103 11:43.645142 12:3.123137 13:0.99962169 14:0.99974334 15:0.99993557 #
9.1754124965278182826785777215228e-06 1:14.940286 2:4.875464 3:7.6487556 4:5 5:5 6:5 7:4 8:2 9:9 10:19.71417 11:5.9206367 12:0.048182484 13:0.99972391 14:0.99981475 15:0.9998877 #
0.001542996512776895201568549964577 1:49.363293 2:42.231678 3:37.920563 4:515 5:515 6:515 7:53 8:45 9:38 10:22.29632 11:18.859413 12:11.721209 13:0.99999225 14:0.99999243 15:0.99999416 #
-0.0059638284564038634982807707274333 1:2.1467085 2:0.41167894 3:0.13056099 4:458 5:458 6:458 7:3 8:0 9:1 10:20.991428 11:18.499783 12:15.794186 13:0.99997789 14:0.99998021 15:0.99998266 #
0.0098883817557080533333646599203348 1:35.106457 2:64.574608 3:79.924858 4:390 5:390 6:390 7:43 8:84 9:98 10:3.1858521 11:16.662603 12:21.702312 13:0.99674457 14:0.99611217 15:0.99546915 #
0.0063867669491533031467245251633358 1:28.510286 2:6.105464 3:19.568756 4:3 5:3 6:3 7:22 8:8 9:11 10:30.005436 11:21.241379 12:14.589306 13:0.99975777 14:0.99986452 15:0.99996108 #
0.0028262768609268462682848621625453 1:52.683292 2:49.911678 3:41.840561 4:515 5:515 6:515 7:55 8:52 9:45 10:23.52833 11:20.711994 12:16.045458 13:0.9999947 14:0.99999559 15:0.9999963 #
0.10062396127564121606212665938074 1:19.199692 2:12.769261 3:4.1259694 4:8 5:8 6:8 7:2 8:5 9:4 10:48.87212 11:40.030231 12:6.8116565 13:0.9996559 14:0.99977595 15:0.99995464 #
0.00062578058065257879602483193082207 1:24.116709 2:21.498322 3:15.839439 4:428 5:428 6:428 7:28 8:26 9:20 10:17.559397 11:15.53114 12:13.533394 13:0.99997032 14:0.99997252 15:0.99997711 #
-0.038491735163177054346306249499321 1:16.766708 2:12.148321 3:10.979439 4:408 5:408 6:408 7:36 8:30 9:27 10:7.8046584 11:6.3953767 12:7.1072421 13:0.99996805 14:0.99997109 15:0.99997395 #
-0.008204288625465650311441301312243 1:40.579716 2:21.484535 3:3.0312445 4:384 5:384 6:384 7:49 8:21 9:9 10:38.001587 11:29.85132 12:20.862553 13:0.999879 14:0.9999311 15:0.9999606 #
0.43325955361641399488092929459526 1:16.858969 2:19.577866 3:21.444094 4:10 5:10 6:10 7:7 8:8 9:8 10:29.809563 11:34.325375 12:39.334759 13:0.9976719 14:0.99761158 15:0.99678665 #
-0.0076566336607655077761691586601955 1:79.629715 2:56.334538 3:13.998755 4:0 5:0 6:0 7:87 8:55 9:8 10:38.017475 11:29.795776 12:20.948156 13:0.99992979 14:0.99997807 15:0.99998599 #
-0.035779838489440801696517269192555 1:29.580286 2:12.535464 3:5.7887554 4:5 5:5 6:5 7:21 8:12 9:1 10:37.490265 11:28.189323 12:19.132717 13:0.99978805 14:0.99988741 15:0.99997371 #
-4.5795132688624252785547508182162e-05 1:1.6797142 2:1.824536 3:2.0112445 4:344 5:344 6:344 7:3 8:3 9:5 10:11.807025 11:6.8040957 12:3.4801221 13:0.99970818 14:0.99979508 15:0.99986011 #
-0.03836306825105383067064934721202 1:14.656709 2:12.888321 3:18.139439 4:1 5:1 6:1 7:13 8:10 9:13 10:9.7671947 11:7.6886821 12:4.3748894 13:0.99996853 14:0.99997056 15:0.99997205 #
0.014973483642465340581750865567301 1:33.269691 2:18.369261 3:2.5259693 4:11 5:11 6:11 7:10 8:23 9:3 10:53.826248 11:48.410389 12:3.3375533 13:0.99960738 14:0.99977195 15:0.99993074 #
-0.020586992485233174959846635942995 1:12.163292 2:6.5516791 3:9.8205614 4:8 5:8 6:8 7:8 8:1 9:8 10:7.4650173 11:5.5071077 12:0.19956116 13:0.9999783 14:0.9999786 15:0.99998182 #
-0.032534437631851133299054623648772 1:13.583292 2:10.561679 3:5.5605612 4:22 5:22 6:22 7:15 8:11 9:13 10:2.3078568 11:0.61377633 12:1.4253728 13:0.99997628 14:0.99997723 15:0.99997878 #
-9.3998797532593870301953487000901e-07 1:48.690525 2:51.341286 3:39.497402 4:0 5:0 6:0 7:48 8:51 9:35 10:22.55139 11:28.417395 12:27.895416 13:0.9992696 14:0.99931157 15:0.9994334 #
0.0034983018028782453257008455693722 1:19.013292 2:18.13168 3:16.47056 4:485 5:485 6:485 7:24 8:21 9:20 10:18.774679 11:17.384333 12:14.477515 13:0.99998349 14:0.99998498 15:0.99998719 #
5.858425673430982172828953430388e-06 1:10.690286 2:0.18546399 3:1.6987555 4:7 5:7 6:7 7:5 8:5 9:2 10:9.91716 11:0.52739334 12:0.11122941 13:0.99973756 14:0.9998306 15:0.99990296 #
-0.0033187274237267351713331908769078 1:22.268969 2:24.987865 3:26.854094 4:5 5:5 6:5 7:12 8:13 9:13 10:30.762596 11:35.278408 12:40.287792 13:0.99757189 14:0.99751174 15:0.99668729 #
0.028791656965909739884779128260561 1:38.189693 2:25.440739 3:2.5759692 4:5 5:5 6:5 7:24 8:31 9:4 10:48.293491 11:50.496979 12:2.8129478 13:0.99957871 14:0.99966508 15:0.99991691 #
-0.05475331966786445292427742970176 1:38.059715 2:41.204536 3:15.968756 4:7 5:7 6:7 7:45 8:40 9:10 10:32.74958 11:23.56424 12:18.807856 13:0.99987167 14:0.99995428 15:0.99998236 #
-4.4335507834447618336071172961965e-07 1:66.959717 2:53.044537 3:14.448755 4:2 5:2 6:2 7:75 8:52 9:9 10:37.977695 11:30.338444 12:21.739412 13:0.99991733 14:0.99997753 15:0.9999885 #
0.014992355006543167661448023864068 1:48.619869 2:47.683819 3:20.746357 4:415 5:415 6:415 7:42 8:31 9:12 10:44.689663 11:46.303642 12:23.228643 13:0.99918509 14:0.99937725 15:0.99939048 #
0.017996427194891719686387077103973 1:32.73103 2:42.072136 3:50.345905 4:4 5:4 6:4 7:16 8:27 9:47 10:36.064552 11:38.343761 12:41.600449 13:0.9940663 14:0.99443352 15:0.9938724 #
0.018398759808784248548363393638283 1:36.503292 2:35.301678 3:30.350561 4:494 5:494 6:494 7:35 8:34 9:26 10:20.561481 11:18.205667 12:11.389133 13:0.99998742 14:0.99998885 15:0.99999011 #
0.0040014302824173952899400319438428 1:35.133293 2:27.161678 3:19.280561 4:514 5:514 6:514 7:42 8:34 9:22 10:15.630897 11:13.390227 12:6.6058784 13:0.99998903 14:0.99998832 15:0.99998915 #
0.023431357711103557861509472104444 1:24.572275 2:9.8611994 3:31.489986 4:334 5:334 6:334 7:25 8:11 9:27 10:33.738636 11:34.235981 12:30.393917 13:0.99824929 14:0.99855155 15:0.99954629 #
-4.6813371154304549766767690188729e-06 1:16.370285 2:2.8345361 3:16.678755 4:3 5:3 6:3 7:17 8:5 9:10 10:16.880655 11:13.015945 12:13.212276 13:0.999749 14:0.99985224 15:0.99994367 #
0.0071611491122416381926996109541506 1:77.271034 2:93.662132 3:113.44591 4:119 5:119 6:119 7:95 8:116 9:138 10:9.2063284 11:6.7679691 12:4.3933868 13:0.99776381 14:0.99832898 15:0.9982003 #
-8.3129607042931041860356344841421e-05 1:46.580524 2:59.471287 3:45.677402 4:0 5:0 6:0 7:44 8:57 9:41 10:28.133366 11:33.817051 12:31.982105 13:0.99955612 14:0.99976528 15:0.99990726 #
-0.046655234755196034468482935153588 1:28.021013 2:9.6558695 3:3.1165235 4:10 5:10 6:10 7:27 8:13 9:5 10:11.998301 11:15.429008 12:29.226715 13:0.99795741 14:0.99885297 15:0.99934584 #
4.8724005495701105949990505905589e-05 1:34.26329 2:34.031677 3:32.790562 4:524 5:524 6:524 7:38 8:37 9:31 10:8.1184483 11:7.855783 12:6.6061702 13:0.99998552 14:0.99998707 15:0.99998993 #
-0.035468835660602188175616333865037 1:72.910522 2:72.891289 3:39.117405 4:0 5:0 6:0 7:74 8:75 9:38 10:16.479967 11:21.273312 12:20.858583 13:0.9995802 14:0.99956822 15:0.99948049 #
0.0026951444872039785616291140968315 1:66.391029 2:86.352135 3:110.34591 4:79 5:79 6:79 7:74 8:95 9:122 10:14.789772 11:19.245062 12:24.260197 13:0.99770671 14:0.9983477 15:0.99836713 #
-3.2397633731306996196508407592773e-07 1:23.32897 2:25.567865 3:28.074095 4:2 5:2 6:2 7:14 8:15 9:15 10:27.412743 11:31.820429 12:36.89389 13:0.99716306 14:0.99710268 15:0.99623913 #
0.0080669785958307899109698269057844 1:22.880285 2:8.2254639 3:39.021244 4:281 5:281 6:281 7:22 8:3 9:36 10:9.2415619 11:5.284842 12:15.899831 13:0.99967682 14:0.99977928 15:0.99980724 #
0.0019111600172525555763058946467936 1:20.149714 2:35.874535 3:21.608755 4:369 5:369 6:369 7:29 8:38 9:16 10:25.540771 11:18.246725 12:16.304676 13:0.99983811 14:0.99993587 15:0.99997646 #
0.0014599850677068371140876479330473 1:20.360287 2:1.114536 3:20.068756 4:324 5:324 6:324 7:13 8:1 9:15 10:36.398365 11:27.822784 12:18.931665 13:0.99978042 14:0.99988657 15:0.99997371 #
0.0013319995691736391529857996829378 1:33.613293 2:28.401678 3:18.830561 4:509 5:509 6:509 7:43 8:36 9:20 10:11.214143 11:10.168949 12:11.392067 13:0.99998486 14:0.99998558 15:0.99998552 #
-0.0039226721156032096082810767256888 1:0.64329159 2:1.561679 3:2.199439 4:447 5:447 6:447 7:4 8:1 9:2 10:1.274009 11:0.41327727 12:5.5008125 13:0.99997395 14:0.99997538 15:0.99997681 #
-5.9036810640965244805031947317175e-05 1:28.290285 2:8.0054636 3:1.0387555 4:3 5:3 6:3 7:20 8:10 9:4 10:28.120348 11:20.253229 12:13.055352 13:0.9997279 14:0.99983066 15:0.99990499 #
-0.13850861508462547488917948612652 1:0.73969239 2:6.7292614 3:11.274031 4:2 5:2 6:2 7:23 8:9 9:9 10:31.3374 11:38.758301 12:4.6291037 13:0.99965012 14:0.99972302 15:0.99988741 #
-0.12819263788541454540670372352906 1:17.989868 2:18.543819 3:2.9363577 4:392 5:392 6:392 7:14 8:1 9:7 10:45.612133 11:46.086937 12:21.71207 13:0.99894691 14:0.99914992 15:0.99924201 #
0.00095924644765567335102929291679175 1:59.690285 2:152.90546 3:173.47124 4:281 5:281 6:281 7:55 8:161 9:186 10:34.088802 11:19.231728 12:0.11378118 13:0.99972761 14:0.99968034 15:0.99970758 #
-0.1737749216357705184243798157695 1:5.3967085 2:6.2083211 3:2.239439 4:479 5:479 6:479 7:1 8:1 9:5 10:3.3243253 11:5.6405845 12:8.3752871 13:0.99997133 14:0.99997294 15:0.99997699 #
0.19719510506842086172696326684672 1:65.209869 2:54.92382 3:30.286358 4:0 5:0 6:0 7:52 8:39 9:26 10:24.994873 11:39.521904 12:21.875011 13:0.99928105 14:0.99943084 15:0.99952453 #
-0.035593573287854951558983884751797 1:18.850307 2:30.889261 3:2.1859694 4:6 5:6 6:6 7:37 8:32 9:2 10:53.124859 11:57.642651 12:6.1802263 13:0.9997403 14:0.99982893 15:0.9999584 #
-0.0014613486771206263964417715328636 1:58.509716 2:43.114536 3:12.818755 4:2 5:2 6:2 7:67 8:43 9:7 10:38.435623 11:29.887365 12:21.367107 13:0.99990273 14:0.99996161 15:0.99998552 #
0.29745437090876691854646196588874 1:11.559475 2:3.0687137 3:0.96259606 4:333 5:333 6:333 7:15 8:6 9:7 10:21.080471 11:26.495029 12:26.7668 13:0.9988386 14:0.99890697 15:0.99918628 #
-0.00018896587032792645831705269365841 1:4.0110126 2:4.2541308 3:17.046524 4:3 5:3 6:3 7:3 8:2 9:9 10:14.586535 11:16.508696 12:29.323242 13:0.99850166 14:0.99915642 15:0.99961424 #
0.036204078304224056317206503763373 1:36.340286 2:6.1454639 3:18.321245 4:281 5:281 6:281 7:36 8:4 9:19 10:15.466735 11:6.8177161 12:7.0960612 13:0.99972045 14:0.99983072 15:0.99987835 #
-0.00011474402857236665198570335633121 1:15.696709 2:14.638321 3:3.769439 4:0 5:0 6:0 7:15 8:14 9:2 10:19.151098 11:17.407059 12:16.128796 13:0.99997348 14:0.99997473 15:0.99998015 #
-0.0060492994679367528831903655373026 1:20.140285 2:12.145464 3:2.0287554 4:13 5:13 6:13 7:16 8:16 9:4 10:18.203009 11:10.646111 12:7.3572102 13:0.99970156 14:0.99978799 15:0.9998771 #
0.0057112857624832535918812936870381 1:10.106709 2:6.578321 3:0.99056101 4:480 5:480 6:480 7:8 8:3 9:5 10:5.9077525 11:2.3534436 12:0.44258854 13:0.99997383 14:0.99997652 15:0.99998093 #
-0.0030261159022485148439862712166359 1:23.789715 2:27.374537 3:21.158756 4:10 5:10 6:10 7:33 8:28 9:16 10:35.962749 11:27.899517 12:19.623207 13:0.99984246 14:0.99992335 15:0.99997717 #
-0.00017898867644768490930973214858568 1:73.842278 2:79.501198 3:86.530014 4:0 5:0 6:0 7:134 8:141 9:147 10:48.080231 11:48.138691 12:47.249962 13:0.99620092 14:0.99614543 15:0.99639022 #
-0.17323984241672008010937133803964 1:0.72329164 2:7.5516791 3:6.4205608 4:464 5:464 6:464 7:4 8:13 9:14 10:3.5460303 11:0.82193995 12:5.3149948 13:0.99997246 14:0.99997562 15:0.9999783 #
-0.022236915538631857325313490036933 1:33.790306 2:49.949261 3:1.7859693 4:3 5:3 6:3 7:55 8:53 9:2 10:53.6749 11:58.892155 12:6.9523563 13:0.99976856 14:0.99986184 15:0.99996281 #
-0.00076062450399915762164204657835853 1:0.33645833 2:9.0253906 3:12.045143 4:0 5:0 6:0 7:3 8:0 9:0 10:13.131272 11:19.980072 12:24.526041 13:0.9984085 14:0.99925882 15:0.99947762 #
-0.004514008896571121073892918218462 1:2.2994745 2:11.598714 3:20.802595 4:360 5:360 6:360 7:4 8:13 9:26 10:24.7778 11:30.45274 12:28.43959 13:0.99888366 14:0.99875915 15:0.99886709 #
-0.031579956887818297350811747037369 1:3.4110308 2:2.6921344 3:0.17409422 4:27 5:27 6:27 7:13 8:14 9:13 10:28.096695 11:32.612507 12:37.621891 13:0.99837172 14:0.99837446 15:0.99751437 #
-0.0076003469998398021090224574436434 1:5.8835416 2:11.46539 3:11.535143 4:2 5:2 6:2 7:4 8:3 9:0 10:14.185559 11:20.106779 12:23.444845 13:0.99822885 14:0.99903119 15:0.99919009 #
-7.9890906065858621754038892959215e-05 1:5.4532914 2:3.161679 3:0.85056102 4:1 5:1 6:1 7:3 8:2 9:2 10:5.4275074 11:3.2503803 12:0.39084178 13:0.99996632 14:0.99996775 15:0.99997014 #
0.040763386558319320007726105359325 1:14.110286 2:5.8454642 3:8.3187551 4:9 5:9 6:9 7:3 8:1 9:8 10:25.505095 11:9.1406403 12:2.6101291 13:0.99976981 14:0.99985862 15:0.99993926 #
0.00013431447225476699164695149057991 1:33.920525 2:37.951286 3:28.927404 4:389 5:389 6:389 7:33 8:37 9:24 10:18.442476 11:24.415567 12:24.205942 13:0.99889725 14:0.99891049 15:0.99907434 #
0.00040942767884195874206199050604482 1:17.210285 2:1.535464 3:15.558756 4:2 5:2 6:2 7:9 8:2 9:12 10:29.668692 11:21.491842 12:12.084882 13:0.99975628 14:0.99985272 15:0.99994087 #
0.00012843818951481148328899739574638 1:35.810524 2:39.031288 3:31.837404 4:397 5:397 6:397 7:35 8:37 9:27 10:19.776693 11:23.39505 12:25.017603 13:0.99905664 14:0.99909252 15:0.99925768 #
0.1619277080436117566275555645916 1:35.560287 2:12.335464 3:4.1187553 4:24 5:24 6:24 7:31 8:11 9:5 10:20.950882 11:3.9709604 12:1.1843985 13:0.99966699 14:0.99977541 15:0.99986005 #
0.012492562903893278392075671945349 1:19.779692 2:48.56926 3:1.4059693 4:1 5:1 6:1 7:1 8:51 9:1 10:56.942749 11:55.677414 12:6.9648361 13:0.99966013 14:0.99985349 15:0.99995643 #
0.0025749428217951286779197062060121 1:21.292274 2:6.1811996 3:33.189987 4:333 5:333 6:333 7:22 8:7 9:29 10:35.714512 11:36.047607 12:32.119923 13:0.99842495 14:0.99873942 15:0.99968398 #
0.022620219888015213882681564427912 1:57.49329 2:42.301678 3:35.180561 4:518 5:518 6:518 7:59 8:44 9:39 10:21.876036 11:19.247295 12:12.924273 13:0.99999237 14:0.9999904 15:0.99999124 #
0.042403037474898291891989288160403 1:29.803291 2:28.47168 3:38.700562 4:498 5:498 6:498 7:32 8:30 9:40 10:20.791958 11:18.416784 12:13.824197 13:0.99998492 14:0.99998599 15:0.99999136 #
0.0015130638235183457851462662802078 1:23.156458 2:48.15461 3:64.214859 4:423 5:423 6:423 7:25 8:60 9:81 10:8.4801531 11:3.3613524 12:1.7331952 13:0.99730879 14:0.99658102 15:0.99619621 #
0.0010443173701819574716864735819399 1:80.199867 2:62.093819 3:29.946358 4:0 5:0 6:0 7:77 8:49 9:25 10:41.216755 11:45.093136 12:22.433506 13:0.99933583 14:0.99942136 15:0.99941629 #
-0.011335210426170944097989945476002 1:51.489475 2:56.728714 3:50.092598 4:301 5:301 6:301 7:54 8:59 9:56 10:22.995548 11:28.348442 12:26.61883 13:0.99812275 14:0.99801838 15:0.99831861 #
0.00111922361486943566788454518246 1:45.133293 2:43.251678 3:31.420561 4:517 5:517 6:517 7:52 8:48 9:32 10:16.831495 11:16.59306 12:16.768526 13:0.99998945 14:0.99999082 15:0.99999064 #
0.027730640398905492816084006335586 1:19.700285 2:2.704536 3:20.588755 4:5 5:5 6:5 7:12 8:1 9:14 10:32.828751 11:24.132025 12:16.504457 13:0.9997642 14:0.9998703 15:0.99995703 #
-0.086409015114221943143490989314159 1:19.050285 2:13.755464 3:0.39875552 4:24 5:24 6:24 7:17 8:21 9:9 10:13.722303 11:5.1445446 12:0.81480253 13:0.999668 14:0.999753 15:0.99983734 #
-0.013060201147271082930401142618848 1:40.210308 2:54.809261 3:1.2059692 4:2 5:2 6:2 7:59 8:55 9:1 10:53.546124 11:59.494595 12:8.0617466 13:0.99977779 14:0.99987125 15:0.99996185 #
-0.014077735138367519773794356297003 1:31.65897 2:34.377865 3:36.244095 4:4 5:4 6:4 7:21 8:22 9:22 10:30.098793 11:34.614605 12:39.623989 13:0.9972291 14:0.99716955 15:0.99634653 #
-0.08755280581322302801972057295643 1:9.8864584 2:3.2553906 3:12.095143 4:2 5:2 6:2 7:14 8:7 9:0 10:12.355634 11:18.605072 12:23.971167 13:0.99795061 14:0.99878317 15:0.9993217 #
-0.058263721328801178211964639785947 1:9.3489876 2:5.7041306 3:0.19347656 4:479 5:479 6:479 7:10 8:3 9:8 10:16.316526 11:17.875647 12:30.247942 13:0.99908888 14:0.99942774 15:0.99934965 #
0.026381183272361496960911608766764 1:39.643291 2:26.421679 3:23.860561 4:509 5:509 6:509 7:43 8:30 9:27 10:17.866005 11:16.886881 12:13.692184 13:0.99999118 14:0.99998951 15:0.99999171 #
0.040766372462183619873599127458874 1:4.0997143 2:0.414536 3:9.3212442 4:362 5:362 6:362 7:19 8:8 9:4 10:18.055326 11:5.0339265 12:8.1514225 13:0.99975991 14:0.99983346 15:0.99988425 #
-0.00029223912384952754894840154520352 1:29.458969 2:32.027866 3:33.034096 4:0 5:0 6:0 7:19 8:20 9:20 10:27.741682 11:32.980072 12:37.819702 13:0.99698895 14:0.9969672 15:0.99614775 #
4.6232784738186542133897560802325e-05 1:14.246709 2:14.738321 3:19.01944 4:452 5:452 6:452 7:12 8:13 9:18 10:19.650177 11:17.035639 12:13.352151 13:0.99997598 14:0.99997735 15:0.9999792 #
-0.024371219914243583137825055473513 1:17.969715 2:11.114536 3:1.9512445 4:347 5:347 6:347 7:22 8:5 9:10 10:16.108477 11:12.734257 12:6.8424916 13:0.99978065 14:0.9998529 15:0.99990642 #
0.012889133710298317225806385977194 1:92.199867 2:67.403824 3:34.966358 4:0 5:0 6:0 7:92 8:52 9:28 10:41.600468 11:49.483562 12:27.798124 13:0.99978185 14:0.99983162 15:0.99983293 #
-0.1576943120992727043194747693633 1:3.3997142 2:0.165464 3:1.7187555 4:7 5:7 6:7 7:1 8:9 9:2 10:2.5895481 11:5.1954007 12:4.9245863 13:0.99974078 14:0.99981701 15:0.99988478 #
-0.0027552548855389602522336645051837 1:29.918987 2:17.71413 3:14.996524 4:1 5:1 6:1 7:30 8:15 9:7 10:16.619984 11:18.434761 12:31.147858 13:0.99973738 14:0.99982589 15:0.99977529 #
0.0073712789063046235682463702687528 1:13.289692 2:51.719261 3:3.0459692 4:3 5:3 6:3 7:6 8:53 9:2 10:56.05732 11:58.422901 12:5.389307 13:0.99966025 14:0.9998439 15:0.99994451 #
-0.0047141987638870119781131506897509 1:7.6332917 2:10.361679 3:9.6105614 4:1 5:1 6:1 7:7 8:10 9:9 10:11.171294 11:8.3644114 12:6.0188918 13:0.99997139 14:0.99997336 15:0.99997598 #
0.0031069185382031905273692018454312 1:18.573292 2:20.091679 3:27.430561 4:243 5:243 6:243 7:19 8:21 9:26 10:18.664394 11:16.8398 12:11.851817 13:0.99998564 14:0.99998772 15:0.99999207 #
0.61537812492175580914022248180117 1:1.7403076 2:74.169258 3:3.0459692 4:5 5:5 6:5 7:23 8:78 9:3 10:58.479401 11:58.392559 12:8.0876579 13:0.99971151 14:0.99990785 15:0.99996197 #
-0.24471753824909314722901854111115 1:97.752274 2:102.0212 3:105.49001 4:0 5:0 6:0 7:138 8:144 9:150 10:22.692785 11:24.182943 12:27.595175 13:0.99645436 14:0.99644142 15:0.99675882 #
0.0068036946329428360513702500611544 1:34.283291 2:32.711678 3:27.420561 4:498 5:498 6:498 7:37 8:35 9:31 10:26.789427 11:24.287622 12:17.696835 13:0.9999907 14:0.99999219 15:0.99999368 #
-0.0047612198215181145144470065133646 1:4.7367082 2:0.53832102 3:1.790561 4:485 5:485 6:485 7:4 8:6 9:14 10:0.29255143 11:3.5915396 12:2.520143 13:0.99996662 14:0.99996948 15:0.99997264 #
0.010415547484000586830887868927675 1:49.260284 2:65.415466 3:64.611244 4:281 5:281 6:281 7:47 8:58 9:48 10:23.764355 11:18.983793 12:34.650223 13:0.99970132 14:0.99971658 15:0.99977773 #
-0.015810226783123049187906872248277 1:1.9289876 2:5.8341308 3:11.496524 4:3 5:3 6:3 7:2 8:3 9:3 10:16.086445 11:17.821014 12:30.899027 13:0.99888676 14:0.99940664 15:0.99966943 #
-0.0007893492949837023486825415830026 1:63.639713 2:44.104534 3:11.208755 4:3 5:3 6:3 7:72 8:43 9:5 10:38.336502 11:30.024948 12:20.787064 13:0.99990571 14:0.99995899 15:0.99997902 #
2.1488247847404014356374919725301e-06 1:5.0002856 2:1.524536 3:18.151245 4:344 5:344 6:344 7:7 8:8 9:21 10:13.351948 11:3.6713459 12:4.3787975 13:0.99971431 14:0.99979842 15:0.99984127 #
-0.0024341348457136702254643978449167 1:7.6702857 2:7.0945358 3:15.918756 4:0 5:0 6:0 7:0 8:5 9:9 10:29.872799 11:21.168026 12:13.489459 13:0.99976093 14:0.99985623 15:0.99993277 #
-0.00045200252684249320189735499297967 1:21.033291 2:15.011679 3:3.480561 4:0 5:0 6:0 7:19 8:14 9:0 10:13.785394 11:12.756043 12:11.736651 13:0.99998337 14:0.99998349 15:0.99998361 #
-0.11051333109322124259588093764251 1:25.859692 2:12.500738 3:6.2940307 4:326 5:326 6:326 7:5 8:10 9:5 10:55.56279 11:57.860123 12:0.68818009 13:0.99962544 14:0.99972284 15:0.99991465 #
-0.16821999399913439843246010241273 1:2.8503077 2:25.799261 3:2.3559692 4:9 5:9 6:9 7:26 8:29 9:3 10:52.190254 11:56.967754 12:3.8736598 13:0.99968952 14:0.99979687 15:0.99994642 #
0.0012742936554739348053999492549337 1:15.152275 2:0.24119973 3:35.829987 4:329 5:329 6:329 7:16 8:1 9:32 10:33.830395 11:34.818478 12:30.480347 13:0.99842083 14:0.99872983 15:0.99963409 #
-0.044036268035125503139681768516311 1:62.24987 2:55.47382 3:27.036358 4:13 5:13 6:13 7:56 8:39 9:18 10:49.205441 11:52.654888 12:28.773991 13:0.99954915 14:0.99970162 15:0.99971652 #
0.00038912688934011896435549715533853 1:0.33028582 2:9.3545361 3:15.798756 4:1 5:1 6:1 7:8 8:8 9:9 10:22.468136 11:15.971061 12:13.897411 13:0.99977976 14:0.99986798 15:0.99994266 #
-0.00058489630964222993902978942060145 1:20.929714 2:22.334536 3:13.938756 4:1 5:1 6:1 7:28 8:20 9:8 10:19.886017 11:16.840481 12:16.180361 13:0.9998191 14:0.99990845 15:0.99996459 #
-0.0077219889110574360321925801997622 1:0.51898766 2:7.4341307 3:11.676523 4:2 5:2 6:2 7:1 8:5 9:4 10:15.953963 11:17.92329 12:30.658504 13:0.99886054 14:0.99947846 15:0.99967712 #
0.046038135004378977210848233880824 1:14.059714 2:2.7645359 3:6.0112443 4:370 5:370 6:370 7:26 8:5 9:8 10:14.237592 11:3.7689824 12:3.9960389 13:0.99975812 14:0.99982017 15:0.99988347 #
0.0056867570253080201858608688780805 1:41.123291 2:40.961678 3:42.600559 4:512 5:512 6:512 7:45 8:44 9:46 10:20.137974 11:18.96155 12:12.99086 13:0.99999142 14:0.99999303 15:0.99999595 #
0.096741784599500391106374763694475 1:14.782275 2:4.5311999 3:28.799986 4:338 5:338 6:338 7:15 8:5 9:25 10:33.108364 11:33.53793 12:28.954718 13:0.9982934 14:0.9985497 15:0.99940586 #
-0.0021238264986439326677258865316844 1:16.089714 2:22.104536 3:16.108755 4:1 5:1 6:1 7:25 8:21 9:10 10:33.049492 11:24.891741 12:16.329094 13:0.99982822 14:0.99991071 15:0.9999699 #
0.0029011669377032971162133634379643 1:44.853291 2:41.38168 3:39.490562 4:521 5:521 6:521 7:53 8:49 9:47 10:7.8888345 11:6.3137255 12:4.5699391 13:0.99998587 14:0.99998689 15:0.99998957 #
0.030712491497080673247266346947981 1:39.416458 2:83.884613 3:108.26485 4:404 5:404 6:404 7:41 8:96 9:123 10:6.7864842 11:5.6984315 12:4.7581658 13:0.99724776 14:0.99594778 15:0.99516898 #
0.0037577944645983407667699793819338 1:44.103291 2:31.47168 3:23.830561 4:516 5:516 6:516 7:54 8:38 9:26 10:12.388946 11:12.954318 12:12.317645 13:0.99998993 14:0.99998814 15:0.99998891 #
0.1174649750798884700886404175435 1:2.5167084 2:2.308321 3:1.500561 4:18 5:18 6:18 7:7 8:7 9:12 10:8.114995 11:5.953083 12:1.0340359 13:0.99997455 14:0.99997646 15:0.99997997 #
-0.0049671899915226802590950683224946 1:5.5932918 2:1.811679 3:3.0694389 4:7 5:7 6:7 7:0 8:2 9:8 10:4.6633825 11:3.5437222 12:4.7711625 13:0.99997765 14:0.9999786 15:0.99998033 #
-0.011061497776297819425894708444957 1:19.218988 2:14.394131 3:10.656524 4:488 5:488 6:488 7:19 8:12 9:3 10:15.834685 11:18.075686 12:30.792803 13:0.99933636 14:0.99965262 15:0.99961346 #
0.0017269624987785725522826396627352 1:15.353292 2:12.631679 3:13.990561 4:495 5:495 6:495 7:17 8:16 9:18 10:16.540201 11:13.811934 12:12.041203 13:0.99998367 14:0.99998498 15:0.99998784 #
1.0361614957942949237132933271166e-05 1:41.363293 2:39.40168 3:33.200562 4:271 5:271 6:271 7:49 8:46 9:38 10:15.224078 11:14.678674 12:7.4184999 13:0.99998862 14:0.99999005 15:0.9999907 #
0.00054725780913220220709469732156549 1:31.653292 2:26.06168 3:19.07056 4:527 5:527 6:527 7:26 8:22 9:11 10:1.5291075 11:0.37686101 12:6.1086426 13:0.99997801 14:0.9999786 15:0.99997932 #
0.00078316191031085891083307615190279 1:0.3967084 2:0.89167893 3:9.0705614 4:459 5:459 6:459 7:1 8:1 9:8 10:19.362989 11:16.682461 12:14.082199 13:0.99997938 14:0.99998146 15:0.99998605 #
-0.060343236614435989684235295271719 1:0.72898763 2:2.8941309 3:10.156524 4:470 5:470 6:470 7:1 8:0 9:2 10:16.176481 11:17.985155 12:30.623211 13:0.99882549 14:0.99931198 15:0.99961346 #
9.1681291762669503767058110099697e-06 1:15.539692 2:59.879261 3:1.7159692 4:1 5:1 6:1 7:6 8:67 9:1 10:55.876911 11:52.808369 12:6.9064803 13:0.99967605 14:0.99987841 15:0.99996078 #
0.021059599422485142383720813086256 1:34.15329 2:25.161678 3:35.880562 4:500 5:500 6:500 7:38 8:31 9:34 10:8.7395411 11:7.0156941 12:2.8662393 13:0.99997723 14:0.99997687 15:0.99998194 #
-0.0012549582772254860851823821121798 1:16.766708 2:13.168321 3:11.479439 4:2 5:2 6:2 7:17 8:12 9:9 10:13.215906 11:13.133408 12:11.823548 13:0.99997002 14:0.9999727 15:0.99997562 #
-0.00035021518380529115775645632169244 1:30.948969 2:33.667866 3:35.534096 4:3 5:3 6:3 7:21 8:22 9:22 10:30.514097 11:35.029911 12:40.039291 13:0.9972496 14:0.99719 15:0.99636692 #
0.04352904691946671983382444182098 1:24.099693 2:5.9692616 3:6.9759693 4:11 5:11 6:11 7:7 8:6 9:7 10:46.084499 11:35.345661 12:5.1242433 13:0.99964535 14:0.99976736 15:0.99995279 #
-0.031009891335536582390730586666905 1:14.756708 2:11.178321 3:0.69943899 4:446 5:446 6:446 7:14 8:11 9:3 10:23.973415 11:21.973751 12:16.505098 13:0.99997771 14:0.99997985 15:0.99998516 #
-0.0026923793449107336073211627081037 1:55.539715 2:47.064537 3:14.618755 4:2 5:2 6:2 7:64 8:47 9:9 10:37.837555 11:29.777321 12:20.525768 13:0.99989539 14:0.9999631 15:0.99998415 #
0.072902802594777493805366930246237 1:9.6002855 2:5.7945361 3:23.048756 4:13 5:13 6:13 7:2 8:5 9:17 10:34.744385 11:25.597321 12:17.290092 13:0.99979299 14:0.99989212 15:0.99997491 #
3.6598461256913839695359413894948e-05 1:14.733292 2:16.05168 3:15.590561 4:476 5:476 6:476 7:16 8:17 9:16 10:22.051897 11:19.837284 12:15.169938 13:0.99997914 14:0.99998111 15:0.99998367 #
0.00027254278985151814129750391657581 1:36.283291 2:34.431679 3:27.800562 4:527 5:527 6:527 7:39 8:38 9:33 10:0.63273102 11:2.4346626 12:1.9962248 13:0.99998271 14:0.99998415 15:0.99998474 #
0.00090635789213247552886798530380474 1:36.963291 2:28.501678 3:30.590561 4:514 5:514 6:514 7:40 8:32 9:33 10:4.0656023 11:6.3597531 12:2.9019675 13:0.99998444 14:0.99998397 15:0.99998724 #
-0.00034065704062796221818221198418541 1:43.200527 2:55.211285 3:45.187405 4:0 5:0 6:0 7:41 8:53 9:40 10:27.117687 11:32.000484 12:32.203327 13:0.99950594 14:0.99963975 15:0.99986416 #
0.001407628400623806008695737546077 1:5.4067082 2:0.74167895 3:8.2505608 4:458 5:458 6:458 7:4 8:1 9:9 10:26.735739 11:22.69068 12:16.873844 13:0.99998039 14:0.99998367 15:0.99998778 #
0.010675076456434126961902997265952 1:23.780285 2:29.125463 3:6.2212443 4:7 5:7 6:7 7:19 8:22 9:8 10:12.610362 11:2.3135035 12:1.6224439 13:0.99975854 14:0.99982572 15:0.99991423 #
0.059211865262677437771188238002651 1:59.831032 2:79.222137 3:104.52591 4:379 5:379 6:379 7:70 8:91 9:118 10:23.86134 11:27.99963 12:33.598541 13:0.99929118 14:0.99996614 15:1 #
0.14425945079252500136135495267808 1:12.920131 2:8.0761795 3:12.143642 4:340 5:340 6:340 7:18 8:26 9:22 10:45.406769 11:45.69627 12:21.400909 13:0.99865544 14:0.99888444 15:0.99909145 #
0.07969567092666846042092743118701 1:21.613291 2:16.361679 3:10.840561 4:494 5:494 6:494 7:31 8:26 9:24 10:3.2096446 11:0.55307287 12:4.7968764 13:0.99997735 14:0.99997777 15:0.99997896 #
3.2088802821267359277612740697805e-05 1:9.8102856 2:0.094536006 3:7.1087556 4:7 5:7 6:7 7:1 8:0 9:1 10:27.863081 11:18.73258 12:11.686931 13:0.99975163 14:0.99984097 15:0.99991274 #
-0.077748553486116755983914572425419 1:58.280525 2:67.761284 3:43.697403 4:0 5:0 6:0 7:56 8:66 9:40 10:22.387863 11:27.935844 12:29.20619 13:0.99948627 14:0.99961358 15:0.9996841 #
-0.0022468771280749200158766143431421 1:56.679714 2:45.294537 3:13.248755 4:1 5:1 6:1 7:65 8:45 9:8 10:34.378109 11:27.206259 12:18.825357 13:0.99989575 14:0.99996001 15:0.9999795 #
0.0017361429010831486152710567694157 1:46.58329 2:44.351681 3:34.32056 4:509 5:509 6:509 7:49 8:46 9:36 10:28.129892 11:25.343058 12:20.952522 13:0.99999434 14:0.99999577 15:0.99999547 #
0.056515500872308943591804109018994 1:11.499692 2:44.529263 3:0.60596925 4:5 5:5 6:5 7:10 8:51 9:0 10:54.634876 11:47.830727 12:4.3297067 13:0.99965805 14:0.99982762 15:0.99993581 #
0.0013422467218742947792087250036275 1:20.580286 2:1.2654639 3:14.048756 4:324 5:324 6:324 7:13 8:1 9:8 10:33.465416 11:24.750254 12:17.137901 13:0.99976879 14:0.99987078 15:0.99995279 #
0.05017252071814404246197227621451 1:14.583292 2:8.3816786 3:1.959439 4:494 5:494 6:494 7:27 8:23 9:7 10:1.3474998 11:2.9919 12:2.6591408 13:0.99997389 14:0.99997401 15:0.99997431 #
-2.6165050499482069013001961366172e-05 1:35.339714 2:35.784534 3:14.028755 4:1 5:1 6:1 7:44 8:36 9:9 10:37.044685 11:28.190617 12:20.569164 13:0.99986809 14:0.99994504 15:0.9999826 #
0.00014587897280326912025603947054009 1:25.323292 2:26.80168 3:28.180561 4:518 5:518 6:518 7:30 8:31 9:32 10:3.6649427 11:7.2370214 12:7.9828582 13:0.99997538 14:0.99997705 15:0.99997997 #
0.002702949981978342020028094339068 1:24.783291 2:21.31168 3:17.540562 4:494 5:494 6:494 7:30 8:28 9:24 10:19.912899 11:17.024139 12:10.588676 13:0.99998772 14:0.99998873 15:0.99999028 #
0.015189428476049694066718487306389 1:24.163292 2:24.821678 3:28.780561 4:21 5:21 6:21 7:15 8:17 9:22 10:0.047668781 11:0.02628563 12:4.0039148 13:0.9999842 14:0.99998587 15:0.99998945 #
-0.0010069798875596423955169900210649 1:6.2997141 2:14.854536 3:18.838755 4:0 5:0 6:0 7:12 8:13 9:13 10:27.502527 11:20.404886 12:13.779425 13:0.99980205 14:0.99989045 15:0.9999603 #
-0.016922411263973591299958343370236 1:10.370286 2:0.68546396 3:9.1287556 4:3 5:3 6:3 7:4 8:2 9:5 10:30.887684 11:23.501072 12:14.333838 13:0.99977028 14:0.99986166 15:0.99993664 #
0.00055372005731030293773642370069865 1:2.7767084 2:0.081678957 3:12.600561 4:459 5:459 6:459 7:1 8:1 9:11 10:5.9721656 11:2.5772259 12:0.77087611 13:0.99997121 14:0.99997336 15:0.99997926 #
-0.0230609210735682086668152379616 1:8.9767084 2:2.018321 3:1.840561 4:488 5:488 6:488 7:4 8:9 9:13 10:0.1546469 11:3.7317185 12:6.8992429 13:0.99996912 14:0.99997234 15:0.99997616 #
-0.0052888451907775564306279925119725 1:19.129869 2:36.003819 3:23.636358 4:0 5:0 6:0 7:13 8:20 9:16 10:44.645054 11:47.035191 12:23.190636 13:0.998999 14:0.99935979 15:0.99948716 #
-0.033091901074051965903066729879356 1:3.7402859 2:11.684536 3:17.198755 4:2 5:2 6:2 7:3 8:8 9:11 10:25.950472 11:17.124809 12:14.578458 13:0.9997803 14:0.99987936 15:0.9999525 #
-0.00016484269073302471042552497237921 1:27.838987 2:20.004131 3:17.736523 4:498 5:498 6:498 7:28 8:17 9:9 10:16.679226 11:18.192265 12:30.411219 13:0.99967855 14:0.99990451 15:0.99986809 #
0.00086495806673566417652199156407278 1:45.026459 2:77.274612 3:95.674858 4:420 5:420 6:420 7:41 8:82 9:106 10:3.3986237 11:12.599376 12:16.047628 13:0.99655008 14:0.99575716 15:0.99532783 #
-0.00062449936471609124311044070054777 1:28.058969 2:30.777866 3:32.644093 4:2 5:2 6:2 7:18 8:19 9:19 10:29.08913 11:33.604942 12:38.614326 13:0.99718177 14:0.99712229 15:0.99629951 #
0.012824294198628516383564601710532 1:6.7432914 2:8.4216785 3:3.8405609 4:491 5:491 6:491 7:12 8:15 9:13 10:6.5789499 11:1.9713361 12:3.8909633 13:0.9999696 14:0.99997109 15:0.99997258 #
-0.00013387089824401510185225561144762 1:48.220524 2:61.541286 3:47.157402 4:0 5:0 6:0 7:47 8:61 9:43 10:28.42795 11:33.44611 12:33.15892 13:0.9996711 14:0.99983817 15:1 #
-0.0016873917647487373175363423172257 1:67.609871 2:59.663818 3:33.056358 4:0 5:0 6:0 7:62 8:44 9:23 10:52.332863 11:53.237377 12:29.616695 13:0.9996137 14:0.99977779 15:0.99979419 #
-3.3400014212791589414484460379695e-06 1:24.173292 2:18.56168 3:3.8505609 4:0 5:0 6:0 7:25 8:18 9:1 10:15.551346 11:13.577023 12:12.168237 13:0.99997991 14:0.99997985 15:0.99997878 #
6.2566165778359474937408979400288e-05 1:16.540308 2:89.739258 3:1.2559693 4:3 5:3 6:3 7:37 8:90 9:1 10:57.451679 11:58.346287 12:8.3667316 13:0.99973488 14:0.9999314 15:0.99995971 #
-0.022082045554931740982684829077698 1:84.749718 2:27.944536 3:24.441244 4:37 5:37 6:37 7:93 8:27 9:30 10:37.894615 11:29.600519 12:20.499983 13:0.9999311 14:0.99993634 15:0.99992955 #
-3.9139428438081201718987123250315e-05 1:21.938969 2:24.657866 3:26.524094 4:4 5:4 6:4 7:12 8:13 9:13 10:30.226017 11:34.741829 12:39.751213 13:0.99759865 14:0.99753851 15:0.99671394 #
0.044269841965949512097022733314589 1:3.3667083 2:4.1883211 3:3.1394391 4:2 5:2 6:2 7:0 8:2 9:2 10:21.979891 11:20.776199 12:19.512203 13:0.99998111 14:0.99998248 15:0.99998522 #
-0.00079991707476285154113093689431935 1:87.909714 2:57.684536 3:12.808756 4:3 5:3 6:3 7:96 8:56 9:7 10:36.096336 11:28.713148 12:20.421217 13:0.9999333 14:0.99997389 15:0.99997795 #
0.0028111681270099092740111235144695 1:23.040285 2:34.625465 3:40.971245 4:136 5:136 6:136 7:19 8:39 9:51 10:19.211647 11:5.9616737 12:7.80124 13:0.99969208 14:0.99975705 15:0.99980098 #
-0.011713370631504385968590931099698 1:3.3822749 2:5.0311999 3:12.600014 4:377 5:377 6:377 7:4 8:7 9:17 10:35.098557 11:35.391552 12:31.506762 13:0.99872845 14:0.99876094 15:0.99895883 #
0.17337725460822639433899894356728 1:14.889475 2:7.3087139 3:1.362596 4:337 5:337 6:337 7:18 8:9 9:6 10:20.301241 11:25.409557 12:23.651836 13:0.99849302 14:0.99856347 15:0.99887401 #
0.019324482328388008223196692370038 1:21.389692 2:8.5892611 3:6.2659693 4:162 5:162 6:162 7:0 8:10 9:6 10:59.626171 11:64.11808 12:7.6069679 13:0.99966437 14:0.99978507 15:0.99996781 #
-0.0015842241098918872187206741131149 1:30.069714 2:26.464537 3:11.268756 4:3 5:3 6:3 7:39 8:26 9:5 10:37.735706 11:29.535143 12:22.468529 13:0.99986917 14:0.99994379 15:0.99998516 #
-0.0136360359496523354111419124024 1:59.699715 2:48.674538 3:15.208755 4:3 5:3 6:3 7:68 8:47 9:10 10:38.927963 11:30.316565 12:21.812782 13:0.99990773 14:0.99997044 15:0.99999201 #
-0.12184842858740173310305721088298 1:39.34103 2:35.622135 3:25.355906 4:460 5:460 6:460 7:50 8:48 9:39 10:26.123714 11:30.639526 12:35.506626 13:0.99910551 14:0.99901074 15:0.99786311 #
-0.10674563038849604890145883473451 1:15.071031 2:14.612134 3:9.2059059 4:471 5:471 6:471 7:26 8:27 9:23 10:28.094 11:32.491272 12:37.645462 13:0.9983182 14:0.99834144 15:0.99737948 #
0.023190603036686508603425593832981 1:54.933292 2:49.271679 3:42.48056 4:505 5:505 6:505 7:53 8:47 9:36 10:17.013277 11:11.281577 12:4.565196 13:0.99999136 14:0.99999142 15:0.99999237 #
0.030217776231328485891935997642577 1:3.0532916 2:7.5916791 3:9.8205614 4:454 5:454 6:454 7:2 8:7 9:10 10:15.232871 11:13.120093 12:10.974399 13:0.99997413 14:0.99997687 15:0.99998003 #
0.0097118973567194566420823775843019 1:35.579693 2:6.2692614 3:1.3359692 4:303 5:303 6:303 7:18 8:0 9:1 10:49.602558 11:44.899429 12:2.219481 13:0.99959803 14:0.99974716 15:0.99992108 #
0.0061651008517342193587795762255155 1:26.790285 2:27.565464 3:7.1012444 4:319 5:319 6:319 7:19 8:29 9:13 10:30.010599 11:22.204918 12:13.494234 13:0.99975705 14:0.99983299 15:0.99992585 #
-0.00014185835652960609998274321696954 1:1.5967084 2:3.9583211 3:0.22943901 4:464 5:464 6:464 7:1 8:2 9:0 10:25.147621 11:24.164846 12:20.190918 13:0.99998116 14:0.99998224 15:0.99998575 #
0.18509641314512392806790330723743 1:42.131031 2:61.222134 3:83.885902 4:157 5:157 6:157 7:61 8:87 9:116 10:5.4930186 11:7.8085389 12:10.456649 13:0.99654621 14:0.99717665 15:0.99716562 #
0.0018556741808728460796373838093132 1:11.396459 2:30.274609 3:42.954857 4:425 5:425 6:425 7:15 8:43 9:62 10:9.0465441 11:5.3362999 12:1.1882017 13:0.99821138 14:0.99790776 15:0.99734426 #
0.00035513716281017349007953498585266 1:33.663292 2:28.531679 3:25.420561 4:514 5:514 6:514 7:45 8:38 9:33 10:3.0952151 11:3.9873443 12:5.3113208 13:0.99997568 14:0.99997604 15:0.99997795 #
-0.031273645144081929636570293951081 1:16.953125 2:15.346519 3:17.956448 4:19 5:19 6:19 7:20 8:20 9:20 10:7.0732303 11:8.3688087 12:12.276442 13:0.99675357 14:0.99615133 15:0.99581039 #
-0.0246246963506407332000769372371 1:0.52329159 2:0.45167896 3:0.85056102 4:486 5:486 6:486 7:12 8:14 9:11 10:6.4209485 11:7.6267076 12:10.518229 13:0.99996829 14:0.9999696 15:0.99997264 #
0.023299172900257403284740576054901 1:47.171032 2:63.452133 3:81.925903 4:77 5:77 6:77 7:62 8:82 9:106 10:2.6331971 11:2.1402292 12:0.87541294 13:0.99762279 14:0.99814987 15:0.99794209 #
0.0011261811683802580574820240144618 1:8.0467081 2:2.328321 3:6.260561 4:448 5:448 6:448 7:8 8:3 9:6 10:11.848751 11:9.2324791 12:5.8789663 13:0.99997097 14:0.99997419 15:0.99997866 #
0.00040730091165716575396515963802813 1:22.920286 2:21.395464 3:3.7787554 4:329 5:329 6:329 7:12 8:19 9:0 10:30.379358 11:21.935545 12:14.796484 13:0.99977291 14:0.99985325 15:0.99994606 #
-0.013829533941517979656055103987455 1:26.31897 2:29.167866 3:30.854094 4:3 5:3 6:3 7:19 8:20 9:20 10:19.802271 11:24.204214 12:29.337677 13:0.9967078 14:0.9966464 15:0.99582207 #
-0.09872476152427357709573385591284 1:8.2302856 2:6.7854638 3:5.5287557 4:3 5:3 6:3 7:6 8:11 9:0 10:8.1176271 11:4.6342444 12:5.9437542 13:0.9997471 14:0.99982607 15:0.99990606 #
-0.00033447850721812777408104011556134 1:15.083292 2:10.611679 3:4.1205611 4:496 5:496 6:496 7:20 8:14 9:5 10:13.257846 11:12.132308 12:14.558948 13:0.99998188 14:0.99998218 15:0.99998307 #
0.00063630919115981003642001923026328 1:29.610525 2:29.791286 3:28.077404 4:380 5:380 6:380 7:26 8:27 9:21 10:20.804453 11:24.897989 12:25.348711 13:0.99905664 14:0.99905556 15:0.99931854 #
-0.0010320800757073200770719267893583 1:6.5432916 2:7.231679 3:3.6605611 4:487 5:487 6:487 7:15 8:14 9:10 10:9.4568796 11:7.2048917 12:8.1252327 13:0.9999786 14:0.99998075 15:0.9999826 #
7.0770309652523621934960829094052e-06 1:14.373292 2:20.931679 3:25.210562 4:457 5:457 6:457 7:13 8:17 9:22 10:11.842638 11:9.7474527 12:7.4921579 13:0.99998164 14:0.99998474 15:0.99998814 #
0.0075000138309258201560481005287784 1:41.640285 2:33.345463 3:29.531244 4:306 5:306 6:306 7:37 8:33 9:26 10:25.964951 11:13.344078 12:4.7993159 13:0.99971527 14:0.9997986 15:0.99986362 #
0.013376549933770409683830848734942 1:53.733292 2:42.771679 3:38.350559 4:513 5:513 6:513 7:53 8:44 9:40 10:20.518768 11:20.192978 12:17.546789 13:0.99999392 14:0.99999279 15:0.9999944 #
-0.01517582107337242178224379074436 1:1.2402858 2:8.7945356 3:17.398756 4:4 5:4 6:4 7:6 8:8 9:12 10:32.279182 11:22.772799 12:16.344069 13:0.99979615 14:0.99988443 15:0.99996054 #
-1.4678590334918058604718460458116e-05 1:29.929714 2:28.144535 3:14.528755 4:1 5:1 6:1 7:34 8:24 9:8 10:25.337166 11:22.542223 12:17.76874 13:0.99984771 14:0.99992514 15:0.99996829 #
2.3934357454915525676569787449921e-05 1:13.746709 2:9.8783207 3:7.4794388 4:453 5:453 6:453 7:10 8:5 9:3 10:19.950823 11:17.088703 12:11.12244 13:0.99997431 14:0.99997729 15:0.99998051 #
0.0053871072073787829026514373254031 1:56.17329 2:52.161678 3:47.560562 4:516 5:516 6:516 7:57 8:53 9:45 10:21.57406 11:19.954945 12:15.520964 13:0.99999434 14:0.99999535 15:0.99999642 #
0.10653942932504634200086002238095 1:21.166458 2:33.324608 3:40.664856 4:430 5:430 6:430 7:18 8:27 9:29 10:4.3867621 11:15.518816 12:23.150894 13:0.99671143 14:0.9964419 15:0.99611527 #
-0.0063866688937630608155493483479859 1:13.479714 2:19.104536 3:18.078756 4:0 5:0 6:0 7:19 8:16 9:10 10:26.839655 11:20.645668 12:14.23375 13:0.99979937 14:0.99988347 15:0.99994504 #
0.00096749235662190672790233803013393 1:53.443291 2:49.731678 3:45.64056 4:527 5:527 6:527 7:57 8:54 9:48 10:21.499832 11:18.485104 12:14.175607 13:0.9999941 14:0.99999481 15:0.99999624 #
0.011211568936891902481534089019988 1:51.626873 2:63.243481 3:71.603554 4:54 5:54 6:54 7:51 8:65 9:73 10:9.0265026 11:10.93779 12:13.692181 13:0.99967247 14:0.99975502 15:0.99974155 #
-9.2345763017997540747896015322915e-06 1:46.500526 2:57.571285 3:44.467403 4:0 5:0 6:0 7:45 8:56 9:40 10:25.989983 11:31.39871 12:30.969818 13:0.99948084 14:0.99960589 15:0.99977463 #
0.027265310818085808364230615552515 1:37.893291 2:29.211679 3:31.330561 4:502 5:502 6:502 7:42 8:32 9:32 10:21.458195 11:19.971352 12:15.916001 13:0.99998832 14:0.99998778 15:0.99999076 #
8.9182585257351466943159801203933e-05 1:30.920525 2:38.431286 3:32.287403 4:383 5:383 6:383 7:29 8:37 9:27 10:20.052443 11:24.373945 12:24.979649 13:0.99891078 14:0.9989987 15:0.99918741 #
0.0015743836119465428637076431783726 1:9.6067085 2:5.9483209 3:1.289439 4:6 5:6 6:6 7:11 8:7 9:3 10:0.79716831 11:1.5344453 12:0.32696381 13:0.99997681 14:0.99997944 15:0.99998307 #
-0.0099468134441535183132288011620403 1:13.126708 2:9.348321 3:4.6494389 4:451 5:451 6:451 7:11 8:7 9:4 10:21.322088 11:19.72279 12:17.029865 13:0.99997437 14:0.99997699 15:0.99998128 #
-0.020603490190271175896974398256134 1:13.750286 2:11.835464 3:0.8612445 4:308 5:308 6:308 7:21 8:24 9:7 10:2.7474191 11:0.39620262 12:5.5775552 13:0.99970585 14:0.99978948 15:0.99987561 #
0.0058753214478284160326992946465907 1:24.903292 2:22.451679 3:21.14056 4:501 5:501 6:501 7:29 8:25 9:27 10:1.6226935 11:4.2934279 12:4.0087676 13:0.99997807 14:0.99997938 15:0.99998105 #
0.00033743481736514535640480971778743 1:19.753292 2:11.861679 3:1.620561 4:497 5:497 6:497 7:19 8:9 9:0 10:13.199471 11:9.7583284 12:6.510725 13:0.99998158 14:0.99998128 15:0.99998134 #
0.0056005331798857135167102327955035 1:24.033291 2:25.121679 3:27.39056 4:492 5:492 6:492 7:27 8:28 9:32 10:20.877762 11:18.793434 12:12.976856 13:0.99998206 14:0.99998403 15:0.99998659 #
-0.089422496950783914027027776683099 1:36.560287 2:26.095465 3:0.39875552 4:6 5:6 6:6 7:27 8:26 9:3 10:27.904408 11:18.828423 12:10.386505 13:0.99969977 14:0.99978799 15:0.99988502 #
-0.0073184743321359491119437734596431 1:6.5232916 2:4.1216788 3:0.26056099 4:16 5:16 6:16 7:2 8:0 9:3 10:6.6883984 11:5.521523 12:3.0457335 13:0.99997663 14:0.99997759 15:0.99997938 #
4.0239568841881847736582922259174e-05 1:11.120308 2:99.349258 3:0.62403077 4:359 5:359 6:359 7:33 8:102 9:1 10:61.647087 11:66.852165 12:8.791791 13:0.99973458 14:0.99995977 15:0.99996209 #
-0.037584006717745865877589039882878 1:35.376709 2:28.468321 3:17.59944 4:7 5:7 6:7 7:29 8:22 9:12 10:13.126593 11:10.532325 12:8.4716473 13:0.99996793 14:0.99997115 15:0.99997652 #
6.7100103041728420549816291895695e-05 1:5.370286 2:17.915464 3:36.451244 4:348 5:348 6:348 7:4 8:17 9:42 10:19.571383 11:5.5942011 12:9.1031361 13:0.99978715 14:0.99984896 15:0.9998855 #
0.0036457063021704434746528278310507 1:2.6667085 2:5.098321 3:0.63943899 4:435 5:435 6:435 7:8 8:11 9:6 10:7.339406 11:4.2347698 12:1.2302315 13:0.99997294 14:0.99997395 15:0.99997801 #
0.000162764234126807028025726853393 1:5.4532914 2:4.421679 3:1.739439 4:499 5:499 6:499 7:8 8:8 9:3 10:2.2972503 11:3.8026745 12:7.7556047 13:0.99996912 14:0.99997056 15:0.99997145 #
-0.00093209278213945978563970129471272 1:2.292275 2:4.2111998 3:8.6600132 4:376 5:376 6:376 7:5 8:7 9:15 10:31.425402 11:31.634624 12:29.089857 13:0.9986816 14:0.99871057 15:0.99896282 #
0.013447578520121850065294211162836 1:17.660286 2:21.555464 3:3.3612444 4:328 5:328 6:328 7:9 8:20 9:8 10:26.158213 11:16.311054 12:7.0629425 13:0.99977708 14:0.99984801 15:0.99993473 #
-0.0053939844041961393372730526607484 1:66.389717 2:47.654537 3:8.6587553 4:3 5:3 6:3 7:75 8:47 9:2 10:34.8204 11:27.561262 12:19.243814 13:0.99990529 14:0.99995887 15:0.99997169 #
-0.0063265816984406936934748344469881 1:19.016708 2:13.518321 3:6.5994391 4:0 5:0 6:0 7:14 8:9 9:4 10:13.849658 11:10.792877 12:10.681984 13:0.99997133 14:0.99997437 15:0.99997902 #
-0.0084273332683023061129290454118745 1:36.529713 2:42.044537 3:18.578756 4:1 5:1 6:1 7:44 8:45 9:12 10:22.107159 11:19.65906 12:15.57555 13:0.99984962 14:0.99993443 15:0.99997085 #
0.034432160182344601073722856199311 1:31.659693 2:8.2292614 3:4.505969 4:9 5:9 6:9 7:9 8:14 9:5 10:56.612507 11:58.221859 12:5.7868042 13:0.9996385 14:0.99977261 15:0.99995941 #
-0.038028579283355908036146075801298 1:49.439713 2:27.464537 3:0.52124447 4:11 5:11 6:11 7:56 8:25 9:5 10:32.705433 11:25.352293 12:18.159481 13:0.99988109 14:0.99993294 15:0.99995762 #
0.0038113433253821327184596157167107 1:40.573292 2:37.711678 3:33.96056 4:511 5:511 6:511 7:47 8:44 9:40 10:15.34571 11:13.709578 12:11.230433 13:0.99999017 14:0.99999112 15:0.99999291 #
0.024137236434648538796476913148581 1:42.34013 2:40.226181 3:26.983643 4:319 5:319 6:319 7:49 8:59 9:36 10:40.362747 11:41.627251 12:19.464296 13:0.99842077 14:0.99864346 15:0.99894428 #
0.0022911893317796513946937864147912 1:5.1732917 2:11.231679 3:17.930561 4:483 5:483 6:483 7:10 8:17 9:23 10:15.805524 11:13.460711 12:8.1993008 13:0.99998081 14:0.99998426 15:0.99998862 #
0.044037211622549976564044982296764 1:1.3397142 2:8.6954641 3:15.301245 4:354 5:354 6:354 7:13 8:6 9:16 10:28.672314 11:15.853592 12:2.2845907 13:0.99979424 14:0.99985808 15:0.99991292 #
