SVM-light Version V6.02
0 # kernel type
3 # kernel parameter -d 
1 # kernel parameter -g 
1 # kernel parameter -s 
1 # kernel parameter -r 
empty# kernel parameter -u 
20 # highest feature index 
8469 # number of training documents 
24 # number of support vectors plus 1 
-1.0826512 # threshold b, each following line is a SV (starting with alpha*y)
-0.0029252681760707725 1:19.068964 2:1.0950199 3:10.350431 4:32 5:32 6:32 7:24 8:3 9:6 10:13.64107 11:14.93266 12:17.852173 13:39991 14:40772 15:45402 #
-0.00099408120804610504 1:28.04471 2:25.87117 3:5.5308576 4:3 5:3 6:3 7:26 8:26 9:7 10:12.790287 11:10.280344 12:6.5498195 13:91278 14:83847 15:64711 #
-0.018286396705931497 1:4.45403 2:1.7755146 3:1.9542181 4:19 5:19 6:19 7:1 8:1 9:3 10:4.1867409 11:1.2927724 12:1.1120656 13:166766 14:165442 15:163404 #
0.0017135770981979608 1:13.658315 2:29.468672 3:40.118504 4:0 5:0 6:0 7:0 8:0 9:19 10:45 11:68 12:0 13:0.73964989 14:3.4783776 15:7.216692 16:0 17:52541 18:44737 19:36130 20:49980 #
-0.00046599053987114752 1:28.92271 2:30.38957 3:12.982058 4:347 5:347 6:347 7:28 8:32 9:15 10:12.551266 11:10.314288 12:4.2832274 13:95873 14:89154 15:73446 #
0.0034633904217526894 1:11.163282 2:13.763087 3:17.489979 4:15 5:15 6:15 7:12 8:13 9:17 10:4.7341671 11:6.5957646 12:8.5867662 13:46416 14:52305 15:53114 #
-0.001935273218151231 1:17.630606 2:6.9551301 3:5.7025876 4:10 5:10 6:10 7:25 8:8 9:7 10:0.66353714 11:0.096586183 12:0.062343571 13:105840 14:80584 15:79976 #
-8.8382741230191506e-005 1:2.7487099 2:3.2475703 3:9.7611427 4:387 5:387 6:387 7:0 8:3 9:9 10:12.37304 11:9.4948187 12:5.1372066 13:90914 14:82851 15:63546 #
0.00036717133211122569 1:74.041168 2:59.216484 3:43.891418 4:180 5:180 6:180 7:78 8:63 9:46 10:7.6020808 11:8.1386433 12:7.5980492 13:129045 14:130244 15:131753 #
-0.00085423008241691301 1:4.9983101 2:16.222029 3:30.528742 4:47 5:47 6:47 7:3 8:16 9:30 10:14.74788 11:12.44255 12:9.1316948 13:81952 14:71159 15:48857 #
0.00094140887458751333 1:3.107115 2:4.4642711 3:5.8865032 4:0 5:0 6:0 7:0 8:0 9:6 10:7 11:7 12:0 13:5.2235031 14:4.6932144 15:1.9101574 16:0 17:68796 18:62847 19:54590 20:49980 #
-0.0067979066747877147 1:14.402264 2:22.883801 3:23.611217 4:31 5:31 6:31 7:17 8:25 9:27 10:3.5320492 11:0.48846033 12:0.41768035 13:146637 14:139518 15:134258 #
0.026194998410055629 1:4.335464 2:9.7710009 3:8.3032179 4:28 5:28 6:28 7:6 8:8 9:8 10:0.81338465 11:3.1203992 12:2.211982 13:163520 14:156477 15:152132 #
-9.1086604072742987e-006 1:1.1419101 2:11.334829 3:6.1683421 4:13 5:13 6:13 7:2 8:13 9:6 10:5.0837712 11:3.7922041 12:1.8884542 13:97888 14:88704 15:73520 #
-0.010403673162153484 1:14.697285 2:16.569328 3:18.143497 4:0 5:0 6:0 7:0 8:0 9:12 10:9 11:7 12:0 13:9.3525162 14:16.64572 15:22.612131 16:0 17:62703 18:58192 19:50318 20:49980 #
0.0001163587916281749 1:5.7651868 2:6.2004132 3:4.5746932 4:254 5:254 6:254 7:5 8:5 9:3 10:3.5302939 11:5.5209241 12:4.6625786 13:29823 14:29567 15:29718 #
0.0075557196975414983 1:3.6355152 2:3.4733288 3:5.5998969 4:0 5:0 6:0 7:0 8:0 9:5 10:3 11:5 12:0 13:7.2111378 14:14.411554 15:20.317078 16:0 17:65055 18:61626 19:54137 20:49980 #
0.00019295865079983586 1:44.371914 2:70.336273 3:85.373306 4:0 5:0 6:0 7:0 8:0 9:47 10:78 11:97 12:0 13:15.848941 14:23.866571 15:32.480282 16:0 17:31122 18:20520 19:5924 20:49980 #
0.0025765026210571819 1:7.1136818 2:17.995888 3:21.672779 4:13 5:13 6:13 7:9 8:17 9:20 10:3.240948 11:4.8609242 12:5.761878 13:48863 14:54682 15:55548 #
-1.028171918841477e-006 1:1.11871 2:11.13443 3:23.903942 4:47 5:47 6:47 7:1 8:11 9:25 10:12.584782 11:10.376387 12:5.9472909 13:88219 14:79513 15:59753 #
-1.4238018760662822e-010 1:9.2654066 2:1.5427301 3:1.5465877 4:252 5:252 6:252 7:9 8:1 9:1 10:16.122126 11:4.2109694 12:3.2201128 13:108578 14:86078 15:85075 #
-0.00036258528841659769 1:3.8478065 2:2.02687 3:1.5826123 4:11 5:11 6:11 7:1 8:4 9:3 10:8.2524958 11:0.3788355 12:0.061071612 13:106172 14:81444 15:80599 #
1.838874050244132e-006 1:72.027573 2:58.123684 3:43.905819 4:190 5:190 6:190 7:76 8:62 9:46 10:7.573729 11:7.5055294 12:6.9643936 13:132826 14:133360 15:134856 #
