SVM-light Version V6.02
0 # kernel type
3 # kernel parameter -d 
1 # kernel parameter -g 
1 # kernel parameter -s 
1 # kernel parameter -r 
empty# kernel parameter -u 
15 # highest feature index 
57506 # number of training documents 
137 # number of support vectors plus 1 
1.5818532 # threshold b, each following line is a SV (starting with alpha*y)
-0.00040000000000000001916869440954372 1:9.367835 2:19.15222 3:24.081232 4:244 5:244 6:244 7:3 8:14 9:18 10:15.257005 11:15.518928 12:16.504004 13:6446 14:6131 15:6186 #
0.00040000000000000001916869440954372 1:6.862165 2:4.7422199 3:7.5612316 4:21 5:21 6:21 7:12 8:1 9:2 10:16.817112 11:15.514217 12:16.222628 13:5740 14:5507 15:5515 #
-1.2185584296519595054258348204579e-06 1:26.046194 2:15.77727 3:13.925412 4:14 5:14 6:14 7:28 8:15 9:13 10:32.48983 11:13.123444 12:12.1692 13:5208 14:1478 15:1381 #
0.00040000000000000001916869440954372 1:86.846191 2:31.517269 3:27.285412 4:284 5:284 6:284 7:94 8:32 9:28 10:20.330551 11:11.226807 12:10.48503 13:3360 14:1221 15:1188 #
-0.00040000000000000001916869440954372 1:25.38883 2:31.666315 3:36.774582 4:16 5:16 6:16 7:22 8:27 9:35 10:9.6538906 11:9.439187 12:8.1982212 13:10686 14:10480 15:10396 #
-0.00040000000000000001916869440954372 1:71.426193 2:32.017269 3:25.715412 4:283 5:283 6:283 7:74 8:31 9:25 10:33.986759 11:13.359096 12:12.204 13:3410 14:798 15:796 #
4.91885265513234686972528220128e-05 1:26.137751 2:28.544905 3:33.547775 4:464 5:464 6:464 7:25 8:29 9:33 10:10.176348 11:10.864215 12:11.576057 13:2238 14:1690 15:1489 #
-0.00040000000000000001916869440954372 1:72.916191 2:30.88727 3:26.505413 4:281 5:281 6:281 7:77 8:31 9:26 10:33.750156 11:14.241694 12:13.424814 13:3129 14:615 15:564 #
-0.00026311687575338878588085411713848 1:122.46619 2:27.577271 3:32.655411 4:517 5:517 6:517 7:125 8:27 9:32 10:37.523132 11:16.07975 12:15.084518 13:1144 14:496 15:136 #
0.00040000000000000001916869440954372 1:66.456192 2:11.69727 3:14.075413 4:466 5:466 6:466 7:70 8:11 9:14 10:28.615515 11:7.9631653 12:7.3086815 13:4632 14:2564 15:2300 #
1.399165515209903356782551731019e-05 1:71.341949 2:89.20237 3:86.534225 4:409 5:409 6:409 7:80 8:104 9:102 10:15.572824 11:29.127975 12:29.467163 13:2485 14:1638 15:1738 #
7.2977625726366502929148838418882e-06 1:31.963272 2:60.509682 3:83.189896 4:389 5:389 6:389 7:34 8:67 9:93 10:18.64332 11:26.17606 12:31.701393 13:4517 14:2620 15:289 #
0.00014456114541928910544044128982932 1:73.976196 2:16.347269 3:15.765412 4:25 5:25 6:25 7:78 8:16 9:15 10:23.733133 11:6.5015421 12:5.159615 13:4211 14:2081 15:1989 #
-8.8612215575868596225024564905226e-05 1:41.995861 2:81.296028 3:113.63894 4:611 5:611 6:611 7:43 8:90 9:125 10:8.7973499 11:17.597103 12:26.79187 13:7828 14:8401 15:9453 #
-1.2064020234246268425330576856691e-05 1:11.696194 2:8.9772701 3:6.2254124 4:6 5:6 6:6 7:14 8:9 9:6 10:33.675716 11:12.922174 12:11.799998 13:5671 14:1587 15:1549 #
0.00040000000000000001916869440954372 1:73.136192 2:19.997271 3:19.195412 4:276 5:276 6:276 7:77 8:21 9:20 10:27.321964 11:7.737042 12:7.2597713 13:3690 14:1465 15:1334 #
0.00040000000000000001916869440954372 1:53.684616 2:55.733727 3:56.667744 4:143 5:143 6:143 7:58 8:58 9:58 10:28.415607 11:30.83016 12:30.419506 13:10415 14:10387 15:10432 #
0.00012364143057364994013336279010673 1:67.30619 2:10.43727 3:10.495412 4:460 5:460 6:460 7:68 8:11 9:11 10:25.581724 11:6.3880329 12:6.0713205 13:4781 14:2616 15:2506 #
1.9968387204779967274495544593549e-08 1:22.26775 2:27.604906 3:31.097776 4:218 5:218 6:218 7:20 8:27 9:31 10:10.691948 11:11.838468 12:11.857368 13:2265 14:1626 15:1506 #
-0.00040000000000000001916869440954372 1:121.37619 2:26.48727 3:31.565413 4:517 5:517 6:517 7:124 8:26 9:31 10:37.522427 11:16.079044 12:15.083813 13:1172 14:524 15:164 #
0.0002061925376930680287035357878267 1:2.1593359 2:0.75940102 3:0.07481771 4:471 5:471 6:471 7:4 8:4 9:1 10:2.7283697 11:6.3988543 12:4.6376939 13:10358 14:9226 15:8365 #
4.6563259352309107036004681701158e-05 1:21.393272 2:48.209679 3:78.659897 4:382 5:382 6:382 7:25 8:55 9:89 10:16.640909 11:23.849388 12:29.691086 13:5016 14:3183 15:551 #
5.4354330232872270938952264165978e-08 1:42.483273 2:67.379677 3:83.659897 4:403 5:403 6:403 7:45 8:75 9:94 10:19.58094 11:26.647022 12:32.410843 13:4165 14:2406 15:280 #
1.5750526206586858938164114052327e-06 1:25.887751 2:29.514906 3:33.207775 4:30 5:30 6:30 7:24 8:29 9:33 10:11.924481 11:12.088173 12:11.847812 13:2089 14:1538 15:1361 #
3.1396660636906829619301954187316e-06 1:44.403271 2:68.53968 3:83.859894 4:403 5:403 6:403 7:46 8:76 9:94 10:19.213179 11:26.723269 12:32.224171 13:4069 14:2370 15:282 #
4.973442181982386180007032171202e-07 1:42.283272 2:66.979683 3:83.189896 4:403 5:403 6:403 7:45 8:74 9:93 10:19.839411 11:26.770372 12:32.145111 13:4153 14:2394 15:309 #
1.9831148869691754750045620259158e-05 1:66.731949 2:88.802368 3:90.354225 4:400 5:400 6:400 7:76 8:104 9:107 10:14.877708 11:30.085217 12:29.968435 13:2684 14:1718 15:1620 #
6.9333698512259978545534584726002e-09 1:60.061951 2:86.352371 3:86.764221 4:405 5:405 6:405 7:68 8:102 9:103 10:14.364186 11:29.895193 12:30.058439 13:2836 14:1646 15:1572 #
-1.1585951131845150821158803647326e-06 1:6.279336 2:8.7405987 3:8.9051819 4:473 5:473 6:473 7:11 8:12 9:14 10:1.2301238 11:3.3965244 12:2.5316396 13:10735 14:9823 15:8976 #
6.8558640071777525123487839753267e-05 1:47.266872 2:43.395649 3:40.451626 4:158 5:158 6:158 7:7 8:3 9:1 10:45.736336 11:46.839764 12:46.3237 13:5677 14:5664 15:5721 #
4.0999093242839432552852146907085e-05 1:23.577749 2:28.154905 3:31.777777 4:216 5:216 6:216 7:22 8:27 9:31 10:10.741144 11:11.756756 12:11.434822 13:2150 14:1533 15:1378 #
-1.0268919301636399230969604046138e-05 1:13.925862 2:47.436031 3:69.278938 4:611 5:611 6:611 7:13 8:54 9:79 10:14.365779 11:3.9883964 12:6.4895487 13:9712 14:10053 15:10641 #
1.3850159938701449283322310324085e-05 1:47.173271 2:72.42968 3:86.109894 4:0 5:0 6:0 7:50 8:80 9:96 10:19.853046 11:27.146824 12:33.956169 13:3965 14:2183 15:26 #
3.4507683227784174850752245411467e-08 1:55.996193 2:10.08727 3:12.965412 4:10 5:10 6:10 7:59 8:10 9:12 10:29.053656 11:8.8629999 12:7.5381231 13:4590 14:2076 15:1827 #
8.8468113289984131458743021880764e-06 1:19.077749 2:18.724905 3:20.467777 4:26 5:26 6:26 7:19 8:20 9:22 10:4.4879203 11:5.2468219 12:5.3800244 13:2799 14:2365 15:2258 #
-1.0721773892200292101835497338147e-05 1:82.586197 2:33.517269 3:28.995413 4:285 5:285 6:285 7:86 8:33 9:29 10:30.974751 11:13.909637 12:12.176557 13:2882 14:604 15:609 #
2.8397054348268716515713006032229e-05 1:82.216194 2:27.267269 3:25.335413 4:35 5:35 6:35 7:85 8:28 9:26 10:24.970913 11:9.4117832 12:8.9101353 13:3907 14:1776 15:1636 #
-1.2070831749699806323405937291682e-06 1:82.016197 2:12.46727 3:19.605412 4:32 5:32 6:32 7:111 8:23 9:29 10:9.321147 11:3.5042706 12:2.6548069 13:3498 14:1689 15:1312 #
-1.3064451606428225150804099674584e-05 1:9.8393364 2:16.3606 3:15.605183 4:21 5:21 6:21 7:15 8:19 9:17 10:8.9031515 11:13.532701 12:12.551054 13:11432 14:10655 15:9745 #
-1.8953869880347979688531637187943e-05 1:3.3758023 2:3.8569241 3:1.6065066 4:497 5:497 6:497 7:2 8:3 9:1 10:10.332861 11:10.779921 12:10.813777 13:6914 14:6789 15:6626 #
-0.00024972615977169113077316353610513 1:77.642166 2:56.117779 3:36.968769 4:434 5:434 6:434 7:83 8:60 9:42 10:18.490995 11:19.773651 12:23.754053 13:3169 14:3322 15:3685 #
-0.00040000000000000001916869440954372 1:16.324198 2:14.973076 3:13.913493 4:15 5:15 6:15 7:15 8:14 9:12 10:8.4881325 11:9.1511126 12:9.6698503 13:6194 14:6093 15:6048 #
-4.8727091183773222108580741585016e-05 1:9.3058624 2:41.10603 3:46.028942 4:19 5:19 6:19 7:12 8:51 9:58 10:10.650671 11:1.5266653 12:7.5305457 13:9225 14:9614 15:9664 #
-1.2096009305179411825862702267731e-05 1:5.995862 2:44.85603 3:73.988937 4:14 5:14 6:14 7:9 8:55 9:86 10:1.2500373 11:8.0993156 12:17.337616 13:7668 14:8324 15:9238 #
1.0132584791868827289669551319773e-07 1:19.70775 2:25.334906 3:28.787777 4:24 5:24 6:24 7:20 8:27 9:30 10:5.9288197 11:6.6715169 12:6.6380825 13:2786 14:2174 15:2006 #
-2.8584032201252849991757187808616e-05 1:22.178831 2:37.226315 3:50.254581 4:11 5:11 6:11 7:17 8:33 9:49 10:16.167299 11:15.329285 12:13.470781 13:9393 14:9715 15:10008 #
-3.1015108025130261322585990130252e-07 1:35.102242 2:33.860767 3:27.166122 4:499 5:499 6:499 7:36 8:35 9:28 10:14.271355 11:13.267717 12:10.442422 13:4891 14:4395 15:3615 #
-3.1941963375731867739917152482221e-06 1:20.319336 2:22.7906 3:20.245182 4:473 5:473 6:473 7:24 8:23 9:19 10:6.6486607 11:10.546937 12:9.3171043 13:11444 14:10485 15:9530 #
-6.4479916131567597712900830053684e-05 1:119.3662 2:24.55727 3:29.195412 4:30 5:30 6:30 7:122 8:24 9:29 10:37.511662 11:15.918468 12:15.297904 13:1231 14:567 15:212 #
-1.6737849232796442994729291253719e-05 1:12.685802 2:14.116924 3:16.076506 4:13 5:13 6:13 7:24 8:25 9:28 10:17.319817 11:17.263756 12:16.973627 13:10455 14:10280 15:10299 #
1.0471703049165906214401904755773e-06 1:67.326195 2:28.107269 3:23.225412 4:284 5:284 6:284 7:63 8:28 9:24 10:19.855442 11:9.4538002 12:8.0497923 13:4053 14:1308 15:1295 #
7.639025628514171705672709464241e-07 1:23.487749 2:26.664906 3:30.467777 4:20 5:20 6:20 7:22 8:26 9:30 10:11.395804 11:11.139286 12:11.374621 13:2249 14:1698 15:1558 #
-5.1524145542909338614696868052789e-06 1:37.429337 2:41.330601 3:41.535183 4:501 5:501 6:501 7:39 8:41 9:42 10:6.2148528 11:10.858694 12:9.7076435 13:11221 14:10363 15:9471 #
-0.00021375755256157686397949779788519 1:36.215862 2:65.476028 3:84.258942 4:304 5:304 6:304 7:40 8:76 9:96 10:0.012387617 11:9.6008005 12:19.00699 13:8613 14:8838 15:9417 #
-2.9518598778642827541596267335554e-08 1:22.81883 2:24.966314 3:26.394583 4:218 5:218 6:218 7:22 8:27 9:28 10:10.002364 11:8.7391186 12:5.0357447 13:9841 14:9506 15:9481 #
-9.4709551842276943288932711251249e-05 1:40.599335 2:44.020599 3:45.045181 4:254 5:254 6:254 7:45 8:45 9:46 10:10.786538 11:15.301501 12:14.060943 13:11354 14:10422 15:9616 #
1.0025003604338866641608853449985e-06 1:53.7658 2:44.486923 3:60.323494 4:98 5:98 6:98 7:80 8:71 9:62 10:33.552525 11:45.629635 12:30.473536 13:11801 14:11833 15:8672 #
1.8806685761759422834604391083779e-05 1:22.86775 2:28.344906 3:31.337776 4:26 5:26 6:26 7:22 8:29 9:32 10:11.063973 11:10.260784 12:10.96525 13:2149 14:1550 15:1418 #
-4.9072049208482402420962442679553e-07 1:19.169336 2:23.3606 3:24.415182 4:5 5:5 6:5 7:18 8:19 9:22 10:5.9784884 11:10.33082 12:9.4200287 13:10246 14:9395 15:8577 #
2.7590808544762343035587539435971e-06 1:23.087749 2:25.844906 3:29.887777 4:216 5:216 6:216 7:22 8:25 9:29 10:10.769981 11:11.120941 12:11.427271 13:2245 14:1669 15:1519 #
-9.01897279105470643136011066332e-05 1:48.716194 2:21.577271 3:20.175413 4:23 5:23 6:23 7:55 8:22 9:21 10:26.041594 11:12.091246 12:11.183663 13:4174 14:1222 15:1026 #
0.00036127321832571602155600998251828 1:25.886873 2:22.935648 3:19.071625 4:6 5:6 6:6 7:2 8:0 9:3 10:35.460117 11:35.802635 12:34.786274 13:6167 14:6144 15:6275 #
-6.1959974924641455297806211244271e-06 1:57.562164 2:33.287781 3:11.808768 4:199 5:199 6:199 7:59 8:35 9:19 10:8.7413502 11:11.060667 12:13.243719 13:3847 14:4105 15:4665 #
-6.6962629014736427688551760606384e-06 1:10.845862 2:44.10603 3:63.418941 4:251 5:251 6:251 7:6 8:48 9:71 10:9.3521423 11:0.54769361 12:10.278202 13:9312 14:9717 15:10308 #
2.618829638142418811896060260036e-08 1:75.206871 2:74.305649 3:68.171623 4:61 5:61 6:61 7:74 8:71 9:64 10:21.86944 11:21.081177 12:21.617294 13:4228 14:4140 15:4315 #
-2.0653966466777437397187022760647e-06 1:47.924198 2:43.713078 3:43.423492 4:436 5:436 6:436 7:53 8:47 9:48 10:1.0620592 11:1.2697055 12:1.6493871 13:5904 14:5860 15:5794 #
1.5611516246204199112802184570836e-07 1:103.28687 2:105.78564 3:97.951622 4:158 5:158 6:158 7:123 8:126 9:118 10:24.399958 11:26.616508 12:25.480228 13:4260 14:3957 15:4277 #
2.6191294083026698574681156300725e-06 1:9.6880493 2:18.077631 3:17.305779 4:3 5:3 6:3 7:1 8:2 9:1 10:18.51757 11:32.004089 12:32.144096 13:4962 14:5050 15:5007 #
2.5259905673484871632764872315113e-07 1:46.93195 2:78.70237 3:77.874222 4:418 5:418 6:418 7:55 8:93 9:94 10:12.802413 11:26.799587 12:26.73444 13:3036 14:1676 15:1692 #
0.00040000000000000001916869440954372 1:21.077749 2:24.994905 3:28.907776 4:469 5:469 6:469 7:20 8:25 9:29 10:10.489655 11:10.472223 12:10.666834 13:2358 14:1779 15:1610 #
-6.9637237061724651656177296696337e-07 1:2.9464133 2:1.0208133 3:2.0818934 4:260 5:260 6:260 7:5 8:1 9:0 10:5.5653214 11:8.7221661 12:7.3551097 13:4278 14:4362 15:4482 #
-6.7523595421576691690164484516146e-08 1:9.6011915 2:12.486496 3:11.474146 4:492 5:492 6:492 7:10 8:13 9:12 10:2.8929574 11:3.5150003 12:3.5693901 13:5499 14:5303 15:5162 #
-0.00040000000000000001916869440954372 1:48.039337 2:52.160599 3:52.325184 4:41 5:41 6:41 7:49 8:51 9:51 10:15.414508 11:19.929598 12:18.96694 13:11130 14:10281 15:9403 #
2.6394144584672330920618182892312e-05 1:116.94688 2:119.65565 3:119.72163 4:145 5:145 6:145 7:131 8:134 9:135 10:8.2036858 11:8.5563869 12:10.001204 13:2597 14:2311 15:2396 #
-6.247772157067476587121671732783e-06 1:0.78619355 2:6.1072698 3:0.84541231 4:259 5:259 6:259 7:3 8:6 9:1 10:34.477924 11:13.522437 12:12.377106 13:5885 14:1596 15:1639 #
-3.117887371699819753709248537632e-07 1:33.352242 2:31.580767 3:24.406122 4:255 5:255 6:255 7:34 8:33 9:24 10:12.844728 11:14.17689 12:11.676586 13:4893 14:4398 15:3664 #
1.2806160545470634181883240465538e-05 1:116.79688 2:114.97565 3:109.72163 4:390 5:390 6:390 7:131 8:128 9:123 10:9.52036 11:8.6296911 12:9.0724201 13:2261 14:2210 15:2373 #
-7.7018418664198673440068887430243e-05 1:69.786194 2:30.597269 3:24.675413 4:285 5:285 6:285 7:73 8:31 9:25 10:33.977222 11:13.24621 12:11.763431 13:3609 14:941 15:1041 #
-9.4834294542065989883344173660973e-06 1:17.049335 2:20.340599 3:19.045183 4:12 5:12 6:12 7:18 8:18 9:17 10:5.4349933 11:10.819403 12:10.166383 13:11531 14:10586 15:9672 #
-3.1210847689572102060199393358531e-07 1:34.392242 2:31.770767 3:22.956121 4:254 5:254 6:254 7:36 8:33 9:22 10:14.271336 11:14.087043 12:10.920959 13:4837 14:4356 15:3731 #
-5.7705279028268208385965413239477e-08 1:26.192242 2:23.030767 3:16.926121 4:247 5:247 6:247 7:27 8:24 9:17 10:13.949581 11:14.102531 12:12.591854 13:5126 14:4680 15:3954 #
3.4331808472143206077556790156713e-06 1:24.667749 2:27.394905 3:31.137777 4:212 5:212 6:212 7:24 8:27 9:31 10:9.9933252 11:11.030686 12:11.161019 13:2162 14:1597 15:1439 #
2.2075193433117102513238688005215e-07 1:66.87619 2:14.14727 3:13.505412 4:11 5:11 6:11 7:68 8:13 9:12 10:29.95874 11:9.7556581 12:8.5950928 13:4528 14:2252 15:2231 #
-4.4047550789798583506171048007616e-07 1:16.418081 2:27.102913 3:20.637621 4:230 5:230 6:230 7:17 8:28 9:22 10:4.1901131 11:7.1578851 12:8.2057123 13:5055 14:4793 15:4866 #
-9.0511973474316281471074852049696e-07 1:13.649336 2:16.150599 3:17.955183 4:9 5:9 6:9 7:19 8:18 9:21 10:6.5105548 11:10.524588 12:10.231492 13:10083 14:9204 15:8330 #
-9.0784346946028876036705046459474e-08 1:15.539336 2:16.9606 3:15.355183 4:15 5:15 6:15 7:23 8:18 9:17 10:3.182718 11:8.7197599 12:8.3866959 13:10314 14:9353 15:8473 #
7.7285581992944088394054125146226e-06 1:21.35775 2:26.654905 3:30.007776 4:217 5:217 6:217 7:20 8:26 9:29 10:10.579982 11:11.349689 12:11.508533 13:2432 14:1772 15:1628 #
-6.1862046012863981651365430369793e-06 1:4.408082 2:20.902912 3:2.9376218 4:237 5:237 6:237 7:5 8:21 9:3 10:5.5872097 11:7.4763298 12:9.7279778 13:5135 14:4722 15:5102 #
-6.1414692524944743709340577719757e-08 1:2.7580819 2:12.512912 3:11.927622 4:491 5:491 6:491 7:4 8:12 9:13 10:5.1474366 11:7.6295829 12:9.9093084 13:5408 14:5182 15:4978 #
-1.7998427741052291324674145770596e-07 1:1.041918 2:12.792912 3:2.5376217 4:500 5:500 6:500 7:1 8:13 9:4 10:4.2458582 11:7.1746383 12:9.0813284 13:5575 14:5218 15:5320 #
2.5778377350801618179032721756005e-06 1:53.20195 2:77.392372 3:75.514221 4:408 5:408 6:408 7:63 8:98 9:96 10:7.7470069 11:17.23332 12:17.728985 13:3156 14:2121 15:2142 #
-0.00011622371203223735847132047638297 1:66.486191 2:29.37727 3:24.345413 4:282 5:282 6:282 7:70 8:30 9:25 10:33.636189 11:12.494707 12:11.502834 13:3691 14:951 15:969 #
-4.4103200575811952137807517293489e-07 1:11.938082 2:26.992912 3:11.437622 4:231 5:231 6:231 7:13 8:27 9:13 10:5.2092166 11:6.6163836 12:8.162714 13:4984 14:4669 15:4930 #
-3.3680959943401003156733530818912e-08 1:9.5080824 2:24.692913 3:29.147621 4:471 5:471 6:471 7:11 8:25 9:30 10:3.194787 11:4.3191719 12:7.5246119 13:5618 14:5301 15:4806 #
-0.00030858380320369541800415436050287 1:43.919334 2:48.350597 3:48.155182 4:49 5:49 6:49 7:45 8:47 9:47 10:11.120757 11:15.397654 12:14.18567 13:11243 14:10469 15:9605 #
-3.1544763646699719921795770916084e-07 1:15.458082 2:23.392912 3:20.777622 4:231 5:231 6:231 7:16 8:24 9:22 10:5.0292006 11:7.0009842 12:6.9685102 13:4856 14:4796 15:4668 #
-3.2159528583392304344399075660688e-06 1:17.228083 2:25.582912 3:20.947622 4:483 5:483 6:483 7:17 8:26 9:21 10:3.3801179 11:6.9147944 12:8.3250895 13:5161 14:4870 15:4790 #
5.1084130615869419156632041945088e-05 1:116.78687 2:119.90565 3:112.14162 4:158 5:158 6:158 7:122 8:129 9:121 10:2.5424812 11:2.4273064 12:2.2625914 13:2421 14:2199 15:2467 #
-9.6144952621208478696791105422292e-06 1:10.924695 2:12.649637 3:11.448242 4:502 5:502 6:502 7:7 8:10 9:9 10:7.5260544 11:8.4383669 12:8.5131836 13:9921 14:9934 15:9854 #
3.8873056557919838382986199576408e-05 1:65.026192 2:15.38727 3:15.895412 4:444 5:444 6:444 7:67 8:16 9:16 10:22.990417 11:7.6765556 12:6.3365574 13:4572 14:2305 15:2132 #
-1.2125320540227727507333506384857e-05 1:1.8277497 2:1.1849055 3:3.0677767 4:500 5:500 6:500 7:2 8:2 9:1 10:3.3432188 11:3.8125973 12:4.4474492 13:3427 14:3007 15:2902 #
-2.9418986493745908135540294975341e-06 1:2.6477497 2:0.72490549 3:0.91777676 4:13 5:13 6:13 7:2 8:1 9:1 10:6.4701118 11:6.3488345 12:6.5394211 13:3541 14:3181 15:3145 #
-1.0411284095154616722569626552364e-05 1:3.6422503 2:5.4050946 3:4.9722233 4:3 5:3 6:3 7:5 8:6 9:6 10:6.4802465 11:6.555789 12:6.8805137 13:3470 14:3106 15:3063 #
0.0002286418892660526357152317444843 1:92.504616 2:98.833725 3:97.667747 4:143 5:143 6:143 7:99 8:108 9:106 10:2.6938553 11:1.2225227 12:0.83705485 13:10303 14:10406 15:10370 #
-1.3619954401761495232413084165157e-07 1:0.67619359 2:6.11727 3:1.9054123 4:258 5:258 6:258 7:3 8:6 9:1 10:31.206253 11:10.408692 12:8.794014 13:6811 14:2471 15:2503 #
6.3374526945289886116843836028067e-06 1:88.256195 2:19.48727 3:19.125412 4:35 5:35 6:35 7:91 8:20 9:20 10:26.1966 11:7.9037199 12:6.6035433 13:4304 14:2574 15:2400 #
-1.0042194809956397905104097389994e-07 1:18.54883 2:24.986315 3:30.524582 4:40 5:40 6:40 7:18 8:26 9:36 10:0.43988916 11:5.4679503 12:10.284232 13:9513 14:9460 15:9447 #
4.6552651731574421511993845668176e-07 1:69.691948 2:89.922371 3:87.414223 4:143 5:143 6:143 7:77 8:107 9:103 10:13.407167 11:29.373077 12:28.387056 13:2385 14:1314 15:1411 #
-2.5501048211876153892774254927645e-05 1:28.835863 2:67.30603 3:98.128944 4:584 5:584 6:584 7:30 8:75 9:107 10:3.8456247 11:13.460443 12:22.546591 13:8136 14:8691 15:9716 #
9.6483693974083186654239208124295e-07 1:26.157749 2:30.074905 3:33.667778 4:216 5:216 6:216 7:25 8:29 9:33 10:10.674582 11:10.945537 12:10.916477 13:2170 14:1596 15:1452 #
0.00027789236125411425747805393982048 1:51.156193 2:4.7072701 3:7.6154122 4:3 5:3 6:3 7:55 8:4 9:6 10:25.794529 11:6.9921055 12:5.3313794 13:4407 14:2015 15:1729 #
-1.6106465801666672321180995286483e-05 1:2.8161936 2:7.1272697 3:2.2454123 4:398 5:398 6:398 7:5 8:7 9:2 10:34.301113 11:13.107481 12:12.109691 13:5792 14:1561 15:1559 #
-2.7280147858341294335417974523811e-08 1:0.75380641 2:4.4872699 3:1.4554123 4:395 5:395 6:395 7:2 8:3 9:0 10:28.725233 11:9.0515795 12:7.5528564 13:7130 14:2798 15:2764 #
-1.5771007310713696315167351574837e-08 1:0.070664063 2:6.6805987 3:4.4651823 4:26 5:26 6:26 7:0 8:5 9:2 10:9.0744114 11:13.7229 12:12.446018 13:10457 14:9684 15:8744 #
-7.0896429810679792798641142559379e-07 1:5.2361937 2:4.2472701 3:3.7054124 4:256 5:256 6:256 7:7 8:4 9:3 10:32.782257 11:12.998688 12:11.112457 13:5697 14:1628 15:1483 #
-1.4000266551781089658084561433427e-07 1:23.04883 2:23.556314 3:23.044582 4:9 5:9 6:9 7:17 8:19 9:22 10:11.485874 11:9.5832453 12:7.826653 13:10799 14:10543 15:10178 #
-0.00017477437358609515527518851740751 1:58.666195 2:24.73727 3:24.345413 4:278 5:278 6:278 7:66 8:26 9:25 10:25.593176 11:9.8784962 12:9.4888258 13:4104 14:1136 15:976 #
0.00027454992279657419729232969984878 1:80.274612 2:79.403725 3:75.567741 4:399 5:399 6:399 7:95 8:98 9:94 10:15.196332 11:20.108122 12:20.866575 13:9836 14:9723 15:9579 #
0.00018886189761369733919153801604551 1:67.844612 2:70.513725 3:71.587746 4:143 5:143 6:143 7:75 8:79 9:81 10:19.439501 11:22.3204 12:21.64744 13:10341 14:10378 15:10374 #
-2.0400659611218765213331086116888e-05 1:41.006195 2:17.747271 3:15.275413 4:20 5:20 6:20 7:51 8:21 9:18 10:15.882671 11:5.0204821 12:5.2454958 13:4551 14:1215 15:1131 #
-1.321878810795600259621156158385e-06 1:9.6577501 2:7.9749055 3:7.1677766 4:485 5:485 6:485 7:12 8:11 9:10 10:0.67832398 11:1.0163393 12:1.1618738 13:3384 14:3007 15:2984 #
-9.1612912888433665787191878537854e-06 1:13.877749 2:11.954906 3:12.147777 4:17 5:17 6:17 7:14 8:13 9:13 10:6.4931374 11:6.37186 12:6.5624471 13:3304 14:2944 15:2908 #
-7.3317523047261829816177020058277e-08 1:8.79883 2:7.8363147 3:3.8645818 4:22 5:22 6:22 7:6 8:8 9:9 10:3.6088157 11:1.0732373 12:1.1073633 13:10204 14:9783 15:9383 #
-1.1036977727041057006640296499905e-07 1:29.825863 2:58.496033 3:70.708939 4:611 5:611 6:611 7:30 8:63 9:84 10:18.0914 11:10.061822 12:1.5232753 13:9775 14:10023 15:10271 #
7.8300152352787715571188608548736e-08 1:68.776192 2:18.857269 3:16.555412 4:470 5:470 6:470 7:74 8:21 9:18 10:25.64691 11:7.5621457 12:5.9685707 13:4359 14:1973 15:1819 #
0.00011316648715277433101533688386553 1:65.601921 2:75.507088 3:81.782379 4:67 5:67 6:67 7:70 8:83 9:90 10:21.287775 11:20.084244 12:18.706692 13:10537 14:11087 15:11020 #
5.7548938416012396462970862609509e-05 1:64.784698 2:63.839638 3:67.36824 4:98 5:98 6:98 7:87 8:83 9:90 10:16.388124 11:20.693348 12:18.733326 13:12510 14:12381 15:12466 #
7.8828874961658152855861628541256e-07 1:58.936195 2:11.60727 3:9.6654119 4:454 5:454 6:454 7:62 8:11 9:10 10:25.358053 11:7.6156812 12:6.9960208 13:4539 14:2091 15:1999 #
-1.5581732986586759465976945171484e-05 1:4.1046948 2:4.4496374 3:11.348243 4:26 5:26 6:26 7:9 8:10 9:16 10:5.4431863 11:6.8668404 12:6.2975931 13:10109 14:10068 15:10255 #
-8.3616968635260287692042224187011e-08 1:1.9961935 2:5.4372702 3:3.0254123 4:255 5:255 6:255 7:4 8:5 9:2 10:31.758984 11:10.771596 12:9.7351122 13:6386 14:2178 15:2094 #
-6.9046231085922677254928766284875e-08 1:20.855862 2:60.89603 3:86.868942 4:611 5:611 6:611 7:23 8:67 9:98 10:11.571966 11:0.6069476 12:10.453866 13:8628 14:9297 15:10065 #
2.5807463084026273429606376796919e-05 1:74.466194 2:21.697269 3:19.825413 4:475 5:475 6:475 7:79 8:21 9:19 10:22.654921 11:7.0601816 12:6.6546583 13:4343 14:2124 15:1968 #
1.3477328334917458005142928967324e-05 1:83.486191 2:27.197269 3:24.495413 4:35 5:35 6:35 7:84 8:29 9:26 10:20.727198 11:7.839798 12:6.7812977 13:3730 14:1780 15:1582 #
3.2938018151699764704060579764699e-07 1:37.823273 2:61.129681 3:72.759895 4:397 5:397 6:397 7:41 8:71 9:87 10:15.224187 11:19.698868 12:22.510418 13:4644 14:2917 15:980 #
8.7176610893738091627853904405643e-07 1:49.20327 2:70.85968 3:82.469894 4:410 5:410 6:410 7:52 8:78 9:93 10:18.371281 11:25.784216 12:31.680407 13:3940 14:2297 15:454 #
-5.1475472587558968203241133165804e-06 1:65.681915 2:76.497086 3:84.582375 4:371 5:371 6:371 7:78 8:91 9:100 10:28.010845 11:25.057842 12:23.05266 13:9466 14:9996 15:9982 #
