SVM-light Version V6.02
0 # kernel type
3 # kernel parameter -d 
1 # kernel parameter -g 
1 # kernel parameter -s 
1 # kernel parameter -r 
empty# kernel parameter -u 
15 # highest feature index 
57506 # number of training documents 
312 # number of support vectors plus 1 
1.781748 # threshold b, each following line is a SV (starting with alpha*y)
-0.00064999999999999997016275621319892 1:9.367835 2:19.15222 3:24.081232 4:244 5:244 6:244 7:3 8:14 9:18 10:15.257005 11:15.518928 12:16.504004 13:6446 14:6131 15:6186 #
0.00064999999999999997016275621319892 1:6.862165 2:4.7422199 3:7.5612316 4:21 5:21 6:21 7:12 8:1 9:2 10:16.817112 11:15.514217 12:16.222628 13:5740 14:5507 15:5515 #
-0.00064999999999999997016275621319892 1:71.426193 2:32.017269 3:25.715412 4:283 5:283 6:283 7:74 8:31 9:25 10:33.986759 11:13.359096 12:12.204 13:3410 14:798 15:796 #
0.00064999999999999997016275621319892 1:2.1593359 2:0.75940102 3:0.07481771 4:471 5:471 6:471 7:4 8:4 9:1 10:2.7283697 11:6.3988543 12:4.6376939 13:10358 14:9226 15:8365 #
-0.00064999999999999997016275621319892 1:25.38883 2:31.666315 3:36.774582 4:16 5:16 6:16 7:22 8:27 9:35 10:9.6538906 11:9.439187 12:8.1982212 13:10686 14:10480 15:10396 #
-0.00064999999999999997016275621319892 1:121.37619 2:26.48727 3:31.565413 4:517 5:517 6:517 7:124 8:26 9:31 10:37.522427 11:16.079044 12:15.083813 13:1172 14:524 15:164 #
-0.00064999999999999997016275621319892 1:10.045862 2:21.486031 3:26.69894 4:517 5:517 6:517 7:14 8:29 9:38 10:3.7869902 11:18.252758 12:27.070101 13:6751 14:6387 15:6560 #
0.00064999999999999997016275621319892 1:86.846191 2:31.517269 3:27.285412 4:284 5:284 6:284 7:94 8:32 9:28 10:20.330551 11:11.226807 12:10.48503 13:3360 14:1221 15:1188 #
-0.00064999999999999997016275621319892 1:122.46619 2:27.577271 3:32.655411 4:517 5:517 6:517 7:125 8:27 9:32 10:37.523132 11:16.07975 12:15.084518 13:1144 14:496 15:136 #
1.4305367831562998404137942998204e-06 1:22.895863 2:58.03603 3:87.92894 4:571 5:571 6:571 7:26 8:65 9:96 10:2.0342968 11:10.357262 12:17.741425 13:7462 14:7982 15:8965 #
0.00064999999999999997016275621319892 1:66.456192 2:11.69727 3:14.075413 4:466 5:466 6:466 7:70 8:11 9:14 10:28.615515 11:7.9631653 12:7.3086815 13:4632 14:2564 15:2300 #
0.00064999999999999997016275621319892 1:26.137751 2:28.544905 3:33.547775 4:464 5:464 6:464 7:25 8:29 9:33 10:10.176348 11:10.864215 12:11.576057 13:2238 14:1690 15:1489 #
0.00064999999999999997016275621319892 1:67.326195 2:28.107269 3:23.225412 4:284 5:284 6:284 7:63 8:28 9:24 10:19.855442 11:9.4538002 12:8.0497923 13:4053 14:1308 15:1295 #
-0.00064999999999999997016275621319892 1:72.916191 2:30.88727 3:26.505413 4:281 5:281 6:281 7:77 8:31 9:26 10:33.750156 11:14.241694 12:13.424814 13:3129 14:615 15:564 #
-1.1826068298180948402649817485788e-05 1:18.719074 2:22.318998 3:19.646685 4:28 5:28 6:28 7:21 8:29 9:29 10:17.822733 11:23.788179 12:28.71265 13:5425 14:4446 15:3602 #
0.00064999999999999997016275621319892 1:66.87619 2:14.14727 3:13.505412 4:11 5:11 6:11 7:68 8:13 9:12 10:29.95874 11:9.7556581 12:8.5950928 13:4528 14:2252 15:2231 #
0.00064999999999999997016275621319892 1:65.601921 2:75.507088 3:81.782379 4:67 5:67 6:67 7:70 8:83 9:90 10:21.287775 11:20.084244 12:18.706692 13:10537 14:11087 15:11020 #
-0.00064999999999999997016275621319892 1:58.666195 2:24.73727 3:24.345413 4:278 5:278 6:278 7:66 8:26 9:25 10:25.593176 11:9.8784962 12:9.4888258 13:4104 14:1136 15:976 #
1.4932184869542553410444625516806e-08 1:21.759075 2:38.528999 3:50.506683 4:30 5:30 6:30 7:24 8:47 9:62 10:15.704871 11:20.772274 12:24.073421 13:5448 14:4088 15:2601 #
0.00064999999999999997016275621319892 1:77.066193 2:17.36727 3:17.015411 4:277 5:277 6:277 7:83 8:17 9:17 10:23.948509 11:7.0851822 12:6.230998 13:3841 14:1845 15:1719 #
-0.00064999999999999997016275621319892 1:33.315861 2:68.526031 3:88.198944 4:611 5:611 6:611 7:37 8:79 9:99 10:5.7052774 11:3.4993322 12:12.808231 13:8876 14:9401 15:9937 #
-0.00050130636601231786698973369453824 1:0.070925027 2:1.9410017 3:3.9133153 4:456 5:456 6:456 7:2 8:5 9:6 10:16.77322 11:24.554235 12:30.845022 13:6193 14:5348 15:4371 #
-0.00064999999999999997016275621319892 1:0.29408997 2:21.49683 3:35.218742 4:47 5:47 6:47 7:5 8:23 9:37 10:11.048006 11:8.229003 12:8.9448891 13:7469 14:5428 15:1431 #
0.00064999999999999997016275621319892 1:21.077749 2:24.994905 3:28.907776 4:469 5:469 6:469 7:20 8:25 9:29 10:10.489655 11:10.472223 12:10.666834 13:2358 14:1779 15:1610 #
-0.00010368613358792308195080456023618 1:36.516193 2:14.77727 3:13.935412 4:440 5:440 6:440 7:43 8:16 9:15 10:24.598934 11:8.5355835 12:7.3696146 13:5114 14:1677 15:1487 #
-1.3688971759684420703706564381719e-05 1:37.004089 2:43.49683 3:24.378742 4:407 5:407 6:407 7:38 8:43 9:23 10:16.87126 11:14.876091 12:11.389966 13:6458 14:4990 15:2236 #
0.00064999999999999997016275621319892 1:67.30619 2:10.43727 3:10.495412 4:460 5:460 6:460 7:68 8:11 9:11 10:25.581724 11:6.3880329 12:6.0713205 13:4781 14:2616 15:2506 #
-0.00046116543154365034935804334992326 1:15.839075 2:18.888998 3:11.846684 4:200 5:200 6:200 7:20 8:28 9:23 10:12.969558 11:19.401484 12:25.736046 13:5589 14:4682 15:3887 #
-9.70437468061287095318079298778e-07 1:29.799074 2:27.898998 3:26.526684 4:424 5:424 6:424 7:33 8:35 9:37 10:16.562181 11:24.465986 12:29.839046 13:5270 14:4305 15:3324 #
0.00064999999999999997016275621319892 1:11.81775 2:17.264906 3:20.587776 4:473 5:473 6:473 7:14 8:21 9:24 10:4.2509279 11:3.5758293 12:4.0197415 13:3137 14:2495 15:2352 #
-3.7260885602960654161552866980855e-05 1:45.515862 2:81.316032 3:108.05894 4:43 5:43 6:43 7:46 8:88 9:116 10:11.208011 11:20.597029 12:29.794836 13:7947 14:8444 15:9350 #
0.00064999999999999997016275621319892 1:65.026192 2:15.38727 3:15.895412 4:444 5:444 6:444 7:67 8:16 9:16 10:22.990417 11:7.6765556 12:6.3365574 13:4572 14:2305 15:2132 #
-0.00064999999999999997016275621319892 1:43.119694 2:47.055309 3:51.048668 4:196 5:196 6:196 7:44 8:56 9:58 10:18.78014 11:20.962349 12:21.099051 13:3961 14:3759 15:3684 #
-5.2209447860297027993047198901611e-06 1:16.549074 2:19.558998 3:13.826685 4:22 5:22 6:22 7:16 8:27 9:23 10:14.871051 11:21.543987 12:29.318695 13:5542 14:4639 15:3774 #
-0.00017460413112040107375122488519992 1:37.874088 2:43.846828 3:30.888742 4:47 5:47 6:47 7:40 8:45 9:31 10:19.064104 11:17.298927 12:9.8054161 13:6158 14:4673 15:1839 #
0.00064999999999999997016275621319892 1:47.266872 2:43.395649 3:40.451626 4:158 5:158 6:158 7:7 8:3 9:1 10:45.736336 11:46.839764 12:46.3237 13:5677 14:5664 15:5721 #
0.00064995686059888938858331020043124 1:32.461952 2:69.142372 3:69.704224 4:423 5:423 6:423 7:42 8:86 9:87 10:15.06139 11:28.376654 12:28.500948 13:3775 14:2259 15:2236 #
-0.00064999999999999997016275621319892 1:31.86409 2:49.236828 3:14.708742 4:13 5:13 6:13 7:36 8:53 9:14 10:14.653876 11:12.867985 12:9.9231348 13:6351 14:4434 15:2409 #
-2.9379610730872687518716156879206e-06 1:11.729075 2:10.978998 3:5.6666846 4:30 5:30 6:30 7:14 8:20 9:15 10:9.2068577 11:15.959885 12:24.549839 13:5896 14:5028 15:4176 #
-8.8821143481675812405987460729229e-06 1:28.549074 2:34.348999 3:30.516685 4:417 5:417 6:417 7:32 8:44 9:43 10:13.220915 11:20.735579 12:26.983002 13:5218 14:4199 15:3292 #
-6.7691224630123312503045263088808e-05 1:12.483633 2:14.490209 3:17.854708 4:16 5:16 6:16 7:13 8:16 9:21 10:15.387932 11:17.373392 12:20.208052 13:7356 14:7320 15:7536 #
2.7303463135357620306142742124325e-08 1:6.3793359 2:4.940599 3:3.4851823 4:231 5:231 6:231 7:14 8:9 9:5 10:6.9843936 11:11.378908 12:10.811215 13:9723 14:8676 15:7675 #
0.00064999999999999997016275621319892 1:74.466194 2:21.697269 3:19.825413 4:475 5:475 6:475 7:79 8:21 9:19 10:22.654921 11:7.0601816 12:6.6546583 13:4343 14:2124 15:1968 #
-1.2222907727845074688345985980398e-05 1:7.5511699 2:12.663686 3:18.075418 4:229 5:229 6:229 7:10 8:16 9:20 10:7.5035367 11:7.3620701 12:8.0711517 13:7798 14:7243 15:6782 #
-0.00064999999999999997016275621319892 1:9.6577501 2:7.9749055 3:7.1677766 4:485 5:485 6:485 7:12 8:11 9:10 10:0.67832398 11:1.0163393 12:1.1618738 13:3384 14:3007 15:2984 #
-0.00064999999999999997016275621319892 1:12.366194 2:0.93726999 3:3.1654124 4:233 5:233 6:233 7:11 8:1 9:2 10:1.5137799 11:0.59890926 12:1.3863295 13:7313 14:3345 15:3195 #
-0.00064999999999999997016275621319892 1:82.586197 2:33.517269 3:28.995413 4:285 5:285 6:285 7:86 8:33 9:29 10:30.974751 11:13.909637 12:12.176557 13:2882 14:604 15:609 #
0.00064999999999999997016275621319892 1:17.247749 2:26.504906 3:29.277777 4:465 5:465 6:465 7:17 8:28 9:31 10:5.5972362 11:5.3475347 12:5.4209166 13:3257 14:2508 15:2367 #
2.7471273938492802072462717344337e-07 1:20.364695 2:17.989637 3:9.1882429 4:500 5:500 6:500 7:23 8:23 9:11 10:4.0714684 11:3.9067764 12:8.0564251 13:8074 14:7950 15:7577 #
-0.00064999999999999997016275621319892 1:20.319336 2:22.7906 3:20.245182 4:473 5:473 6:473 7:24 8:23 9:19 10:6.6486607 11:10.546937 12:9.3171043 13:11444 14:10485 15:9530 #
0.00064999999999999997016275621319892 1:53.7658 2:44.486923 3:60.323494 4:98 5:98 6:98 7:80 8:71 9:62 10:33.552525 11:45.629635 12:30.473536 13:11801 14:11833 15:8672 #
-0.00064999999999999997016275621319892 1:1.109075 2:18.098999 3:37.836685 4:10 5:10 6:10 7:4 8:27 9:49 10:16.328819 11:21.185217 12:23.731396 13:6170 14:4817 15:3150 #
-0.00064999999999999997016275621319892 1:14.555862 2:39.666031 3:60.528942 4:586 5:586 6:586 7:25 8:63 9:91 10:5.419704 11:4.5522785 12:5.3183861 13:7017 14:7137 15:7756 #
0.00064999999999999997016275621319892 1:53.684616 2:55.733727 3:56.667744 4:143 5:143 6:143 7:58 8:58 9:58 10:28.415607 11:30.83016 12:30.419506 13:10415 14:10387 15:10432 #
-0.00064999999999999997016275621319892 1:9.7258625 2:48.276031 3:76.42894 4:573 5:573 6:573 7:12 8:58 9:88 10:5.0497675 11:14.635037 12:23.744667 13:7071 14:7685 15:8560 #
-0.00064999999999999997016275621319892 1:5.995862 2:44.85603 3:73.988937 4:14 5:14 6:14 7:9 8:55 9:86 10:1.2500373 11:8.0993156 12:17.337616 13:7668 14:8324 15:9238 #
-1.5280899323528410356509699141725e-08 1:35.4781 2:46.24929 3:51.037102 4:217 5:217 6:217 7:34 8:44 9:49 10:9.5882559 11:17.014547 12:20.067816 13:4219 14:3951 15:3211 #
0.00064999999999999997016275621319892 1:76.744698 2:33.259636 3:48.768242 4:442 5:442 6:442 7:79 8:27 9:45 10:16.293861 11:12.250205 12:15.015124 13:9199 14:7440 15:7973 #
-4.5616847867871582650244402512563e-07 1:31.648098 2:42.769291 3:58.537102 4:27 5:27 6:27 7:30 8:40 9:57 10:8.1791029 11:16.719589 12:19.727802 13:4433 14:4086 15:2995 #
1.0873154669841467649904443934505e-06 1:8.2851009 2:1.4420232 3:1.8066738 4:270 5:270 6:270 7:10 8:2 9:3 10:6.2975512 11:3.1144474 12:6.4057975 13:5875 14:6355 15:6207 #
6.2836851288217631609361868427754e-05 1:5.6211696 2:5.4536853 3:3.0054181 4:59 5:59 6:59 7:12 8:16 9:11 10:3.7058165 11:10.14594 12:13.360368 13:8720 14:8508 15:8418 #
0.00016018827639554712055115770485969 1:21.393272 2:48.209679 3:78.659897 4:382 5:382 6:382 7:25 8:55 9:89 10:16.640909 11:23.849388 12:29.691086 13:5016 14:3183 15:551 #
0.0002430570204285803503907459344191 1:4.229075 2:1.3689983 3:0.23668469 4:448 5:448 6:448 7:7 8:9 9:12 10:16.074993 11:22.434149 12:28.43614 13:6113 14:5428 15:4391 #
5.8215308526715552690962429682742e-05 1:2.0777497 2:1.2749054 3:3.2277768 4:1 5:1 6:1 7:1 8:1 9:3 10:6.9258146 11:6.5096459 12:6.630908 13:3617 14:3189 15:3061 #
0.00012517652100108023205393692478538 1:10.029336 2:13.270599 3:11.325182 4:204 5:204 6:204 7:8 8:9 9:9 10:8.2404461 11:13.609518 12:13.240321 13:10281 14:9392 15:8462 #
0.00020761696102161719679202178667765 1:8.9377499 2:10.354905 3:11.027777 4:236 5:236 6:236 7:10 8:11 9:12 10:3.0379848 11:1.7362443 12:1.4616477 13:3328 14:2842 15:2770 #
7.9668050277229225300925155583975e-06 1:5.5393357 2:5.0405989 3:4.1751823 4:207 5:207 6:207 7:1 8:1 9:0 10:6.4902086 11:11.942319 12:11.236792 13:9884 14:8841 15:7832 #
7.8534299008378878875075157495189e-05 1:5.08775 2:10.944905 3:15.347776 4:221 5:221 6:221 7:9 8:18 9:23 10:0.95494562 11:2.7162085 12:3.0880761 13:3618 14:2961 15:2819 #
3.407234777795817962006133181041e-06 1:8.0851011 2:2.7220232 3:5.3666739 4:269 5:269 6:269 7:10 8:3 9:6 10:5.7538886 11:3.0497301 12:6.3179073 13:6014 14:6395 15:6387 #
-9.4387202835624628427524385188008e-05 1:50.806194 2:23.22727 3:22.585413 4:444 5:444 6:444 7:52 8:23 9:22 10:30.775124 11:11.212062 12:10.527217 13:4638 14:1543 15:1424 #
0.00026286816568876769650842106784694 1:6.2706642 2:3.599401 3:6.4948177 4:445 5:445 6:445 7:6 8:4 9:9 10:6.531435 11:11.219722 12:10.316796 13:9975 14:9060 15:8124 #
8.0127490481892047152843311375037e-06 1:9.4059105 2:48.43317 3:130.01126 4:374 5:374 6:374 7:5 8:46 9:133 10:17.079201 11:12.823461 12:3.2959876 13:8179 14:8480 15:8291 #
-7.1315158478509697707360681651068e-07 1:96.932167 2:76.167778 3:56.768768 4:151 5:151 6:151 7:101 8:80 9:61 10:18.158199 11:20.384085 12:22.917528 13:2521 14:2622 15:3005 #
-1.6854245387092222328850876778006e-05 1:44.714138 2:29.893969 3:29.41106 4:52 5:52 6:52 7:46 8:23 9:20 10:3.9546986 11:11.428319 12:18.283155 13:5262 14:5036 15:4895 #
-0.00064999999999999997016275621319892 1:81.904694 2:48.129639 3:38.888241 4:221 5:221 6:221 7:80 8:47 9:38 10:21.211691 11:21.062595 12:21.003681 13:9277 14:7852 15:7524 #
1.0165536066856335572052352778094e-05 1:1.5922502 2:1.4449055 3:5.8477769 4:238 5:238 6:238 7:2 8:1 9:6 10:2.6423392 11:1.8290709 12:2.0980852 13:3947 14:3377 15:3222 #
9.9613613554642432292539344640403e-06 1:23.529076 2:38.639 3:53.926685 4:405 5:405 6:405 7:24 8:45 9:63 10:12.439978 11:16.846622 12:22.938534 13:5501 14:4137 15:2665 #
-4.0469600084638016238190662450525e-09 1:30.209076 2:28.638998 3:26.166685 4:196 5:196 6:196 7:33 8:36 9:36 10:17.784222 11:25.028845 12:30.315477 13:4980 14:4254 15:3331 #
-2.2127754708667346505990281002596e-05 1:97.652168 2:81.06778 3:71.508766 4:113 5:113 6:113 7:103 8:85 9:77 10:17.383329 11:18.894518 12:21.750784 13:2314 14:2305 15:2491 #
8.490746289699925099641046773169e-08 1:7.1958623 2:36.12603 3:46.878941 4:271 5:271 6:271 7:7 8:42 9:58 10:2.8677096 11:11.738484 12:20.010744 13:7688 14:7994 15:8215 #
8.2687946190212626400165354945138e-06 1:0.52774978 2:0.2049055 3:0.30222324 4:10 5:10 6:10 7:1 8:0 9:1 10:0.069573127 11:0.29235446 12:0.074635796 13:4341 14:3954 15:3946 #
-0.0005442479119812521082266698613239 1:100.46217 2:83.807777 3:73.828766 4:138 5:138 6:138 7:106 8:89 9:79 10:14.60104 11:15.988355 12:20.060471 13:2202 14:2173 15:2239 #
-2.6006219858947016624903459313875e-08 1:36.240925 2:40.901001 3:45.063316 4:263 5:263 6:263 7:33 8:34 9:35 10:15.887056 11:22.051743 12:27.799629 13:7609 14:7038 15:6043 #
2.4910689027267273094618654782906e-05 1:10.529075 2:18.668999 3:23.666685 4:29 5:29 6:29 7:16 8:30 9:39 10:9.3201532 11:10.636459 12:13.03867 13:6290 14:5298 15:4127 #
1.581464922532178560277138501533e-08 1:26.304695 2:25.659637 3:25.518242 4:250 5:250 6:250 7:25 8:24 9:26 10:3.2021334 11:2.4579852 12:2.5668786 13:8336 14:8241 15:8202 #
1.2118917747197359763484426908864e-06 1:10.935863 2:53.866032 3:87.17894 4:611 5:611 6:611 7:18 8:65 9:104 10:1.7414248 11:3.175837 12:5.4879107 13:7425 14:8191 15:9131 #
1.7309322667323723900266799202718e-06 1:4.4358621 2:33.616032 3:48.398941 4:3 5:3 6:3 7:8 8:44 9:61 10:7.5394197 11:2.5288804 12:10.158588 13:7920 14:8164 15:8596 #
4.3113369602219462915272153724633e-07 1:0.96530497 2:2.6996374 3:3.0682425 4:261 5:261 6:261 7:6 8:5 9:3 10:0.29696327 11:0.31526604 12:0.21040818 13:7973 14:7972 15:7967 #
6.9187046202100164834386010481726e-07 1:1.2778352 2:24.147779 3:31.238768 4:17 5:17 6:17 7:5 8:33 9:43 10:14.483806 11:5.6231308 12:6.820395 13:5997 14:4487 15:3960 #
1.8187880733949495932502921167334e-07 1:23.865862 2:56.116032 3:86.188942 4:578 5:578 6:578 7:28 8:65 9:98 10:2.5243556 11:12.191648 12:20.150118 13:7452 14:7887 15:8824 #
9.0553343464174739641100661535766e-06 1:8.16117 2:19.513685 3:26.415419 4:464 5:464 6:464 7:15 8:24 9:28 10:8.2145844 11:5.0404277 12:2.3567524 13:8891 14:8067 15:7500 #
1.3060130270938507016879187583314e-05 1:18.259075 2:37.328999 3:53.856686 4:35 5:35 6:35 7:22 8:45 9:65 10:13.473266 11:19.346254 12:26.101034 13:5646 14:4208 15:2637 #
0.00064999999999999997016275621319892 1:66.731949 2:88.802368 3:90.354225 4:400 5:400 6:400 7:76 8:104 9:107 10:14.877708 11:30.085217 12:29.968435 13:2684 14:1718 15:1620 #
-2.4916594514669340912604291946031e-07 1:38.440926 2:46.341003 3:50.843315 4:271 5:271 6:271 7:38 8:40 9:43 10:13.829021 11:21.338442 12:24.768404 13:7671 14:7146 15:6405 #
-1.9743580777490633874026153965486e-06 1:28.649075 2:25.148998 3:23.096685 4:428 5:428 6:428 7:32 8:32 9:33 10:15.671662 11:22.75004 12:28.843529 13:5250 14:4451 15:3537 #
-1.9639573937846418613879014708479e-06 1:33.919075 2:25.358999 3:15.496685 4:436 5:436 6:436 7:37 8:33 9:25 10:16.356256 11:24.06864 12:30.00445 13:5246 14:4561 15:3736 #
0.00039710000799852984698645741445944 1:2.0746951 2:4.3296375 3:6.3682427 4:270 5:270 6:270 7:6 8:3 9:0 10:21.03417 11:20.880476 12:19.849503 13:9444 14:9378 15:9410 #
5.7526551113571893500417213894449e-08 1:1.710664 2:0.41940105 3:2.6448176 4:31 5:31 6:31 7:4 8:6 9:8 10:7.0425076 11:12.304408 12:11.426199 13:9447 14:8451 15:7527 #
-1.4864610242057859593612506587945e-06 1:13.925862 2:47.436031 3:69.278938 4:611 5:611 6:611 7:13 8:54 9:79 10:14.365779 11:3.9883964 12:6.4895487 13:9712 14:10053 15:10641 #
-0.00064999999999999997016275621319892 1:48.781918 2:39.33709 3:54.012379 4:627 5:627 6:627 7:38 8:27 9:39 10:29.053675 11:28.876566 12:27.008312 13:8978 14:8834 15:8921 #
1.106445614092591272015013957597e-06 1:3.8821647 2:28.25778 3:35.048767 4:24 5:24 6:24 7:10 8:29 9:38 10:13.361284 11:1.5337781 12:3.1011233 13:5736 14:4261 15:3893 #
-6.3625859265780583539263444816172e-09 1:53.09409 2:60.446831 3:19.598742 4:12 5:12 6:12 7:61 8:66 9:18 10:13.241042 11:13.413678 12:11.071836 13:5613 14:4022 15:2125 #
0.00012180764535502097700714330130722 1:5.740664 2:1.1494011 3:1.2148178 4:37 5:37 6:37 7:12 8:9 9:6 10:0.4657653 11:4.1520681 12:3.5529008 13:10019 14:9149 15:8269 #
0.00017344274353633408925108583265029 1:5.2778354 2:45.327782 3:55.16877 4:399 5:399 6:399 7:3 8:56 9:68 10:12.026467 11:4.9729671 12:7.4730635 13:6206 14:3869 15:3141 #
8.6022398822897102841375602949592e-08 1:8.4021645 2:43.037781 3:48.118767 4:25 5:25 6:25 7:14 8:48 9:55 10:14.920981 11:3.8674359 12:5.8049364 13:5875 14:3934 15:3502 #
-1.2792983376806119139625908184832e-07 1:34.080925 2:44.241001 3:51.953316 4:271 5:271 6:271 7:32 8:38 9:42 10:16.468163 11:22.829702 12:27.695244 13:7413 14:6961 15:6227 #
-1.7366885369387172281243833515951e-07 1:44.069077 2:40.998997 3:37.526684 4:184 5:184 6:184 7:48 8:49 9:48 10:15.104019 11:23.735775 12:29.67841 13:4675 14:3819 15:2978 #
4.9377716517926883161150423962038e-06 1:10.075862 2:57.886032 3:91.228943 4:611 5:611 6:611 7:10 8:62 9:97 10:5.0577302 11:3.9601827 12:14.041122 13:7633 14:8546 15:9604 #
-2.7150372564630829608938768215953e-06 1:33.759075 2:30.518999 3:26.866684 4:422 5:422 6:422 7:37 8:38 9:39 10:14.742122 11:22.850737 12:27.741695 13:5093 14:4306 15:3454 #
0.00018766508480871912922793853795156 1:36.811951 2:54.61237 3:54.424221 4:156 5:156 6:156 7:56 8:89 9:88 10:1.0108851 11:1.1567397 12:3.2801383 13:4537 14:3794 15:3746 #
-2.7689360239298445960295924628269e-07 1:49.933807 2:18.242729 3:15.444588 4:344 5:344 6:344 7:48 8:19 9:16 10:31.655167 11:10.260316 12:9.3529053 13:8504 14:3282 15:3009 #
2.234147983895462181775824154345e-07 1:3.4946949 2:5.0096374 3:2.6282425 4:539 5:539 6:539 7:1 8:1 9:1 10:5.8183436 11:4.8966532 12:4.973938 13:8650 14:8626 15:8504 #
-9.5869866453546226381376982317306e-05 1:65.681915 2:76.497086 3:84.582375 4:371 5:371 6:371 7:78 8:91 9:100 10:28.010845 11:25.057842 12:23.05266 13:9466 14:9996 15:9982 #
0.00026363768631565420719198300503194 1:22.975863 2:50.176029 3:70.588943 4:17 5:17 6:17 7:26 8:60 9:84 10:3.4781625 11:5.0818462 12:14.022907 13:8351 14:8592 15:9168 #
5.6714480054320215267338323172908e-06 1:21.52775 2:25.384905 3:29.647778 4:217 5:217 6:217 7:20 8:25 9:29 10:10.630733 11:10.980716 12:11.247929 13:2320 14:1740 15:1535 #
7.145094220731955934108187156184e-05 1:64.784698 2:63.839638 3:67.36824 4:98 5:98 6:98 7:87 8:83 9:90 10:16.388124 11:20.693348 12:18.733326 13:12510 14:12381 15:12466 #
4.3607466343416334542126833184739e-05 1:21.415102 2:1.9720231 3:50.633327 4:282 5:282 6:282 7:23 8:3 9:51 10:7.0490422 11:4.2639623 12:6.8725939 13:5020 14:5898 15:3912 #
-0.00064999999999999997016275621319892 1:10.845862 2:44.10603 3:63.418941 4:251 5:251 6:251 7:6 8:48 9:71 10:9.3521423 11:0.54769361 12:10.278202 13:9312 14:9717 15:10308 #
1.0639407805042994104027798130119e-05 1:1.0693359 2:5.9705992 3:6.3951821 4:24 5:24 6:24 7:4 8:2 9:1 10:0.40888426 11:4.5098481 12:3.4540391 13:11093 14:10257 15:9418 #
-0.00044881799652696230396031751297414 1:42.924091 2:51.276829 3:34.188744 4:47 5:47 6:47 7:48 8:54 9:34 10:13.516363 11:12.111998 12:11.393489 13:6264 14:4716 15:1893 #
-6.5056548555681088693821226276448e-08 1:8.9890747 2:14.688998 3:21.106686 4:23 5:23 6:23 7:11 8:23 9:33 10:13.551296 11:19.099688 12:19.856276 13:5967 14:4870 15:3705 #
0.00012275442922127233202900242758915 1:4.9832716 2:21.50968 3:32.299892 4:373 5:373 6:373 7:11 8:37 9:55 10:1.5619379 11:3.4948373 12:2.3557496 13:6811 14:5283 15:3433 #
0.0004489457760220062765288417949705 1:0.10408997 2:35.333172 3:107.52126 4:379 5:379 6:379 7:1 8:42 9:133 10:17.542713 11:3.1060996 12:36.308712 13:8132 14:8362 15:8206 #
-3.4587097314739376016221505862752e-08 1:32.229076 2:29.388998 3:26.256685 4:425 5:425 6:425 7:35 8:37 9:36 10:17.70874 11:24.991838 12:30.764753 13:4969 14:4235 15:3302 #
-5.7347093170513200102982737105251e-05 1:60.643806 2:25.892731 3:23.134588 4:227 5:227 6:227 7:57 8:25 9:23 10:31.906454 11:10.280542 12:9.3927259 13:8929 14:3613 15:3337 #
-0.00031606103251125006181609933264554 1:15.428049 2:23.087631 3:23.425777 4:520 5:520 6:520 7:8 8:8 9:9 10:20.126652 11:33.496227 12:33.65831 13:5153 14:5224 15:5216 #
1.2988204746012390892648778739638e-05 1:24.37775 2:27.894905 3:32.007778 4:215 5:215 6:215 7:24 8:29 9:32 10:11.08366 11:11.900778 12:11.817821 13:2197 14:1604 15:1440 #
-0.00027373135556146171477875927990908 1:3.6422503 2:5.4050946 3:4.9722233 4:3 5:3 6:3 7:5 8:6 9:6 10:6.4802465 11:6.555789 12:6.8805137 13:3470 14:3106 15:3063 #
0.00010735884382752271942740307508757 1:11.985102 2:8.5879765 3:4.0066738 4:279 5:279 6:279 7:18 8:4 9:4 10:3.540004 11:6.4860415 12:1.2863457 13:6699 14:7595 15:7059 #
1.5112360633742446570926265536627e-08 1:7.6453052 2:8.8503628 3:9.5917578 4:519 5:519 6:519 7:20 8:23 9:22 10:1.0487211 11:1.6651809 12:2.0862656 13:7548 14:7371 15:7369 #
4.4379999451406824950705498622483e-05 1:14.825802 2:15.636924 3:16.346506 4:8 5:8 6:8 7:15 8:16 9:18 10:2.8979588 11:2.8422005 12:2.9468877 13:8496 14:8362 15:8322 #
-9.5367337841939276051050899951633e-08 1:36.448097 2:48.119289 3:60.197102 4:30 5:30 6:30 7:36 8:46 9:59 10:9.2603455 11:16.951721 12:20.328848 13:4467 14:4173 15:3287 #
-2.0492858301661568049179982728414e-07 1:27.059074 2:21.788998 3:18.776684 4:434 5:434 6:434 7:30 8:29 9:29 10:17.153919 11:24.494999 12:30.366028 13:5188 14:4511 15:3630 #
0.00038286184153335511837212834507227 1:8.3951015 2:1.0320232 3:1.2766737 4:272 5:272 6:272 7:10 8:2 9:1 10:6.2328858 11:2.7893412 12:6.714982 13:5831 14:6287 15:6068 #
6.576720451900719410787132801488e-05 1:46.93195 2:78.70237 3:77.874222 4:418 5:418 6:418 7:55 8:93 9:94 10:12.802413 11:26.799587 12:26.73444 13:3036 14:1676 15:1692 #
-0.00010497231862201148952246781975717 1:55.283806 2:22.29273 3:19.874588 4:342 5:342 6:342 7:51 8:22 9:19 10:30.105883 11:8.6691389 12:7.7144995 13:9162 14:3954 15:3674 #
-1.0023596557630363773540999039469e-05 1:28.342241 2:28.440767 3:28.286121 4:493 5:493 6:493 7:29 8:29 9:29 10:13.610374 11:12.544727 12:10.300448 13:5145 14:4617 15:3603 #
0.00038339762736890292378968969622122 1:0.29413784 2:18.88603 3:21.498941 4:497 5:497 6:497 7:8 8:17 9:23 10:12.46712 11:4.0555587 12:5.7082467 13:7872 14:7765 15:7719 #
-0.00052901075182974766075716388513683 1:3.8863666 2:2.9197917 3:0.0047083334 4:1 5:1 6:1 7:3 8:1 9:3 10:13.098454 11:14.977956 12:17.661301 13:7208 14:7139 15:7367 #
-0.00064999999999999997016275621319892 1:120.96619 2:25.347269 3:32.535412 4:35 5:35 6:35 7:124 8:25 9:33 10:36.162598 11:14.726356 12:13.700459 13:1389 14:712 15:245 #
2.4004106906945140247869492633459e-06 1:20.895863 2:51.686031 3:75.908943 4:565 5:565 6:565 7:20 8:58 9:86 10:3.5771477 11:13.51373 12:21.763578 13:7772 14:8119 15:8862 #
-7.4908585369134340571281843040863e-08 1:35.440926 2:42.591003 3:48.203316 4:271 5:271 6:271 7:34 8:38 9:41 10:13.590361 11:19.515093 12:25.274332 13:7571 14:6992 15:6119 #
-0.00039401614219172645479233318965839 1:1.5619013 2:35.09071 3:46.752899 4:547 5:547 6:547 7:1 8:34 9:46 10:3.052526 11:10.155515 12:14.354636 13:6432 14:7765 15:7646 #
-3.6400048982365200436425202445978e-06 1:19.894138 2:26.463968 3:34.32106 4:454 5:454 6:454 7:19 8:20 9:25 10:13.759576 11:23.778978 12:32.989777 13:5163 14:4132 15:3727 #
-4.5676226859218315096491935811684e-05 1:36.319077 2:34.799 3:32.776684 4:46 5:46 6:46 7:39 8:42 9:42 10:16.781157 11:24.141249 12:28.071659 13:4990 14:4104 15:3186 #
-4.2504990326586029373797694097536e-06 1:37.719074 2:33.968998 3:29.486685 4:188 5:188 6:188 7:42 8:41 9:40 10:15.216844 11:23.811935 12:29.614704 13:4995 14:4112 15:3412 #
-0.00020008047221242719615474925376475 1:30.904139 2:29.043968 3:31.011059 4:456 5:456 6:456 7:31 8:22 9:23 10:13.153316 11:22.625486 12:31.180361 13:4918 14:4205 15:4030 #
0.00064999999999999997016275621319892 1:26.108829 2:26.956314 3:25.924582 4:19 5:19 6:19 7:25 8:28 9:27 10:8.7048883 11:5.8826599 12:4.4779058 13:9948 14:9636 15:9208 #
-9.8799885267607077824272843180609e-05 1:25.198099 2:34.70929 3:55.647102 4:230 5:230 6:230 7:25 8:32 9:54 10:8.5656853 11:17.108208 12:19.110016 13:4524 14:4302 15:3037 #
-0.00014244970571311734277089589006948 1:48.634136 2:24.493969 3:23.89106 4:458 5:458 6:458 7:48 8:17 9:14 10:2.5667512 11:7.0994349 12:15.993064 13:6011 14:6085 15:6011 #
5.3776468420316970992086855196668e-06 1:14.361951 2:40.462368 3:41.024223 4:48 5:48 6:48 7:24 8:59 9:60 10:4.0042825 11:11.065296 12:11.845898 13:5432 14:4291 15:4282 #
3.021129540027846393552982476316e-06 1:12.38883 2:10.276315 3:8.1145821 4:494 5:494 6:494 7:9 8:7 9:8 10:5.4622664 11:3.9051855 12:3.3825841 13:9632 14:9260 15:8924 #
1.0068186946611122717875307086555e-06 1:15.435863 2:60.816032 3:92.698944 4:611 5:611 6:611 7:19 8:70 9:108 10:3.1235361 11:6.3912516 12:9.5825167 13:7188 14:8094 15:9039 #
0.00055557329693408014949229656309626 1:82.216194 2:27.267269 3:25.335413 4:35 5:35 6:35 7:85 8:28 9:26 10:24.970913 11:9.4117832 12:8.9101353 13:3907 14:1776 15:1636 #
-0.00035337106605386626317910625516561 1:64.280922 2:49.408997 3:42.716686 4:83 5:83 6:83 7:89 8:89 9:84 10:16.169771 11:18.636728 12:12.01262 13:11572 14:6571 15:5909 #
2.5088912954424800597750156057331e-07 1:25.887751 2:29.514906 3:33.207775 4:30 5:30 6:30 7:24 8:29 9:33 10:11.924481 11:12.088173 12:11.847812 13:2089 14:1538 15:1361 #
0.00044330171233246049022902468550456 1:28.765862 2:61.776031 3:85.088943 4:580 5:580 6:580 7:32 8:71 9:99 10:11.47999 11:3.216542 12:8.718461 13:8794 14:9151 15:9728 #
4.7144260217290187803089451801242e-08 1:22.055862 2:52.176029 3:68.218941 4:273 5:273 6:273 7:24 8:60 9:80 10:3.5088515 11:6.3563528 12:13.842897 13:7991 14:8335 15:8802 #
-0.00056235593580163383432141133155824 1:30.545862 2:66.046028 3:96.718941 4:303 5:303 6:303 7:31 8:73 9:105 10:10.109654 11:20.36508 12:28.815767 13:7274 14:7777 15:8780 #
1.2202465566841942578506056971133e-05 1:2.5519505 2:18.092369 3:20.924223 4:3 5:3 6:3 7:7 8:31 9:34 10:6.8714528 11:12.689686 12:11.269972 13:5669 14:4959 15:4883 #
-0.00064999999999999997016275621319892 1:6.279336 2:8.7405987 3:8.9051819 4:473 5:473 6:473 7:11 8:12 9:14 10:1.2301238 11:3.3965244 12:2.5316396 13:10735 14:9823 15:8976 #
-1.0938188141191865048585220646093e-06 1:32.720924 2:35.631001 3:39.323315 4:262 5:262 6:262 7:30 8:29 9:30 10:15.766431 11:22.511898 12:27.014261 13:7440 14:6779 15:5924 #
-0.00014922655240745541505020810291171 1:119.57619 2:24.72727 3:30.405413 4:276 5:276 6:276 7:122 8:24 9:29 10:37.425781 11:15.985599 12:14.215844 13:1216 14:586 15:249 #
0.00037737886272146045065975505927724 1:4.2341976 2:10.593076 3:22.853493 4:98 5:98 6:98 7:13 8:20 9:29 10:25.474607 11:26.263227 12:19.890459 13:9822 14:9552 15:9099 #
-4.907195516891580780550010700003e-07 1:40.572166 2:24.227779 3:20.758768 4:50 5:50 6:50 7:46 8:30 9:27 10:16.685505 11:17.279509 12:19.911066 13:4584 14:4557 15:4540 #
0.00021748658890446493155423901555423 1:5.4921646 2:48.297779 3:55.468769 4:20 5:20 6:20 7:10 8:57 9:66 10:16.009138 11:4.1610656 12:4.1361189 13:5980 14:3927 15:3260 #
-2.6150620418391386108852413733272e-06 1:59.163807 2:25.45273 3:23.054588 4:228 5:228 6:228 7:56 8:26 9:23 10:31.260977 11:10.463008 12:9.8885307 13:8506 14:3193 15:2923 #
-4.7547029272199898179771925671444e-07 1:90.732162 2:70.897781 3:53.618767 4:160 5:160 6:160 7:95 8:74 9:58 10:19.702991 11:21.65333 12:23.567421 13:2569 14:2666 15:3051 #
1.799983890384366112184626185222e-06 1:9.2321644 2:29.07778 3:31.768768 4:15 5:15 6:15 7:12 8:35 9:42 10:10.747141 11:1.3537021 12:0.31266636 13:5778 14:4521 15:4062 #
-3.9625497576696547604393106208065e-07 1:38.202164 2:21.92778 3:15.388768 4:209 5:209 6:209 7:40 8:23 9:18 10:13.309489 11:15.680216 12:17.917553 13:4462 14:4541 15:4760 #
-9.4131199984115378632393289493052e-05 1:23.538099 2:34.90929 3:52.907101 4:451 5:451 6:451 7:23 8:33 9:51 10:8.2361345 11:16.514637 12:20.781488 13:4824 14:4364 15:3189 #
-2.188006508853787136472312732649e-06 1:59.922165 2:38.287781 3:17.328768 4:67 5:67 6:67 7:63 8:41 9:20 10:15.995278 11:16.226503 12:19.199162 13:3906 14:4134 15:4617 #
-2.3530769187140791501538887586786e-06 1:32.457836 2:42.25222 3:44.751232 4:515 5:515 6:515 7:29 8:38 9:39 10:15.104516 11:15.837926 12:19.765125 13:7212 14:7014 15:6722 #
-8.6240185993374796069588228419889e-05 1:38.1819 2:46.810711 3:62.102898 4:633 5:633 6:633 7:23 8:34 9:48 10:19.518475 11:11.26204 12:8.08039 13:8972 14:9344 15:9459 #
-0.00064999999999999997016275621319892 1:0.10883025 2:2.4736855 3:3.2554181 4:42 5:42 6:42 7:2 8:6 9:7 10:3.2279327 11:1.7977717 12:1.3686297 13:8392 14:7956 15:7663 #
0.00012513745391717900901085158693604 1:57.491951 2:86.032372 3:85.624222 4:403 5:403 6:403 7:66 8:103 9:102 10:14.92163 11:28.322153 12:28.962639 13:2959 14:1740 15:1738 #
4.0383777331766950596542847806703e-07 1:4.6793361 2:1.419401 3:5.4948177 4:211 5:211 6:211 7:8 8:7 9:9 10:9.7824965 11:14.158089 12:11.986856 13:9750 14:8433 15:7427 #
-6.3025527927220575952205194880662e-05 1:82.016197 2:12.46727 3:19.605412 4:32 5:32 6:32 7:111 8:23 9:29 10:9.321147 11:3.5042706 12:2.6548069 13:3498 14:1689 15:1312 #
-3.6400722173318358561671628965961e-07 1:30.268099 2:44.469292 3:55.627102 4:220 5:220 6:220 7:30 8:42 9:55 10:7.8230042 11:16.222666 12:16.603477 13:4698 14:4172 15:3274 #
0.00012245199438556467739537547689821 1:6.1811695 2:10.893685 3:10.955418 4:200 5:200 6:200 7:13 8:14 9:11 10:7.4569111 11:3.7038136 12:2.1903286 13:8823 14:8299 15:7972 #
-1.389154514431206458711416532395e-07 1:30.230925 2:44.831001 3:50.083317 4:269 5:269 6:269 7:29 8:38 9:42 10:14.173752 11:20.568655 12:24.979906 13:7311 14:7057 15:6185 #
9.0141686789385575164076577769912e-06 1:0.43195045 2:12.782369 3:13.254222 4:3 5:3 6:3 7:5 8:23 9:24 10:4.3095107 11:6.8436837 12:6.3511243 13:5568 14:4931 15:4942 #
-4.4823763021237204569151291178031e-06 1:35.216366 2:36.609791 3:38.365292 4:221 5:221 6:221 7:34 8:34 9:35 10:14.176425 11:15.861819 12:18.919645 13:5719 14:5557 15:5599 #
-0.00022014929257313520238881210389081 1:48.716194 2:21.577271 3:20.175413 4:23 5:23 6:23 7:55 8:22 9:21 10:26.041594 11:12.091246 12:11.183663 13:4174 14:1222 15:1026 #
-2.6882139807822329826162907617793e-05 1:60.916195 2:26.947269 3:24.565413 4:281 5:281 6:281 7:63 8:27 9:25 10:30.690155 11:11.79745 12:10.378028 13:3744 14:902 15:813 #
-1.264391100649695844821595236071e-07 1:31.339075 2:28.258999 3:23.876684 4:428 5:428 6:428 7:34 8:35 9:34 10:18.086607 11:25.18634 12:30.642532 13:5010 14:4265 15:3434 #
-3.687769812535780875745183848835e-05 1:32.231018 2:33.969513 3:35.434307 4:527 5:527 6:527 7:20 8:26 9:25 10:18.114613 11:15.408448 12:16.22291 13:5840 14:5626 15:5549 #
7.0015015597002516756219847593457e-05 1:2.1893358 2:2.8305991 3:3.4551823 4:210 5:210 6:210 7:3 8:2 9:3 10:4.5039487 11:8.6712093 12:7.3966088 13:10373 14:9340 15:8496 #
0.00064999999999999997016275621319892 1:71.341949 2:89.20237 3:86.534225 4:409 5:409 6:409 7:80 8:104 9:102 10:15.572824 11:29.127975 12:29.467163 13:2485 14:1638 15:1738 #
-5.9609947561158997404295173394573e-07 1:51.633808 2:22.10273 3:20.344587 4:340 5:340 6:340 7:49 8:23 9:21 10:33.377991 11:11.836277 12:10.860597 13:7961 14:2824 15:2592 #
6.7204162710554626869452476967126e-05 1:7.1732717 2:28.99968 3:46.909893 4:0 5:0 6:0 7:9 8:38 9:64 10:1.3233123 11:3.6581481 12:2.845088 13:6467 14:4734 15:2600 #
8.8701122487052960871763140904278e-05 1:11.328983 2:8.4204884 3:8.615695 4:5 5:5 6:5 7:16 8:13 9:13 10:5.3258791 11:6.5610261 12:6.1883702 13:8516 14:8356 15:8277 #
9.2685271856089625902574979932069e-06 1:13.648983 2:10.090488 3:10.245695 4:498 5:498 6:498 7:21 8:15 9:15 10:9.8179588 11:10.428988 12:9.7734547 13:8441 14:8208 15:8133 #
-0.00025656211975019771465156281919917 1:1.525305 2:6.3003626 3:4.2217574 4:545 5:545 6:545 7:16 8:22 9:19 10:0.99665272 11:1.6928697 12:2.4053354 13:6645 14:6403 15:6418 #
0.00064999999999999997016275621319892 1:6.7459102 2:26.58317 3:66.371254 4:123 5:123 6:123 7:6 8:35 9:100 10:14.981466 11:1.1151447 12:37.428123 13:8031 14:7379 15:5910 #
-8.9345056624859764354644724865251e-07 1:44.504089 2:30.42683 3:12.851257 4:184 5:184 6:184 7:47 8:30 9:16 10:19.212236 11:17.248276 12:8.6127844 13:6149 14:5442 15:3670 #
4.4312556162105285251554508130223e-06 1:9.8719501 2:28.252369 3:28.304222 4:27 5:27 6:27 7:18 8:48 9:47 10:6.5822334 11:7.5010262 12:8.0912189 13:5097 14:4289 15:4250 #
-4.2751185194531523531117668535106e-06 1:31.639074 2:27.208998 3:23.566685 4:425 5:425 6:425 7:34 8:35 9:35 10:16.526482 11:23.702835 12:29.710186 13:5169 14:4430 15:3517 #
1.4783330538337193660195292843618e-05 1:25.38195 2:55.072369 3:55.184223 4:42 5:42 6:42 7:37 8:74 9:74 10:6.2370481 11:15.931396 12:17.716169 13:5829 14:4574 15:4562 #
1.0731222172588455196582529760363e-05 1:13.60775 2:25.634905 3:29.687777 4:11 5:11 6:11 7:12 8:24 9:28 10:11.094707 11:10.947325 12:11.344985 13:2679 14:1735 15:1602 #
-1.2268539417355514640605579357313e-05 1:29.9681 2:42.329288 3:45.887104 4:222 5:222 6:222 7:30 8:40 9:44 10:8.8320036 11:17.688601 12:20.423906 13:4489 14:4076 15:3508 #
-6.7153558325294633373978014923011e-07 1:33.508099 2:46.649288 3:53.977104 4:220 5:220 6:220 7:33 8:44 9:52 10:7.3421183 11:16.402893 12:19.610983 13:4492 14:4068 15:3025 #
1.3060134159631280569013878078977e-06 1:13.401951 2:33.772369 3:33.724224 4:40 5:40 6:40 7:23 8:56 9:55 10:1.6477437 11:3.6212161 12:2.8570809 13:5425 14:4462 15:4511 #
-1.596160930378784245870296687464e-08 1:31.268099 2:46.469292 3:55.487103 4:28 5:28 6:28 7:31 8:44 9:53 10:9.3845768 11:16.986757 12:20.003832 13:4645 14:4195 15:3361 #
-4.6108066480634981915056463952496e-08 1:31.838099 2:48.81929 3:56.597103 4:30 5:30 6:30 7:32 8:47 9:54 10:8.7673607 11:16.347029 12:19.515894 13:4516 14:4026 15:3255 #
-2.5473530629500827041512139858881e-07 1:28.748098 2:43.109291 3:55.297104 4:224 5:224 6:224 7:29 8:41 9:54 10:6.3874569 11:15.74443 12:19.590485 13:4887 14:4311 15:3453 #
0.0002153264583582004121353747905232 1:58.936195 2:11.60727 3:9.6654119 4:454 5:454 6:454 7:62 8:11 9:10 10:25.358053 11:7.6156812 12:6.9960208 13:4539 14:2091 15:1999 #
8.2750745651742369391606901629643e-07 1:18.057751 2:22.744905 3:27.327776 4:218 5:218 6:218 7:17 8:23 9:27 10:7.6195703 11:7.766326 12:8.4975815 13:2751 14:2081 15:1920 #
-0.00064999999999999997016275621319892 1:13.877749 2:11.954906 3:12.147777 4:17 5:17 6:17 7:14 8:13 9:13 10:6.4931374 11:6.37186 12:6.5624471 13:3304 14:2944 15:2908 #
6.0322848006860447633153965441011e-05 1:10.149075 2:16.408998 3:19.406685 4:27 5:27 6:27 7:15 8:28 9:35 10:8.3290834 11:11.804805 12:16.166021 13:6242 14:5204 15:4073 #
0.00028113429832288261422945652157068 1:25.634695 2:26.499638 3:26.268242 4:511 5:511 6:511 7:21 8:20 9:19 10:3.778667 11:2.5206516 12:2.417623 13:9218 14:9164 15:9146 #
0.00010300723644486096237070371639533 1:3.0488303 2:2.2036855 3:4.8354182 4:235 5:235 6:235 7:4 8:13 9:14 10:5.6297698 11:1.7977259 12:1.2768264 13:8450 14:7896 15:7597 #
0.00064999999999999997016275621319892 1:26.161919 2:39.817089 3:11.262378 4:310 5:310 6:310 7:27 8:41 9:13 10:1.6104555 11:0.18416911 12:0.92957371 13:6973 14:7717 15:6422 #
4.3968294219791877511759048413609e-06 1:9.8588305 2:7.5163145 3:6.404582 4:503 5:503 6:503 7:13 8:12 9:7 10:7.6343474 11:2.6269951 12:2.581284 13:8592 14:8342 15:8016 #
-1.1176672810133584203603346329814e-05 1:44.644695 2:41.159637 3:38.898243 4:227 5:227 6:227 7:43 8:41 9:38 10:19.48164 11:19.139097 12:19.332006 13:7858 14:7618 15:7543 #
1.8231633045112297488235530984468e-06 1:24.174696 2:23.209637 3:23.388243 4:245 5:245 6:245 7:26 8:25 9:25 10:5.6356263 11:4.1584959 12:4.3294196 13:8846 14:8746 15:8708 #
-1.5354764345407220277569854301192e-07 1:9.5553045 2:10.020363 3:12.031757 4:56 5:56 6:56 7:12 8:14 9:15 10:1.5441992 11:0.33509788 12:0.24970581 13:6840 14:6673 15:6552 #
4.2075393415992557331005950727043e-07 1:16.614695 2:15.759637 3:14.638243 4:497 5:497 6:497 7:23 8:21 9:19 10:2.4928901 11:2.7534697 12:2.5011611 13:9178 14:9033 15:8967 #
1.3151198293112859543209716695067e-05 1:23.354694 2:21.589638 3:19.318243 4:482 5:482 6:482 7:28 8:24 9:23 10:2.6834221 11:1.4972657 12:1.4779345 13:8454 14:8289 15:8189 #
-1.1502705743173097721875628232646e-06 1:34.610924 2:40.011002 3:44.083317 4:264 5:264 6:264 7:32 8:33 9:35 10:15.46288 11:22.72608 12:27.914305 13:7555 14:6912 15:6093 #
-0.00033210320566555429078192673841841 1:9.3058624 2:41.10603 3:46.028942 4:19 5:19 6:19 7:12 8:51 9:58 10:10.650671 11:1.5266653 12:7.5305457 13:9225 14:9614 15:9664 #
-1.025947030108636685169577252609e-07 1:14.419075 2:15.698998 3:13.326685 4:20 5:20 6:20 7:13 8:19 9:22 10:9.5772333 11:15.890045 12:24.283396 13:5894 14:5065 15:4017 #
4.0313398520306962895514563127719e-05 1:1.729075 2:7.8589983 3:1.9266847 4:193 5:193 6:193 7:15 8:31 9:27 10:6.808568 11:9.6630383 12:13.63953 13:9093 14:8572 15:7815 #
0.00017002201285024027372846933126027 1:1.0058023 2:3.3230758 3:8.8834934 4:43 5:43 6:43 7:2 8:6 9:12 10:7.7773881 11:9.0586214 12:10.100107 13:9732 14:9369 15:9140 #
0.00064999999999999997016275621319892 1:20.328831 2:21.026314 3:20.424582 4:0 5:0 6:0 7:16 8:18 9:22 10:10.72259 11:8.1640034 12:5.3928733 13:10143 14:9738 15:9431 #
-2.011750347308506696984448797183e-06 1:34.779076 2:34.468998 3:34.716686 4:417 5:417 6:417 7:38 8:42 9:45 10:17.583843 11:25.159895 12:30.69591 13:4969 14:4105 15:3072 #
0.00010334974156211984563924488611519 1:4.6706638 2:5.1594009 3:5.6448178 4:35 5:35 6:35 7:2 8:7 9:6 10:1.8781704 11:7.0284758 12:6.7494936 13:10296 14:9192 15:8240 #
-1.3659017738140089801746502196772e-07 1:35.678097 2:45.719292 3:53.637104 4:220 5:220 6:220 7:35 8:44 9:52 10:8.5073099 11:16.485485 12:20.518078 13:4351 14:4102 15:3299 #
1.78729762881341515748379045192e-06 1:3.4193358 2:1.9705989 3:0.064817712 4:31 5:31 6:31 7:2 8:0 9:1 10:5.8727126 11:6.3777637 12:3.2828157 13:10092 14:9072 15:8149 #
-8.5598762315330495362890664279298e-08 1:33.169075 2:27.948997 3:24.456684 4:428 5:428 6:428 7:36 8:36 9:35 10:15.60066 11:21.376499 12:27.872816 13:5220 14:4427 15:3607 #
-3.5018612175675164283267844916869e-06 1:39.979076 2:34.898998 3:24.426685 4:54 5:54 6:54 7:44 8:43 9:35 10:14.975635 11:23.049473 12:29.47991 13:4944 14:4134 15:3439 #
-3.4164006966227691191109738788612e-06 1:29.709076 2:28.368998 3:23.936686 4:430 5:430 6:430 7:32 8:36 9:34 10:15.281798 11:22.616096 12:29.705393 13:5151 14:4267 15:3434 #
0.00027602534680229440233745208388427 1:53.20195 2:77.392372 3:75.514221 4:408 5:408 6:408 7:63 8:98 9:96 10:7.7470069 11:17.23332 12:17.728985 13:3156 14:2121 15:2142 #
0.00019406934204657666498405887978151 1:13.945862 2:25.79603 3:27.078941 4:12 5:12 6:12 7:11 8:26 9:32 10:11.947058 11:10.020916 12:0.20186065 13:8815 14:8493 15:8347 #
-5.7179994799084338241712544004258e-05 1:50.206192 2:22.62727 3:20.575413 4:20 5:20 6:20 7:53 8:22 9:20 10:27.580488 11:9.7852859 12:8.143754 13:5262 14:2003 15:1876 #
-0.00064999999999999997016275621319892 1:114.69619 2:21.917271 3:30.385412 4:274 5:274 6:274 7:119 8:22 9:31 10:35.238991 11:13.941003 12:13.236241 13:1618 14:916 15:448 #
1.5143508972067165350484409247489e-05 1:13.89775 2:17.544905 3:20.707777 4:219 5:219 6:219 7:15 8:21 9:23 10:2.0931375 11:1.6141567 12:2.1438954 13:3292 14:2722 15:2588 #
-0.00011592903682967774291277113229981 1:32.0681 2:47.29929 3:59.757103 4:444 5:444 6:444 7:31 8:46 9:58 10:8.5292625 11:17.14496 12:21.922112 13:4364 14:3844 15:2878 #
0.00013129097146347135094401892274618 1:40.45327 2:60.49968 3:71.769897 4:400 5:400 6:400 7:44 8:69 9:82 10:16.345053 11:21.8204 12:24.857639 13:4270 14:2681 15:810 #
-5.6658914337147207740470375957054e-08 1:58.014091 2:47.866829 3:4.808742 4:206 5:206 6:206 7:61 8:49 9:4 10:19.986803 11:18.464472 12:12.286547 13:5514 14:4568 15:2907 #
2.7688544729888922162107725566393e-07 1:9.3758621 2:39.656033 3:58.138939 4:611 5:611 6:611 7:8 8:44 9:69 10:17.778973 11:8.4777918 12:1.4005002 13:8665 14:8967 15:9427 #
4.440546507742567020732803173555e-06 1:17.76775 2:19.044905 3:20.957777 4:216 5:216 6:216 7:18 8:21 9:23 10:5.2607722 11:4.5060773 12:3.9518032 13:3064 14:2562 15:2467 #
0.00033365162844513373587018723043229 1:49.20327 2:70.85968 3:82.469894 4:410 5:410 6:410 7:52 8:78 9:93 10:18.371281 11:25.784216 12:31.680407 13:3940 14:2297 15:454 #
-8.9232662590816504544330347442616e-07 1:34.580925 2:38.911003 3:41.693314 4:262 5:262 6:262 7:31 8:31 9:31 10:14.269693 11:21.344086 12:25.751118 13:7530 14:6831 15:5924 #
6.8926404097405247206609146815026e-05 1:7.5446949 2:7.2696376 3:5.8682427 4:539 5:539 6:539 7:3 8:2 9:4 10:1.5564291 11:0.91027939 12:1.0051149 13:8450 14:8254 15:8215 #
-2.368370822606251009271672094969e-06 1:18.838049 2:26.057632 3:27.715778 4:517 5:517 6:517 7:10 8:10 9:12 10:16.923004 11:30.404444 12:30.361975 13:5290 14:5350 15:5367 #
2.9938450298142059782802171241656e-06 1:25.454695 2:27.419638 3:26.498243 4:495 5:495 6:495 7:24 8:25 9:24 10:0.70656526 11:1.1589725 12:1.5436966 13:8429 14:8354 15:8310 #
0.00023488593587117634342575911432505 1:17.284695 2:18.269638 3:18.558243 4:503 5:503 6:503 7:18 8:16 9:17 10:8.2621059 11:9.9370317 12:10.122495 13:9616 14:9552 15:9526 #
3.238565602882489484053716091716e-06 1:24.048983 2:23.380487 3:22.735695 4:250 5:250 6:250 7:20 8:20 9:20 10:1.9096582 11:1.0854883 12:0.5824393 13:8510 14:8408 15:8319 #
0.00064999999999999997016275621319892 1:80.816193 2:22.37727 3:20.275412 4:273 5:273 6:273 7:85 8:21 9:20 10:22.490274 11:8.9640141 12:7.2541475 13:4064 14:1910 15:1798 #
-5.4150785267697331749371658649039e-05 1:48.485909 2:41.02317 3:14.958742 4:17 5:17 6:17 7:46 8:40 9:16 10:21.44182 11:19.173643 12:11.397248 13:8992 14:7514 15:2233 #
3.6358720606156401363503061913152e-07 1:15.063807 2:5.9627299 3:5.3545876 4:242 5:242 6:242 7:21 8:9 9:8 10:8.3435144 11:2.1014352 12:0.07743866 13:7959 14:3396 15:3129 #
3.0887678070837446411367552961957e-08 1:23.45775 2:29.534906 3:33.947777 4:213 5:213 6:213 7:23 8:30 9:33 10:10.499028 11:10.899234 12:12.181861 13:2315 14:1694 15:1440 #
-0.00012939867447932457480974655084083 1:51.785912 2:58.603168 3:7.7687421 4:328 5:328 6:328 7:48 8:58 9:7 10:20.450981 11:18.372162 12:9.0732412 13:9191 14:8244 15:2658 #
0.00017368435641296198213012758060358 1:12.408831 2:13.746315 3:12.244582 4:8 5:8 6:8 7:6 8:9 9:10 10:4.147737 11:0.65909016 12:0.76862025 13:9744 14:9374 15:9049 #
-2.2340286953395303295392265718888e-08 1:31.758099 2:45.88929 3:56.037102 4:217 5:217 6:217 7:31 8:44 9:54 10:9.9860439 11:17.127563 12:19.795193 13:4331 14:3909 15:3235 #
-0.00021249906995658035015195341799199 1:50.214088 2:38.31683 3:3.4912577 4:202 5:202 6:202 7:55 8:41 9:2 10:13.232469 11:12.31076 12:7.4545698 13:6128 14:5290 15:3505 #
-0.00012874178620853255535644299456521 1:67.874092 2:48.81683 3:7.5212579 4:24 5:24 6:24 7:70 8:49 9:11 10:13.059113 11:10.991375 12:6.2181697 13:6076 14:5541 15:4089 #
-3.7603841321474443621590121739073e-08 1:44.68409 2:30.796829 3:16.501257 4:430 5:430 6:430 7:47 8:32 9:17 10:18.623907 11:15.77216 12:11.268018 13:5889 14:5130 15:3697 #
-1.0251651681826083480663963816426e-07 1:36.164089 2:39.06683 3:9.3087425 4:424 5:424 6:424 7:40 8:40 9:12 10:16.215061 11:16.482603 12:2.8893595 13:6713 14:5035 15:3449 #
-7.1218670533764690574584504956235e-07 1:38.854092 2:18.23683 3:29.471258 4:423 5:423 6:423 7:41 8:19 9:30 10:20.876719 11:18.729082 12:12.365092 13:6097 14:5558 15:3947 #
1.3611743463141923182746495513129e-05 1:8.0840902 2:30.18317 3:99.681259 4:390 5:390 6:390 7:11 8:34 9:112 10:13.710608 11:2.0599353 12:30.456915 13:7449 14:7799 15:7246 #
2.2605968305056123313079297076911e-06 1:1.020925 2:16.908998 3:38.616684 4:217 5:217 6:217 7:0 8:23 9:49 10:11.302094 11:17.2001 12:24.419123 13:6244 14:4909 15:3057 #
-3.4621988334251906024874052142382e-06 1:16.408049 2:23.627632 3:25.285778 4:514 5:514 6:514 7:8 8:9 9:10 10:18.775093 11:32.223068 12:32.25185 13:5185 14:5240 15:5279 #
0.00011516270753414437066908249107655 1:22.26775 2:27.604906 3:31.097776 4:218 5:218 6:218 7:20 8:27 9:31 10:10.691948 11:11.838468 12:11.857368 13:2265 14:1626 15:1506 #
7.1062027496283480506103491514125e-05 1:15.415802 2:16.376925 3:16.996506 4:14 5:14 6:14 7:18 8:19 9:20 10:0.58255261 11:0.54642028 12:0.48304093 13:9142 14:9045 15:8993 #
0.0002394634937294970455923248664476 1:23.487749 2:26.664906 3:30.467777 4:20 5:20 6:20 7:22 8:26 9:30 10:11.395804 11:11.139286 12:11.374621 13:2249 14:1698 15:1558 #
2.5946514586427937842927349265665e-05 1:20.935862 2:50.416031 3:68.458939 4:554 5:554 6:554 7:22 8:57 9:77 10:3.0538833 11:6.4184804 12:16.008905 13:8622 14:8903 15:9384 #
-2.885126371672071269789110886661e-08 1:36.780926 2:43.161003 3:48.183315 4:266 5:266 6:266 7:34 8:35 9:38 10:16.398855 11:23.551508 12:28.650894 13:7666 14:7102 15:6253 #
-6.3042007509835535866249238423631e-06 1:19.19805 2:26.817631 3:27.275778 4:524 5:524 6:524 7:12 8:12 9:13 10:18.97986 11:32.26944 12:32.725533 13:5414 14:5464 15:5500 #
-1.6146911853334238405848627406769e-05 1:53.863808 2:20.93273 3:18.634588 4:341 5:341 6:341 7:52 8:22 9:20 10:30.59355 11:8.9689112 12:8.5675182 13:8729 14:3486 15:3208 #
6.2541148589667638901801183237694e-05 1:2.4306641 2:1.6494011 3:1.7448177 4:0 5:0 6:0 7:3 8:0 9:1 10:3.1509738 11:7.3182268 12:7.2147236 13:10053 14:9078 15:8185 #
6.91507314050800457146719315768e-08 1:3.8119504 2:19.962368 3:19.974222 4:194 5:194 6:194 7:12 8:37 9:39 10:4.1091528 11:7.3177729 12:5.9059873 13:5168 14:4405 15:4393 #
-0.00064999999999999997016275621319892 1:2.8161936 2:7.1272697 3:2.2454123 4:398 5:398 6:398 7:5 8:7 9:2 10:34.301113 11:13.107481 12:12.109691 13:5792 14:1561 15:1559 #
-1.8788453611662897459102378183715e-08 1:32.258099 2:43.119289 3:60.327103 4:28 5:28 6:28 7:32 8:41 9:57 10:8.8482666 11:16.471785 12:18.832912 13:4370 14:4139 15:2961 #
7.0183217139172448736927911738803e-07 1:17.428831 2:20.476315 3:22.304583 4:26 5:26 6:26 7:17 8:18 9:22 10:8.251359 11:5.3527203 12:3.6746135 13:9161 14:8952 15:8739 #
-5.2979910313251099890819069415659e-06 1:32.749077 2:29.088999 3:24.376684 4:430 5:430 6:430 7:33 8:36 9:33 10:13.309678 11:21.380112 12:27.575623 13:5126 14:4321 15:3492 #
3.57529419682287862600027217308e-05 1:26.157749 2:30.074905 3:33.667778 4:216 5:216 6:216 7:25 8:29 9:33 10:10.674582 11:10.945537 12:10.916477 13:2170 14:1596 15:1452 #
2.1705071541879475931083667838983e-05 1:0.65191805 2:25.857088 3:39.462379 4:9 5:9 6:9 7:1 8:25 9:38 10:1.1474296 11:2.69137 12:4.7385445 13:5786 14:6880 15:7081 #
5.4795862550554804738800473984384e-08 1:20.164696 2:22.449636 3:23.888243 4:497 5:497 6:497 7:20 8:22 9:22 10:1.9324415 11:1.6304981 12:2.0186858 13:7926 14:7930 15:7901 #
-4.1042360841125891113279067212716e-05 1:51.95409 2:39.346828 3:23.248743 4:433 5:433 6:433 7:55 8:41 9:22 10:10.5075 11:8.6038036 12:6.9828935 13:5518 14:4722 15:1933 #
1.1358390987054862728212112008008e-07 1:2.6361935 2:1.51727 3:2.0554123 4:386 5:386 6:386 7:6 8:1 9:2 10:9.2010269 11:5.2621059 12:2.9886715 13:6924 14:2739 15:2481 #
1.9925808847798265333040035329759e-05 1:28.505861 2:71.80603 3:102.28894 4:611 5:611 6:611 7:28 8:78 9:114 10:0.88490421 11:7.0590854 12:17.52582 13:8306 14:9146 15:10099 #
-5.9012047478970567401107549798667e-05 1:64.270927 2:61.718998 3:54.266685 4:83 5:83 6:83 7:89 8:90 9:84 10:20.023695 11:3.9901345 12:2.1048412 13:9911 14:4417 15:3839 #
0.00014625703863439809548907533098827 1:22.657749 2:28.954905 3:31.897778 4:23 5:23 6:23 7:21 8:29 9:31 10:12.087828 11:12.853756 12:12.705156 13:2241 14:1603 15:1443 #
-5.2193843391101274107029411863934e-08 1:32.028099 2:49.669289 3:58.577103 4:27 5:27 6:27 7:31 8:48 9:57 10:8.9561415 11:16.85969 12:20.060909 13:4445 14:3848 15:3018 #
1.1667260703285633427982691256997e-07 1:19.195862 2:47.85603 3:67.418938 4:294 5:294 6:294 7:22 8:56 9:80 10:3.273345 11:12.364212 12:19.911055 13:7488 14:7683 15:8350 #
-2.631544421445463662187144726623e-05 1:41.006195 2:17.747271 3:15.275413 4:20 5:20 6:20 7:51 8:21 9:18 10:15.882671 11:5.0204821 12:5.2454958 13:4551 14:1215 15:1131 #
-3.3097164760409469863589038141072e-05 1:35.906193 2:19.98727 3:17.675413 4:446 5:446 6:446 7:45 8:22 9:20 10:20.241795 11:6.9606142 12:5.9079156 13:5456 14:1935 15:1785 #
-0.00064999999999999997016275621319892 1:40.945862 2:78.106033 3:106.71894 4:311 5:311 6:311 7:41 8:83 9:117 10:8.3397694 11:18.354433 12:24.733137 13:7798 14:8327 15:9265 #
1.0707896881009134845176566930292e-05 1:11.935863 2:48.30603 3:76.398941 4:292 5:292 6:292 7:15 8:58 9:88 10:8.7175856 11:1.9350654 12:10.626914 13:7745 14:8288 15:9158 #
1.3522075292598223202143042920298e-07 1:24.667749 2:27.394905 3:31.137777 4:212 5:212 6:212 7:24 8:27 9:31 10:9.9933252 11:11.030686 12:11.161019 13:2162 14:1597 15:1439 #
2.7512399044241548945900072142834e-05 1:17.61409 2:32.043171 3:122.84126 4:376 5:376 6:376 7:22 8:28 9:130 10:6.7334561 11:3.4346285 12:22.083445 13:7636 14:8222 15:8646 #
-0.0005094079133512851437215473993092 1:35.63586 2:68.286034 3:96.418938 4:611 5:611 6:611 7:34 8:74 9:108 10:1.7138522 11:9.763422 12:19.188749 13:8383 14:8803 15:9604 #
-8.3326233638856926763324728391069e-05 1:103.45216 2:86.557777 3:75.34877 4:138 5:138 6:138 7:111 8:94 9:83 10:14.972934 11:16.679363 12:20.582016 13:2122 14:2119 15:2235 #
-4.648098180648656963851838956614e-07 1:59.173805 2:22.582729 3:20.504587 4:229 5:229 6:229 7:56 8:23 9:21 10:29.773075 11:8.5025358 12:7.5073037 13:9590 14:4204 15:3952 #
0.00064999999999999997016275621319892 1:59.841949 2:87.532372 3:86.104225 4:407 5:407 6:407 7:68 8:104 9:103 10:14.649998 11:27.78314 12:28.077684 13:3033 14:1850 15:1880 #
0.00022057242251733930049617526947259 1:17.414696 2:17.569637 3:16.938242 4:414 5:414 6:414 7:15 8:15 9:13 10:10.25437 11:10.86804 12:10.794905 13:9881 14:9761 15:9687 #
-5.1635403116831530743145728390431e-05 1:15.018049 2:22.557632 3:23.255777 4:521 5:521 6:521 7:6 8:7 9:8 10:18.642029 11:32.185646 12:31.885469 13:5148 14:5213 15:5202 #
9.2609117523134026894737758084375e-05 1:24.094694 2:23.879637 3:24.748243 4:14 5:14 6:14 7:22 8:21 9:21 10:1.5026568 11:2.0301008 12:1.8391857 13:8893 14:8778 15:8792 #
3.8045868440963068950015635305562e-08 1:27.359076 2:47.148998 3:61.046684 4:31 5:31 6:31 7:29 8:54 9:70 10:12.779171 11:18.838896 12:25.561594 13:5280 14:3723 15:2150 #
5.3802268371039296823710174066946e-06 1:23.577749 2:28.154905 3:31.777777 4:216 5:216 6:216 7:22 8:27 9:31 10:10.741144 11:11.756756 12:11.434822 13:2150 14:1533 15:1378 #
4.6668178438569185573214781470597e-05 1:22.35775 2:27.774906 3:30.947777 4:22 5:22 6:22 7:21 8:28 9:30 10:11.729682 11:11.207643 12:11.461578 13:2172 14:1539 15:1403 #
-1.5304283535577667407778790220618e-05 1:75.506195 2:33.477268 3:28.635412 4:28 5:28 6:28 7:78 8:33 9:28 10:34.383995 11:14.416255 12:13.102149 13:3169 14:568 15:559 #
-2.3177410265525638655148554789776e-06 1:119.3662 2:24.55727 3:29.195412 4:30 5:30 6:30 7:122 8:24 9:29 10:37.511662 11:15.918468 12:15.297904 13:1231 14:567 15:212 #
5.4619929999154699087546283031713e-07 1:23.087749 2:25.844906 3:29.887777 4:216 5:216 6:216 7:22 8:25 9:29 10:10.769981 11:11.120941 12:11.427271 13:2245 14:1669 15:1519 #
1.8831772906909016729315453630988e-05 1:26.605862 2:67.356033 3:98.958939 4:611 5:611 6:611 7:28 8:73 9:111 10:2.8981111 11:4.2375274 12:15.787137 13:8715 14:9413 15:9894 #
-7.3847882577887906683341472189458e-08 1:12.685802 2:14.116924 3:16.076506 4:13 5:13 6:13 7:24 8:25 9:28 10:17.319817 11:17.263756 12:16.973627 13:10455 14:10280 15:10299 #
1.1917489423118830512212670087388e-07 1:73.136192 2:19.997271 3:19.195412 4:276 5:276 6:276 7:77 8:21 9:20 10:27.321964 11:7.737042 12:7.2597713 13:3690 14:1465 15:1334 #
-2.4254598107579816344635649863481e-07 1:9.8393364 2:16.3606 3:15.605183 4:21 5:21 6:21 7:15 8:19 9:17 10:8.9031515 11:13.532701 12:12.551054 13:11432 14:10655 15:9745 #
1.2899299714865117015062147276527e-07 1:60.061951 2:86.352371 3:86.764221 4:405 5:405 6:405 7:68 8:102 9:103 10:14.364186 11:29.895193 12:30.058439 13:2836 14:1646 15:1572 #
