SVM-light Version V6.02
0 # kernel type
3 # kernel parameter -d 
1 # kernel parameter -g 
1 # kernel parameter -s 
1 # kernel parameter -r 
empty# kernel parameter -u 
15 # highest feature index 
57506 # number of training documents 
307 # number of support vectors plus 1 
1.0214678 # threshold b, each following line is a SV (starting with alpha*y)
-0.00050000000000000001040834085586084 1:9.367835 2:19.15222 3:24.081232 4:244 5:244 6:244 7:3 8:14 9:18 10:15.257005 11:15.518928 12:16.504004 13:6446 14:6131 15:6186 #
0.00050000000000000001040834085586084 1:6.862165 2:4.7422199 3:7.5612316 4:21 5:21 6:21 7:12 8:1 9:2 10:16.817112 11:15.514217 12:16.222628 13:5740 14:5507 15:5515 #
-0.00050000000000000001040834085586084 1:38.459694 2:32.09531 3:36.78867 4:210 5:210 6:210 7:39 8:42 9:46 10:18.891293 11:20.480009 12:20.386141 13:4045 14:4158 15:4118 #
-0.00050000000000000001040834085586084 1:19.681017 2:17.459513 3:18.064304 4:36 5:36 6:36 7:31 8:29 9:28 10:4.7736712 11:4.3749533 12:3.8059177 13:5722 14:5685 15:5620 #
-0.00050000000000000001040834085586084 1:25.38883 2:31.666315 3:36.774582 4:16 5:16 6:16 7:22 8:27 9:35 10:9.6538906 11:9.439187 12:8.1982212 13:10686 14:10480 15:10396 #
-0.00050000000000000001040834085586084 1:71.426193 2:32.017269 3:25.715412 4:283 5:283 6:283 7:74 8:31 9:25 10:33.986759 11:13.359096 12:12.204 13:3410 14:798 15:796 #
0.00050000000000000001040834085586084 1:73.136192 2:19.997271 3:19.195412 4:276 5:276 6:276 7:77 8:21 9:20 10:27.321964 11:7.737042 12:7.2597713 13:3690 14:1465 15:1334 #
-0.00050000000000000001040834085586084 1:72.916191 2:30.88727 3:26.505413 4:281 5:281 6:281 7:77 8:31 9:26 10:33.750156 11:14.241694 12:13.424814 13:3129 14:615 15:564 #
0.00029446818095907122776397346619603 1:2.0777497 2:1.2749054 3:3.2277768 4:1 5:1 6:1 7:1 8:1 9:3 10:6.9258146 11:6.5096459 12:6.630908 13:3617 14:3189 15:3061 #
0.00050000000000000001040834085586084 1:58.936195 2:11.60727 3:9.6654119 4:454 5:454 6:454 7:62 8:11 9:10 10:25.358053 11:7.6156812 12:6.9960208 13:4539 14:2091 15:1999 #
-0.00050000000000000001040834085586084 1:17.698082 2:25.602913 3:32.837624 4:236 5:236 6:236 7:19 8:26 9:33 10:3.1859391 11:5.0030303 12:5.519875 13:5243 14:5165 15:4760 #
-0.00050000000000000001040834085586084 1:8.4419012 2:42.890709 3:43.922897 4:11 5:11 6:11 7:9 8:45 9:46 10:9.3872929 11:16.427563 12:21.087572 13:5869 14:7266 15:6751 #
9.8328226975934247713721780836948e-05 1:30.339075 2:44.799 3:52.716686 4:400 5:400 6:400 7:32 8:53 9:63 10:13.630358 11:17.953691 12:22.875509 13:5472 14:4182 15:3192 #
0.00050000000000000001040834085586084 1:2.1593359 2:0.75940102 3:0.07481771 4:471 5:471 6:471 7:4 8:4 9:1 10:2.7283697 11:6.3988543 12:4.6376939 13:10358 14:9226 15:8365 #
-0.00050000000000000001040834085586084 1:82.586197 2:33.517269 3:28.995413 4:285 5:285 6:285 7:86 8:33 9:29 10:30.974751 11:13.909637 12:12.176557 13:2882 14:604 15:609 #
0.00050000000000000001040834085586084 1:86.846191 2:31.517269 3:27.285412 4:284 5:284 6:284 7:94 8:32 9:28 10:20.330551 11:11.226807 12:10.48503 13:3360 14:1221 15:1188 #
0.00050000000000000001040834085586084 1:53.684616 2:55.733727 3:56.667744 4:143 5:143 6:143 7:58 8:58 9:58 10:28.415607 11:30.83016 12:30.419506 13:10415 14:10387 15:10432 #
0.00050000000000000001040834085586084 1:21.077749 2:24.994905 3:28.907776 4:469 5:469 6:469 7:20 8:25 9:29 10:10.489655 11:10.472223 12:10.666834 13:2358 14:1779 15:1610 #
0.00050000000000000001040834085586084 1:17.247749 2:26.504906 3:29.277777 4:465 5:465 6:465 7:17 8:28 9:31 10:5.5972362 11:5.3475347 12:5.4209166 13:3257 14:2508 15:2367 #
-0.00050000000000000001040834085586084 1:121.37619 2:26.48727 3:31.565413 4:517 5:517 6:517 7:124 8:26 9:31 10:37.522427 11:16.079044 12:15.083813 13:1172 14:524 15:164 #
0.00050000000000000001040834085586084 1:26.137751 2:28.544905 3:33.547775 4:464 5:464 6:464 7:25 8:29 9:33 10:10.176348 11:10.864215 12:11.576057 13:2238 14:1690 15:1489 #
-0.00050000000000000001040834085586084 1:17.268082 2:18.667088 3:22.912378 4:19 5:19 6:19 7:18 8:19 9:22 10:6.5357423 11:8.2371874 12:10.904112 13:4655 14:6166 15:5988 #
2.9979099401856486345919073494004e-08 1:17.264614 2:19.093727 3:21.257744 4:528 5:528 6:528 7:3 8:6 9:8 10:23.896185 11:25.272572 12:24.925039 13:8133 14:8124 15:8179 #
0.00050000000000000001040834085586084 1:11.81775 2:17.264906 3:20.587776 4:473 5:473 6:473 7:14 8:21 9:24 10:4.2509279 11:3.5758293 12:4.0197415 13:3137 14:2495 15:2352 #
-0.00050000000000000001040834085586084 1:19.498081 2:12.797088 3:11.242378 4:22 5:22 6:22 7:20 8:13 9:12 10:7.0860114 11:8.7126112 12:11.316139 13:4468 14:5865 15:5429 #
-0.00050000000000000001040834085586084 1:38.275387 2:35.596275 3:35.702255 4:41 5:41 6:41 7:44 8:41 9:41 10:0.31497326 11:2.0559461 12:1.8934792 13:5045 14:5094 15:5033 #
0.00050000000000000001040834085586084 1:64.784698 2:63.839638 3:67.36824 4:98 5:98 6:98 7:87 8:83 9:90 10:16.388124 11:20.693348 12:18.733326 13:12510 14:12381 15:12466 #
1.7099988149271880494371039782564e-05 1:24.667749 2:27.394905 3:31.137777 4:212 5:212 6:212 7:24 8:27 9:31 10:9.9933252 11:11.030686 12:11.161019 13:2162 14:1597 15:1439 #
0.00050000000000000001040834085586084 1:23.2651 2:4.2679768 3:1.9533262 4:1 5:1 6:1 7:26 8:3 9:0 10:5.1885996 11:2.0291569 12:1.6012681 13:5352 14:6564 15:6066 #
-0.00050000000000000001040834085586084 1:13.348099 2:10.81929 3:13.857102 4:490 5:490 6:490 7:12 8:9 9:12 10:9.6326923 11:17.290215 12:21.466845 13:4968 14:5119 15:4485 #
-0.00050000000000000001040834085586084 1:19.635862 2:50.12603 3:64.338943 4:22 5:22 6:22 7:20 8:57 9:73 10:8.680088 11:17.829561 12:27.06023 13:7064 14:7380 15:7816 #
0.00050000000000000001040834085586084 1:49.20327 2:70.85968 3:82.469894 4:410 5:410 6:410 7:52 8:78 9:93 10:18.371281 11:25.784216 12:31.680407 13:3940 14:2297 15:454 #
-0.00050000000000000001040834085586084 1:4.6441379 2:31.766031 3:59.888939 4:276 5:276 6:276 7:3 8:40 9:71 10:5.0180888 11:14.336423 12:23.746134 13:6021 14:6573 15:7494 #
0.00050000000000000001040834085586084 1:21.129694 2:51.245312 3:40.158669 4:206 5:206 6:206 7:22 8:60 9:48 10:18.195845 11:19.988552 12:20.246294 13:5091 14:3906 15:4422 #
0.00050000000000000001040834085586084 1:23.045101 2:4.8679767 3:10.266674 4:4 5:4 6:4 7:25 8:4 9:10 10:7.0907321 11:4.5236278 12:7.1635933 13:4997 14:6212 15:6087 #
-0.00050000000000000001040834085586084 1:39.319336 2:43.6306 3:42.235184 4:29 5:29 6:29 7:42 8:44 9:44 10:4.8584538 11:9.3860626 12:8.3911829 13:10972 14:10159 15:9247 #
0.00015318701718403687664186996197913 1:6.9064136 2:10.129187 3:8.458107 4:4 5:4 6:4 7:3 8:5 9:3 10:4.6267476 11:4.6594596 12:4.6776595 13:4750 14:4595 15:4689 #
-0.00050000000000000001040834085586084 1:3.69591 2:2.7268298 3:25.998743 4:374 5:374 6:374 7:2 8:3 9:24 10:19.383646 11:17.779846 12:13.086761 13:7589 14:6099 15:1779 #
0.00050000000000000001040834085586084 1:73.976196 2:16.347269 3:15.765412 4:25 5:25 6:25 7:78 8:16 9:15 10:23.733133 11:6.5015421 12:5.159615 13:4211 14:2081 15:1989 #
0.00050000000000000001040834085586084 1:22.275101 2:4.527977 3:2.1966736 4:5 5:5 6:5 7:24 8:4 9:3 10:7.3666177 11:4.4106135 12:7.538444 13:5055 14:6228 15:5874 #
0.00050000000000000001040834085586084 1:21.325102 2:4.6279769 3:5.0066738 4:2 5:2 6:2 7:24 8:4 9:5 10:8.0781593 11:5.1008196 12:8.7625332 13:4976 14:6101 15:5859 #
-0.00050000000000000001040834085586084 1:9.7877502 2:9.6649055 3:9.2577772 4:222 5:222 6:222 7:11 8:12 9:11 10:2.9722502 11:2.7520781 12:3.1286256 13:3910 14:3483 15:3475 #
-0.00050000000000000001040834085586084 1:37.416195 2:18.077271 3:17.015411 4:18 5:18 6:18 7:40 8:18 9:17 10:31.765957 11:12.346661 12:11.858239 13:4967 14:1622 15:1362 #
-0.00050000000000000001040834085586084 1:25.035862 2:47.53603 3:55.44894 4:24 5:24 6:24 7:26 8:54 9:65 10:6.8000631 11:16.791151 12:25.397249 13:7251 14:7252 15:7444 #
0.00050000000000000001040834085586084 1:66.87619 2:14.14727 3:13.505412 4:11 5:11 6:11 7:68 8:13 9:12 10:29.95874 11:9.7556581 12:8.5950928 13:4528 14:2252 15:2231 #
-0.00050000000000000001040834085586084 1:97.652168 2:81.06778 3:71.508766 4:113 5:113 6:113 7:103 8:85 9:77 10:17.383329 11:18.894518 12:21.750784 13:2314 14:2305 15:2491 #
-0.00050000000000000001040834085586084 1:3.6248987 2:10.532023 3:2.9833262 4:260 5:260 6:260 7:1 8:11 9:3 10:5.8473449 11:2.7410858 12:4.7161174 13:6068 14:5737 15:5702 #
0.00050000000000000001040834085586084 1:82.216194 2:27.267269 3:25.335413 4:35 5:35 6:35 7:85 8:28 9:26 10:24.970913 11:9.4117832 12:8.9101353 13:3907 14:1776 15:1636 #
-0.00050000000000000001040834085586084 1:4.3451014 2:3.1120231 3:2.4633262 4:4 5:4 6:4 7:6 8:4 9:2 10:6.3990755 11:3.8755841 12:6.9541135 13:5734 14:6011 15:5757 #
0.00050000000000000001040834085586084 1:71.341949 2:89.20237 3:86.534225 4:409 5:409 6:409 7:80 8:104 9:102 10:15.572824 11:29.127975 12:29.467163 13:2485 14:1638 15:1738 #
-0.00050000000000000001040834085586084 1:35.645863 2:72.276031 3:97.828941 4:37 5:37 6:37 7:36 8:79 9:106 10:5.6160583 11:15.098536 12:22.988205 13:8200 14:8739 15:9507 #
0.00050000000000000001040834085586084 1:24.815102 2:2.0120232 3:42.913326 4:3 5:3 6:3 7:27 8:3 9:43 10:6.4324789 11:3.4040365 12:5.4157691 13:5178 14:6222 15:4439 #
-0.00050000000000000001040834085586084 1:4.9248986 2:11.702024 3:2.8566737 4:12 5:12 6:12 7:3 8:12 9:3 10:5.523612 11:3.1125796 12:7.5688443 13:6201 14:5767 15:5995 #
0.00050000000000000001040834085586084 1:65.601921 2:75.507088 3:81.782379 4:67 5:67 6:67 7:70 8:83 9:90 10:21.287775 11:20.084244 12:18.706692 13:10537 14:11087 15:11020 #
-0.00050000000000000001040834085586084 1:122.46619 2:27.577271 3:32.655411 4:517 5:517 6:517 7:125 8:27 9:32 10:37.523132 11:16.07975 12:15.084518 13:1144 14:496 15:136 #
0.00031179353058416160943480677225637 1:1.0041379 2:17.666031 3:27.818941 4:9 5:9 6:9 7:1 8:28 9:40 10:0.50178629 11:7.0861249 12:14.153475 13:6988 14:6899 15:7155 #
-0.00050000000000000001040834085586084 1:22.245386 2:20.266273 3:20.102257 4:35 5:35 6:35 7:25 8:23 9:22 10:1.3630422 11:0.61314428 12:1.1613014 13:5697 14:5685 15:5639 #
0.00050000000000000001040834085586084 1:73.826195 2:27.40727 3:24.905413 4:35 5:35 6:35 7:74 8:28 9:26 10:18.760612 11:8.4562597 12:9.0504608 13:4186 14:1692 15:1596 #
-0.0001933956976358786050695925951004 1:11.110925 2:13.731002 3:13.213315 4:465 5:465 6:465 7:9 8:6 9:3 10:16.469122 11:24.120106 12:28.898272 13:6512 14:5821 15:4782 #
-0.00050000000000000001040834085586084 1:16.558098 2:22.80929 3:24.557102 4:239 5:239 6:239 7:16 8:21 9:22 10:8.975359 11:16.490759 12:17.544834 13:4869 14:4749 15:4382 #
0.00050000000000000001040834085586084 1:21.635101 2:3.2679768 3:4.3866739 4:1 5:1 6:1 7:24 8:2 9:3 10:7.7877979 11:4.81007 12:4.9698195 13:5083 14:6180 15:5967 #
-0.00050000000000000001040834085586084 1:3.9451013 2:18.752024 3:12.033326 4:267 5:267 6:267 7:7 8:19 9:12 10:5.754745 11:3.5910025 12:6.3749185 13:5817 14:5454 15:5440 #
-0.00050000000000000001040834085586084 1:1.5051013 2:1.7920232 3:0.043326277 4:4 5:4 6:4 7:4 8:3 9:0 10:7.6611152 11:4.6174564 12:7.6301942 13:5709 14:5890 15:5717 #
0.00050000000000000001040834085586084 1:47.266872 2:43.395649 3:40.451626 4:158 5:158 6:158 7:7 8:3 9:1 10:45.736336 11:46.839764 12:46.3237 13:5677 14:5664 15:5721 #
-0.00050000000000000001040834085586084 1:20.319336 2:22.7906 3:20.245182 4:473 5:473 6:473 7:24 8:23 9:19 10:6.6486607 11:10.546937 12:9.3171043 13:11444 14:10485 15:9530 #
-0.00050000000000000001040834085586084 1:19.998081 2:30.022913 3:27.697622 4:17 5:17 6:17 7:20 8:30 9:28 10:4.0956349 11:6.3264451 12:7.7798147 13:4949 14:4824 15:4590 #
8.6039300730591695303729748989241e-08 1:25.886873 2:22.935648 3:19.071625 4:6 5:6 6:6 7:2 8:0 9:3 10:35.460117 11:35.802635 12:34.786274 13:6167 14:6144 15:6275 #
-0.00050000000000000001040834085586084 1:12.43775 2:10.834906 3:10.977777 4:474 5:474 6:474 7:12 8:12 9:11 10:2.4786456 11:2.4606745 12:2.6043327 13:4033 14:3671 15:3621 #
0.00014511638572831055040562864277831 1:5.2778354 2:45.327782 3:55.16877 4:399 5:399 6:399 7:3 8:56 9:68 10:12.026467 11:4.9729671 12:7.4730635 13:6206 14:3869 15:3141 #
0.00050000000000000001040834085586084 1:53.7658 2:44.486923 3:60.323494 4:98 5:98 6:98 7:80 8:71 9:62 10:33.552525 11:45.629635 12:30.473536 13:11801 14:11833 15:8672 #
0.00050000000000000001040834085586084 1:39.34119 2:38.216496 3:36.034145 4:223 5:223 6:223 7:39 8:38 9:35 10:3.3854902 11:2.5747602 12:2.0946844 13:4765 14:4719 15:4637 #
-2.376359496736313303699716925621e-06 1:2.7859101 2:7.7668295 3:27.188742 4:377 5:377 6:377 7:2 8:7 9:26 10:15.960988 11:13.667663 12:10.128936 13:7382 14:5736 15:1638 #
-0.00050000000000000001040834085586084 1:3.54409 2:10.87317 3:4.2087421 4:148 5:148 6:148 7:6 8:11 9:3 10:19.059954 11:17.44776 12:9.5063114 13:7310 14:6612 15:2780 #
-0.00030882595517484068281532927358057 1:1.0288303 2:5.5336852 3:10.945418 4:251 5:251 6:251 7:1 8:11 9:16 10:7.3418088 11:6.0389004 12:5.0243182 13:8594 14:7875 15:7377 #
-0.00050000000000000001040834085586084 1:54.759693 2:55.335312 3:55.648666 4:65 5:65 6:65 7:55 8:64 9:64 10:17.632645 11:18.722609 12:18.127022 13:3589 14:3538 15:3579 #
0.00050000000000000001040834085586084 1:53.616192 2:5.7272701 3:8.3854122 4:10 5:10 6:10 7:58 8:6 9:9 10:26.096855 11:6.0306377 12:5.1002855 13:5228 14:2819 15:2530 #
0.00016633014093759125682364663489921 1:19.219694 2:40.335312 3:34.158669 4:214 5:214 6:214 7:19 8:47 9:41 10:17.415949 11:13.530652 12:15.428805 13:4903 14:4019 15:4408 #
0.00050000000000000001040834085586084 1:1.0693359 2:5.9705992 3:6.3951821 4:24 5:24 6:24 7:4 8:2 9:1 10:0.40888426 11:4.5098481 12:3.4540391 13:11093 14:10257 15:9418 #
-3.0969290800025977734821183619957e-08 1:59.163807 2:25.45273 3:23.054588 4:228 5:228 6:228 7:56 8:26 9:23 10:31.260977 11:10.463008 12:9.8885307 13:8506 14:3193 15:2923 #
-0.00050000000000000001040834085586084 1:81.322166 2:65.337784 3:56.808769 4:152 5:152 6:152 7:88 8:73 9:63 10:10.532496 11:12.07198 12:16.011637 13:2983 14:2974 15:2926 #
4.8834429956178164260703622456816e-06 1:17.76775 2:19.044905 3:20.957777 4:216 5:216 6:216 7:18 8:21 9:23 10:5.2607722 11:4.5060773 12:3.9518032 13:3064 14:2562 15:2467 #
0.00050000000000000001040834085586084 1:83.486191 2:27.197269 3:24.495413 4:35 5:35 6:35 7:84 8:29 9:26 10:20.727198 11:7.839798 12:6.7812977 13:3730 14:1780 15:1582 #
0.00016842586527530956086451396913617 1:17.919075 2:31.258999 3:37.046684 4:33 5:33 6:33 7:25 8:45 9:54 10:10.507599 11:12.923649 12:15.191014 13:6000 14:4742 15:3757 #
-0.00050000000000000001040834085586084 1:45.426193 2:21.687269 3:18.125412 4:271 5:271 6:271 7:47 8:22 9:17 10:29.084475 11:10.172101 12:8.7356901 13:4953 14:1780 15:1708 #
-0.00050000000000000001040834085586084 1:81.94619 2:33.137268 3:27.605412 4:30 5:30 6:30 7:87 8:33 9:28 10:31.107853 11:14.475192 12:13.236851 13:2815 14:484 15:461 #
0.00027942843824896600223375853211394 1:25.879694 2:71.215309 3:57.518669 4:296 5:296 6:296 7:27 8:82 9:67 10:17.357931 11:16.486212 12:15.943189 13:4938 14:3226 15:3818 #
0.00050000000000000001040834085586084 1:92.504616 2:98.833725 3:97.667747 4:143 5:143 6:143 7:99 8:108 9:106 10:2.6938553 11:1.2225227 12:0.83705485 13:10303 14:10406 15:10370 #
-6.6029810299350621960456919623539e-05 1:15.735862 2:48.10603 3:72.018944 4:12 5:12 6:12 7:14 8:53 9:81 10:0.50982559 11:10.691027 12:20.511261 13:7844 14:8225 15:9158 #
0.00050000000000000001040834085586084 1:0.84586215 2:31.04603 3:46.388939 4:4 5:4 6:4 7:1 8:38 9:55 10:3.8794241 11:5.4320936 12:15.146586 13:7314 14:7622 15:8007 #
-2.652230698472811320334015672967e-07 1:24.48591 2:2.5868297 3:25.608742 4:24 5:24 6:24 7:21 8:4 9:25 10:18.111198 11:16.263 12:10.556108 13:8807 14:6568 15:2426 #
-0.00022763155895755282642767269862816 1:60.643806 2:25.892731 3:23.134588 4:227 5:227 6:227 7:57 8:25 9:23 10:31.906454 11:10.280542 12:9.3927259 13:8929 14:3613 15:3337 #
7.6617300994980678397803619365802e-08 1:101.72469 2:110.68964 3:108.92825 4:158 5:158 6:158 7:100 8:109 9:108 10:30.720833 11:30.142849 12:29.709475 13:9049 14:9240 15:9206 #
0.00050000000000000001040834085586084 1:16.709076 2:16.958998 3:15.816685 4:25 5:25 6:25 7:19 8:23 9:24 10:13.836027 11:20.239208 12:26.278574 13:5589 14:4805 15:3772 #
0.00050000000000000001040834085586084 1:61.786194 2:10.51727 3:11.125412 4:14 5:14 6:14 7:66 8:10 9:12 10:26.902622 11:6.7809877 12:6.3143144 13:4660 14:2444 15:2255 #
-0.00044503472954135416157772642264945 1:65.681915 2:76.497086 3:84.582375 4:371 5:371 6:371 7:78 8:91 9:100 10:28.010845 11:25.057842 12:23.05266 13:9466 14:9996 15:9982 #
0.00011992549766200310689019670196132 1:31.909075 2:45.498997 3:54.416683 4:49 5:49 6:49 7:36 8:53 9:68 10:13.353812 11:15.369601 12:19.929806 13:5720 14:4621 15:3257 #
6.0355140086944840127602116604949e-08 1:16.217751 2:22.324905 3:25.957777 4:217 5:217 6:217 7:15 8:24 9:27 10:6.9941182 11:5.7632742 12:6.2315645 13:2776 14:2137 15:2006 #
0.00023466001354162786774956717117391 1:2.7340899 2:21.466829 3:31.058743 4:47 5:47 6:47 7:5 8:20 9:29 10:11.241071 11:8.797946 12:9.7366018 13:7837 14:5832 15:2005 #
-0.00050000000000000001040834085586084 1:82.016197 2:12.46727 3:19.605412 4:32 5:32 6:32 7:111 8:23 9:29 10:9.321147 11:3.5042706 12:2.6548069 13:3498 14:1689 15:1312 #
-0.00050000000000000001040834085586084 1:40.306194 2:19.177271 3:16.875412 4:277 5:277 6:277 7:44 8:19 9:18 10:28.153866 11:8.2318573 12:6.7899561 13:5398 14:2222 15:2063 #
4.1178735325066393252132525282239e-06 1:18.92775 2:26.784906 3:31.197777 4:215 5:215 6:215 7:17 8:27 9:31 10:10.004008 11:10.140261 12:9.8569231 13:2436 14:1727 15:1549 #
-0.00050000000000000001040834085586084 1:43.066193 2:21.937269 3:19.305412 4:28 5:28 6:28 7:46 8:24 9:21 10:20.494593 11:7.4244862 12:6.3300357 13:5204 14:1839 15:1777 #
-1.4299202221786902651523565310754e-05 1:75.506195 2:33.477268 3:28.635412 4:28 5:28 6:28 7:78 8:33 9:28 10:34.383995 11:14.416255 12:13.102149 13:3169 14:568 15:559 #
0.00050000000000000001040834085586084 1:15.379075 2:17.788998 3:19.476685 4:430 5:430 6:430 7:17 8:25 9:30 10:14.073657 11:20.139059 12:26.216276 13:5788 14:4817 15:3718 #
-4.5967543230218677052789644221775e-05 1:40.945862 2:78.106033 3:106.71894 4:311 5:311 6:311 7:41 8:83 9:117 10:8.3397694 11:18.354433 12:24.733137 13:7798 14:8327 15:9265 #
5.6993020604187939943431617795255e-05 1:6.3358622 2:36.28603 3:64.198944 4:10 5:10 6:10 7:7 8:44 9:75 10:1.3137475 11:10.197716 12:16.794325 13:7546 14:7823 15:8700 #
0.00050000000000000001040834085586084 1:22.26775 2:27.604906 3:31.097776 4:218 5:218 6:218 7:20 8:27 9:31 10:10.691948 11:11.838468 12:11.857368 13:2265 14:1626 15:1506 #
-8.7210088947444414704968790319484e-08 1:22.19591 2:1.7768296 3:32.658741 4:47 5:47 6:47 7:19 8:2 9:33 10:10.204124 11:7.955884 12:8.2384338 13:8689 14:6585 15:2074 #
-0.00050000000000000001040834085586084 1:36.620926 2:43.181 3:47.953316 4:29 5:29 6:29 7:34 8:36 9:38 10:16.29187 11:22.5284 12:27.71488 13:7516 14:6950 15:6113 #
-0.00050000000000000001040834085586084 1:100.46217 2:83.807777 3:73.828766 4:138 5:138 6:138 7:106 8:89 9:79 10:14.60104 11:15.988355 12:20.060471 13:2202 14:2173 15:2239 #
-7.4567877629337062138706326841486e-05 1:89.932167 2:69.217781 3:45.698769 4:95 5:95 6:95 7:90 8:69 9:48 10:9.9974461 11:12.210461 12:17.862293 13:2735 14:2895 15:3368 #
0.00050000000000000001040834085586084 1:5.5658622 2:22.696032 3:36.26894 4:7 5:7 6:7 7:3 8:24 9:39 10:1.0562457 11:5.0575819 12:10.22596 13:7635 14:7435 15:7735 #
-0.00050000000000000001040834085586084 1:32.989075 2:31.938999 3:30.986685 4:41 5:41 6:41 7:36 8:39 9:41 10:17.339563 11:24.717686 12:28.967312 13:4959 14:4135 15:3183 #
0.00050000000000000001040834085586084 1:0.4878352 2:52.447781 3:62.928768 4:14 5:14 6:14 7:5 8:62 9:73 10:16.20389 11:8.2237072 12:12.163004 13:6120 14:3580 15:2823 #
5.3760691178983080083450540875845e-05 1:39.654613 2:42.293728 3:45.787743 4:143 5:143 6:143 7:9 8:11 9:16 10:27.874033 11:30.380428 12:28.631958 13:9332 14:9357 15:9427 #
1.31136672324042727815840772565e-05 1:16.109695 2:47.965309 3:34.328667 4:283 5:283 6:283 7:17 8:61 9:46 10:17.018515 11:11.117971 12:13.158371 13:5125 14:3891 15:4489 #
-0.00020259324720699970617809881900939 1:41.706192 2:20.497271 3:17.875412 4:274 5:274 6:274 7:44 8:21 9:17 10:30.944025 11:10.517301 12:9.8196936 13:5528 14:2056 15:1948 #
-0.00050000000000000001040834085586084 1:40.149075 2:32.288998 3:21.006685 4:50 5:50 6:50 7:43 8:40 9:31 10:17.511187 11:24.46896 12:29.294498 13:4824 14:4203 15:3684 #
-7.3977999042876462465446411181924e-08 1:18.04591 2:19.10317 3:27.721258 4:363 5:363 6:363 7:17 8:20 9:32 10:13.75154 11:12.778295 12:5.5096741 13:8001 14:6774 15:3901 #
-0.00050000000000000001040834085586084 1:6.6519012 2:40.940712 3:41.622898 4:307 5:307 6:307 7:8 8:43 9:43 10:8.7908182 11:16.424572 12:19.549425 13:5823 14:7174 15:6644 #
-0.00013087604357636106462529912430881 1:5.5880985 2:31.04071 3:28.552898 4:0 5:0 6:0 7:4 8:33 9:30 10:8.1840649 11:15.658666 12:19.839487 13:5545 14:6967 15:6325 #
0.00050000000000000001040834085586084 1:55.996193 2:10.08727 3:12.965412 4:10 5:10 6:10 7:59 8:10 9:12 10:29.053656 11:8.8629999 12:7.5381231 13:4590 14:2076 15:1827 #
-8.9388940080134537957690099574393e-06 1:4.6059098 2:15.493171 3:23.751257 4:32 5:32 6:32 7:1 8:15 9:28 10:14.415299 11:14.312534 12:7.1231828 13:7982 14:7081 15:4222 #
0.00050000000000000001040834085586084 1:42.379074 2:57.308998 3:64.126686 4:386 5:386 6:386 7:45 8:65 9:74 10:13.711256 11:17.479343 12:26.163761 13:4945 14:3727 15:2366 #
1.6202372063856522324890030439803e-05 1:24.70195 2:58.742367 3:58.084221 4:424 5:424 6:424 7:35 8:78 9:78 10:9.8096151 11:19.840841 12:21.194588 13:4371 14:2953 15:2962 #
-0.00050000000000000001040834085586084 1:79.972168 2:62.227779 3:54.628769 4:91 5:91 6:91 7:85 8:66 9:59 10:18.961153 11:19.759251 12:22.64612 13:3010 14:3026 15:3085 #
0.00024715078160803314157381582738537 1:0.8561936 2:0.21273004 3:0.19541232 4:5 5:5 6:5 7:3 8:2 9:1 10:6.2200627 11:2.0994871 12:1.2085572 13:7699 14:3634 15:3390 #
1.992773904993029660323708082692e-06 1:34.634613 2:31.433725 3:28.637745 4:23 5:23 6:23 7:34 8:31 9:27 10:7.2111411 11:6.406323 12:5.7693028 13:7492 14:7292 15:7207 #
-0.00050000000000000001040834085586084 1:43.096195 2:20.847269 3:18.645412 4:442 5:442 6:442 7:47 8:21 9:18 10:28.634115 11:8.8456087 12:8.5937719 13:5259 14:1992 15:1843 #
-0.00050000000000000001040834085586084 1:103.45216 2:86.557777 3:75.34877 4:138 5:138 6:138 7:111 8:94 9:83 10:14.972934 11:16.679363 12:20.582016 13:2122 14:2119 15:2235 #
5.2491475537884515998611999199053e-06 1:18.057751 2:22.744905 3:27.327776 4:218 5:218 6:218 7:17 8:23 9:27 10:7.6195703 11:7.766326 12:8.4975815 13:2751 14:2081 15:1920 #
0.00015851147994219716430563948961208 1:11.169075 2:15.528998 3:18.576685 4:14 5:14 6:14 7:13 8:21 9:27 10:13.242477 11:16.888294 12:23.379879 13:5797 14:4824 15:3632 #
0.00050000000000000001040834085586084 1:26.157749 2:30.074905 3:33.667778 4:216 5:216 6:216 7:25 8:29 9:33 10:10.674582 11:10.945537 12:10.916477 13:2170 14:1596 15:1452 #
0.00050000000000000001040834085586084 1:3.4780495 2:9.497632 3:9.7557774 4:10 5:10 6:10 7:5 8:6 9:6 10:17.550409 11:31.011101 12:31.102947 13:4780 14:4780 15:4780 #
-0.00050000000000000001040834085586084 1:9.6577501 2:7.9749055 3:7.1677766 4:485 5:485 6:485 7:12 8:11 9:10 10:0.67832398 11:1.0163393 12:1.1618738 13:3384 14:3007 15:2984 #
-0.00050000000000000001040834085586084 1:2.6377497 2:0.7149055 3:1.0677768 4:3 5:3 6:3 7:3 8:2 9:2 10:0.63925326 11:0.51797593 12:0.71602219 13:3959 14:3599 15:3551 #
-0.00050000000000000001040834085586084 1:34.520924 2:41.871002 3:47.673317 4:30 5:30 6:30 7:32 8:34 9:38 10:15.554748 11:22.051979 12:27.013666 13:7449 14:6888 15:6159 #
-0.00035611270783033471820644422223268 1:29.409075 2:26.228998 3:23.056684 4:40 5:40 6:40 7:33 8:34 9:34 10:17.948347 11:24.244341 12:30.624653 13:4992 14:4301 15:3392 #
0.00050000000000000001040834085586084 1:7.0790749 2:5.5589981 3:2.1866846 4:446 5:446 6:446 7:9 8:13 9:13 10:16.970789 11:23.597916 12:28.598623 13:6060 14:5411 15:4401 #
0.00050000000000000001040834085586084 1:116.78687 2:119.90565 3:112.14162 4:158 5:158 6:158 7:122 8:129 9:121 10:2.5424812 11:2.4273064 12:2.2625914 13:2421 14:2199 15:2467 #
-0.00046823942103174642781482361897361 1:77.952164 2:59.287781 3:52.608768 4:86 5:86 6:86 7:82 8:63 9:56 10:14.529608 11:16.047129 12:19.299425 13:3194 14:3247 15:3244 #
-0.00050000000000000001040834085586084 1:8.8364134 2:4.2691865 3:3.0081067 4:525 5:525 6:525 7:10 8:6 9:5 10:5.8716159 11:8.6997194 12:7.6614041 13:4050 14:4194 15:4302 #
0.00050000000000000001040834085586084 1:5.4635868 2:6.0108132 3:4.2818933 4:1 5:1 6:1 7:4 8:4 9:2 10:5.7890029 11:8.6171064 12:7.6170812 13:4549 14:4552 15:4546 #
0.00028713313376933075320857069456792 1:20.429695 2:49.41531 3:38.838669 4:63 5:63 6:63 7:22 8:59 9:47 10:18.662102 11:20.167391 12:20.162514 13:5154 14:3978 15:4501 #
-2.1810640650694284838539624415965e-06 1:61.942165 2:48.797779 3:48.82877 4:177 5:177 6:177 7:67 8:53 9:53 10:18.308756 11:19.216299 12:23.932667 13:3728 14:3588 15:3184 #
0.00050000000000000001040834085586084 1:82.416191 2:11.11727 3:20.385412 4:32 5:32 6:32 7:108 8:18 9:28 10:4.2619596 11:0.37030196 12:1.7424765 13:3707 14:2013 15:1467 #
9.6923888692302577651984784451455e-07 1:16.307751 2:15.544906 3:15.297777 4:222 5:222 6:222 7:18 8:18 9:18 10:1.9104475 11:2.0684335 12:2.0333893 13:3377 14:2998 15:2961 #
3.707465682834836835516170716609e-06 1:12.38775 2:14.884906 3:16.177776 4:234 5:234 6:234 7:11 8:14 9:15 10:4.8813696 11:4.3748622 12:3.8200004 13:3363 14:2848 15:2774 #
-0.00011436847328402579421213758337217 1:119.3662 2:24.55727 3:29.195412 4:30 5:30 6:30 7:122 8:24 9:29 10:37.511662 11:15.918468 12:15.297904 13:1231 14:567 15:212 #
-6.9133698781073279214829611222237e-07 1:20.855862 2:60.89603 3:86.868942 4:611 5:611 6:611 7:23 8:67 9:98 10:11.571966 11:0.6069476 12:10.453866 13:8628 14:9297 15:10065 #
0.00016118526592002406071929554443045 1:8.9377499 2:10.354905 3:11.027777 4:236 5:236 6:236 7:10 8:11 9:12 10:3.0379848 11:1.7362443 12:1.4616477 13:3328 14:2842 15:2770 #
0.00050000000000000001040834085586084 1:22.657749 2:28.954905 3:31.897778 4:23 5:23 6:23 7:21 8:29 9:31 10:12.087828 11:12.853756 12:12.705156 13:2241 14:1603 15:1443 #
0.00050000000000000001040834085586084 1:67.296196 2:22.63727 3:19.325413 4:19 5:19 6:19 7:72 8:23 9:20 10:25.392277 11:8.0238762 12:6.7759976 13:4771 14:2184 15:2074 #
-5.7296695458266447825029527712859e-07 1:7.4258623 2:30.666031 3:47.67894 4:287 5:287 6:287 7:16 8:53 9:77 10:5.8002806 11:1.547505 12:1.6546395 13:6950 14:6981 15:7538 #
-0.00050000000000000001040834085586084 1:13.955862 2:57.266029 3:87.838943 4:290 5:290 6:290 7:14 8:63 9:96 10:7.1880007 11:17.409046 12:26.28097 13:7279 14:8024 15:9010 #
0.00024388372986453151977648268200483 1:3.0377498 2:3.2949054 3:4.6377769 4:8 5:8 6:8 7:2 8:3 9:4 10:4.1543884 11:4.1463385 12:4.5019112 13:4135 14:3681 15:3617 #
0.00050000000000000001040834085586084 1:58.540665 2:86.099403 3:70.92482 4:380 5:380 6:380 7:57 8:90 9:72 10:8.2437944 11:19.53816 12:25.534544 13:5260 14:3152 15:2888 #
-2.859174670678187748606817464303e-05 1:33.515862 2:53.076031 3:61.848942 4:43 5:43 6:43 7:38 8:71 9:83 10:10.328878 11:8.1696377 12:4.4718671 13:8198 14:8069 15:8308 #
0.00050000000000000001040834085586084 1:24.882242 2:24.810768 3:21.816122 4:250 5:250 6:250 7:27 8:26 9:22 10:13.244112 11:13.542109 12:12.074175 13:5156 14:4527 15:3709 #
-9.0403956482766648593534658528981e-07 1:27.065863 2:52.46603 3:72.728943 4:289 5:289 6:289 7:27 8:61 9:90 10:1.1858904 11:7.7720118 12:10.84022 13:8043 14:8125 15:8685 #
-0.00050000000000000001040834085586084 1:69.726196 2:5.5872698 3:13.405413 4:34 5:34 6:34 7:96 8:17 9:23 10:14.467364 11:5.1748595 12:4.4580317 13:4061 14:1935 15:1479 #
-4.0282658125091118069341367124991e-05 1:14.63591 2:11.663171 3:22.971258 4:365 5:365 6:365 7:11 8:11 9:22 10:11.974424 11:9.3927422 12:1.2279263 13:8827 14:7476 15:4584 #
1.0060111394503032616713766866923e-05 1:32.953808 2:11.62273 3:12.404588 4:9 5:9 6:9 7:30 8:11 9:12 10:30.594736 11:9.2517338 12:8.4419422 13:7725 14:2999 15:2813 #
0.00050000000000000001040834085586084 1:10.075862 2:57.886032 3:91.228943 4:611 5:611 6:611 7:10 8:62 9:97 10:5.0577302 11:3.9601827 12:14.041122 13:7633 14:8546 15:9604 #
-1.5385232497342585788132371220349e-07 1:69.392166 2:50.297779 3:44.07877 4:76 5:76 6:76 7:73 8:52 9:47 10:14.524603 11:14.528122 12:18.593746 13:3385 14:3505 15:3448 #
0.00050000000000000001040834085586084 1:22.795101 2:4.7279768 3:5.7366738 4:5 5:5 6:5 7:24 8:4 9:7 10:7.075242 11:4.3368683 12:7.7037206 13:4957 14:6126 15:5871 #
-8.7846148387499877548297011475853e-05 1:28.925861 2:64.19603 3:89.578941 4:36 5:36 6:36 7:30 8:72 9:103 10:6.8365369 11:16.544521 12:22.30987 13:7460 14:7925 15:8744 #
-0.00050000000000000001040834085586084 1:5.6219015 2:38.550709 3:42.142899 4:16 5:16 6:16 7:8 8:42 9:45 10:6.48312 11:13.960221 12:18.026396 13:6484 14:7780 15:7413 #
-0.00050000000000000001040834085586084 1:41.006195 2:17.747271 3:15.275413 4:20 5:20 6:20 7:51 8:21 9:18 10:15.882671 11:5.0204821 12:5.2454958 13:4551 14:1215 15:1131 #
0.00050000000000000001040834085586084 1:67.326195 2:28.107269 3:23.225412 4:284 5:284 6:284 7:63 8:28 9:24 10:19.855442 11:9.4538002 12:8.0497923 13:4053 14:1308 15:1295 #
-5.7195146849061180994566039315075e-05 1:7.21591 2:14.48683 3:29.738743 4:47 5:47 6:47 7:6 8:14 9:28 10:17.88912 11:15.957836 12:8.5424919 13:8429 14:6354 15:2511 #
-0.00050000000000000001040834085586084 1:48.716194 2:21.577271 3:20.175413 4:23 5:23 6:23 7:55 8:22 9:21 10:26.041594 11:12.091246 12:11.183663 13:4174 14:1222 15:1026 #
0.00050000000000000001040834085586084 1:8.4122505 2:6.9950943 3:6.2822232 4:5 5:5 6:5 7:9 8:6 9:6 10:2.0590618 11:2.327801 12:2.3602991 13:5454 14:5025 15:4949 #
2.0583258364681444874122462351806e-05 1:3.959075 2:18.578999 3:30.636684 4:24 5:24 6:24 7:6 8:26 9:43 10:10.405916 11:15.018087 12:20.082956 13:6247 14:4928 15:3529 #
0.00050000000000000001040834085586084 1:28.162243 2:23.050768 3:14.736121 4:244 5:244 6:244 7:29 8:24 9:15 10:13.795816 11:13.682658 12:10.872773 13:5005 14:4606 15:3935 #
0.00050000000000000001040834085586084 1:20.012241 2:16.360767 3:9.2661219 4:5 5:5 6:5 7:20 8:17 9:9 10:13.282792 11:13.448859 12:12.799385 13:5314 14:4853 15:4143 #
0.00010629294391452895503485248651643 1:38.096874 2:38.025646 3:33.591625 4:303 5:303 6:303 7:34 8:33 9:28 10:24.340134 11:24.323092 12:24.394379 13:8084 14:7919 15:8069 #
-0.00050000000000000001040834085586084 1:41.995861 2:81.296028 3:113.63894 4:611 5:611 6:611 7:43 8:90 9:125 10:8.7973499 11:17.597103 12:26.79187 13:7828 14:8401 15:9453 #
0.00022188620410526445131046968661792 1:1.941918 2:28.227087 3:35.162376 4:1 5:1 6:1 7:2 8:28 9:34 10:2.725177 11:3.6175981 12:3.7413545 13:6214 14:7320 15:7327 #
-2.7938314741455042011786247257987e-05 1:19.63591 2:2.2231703 3:26.338743 4:163 5:163 6:163 7:14 8:2 9:28 10:14.601014 11:12.544373 12:8.775219 13:8830 14:6968 15:2602 #
-0.00050000000000000001040834085586084 1:1.2819014 2:38.400711 3:42.082897 4:9 5:9 6:9 7:2 8:40 9:44 10:9.2553616 11:16.272322 12:20.170944 13:5568 14:7059 15:6727 #
4.9687118628016779808831415721215e-05 1:29.14591 2:31.42317 3:8.7312574 4:358 5:358 6:358 7:26 8:30 9:12 10:19.139805 11:17.674383 12:9.168581 13:8572 14:7437 15:3261 #
0.00050000000000000001040834085586084 1:69.676193 2:13.82727 3:13.825413 4:35 5:35 6:35 7:71 8:16 9:16 10:17.015528 11:1.7431142 12:1.6344656 13:4645 14:2520 15:2336 #
-5.4467221760555962139453006765066e-05 1:33.130924 2:38.111 3:45.083317 4:23 5:23 6:23 7:30 8:31 9:35 10:16.785336 11:22.556253 12:27.669527 13:7368 14:6771 15:5996 #
0.00050000000000000001040834085586084 1:4.9919505 2:2.2823684 3:1.0357776 4:16 5:16 6:16 7:13 8:17 9:14 10:14.749993 11:24.616383 12:24.67642 13:4751 14:4649 15:4809 #
0.00050000000000000001040834085586084 1:20.249695 2:45.225311 3:32.158669 4:286 5:286 6:286 7:21 8:57 9:43 10:18.606525 11:14.46349 12:15.079691 13:4954 14:4008 15:4548 #
0.00050000000000000001040834085586084 1:19.865862 2:73.836029 3:113.78894 4:611 5:611 6:611 7:20 8:80 9:124 10:7.7053919 11:17.547245 12:27.460329 13:7363 14:8532 15:9812 #
8.9127291100370631057869807989391e-05 1:75.626877 2:79.015648 3:77.861626 4:98 5:98 6:98 7:75 8:77 9:76 10:34.81427 11:39.191463 12:39.647766 13:4811 14:4606 15:4624 #
-0.00050000000000000001040834085586084 1:60.916195 2:26.947269 3:24.565413 4:281 5:281 6:281 7:63 8:27 9:25 10:30.690155 11:11.79745 12:10.378028 13:3744 14:902 15:813 #
-0.00050000000000000001040834085586084 1:0.30190134 2:37.330711 3:45.162899 4:5 5:5 6:5 7:1 8:40 9:47 10:9.3825884 11:17.2377 12:20.568954 13:5372 14:6809 15:6655 #
0.00026621625144129801299186510732397 1:71.671921 2:75.037086 3:76.032379 4:371 5:371 6:371 7:83 8:88 9:90 10:30.798075 11:28.529865 12:31.53912 13:9182 14:9456 15:9480 #
-2.2235508729928632476458005839959e-05 1:25.855909 2:1.5631703 3:28.108742 4:363 5:363 6:363 7:22 8:1 9:27 10:18.234642 11:16.189947 12:11.38025 13:8856 14:6757 15:2261 #
1.9045940366805298407517439609332e-07 1:8.0822506 2:8.0050945 3:7.6422234 4:16 5:16 6:16 7:10 8:10 9:9 10:3.4196818 11:2.83144 12:2.5008333 13:5444 14:4947 15:4926 #
-0.00050000000000000001040834085586084 1:35.356194 2:19.28727 3:16.715412 4:18 5:18 6:18 7:39 8:20 9:17 10:30.919365 11:10.297408 12:9.3693924 13:5239 14:1794 15:1721 #
-0.00050000000000000001040834085586084 1:58.236195 2:27.017269 3:22.785412 4:21 5:21 6:21 7:62 8:27 9:23 10:30.62553 11:11.717884 12:10.791244 13:4192 14:1271 15:1204 #
-0.00037985842692776078388661176177266 1:48.781918 2:39.33709 3:54.012379 4:627 5:627 6:627 7:38 8:27 9:39 10:29.053675 11:28.876566 12:27.008312 13:8978 14:8834 15:8921 #
-0.00050000000000000001040834085586084 1:50.206192 2:22.62727 3:20.575413 4:20 5:20 6:20 7:53 8:22 9:20 10:27.580488 11:9.7852859 12:8.143754 13:5262 14:2003 15:1876 #
-5.6591912550963831382740132358578e-05 1:56.223808 2:23.87273 3:20.834587 4:23 5:23 6:23 7:53 8:25 9:21 10:31.849913 11:10.572778 12:9.5317669 13:8498 14:3190 15:2916 #
-8.9052157032597034654985805601779e-07 1:14.30591 2:15.93317 3:18.441257 4:149 5:149 6:149 7:10 8:14 9:21 10:1.1539741 11:0.70354611 12:7.2449746 13:8669 14:7567 15:4208 #
-0.00011171381012262115994815303565701 1:50.806194 2:23.22727 3:22.585413 4:444 5:444 6:444 7:52 8:23 9:22 10:30.775124 11:11.212062 12:10.527217 13:4638 14:1543 15:1424 #
-0.00014814216626050133018138721396895 1:36.899075 2:30.888998 3:27.226685 4:424 5:424 6:424 7:40 8:38 9:37 10:17.910969 11:24.638731 12:30.839828 13:4796 14:4180 15:3309 #
-3.7323636095356408323741367188964e-06 1:14.555862 2:39.666031 3:60.528942 4:586 5:586 6:586 7:25 8:63 9:91 10:5.419704 11:4.5522785 12:5.3183861 13:7017 14:7137 15:7756 #
1.9670351019019860429500046183904e-05 1:41.831917 2:44.317089 3:38.762379 4:371 5:371 6:371 7:15 8:17 9:5 10:35.864403 11:35.950684 12:44.008484 13:8443 14:8897 15:8250 #
-1.2542027094726408437824760611079e-05 1:27.565863 2:63.846031 3:90.668938 4:31 5:31 6:31 7:31 8:73 9:104 10:4.1038766 11:14.255625 12:23.554783 13:7788 14:8317 15:9161 #
-1.9431908880449383438839255217045e-06 1:3.7459099 2:0.13317035 3:11.048742 4:380 5:380 6:380 7:1 8:2 9:11 10:12.737328 11:10.976533 12:5.1140633 13:8234 14:6886 15:3234 #
-8.3433941633131655790656111548742e-07 1:1.8641378 2:29.316031 3:40.938942 4:9 5:9 6:9 7:2 8:40 9:54 10:1.2464056 11:11.003081 12:18.926653 13:6918 14:7255 15:7559 #
-0.00021956332933348749478566497295162 1:5.9658623 2:43.686031 3:71.988937 4:8 5:8 6:8 7:7 8:51 9:83 10:2.2799654 11:11.484298 12:20.099749 13:6476 14:7040 15:7914 #
-3.9123350019308592473606112083218e-05 1:36.415863 2:65.706032 3:87.258942 4:611 5:611 6:611 7:40 8:75 9:102 10:3.5345092 11:4.7165179 12:9.4937849 13:8756 14:9050 15:9766 #
-0.00022559005683400745745359472493874 1:11.935863 2:43.426029 3:56.168941 4:5 5:5 6:5 7:10 8:48 9:62 10:4.0248804 11:6.0309925 12:13.01163 13:7952 14:8299 15:8710 #
7.6303674720696595015289145132881e-08 1:28.801918 2:36.687088 3:45.152378 4:627 5:627 6:627 7:11 8:19 9:25 10:28.810026 11:27.803469 12:27.105261 13:10068 14:10473 15:10526 #
-9.3280218550392613176508276040533e-07 1:0.93408996 2:6.9168296 3:16.531258 4:26 5:26 6:26 7:4 8:7 9:19 10:9.4711294 11:7.8202305 12:5.9945951 13:8289 14:6741 15:4278 #
-0.00023010796801677799367814858388925 1:25.198099 2:34.70929 3:55.647102 4:230 5:230 6:230 7:25 8:32 9:54 10:8.5656853 11:17.108208 12:19.110016 13:4524 14:4302 15:3037 #
-2.1091169771399187471416780681466e-05 1:13.355863 2:45.866032 3:73.948944 4:567 5:567 6:567 7:14 8:53 9:84 10:0.78977573 11:9.3878078 12:18.196663 13:8425 14:8786 15:9702 #
-1.7030944308791015766221246460765e-06 1:18.23591 2:6.3568296 3:38.138741 4:47 5:47 6:47 7:16 8:6 9:37 10:19.154932 11:17.231718 12:13.310045 13:8123 14:5938 15:1413 #
-3.4689773807028564337612275281231e-05 1:5.995862 2:44.85603 3:73.988937 4:14 5:14 6:14 7:9 8:55 9:86 10:1.2500373 11:8.0993156 12:17.337616 13:7668 14:8324 15:9238 #
0.00025998430147142204127419518044917 1:47.54192 2:56.817089 3:63.342377 4:627 5:627 6:627 7:46 8:55 9:68 10:24.27096 11:21.292114 12:24.550152 13:8632 14:9095 15:9314 #
4.176939277859596295751994001616e-07 1:24.139074 2:39.198997 3:46.706684 4:407 5:407 6:407 7:27 8:45 9:54 10:14.82891 11:18.649525 12:24.51683 13:5509 14:4109 15:2814 #
0.00012141470741689142304534088090406 1:88.411171 2:73.803688 3:57.445419 4:99 5:99 6:99 7:92 8:76 9:56 10:10.172452 11:11.313674 12:10.794774 13:4279 14:4441 15:4768 #
-6.6936060177875307823820716368601e-05 1:1.8277497 2:1.1849055 3:3.0677767 4:500 5:500 6:500 7:2 8:2 9:1 10:3.3432188 11:3.8125973 12:4.4474492 13:3427 14:3007 15:2902 #
-0.00046856149348992225459054061786901 1:81.904694 2:48.129639 3:38.888241 4:221 5:221 6:221 7:80 8:47 9:38 10:21.211691 11:21.062595 12:21.003681 13:9277 14:7852 15:7524 #
-3.1653946021834630103475305418215e-06 1:28.835863 2:67.30603 3:98.128944 4:584 5:584 6:584 7:30 8:75 9:107 10:3.8456247 11:13.460443 12:22.546591 13:8136 14:8691 15:9716 #
-2.4606300325212540057879520224993e-07 1:25.575911 2:0.68317032 3:31.058743 4:47 5:47 6:47 7:23 8:1 9:30 10:17.656563 11:14.758755 12:11.306062 13:8489 14:6377 15:1717 #
-7.1265574801436526453102260347805e-05 1:36.215862 2:65.476028 3:84.258942 4:304 5:304 6:304 7:40 8:76 9:96 10:0.012387617 11:9.6008005 12:19.00699 13:8613 14:8838 15:9417 #
0.00050000000000000001040834085586084 1:88.256195 2:19.48727 3:19.125412 4:35 5:35 6:35 7:91 8:20 9:20 10:26.1966 11:7.9037199 12:6.6035433 13:4304 14:2574 15:2400 #
-0.00017269673935615958981770745594986 1:37.825863 2:68.94603 3:78.778938 4:33 5:33 6:33 7:36 8:73 9:86 10:2.9699709 11:12.706743 12:22.313248 13:7950 14:8263 15:8537 #
-1.6758316353706774931619019608497e-05 1:35.63586 2:68.286034 3:96.418938 4:611 5:611 6:611 7:34 8:74 9:108 10:1.7138522 11:9.763422 12:19.188749 13:8383 14:8803 15:9604 #
-1.0709819477288206102431021571331e-05 1:6.7240901 2:5.4331703 3:35.051258 4:385 5:385 6:385 7:6 8:12 9:37 10:1.2091419 11:2.1373401 12:0.24387507 13:7642 14:6838 15:4365 #
1.6718230013810632346221360378102e-05 1:31.316874 2:28.065647 3:26.531626 4:158 5:158 6:158 7:3 8:0 9:0 10:40.029419 11:41.28487 12:39.387081 13:5739 14:5768 15:5804 #
5.7002427081149097508739991002624e-06 1:98.204697 2:107.38964 3:105.96824 4:425 5:425 6:425 7:97 8:106 9:105 10:29.057455 11:28.129375 12:28.099207 13:9147 14:9326 15:9268 #
-1.5408014669066903814791265857342e-07 1:31.855862 2:69.226028 3:94.098938 4:310 5:310 6:310 7:34 8:78 9:104 10:3.0640588 11:13.781306 12:23.3862 13:7612 14:8169 15:8933 #
-8.995013317593392176974020912894e-05 1:16.665911 2:3.8631704 3:28.178741 4:23 5:23 6:23 7:15 8:5 9:27 10:19.659124 11:17.859922 12:12.040202 13:8421 14:6741 15:2189 #
0.00023474883498142418147835996933281 1:101.86469 2:110.42963 3:109.38824 4:158 5:158 6:158 7:100 8:109 9:108 10:30.426323 11:29.815756 12:29.656446 13:9221 14:9361 15:9336 #
0.00013094668958725397419316782698928 1:51.156193 2:4.7072701 3:7.6154122 4:3 5:3 6:3 7:55 8:4 9:6 10:25.794529 11:6.9921055 12:5.3313794 13:4407 14:2015 15:1729 #
-4.997422977524169338025064601716e-05 1:13.245862 2:20.876032 3:26.498941 4:1 5:1 6:1 7:16 8:34 9:48 10:4.6509604 11:11.335885 12:10.800038 13:7784 14:7294 15:7359 #
9.8643267945564062676618022340591e-05 1:56.326874 2:59.865646 3:56.211624 4:253 5:253 6:253 7:51 8:50 9:45 10:37.056923 11:41.153362 12:41.612843 13:4782 14:4531 15:4611 #
0.00022079090734691782021634209876026 1:22.86775 2:28.344906 3:31.337776 4:26 5:26 6:26 7:22 8:29 9:32 10:11.063973 11:10.260784 12:10.96525 13:2149 14:1550 15:1418 #
4.2898257453435884294784541381773e-05 1:44.481903 2:38.77071 3:45.792896 4:633 5:633 6:633 7:23 8:14 9:23 10:24.845001 11:21.377142 12:24.175133 13:8411 14:8473 15:8220 #
9.4429855905103397221284078355552e-05 1:47.703808 2:19.29273 3:18.404587 4:23 5:23 6:23 7:46 8:21 9:20 10:26.793718 11:4.9763336 12:4.0948205 13:9958 14:4872 15:4612 #
1.6904109576179604523815669381293e-05 1:37.275909 2:25.963171 3:6.8812575 4:4 5:4 6:4 7:36 8:27 9:7 10:19.381607 11:17.935816 12:13.110338 13:8920 14:7194 15:3466 #
-3.5905622533894879363711161168737e-05 1:16.355909 2:0.73682964 3:28.788742 4:47 5:47 6:47 7:13 8:2 9:31 10:9.6140671 11:8.1899891 12:4.7563157 13:8677 14:6827 15:2420 #
-4.2787991742756353863441631801834e-05 1:21.945862 2:55.226032 3:61.618942 4:560 5:560 6:560 7:26 8:63 9:74 10:5.197248 11:4.9093866 12:13.495951 13:8594 14:9046 15:9134 #
9.9923541141089466743148081451231e-06 1:56.416874 2:58.395649 3:57.421623 4:378 5:378 6:378 7:45 8:44 9:42 10:40.014618 11:45.019791 12:45.405807 13:5464 14:5312 15:5369 #
0.00034595630852374270602922479156405 1:21.52775 2:25.384905 3:29.647778 4:217 5:217 6:217 7:20 8:25 9:29 10:10.630733 11:10.980716 12:11.247929 13:2320 14:1740 15:1535 #
-9.3782324434330817556060820323199e-08 1:20.95591 2:3.1468296 3:25.638742 4:159 5:159 6:159 7:20 8:2 9:23 10:16.386332 11:15.079519 12:9.9659872 13:8571 14:6440 15:2280 #
-6.8942989740101969907770467459185e-08 1:5.2359099 2:12.70683 3:29.738743 4:375 5:375 6:375 7:4 8:12 9:28 10:18.20385 11:15.533749 12:11.557881 13:7971 14:6013 15:2008 #
-0.00013284005850562331492795142828811 1:5.7358623 2:27.63603 3:42.098942 4:278 5:278 6:278 7:9 8:49 9:74 10:5.7283044 11:6.4776354 12:7.2015362 13:7553 14:7554 15:7983 #
-8.9826655146627934729063632950108e-08 1:2.0959101 2:19.15683 3:33.128742 4:175 5:175 6:175 7:1 8:19 9:32 10:18.392557 11:16.416117 12:12.025611 13:7774 14:5736 15:1858 #
0.00012636582819392568489275108234438 1:10.125101 2:9.1579771 3:7.0366735 4:1 5:1 6:1 7:17 8:3 9:3 10:6.5600739 11:10.776658 12:5.9998469 13:6951 14:7791 15:7422 #
-1.9064960943724215380789470224154e-07 1:23.345909 2:0.59317034 3:30.348742 4:355 5:355 6:355 7:21 8:0 9:29 10:19.157894 11:17.270609 12:11.712601 13:8585 14:6526 15:2045 #
0.00026532010604435329881312100042123 1:57.841919 2:70.927086 3:71.092377 4:371 5:371 6:371 7:56 8:69 9:73 10:24.877903 11:21.323372 12:25.865009 13:9307 14:10049 15:9818 #
-2.1137480966350474543289164608417e-06 1:2.8259101 2:6.1968298 3:17.768742 4:385 5:385 6:385 7:0 8:8 9:17 10:18.96356 11:17.157618 12:10.770746 13:7975 14:6399 15:2701 #
9.226420222159515110299521367665e-08 1:9.0711918 2:10.376495 3:8.4241457 4:10 5:10 6:10 7:8 8:10 9:8 10:0.21662037 11:0.77030313 12:0.4936651 13:5448 14:5295 15:5215 #
-0.00049992487514288243017485102726027 1:11.36591 2:5.9831705 3:25.871258 4:373 5:373 6:373 7:6 8:6 9:25 10:14.650392 11:13.601369 12:1.4111887 13:8756 14:7157 15:4831 #
-5.294320514091105330089907267388e-08 1:16.835911 2:8.2268295 3:19.828743 4:167 5:167 6:167 7:15 8:8 9:19 10:16.408218 11:14.715322 12:9.3748178 13:7913 14:5791 15:2151 #
-3.9657081688758851969214781416073e-07 1:60.470924 2:47.238998 3:41.726685 4:83 5:83 6:83 7:86 8:89 9:82 10:16.914259 11:17.273165 12:8.482686 13:11181 14:6756 15:5977 #
-1.2353099134972446736707761896779e-06 1:2.7259099 2:20.206829 3:39.448742 4:47 5:47 6:47 7:0 8:21 9:40 10:18.647058 11:16.75783 12:14.152296 13:7827 14:5745 15:1590 #
8.4594425534656458864901651395485e-05 1:103.0247 2:111.48964 3:110.47824 4:158 5:158 6:158 7:102 8:110 9:109 10:30.639622 11:30.639517 12:29.675367 13:9259 14:9273 15:9394 #
3.1724945558623705507694801042362e-07 1:63.561916 2:71.677086 3:74.992378 4:371 5:371 6:371 7:70 8:79 9:77 10:30.153372 11:27.017117 12:28.815847 13:9307 14:9750 15:9571 #
1.5953816905252320374267172020666e-05 1:50.671902 2:46.45071 3:43.132896 4:377 5:377 6:377 7:32 8:25 9:27 10:31.407608 11:26.778887 12:38.76276 13:8860 14:8917 15:8281 #
2.104481044434027077781124495659e-06 1:39.421951 2:75.502365 3:74.244225 4:57 5:57 6:57 7:50 8:94 9:93 10:10.537587 11:24.134747 12:24.226595 13:3698 14:2188 15:2224 #
5.5257515070599286558742507802222e-05 1:55.461918 2:64.897087 3:55.652378 4:371 5:371 6:371 7:60 8:70 9:65 10:31.212042 11:29.262985 12:41.046616 13:9268 14:9745 15:9075 #
3.890068721547578601367353701157e-05 1:75.566872 2:71.695648 3:67.801628 4:117 5:117 6:117 7:85 8:80 9:74 10:32.15992 11:34.431206 12:34.054039 13:5616 14:5614 15:5724 #
1.7470439745046594986940249535912e-07 1:37.274616 2:40.123726 3:40.167744 4:143 5:143 6:143 7:23 8:26 9:24 10:29.869616 11:31.366283 12:31.317513 13:9321 14:9332 15:9343 #
-3.9641957181778230670434609583808e-05 1:8.1041374 2:25.64603 3:42.638939 4:8 5:8 6:8 7:1 8:37 9:58 10:21.122341 11:10.245777 12:0.1785363 13:8990 14:9406 15:9895 #
0.00050000000000000001040834085586084 1:32.461952 2:69.142372 3:69.704224 4:423 5:423 6:423 7:42 8:86 9:87 10:15.06139 11:28.376654 12:28.500948 13:3775 14:2259 15:2236 #
3.1956122798306832205779415279068e-06 1:53.8619 2:46.560711 3:46.552898 4:377 5:377 6:377 7:30 8:23 9:21 10:29.93112 11:25.174009 12:32.998413 13:8817 14:8698 15:8282 #
-0.00028217416136044892738254930009134 1:2.0888302 2:5.4463148 3:7.2945819 4:38 5:38 6:38 7:1 8:10 9:12 10:0.97581512 11:4.0797877 12:5.2882719 13:7996 14:7789 15:7550 #
0.00025846794693751284910376853076741 1:43.141918 2:56.267086 3:42.452377 4:627 5:627 6:627 7:38 8:53 9:39 10:20.986893 11:15.835753 12:24.54727 13:8615 14:9273 15:8587 #
-1.3806872461494931355848510973194e-06 1:1.1159101 2:4.2968297 3:25.738743 4:21 5:21 6:21 7:2 8:5 9:25 10:20.213287 11:18.197241 12:12.977771 13:7641 14:6197 15:2078 #
-2.2241957322172612252913641338672e-08 1:10.57591 2:11.57683 3:30.528742 4:367 5:367 6:367 7:8 8:13 9:31 10:16.81856 11:14.695947 12:8.9653873 13:8378 14:6289 15:2231 #
-4.6073976038182016569388910198768e-06 1:8.6858625 2:39.296032 3:62.318939 4:12 5:12 6:12 7:9 8:46 9:73 10:2.2720749 11:7.007566 12:14.671637 13:7406 14:7722 15:8451 #
2.418175576678061045043932608678e-05 1:37.971901 2:36.740711 3:45.402897 4:8 5:8 6:8 7:14 8:11 9:16 10:28.314774 11:23.790281 12:25.292961 13:8692 14:8813 15:8795 #
-5.9268253793570934201862150658702e-06 1:15.50591 2:9.6068296 3:25.178741 4:374 5:374 6:374 7:11 8:12 9:25 10:16.373301 11:14.55166 12:8.5521984 13:8912 14:6743 15:2884 #
0.00013575370617068677203675974851649 1:47.885803 2:38.416924 3:44.533493 4:98 5:98 6:98 7:23 8:4 9:36 10:24.878502 11:35.070999 12:20.114933 13:10781 14:10397 15:8012 #
8.1310379187626846686498538474552e-05 1:28.479074 2:33.248997 3:35.536686 4:40 5:40 6:40 7:32 8:44 9:49 10:14.565361 11:18.339081 12:21.981905 13:5248 14:4296 15:3280 #
6.0419498645991609464545035734773e-05 1:23.487749 2:26.664906 3:30.467777 4:20 5:20 6:20 7:22 8:26 9:30 10:11.395804 11:11.139286 12:11.374621 13:2249 14:1698 15:1558 #
-1.5309467154398811685649464675585e-05 1:25.9681 2:41.539291 3:62.867104 4:17 5:17 6:17 7:25 8:39 9:60 10:8.6891603 11:16.266439 12:16.551497 13:4628 14:4173 15:3181 #
0.00050000000000000001040834085586084 1:77.066193 2:17.36727 3:17.015411 4:277 5:277 6:277 7:83 8:17 9:17 10:23.948509 11:7.0851822 12:6.230998 13:3841 14:1845 15:1719 #
-9.9082391960335835297024901710539e-08 1:16.085911 2:2.8831704 3:20.108742 4:146 5:146 6:146 7:12 8:1 9:18 10:13.914701 11:10.864532 12:8.1740332 13:8526 14:6748 15:2493 #
7.4712106510295329969304975459288e-06 1:59.508984 2:61.660488 3:68.725693 4:104 5:104 6:104 7:96 8:101 9:104 10:27.783768 11:32.28664 12:27.130644 13:11671 14:11801 15:11724 #
5.5681179345064513120863725070819e-06 1:101.3147 2:109.89964 3:108.81824 4:158 5:158 6:158 7:100 8:109 9:108 10:29.736536 11:29.152592 12:29.004396 13:9114 14:9289 15:9240 #
-1.4405198563161025759882249985822e-07 1:0.29408997 2:21.49683 3:35.218742 4:47 5:47 6:47 7:5 8:23 9:37 10:11.048006 11:8.229003 12:8.9448891 13:7469 14:5428 15:1431 #
3.3578859304920244587680587360079e-08 1:19.381918 2:28.027088 3:38.992378 4:524 5:524 6:524 7:3 8:12 9:22 10:25.704697 11:25.159166 12:21.639196 13:7897 14:8337 15:8373 #
2.860279825360467764738814366865e-05 1:52.525803 2:48.066925 3:50.623493 4:98 5:98 6:98 7:93 8:98 9:44 10:35.714886 11:44.505581 12:33.518192 13:10400 14:10276 15:7663 #
0.00050000000000000001040834085586084 1:6.6851015 2:10.317977 3:3.2766738 4:284 5:284 6:284 7:15 8:2 9:0 10:8.880332 11:14.212016 12:10.829952 13:6961 14:7850 15:7288 #
0.00050000000000000001040834085586084 1:4.4358621 2:33.616032 3:48.398941 4:3 5:3 6:3 7:8 8:44 9:61 10:7.5394197 11:2.5288804 12:10.158588 13:7920 14:8164 15:8596 #
4.5417080473116667641659757737038e-06 1:13.60775 2:25.634905 3:29.687777 4:11 5:11 6:11 7:12 8:24 9:28 10:11.094707 11:10.947325 12:11.344985 13:2679 14:1735 15:1602 #
-2.1742079817220483217710125245503e-05 1:34.235863 2:69.636032 3:100.12894 4:588 5:588 6:588 7:34 8:76 9:109 10:6.3262391 11:16.164251 12:25.282606 13:7921 14:8409 15:9382 #
3.0119205308192505772448693823762e-05 1:48.093807 2:17.52273 3:14.854588 4:367 5:367 6:367 7:44 8:16 9:13 10:22.765905 11:1.5436249 12:0.51054543 13:9465 14:4320 15:4080 #
-0.00033554618564978828292380552689167 1:53.620926 2:44.889 3:38.856686 4:83 5:83 6:83 7:59 8:79 9:74 10:19.121786 11:14.977103 12:7.9981823 13:10920 14:6434 15:5683 #
1.9228210643425128106354972390424e-06 1:20.843807 2:4.59273 3:4.4845877 4:1 5:1 6:1 7:17 8:3 9:3 10:30.767057 11:9.4478598 12:8.406024 13:7500 14:2839 15:2650 #
3.3645904327028705465372636525256e-07 1:85.886871 2:81.505646 3:73.921623 4:173 5:173 6:173 7:90 8:84 9:76 10:25.722027 11:26.603018 12:26.816851 13:5003 14:5010 15:5212 #
-5.3572273321372250269849918380416e-07 1:0.25408998 2:0.13682966 3:12.458742 4:12 5:12 6:12 7:0 8:0 9:11 10:10.921983 11:10.401884 12:6.1048951 13:8200 14:6888 15:3271 #
-3.2904927228480143936600356424638e-07 1:8.4859104 2:0.34317034 3:18.608742 4:22 5:22 6:22 7:5 8:1 9:19 10:11.665971 11:9.4669466 12:6.0380793 13:8555 14:6992 15:2977 #
-8.8989091604246755369718446804228e-05 1:24.259075 2:15.358998 3:4.5466847 4:34 5:34 6:34 7:27 8:23 9:15 10:17.425247 11:24.025391 12:29.582455 13:5352 14:4795 15:4219 #
-5.656448970624720825337364282781e-06 1:13.877749 2:11.954906 3:12.147777 4:17 5:17 6:17 7:14 8:13 9:13 10:6.4931374 11:6.37186 12:6.5624471 13:3304 14:2944 15:2908 #
-1.5305825899253949889662444749927e-07 1:23.89591 2:0.32317033 3:32.408741 4:27 5:27 6:27 7:23 8:2 9:30 10:19.943224 11:17.480547 12:13.502886 13:8192 14:6075 15:1552 #
-2.0958014921995539149796386468871e-05 1:13.286194 2:2.2772701 3:3.0954123 4:255 5:255 6:255 7:14 8:3 9:3 10:11.206972 11:0.42216915 12:0.06305851 13:6034 14:2199 15:2097 #
2.277924420802934779572979095974e-05 1:55.991917 2:63.737087 3:64.552376 4:627 5:627 6:627 7:70 8:79 9:78 10:34.38689 11:32.026993 12:33.997852 13:9178 14:9565 15:9323 #
-0.00034387613712719145020457744976738 1:84.902168 2:68.237778 3:56.91877 4:105 5:105 6:105 7:90 8:72 9:61 10:13.03311 11:12.728538 12:16.244274 13:2859 14:2867 15:3050 #
0.00034595711447393817650208802660927 1:35.121952 2:72.752365 3:71.324219 4:163 5:163 6:163 7:44 8:90 9:89 10:11.423966 11:24.914181 12:25.083546 13:3966 14:2449 15:2479 #
9.4766068591822794076051650336012e-05 1:28.04591 2:16.41317 3:13.458742 4:19 5:19 6:19 7:29 8:19 9:13 10:14.908695 11:13.053515 12:10.778547 13:8307 14:6628 15:2169 #
-1.0872738799589526381694781775877e-05 1:64.280922 2:49.408997 3:42.716686 4:83 5:83 6:83 7:89 8:89 9:84 10:16.169771 11:18.636728 12:12.01262 13:11572 14:6571 15:5909 #
-1.7057576559626447515444604488555e-06 1:13.925862 2:47.436031 3:69.278938 4:611 5:611 6:611 7:13 8:54 9:79 10:14.365779 11:3.9883964 12:6.4895487 13:9712 14:10053 15:10641 #
-8.1481218539365265698818166506534e-06 1:29.855909 2:0.82317036 3:35.728741 4:159 5:159 6:159 7:28 8:1 9:34 10:20.889566 11:18.514954 12:15.227851 13:8636 14:6326 15:1645 #
4.6996098418050852146539506787315e-08 1:21.827749 2:28.524906 3:32.757778 4:213 5:213 6:213 7:21 8:29 9:33 10:8.0904922 11:11.022423 12:11.020775 13:2247 14:1518 15:1375 #
