SVM-light Version V6.02
0 # kernel type
3 # kernel parameter -d 
1 # kernel parameter -g 
1 # kernel parameter -s 
1 # kernel parameter -r 
empty# kernel parameter -u 
20 # highest feature index 
8469 # number of training documents 
2274 # number of support vectors plus 1 
0.99932746 # threshold b, each following line is a SV (starting with alpha*y)
-9.4149453273003627e-011 1:19.068964 2:1.0950199 3:10.350431 4:32 5:32 6:32 7:24 8:3 9:6 10:13.64107 11:14.93266 12:17.852173 13:39991 14:40772 15:45402 #
9.4149453273003627e-011 1:13.637435 2:23.20462 3:26.560032 4:251 5:251 6:251 7:9 8:20 9:22 10:14.188232 11:15.077768 12:17.881548 13:44305 14:43087 15:44963 #
9.4149453273003627e-011 1:15.587515 2:29.787071 3:44.900902 4:0 5:0 6:0 7:0 8:0 9:20 10:41 11:67 12:0 13:7.5590482 14:4.9723878 15:0.36762464 16:0 17:50949 18:42227 19:35934 20:49980 #
9.4149453273003627e-011 1:13.658315 2:29.468672 3:40.118504 4:0 5:0 6:0 7:0 8:0 9:19 10:45 11:68 12:0 13:0.73964989 14:3.4783776 15:7.216692 16:0 17:52541 18:44737 19:36130 20:49980 #
-9.4149453273003627e-011 1:24.390085 2:23.031328 3:25.050297 4:0 5:0 6:0 7:0 8:0 9:22 10:16 11:14 12:0 13:8.1379118 14:15.558441 15:21.361116 16:0 17:69349 18:64387 19:56430 20:49980 #
9.4149453273003627e-011 1:4.335464 2:9.7710009 3:8.3032179 4:28 5:28 6:28 7:6 8:8 9:8 10:0.81338465 11:3.1203992 12:2.211982 13:163520 14:156477 15:152132 #
-9.4149453273003627e-011 1:23.843443 2:22.299568 3:16.653721 4:251 5:251 6:251 7:25 8:24 9:17 10:8.0309982 11:8.6141872 12:7.4601612 13:37684 14:34365 15:31319 #
-9.4149453273003627e-011 1:14.697285 2:16.569328 3:18.143497 4:0 5:0 6:0 7:0 8:0 9:12 10:9 11:7 12:0 13:9.3525162 14:16.64572 15:22.612131 16:0 17:62703 18:58192 19:50318 20:49980 #
-9.4149453273003627e-011 1:20.593061 2:57.002029 3:82.290138 4:26 5:26 6:26 7:23 8:66 9:93 10:3.3199048 11:6.3665156 12:14.338599 13:74637 14:76294 15:79890 #
9.4149453273003627e-011 1:9.9651699 2:11.468486 3:11.613018 4:213 5:213 6:213 7:12 8:16 9:16 10:1.8299042 11:1.2079006 12:0.36706775 13:135910 14:136469 15:135779 #
-5.5462391720509965e-011 1:5.0878024 2:2.7609241 3:1.9661065 4:5 5:5 6:5 7:7 8:5 9:3 10:3.2860136 11:3.1868737 12:3.2305739 13:124637 14:123617 15:123042 #
9.4149453273003627e-011 1:44.371914 2:70.336273 3:85.373306 4:0 5:0 6:0 7:0 8:0 9:47 10:78 11:97 12:0 13:15.848941 14:23.866571 15:32.480282 16:0 17:31122 18:20520 19:5924 20:49980 #
9.4149453273003627e-011 1:32.327969 2:30.523285 3:25.918219 4:451 5:451 6:451 7:36 8:35 9:30 10:6.7867479 11:2.6484454 12:0.3458049 13:136861 14:136061 15:135554 #
-9.4149453273003627e-011 1:10.621685 2:14.321729 3:17.940697 4:0 5:0 6:0 7:0 8:0 9:9 10:7 11:8 12:0 13:7.842896 14:15.074615 15:20.84943 16:0 17:67886 18:63735 19:56382 20:49980 #
-9.4149045024849492e-011 1:4.45403 2:1.7755146 3:1.9542181 4:19 5:19 6:19 7:1 8:1 9:3 10:4.1867409 11:1.2927724 12:1.1120656 13:166766 14:165442 15:163404 #
-9.4149453273003627e-011 1:13.274085 2:13.958929 3:15.149096 4:0 5:0 6:0 7:0 8:0 9:12 10:7 11:5 12:0 13:8.6191559 14:15.964311 15:21.862322 16:0 17:67436 18:62862 19:54927 20:49980 #
-9.4149453273003627e-011 1:8.9672298 2:6.3399148 3:1.3361819 4:16 5:16 6:16 7:6 8:4 9:0 10:6.6758289 11:3.4886677 12:0.85838056 13:158285 14:156928 15:155804 #
9.4149453273003627e-011 1:49.956371 2:45.270885 3:38.323017 4:188 5:188 6:188 7:59 8:53 9:43 10:6.6826549 11:3.2672107 12:0.57004392 13:136594 14:135611 15:135594 #
-9.4149453273003627e-011 1:5.0073857 2:5.9606738 3:5.6562557 4:6 5:6 6:6 7:7 8:7 9:7 10:1.880935 11:1.564603 12:1.7189792 13:81626 14:80874 15:80857 #
-9.4149453273003627e-011 1:8.5276299 2:8.9855146 3:10.601382 4:14 5:14 6:14 7:5 8:7 9:10 10:9.6260376 11:7.2844443 12:5.4092422 13:155060 14:155322 15:154681 #
-9.4149453273003627e-011 1:1.4456134 2:0.87041336 3:1.3810934 4:1 5:1 6:1 7:2 8:1 9:0 10:4.1075072 11:7.347393 12:6.2682848 13:26630 14:27000 15:27633 #
9.4149453273003627e-011 1:72.027573 2:58.123684 3:43.905819 4:190 5:190 6:190 7:76 8:62 9:46 10:7.573729 11:7.5055294 12:6.9643936 13:132826 14:133360 15:134856 #
9.4149453273003627e-011 1:21.817514 2:28.910671 3:31.057703 4:0 5:0 6:0 7:0 8:0 9:24 10:30 11:29 12:0 13:1.4795524 14:1.7217385 15:2.781841 16:0 17:51193 18:43891 19:35495 20:49980 #
9.4149453273003627e-011 1:5.7651868 2:6.2004132 3:4.5746932 4:254 5:254 6:254 7:5 8:5 9:3 10:3.5302939 11:5.5209241 12:4.6625786 13:29823 14:29567 15:29718 #
-9.4149453273003627e-011 1:4.4872303 2:1.8719146 3:3.0362182 4:232 5:232 6:232 7:1 8:1 9:5 10:5.5858283 11:3.6515112 12:2.3041143 13:155694 14:154385 15:152203 #
-9.4149453273003627e-011 1:14.987285 2:16.267729 3:18.323896 4:0 5:0 6:0 7:0 8:0 9:13 10:9 11:8 12:0 13:8.7399149 14:15.936136 15:21.810558 16:0 17:66669 18:62101 19:54276 20:49980 #
9.4149453273003627e-011 1:69.31517 2:57.456886 3:44.834618 4:172 5:172 6:172 7:74 8:62 9:47 10:4.9270153 11:6.0973306 12:5.9283724 13:131937 14:131740 15:131777 #
9.4149453273003627e-011 1:3.9251151 2:4.759871 3:7.4105034 4:0 5:0 6:0 7:0 8:0 9:8 10:9 11:10 12:0 13:6.5755334 14:6.0558825 15:3.1113474 16:0 17:62893 18:56265 19:48419 20:49980 #
-9.4149453273003627e-011 1:5.7136302 2:6.2063146 3:8.9737816 4:12 5:12 6:12 7:2 8:3 9:8 10:9.1017323 11:6.8231807 12:4.7261219 13:153880 14:153812 15:154328 #
9.4149453273003627e-011 1:53.370369 2:45.426487 3:36.168217 4:457 5:457 6:457 7:60 8:51 9:39 10:3.3534472 11:0.077194706 12:1.9400011 13:131341 14:130918 15:131011 #
-9.4149453273003627e-011 1:1.3723152 2:4.5785289 3:6.913497 4:0 5:0 6:0 7:0 8:0 9:5 10:3 11:4 12:0 13:7.5034814 14:14.45126 15:20.536898 16:0 17:64485 18:60925 19:53221 20:49980 #
7.2121195540225109e-011 1:0.55368489 2:7.4537287 3:10.771097 4:0 5:0 6:0 7:0 8:0 9:2 10:0 11:0 12:0 13:8.0395756 14:14.991085 15:21.031723 16:0 17:63611 18:60114 19:52608 20:49980 #
9.4149453273003627e-011 1:74.041168 2:59.216484 3:43.891418 4:180 5:180 6:180 7:78 8:63 9:46 10:7.6020808 11:8.1386433 12:7.5980492 13:129045 14:130244 15:131753 #
-9.4149453273003627e-011 1:3.3950622 2:32.54203 3:36.312141 4:263 5:263 6:263 7:5 8:39 9:46 10:19.233749 11:11.125344 12:2.3803101 13:152282 14:154005 15:153907 #
-9.4149453273003627e-011 1:39.212074 2:38.665649 3:38.726826 4:206 5:206 6:206 7:42 8:42 9:42 10:15.194573 11:15.042143 12:15.129697 13:30712 14:29561 15:29678 #
9.4149453273003627e-011 1:20.175442 2:33.271969 3:50.739323 4:486 5:486 6:486 7:23 8:36 9:52 10:8.705864 11:4.6465435 12:1.706429 13:34313 14:28646 15:21768 #
9.4149453273003627e-011 1:73.88797 2:60.658485 3:46.263817 4:187 5:187 6:187 7:77 8:64 9:48 10:7.573236 11:8.0010185 12:7.4999094 13:128469 14:129085 15:130731 #
-9.4149453273003627e-011 1:3.4188302 2:2.8975146 3:3.243382 4:11 5:11 6:11 7:1 8:2 9:3 10:7.1123857 11:4.811264 12:3.0182009 13:154223 14:152431 15:151573 #
-9.4149453273003627e-011 1:1.3456134 2:1.3051866 3:2.6621068 4:3 5:3 6:3 7:2 8:1 9:4 10:2.5197387 11:4.2216773 12:3.8116922 13:30493 14:30170 15:30229 #
-9.4149453273003627e-011 1:32.598072 2:32.278446 3:32.492023 4:43 5:43 6:43 7:36 8:35 9:35 10:15.099191 11:15.078672 12:14.990877 13:31199 14:30275 15:29896 #
9.4149453273003627e-011 1:58.040771 2:50.368484 3:40.427418 4:442 5:442 6:442 7:65 8:55 9:43 10:2.0539372 11:2.3250566 12:4.4535842 13:129461 14:128860 15:128858 #
-9.4149453273003627e-011 1:8.6484299 2:8.6723146 3:10.113382 4:12 5:12 6:12 7:5 8:6 9:8 10:8.2323914 11:4.27595 12:1.1146839 13:151883 14:151036 15:150494 #
-9.4149453273003627e-011 1:7.6820302 2:4.0379148 3:1.5781819 4:11 5:11 6:11 7:5 8:2 9:1 10:6.4567261 11:4.57654 12:3.5263433 13:152066 14:150935 15:149410 #
9.4149453273003627e-011 1:0.26478666 2:0.29161334 3:0.85949332 4:515 5:515 6:515 7:0 8:1 9:1 10:1.0274421 11:0.59861696 12:0.62627184 13:30332 14:29792 15:30212 #
-9.4149453273003627e-011 1:44.766075 2:41.943249 3:41.593224 4:308 5:308 6:308 7:48 8:45 9:45 10:15.874688 11:15.651861 12:15.346327 13:30867 14:30327 15:30568 #
9.4149453273003627e-011 1:57.478294 2:61.887638 3:63.094242 4:158 5:158 6:158 7:69 8:74 9:76 10:14.177668 11:16.631382 12:15.537719 13:125161 14:124701 15:125302 #
-9.4149453273003627e-011 1:10.587231 2:11.301515 3:10.063782 4:2 5:2 6:2 7:9 8:10 9:10 10:9.1509199 11:6.6282229 12:3.3727086 13:151051 14:151091 15:151955 #
-9.4149453273003627e-011 1:3.5577834 2:3.6604881 3:3.5220947 4:2 5:2 6:2 7:5 8:4 9:5 10:3.4777768 11:2.7805593 12:2.4552684 13:84120 14:83490 15:83156 #
9.4149453273003627e-011 1:20.057802 2:16.908924 3:33.771893 4:98 5:98 6:98 7:2 8:2 9:23 10:28.649137 11:32.058167 12:24.209023 13:123743 14:124918 15:125491 #
9.4149453273003627e-011 1:46.687515 2:70.781868 3:84.151306 4:0 5:0 6:0 7:0 8:0 9:49 10:78 11:97 12:0 13:16.638683 14:23.543098 15:30.139805 16:0 17:31901 18:22142 19:8816 20:49980 #
9.4149453273003627e-011 1:21.860641 2:37.006767 3:59.70092 4:488 5:488 6:488 7:25 8:40 9:61 10:8.2979097 11:7.9229069 12:4.4149766 13:35171 14:28844 15:20776 #
-9.4149453273003627e-011 1:33.946472 2:34.003246 3:34.080025 4:45 5:45 6:45 7:37 8:37 9:37 10:13.126219 11:12.845766 12:12.774563 13:31208 14:30449 15:30200 #
9.4149453273003627e-011 1:21.792664 2:45.359001 3:45.148018 4:382 5:382 6:382 7:23 8:55 9:56 10:6.7084846 11:2.3390534 12:4.5420113 13:129739 14:120335 15:115608 #
-9.4149453273003627e-011 1:26.462242 2:25.243967 3:20.913721 4:252 5:252 6:252 7:28 8:27 9:22 10:11.631812 11:10.645661 12:8.5528231 13:34136 14:30927 15:27462 #
9.4149453273003627e-011 1:40.376694 2:44.187237 3:45.361443 4:158 5:158 6:158 7:34 8:36 9:37 10:14.477776 11:16.412085 12:15.759775 13:121647 14:121419 15:121729 #
-9.4149453273003627e-011 1:5.7385378 2:21.255569 3:37.27346 4:5 5:5 6:5 7:6 8:15 9:28 10:13.85183 11:23.30372 12:31.209787 13:37801 14:30393 15:27508 #
9.4149453273003627e-011 1:30.476694 2:33.378838 3:34.436241 4:158 5:158 6:158 7:20 8:21 9:22 10:14.516891 11:16.879463 12:16.149899 13:117804 14:117457 15:117564 #
-9.3914536303343167e-011 1:16.15243 2:18.997114 3:21.407381 4:270 5:270 6:270 7:12 8:17 9:20 10:8.6971064 11:4.9075437 12:1.5250812 13:150227 14:150215 15:151134 #
9.4149453273003627e-011 1:20.795042 2:29.999567 3:43.137321 4:40 5:40 6:40 7:23 8:32 9:44 10:10.886589 11:10.597306 12:9.2866421 13:34578 14:29371 15:22188 #
-9.4149453273003627e-011 1:21.729042 2:21.291967 3:20.071722 4:248 5:248 6:248 7:24 8:24 9:21 10:9.3673716 11:9.5589056 12:7.778183 13:34697 14:31354 15:27555 #
9.4149453273003627e-011 1:8.168602 2:8.7577238 3:9.6429062 4:512 5:512 6:512 7:9 8:10 9:11 10:1.3969752 11:1.5535357 12:1.7102989 13:115258 14:114365 15:114046 #
-9.4149453273003627e-011 1:5.0120301 2:7.7847147 3:11.924982 4:8 5:8 6:8 7:3 8:6 9:11 10:9.8974123 11:8.211091 12:5.8491821 13:150540 14:149543 15:149594 #
9.4149453273003627e-011 1:20.535894 2:19.621237 3:19.365042 4:158 5:158 6:158 7:12 8:10 9:9 10:11.358253 11:13.2402 12:13.063345 13:114794 14:113956 15:114049 #
9.4149453273003627e-011 1:19.568642 2:27.696768 3:38.437721 4:481 5:481 6:481 7:20 8:28 9:38 10:12.416816 11:10.925063 12:9.9019394 13:35092 14:29822 15:23612 #
-9.4149453273003627e-011 1:22.513042 2:21.196768 3:16.181322 4:17 5:17 6:17 7:25 8:24 9:18 10:7.86866 11:8.1894255 12:7.944396 13:34309 14:31016 15:28124 #
-9.4149453273003627e-011 1:6.9200301 2:5.0555148 3:3.1561818 4:6 5:6 6:6 7:4 8:4 9:3 10:4.7021122 11:2.2075369 12:0.60223317 13:150240 14:149600 15:147577 #
9.4149453273003627e-011 1:0.012073535 2:0.18124755 3:0.61602503 4:9 5:9 6:9 7:3 8:3 9:3 10:13.906556 11:13.687221 12:13.458429 13:35755 14:34979 15:35373 #
9.4149453273003627e-011 1:10.411495 2:10.666838 3:10.387443 4:158 5:158 6:158 7:7 8:7 9:7 10:5.1984925 11:6.7286124 12:6.8768482 13:111543 14:110993 15:110783 #
-8.0112655180941607e-011 1:3.0109978 2:2.2542758 3:2.8494935 4:2 5:2 6:2 7:4 8:3 9:4 10:2.9455266 11:3.048959 12:3.1660535 13:102563 14:101871 15:101371 #
-9.4149453273003627e-011 1:4.5636301 2:1.9195145 3:1.1958181 4:2 5:2 6:2 7:2 8:1 9:3 10:5.1052308 11:2.3901758 12:0.89421034 13:149056 14:151029 15:149425 #
9.4149453273003627e-011 1:27.207064 2:56.194599 3:54.148819 4:399 5:399 6:399 7:28 8:63 9:62 10:7.1251707 11:5.7822843 12:8.591773 13:120414 14:109309 15:104963 #
-9.4149453273003627e-011 1:14.402264 2:22.883801 3:23.611217 4:31 5:31 6:31 7:17 8:25 9:27 10:3.5320492 11:0.48846033 12:0.41768035 13:146637 14:139518 15:134258 #
-9.4149453273003627e-011 1:26.460241 2:23.594767 3:19.056921 4:248 5:248 6:248 7:28 8:25 9:20 10:10.071662 11:10.607803 12:8.4421911 13:34230 14:31311 15:28151 #
-9.4149453273003627e-011 1:24.127441 2:23.007168 3:20.979322 4:249 5:249 6:249 7:26 8:25 9:22 10:10.122409 11:9.5219536 12:7.1961946 13:34845 14:31530 15:27756 #
9.4149453273003627e-011 1:33.439896 2:35.842037 3:36.089844 4:158 5:158 6:158 7:24 8:25 9:26 10:8.668458 11:10.608592 12:10.883423 13:110227 14:109732 15:109647 #
9.4149453273003627e-011 1:13.523442 2:23.001167 3:36.182121 4:251 5:251 6:251 7:15 8:26 9:37 10:9.5533915 11:7.5122247 12:5.7806096 13:35351 14:30092 15:23008 #
9.4149453273003627e-011 1:12.895042 2:14.959968 3:17.616922 4:237 5:237 6:237 7:14 8:15 9:13 10:11.144946 11:6.7909088 12:1.915251 13:34667 14:30601 15:26153 #
9.4149453273003627e-011 1:25.081495 2:26.466038 3:26.841843 4:158 5:158 6:158 7:15 8:16 9:17 10:8.6699991 11:10.970843 12:10.794488 13:108888 14:108056 15:108075 #
-9.4149453273003627e-011 1:2.9963698 2:5.4820852 3:7.2658181 4:6 5:6 6:6 7:5 8:8 9:8 10:3.832335 11:3.162014 12:3.3578207 13:149656 14:148539 15:146979 #
9.4149453273003627e-011 1:1.0907867 2:0.83798665 3:0.043306667 4:257 5:257 6:257 7:2 8:3 9:2 10:1.0145257 11:4.727242 12:4.3278813 13:35770 14:35159 15:35464 #
-9.4149453273003627e-011 1:46.055275 2:42.883648 3:43.936825 4:309 5:309 6:309 7:49 8:46 9:47 10:15.461688 11:15.220032 12:15.106869 13:31254 14:30979 15:30676 #
-9.4149453273003627e-011 1:25.95031 2:30.322771 3:6.6212578 4:7 5:7 6:7 7:23 8:30 9:8 10:15.776209 11:13.189981 12:8.1320229 13:86035 14:80089 15:59827 #
9.4149453273003627e-011 1:8.8790951 2:9.2388372 3:9.3994427 4:10 5:10 6:10 7:6 8:7 9:8 10:1.9293858 11:0.87921023 12:0.90247935 13:108540 14:108076 15:108045 #
9.4149453273003627e-011 1:69.720299 2:75.27684 3:76.408646 4:158 5:158 6:158 7:87 8:93 9:93 10:7.1586108 11:9.5933409 12:8.1342411 13:107806 14:108081 15:108301 #
-9.4149453273003627e-011 1:6.6175098 2:8.3056297 3:6.013258 4:7 5:7 6:7 7:5 8:10 9:6 10:3.0862815 11:4.1824055 12:3.6116061 13:93457 14:83217 15:70120 #
-9.4149453273003627e-011 1:9.5040302 2:10.242314 3:12.104182 4:8 5:8 6:8 7:7 8:9 9:12 10:8.3369427 11:5.5097413 12:3.3172262 13:148520 14:148317 15:147548 #
9.4149453273003627e-011 1:12.140243 2:25.081167 3:46.121723 4:476 5:476 6:476 7:13 8:28 9:45 10:9.9005098 11:7.544662 12:4.2947893 13:36412 14:30487 15:22642 #
-9.4149453273003627e-011 1:19.457043 2:17.612368 3:14.966521 4:12 5:12 6:12 7:21 8:20 9:17 10:8.293046 11:7.9066577 12:6.9819684 13:34976 14:31511 15:27698 #
9.4149453273003627e-011 1:16.588696 2:16.142437 3:15.417843 4:261 5:261 6:261 7:16 8:15 9:15 10:2.0843661 11:1.6174959 12:1.7413532 13:108604 14:107918 15:107746 #
9.4149453273003627e-011 1:19.643843 2:26.407568 3:34.255722 4:488 5:488 6:488 7:21 8:28 9:39 10:10.730924 11:5.9401388 12:4.3736463 13:35216 14:30330 15:24667 #
9.4149453273003627e-011 1:2.9629977 2:2.0834758 3:1.2522935 4:245 5:245 6:245 7:2 8:1 9:0 10:3.3984253 11:3.4210422 12:3.6484373 13:107611 14:106552 15:106572 #
-9.4149453273003627e-011 1:1.7404302 2:1.7943146 3:0.1461819 4:3 5:3 6:3 7:1 8:0 9:1 10:9.3141613 11:7.0145168 12:5.546905 13:145835 14:146197 15:144355 #
9.4149453273003627e-011 1:15.333842 2:25.284767 3:39.389721 4:486 5:486 6:486 7:17 8:30 9:48 10:9.5454044 11:2.0485835 12:9.6217699 13:35381 14:30382 15:24304 #
-9.4149453273003627e-011 1:23.994642 2:21.697168 3:18.865721 4:18 5:18 6:18 7:27 8:24 9:21 10:9.5405397 11:9.1538029 12:7.4700441 13:35017 14:31518 15:28084 #
-9.4149453273003627e-011 1:21.300642 2:21.440367 3:19.290922 4:248 5:248 6:248 7:24 8:24 9:21 10:8.2300282 11:7.0826511 12:5.9253621 13:34934 14:31706 15:28228 #
9.4149453273003627e-011 1:27.724184 2:29.261288 3:30.212494 4:152 5:152 6:152 7:20 8:20 9:20 10:14.908895 11:17.075779 12:17.342279 13:104865 14:104505 15:104539 #
-4.1688470279858539e-011 1:8.5054626 2:43.096432 3:70.741737 4:20 5:20 6:20 7:12 8:54 9:83 10:5.9198322 11:0.90158474 12:7.8326292 13:63087 14:65111 15:69250 #
9.4149453273003627e-011 1:0.39018551 2:0.2506738 3:0.8053441 4:8 5:8 6:8 7:2 8:3 9:4 10:0.32333875 11:0.18037963 12:0.28433442 13:68344 14:67956 15:68061 #
9.4149453273003627e-011 1:3.5663264 2:3.3583524 3:2.675175 4:255 5:255 6:255 7:1 8:1 9:0 10:12.283457 11:11.845985 12:11.116963 13:35772 14:34831 15:35352 #
-3.2968614695644243e-011 1:7.9602623 2:27.882431 3:44.284542 4:5 5:5 6:5 7:12 8:54 9:84 10:0.75795221 11:8.9769058 12:15.273271 13:58649 14:56233 15:58558 #
9.4149453273003627e-011 1:13.210998 2:14.027476 3:18.563093 4:484 5:484 6:484 7:16 8:16 9:17 10:3.9098828 11:4.1921768 12:2.1958766 13:105787 14:105059 15:102744 #
-9.4149453273003627e-011 1:8.7636299 2:6.9959145 3:8.3465815 4:1 5:1 6:1 7:6 8:4 9:6 10:7.9091334 11:4.8480787 12:1.8617347 13:144749 14:143368 15:143292 #
9.4149453273003627e-011 1:48.658695 2:51.125637 3:51.140244 4:158 5:158 6:158 7:44 8:43 9:44 10:13.69412 11:17.81785 12:17.487148 13:104305 14:102976 15:103852 #
-9.4149453273003627e-011 1:16.206642 2:17.305967 3:16.696522 4:14 5:14 6:14 7:16 8:18 9:17 10:8.6170034 11:7.7289758 12:6.3014436 13:35883 14:31963 15:27942 #
-9.4149453273003627e-011 1:5.8028302 2:3.5667145 3:2.257782 4:11 5:11 6:11 7:2 8:1 9:1 10:7.9689689 11:4.4069352 12:2.5050888 13:143230 14:144266 15:142502 #
-9.4149453273003627e-011 1:30.634642 2:27.627968 3:22.853321 4:254 5:254 6:254 7:32 8:30 9:24 10:11.20225 11:10.617945 12:8.4470091 13:34811 14:31831 15:28321 #
9.4149453273003627e-011 1:28.491383 2:30.264889 3:30.818495 4:152 5:152 6:152 7:12 8:11 9:11 10:26.206499 11:30.014132 12:30.726618 13:102508 14:102086 15:102319 #
9.4149453273003627e-011 1:19.213442 2:27.348368 3:40.11692 4:487 5:487 6:487 7:22 8:30 9:40 10:11.146844 11:10.501513 12:9.1341705 13:36086 14:31039 15:23787 #
-9.4149453273003627e-011 1:21.899443 2:20.751167 3:15.295321 4:251 5:251 6:251 7:24 8:23 9:17 10:7.4236255 11:7.4280581 12:5.6135535 13:34887 14:31533 15:28632 #
9.4149453273003627e-011 1:38.064583 2:39.82169 3:40.896496 4:152 5:152 6:152 7:26 8:24 9:24 10:25.535707 11:29.654573 12:29.795919 13:102315 14:101455 15:102164 #
-9.4149453273003627e-011 1:0.27323025 2:0.94351459 3:1.9369819 4:23 5:23 6:23 7:2 8:1 9:1 10:8.2814445 11:5.4821949 12:3.3807647 13:142430 14:142110 15:141386 #
9.4149453273003627e-011 1:13.002183 2:14.252488 3:14.845695 4:152 5:152 6:152 7:1 8:3 9:4 10:24.70483 11:27.442499 12:27.915255 13:100477 14:100197 15:100576 #
9.4149453273003627e-011 1:17.080643 2:32.736767 3:55.527321 4:481 5:481 6:481 7:19 8:39 9:67 10:7.7142239 11:1.5919259 12:11.060741 13:36701 14:31051 15:24975 #
-9.4149453273003627e-011 1:16.953442 2:16.019567 3:13.308521 4:237 5:237 6:237 7:17 8:17 9:14 10:9.8193178 11:9.7918415 12:9.0419636 13:34940 14:31812 15:28394 #
-9.4149453273003627e-011 1:7.362505 2:6.4443626 3:6.9961576 4:276 5:276 6:276 7:10 8:9 9:8 10:3.8774724 11:4.3761659 12:3.988354 13:140932 14:140446 15:140107 #
9.4149453273003627e-011 1:11.852242 2:10.247168 3:7.6705217 4:476 5:476 6:476 7:13 8:12 9:8 10:8.9188042 11:7.4569573 12:5.2131228 13:35415 14:31798 15:28577 #
-9.4149453273003627e-011 1:24.669043 2:23.227568 3:19.938522 4:251 5:251 6:251 7:26 8:25 9:21 10:8.7327099 11:8.6290751 12:6.9425936 13:34897 14:31843 15:28392 #
9.4149453273003627e-011 1:13.111095 2:12.670438 3:10.670242 4:2 5:2 6:2 7:11 8:11 9:9 10:3.1537042 11:3.0893123 12:3.3407722 13:100826 14:100078 15:99756 #
9.4149453273003627e-011 1:7.2479262 2:7.4515524 3:7.010375 4:2 5:2 6:2 7:6 8:6 9:6 10:12.320487 11:12.065894 12:11.906475 13:36182 14:35393 15:35400 #
9.4149453273003627e-011 1:74.76738 2:79.765289 3:81.985298 4:152 5:152 6:152 7:97 8:105 9:106 10:16.959908 11:20.985355 12:19.540897 13:100657 14:99545 15:99997 #
-9.4149453273003627e-011 1:11.492726 2:11.448752 3:11.519175 4:0 5:0 6:0 7:9 8:9 9:9 10:13.277768 11:13.047253 12:12.856478 13:38944 14:37959 15:38396 #
-9.4149453273003627e-011 1:23.975443 2:22.934767 3:18.455322 4:250 5:250 6:250 7:25 8:25 9:19 10:9.4049082 11:9.2717066 12:7.7364907 13:35058 14:31778 15:28576 #
-9.4149453273003627e-011 1:23.695274 2:23.494848 3:23.928425 4:221 5:221 6:221 7:27 8:27 9:27 10:13.402401 11:13.414417 12:13.428431 13:32101 14:31357 15:31188 #
9.4149453273003627e-011 1:14.626295 2:12.055637 3:11.288242 4:250 5:250 6:250 7:14 8:11 9:11 10:1.7291672 11:1.4560969 12:1.4940549 13:99821 14:99041 15:99117 #
-9.1393009573675287e-012 1:3.3811014 2:36.122711 3:40.945297 4:9 5:9 6:9 7:4 8:38 9:43 10:9.0440006 11:16.662195 12:19.824678 13:46540 14:53335 15:52597 #
9.4149453273003627e-011 1:53.569782 2:57.575687 3:58.764496 4:152 5:152 6:152 7:82 8:84 9:86 10:26.895586 11:30.805094 12:30.714777 13:99761 14:98553 15:99536 #
-9.4149453273003627e-011 1:7.8336301 2:6.4811144 3:4.691782 4:5 5:5 6:5 7:5 8:4 9:4 10:8.5601473 11:5.0659943 12:2.6260629 13:137387 14:138319 15:137694 #
9.4149453273003627e-011 1:11.332643 2:19.509167 3:32.550922 4:471 5:471 6:471 7:12 8:21 9:34 10:10.651276 11:9.0797758 12:7.6410384 13:36901 14:32014 15:24994 #
-9.4149453273003627e-011 1:19.120642 2:18.058767 3:12.385721 4:246 5:246 6:246 7:21 8:21 9:13 10:8.8840666 11:7.7507696 12:5.5260348 13:35340 14:31938 15:28884 #
9.4149453273003627e-011 1:72.351097 2:74.15284 3:75.393845 4:158 5:158 6:158 7:88 8:91 9:93 10:5.5795755 11:10.33006 12:8.9312172 13:98919 14:97428 15:98058 #
9.4149453273003627e-011 1:9.3470421 2:13.547168 3:19.484522 4:478 5:478 6:478 7:13 8:14 9:14 10:7.5118732 11:2.2923632 12:5.8441582 13:36719 14:31937 15:26695 #
-9.4149453273003627e-011 1:28.69191 2:24.225571 3:4.0704579 4:2 5:2 6:2 7:26 8:24 9:5 10:14.435306 11:11.962791 12:6.9778032 13:88291 14:80895 15:60149 #
9.4149453273003627e-011 1:13.855442 2:13.770368 3:12.904922 4:237 5:237 6:237 7:15 8:15 9:13 10:8.7324724 11:6.9719653 12:3.7400312 13:36124 14:31903 15:27739 #
9.4149453273003627e-011 1:73.031494 2:78.375237 3:78.435844 4:158 5:158 6:158 7:96 8:105 9:104 10:9.098918 11:13.318718 12:12.302764 13:97535 14:95731 15:97023 #
-9.4149453273003627e-011 1:11.406242 2:12.270368 3:13.407722 4:473 5:473 6:473 7:12 8:14 9:14 10:7.6424856 11:7.0142717 12:7.0211415 13:36042 14:32506 15:28173 #
9.4149453273003627e-011 1:28.053518 2:32.143887 3:23.561579 4:371 5:371 6:371 7:16 8:19 9:15 10:23.748266 11:23.509581 12:28.215399 13:94142 14:96323 15:95365 #
-9.4149453273003627e-011 1:7.7317977 2:7.2310758 3:7.1970935 4:2 5:2 6:2 7:4 8:3 9:3 10:9.6159296 11:9.3667936 12:8.7976217 13:136648 14:135705 15:135460 #
-9.4149453273003627e-011 1:26.270473 2:25.249647 3:25.683226 4:37 5:37 6:37 7:30 8:29 9:29 10:13.574621 11:13.734947 12:13.660041 13:32361 14:31485 15:31053 #
-9.4149453273003627e-011 1:31.088074 2:29.106447 3:29.558825 4:39 5:39 6:39 7:34 8:32 9:32 10:13.559284 11:13.821704 12:13.813865 13:32502 14:31662 15:31322 #
9.4149453273003627e-011 1:0.18940642 2:1.13633 3:1.3489877 4:255 5:255 6:255 7:10 8:0 9:0 10:7.623301 11:0.89446878 12:1.2477506 13:113019 14:89636 15:88400 #
-2.7923119095463913e-011 1:1.5261936 2:0.52486998 3:0.9441877 4:261 5:261 6:261 7:5 8:1 9:1 10:22.842083 11:2.3640351 12:1.3368278 13:133345 14:111651 15:110912 #
-9.4149453273003627e-011 1:30.266243 2:26.813967 3:16.897722 4:15 5:15 6:15 7:30 8:28 9:17 10:9.6956463 11:9.8041506 12:8.3493185 13:34569 14:31875 15:29410 #
9.4149453273003627e-011 1:37.626717 2:45.484688 3:44.853977 4:371 5:371 6:371 7:31 8:39 9:38 10:25.700525 11:25.012903 12:26.898666 13:93553 14:95552 15:95938 #
-9.4149453273003627e-011 1:16.965841 2:15.985168 3:13.701322 4:478 5:478 6:478 7:17 8:17 9:14 10:8.946826 11:8.2290888 12:7.5482478 13:35786 14:32206 15:28632 #
9.4149453273003627e-011 1:8.812295 2:8.1896372 3:9.0462427 4:5 5:5 6:5 7:8 8:8 9:9 10:2.0442028 11:2.0934072 12:2.5053995 13:95055 14:94249 15:94227 #
-9.0469437742355674e-011 1:4.7201977 2:4.4418759 3:4.0286932 4:250 5:250 6:250 7:3 8:2 9:2 10:5.9274368 11:6.002779 12:5.9565721 13:133132 14:132480 15:132145 #
9.4149453273003627e-011 1:9.7250423 2:12.694367 3:17.585722 4:466 5:466 6:466 7:11 8:13 9:14 10:9.9154415 11:6.6188416 12:0.57016671 13:36510 14:32182 15:26827 #
-9.3884122523587186e-011 1:24.114641 2:21.666767 3:15.611722 4:490 5:490 6:490 7:26 8:23 9:15 10:9.7653084 11:8.8615332 12:6.8917274 13:34927 14:31962 15:29366 #
9.4149453273003627e-011 1:70.673782 2:75.79129 3:76.764496 4:152 5:152 6:152 7:97 8:104 9:104 10:18.897734 11:22.69112 12:22.241762 13:94888 14:93511 15:94440 #
-9.4149453273003627e-011 1:6.0089979 2:4.7738757 3:4.4782934 4:12 5:12 6:12 7:7 8:5 9:4 10:3.9059086 11:4.0545511 12:3.9089208 13:131942 14:131548 15:131295 #
-5.4949580205593904e-011 1:20.961443 2:20.002367 3:17.008522 4:490 5:490 6:490 7:22 8:21 9:18 10:10.393182 11:9.355546 12:7.9419322 13:35679 14:32469 15:28523 #
9.4149453273003627e-011 1:23.662598 2:23.995075 3:23.637894 4:222 5:222 6:222 7:24 8:24 9:24 10:0.8295815 11:0.97327298 12:1.3066115 13:94229 14:93309 15:93203 #
9.4149453273003627e-011 1:9.5950422 2:12.906768 3:14.794122 4:478 5:478 6:478 7:11 8:14 9:12 10:10.908922 11:6.5122399 12:0.94572848 13:36315 14:31962 15:27233 #
-9.4149453273003627e-011 1:16.698242 2:15.260367 3:13.735322 4:483 5:483 6:483 7:19 8:17 9:15 10:10.299329 11:9.6684294 12:7.5672336 13:35913 14:32424 15:28562 #
9.4149453273003627e-011 1:6.1434951 2:4.8320374 3:4.6502423 4:262 5:262 6:262 7:5 8:4 9:5 10:3.3933797 11:3.8277586 12:3.9594979 13:93580 14:92700 15:92619 #
-9.4149453273003627e-011 1:10.392202 2:10.856924 3:12.015707 4:261 5:261 6:261 7:11 8:12 9:13 10:2.5886445 11:2.8111334 12:2.7090232 13:131518 14:130938 15:130564 #
9.4149453273003627e-011 1:7.0210423 2:10.866768 3:16.231321 4:471 5:471 6:471 7:8 8:11 9:13 10:9.5025558 11:5.8229604 12:1.0283071 13:36580 14:32121 15:26829 #
-9.4149453273003627e-011 1:23.046074 2:22.412048 3:22.552826 4:284 5:284 6:284 7:26 8:25 9:26 10:15.197702 11:14.644618 12:14.747145 13:32520 14:31787 15:31453 #
9.4149453273003627e-011 1:20.707495 2:19.825237 3:19.951443 4:158 5:158 6:158 7:15 8:14 9:15 10:1.000981 11:0.69212335 12:0.8258844 13:92242 14:91403 15:91648 #
-9.4149453273003627e-011 1:7.6373377 2:21.34557 3:29.254259 4:213 5:213 6:213 7:7 8:15 9:20 10:13.039002 11:22.586031 12:30.878601 13:38978 14:31635 15:30133 #
9.4149453273003627e-011 1:11.843495 2:10.031637 3:8.2390423 4:254 5:254 6:254 7:10 8:9 9:7 10:3.2796848 11:2.8193989 12:2.43536 13:92624 14:91328 15:90992 #
-9.4149453273003627e-011 1:11.224905 2:9.3883629 3:9.1421576 4:285 5:285 6:285 7:14 8:12 9:11 10:4.3167391 11:4.5001397 12:4.572772 13:130299 14:129977 15:130020 #
9.4149453273003627e-011 1:10.298243 2:19.727968 3:32.78492 4:474 5:474 6:474 7:10 8:20 9:33 10:9.400816 11:7.9167857 12:3.121964 13:37492 14:32403 15:25661 #
-9.4149453273003627e-011 1:14.427443 2:14.086368 3:12.234522 4:5 5:5 6:5 7:16 8:15 9:12 10:10.82186 11:10.603755 12:8.9367285 13:35605 14:32253 15:28615 #
9.4149453273003627e-011 1:75.876694 2:80.480034 3:80.10984 4:158 5:158 6:158 7:94 8:102 9:102 10:4.1356797 11:8.4986916 12:8.2853718 13:92363 14:90678 15:91477 #
-9.4149453273003627e-011 1:13.268262 2:44.666431 3:59.59214 4:25 5:25 6:25 7:17 8:54 9:71 10:11.838962 11:2.7056336 12:4.1632147 13:110836 14:113004 15:115233 #
9.4149453273003627e-011 1:12.651443 2:12.485968 3:10.820122 4:477 5:477 6:477 7:13 8:13 9:9 10:9.7432432 11:7.7932286 12:5.2559867 13:36174 14:32306 15:28354 #
-9.4149453273003627e-011 1:17.041443 2:13.908768 3:10.469321 4:8 5:8 6:8 7:18 8:16 9:12 10:10.383539 11:9.286273 12:7.5335755 13:35522 14:32318 15:28754 #
9.4149453273003627e-011 1:23.393496 2:23.999638 3:24.674643 4:158 5:158 6:158 7:13 8:14 9:15 10:8.6752644 11:10.795342 12:10.608911 13:91157 14:90552 15:91325 #
-9.4149453273003627e-011 1:15.869442 2:15.519967 3:14.319721 4:247 5:247 6:247 7:19 8:19 9:15 10:8.0750828 11:7.913518 12:8.3305817 13:36024 14:32371 15:28421 #
9.4149453273003627e-011 1:80.852211 2:84.690926 3:83.434143 4:143 5:143 6:143 7:95 8:103 9:100 10:10.707644 11:14.659888 12:14.439249 13:91117 14:90527 15:91251 #
9.4149453273003627e-011 1:9.0114422 2:11.916368 3:15.713721 4:482 5:482 6:482 7:11 8:10 9:8 10:7.1434379 11:1.0858141 12:6.908165 13:36796 14:32402 15:27034 #
-9.4149453273003627e-011 1:18.587797 2:17.343876 3:16.871094 4:228 5:228 6:228 7:18 8:16 9:16 10:5.4410491 11:5.3317723 12:5.1740212 13:130243 14:129612 15:129378 #
-9.372410080452985e-011 1:21.687042 2:20.096767 3:16.884121 4:491 5:491 6:491 7:25 8:23 9:19 10:7.3355865 11:7.3265233 12:6.6815572 13:35534 14:32555 15:28647 #
9.4149453273003627e-011 1:52.093414 2:53.378128 3:52.468544 4:143 5:143 6:143 7:56 8:56 9:54 10:26.903055 11:30.931629 12:30.66033 13:90073 14:88891 15:89628 #
9.4149453273003627e-011 1:12.463042 2:10.141168 3:6.4441214 4:476 5:476 6:476 7:13 8:12 9:8 10:12.534576 11:10.048689 12:5.6484232 13:35967 14:32725 15:29568 #
-9.4149453273003627e-011 1:38.997406 2:13.79033 3:12.554587 4:247 5:247 6:247 7:36 8:14 9:13 10:22.612343 11:3.7125494 12:2.8584867 13:119520 14:92476 15:91024 #
9.4149453273003627e-011 1:21.897902 2:4.8307767 3:5.5418739 4:4 5:4 6:4 7:24 8:4 9:6 10:6.9375534 11:4.1688299 12:6.6802526 13:49999 14:56433 15:55574 #
-9.4149453273003627e-011 1:25.133673 2:25.023247 3:25.073225 4:286 5:286 6:286 7:28 8:28 9:28 10:13.433788 11:13.31461 12:13.328408 13:32723 14:31778 15:31508 #
9.4149453273003627e-011 1:28.333815 2:29.686926 3:29.128143 4:143 5:143 6:143 7:10 8:10 9:9 10:25.22337 11:27.711996 12:27.539091 13:89637 14:88646 15:89464 #
9.4149453273003627e-011 1:47.454273 2:62.781399 3:70.988281 4:382 5:382 6:382 7:49 8:69 9:81 10:10.203669 11:15.782047 12:24.691031 13:41532 14:33531 15:27031 #
-9.4149453273003627e-011 1:9.5134354 2:18.533819 3:21.830032 4:3 5:3 6:3 7:5 8:16 9:18 10:15.877854 11:15.959327 12:17.811495 13:44347 14:41558 15:44174 #
-9.4149453273003627e-011 1:22.489273 2:22.129648 3:22.353624 4:285 5:285 6:285 7:25 8:25 9:25 10:14.35661 11:13.649286 12:13.692326 13:32723 14:31800 15:31619 #
9.4149453273003627e-011 1:2.132905 2:2.6311626 3:1.3965575 4:267 5:267 6:267 7:1 8:2 9:1 10:2.3033006 11:2.3999159 12:1.6657398 13:89155 14:88588 15:88858 #
-9.4149453273003627e-011 1:33.692074 2:33.885246 3:33.712425 4:209 5:209 6:209 7:37 8:37 9:37 10:13.94077 11:13.48691 12:13.63272 13:32697 14:31902 15:31728 #
9.4149453273003627e-011 1:16.454594 2:7.2252698 3:6.3442125 4:2 5:2 6:2 7:13 8:7 9:6 10:0.5835672 11:1.0662841 12:1.0157642 13:102466 14:80610 15:79424 #
-9.4149453273003627e-011 1:5.3001051 2:5.2775626 3:5.1233573 4:26 5:26 6:26 7:8 8:8 9:8 10:7.3237767 11:7.1992888 12:6.8312869 13:129774 14:128786 15:128866 #
9.4149453273003627e-011 1:9.3182421 2:11.548368 3:13.898521 4:479 5:479 6:479 7:11 8:13 9:11 10:5.6650457 11:1.2994301 12:6.6661806 13:36714 14:32644 15:27670 #
-9.4149453273003627e-011 1:11.605843 2:11.683968 3:11.137321 4:4 5:4 6:4 7:11 8:13 9:12 10:3.9360728 11:4.318861 12:4.896677 13:36055 14:32263 15:28560 #
9.4149453273003627e-011 1:21.330318 2:31.426687 3:16.678379 4:371 5:371 6:371 7:9 8:20 9:10 10:24.228014 11:23.200987 12:30.524778 13:87101 14:89516 15:87401 #
-5.8249843618495816e-011 1:27.364206 2:6.2135301 3:6.6089878 4:249 5:249 6:249 7:24 8:6 9:7 10:24.932289 11:7.234386 12:6.570488 13:80548 14:54091 15:53089 #
9.4149453273003627e-011 1:12.679918 2:21.851488 3:23.312778 4:4 5:4 6:4 7:2 8:12 9:16 10:17.965801 11:16.453583 12:16.137497 13:80613 14:84058 15:84747 #
9.4149453273003627e-011 1:10.403842 2:19.260368 3:29.985722 4:477 5:477 6:477 7:12 8:21 9:32 10:11.219341 11:8.7039194 12:2.7745819 13:38044 14:33176 15:27239 #
-9.4149453273003627e-011 1:18.444473 2:18.392048 3:18.218426 4:281 5:281 6:281 7:22 8:21 9:21 10:14.711397 11:14.361229 12:14.484593 13:32882 14:32033 15:31974 #
9.4149453273003627e-011 1:52.838993 2:12.19367 3:12.097412 4:35 5:35 6:35 7:64 8:14 9:14 10:4.6311131 11:2.6859441 12:1.9039207 13:96294 14:77774 15:76273 #
-9.4149453273003627e-011 1:28.04471 2:25.87117 3:5.5308576 4:3 5:3 6:3 7:26 8:26 9:7 10:12.790287 11:10.280344 12:6.5498195 13:91278 14:83847 15:64711 #
-9.4149453273003627e-011 1:18.046242 2:15.663967 3:10.198522 4:237 5:237 6:237 7:18 8:17 9:11 10:11.441782 11:10.697083 12:8.0616598 13:35217 14:32206 15:29335 #
9.4149453273003627e-011 1:21.854309 2:37.569969 3:79.672859 4:356 5:356 6:356 7:21 8:38 9:76 10:10.506739 11:2.8294091 12:23.875555 13:91723 14:88491 15:85151 #
9.4149453273003627e-011 1:15.127442 2:13.401168 3:9.8417215 4:236 5:236 6:236 7:17 8:15 9:10 10:8.8550053 11:8.2660246 12:6.4106655 13:36323 14:33001 15:29925 #
-9.4149453273003627e-011 1:4.9581976 2:4.9726758 3:5.7946935 4:5 5:5 6:5 7:4 8:4 9:4 10:5.7608938 11:5.7337537 12:5.4951425 13:129333 14:128570 15:128286 #
-9.4149453273003627e-011 1:17.565443 2:16.053967 3:15.322922 4:482 5:482 6:482 7:19 8:18 9:17 10:10.257199 11:8.5730247 12:6.6565838 13:35758 14:32590 15:28621 #
9.4149453273003627e-011 1:67.425415 2:71.03373 3:70.402946 4:143 5:143 6:143 7:92 8:97 9:94 10:21.698175 11:25.018681 12:24.99555 13:87932 14:86971 15:87759 #
-9.4149453273003627e-011 1:26.362642 2:23.748768 3:18.943321 4:491 5:491 6:491 7:28 8:26 9:20 10:10.375835 11:10.182229 12:7.1521873 13:35304 14:32439 15:29200 #
9.4149453273003627e-011 1:8.0874147 2:8.7789259 3:9.1493444 4:143 5:143 6:143 7:4 8:3 9:3 10:18.016096 11:20.126263 12:20.292545 13:87184 14:87093 15:86941 #
-9.4149453273003627e-011 1:10.908603 2:13.322524 3:14.919706 4:270 5:270 6:270 7:12 8:16 9:18 10:3.1988914 11:3.7227862 12:3.5227561 13:128707 14:128355 15:128410 #
9.4149453273003627e-011 1:7.717442 2:15.203967 3:27.022921 4:238 5:238 6:238 7:10 8:16 9:23 10:6.3919291 11:3.261189 12:5.1227078 13:37915 14:33375 15:27278 #
-9.4149453273003627e-011 1:15.819442 2:15.937167 3:15.526921 4:249 5:249 6:249 7:18 8:19 9:17 10:5.8495431 11:4.9662671 12:4.0298934 13:36132 14:32566 15:28386 #
9.4149453273003627e-011 1:12.73649 2:2.1447704 3:51.861656 4:405 5:405 6:405 7:19 8:1 9:49 10:0.7236684 11:0.25598964 12:16.110111 13:91216 14:85840 15:84827 #
-9.4149453273003627e-011 1:13.301442 2:13.491167 3:15.128522 4:476 5:476 6:476 7:14 8:15 9:16 10:9.6646099 11:8.0232315 12:6.5797396 13:36362 14:32920 15:28208 #
9.4149453273003627e-011 1:16.274214 2:15.622127 3:15.952944 4:143 5:143 6:143 7:5 8:4 9:4 10:21.034 11:23.492899 12:23.433323 13:87161 14:86440 15:86794 #
-9.4149453273003627e-011 1:8.0793047 2:6.2899628 3:6.7405577 4:13 5:13 6:13 7:10 8:9 9:9 10:2.9878361 11:3.5848484 12:3.5673437 13:128343 14:127944 15:127923 #
-9.4149453273003627e-011 1:16.522242 2:16.635168 3:14.885322 4:11 5:11 6:11 7:18 8:19 9:16 10:7.522016 11:7.0587082 12:6.3383899 13:35854 14:32380 15:28776 #
9.4149453273003627e-011 1:44.753414 2:45.959724 3:45.184143 4:143 5:143 6:143 7:38 8:31 9:27 10:27.946775 11:31.231153 12:31.400341 13:87190 14:86316 15:86863 #
9.4149453273003627e-011 1:10.281842 2:8.4055672 3:6.1589217 4:471 5:471 6:471 7:11 8:10 9:7 10:9.592865 11:8.4572506 12:6.8229089 13:36259 14:33094 15:29533 #
-2.0361375382607698e-011 1:4.1257977 2:2.848676 3:2.7550933 4:5 5:5 6:5 7:4 8:2 9:2 10:1.0585955 11:1.322166 12:1.6138456 13:119232 14:118564 15:118448 #
9.4149453273003627e-011 1:5.5066948 2:5.6184373 3:6.4162426 4:508 5:508 6:508 7:6 8:7 9:8 10:5.1701078 11:4.6027169 12:4.6327333 13:87201 14:86277 15:86219 #
-9.4149453273003627e-011 1:0.24213783 2:18.007969 3:29.654659 4:1 5:1 6:1 7:0 8:12 9:21 10:10.055611 11:19.111977 12:27.412548 13:46629 14:38879 15:36774 #
9.4149453273003627e-011 1:5.5634422 2:7.7751675 3:10.862922 4:467 5:467 6:467 7:5 8:6 9:7 10:8.2815676 11:4.1462531 12:2.1903245 13:37513 14:33074 15:28236 #
-9.4149453273003627e-011 1:10.701042 2:9.384367 3:5.2153215 4:1 5:1 6:1 7:12 8:12 9:6 10:9.2547102 11:8.1513538 12:7.6537714 13:35444 14:32201 15:29391 #
-9.4149453273003627e-011 1:37.794472 2:36.831249 3:37.240025 4:48 5:48 6:48 7:41 8:40 9:40 10:14.302189 11:14.361735 12:14.235729 13:32978 14:32036 15:31895 #
9.4149453273003627e-011 1:12.51191 2:28.487171 3:67.409256 4:362 5:362 6:362 7:13 8:30 9:73 10:9.860507 11:7.4520092 12:17.119602 13:91639 14:86679 15:81601 #
-9.4149453273003627e-011 1:8.2953053 2:7.7875628 3:9.1009579 4:291 5:291 6:291 7:13 8:12 9:13 10:5.2502766 11:5.5085425 12:5.1263666 13:127963 14:127628 15:127085 #
-9.4149453273003627e-011 1:25.191442 2:22.855167 3:15.806922 4:247 5:247 6:247 7:27 8:25 9:17 10:10.257316 11:10.03677 12:7.3412848 13:35167 14:32360 15:29607 #
9.4149453273003627e-011 1:12.426295 2:12.891638 3:12.156643 4:257 5:257 6:257 7:10 8:12 9:12 10:7.2469711 11:7.3945136 12:7.7959328 13:86630 14:86039 15:86053 #
-9.4149453273003627e-011 1:17.545042 2:16.521967 3:15.997321 4:489 5:489 6:489 7:20 8:20 9:18 10:7.5300384 11:6.4016347 12:5.3482614 13:36082 14:32822 15:28814 #
9.4149453273003627e-011 1:19.798214 2:20.412127 3:20.848145 4:143 5:143 6:143 7:7 8:8 9:8 10:19.669378 11:22.15806 12:21.802979 13:86144 14:85551 15:85976 #
9.4149453273003627e-011 1:11.575842 2:9.6011677 3:7.5865216 4:236 5:236 6:236 7:15 8:14 9:11 10:5.804193 11:4.5535316 12:2.8345015 13:36828 14:33378 15:29588 #
-9.4149453273003627e-011 1:11.932198 2:10.643476 3:10.824694 4:20 5:20 6:20 7:14 8:12 9:12 10:3.2530525 11:3.362715 12:3.2534711 13:98906 14:98178 15:97980 #
-9.4149453273003627e-011 1:17.631443 2:17.806767 3:16.131321 4:248 5:248 6:248 7:21 8:21 9:18 10:5.0602837 11:5.3156309 12:5.4085312 13:35818 14:32425 15:29125 #
9.4149453273003627e-011 1:23.364197 2:23.589476 3:24.037493 4:216 5:216 6:216 7:26 8:26 9:26 10:5.6439571 11:5.4789605 12:5.6967654 13:85941 14:85320 15:84683 #
-6.4775523532253102e-011 1:21.889843 2:19.458767 3:15.340522 4:492 5:492 6:492 7:24 8:22 9:17 10:8.7347145 11:8.0786524 12:6.7833524 13:35502 14:32594 15:29275 #
9.4149453273003627e-011 1:41.271416 2:43.221725 3:42.735344 4:143 5:143 6:143 7:23 8:23 9:23 10:26.931301 11:29.869717 12:29.771433 13:85366 14:84822 15:85272 #
-9.4149453273003627e-011 1:4.0474143 2:3.2629261 3:3.3645442 4:15 5:15 6:15 7:3 8:4 9:4 10:1.659405 11:1.496932 12:1.4216936 13:87350 14:87026 15:86921 #
9.4149453273003627e-011 1:2.6474144 2:3.2629261 3:4.0565443 4:249 5:249 6:249 7:1 8:2 9:2 10:4.2888422 11:5.5490842 12:5.7919874 13:69676 14:69242 15:69251 #
9.4149453273003627e-011 1:8.4878426 2:7.5779676 3:4.7949214 4:470 5:470 6:470 7:9 8:9 9:6 10:8.998353 11:7.4955411 12:5.998395 13:36560 14:33224 15:30100 #
-9.4149453273003627e-011 1:6.2985935 2:6.2992702 3:4.4438124 4:263 5:263 6:263 7:9 8:6 9:4 10:23.220797 11:4.7943487 12:3.7451406 13:106196 14:84703 15:84094 #
-9.4149453273003627e-011 1:20.978474 2:20.989248 3:20.840025 4:224 5:224 6:224 7:24 8:23 9:23 10:14.520817 11:14.258582 12:14.200394 13:33067 14:32215 15:32091 #
9.4149453273003627e-011 1:21.466709 2:26.23037 3:44.115658 4:361 5:361 6:361 7:20 8:21 9:20 10:12.550501 11:0.78258389 12:36.233196 13:91464 14:85222 15:78709 #
-9.4149453273003627e-011 1:4.202538 2:21.923168 3:32.83226 4:3 5:3 6:3 7:4 8:16 9:24 10:10.916894 11:20.191683 12:28.471327 13:46873 14:38709 15:36958 #
9.4149453273003627e-011 1:8.0502348 2:33.797779 3:44.597168 4:1 5:1 6:1 7:6 8:32 9:46 10:11.044635 11:5.5717325 12:9.5789557 13:45342 14:32879 15:32312 #
-9.4149453273003627e-011 1:22.964474 2:22.099648 3:22.097225 4:286 5:286 6:286 7:26 8:25 9:25 10:14.210214 11:13.46989 12:13.584938 13:33086 14:32186 15:32273 #
9.4149453273003627e-011 1:83.561096 2:90.274834 3:90.238243 4:158 5:158 6:158 7:95 8:104 9:103 10:1.5894648 11:1.1680865 12:0.35757139 13:85225 14:84768 15:84773 #
-9.4149453273003627e-011 1:5.529305 2:3.8543627 3:3.6593575 4:278 5:278 6:278 7:9 8:6 9:5 10:5.2992358 11:5.515224 12:5.6830664 13:91221 14:90403 15:90790 #
9.4149453273003627e-011 1:2.1353579 2:4.1283674 3:17.181721 4:462 5:462 6:462 7:1 8:5 9:18 10:11.821311 11:9.7087059 12:5.4183378 13:38774 14:34523 15:28126 #
-9.4149453273003627e-011 1:32.440075 2:32.220448 3:31.712425 4:44 5:44 6:44 7:36 8:35 9:35 10:13.230976 11:13.396605 12:13.510739 13:33233 14:32151 15:32060 #
9.4149453273003627e-011 1:3.2798951 2:3.5836372 3:2.9598424 4:508 5:508 6:508 7:3 8:4 9:4 10:6.5314984 11:5.7167468 12:5.5754657 13:85409 14:84699 15:84469 #
-9.4149453273003627e-011 1:1.0361834 2:0.39608806 3:0.19529474 4:4 5:4 6:4 7:2 8:1 9:1 10:0.64901346 11:1.3300531 12:1.1529392 13:76287 14:75712 15:75429 #
9.4149453273003627e-011 1:7.829042 2:11.301968 3:17.164122 4:469 5:469 6:469 7:9 8:13 9:17 10:10.937391 11:9.0297155 12:5.4097071 13:38028 14:33976 15:28928 #
-9.4149453273003627e-011 1:25.198643 2:22.571568 3:16.223722 4:251 5:251 6:251 7:28 8:25 9:17 10:8.6607533 11:9.280652 12:6.9256973 13:35255 14:32461 15:29580 #
9.4149453273003627e-011 1:2.2218168 2:2.4011118 3:2.3887053 4:253 5:253 6:253 7:0 8:1 9:0 10:2.577419 11:3.0569744 12:3.045249 13:84268 14:83891 15:83980 #
-9.4149453273003627e-011 1:10.907063 2:39.75563 3:61.573341 4:262 5:262 6:262 7:10 8:45 9:71 10:7.8490295 11:2.1181986 12:10.64946 13:87976 14:88526 15:91574 #
9.4149453273003627e-011 1:39.833874 2:57.723 3:68.954681 4:45 5:45 6:45 7:41 8:64 9:79 10:12.139314 11:17.280687 12:25.303371 13:42108 14:34579 15:28006 #
9.4149453273003627e-011 1:35.153416 2:36.013725 3:34.711742 4:143 5:143 6:143 7:14 8:15 9:14 10:25.7875 11:29.023573 12:29.065992 13:84344 14:83196 15:83227 #
-9.4149453273003627e-011 1:28.342207 2:8.6931305 3:8.6173878 4:239 5:239 6:239 7:26 8:9 9:9 10:26.406546 11:6.3004355 12:5.4316278 13:102462 14:76415 15:75320 #
9.4149453273003627e-011 1:21.963501 2:5.4775767 3:7.6746736 4:6 5:6 6:6 7:24 8:5 9:8 10:6.9433169 11:4.0980635 12:6.502317 13:49657 14:55887 15:55176 #
-9.4149453273003627e-011 1:45.113674 2:42.002048 3:42.430023 4:54 5:54 6:54 7:48 8:45 9:46 10:14.898829 11:15.099169 12:14.99894 13:32756 14:32738 15:32426 #
9.4149453273003627e-011 1:22.251289 2:18.100029 3:25.566057 4:411 5:411 6:411 7:28 8:25 9:22 10:2.9800892 11:0.30641237 12:6.6408887 13:90021 14:83409 15:76339 #
-9.4149453273003627e-011 1:18.901094 2:18.988037 3:18.336643 4:250 5:250 6:250 7:16 8:17 9:17 10:5.4078321 11:5.2146301 12:5.4767151 13:91455 14:90551 15:90444 #
9.4149453273003627e-011 1:13.659042 2:13.522767 3:11.984121 4:480 5:480 6:480 7:15 8:15 9:12 10:10.41979 11:9.6253633 12:7.5761194 13:37317 14:33668 15:29721 #
-9.4149453273003627e-011 1:16.969673 2:16.646448 3:16.788425 4:30 5:30 6:30 7:21 8:20 9:20 10:12.431812 11:12.352743 12:12.172936 13:33190 14:32178 15:32086 #
9.4149453273003627e-011 1:8.33111 2:15.41037 3:48.082458 4:345 5:345 6:345 7:15 8:19 9:29 10:6.2046018 11:8.0873499 12:31.333069 13:88401 14:81626 15:79632 #
-9.4149453273003627e-011 1:12.63889 2:3.8300297 3:17.832857 4:25 5:25 6:25 7:18 8:6 9:18 10:0.2435092 11:1.5610163 12:0.72635043 13:99301 14:92963 15:79624 #
9.4149453273003627e-011 1:4.0298419 2:2.9575675 3:2.7341216 4:0 5:0 6:0 7:5 8:5 9:4 10:10.326983 11:8.6617136 12:6.8240252 13:37054 14:33881 15:29988 #
-9.4149453273003627e-011 1:19.028074 2:18.754448 3:19.058825 4:219 5:219 6:219 7:24 8:23 9:23 10:11.256789 11:11.154492 12:11.263784 13:33269 14:32368 15:32200 #
9.4149453273003627e-011 1:1.148105 2:2.9888372 3:5.2834425 4:278 5:278 6:278 7:6 8:1 9:2 10:6.3233542 11:6.682416 12:7.1819596 13:83488 14:83296 15:83406 #
-2.4961789771710969e-011 1:12.398602 2:13.353324 3:14.626906 4:17 5:17 6:17 7:15 8:16 9:17 10:5.3671894 11:4.8661437 12:4.2433238 13:123945 14:122706 15:122771 #
9.4149453273003627e-011 1:29.460674 2:46.878597 3:60.201485 4:389 5:389 6:389 7:33 8:55 9:72 10:12.267673 11:17.188171 12:23.439402 13:42050 14:34032 15:27782 #
-9.4149453273003627e-011 1:18.651043 2:16.106367 3:10.656921 4:483 5:483 6:483 7:20 8:17 9:11 10:11.67573 11:10.504551 12:8.2475309 13:35453 14:32483 15:29592 #
9.4149453273003627e-011 1:7.2820902 2:18.24197 3:76.342857 4:391 5:391 6:391 7:9 8:18 9:77 10:7.4167004 11:5.8539515 12:11.611164 13:85128 14:81820 15:82105 #
-9.4149453273003627e-011 1:12.770597 2:13.263876 3:14.214293 4:229 5:229 6:229 7:13 8:14 9:14 10:3.6684535 11:3.6804163 12:3.8140616 13:91625 14:90634 15:89972 #
9.4149453273003627e-011 1:10.152642 2:8.3275671 3:6.8269215 4:475 5:475 6:475 7:12 8:11 9:7 10:8.5014257 11:7.2511091 12:6.3151569 13:37256 14:33698 15:29748 #
-9.4149453273003627e-011 1:14.670642 2:12.941967 3:11.993321 4:15 5:15 6:15 7:16 8:16 9:14 10:5.7933908 11:4.6060891 12:4.427732 13:35996 14:32559 15:28855 #
9.4149453273003627e-011 1:81.747383 2:87.783287 3:89.065697 4:152 5:152 6:152 7:99 8:107 9:107 10:14.089045 11:17.848722 12:17.160749 13:83457 14:81993 15:83606 #
-9.4149453273003627e-011 1:18.510662 2:53.771233 3:81.848541 4:30 5:30 6:30 7:23 8:62 9:92 10:4.9849248 11:4.9758501 12:12.07903 13:70993 14:72811 15:76915 #
9.4149453273003627e-011 1:24.546274 2:40.520599 3:54.616684 4:41 5:41 6:41 7:28 8:50 9:67 10:11.210052 11:15.878709 12:21.301332 13:41816 14:34551 15:29273 #
-9.4149453273003627e-011 1:15.701442 2:15.107167 3:13.256122 4:16 5:16 6:16 7:17 8:18 9:15 10:8.2283735 11:7.2647738 12:6.5034795 13:35874 14:32685 15:28896 #
9.4149453273003627e-011 1:17.725517 2:18.737888 3:11.181178 4:262 5:262 6:262 7:10 8:10 9:6 10:13.040074 11:13.429974 12:12.454705 13:82606 14:83316 15:82814 #
-9.4149453273003627e-011 1:18.433441 2:17.340368 3:11.494922 4:485 5:485 6:485 7:20 8:19 9:11 10:10.694959 11:10.284906 12:7.8832774 13:35525 14:32458 15:29556 #
9.4149453273003627e-011 1:6.99049 2:5.3251705 3:41.438858 4:36 5:36 6:36 7:7 8:6 9:41 10:2.697037 11:3.0895119 12:0.15999469 13:87383 14:82726 15:78189 #
-9.4149453273003627e-011 1:17.531807 2:4.7951303 3:4.2925878 4:4 5:4 6:4 7:15 8:5 9:5 10:24.670115 11:5.0486822 12:4.0197086 13:107946 14:83105 15:82036 #
9.4149453273003627e-011 1:2.5490422 2:1.4415674 3:0.94052154 4:466 5:466 6:466 7:4 8:3 9:2 10:11.511254 11:9.9425926 12:7.8581357 13:37498 14:34118 15:30010 #
-9.4149453273003627e-011 1:31.800873 2:31.639248 3:31.883224 4:296 5:296 6:296 7:35 8:34 9:35 10:12.958884 11:12.764549 12:12.758167 13:33287 14:32649 15:32339 #
9.4149453273003627e-011 1:32.550594 2:2.6928699 3:4.9310122 4:6 5:6 6:6 7:36 8:3 9:5 10:18.204592 11:2.7080572 12:2.4274805 13:93807 14:75700 15:73584 #
-9.4149453273003627e-011 1:3.89849 2:3.2483704 3:12.417257 4:17 5:17 6:17 7:6 8:2 9:13 10:4.8201637 11:3.5223935 12:1.6433996 13:97355 14:91398 15:82398 #
9.4149453273003627e-011 1:5.889442 2:5.4463673 3:3.8581216 4:1 5:1 6:1 7:7 8:7 9:4 10:10.51248 11:9.4143429 12:7.8971486 13:37450 14:34020 15:30600 #
-9.3283512170610368e-011 1:16.377441 2:15.685167 3:10.894921 4:489 5:489 6:489 7:21 8:20 9:12 10:6.0038881 11:5.6776834 12:5.9263792 13:35615 14:32382 15:29603 #
9.4149453273003627e-011 1:0.16791004 2:11.98797 3:55.264458 4:152 5:152 6:152 7:1 8:11 9:54 10:7.8213525 11:8.0113306 12:4.1426306 13:87195 14:81860 15:78408 #
-9.4149453273003627e-011 1:29.393705 2:28.019562 3:29.356157 4:61 5:61 6:61 7:36 8:35 9:36 10:5.0894818 11:5.0771112 12:4.784636 13:91039 14:90539 15:90678 #
9.4149453273003627e-011 1:4.363842 2:5.7955675 3:8.2981215 4:468 5:468 6:468 7:5 8:6 9:7 10:9.4538975 11:6.1711168 12:1.9304799 13:38215 14:34223 15:29502 #
-9.4149453273003627e-011 1:18.320242 2:16.737167 3:13.275322 4:241 5:241 6:241 7:20 8:18 9:14 10:10.688127 11:9.9342661 12:7.4924822 13:36042 14:32564 15:29006 #
9.4149453273003627e-011 1:11.79271 2:25.02557 3:64.114456 4:356 5:356 6:356 7:12 8:24 9:58 10:5.0801215 11:2.5565374 12:13.384462 13:86230 14:81908 15:79607 #
-9.4149453273003627e-011 1:7.0663099 2:13.009971 3:18.492458 4:14 5:14 6:14 7:6 8:13 9:19 10:8.6458998 11:6.9013019 12:2.2631183 13:96859 14:91050 15:82574 #
9.4149453273003627e-011 1:4.9062419 2:4.7059674 3:5.2837214 4:217 5:217 6:217 7:5 8:6 9:6 10:8.7120609 11:6.9978452 12:4.2231102 13:37736 14:34219 15:30299 #
-9.4149453273003627e-011 1:17.496243 2:16.121168 3:11.651321 4:476 5:476 6:476 7:18 8:17 9:12 10:10.704098 11:9.6775675 12:6.7615061 13:35506 14:32553 15:29634 #
9.4149453273003627e-011 1:3.94031 2:15.62957 3:38.522057 4:376 5:376 6:376 7:3 8:15 9:25 10:9.850296 11:5.0221248 12:21.137451 13:87730 14:83405 15:75872 #
-9.4149453273003627e-011 1:24.133095 2:21.088438 3:19.387043 4:497 5:497 6:497 7:25 8:22 9:21 10:4.9794908 11:4.6950746 12:4.824935 13:91702 14:90094 15:89939 #
9.4149453273003627e-011 1:9.7518425 2:11.324767 3:12.400521 4:477 5:477 6:477 7:13 8:15 9:13 10:8.1876955 11:6.2387557 12:3.3192227 13:38161 14:34401 15:29901 #
-9.4149453273003627e-011 1:21.361841 2:19.403168 3:15.718122 4:249 5:249 6:249 7:22 8:20 9:16 10:10.065382 11:9.5874405 12:7.7734184 13:35788 14:32721 15:29114 #
9.4149453273003627e-011 1:82.038612 2:87.214928 3:86.455742 4:143 5:143 6:143 7:99 8:107 9:105 10:12.311637 11:15.08656 12:14.734901 13:82263 14:81266 15:82643 #
-9.4149453273003627e-011 1:3.8478065 2:2.02687 3:1.5826123 4:11 5:11 6:11 7:1 8:4 9:3 10:8.2524958 11:0.3788355 12:0.061071612 13:106172 14:81444 15:80599 #
9.4149453273003627e-011 1:1.2682421 2:1.7411674 3:1.5477215 4:464 5:464 6:464 7:1 8:3 9:3 10:7.8535686 11:6.9300809 12:5.5144396 13:37963 14:34330 15:30370 #
-9.4149453273003627e-011 1:35.813274 2:34.878849 3:34.627625 4:46 5:46 6:46 7:39 8:38 9:38 10:14.123463 11:14.149604 12:13.798082 13:33451 14:32280 15:32162 #
9.4149453273003627e-011 1:19.327909 2:36.78397 3:77.470459 4:125 5:125 6:125 7:18 8:35 9:77 10:9.663002 11:5.9794893 12:11.986947 13:86472 14:82760 15:76481 #
-9.4149453273003627e-011 1:24.42551 2:14.00317 3:8.7259426 4:5 5:5 6:5 7:25 8:16 9:9 10:7.3014183 11:6.8858733 12:5.3271008 13:91202 14:82726 15:64416 #
9.4149453273003627e-011 1:33.742676 2:49.078999 3:61.173084 4:388 5:388 6:388 7:36 8:56 9:72 10:10.95775 11:16.710371 12:23.867687 13:41523 14:33800 15:28201 #
-9.4149453273003627e-011 1:19.874641 2:19.272768 3:16.903721 4:239 5:239 6:239 7:21 8:20 9:17 10:5.857564 11:6.5379839 12:5.8425493 13:36252 14:32802 15:28762 #
9.4149453273003627e-011 1:3.86871 2:18.325171 3:60.274059 4:353 5:353 6:353 7:12 8:23 9:57 10:2.4955401 11:2.0950503 12:13.526678 13:83733 14:79359 15:80982 #
-9.4149453273003627e-011 1:4.3094025 2:5.155324 3:4.7089067 4:0 5:0 6:0 7:5 8:6 9:5 10:5.5979404 11:5.2819638 12:5.0195408 13:86136 14:85408 15:85106 #
9.4149453273003627e-011 1:49.188595 2:6.65167 3:8.3606119 4:10 5:10 6:10 7:56 8:7 9:9 10:13.355539 11:2.3134136 12:2.0790668 13:91486 14:73809 15:71796 #
-9.4149453273003627e-011 1:21.910105 2:22.826763 3:23.469357 4:68 5:68 6:68 7:27 8:28 9:29 10:1.3625289 11:1.3895718 12:1.3012284 13:91156 14:90395 15:90460 #
9.4149453273003627e-011 1:2.6825578 2:0.038032535 3:5.9537215 4:462 5:462 6:462 7:2 8:1 9:4 10:12.715077 11:9.0387344 12:1.9373169 13:39036 14:34576 15:29228 #
-9.4149453273003627e-011 1:23.851442 2:22.772768 3:18.778122 4:253 5:253 6:253 7:26 8:25 9:20 10:8.661705 11:8.2445107 12:6.5769358 13:36027 14:32683 15:29041 #
9.4149453273003627e-011 1:4.1017857 2:4.7362738 3:4.499856 4:510 5:510 6:510 7:3 8:3 9:3 10:1.0522324 11:0.54010302 12:0.38599709 13:80739 14:80236 15:80436 #
-9.4149453273003627e-011 1:0.26533782 2:28.927631 3:41.74894 4:2 5:2 6:2 7:2 8:38 9:53 10:2.7529345 11:7.0103874 12:14.426853 13:74720 14:75980 15:78128 #
9.4149453273003627e-011 1:0.9146421 2:8.0223675 3:21.402922 4:467 5:467 6:467 7:2 8:9 9:21 10:10.254014 11:8.9500237 12:6.2933221 13:39701 14:35242 15:28918 #
-9.4149453273003627e-011 1:9.8970423 2:8.9931679 3:9.6581211 4:465 5:465 6:465 7:10 8:9 9:10 10:7.9366407 11:7.1964521 12:6.5469475 13:35892 14:32766 15:29182 #
9.4149453273003627e-011 1:3.6902144 2:3.2137263 3:3.3349442 4:4 5:4 6:4 7:1 8:1 9:1 10:10.985818 11:11.890527 12:11.908568 13:79886 14:79521 15:79882 #
-9.4149453273003627e-011 1:14.105442 2:12.991167 3:9.9733219 4:480 5:480 6:480 7:15 8:14 9:10 10:10.06335 11:9.313096 12:7.1577001 13:36090 14:32587 15:29364 #
9.4149453273003627e-011 1:24.170662 2:45.32003 3:58.44894 4:15 5:15 6:15 7:24 8:57 9:76 10:2.6982183 11:3.0124011 12:1.9238288 13:79952 14:78381 15:79065 #
-9.4149453273003627e-011 1:4.4313979 2:3.8858759 3:5.2690935 4:241 5:241 6:241 7:5 8:4 9:5 10:4.6435399 11:4.2936897 12:4.658185 13:91249 14:90556 15:89960 #
9.4149453273003627e-011 1:44.953876 2:60.957798 3:69.793884 4:378 5:378 6:378 7:46 8:67 9:80 10:10.688858 11:16.180826 12:25.058899 13:42400 14:34926 15:27700 #
-9.4149453273003627e-011 1:8.3810425 2:8.7915678 3:10.747722 4:469 5:469 6:469 7:9 8:10 9:11 10:9.862628 11:7.9987874 12:5.0623956 13:36466 14:32922 15:28714 #
9.4149453273003627e-011 1:1.7322502 2:1.0242945 3:1.2950232 4:3 5:3 6:3 7:2 8:1 9:1 10:0.58948511 11:0.70003635 12:0.57047582 13:80423 14:77933 15:77904 #
-9.4149453273003627e-011 1:8.4669981 2:7.8958759 3:8.8358936 4:239 5:239 6:239 7:10 8:10 9:10 10:3.7899952 11:3.7781467 12:3.9795041 13:91106 14:90469 15:89962 #
9.4149453273003627e-011 1:5.092958 2:5.2340326 3:3.1910784 4:459 5:459 6:459 7:4 8:5 9:3 10:12.534672 11:9.7720718 12:6.6582975 13:39008 14:35546 15:30987 #
-9.4149453273003627e-011 1:9.9454422 2:10.688368 3:11.847322 4:242 5:242 6:242 7:13 8:15 9:15 10:5.708847 11:4.3031754 12:2.9267399 13:36466 14:32915 15:28634 #
9.4149453273003627e-011 1:7.6550951 2:6.4528375 3:5.4398427 4:507 5:507 6:507 7:8 8:8 9:8 10:6.41574 11:6.7538352 12:5.8560867 13:79522 14:78215 15:78041 #
-9.4149453273003627e-011 1:0.906905 2:0.35316265 3:0.28935748 4:21 5:21 6:21 7:3 8:3 9:3 10:4.9476752 11:4.8977742 12:4.5476775 13:91010 14:90059 15:90424 #
9.4149453273003627e-011 1:7.6543264 2:7.3091526 3:7.3419747 4:252 5:252 6:252 7:5 8:5 9:5 10:14.689529 11:14.354403 12:14.298075 13:35963 14:34885 15:35093 #
-9.4149453273003627e-011 1:17.623442 2:17.088768 3:16.106522 4:243 5:243 6:243 7:20 8:20 9:18 10:7.0452871 11:7.5117402 12:5.914732 13:35896 14:32978 15:29068 #
9.4149453273003627e-011 1:8.5663099 2:11.48837 3:31.498857 4:31 5:31 6:31 7:11 8:14 9:31 10:3.4239557 11:4.9697852 12:0.56247228 13:84446 14:77945 15:70665 #
-9.4149453273003627e-011 1:17.630606 2:6.9551301 3:5.7025876 4:10 5:10 6:10 7:25 8:8 9:7 10:0.66353714 11:0.096586183 12:0.062343571 13:105840 14:80584 15:79976 #
-9.4149453273003627e-011 1:26.013674 2:25.634848 3:24.930426 4:291 5:291 6:291 7:29 8:29 9:28 10:13.895279 11:13.683476 12:13.475598 13:33340 14:32419 15:32504 #
9.4149453273003627e-011 1:36.223793 2:5.6484699 3:7.2034125 4:260 5:260 6:260 7:40 8:6 9:7 10:18.996841 11:3.7875121 12:3.2167556 13:90517 14:72178 15:70926 #
-9.4149453273003627e-011 1:9.837842 2:10.236367 3:10.864522 4:472 5:472 6:472 7:10 8:12 9:12 10:10.256433 11:8.2301483 12:5.800735 13:36424 14:32853 15:28928 #
9.4149453273003627e-011 1:25.809814 2:25.329725 3:24.689745 4:143 5:143 6:143 7:11 8:11 9:9 10:19.547628 11:22.879 12:23.154566 13:77978 14:76713 15:77246 #
-9.4149453273003627e-011 1:7.2781978 2:6.2714758 3:6.0462933 4:11 5:11 6:11 7:8 8:7 9:7 10:3.2051568 11:3.2780838 12:3.4608676 13:91036 14:90259 15:90061 #
9.4149453273003627e-011 1:17.643759 2:10.350833 3:4.5513215 4:215 5:215 6:215 7:15 8:9 9:4 10:10.565211 11:12.478481 12:8.3787384 13:41018 14:35814 15:28646 #
9.4149453273003627e-011 1:26.155062 2:52.383633 3:71.108543 4:18 5:18 6:18 7:25 8:64 9:88 10:2.5346611 11:0.1992301 12:2.7898407 13:76225 14:76071 15:77690 #
-9.4149453273003627e-011 1:9.5974951 2:7.0460372 3:6.6438427 4:252 5:252 6:252 7:7 8:4 9:5 10:4.801321 11:5.4474158 12:5.5050311 13:91130 14:89964 15:90135 #
9.4149453273003627e-011 1:4.6175265 2:4.4011526 3:4.2135749 4:258 5:258 6:258 7:1 8:1 9:1 10:13.465403 11:13.178038 12:13.088443 13:36196 14:35461 15:35276 #
-9.4149453273003627e-011 1:12.016242 2:11.435568 3:12.450122 4:236 5:236 6:236 7:13 8:13 9:13 10:9.0261536 11:8.098444 12:6.9236655 13:36530 14:32833 15:28747 #
-9.4149453273003627e-011 1:14.449842 2:12.708768 3:11.514921 4:239 5:239 6:239 7:16 8:16 9:14 10:9.8565378 11:8.170269 12:5.7179074 13:36202 14:32721 15:29207 #
9.4149453273003627e-011 1:16.03351 2:14.816771 3:27.296457 4:142 5:142 6:142 7:14 8:14 9:27 10:16.256031 11:13.22439 12:3.5802107 13:86341 14:78949 15:66887 #
-9.4149453273003627e-011 1:0.94831002 2:2.1300297 3:1.3036578 4:2 5:2 6:2 7:2 8:5 9:1 10:1.6937476 11:2.3475566 12:1.2993385 13:98068 14:90354 15:77215 #
9.4149453273003627e-011 1:3.3827264 2:3.2867525 3:3.0927749 4:5 5:5 6:5 7:1 8:1 9:1 10:11.426996 11:11.004905 12:10.585067 13:36439 14:35721 15:35982 #
-9.4149453273003627e-011 1:27.436874 2:26.500847 3:26.920425 4:213 5:213 6:213 7:31 8:30 9:30 10:12.984884 11:12.985585 12:12.836812 13:33576 14:32426 15:32237 #
9.4149453273003627e-011 1:14.86031 2:5.7423701 3:4.5716577 4:360 5:360 6:360 7:12 8:5 9:6 10:15.434096 11:12.259541 12:0.30166036 13:87885 14:78254 15:63870 #
-9.4149453273003627e-011 1:5.53649 2:2.3776298 3:6.1112576 4:0 5:0 6:0 7:10 8:7 9:5 10:0.89021349 11:0.93921727 12:1.3176522 13:97382 14:90222 15:78217 #
9.4149453273003627e-011 1:2.3003263 2:2.2623525 3:2.393975 4:259 5:259 6:259 7:0 8:0 9:0 10:13.270908 11:12.755169 12:12.590661 13:36642 14:35675 15:35520 #
9.4149453273003627e-011 1:21.66831 2:5.5239701 3:9.8447418 4:47 5:47 6:47 7:19 8:5 9:17 10:16.231676 11:11.053905 12:9.3494158 13:88744 14:78187 15:62101 #
-9.4149453273003627e-011 1:23.971842 2:21.945967 3:17.829721 4:487 5:487 6:487 7:25 8:23 9:18 10:12.221256 11:11.108689 12:8.3253279 13:35963 14:32900 15:29463 #
9.4149453273003627e-011 1:24.108662 2:43.942032 3:57.09454 4:15 5:15 6:15 7:23 8:55 9:75 10:3.6038251 11:4.2228127 12:3.3333571 13:77008 14:75112 15:75750 #
-9.4149453273003627e-011 1:1.9214622 2:25.718431 3:34.275341 4:7 5:7 6:7 7:4 8:38 9:51 10:4.4606009 11:1.1284089 12:3.9039476 13:91247 14:89840 15:90122 #
9.4149453273003627e-011 1:44.122677 2:58.969398 3:68.580284 4:377 5:377 6:377 7:46 8:66 9:79 10:9.5966806 11:15.137732 12:23.761189 13:42662 14:34657 15:28801 #
-9.4149453273003627e-011 1:19.590643 2:19.116768 3:18.222122 4:244 5:244 6:244 7:21 8:22 9:20 10:8.179656 11:6.7188063 12:5.5321465 13:36313 14:32915 15:29104 #
9.4149453273003627e-011 1:11.865118 2:9.6730881 3:8.3316221 4:10 5:10 6:10 7:2 8:7 9:28 10:18.537281 11:20.121157 12:25.324131 13:73363 14:75156 15:74306 #
-9.4149453273003627e-011 1:6.7133975 2:5.9182758 3:5.7942934 4:242 5:242 6:242 7:9 8:8 9:8 10:3.0098209 11:3.057059 12:3.1668632 13:90998 14:90118 15:89969 #
9.4149453273003627e-011 1:0.22079162 2:0.4028956 3:0.41214576 4:2 5:2 6:2 7:0 8:1 9:1 10:4.0209808 11:4.1776128 12:4.2595849 13:36956 14:35797 15:35116 #
-9.4149453273003627e-011 1:15.945842 2:14.523168 3:11.375321 4:10 5:10 6:10 7:19 8:17 9:13 10:7.5626249 11:7.4673133 12:6.9938865 13:36013 14:32879 15:29352 #
9.4149453273003627e-011 1:14.179394 2:1.5104699 3:2.4050124 4:255 5:255 6:255 7:16 8:2 9:2 10:1.2170886 11:3.7003095 12:2.0795333 13:90736 14:70013 15:68452 #
-9.4149453273003627e-011 1:12.523406 2:3.1519301 3:2.8137877 4:254 5:254 6:254 7:10 8:3 9:2 10:23.313551 11:4.560339 12:4.1486831 13:100797 14:76181 15:75184 #
9.4149453273003627e-011 1:0.58432645 2:0.25915244 3:0.02522504 4:7 5:7 6:7 7:2 8:2 9:3 10:13.700221 11:13.353159 12:13.137832 13:36617 14:35691 15:35875 #
-9.4149453273003627e-011 1:22.910074 2:22.957647 3:23.030424 4:285 5:285 6:285 7:25 8:25 9:26 10:13.301079 11:13.191106 12:13.043254 13:33507 14:32481 15:32471 #
-9.4149453273003627e-011 1:17.600243 2:15.849967 3:11.814522 4:247 5:247 6:247 7:22 8:20 9:14 10:6.8512001 11:5.7993774 12:5.716795 13:36207 14:33033 15:29162 #
9.4149453273003627e-011 1:3.7359099 2:5.8316298 3:0.94805777 4:3 5:3 6:3 7:6 8:2 9:2 10:1.617602 11:0.38364521 12:3.0578849 13:85627 14:76424 15:64578 #
-9.4149453273003627e-011 1:1.1419101 2:11.334829 3:6.1683421 4:13 5:13 6:13 7:2 8:13 9:6 10:5.0837712 11:3.7922041 12:1.8884542 13:97888 14:88704 15:73520 #
9.4149453273003627e-011 1:3.7795265 2:3.3399525 3:2.971175 4:258 5:258 6:258 7:1 8:0 9:0 10:14.457112 11:13.699233 12:13.333031 13:36712 14:35536 15:35823 #
-9.4149453273003627e-011 1:14.034642 2:14.088367 3:10.106122 4:9 5:9 6:9 7:15 8:16 9:11 10:9.4804935 11:8.6354361 12:7.8668704 13:36194 14:32720 15:29464 #
9.4149453273003627e-011 1:10.17071 2:1.1512296 3:1.5619422 4:368 5:368 6:368 7:8 8:1 9:0 10:15.846417 11:11.578122 12:4.6273451 13:87420 14:77267 15:59712 #
-9.4149453273003627e-011 1:32.646709 2:25.605171 3:0.41645774 4:4 5:4 6:4 7:31 8:26 9:1 10:14.441057 11:11.360069 12:7.4925032 13:95228 14:86748 15:65572 #
9.4149453273003627e-011 1:7.6735263 2:7.5375524 3:7.2835751 4:1 5:1 6:1 7:5 8:5 9:5 10:13.385884 11:13.117464 12:13.138032 13:36824 14:36044 15:36225 #
-9.4149453273003627e-011 1:39.846874 2:38.154846 3:38.565624 4:303 5:303 6:303 7:43 8:41 9:41 10:14.889017 11:14.765607 12:14.812634 13:33376 14:32775 15:32540 #
9.4149453273003627e-011 1:16.389111 2:5.7247705 3:4.1980577 4:156 5:156 6:156 7:14 8:6 9:5 10:16.062729 11:13.630249 12:7.2801871 13:84205 14:75541 15:60063 #
-4.4975462843803027e-011 1:7.5831099 2:8.7491703 3:2.6216578 4:367 5:367 6:367 7:6 8:10 9:1 10:9.5640945 11:6.8186126 12:0.25674349 13:97122 14:89747 15:76991 #
9.4149453273003627e-011 1:8.341526 2:8.0415525 3:7.7851748 4:255 5:255 6:255 7:5 8:5 9:5 10:14.798876 11:14.498252 12:14.321912 13:36643 14:35699 15:35632 #
-9.4149453273003627e-011 1:6.964242 2:6.8271675 3:6.1813216 4:2 5:2 6:2 7:9 8:9 9:7 10:9.9157877 11:8.8757582 12:7.5959787 13:36419 14:32836 15:29183 #
9.4149453273003627e-011 1:3.8297856 2:3.6674738 3:3.5818558 4:264 5:264 6:264 7:6 8:4 9:4 10:1.8533196 11:1.5281361 12:1.4293804 13:73925 14:73065 15:73054 #
-9.4149453273003627e-011 1:6.4774623 2:36.33123 3:49.59214 4:9 5:9 6:9 7:8 8:45 9:62 10:7.7139196 11:0.18678249 12:7.3984957 13:112488 14:112920 15:114769 #
9.4149453273003627e-011 1:39.555473 2:54.098999 3:63.428284 4:44 5:44 6:44 7:41 8:61 9:76 10:8.9933224 11:12.900998 12:19.478121 13:42618 14:35409 15:28880 #
-9.4149453273003627e-011 1:11.617043 2:10.706767 3:9.4957218 4:5 5:5 6:5 7:12 8:12 9:10 10:6.2124891 11:5.8848062 12:7.1490746 13:36227 14:33015 15:29253 #
9.4149453273003627e-011 1:1.4865855 2:0.8406738 3:0.46505585 4:261 5:261 6:261 7:1 8:0 9:0 10:0.74899924 11:0.36119089 12:0.047076583 13:73408 14:72879 15:73083 #
-9.4149453273003627e-011 1:24.430641 2:22.242767 3:19.038122 4:486 5:486 6:486 7:24 8:23 9:19 10:9.149704 11:8.8877039 12:7.8562994 13:35963 14:33026 15:29687 #
9.4149453273003627e-011 1:14.339911 2:4.8888297 3:14.527143 4:371 5:371 6:371 7:12 8:6 9:21 10:16.558632 11:10.780272 12:4.4950423 13:86300 14:74911 15:57371 #
-9.4149453273003627e-011 1:2.6693833 2:2.1432881 3:2.0136948 4:5 5:5 6:5 7:4 8:3 9:3 10:1.2236185 11:0.83200157 12:0.67649037 13:91067 14:90248 15:89825 #
9.4149453273003627e-011 1:4.9715266 2:4.9899526 3:4.6955748 4:255 5:255 6:255 7:3 8:3 9:2 10:13.48305 11:12.432398 12:12.698977 13:36683 14:35785 15:35440 #
-9.4149453273003627e-011 1:9.5666418 2:8.6615677 3:8.5713215 4:231 5:231 6:231 7:11 8:11 9:9 10:9.2526932 11:7.6800513 12:6.2264395 13:36296 14:33058 15:29255 #
9.4149453273003627e-011 1:43.602303 2:37.39431 3:36.421299 4:282 5:282 6:282 7:30 8:23 9:21 10:18.980103 11:13.584165 12:17.397362 13:72217 14:71536 15:71287 #
-9.4149453273003627e-011 1:32.208309 2:34.243172 3:17.946457 4:349 5:349 6:349 7:30 8:34 9:18 10:13.404464 11:10.859104 12:2.7824502 13:96176 14:89873 15:74473 #
9.4149453273003627e-011 1:5.8727264 2:5.5015526 3:5.504375 4:255 5:255 6:255 7:3 8:3 9:3 10:13.556356 11:12.983373 12:13.119246 13:36819 14:35770 15:35686 #
9.4149453273003627e-011 1:5.6515102 2:2.5824296 3:12.038342 4:370 5:370 6:370 7:4 8:3 9:12 10:14.337026 11:11.378605 12:5.624157 13:83889 14:75667 15:57611 #
-9.4149453273003627e-011 1:19.589043 2:19.226767 3:15.942922 4:245 5:245 6:245 7:22 8:22 9:17 10:10.34042 11:9.7297592 12:7.606216 13:36169 14:32923 15:29498 #
9.4149453273003627e-011 1:10.157815 2:9.1789265 3:8.8169441 4:245 5:245 6:245 7:8 8:8 9:7 10:4.1814208 11:4.279851 12:4.324687 13:71755 14:71202 15:71391 #
-9.4149453273003627e-011 1:20.169462 2:46.587231 3:64.206139 4:14 5:14 6:14 7:20 8:54 9:77 10:3.0042374 11:1.5348053 12:5.795125 13:78198 14:77566 15:80055 #
9.4149453273003627e-011 1:41.579876 2:57.4674 3:67.355087 4:384 5:384 6:384 7:44 8:64 9:78 10:11.297152 11:16.464905 12:24.156565 13:41998 14:35382 15:28804 #
-9.4149453273003627e-011 1:15.717443 2:16.225967 3:14.740122 4:249 5:249 6:249 7:17 8:18 9:16 10:7.1094694 11:6.3294516 12:5.6141524 13:36443 14:32781 15:29509 #
9.4149453273003627e-011 1:95.726616 2:102.49293 3:101.55695 4:143 5:143 6:143 7:102 8:111 9:109 10:1.2040703 11:0.38152215 12:0.40621156 13:71545 14:70401 15:71705 #
-9.4149453273003627e-011 1:10.664594 2:8.5236702 3:6.1862125 4:260 5:260 6:260 7:12 8:8 9:6 10:25.793276 11:8.9443598 12:7.7676353 13:71460 14:49169 15:48847 #
9.4149453273003627e-011 1:11.313918 2:18.543888 3:26.244778 4:2 5:2 6:2 7:3 8:11 9:19 10:14.206124 11:12.762279 12:10.430448 13:68576 14:70703 15:71656 #
-9.4149453273003627e-011 1:10.511705 2:7.7799625 3:5.8121576 4:3 5:3 6:3 7:12 8:10 9:7 10:2.5484121 11:2.7191496 12:2.1773329 13:90212 14:90090 15:90377 #
9.4149453273003627e-011 1:41.282276 2:59.316196 3:69.673088 4:380 5:380 6:380 7:43 8:66 9:80 10:10.966268 11:16.01149 12:24.984207 13:42949 14:35594 15:28124 #
-9.4149453273003627e-011 1:18.183674 2:17.930447 3:17.858826 4:281 5:281 6:281 7:21 8:21 9:21 10:14.002582 11:13.880282 12:13.770012 13:33532 14:32633 15:32569 #
-9.4149453273003627e-011 1:9.9086418 2:11.503568 3:10.984522 4:471 5:471 6:471 7:10 8:14 9:13 10:6.9149585 11:6.5922022 12:5.2651567 13:36559 14:33141 15:29232 #
9.4149453273003627e-011 1:64.746216 2:68.920929 3:69.014542 4:143 5:143 6:143 7:102 8:111 9:109 10:27.497522 11:31.087912 12:30.744436 13:71038 14:70004 15:71143 #
-9.4149453273003627e-011 1:2.6721051 2:2.3903627 3:2.5701575 4:286 5:286 6:286 7:6 8:6 9:5 10:2.2967055 11:1.0984427 12:0.850169 13:90360 14:90313 15:90002 #
9.4149453273003627e-011 1:42.843075 2:57.5718 3:65.966682 4:47 5:47 6:47 7:44 8:64 9:76 10:11.101008 11:16.562178 12:24.58531 13:42190 14:34579 15:29563 #
-9.4149453273003627e-011 1:27.191042 2:25.581167 3:21.389721 4:15 5:15 6:15 7:28 8:27 9:21 10:11.937748 11:11.506325 12:10.040365 13:36123 14:33182 15:29405 #
9.4149453273003627e-011 1:17.099911 2:2.8211703 3:5.1627421 4:367 5:367 6:367 7:15 8:2 9:16 10:15.314309 11:8.2435579 12:9.6002951 13:84745 14:74924 15:56356 #
-9.4149453273003627e-011 1:8.4606419 2:7.0675673 3:7.6449218 4:476 5:476 6:476 7:10 8:9 9:9 10:11.829613 11:10.427278 12:7.9031386 13:36801 14:33493 15:29148 #
9.4149453273003627e-011 1:27.736662 2:52.45163 3:70.492943 4:611 5:611 6:611 7:28 8:68 9:92 10:0.26712054 11:3.3935986 12:6.0976057 13:69782 14:68946 15:70505 #
-9.4149453273003627e-011 1:12.543802 2:12.454925 3:12.787307 4:8 5:8 6:8 7:12 8:13 9:13 10:5.1600113 11:4.9596639 12:5.2437682 13:91010 14:90025 15:89919 #
9.4149453273003627e-011 1:2.5771265 2:2.6811523 3:2.1231749 4:260 5:260 6:260 7:1 8:0 9:1 10:13.516449 11:13.025649 12:12.618221 13:37030 14:35625 15:35842 #
9.4149453273003627e-011 1:38.122303 2:29.755911 3:34.984898 4:29 5:29 6:29 7:29 8:21 9:27 10:9.7144756 11:4.2763839 12:3.1156261 13:71212 14:69683 15:69850 #
-9.4149453273003627e-011 1:24.045111 2:0.66722965 3:27.248343 4:47 5:47 6:47 7:21 8:1 9:27 10:15.866414 11:13.082073 12:9.1868114 13:88124 14:76693 15:51845 #
9.4149453273003627e-011 1:11.163282 2:13.763087 3:17.489979 4:15 5:15 6:15 7:12 8:13 9:17 10:4.7341671 11:6.5957646 12:8.5867662 13:46416 14:52305 15:53114 #
-9.4149453273003627e-011 1:17.857273 2:17.568048 3:17.348024 4:27 5:27 6:27 7:20 8:20 9:20 10:13.669224 11:13.426126 12:13.119493 13:33586 14:32544 15:32851 #
9.4149453273003627e-011 1:10.38711 2:3.3848298 3:16.612343 4:47 5:47 6:47 7:8 8:3 9:17 10:14.545772 11:10.726108 12:3.4944048 13:84587 14:74938 15:54714 #
-9.4149453273003627e-011 1:4.3025856 2:4.8998737 3:4.4802561 4:8 5:8 6:8 7:6 8:5 9:5 10:2.4537199 11:3.4739037 12:4.004693 13:63156 14:62240 15:62413 #
9.4149453273003627e-011 1:3.5257854 2:1.8458738 3:1.9590559 4:508 5:508 6:508 7:4 8:1 9:2 10:6.7075081 11:6.2719378 12:5.5527277 13:54524 14:53875 15:54093 #
-7.9040175447540251e-011 1:28.92271 2:30.38957 3:12.982058 4:347 5:347 6:347 7:28 8:32 9:15 10:12.551266 11:10.314288 12:4.2832274 13:95873 14:89154 15:73446 #
9.4149453273003627e-011 1:6.6459265 2:6.2915525 3:6.0919747 4:256 5:256 6:256 7:4 8:4 9:4 10:14.582181 11:13.990127 12:13.500682 13:36720 14:35875 15:36051 #
-9.4149453273003627e-011 1:25.711842 2:24.375168 3:18.354122 4:492 5:492 6:492 7:28 8:27 9:19 10:10.652556 11:9.9703674 12:8.0005531 13:36043 14:32800 15:29956 #
9.4149453273003627e-011 1:5.0559101 2:0.41882965 3:5.1723423 4:368 5:368 6:368 7:4 8:1 9:5 10:14.221477 11:11.481764 12:5.9224267 13:82500 14:74032 15:58248 #
-9.4149453273003627e-011 1:13.79231 2:8.9340296 3:30.337542 4:47 5:47 6:47 7:12 8:9 9:30 10:14.915402 11:12.240239 12:9.7923031 13:85130 14:73893 15:49202 #
9.4149453273003627e-011 1:20.175501 2:17.42671 3:25.934498 4:22 5:22 6:22 7:19 8:16 9:24 10:3.5214243 11:2.9743049 12:5.3412709 13:68840 14:68147 15:69669 #
-9.4149453273003627e-011 1:18.766481 2:13.375487 3:13.498778 4:271 5:271 6:271 7:19 8:13 9:13 10:5.67489 11:7.4829903 12:9.0382757 13:41917 14:49464 15:49907 #
9.4149453273003627e-011 1:16.32391 2:5.2796297 3:28.742743 4:47 5:47 6:47 7:14 8:6 9:28 10:16.125385 11:14.292731 12:9.8884182 13:83048 14:71690 15:48136 #
-9.4149453273003627e-011 1:14.306598 2:14.029876 3:14.497893 4:26 5:26 6:26 7:15 8:14 9:15 10:2.7783861 11:3.2501819 12:3.3272512 13:90893 14:90169 15:89670 #
9.4149453273003627e-011 1:7.5111265 2:7.5691524 3:7.3415751 4:254 5:254 6:254 7:5 8:5 9:5 10:15.075356 11:14.684975 12:14.553529 13:36721 14:35988 15:36004 #
-9.4149453273003627e-011 1:14.942642 2:13.456767 3:8.6289215 4:234 5:234 6:234 7:15 8:13 9:8 10:9.5007782 11:8.510622 12:7.663496 13:36402 14:32916 15:29464 #
-9.4149453273003627e-011 1:11.947442 2:9.0931673 3:4.6641216 4:234 5:234 6:234 7:13 8:11 9:5 10:12.017781 11:10.916004 12:8.9551096 13:36213 14:32877 15:29633 #
9.4149453273003627e-011 1:42.335903 2:30.50631 3:25.972097 4:39 5:39 6:39 7:40 8:28 9:20 10:5.9548416 11:0.42827791 12:1.7827308 13:71445 14:69383 15:69794 #
-9.4149453273003627e-011 1:5.2214622 2:31.285231 3:52.99614 4:5 5:5 6:5 7:5 8:42 9:72 10:2.8920081 11:1.2543895 12:2.5619502 13:58185 14:57407 15:61395 #
9.4149453273003627e-011 1:2.9931264 2:3.1743524 3:2.2811749 4:2 5:2 6:2 7:0 8:0 9:1 10:11.422113 11:10.957943 12:10.466457 13:36931 14:36033 15:35960 #
-9.4149453273003627e-011 1:6.719842 2:7.6591673 3:6.7749214 4:3 5:3 6:3 7:9 8:10 9:8 10:9.5149565 11:8.1311617 12:7.2758203 13:36284 14:33102 15:29475 #
9.4149453273003627e-011 1:1.7754145 2:1.2177262 3:0.41574413 4:246 5:246 6:246 7:2 8:2 9:0 10:1.5715212 11:1.8511637 12:1.8822707 13:70576 14:70174 15:69752 #
-9.4149453273003627e-011 1:17.580643 2:16.166367 3:10.615722 4:481 5:481 6:481 7:19 8:17 9:11 10:11.086337 11:10.552366 12:8.3435602 13:36093 14:32984 15:29971 #
9.4149453273003627e-011 1:8.4087105 2:3.9164298 3:14.273542 4:372 5:372 6:372 7:5 8:5 9:14 10:16.464808 11:13.759156 12:8.4475479 13:81828 14:72641 15:57268 #
-4.9926249736200628e-011 1:11.565895 2:9.429637 3:7.8730426 4:498 5:498 6:498 7:11 8:9 9:8 10:1.7427126 11:1.2697837 12:1.4611193 13:90991 14:89717 15:89348 #
9.4149453273003627e-011 1:8.5554419 2:7.0475674 3:5.6409216 4:475 5:475 6:475 7:10 8:9 9:6 10:7.7934985 11:5.3493476 12:2.3313868 13:38753 14:35893 15:32465 #
-9.4149453273003627e-011 1:10.769443 2:10.868367 3:11.546922 4:476 5:476 6:476 7:13 8:14 9:14 10:8.1008987 11:5.783493 12:4.1456866 13:36666 14:33534 15:29207 #
9.4149453273003627e-011 1:32.781673 2:32.492847 3:29.445225 4:255 5:255 6:255 7:10 8:8 9:7 10:31.275814 11:32.459518 12:29.890182 13:69812 14:69288 15:69850 #
-9.4149453273003627e-011 1:7.4546022 2:7.3753242 3:6.6893067 4:255 5:255 6:255 7:7 8:8 9:7 10:3.8472075 11:3.5501695 12:3.7466874 13:90743 14:90015 15:89333 #
9.4149453273003627e-011 1:7.5099263 2:7.3291526 3:7.193975 4:258 5:258 6:258 7:4 8:4 9:4 10:12.80892 11:12.405658 12:12.234409 13:36933 14:35970 15:35920 #
-9.4149453273003627e-011 1:13.834642 2:14.899568 3:13.854522 4:16 5:16 6:16 7:15 8:17 9:16 10:7.4038372 11:6.420126 12:4.6982617 13:36740 14:33104 15:29066 #
9.4149453273003627e-011 1:1.3585855 2:1.5546738 3:1.7450559 4:495 5:495 6:495 7:0 8:1 9:0 10:1.1612327 11:0.67026347 12:0.556499 13:70430 14:69841 15:69758 #
-9.4149453273003627e-011 1:2.809895 2:1.2760373 3:0.46264252 4:268 5:268 6:268 7:1 8:0 9:0 10:0.63830388 11:1.0839374 12:0.80411422 13:90973 14:89667 15:89427 #
9.4149453273003627e-011 1:6.6311264 2:6.5279527 3:6.3303752 4:257 5:257 6:257 7:3 8:4 9:4 10:13.864935 11:13.491523 12:13.372601 13:36989 14:35998 15:35949 #
-9.4149453273003627e-011 1:16.723042 2:14.915567 3:12.375722 4:478 5:478 6:478 7:17 8:15 9:12 10:8.8017721 11:6.6632752 12:4.6675444 13:36314 14:33160 15:29628 #
9.4149453273003627e-011 1:12.691014 2:13.467326 3:13.790545 4:143 5:143 6:143 7:4 8:7 9:7 10:11.623031 11:13.61612 12:13.637065 13:70114 14:69218 15:69736 #
-9.4149453273003627e-011 1:8.7646418 2:8.2103672 3:7.1557217 4:473 5:473 6:473 7:10 8:10 9:8 10:9.7511892 11:8.0580111 12:5.843379 13:36635 14:33075 15:29454 #
9.4149453273003627e-011 1:35.657501 2:29.94631 3:32.964497 4:278 5:278 6:278 7:23 8:18 9:21 10:16.915161 11:11.182143 12:12.132695 13:69894 14:69160 15:68764 #
-9.4149453273003627e-011 1:1.7165049 2:1.2163626 3:1.0878425 4:285 5:285 6:285 7:4 8:4 9:1 10:6.1686454 11:5.637938 12:5.5109768 13:90397 14:89800 15:89885 #
9.4149453273003627e-011 1:33.531475 2:48.787399 3:60.824684 4:43 5:43 6:43 7:36 8:55 9:72 10:12.38626 11:17.092558 12:23.677011 13:42645 14:34894 15:29062 #
9.4149453273003627e-011 1:11.139274 2:10.172848 3:9.1444254 4:268 5:268 6:268 7:6 8:5 9:5 10:12.157622 11:12.253572 12:11.341588 13:69219 14:68477 15:68408 #
-9.4149453273003627e-011 1:3.9409976 2:3.3854759 3:3.0958934 4:2 5:2 6:2 7:1 8:0 9:0 10:1.2716981 11:2.004812 12:2.3690581 13:78144 14:77347 15:77088 #
9.4149453273003627e-011 1:13.740958 2:10.054032 3:0.17987844 4:452 5:452 6:452 7:12 8:8 9:1 10:12.549469 11:11.502428 12:8.2856922 13:40399 14:36106 15:29934 #
-9.4149453273003627e-011 1:15.062642 2:13.574767 3:10.567322 4:247 5:247 6:247 7:20 8:19 9:15 10:4.2218127 11:3.0753481 12:2.250123 13:36077 14:33102 15:29809 #
9.4149453273003627e-011 1:6.6219101 2:2.3643703 3:2.7652578 4:158 5:158 6:158 7:5 8:3 9:2 10:14.086605 11:11.890409 12:2.1551991 13:80222 14:71647 15:56823 #
-9.4149453273003627e-011 1:16.384243 2:16.063967 3:14.685322 4:231 5:231 6:231 7:17 8:18 9:15 10:7.106637 11:6.336555 12:5.168612 13:36778 14:33385 15:29165 #
9.4149453273003627e-011 1:23.052074 2:22.424448 3:20.867226 4:233 5:233 6:233 7:14 8:13 9:13 10:17.271843 11:18.278131 12:16.240402 13:69060 14:68295 15:68320 #
-8.3552386478081345e-011 1:9.0885973 2:8.384676 3:9.4670935 4:490 5:490 6:490 7:11 8:10 9:11 10:2.9107985 11:2.703784 12:2.8665309 13:90580 14:89764 15:89284 #
9.4149453273003627e-011 1:12.821527 2:12.935952 3:12.870375 4:257 5:257 6:257 7:10 8:10 9:10 10:16.519241 11:16.4841 12:16.426243 13:36900 14:36196 15:35960 #
-9.4149453273003627e-011 1:12.097042 2:11.131167 3:10.490122 4:473 5:473 6:473 7:14 8:13 9:13 10:8.8130131 11:7.2585039 12:3.5508869 13:36756 14:33234 15:29461 #
9.4149453273003627e-011 1:25.537502 2:12.95671 3:3.2087026 4:263 5:263 6:263 7:20 8:8 9:7 10:7.02843 11:0.53379279 12:0.88462818 13:70165 14:68096 15:66976 #
-9.4149453273003627e-011 1:15.95711 2:5.6855702 3:3.6707423 4:5 5:5 6:5 7:16 8:6 9:4 10:1.3894595 11:1.2078884 12:1.5512636 13:96534 14:88296 15:75331 #
9.4149453273003627e-011 1:3.8619266 2:3.1483524 3:3.0699749 4:258 5:258 6:258 7:1 8:1 9:0 10:14.178557 11:13.43811 12:13.208353 13:37059 14:36007 15:36205 #
-9.4149453273003627e-011 1:22.065042 2:20.105568 3:15.691722 4:17 5:17 6:17 7:24 8:23 9:18 10:7.0509658 11:6.1942115 12:5.483201 13:36122 14:32806 15:30007 #
9.4149453273003627e-011 1:15.03551 2:7.0907702 3:4.3147421 4:47 5:47 6:47 7:12 8:7 9:4 10:15.623379 11:8.4894943 12:6.8387227 13:81036 14:70813 15:52973 #
-9.4149453273003627e-011 1:1.3482422 2:0.69236743 3:1.3689215 4:232 5:232 6:232 7:3 8:3 9:3 10:9.1391153 11:8.0043583 12:6.0915341 13:37034 14:33308 15:29227 #
9.4149453273003627e-011 1:0.4374145 2:0.81492621 3:1.3777441 4:507 5:507 6:507 7:0 8:1 9:1 10:3.5613542 11:3.3769107 12:2.6559319 13:67802 14:67618 15:67766 #
-9.4149453273003627e-011 1:20.188696 2:18.830837 3:18.625843 4:499 5:499 6:499 7:19 8:18 9:18 10:7.0932479 11:6.954915 12:7.1122804 13:90456 14:89621 15:89629 #
-9.4149453273003627e-011 1:22.871443 2:21.993967 3:19.304522 4:18 5:18 6:18 7:23 8:23 9:20 10:8.067112 11:8.1800146 12:7.1142125 13:36386 14:33160 15:29710 #
9.4149453273003627e-011 1:43.405502 2:30.585911 3:27.350498 4:37 5:37 6:37 7:43 8:30 9:26 10:0.88921803 11:4.9941583 12:7.1492105 13:68918 14:66747 15:65417 #
-9.4149453273003627e-011 1:3.5198421 2:3.6875675 3:5.1669216 4:468 5:468 6:468 7:5 8:5 9:6 10:10.960871 11:9.5406904 12:8.2419147 13:37257 14:33855 15:29318 #
9.4149453273003627e-011 1:3.9358146 2:3.4417262 3:3.9965441 4:499 5:499 6:499 7:4 8:5 9:5 10:4.2974844 11:4.1072192 12:4.0037298 13:66736 14:66478 15:66531 #
-9.4149453273003627e-011 1:18.221062 2:44.549232 3:62.994541 4:19 5:19 6:19 7:18 8:53 9:77 10:0.5279572 11:4.6931376 12:9.8731861 13:73517 14:72967 15:75570 #
9.4149453273003627e-011 1:27.845875 2:42.946598 3:54.324684 4:36 5:36 6:36 7:31 8:50 9:65 10:13.889513 11:18.575455 12:23.546577 13:42253 14:34818 15:29888 #
-9.4149453273003627e-011 1:11.219442 2:10.469567 3:10.184921 4:238 5:238 6:238 7:13 8:13 9:11 10:10.19084 11:8.617382 12:7.032135 13:37067 14:33350 15:29297 #
9.4149453273003627e-011 1:6.979918 2:2.0150878 3:17.226023 4:248 5:248 6:248 7:1 8:7 9:27 10:10.683749 11:10.529698 12:13.505561 13:67497 14:67243 15:65553 #
-9.4149453273003627e-011 1:8.5518026 2:7.848124 3:7.8421068 4:6 5:6 6:6 7:10 8:10 9:11 10:3.65221 11:3.2502139 12:3.4100106 13:90822 14:89475 15:89309 #
9.4149453273003627e-011 1:10.811127 2:10.681553 3:10.602775 4:253 5:253 6:253 7:7 8:7 9:7 10:14.925754 11:14.71913 12:14.714391 13:36946 14:36132 15:36060 #
-9.4149453273003627e-011 1:18.721842 2:18.544367 3:15.943722 4:18 5:18 6:18 7:20 8:20 9:18 10:6.6448054 11:6.5094213 12:4.5541148 13:36592 14:33157 15:29569 #
9.4149453273003627e-011 1:33.419903 2:26.31391 3:17.080097 4:261 5:261 6:261 7:14 8:6 9:14 10:25.488369 11:21.156298 12:33.407463 13:68796 14:67555 15:64504 #
-9.4149453273003627e-011 1:26.344311 2:1.6319704 3:31.500341 4:47 5:47 6:47 7:24 8:1 9:31 10:15.880033 11:13.051156 12:9.6306715 13:86103 14:74642 15:49979 #
9.4149453273003627e-011 1:7.1136818 2:17.995888 3:21.672779 4:13 5:13 6:13 7:9 8:17 9:20 10:3.240948 11:4.8609242 12:5.761878 13:48863 14:54682 15:55548 #
-9.4149453273003627e-011 1:18.574474 2:18.271648 3:17.874025 4:281 5:281 6:281 7:21 8:21 9:21 10:14.069324 11:13.801204 12:13.606897 13:33758 14:32877 15:32782 #
9.4149453273003627e-011 1:11.62871 2:1.7088296 3:7.9791422 4:366 5:366 6:366 7:9 8:3 9:9 10:16.401537 11:12.918012 12:5.2405763 13:81402 14:71509 15:51773 #
-9.4149453273003627e-011 1:16.875095 2:18.838837 3:20.167442 4:247 5:247 6:247 7:17 8:19 9:21 10:5.6173015 11:5.7762856 12:5.9925914 13:89705 14:89509 15:90079 #
9.4149453273003627e-011 1:44.228676 2:60.2878 3:69.419083 4:377 5:377 6:377 7:47 8:68 9:80 10:8.8690014 11:14.610473 12:23.706738 13:43201 14:35280 15:28410 #
-9.4149453273003627e-011 1:17.959442 2:16.780367 3:13.220121 4:10 5:10 6:10 7:18 8:17 9:13 10:8.8105049 11:8.4018269 12:7.4128623 13:36168 14:33287 15:29831 #
9.4149453273003627e-011 1:23.387501 2:18.319111 3:16.792898 4:274 5:274 6:274 7:15 8:12 9:14 10:14.714901 11:8.3152552 12:12.118805 13:67273 14:66098 15:65890 #
9.4149453273003627e-011 1:17.815102 2:13.90911 3:20.579697 4:273 5:273 6:273 7:16 8:12 9:19 10:5.7498631 11:0.25722405 12:1.974251 13:65712 14:65670 15:66544 #
-9.4149453273003627e-011 1:3.8994622 2:23.646832 3:37.81414 4:0 5:0 6:0 7:2 8:37 9:63 10:2.8038118 11:7.6145787 12:11.091451 13:74584 14:74412 15:77233 #
9.4149453273003627e-011 1:31.139074 2:46.202999 3:57.754684 4:40 5:40 6:40 7:33 8:53 9:68 10:12.931193 11:17.591831 12:23.174046 13:42241 14:34941 15:30279 #
-9.4149453273003627e-011 1:25.044243 2:22.525167 3:16.224922 4:7 5:7 6:7 7:27 8:24 9:16 10:6.9117265 11:7.0360446 12:6.709383 13:35843 14:33205 15:30158 #
9.4149453273003627e-011 1:2.7553854 2:2.0886738 3:2.0702558 4:512 5:512 6:512 7:3 8:1 9:2 10:2.2139213 11:1.7860014 12:1.2587658 13:66599 14:66078 15:66116 #
-9.4149453273003627e-011 1:20.436642 2:19.934767 3:17.202921 4:490 5:490 6:490 7:22 8:22 9:18 10:9.0651083 11:7.9034309 12:6.6173763 13:36531 14:33380 15:29671 #
-9.4149453273003627e-011 1:8.5642424 2:9.2415676 3:10.014522 4:475 5:475 6:475 7:10 8:11 9:11 10:12.676091 11:11.489085 12:8.9424829 13:36844 14:33486 15:29479 #
9.4149453273003627e-011 1:1.2970145 2:0.32667381 3:0.52065587 4:257 5:257 6:257 7:1 8:0 9:0 10:3.6107867 11:3.1874256 12:2.9291992 13:66678 14:65682 15:65908 #
-9.4149453273003627e-011 1:17.365496 2:16.684837 3:16.146242 4:244 5:244 6:244 7:18 8:18 9:18 10:6.4682202 11:6.0265226 12:5.8784962 13:90179 14:89512 15:89572 #
9.4149453273003627e-011 1:43.771873 2:57.984997 3:67.891487 4:383 5:383 6:383 7:46 8:65 9:78 10:10.764294 11:16.478615 12:24.775066 13:43057 14:35216 15:29022 #
9.4149453273003627e-011 1:31.782873 2:31.832848 3:29.720425 4:266 5:266 6:266 7:8 8:8 9:8 10:29.367464 11:30.597889 12:30.241756 13:66333 14:65640 15:66248 #
-2.0119908293730462e-011 1:6.2510624 2:36.609631 3:41.200142 4:19 5:19 6:19 7:8 8:45 9:52 10:13.856542 11:6.3852024 12:2.1841776 13:117905 14:119566 15:120093 #
9.4149453273003627e-011 1:7.1923265 2:7.0595527 3:6.6963749 4:4 5:4 6:4 7:4 8:4 9:4 10:15.008937 11:14.842533 12:14.462514 13:37136 14:36247 15:36300 #
-9.4149453273003627e-011 1:9.7728739 2:10.775647 3:10.056026 4:23 5:23 6:23 7:13 8:14 9:13 10:12.901144 11:12.827938 12:12.993814 13:33957 14:32957 15:33113 #
9.4149453273003627e-011 1:6.7223182 2:13.029488 3:16.524822 4:252 5:252 6:252 7:8 8:3 9:37 10:18.873446 11:18.962801 12:27.560682 13:66323 14:68345 15:63868 #
-9.4149453273003627e-011 1:24.704073 2:24.830448 3:23.855225 4:289 5:289 6:289 7:28 8:28 9:27 10:14.863646 11:14.554989 12:14.283069 13:34024 14:33099 15:33376 #
9.4149453273003627e-011 1:32.410301 2:22.081511 3:0.90249753 4:264 5:264 6:264 7:23 8:13 9:10 10:14.16526 11:9.1642599 12:16.650703 13:67158 14:65235 15:61654 #
-9.4149453273003627e-011 1:1.8733833 2:1.3648881 3:1.6844947 4:2 5:2 6:2 7:2 8:1 9:2 10:4.3627992 11:5.0445585 12:4.8706875 13:89953 14:89633 15:89606 #
9.4149453273003627e-011 1:41.825874 2:58.177399 3:68.632286 4:46 5:46 6:46 7:44 8:65 9:79 10:10.6996 11:16.559841 12:24.607136 13:43214 14:35582 15:29071 #
-9.4149453273003627e-011 1:17.626642 2:15.818768 3:10.057721 4:238 5:238 6:238 7:19 8:17 9:10 10:8.9710588 11:8.9121752 12:7.5939369 13:35879 14:33203 15:30246 #
-9.4149453273003627e-011 1:19.429441 2:17.270767 3:13.705722 4:248 5:248 6:248 7:24 8:23 9:17 10:5.7236366 11:4.5217242 12:3.1118968 13:36191 14:33332 15:29920 #
9.4149453273003627e-011 1:12.849415 2:11.242526 3:10.802144 4:1 5:1 6:1 7:11 8:10 9:9 10:1.9526621 11:0.21506447 12:0.77279842 13:64961 14:64382 15:64740 #
-9.4149453273003627e-011 1:23.08271 2:21.285971 3:0.032857742 4:0 5:0 6:0 7:25 8:26 9:0 10:6.3145113 11:3.9205823 12:5.8319683 13:89253 14:81833 15:64120 #
9.4149453273003627e-011 1:43.353874 2:57.9706 3:67.841484 4:381 5:381 6:381 7:45 8:65 9:79 10:9.6502609 11:15.642468 12:24.470779 13:43614 14:36010 15:28769 #
-9.4149453273003627e-011 1:13.206243 2:12.381167 3:9.0069218 4:478 5:478 6:478 7:14 8:13 9:9 10:6.112402 11:6.3149424 12:5.2997842 13:36743 14:33296 15:29646 #
9.4149453273003627e-011 1:2.666718 2:18.314287 3:21.737577 4:270 5:270 6:270 7:5 8:12 9:16 10:12.963063 11:10.18834 12:7.9268236 13:61246 14:65610 15:65400 #
-9.4149453273003627e-011 1:9.2270947 2:8.7416372 3:8.8494425 4:255 5:255 6:255 7:9 8:9 9:9 10:5.4294505 11:5.6007886 12:6.1170073 13:90401 14:89376 15:89351 #
9.4149453273003627e-011 1:29.893475 2:47.036999 3:60.142685 4:39 5:39 6:39 7:32 8:54 9:71 10:11.18984 11:15.969566 12:22.51293 13:43106 14:34929 15:29859 #
-9.4149453273003627e-011 1:19.658241 2:17.928768 3:14.929321 4:15 5:15 6:15 7:21 8:21 9:17 10:6.9669504 11:7.1150875 12:6.2600694 13:36583 14:33325 15:29544 #
9.4149453273003627e-011 1:23.746302 2:10.99351 3:6.8380976 4:23 5:23 6:23 7:19 8:7 9:7 10:7.4956059 11:2.119168 12:3.4569361 13:66079 14:63979 15:62546 #
-9.4149453273003627e-011 1:13.327043 2:10.471168 3:7.5021214 4:476 5:476 6:476 7:14 8:12 9:8 10:12.448555 11:11.106025 12:8.1308918 13:36214 14:33427 15:30051 #
9.4149453273003627e-011 1:40.828751 2:68.370369 3:68.248222 4:151 5:151 6:151 7:54 8:94 9:94 10:2.2835972 11:6.9055829 12:7.1140428 13:67409 14:62483 15:62379 #
-9.4149453273003627e-011 1:5.8066144 2:3.9177263 3:3.7729442 4:253 5:253 6:253 7:5 8:4 9:4 10:4.214499 11:3.6683338 12:3.368655 13:90063 14:89509 15:89427 #
9.4149453273003627e-011 1:1.0801579 2:1.9160326 3:0.90787846 4:226 5:226 6:226 7:1 8:1 9:1 10:10.555411 11:9.3627033 12:7.240778 13:39533 14:36179 15:31943 #
-9.4149453273003627e-011 1:10.766643 2:10.143567 3:8.2741213 4:238 5:238 6:238 7:13 8:13 9:10 10:10.161073 11:9.529644 12:7.770504 13:36683 14:33330 15:29585 #
9.4149453273003627e-011 1:23.341902 2:20.74431 3:29.144897 4:283 5:283 6:283 7:23 8:21 9:30 10:1.0562414 11:8.0474672 12:11.81452 13:62921 14:62726 15:62820 #
-9.4149453273003627e-011 1:7.5826621 2:31.29763 3:36.727741 4:3 5:3 6:3 7:6 8:38 9:48 10:3.0691986 11:1.5874674 12:8.5502777 13:97607 14:97603 15:98406 #
9.4149453273003627e-011 1:13.742158 2:6.9700327 3:7.0849214 4:221 5:221 6:221 7:12 8:5 9:9 10:11.21111 11:10.70416 12:5.1183028 13:41067 14:36535 15:30386 #
-9.4149453273003627e-011 1:14.236242 2:12.806767 3:9.9225216 4:11 5:11 6:11 7:15 8:15 9:13 10:8.7163324 11:7.0246086 12:5.4115691 13:36364 14:33414 15:29746 #
9.4149453273003627e-011 1:14.920482 2:1.0310878 3:1.3267782 4:3 5:3 6:3 7:11 8:7 9:4 10:9.6461334 11:10.562653 12:8.2925901 13:59322 14:63525 15:62868 #
-9.4149453273003627e-011 1:20.644642 2:18.876368 3:14.252122 4:242 5:242 6:242 7:22 8:20 9:14 10:9.0061569 11:8.8498678 12:6.3274632 13:36493 14:33242 15:29838 #
9.4149453273003627e-011 1:31.171501 2:21.98551 3:4.1936975 4:262 5:262 6:262 7:14 8:4 9:24 10:23.115705 11:19.108782 12:31.71446 13:64331 14:62726 15:59443 #
-9.4149453273003627e-011 1:7.310905 2:7.8975625 3:8.1525574 4:291 5:291 6:291 7:9 8:11 9:11 10:4.8954639 11:4.9522414 12:4.6277943 13:90023 14:89169 15:89448 #
9.4149453273003627e-011 1:42.848675 2:58.3778 3:67.163887 4:382 5:382 6:382 7:46 8:66 9:78 10:12.105301 11:17.424177 12:24.834415 13:43504 14:36024 15:28764 #
-9.4149453273003627e-011 1:6.5862422 2:6.0175676 3:5.8245215 4:5 5:5 6:5 7:9 8:9 9:7 10:9.0626097 11:7.9888458 12:6.9302654 13:36724 14:33496 15:29479 #
9.4149453273003627e-011 1:19.210073 2:19.359648 3:16.988825 4:263 5:263 6:263 7:5 8:5 9:4 10:19.264444 11:20.706896 12:18.427214 13:61954 14:61658 15:62339 #
-9.4149453273003627e-011 1:8.3086424 2:7.1947675 3:7.0489216 4:479 5:479 6:479 7:11 8:10 9:8 10:9.9497442 11:8.3539476 12:7.0713706 13:36832 14:33485 15:29593 #
9.4149453273003627e-011 1:22.757151 2:50.00597 3:50.769024 4:423 5:423 6:423 7:36 8:79 9:80 10:0.30704343 11:1.023291 12:1.519923 13:64689 14:60255 15:60400 #
-9.4149453273003627e-011 1:3.3585978 2:4.0206757 3:4.4666934 4:238 5:238 6:238 7:4 8:5 9:5 10:2.598489 11:2.4824803 12:2.7304149 13:90319 14:89503 15:88985 #
9.4149453273003627e-011 1:3.8237579 2:4.0088325 3:2.2118785 4:463 5:463 6:463 7:2 8:2 9:1 10:11.090632 11:9.54667 12:6.8688636 13:39862 14:36298 15:31910 #
-9.4149453273003627e-011 1:10.619843 2:10.431168 3:8.0089216 4:4 5:4 6:4 7:11 8:12 9:9 10:9.5276031 11:8.2429876 12:7.1173697 13:36471 14:33305 15:29913 #
9.4149453273003627e-011 1:16.630701 2:2.9175768 3:3.2758737 4:2 5:2 6:2 7:20 8:2 9:5 10:3.206568 11:0.084643632 12:1.2075776 13:58339 14:63153 15:61405 #
-9.4149453273003627e-011 1:15.039042 2:13.177967 3:7.4861217 4:240 5:240 6:240 7:18 8:17 9:9 10:8.6062183 11:8.1472263 12:6.6834059 13:36166 14:33494 15:30121 #
9.4149453273003627e-011 1:21.065462 2:43.84483 3:56.290539 4:19 5:19 6:19 7:20 8:53 9:71 10:0.77332526 11:0.024580149 12:0.95297843 13:61462 14:59965 15:61689 #
-9.4149453273003627e-011 1:27.648998 2:26.269075 3:26.597893 4:38 5:38 6:38 7:30 8:29 9:29 10:5.3139844 11:5.4449105 12:5.5646 13:90214 14:89567 15:89142 #
9.4149453273003627e-011 1:30.260675 2:44.472599 3:56.919086 4:390 5:390 6:390 7:33 8:51 9:68 10:10.097101 11:15.383748 12:22.693367 13:42639 14:35780 15:29820 #
-9.4149453273003627e-011 1:13.924242 2:12.198367 3:5.4037213 4:0 5:0 6:0 7:14 8:13 9:4 10:8.0814114 11:7.9390564 12:7.2814975 13:36327 14:33229 15:30109 #
9.4149453273003627e-011 1:12.863502 2:5.10671 3:6.0599027 4:12 5:12 6:12 7:9 8:2 9:9 10:8.093792 11:2.4965413 12:11.295566 13:62600 14:61391 15:58831 #
-9.4149453273003627e-011 1:5.0486422 2:5.0307674 3:5.2681217 4:470 5:470 6:470 7:6 8:6 9:6 10:11.53788 11:10.443038 12:8.8187199 13:36879 14:33516 15:29545 #
9.4149453273003627e-011 1:16.343102 2:0.50277686 3:5.8201261 4:278 5:278 6:278 7:19 8:1 9:1 10:3.9174707 11:0.41716895 12:5.3409543 13:58410 14:62483 15:59608 #
-9.4149453273003627e-011 1:11.923095 2:12.470838 3:13.322642 4:1 5:1 6:1 7:10 8:11 9:12 10:7.8582835 11:7.7947583 12:8.2136879 13:89412 14:89262 15:89776 #
9.4149453273003627e-011 1:33.235474 2:48.943798 3:60.878685 4:44 5:44 6:44 7:37 8:56 9:72 10:11.70405 11:17.103094 12:23.462788 13:42848 14:35359 15:30307 #
-9.4149453273003627e-011 1:14.742642 2:13.258767 3:11.806122 4:236 5:236 6:236 7:16 8:15 9:12 10:10.434624 11:9.3756733 12:7.7256646 13:36773 14:33371 15:29674 #
9.4149453273003627e-011 1:15.960073 2:15.824847 3:14.218425 4:16 5:16 6:16 7:9 8:8 9:8 10:12.594272 11:13.782399 12:11.825908 13:60428 14:59391 15:59869 #
-9.4149453273003627e-011 1:10.663042 2:9.9451675 3:6.6657214 4:235 5:235 6:235 7:14 8:13 9:7 10:9.246398 11:8.4951305 12:8.1260796 13:36654 14:33383 15:29774 #
9.4149453273003627e-011 1:0.12963334 2:0.67259169 3:3.3856916 4:5 5:5 6:5 7:1 8:1 9:2 10:12.366944 11:13.867932 12:13.253447 13:60457 14:59594 15:59627 #
-9.4149453273003627e-011 1:8.5253973 2:7.7906756 3:7.9570932 4:239 5:239 6:239 7:9 8:8 9:8 10:3.1673014 11:3.4337952 12:3.4563119 13:90176 14:89372 15:89074 #
9.4149453273003627e-011 1:26.313074 2:41.791798 3:53.860683 4:38 5:38 6:38 7:29 8:49 9:64 10:13.471457 11:18.637789 12:23.805086 13:42579 14:35291 15:30655 #
-9.4149453273003627e-011 1:13.099442 2:12.188767 3:11.361321 4:16 5:16 6:16 7:16 8:16 9:14 10:4.6380544 11:3.2477179 12:3.8656435 13:36758 14:33337 15:29730 #
9.4149453273003627e-011 1:0.59168196 2:15.283487 3:17.499979 4:275 5:275 6:275 7:0 8:17 9:19 10:0.038199533 11:1.505417 12:2.6233783 13:56529 14:61080 15:61187 #
-9.4149453273003627e-011 1:19.857674 2:19.162048 3:19.410025 4:226 5:226 6:226 7:23 8:22 9:22 10:12.04014 11:12.110516 12:12.023652 13:34162 14:33069 15:32812 #
9.4149453273003627e-011 1:4.0144334 2:0.92340833 3:9.5016918 4:9 5:9 6:9 7:5 8:3 9:6 10:12.242161 11:13.578571 12:14.843526 13:60352 14:59234 15:58393 #
9.4149453273003627e-011 1:30.288275 2:46.088997 3:58.469883 4:40 5:40 6:40 7:33 8:53 9:69 10:12.261958 11:17.457453 12:23.552114 13:42961 14:36063 15:30024 #
-9.4149453273003627e-011 1:27.798473 2:26.552448 3:26.997225 4:221 5:221 6:221 7:31 8:30 9:30 10:11.428827 11:11.829013 12:11.66666 13:34019 14:33305 15:32903 #
9.4149453273003627e-011 1:2.5112333 2:3.4406083 3:5.3035083 4:5 5:5 6:5 7:4 8:6 9:9 10:11.523477 11:12.886054 12:14.605073 13:59048 14:58598 15:59687 #
-9.4149453273003627e-011 1:8.8990021 2:8.4213238 3:8.8109064 4:260 5:260 6:260 7:11 8:11 9:12 10:2.3560414 11:2.2351291 12:2.7653089 13:90237 14:89275 15:89061 #
-9.4149453273003627e-011 1:7.7242422 2:7.4863672 3:7.1209216 4:0 5:0 6:0 7:7 8:8 9:6 10:7.0440779 11:5.5669861 12:4.3636508 13:36717 14:33376 15:29784 #
9.4149453273003627e-011 1:5.6932821 2:12.009088 3:15.306778 4:276 5:276 6:276 7:5 8:13 9:17 10:0.22445048 11:1.5134889 12:2.5547159 13:56335 14:60983 15:60845 #
-9.4149453273003627e-011 1:16.456873 2:16.175648 3:16.533625 4:228 5:228 6:228 7:20 8:19 9:19 10:14.041526 11:14.109632 12:14.073773 13:34117 14:33054 15:33135 #
9.4149453273003627e-011 1:4.8354621 2:6.3496308 3:9.9577408 4:5 5:5 6:5 7:5 8:8 9:14 10:5.5910077 11:8.3400688 12:9.2076893 13:62376 14:57135 15:57005 #
-9.4149453273003627e-011 1:48.234074 2:45.259647 3:46.226826 4:198 5:198 6:198 7:51 8:48 9:49 10:14.40485 11:14.08543 12:14.03102 13:33842 14:33570 15:33265 #
9.4149453273003627e-011 1:3.8387666 2:7.3141918 3:16.602491 4:1 5:1 6:1 7:3 8:5 9:14 10:11.24151 11:12.075602 12:10.416006 13:59540 14:58398 15:57771 #
-9.4149453273003627e-011 1:9.8802948 2:9.7032375 3:9.3502426 4:1 5:1 6:1 7:9 8:9 9:10 10:5.9910026 11:6.0920591 12:6.3103881 13:90094 14:89250 15:89213 #
9.4149453273003627e-011 1:17.890959 2:12.173232 3:0.96227843 4:445 5:445 6:445 7:17 8:10 9:0 10:12.590775 11:9.9612284 12:2.4129174 13:41081 14:36672 15:30927 #
-9.4149453273003627e-011 1:13.120642 2:12.369167 3:11.821321 4:16 5:16 6:16 7:17 8:17 9:16 10:4.1193895 11:3.2068584 12:2.9967601 13:36865 14:33580 15:29536 #
9.4149453273003627e-011 1:30.195673 2:30.563248 3:28.417625 4:270 5:270 6:270 7:9 8:8 9:8 10:30.794621 11:32.165936 12:30.098999 13:59311 14:58408 15:59083 #
-9.4149453273003627e-011 1:17.721441 2:15.978767 3:10.057322 4:490 5:490 6:490 7:18 8:17 9:11 10:8.2531891 11:7.3390532 12:5.4792242 13:36074 14:33118 15:30869 #
9.4149453273003627e-011 1:13.204833 2:14.849408 3:17.147108 4:19 5:19 6:19 7:14 8:17 9:22 10:12.807883 11:14.625011 12:16.369593 13:58751 14:58522 15:59315 #
-9.4149453273003627e-011 1:4.3717051 2:2.8243628 3:2.4225576 4:23 5:23 6:23 7:7 8:6 9:5 10:2.2926428 11:2.0342708 12:2.0025458 13:89843 14:89217 15:89422 #
9.4149453273003627e-011 1:14.700158 2:10.761633 3:2.2233214 4:217 5:217 6:217 7:13 8:9 9:2 10:11.725036 11:10.640212 12:7.5745802 13:41562 14:37092 15:30228 #
-9.4149453273003627e-011 1:22.102642 2:20.474367 3:13.298121 4:243 5:243 6:243 7:23 8:21 9:14 10:10.793257 11:10.267554 12:7.3553519 13:36179 14:33350 15:30357 #
9.4149453273003627e-011 1:7.5955181 2:1.3858877 3:5.0048218 4:258 5:258 6:258 7:5 8:0 9:3 10:2.9229825 11:2.0765431 12:3.5103612 13:59785 14:58529 15:58123 #
-9.4149453273003627e-011 1:12.452242 2:10.238367 3:8.1957216 4:481 5:481 6:481 7:14 8:13 9:10 10:9.0802679 11:7.0223155 12:6.0914712 13:36675 14:33676 15:29754 #
9.4149453273003627e-011 1:90.240211 2:95.821724 3:95.528145 4:143 5:143 6:143 7:103 8:111 9:110 10:11.450193 11:14.84288 12:14.93832 13:59142 14:58314 15:58603 #
-9.4149453273003627e-011 1:13.796203 2:14.070924 3:14.802907 4:11 5:11 6:11 7:16 8:17 9:18 10:2.8340394 11:3.22281 12:3.0802245 13:125165 14:124391 15:124239 #
9.4149453273003627e-011 1:42.823074 2:59.136597 3:69.299484 4:381 5:381 6:381 7:45 8:67 9:80 10:11.501866 11:17.385788 12:25.463154 13:43130 14:36019 15:30078 #
-9.4149453273003627e-011 1:16.198242 2:15.547968 3:12.942521 4:11 5:11 6:11 7:17 8:17 9:14 10:10.709332 11:10.14103 12:8.3071957 13:36731 14:33595 15:29648 #
9.4149453273003627e-011 1:18.352701 2:4.0887771 3:5.7558737 4:2 5:2 6:2 7:21 8:3 9:6 10:4.4793243 11:1.6414725 12:5.1233687 13:55487 14:60596 15:59739 #
-9.4149453273003627e-011 1:16.212198 2:14.525476 3:15.052294 4:477 5:477 6:477 7:17 8:15 9:16 10:0.77537882 11:1.053261 12:1.0111017 13:90023 14:89428 15:88879 #
9.4149453273003627e-011 1:7.6710353 2:40.553379 3:53.85677 4:0 5:0 6:0 7:4 8:45 9:61 10:14.868659 11:8.9103088 12:12.70118 13:46391 14:34542 15:31144 #
9.4149453273003627e-011 1:4.790082 2:1.6417123 3:25.864822 4:252 5:252 6:252 7:10 8:7 9:33 10:6.361702 11:6.2933054 12:9.0665941 13:58422 14:59801 15:56602 #
-9.4149453273003627e-011 1:5.3794422 2:9.3519678 3:15.314522 4:464 5:464 6:464 7:6 8:11 9:16 10:9.0456638 11:5.1255145 12:0.83173573 13:38235 14:34118 15:29353 #
9.4149453273003627e-011 1:5.1080818 2:13.838688 3:16.650778 4:271 5:271 6:271 7:6 8:14 9:17 10:0.059658166 11:2.2428439 12:3.9853358 13:54635 14:59058 15:58731 #
-9.4149453273003627e-011 1:26.685442 2:23.090368 3:18.003321 4:252 5:252 6:252 7:29 8:25 9:20 10:7.9627557 11:7.9357214 12:6.437561 13:36357 14:33422 15:30175 #
9.4149453273003627e-011 1:28.973902 2:18.60351 3:21.766098 4:33 5:33 6:33 7:29 8:20 9:24 10:5.9596562 11:13.347683 12:14.320646 13:58642 14:57369 15:56491 #
-9.4149453273003627e-011 1:30.474091 2:40.276031 3:9.9567423 4:5 5:5 6:5 7:33 8:42 9:10 10:8.7965775 11:9.0910368 12:4.8316875 13:83349 14:75128 15:66125 #
9.4149453273003627e-011 1:43.619877 2:58.058998 3:67.331886 4:384 5:384 6:384 7:45 8:65 9:77 10:9.8811226 11:15.347709 12:23.610296 13:43279 14:36130 15:30178 #
-9.4149453273003627e-011 1:21.422642 2:20.021967 3:12.577322 4:8 5:8 6:8 7:23 8:22 9:14 10:9.0918283 11:8.4695511 12:7.3624597 13:36339 14:33266 15:30343 #
-9.4149453273003627e-011 1:13.818242 2:12.717567 3:10.542122 4:7 5:7 6:7 7:15 8:15 9:12 10:5.483726 11:5.2958336 12:4.7193031 13:36612 14:33392 15:30011 #
9.4149453273003627e-011 1:3.3439667 2:7.5653915 3:19.024492 4:4 5:4 6:4 7:1 8:5 9:15 10:10.314883 11:11.317866 12:11.295963 13:58703 14:57454 15:56245 #
-9.4149453273003627e-011 1:29.710474 2:29.856047 3:29.832026 4:295 5:295 6:295 7:34 8:34 9:34 10:13.09694 11:12.557235 12:12.708067 13:34103 14:33322 15:33020 #
9.4149453273003627e-011 1:5.0408821 2:1.1049123 3:28.536423 4:250 5:250 6:250 7:10 8:7 9:36 10:7.4088349 11:7.2405486 12:10.057618 13:57606 14:59363 15:55568 #
-9.4149453273003627e-011 1:6.5253978 2:7.7242761 3:7.6434932 4:1 5:1 6:1 7:3 8:4 9:4 10:5.852098 11:6.0738668 12:6.0610948 13:125404 14:124151 15:123847 #
9.4149453273003627e-011 1:29.558676 2:44.987797 3:56.879086 4:37 5:37 6:37 7:32 8:52 9:68 10:11.54953 11:17.082956 12:23.335644 13:42933 14:35547 15:31429 #
-9.4149453273003627e-011 1:13.879442 2:12.743168 3:11.966122 4:483 5:483 6:483 7:17 8:16 9:14 10:8.4925699 11:7.8594131 12:6.7169204 13:37193 14:33574 15:29441 #
9.4149453273003627e-011 1:6.6008821 2:7.727088 3:6.681622 4:12 5:12 6:12 7:9 8:7 9:3 10:3.1444967 11:3.7730758 12:14.0469 13:55784 14:59714 15:57011 #
-9.4149453273003627e-011 1:11.923386 2:12.545474 3:13.197455 4:268 5:268 6:268 7:14 8:13 9:13 10:7.6030102 11:8.344861 12:8.7398796 13:46282 14:45251 15:45415 #
9.4149453273003627e-011 1:102.82101 2:109.86613 3:109.43894 4:143 5:143 6:143 7:103 8:111 9:110 10:14.258038 11:13.599923 12:13.461198 13:50677 14:51259 15:51326 #
-9.4149453273003627e-011 1:17.260242 2:16.487167 3:13.696121 4:15 5:15 6:15 7:21 8:20 9:17 10:5.8398623 11:4.7119122 12:3.2983894 13:36733 14:33715 15:29796 #
9.4149453273003627e-011 1:9.7416735 2:9.7860479 3:9.3848248 4:16 5:16 6:16 7:8 8:8 9:8 10:3.5363934 11:3.5588992 12:2.7935295 13:58014 14:56969 15:57181 #
-9.4149453273003627e-011 1:7.7870951 2:8.4196377 3:9.550643 4:7 5:7 6:7 7:7 8:8 9:9 10:6.3555565 11:6.1011906 12:6.3998709 13:89733 14:89193 15:89391 #
9.4149453273003627e-011 1:41.565876 2:56.969799 3:66.819084 4:54 5:54 6:54 7:44 8:64 9:77 10:12.585914 11:17.846127 12:24.994539 13:43831 14:36180 15:29985 #
-9.4149453273003627e-011 1:3.009042 2:3.1407676 3:1.5129216 4:464 5:464 6:464 7:3 8:3 9:2 10:11.055665 11:9.6417875 12:7.7248368 13:36911 14:33494 15:29769 #
9.4149453273003627e-011 1:15.248302 2:1.8388232 3:6.4157262 4:279 5:279 6:279 7:18 8:2 9:2 10:5.4987803 11:1.9843054 12:2.60588 13:55563 14:58856 15:57664 #
-9.4149453273003627e-011 1:23.888874 2:23.909647 3:23.974825 4:216 5:216 6:216 7:28 8:28 9:28 10:12.170196 11:12.062593 12:12.085159 13:34147 14:33344 15:33154 #
9.4149453273003627e-011 1:9.1604738 2:9.0580473 3:8.2864246 4:246 5:246 6:246 7:7 8:6 9:6 10:7.4092183 11:7.751699 12:7.2305975 13:57699 14:56885 15:57157 #
-9.4149453273003627e-011 1:22.190695 2:22.240837 3:22.413843 4:255 5:255 6:255 7:18 8:19 9:20 10:7.0523844 11:6.7835674 12:7.0318127 13:89235 14:89218 15:89147 #
9.4149453273003627e-011 1:3.7602353 2:39.864182 3:50.919167 4:2 5:2 6:2 7:0 8:42 9:55 10:11.166747 11:4.6961069 12:9.0297871 13:46743 14:35349 15:33556 #
-9.4149453273003627e-011 1:18.823843 2:19.452768 3:19.397322 4:246 5:246 6:246 7:21 8:22 9:20 10:8.0661306 11:6.8469887 12:5.8862963 13:37261 14:33702 15:29369 #
9.4149453273003627e-011 1:4.7588735 2:5.7648478 3:4.7536249 4:252 5:252 6:252 7:1 8:1 9:1 10:8.5099611 11:10.159179 12:8.9484425 13:57695 14:56735 15:57071 #
-9.4149453273003627e-011 1:20.379442 2:19.486767 3:16.125322 4:20 5:20 6:20 7:21 8:21 9:18 10:8.3806458 11:7.6682549 12:5.8839588 13:36861 14:33610 15:29799 #
9.4149453273003627e-011 1:12.015902 2:3.9940231 3:11.640526 4:275 5:275 6:275 7:14 8:5 9:9 10:5.580214 11:2.0041218 12:0.88992727 13:56521 14:58780 15:55886 #
-9.4149453273003627e-011 1:17.638481 2:13.956287 3:15.327978 4:21 5:21 6:21 7:18 8:14 9:15 10:5.6329613 11:7.438252 12:9.2732735 13:41078 14:48290 15:48195 #
