SVM-light Version V6.02
0 # kernel type
3 # kernel parameter -d 
1 # kernel parameter -g 
1 # kernel parameter -s 
1 # kernel parameter -r 
empty# kernel parameter -u 
15 # highest feature index 
57506 # number of training documents 
87 # number of support vectors plus 1 
2.0048246 # threshold b, each following line is a SV (starting with alpha*y)
-0.0010000000000000000208166817117217 1:9.367835 2:19.15222 3:24.081232 4:244 5:244 6:244 7:3 8:14 9:18 10:15.257005 11:15.518928 12:16.504004 13:6446 14:6131 15:6186 #
0.00097251994167389579221127959840487 1:6.862165 2:4.7422199 3:7.5612316 4:21 5:21 6:21 7:12 8:1 9:2 10:16.817112 11:15.514217 12:16.222628 13:5740 14:5507 15:5515 #
0.0010000000000000000208166817117217 1:67.30619 2:10.43727 3:10.495412 4:460 5:460 6:460 7:68 8:11 9:11 10:25.581724 11:6.3880329 12:6.0713205 13:4781 14:2616 15:2506 #
4.3045360079374539452601311495528e-05 1:53.7658 2:44.486923 3:60.323494 4:98 5:98 6:98 7:80 8:71 9:62 10:33.552525 11:45.629635 12:30.473536 13:11801 14:11833 15:8672 #
-0.0010000000000000000208166817117217 1:25.38883 2:31.666315 3:36.774582 4:16 5:16 6:16 7:22 8:27 9:35 10:9.6538906 11:9.439187 12:8.1982212 13:10686 14:10480 15:10396 #
-0.0010000000000000000208166817117217 1:121.37619 2:26.48727 3:31.565413 4:517 5:517 6:517 7:124 8:26 9:31 10:37.522427 11:16.079044 12:15.083813 13:1172 14:524 15:164 #
4.2038173217536769707414201491247e-05 1:83.486191 2:27.197269 3:24.495413 4:35 5:35 6:35 7:84 8:29 9:26 10:20.727198 11:7.839798 12:6.7812977 13:3730 14:1780 15:1582 #
-9.3271666989670765079978309586295e-06 1:27.72591 2:38.48317 3:1.8412577 4:111 5:111 6:111 7:27 8:41 9:3 10:14.389743 11:10.894177 12:12.505825 13:8413 14:7606 15:3026 #
-0.00014208010032548421615501699211137 1:1.8277497 2:1.1849055 3:3.0677767 4:500 5:500 6:500 7:2 8:2 9:1 10:3.3432188 11:3.8125973 12:4.4474492 13:3427 14:3007 15:2902 #
-0.0010000000000000000208166817117217 1:71.426193 2:32.017269 3:25.715412 4:283 5:283 6:283 7:74 8:31 9:25 10:33.986759 11:13.359096 12:12.204 13:3410 14:798 15:796 #
0.0010000000000000000208166817117217 1:86.846191 2:31.517269 3:27.285412 4:284 5:284 6:284 7:94 8:32 9:28 10:20.330551 11:11.226807 12:10.48503 13:3360 14:1221 15:1188 #
0.0010000000000000000208166817117217 1:53.684616 2:55.733727 3:56.667744 4:143 5:143 6:143 7:58 8:58 9:58 10:28.415607 11:30.83016 12:30.419506 13:10415 14:10387 15:10432 #
-5.7600543398872439126989775104448e-05 1:42.924091 2:51.276829 3:34.188744 4:47 5:47 6:47 7:48 8:54 9:34 10:13.516363 11:12.111998 12:11.393489 13:6264 14:4716 15:1893 #
-0.0010000000000000000208166817117217 1:72.916191 2:30.88727 3:26.505413 4:281 5:281 6:281 7:77 8:31 9:26 10:33.750156 11:14.241694 12:13.424814 13:3129 14:615 15:564 #
0.0010000000000000000208166817117217 1:88.256195 2:19.48727 3:19.125412 4:35 5:35 6:35 7:91 8:20 9:20 10:26.1966 11:7.9037199 12:6.6035433 13:4304 14:2574 15:2400 #
0.0010000000000000000208166817117217 1:17.247749 2:26.504906 3:29.277777 4:465 5:465 6:465 7:17 8:28 9:31 10:5.5972362 11:5.3475347 12:5.4209166 13:3257 14:2508 15:2367 #
0.00069351778856754030776199382302138 1:66.456192 2:11.69727 3:14.075413 4:466 5:466 6:466 7:70 8:11 9:14 10:28.615515 11:7.9631653 12:7.3086815 13:4632 14:2564 15:2300 #
-0.00063563928848195112679408946831927 1:122.46619 2:27.577271 3:32.655411 4:517 5:517 6:517 7:125 8:27 9:32 10:37.523132 11:16.07975 12:15.084518 13:1144 14:496 15:136 #
-6.2676340537364889004753876200482e-07 1:64.04409 2:44.65683 3:1.3187423 4:448 5:448 6:448 7:69 8:46 9:0 10:19.856024 11:18.367506 12:12.848906 13:4910 14:4354 15:2631 #
0.00062857630984735669583268746762883 1:92.504616 2:98.833725 3:97.667747 4:143 5:143 6:143 7:99 8:108 9:106 10:2.6938553 11:1.2225227 12:0.83705485 13:10303 14:10406 15:10370 #
8.1012339210656155710690157212284e-06 1:71.341949 2:89.20237 3:86.534225 4:409 5:409 6:409 7:80 8:104 9:102 10:15.572824 11:29.127975 12:29.467163 13:2485 14:1638 15:1738 #
-1.7294838424412742675095877586955e-07 1:59.202164 2:43.81778 3:42.518768 4:184 5:184 6:184 7:63 8:48 9:47 10:19.773787 11:21.581146 12:25.319309 13:3766 14:3673 15:3352 #
-0.00038120236364586534624776525959078 1:35.63586 2:68.286034 3:96.418938 4:611 5:611 6:611 7:34 8:74 9:108 10:1.7138522 11:9.763422 12:19.188749 13:8383 14:8803 15:9604 #
-1.4287410737509749595079353023941e-06 1:5.995862 2:44.85603 3:73.988937 4:14 5:14 6:14 7:9 8:55 9:86 10:1.2500373 11:8.0993156 12:17.337616 13:7668 14:8324 15:9238 #
3.5835927206745560122814597131535e-06 1:66.731949 2:88.802368 3:90.354225 4:400 5:400 6:400 7:76 8:104 9:107 10:14.877708 11:30.085217 12:29.968435 13:2684 14:1718 15:1620 #
-0.00012916380481130251833832289776183 1:4.1146951 2:1.0896374 3:1.2982426 4:562 5:562 6:562 7:3 8:1 9:0 10:1.3835036 11:1.8632835 12:1.7407557 13:8497 14:8314 15:8294 #
-5.5413013405178962583470629599258e-06 1:73.034088 2:48.736828 3:5.2412577 4:212 5:212 6:212 7:76 8:51 9:5 10:16.404961 11:14.508666 12:11.872446 13:5186 14:4789 15:3317 #
-2.6782860815525999509389976083185e-05 1:8.4546947 2:6.8596373 3:4.7582426 4:501 5:501 6:501 7:9 8:7 9:5 10:0.6582939 11:1.4521554 12:1.855765 13:9838 14:9719 15:9593 #
-7.3736784044294955819259795859466e-05 1:33.389336 2:37.6306 3:37.315182 4:487 5:487 6:487 7:37 8:39 9:39 10:7.909133 11:12.437645 12:11.382879 13:11148 14:10272 15:9378 #
4.1439230861695097729580083978362e-05 1:102.00469 2:110.99963 3:110.62824 4:158 5:158 6:158 7:101 8:110 9:110 10:29.492125 11:29.522181 12:29.02198 13:9468 14:9399 15:9535 #
-0.00011691821213404152829656162948524 1:6.279336 2:8.7405987 3:8.9051819 4:473 5:473 6:473 7:11 8:12 9:14 10:1.2301238 11:3.3965244 12:2.5316396 13:10735 14:9823 15:8976 #
-6.6643090277597255636750708807092e-07 1:2.7959101 2:8.9231701 3:20.461258 4:14 5:14 6:14 7:11 8:18 9:25 10:3.8335614 11:5.8593922 12:0.093585461 13:7889 14:6908 15:3978 #
-3.6579116644980258499231240421068e-06 1:82.016197 2:12.46727 3:19.605412 4:32 5:32 6:32 7:111 8:23 9:29 10:9.321147 11:3.5042706 12:2.6548069 13:3498 14:1689 15:1312 #
0.00015757693996725020469697187142089 1:104.8758 2:109.50693 3:126.21349 4:98 5:98 6:98 7:103 8:108 9:137 10:22.491343 11:22.877937 12:0.89104164 13:9363 14:9319 15:1369 #
-1.8327194001478614479149625848819e-05 1:68.574089 2:50.186829 3:21.338743 4:27 5:27 6:27 7:71 8:51 9:21 10:18.875933 11:16.827562 12:10.884781 13:4993 14:4372 15:2195 #
0.00019295880101317247623526895949908 1:31.963272 2:60.509682 3:83.189896 4:389 5:389 6:389 7:34 8:67 9:93 10:18.64332 11:26.17606 12:31.701393 13:4517 14:2620 15:289 #
6.8241311052444353357770978618646e-05 1:68.776192 2:18.857269 3:16.555412 4:470 5:470 6:470 7:74 8:21 9:18 10:25.64691 11:7.5621457 12:5.9685707 13:4359 14:1973 15:1819 #
0.00088139298400455475240161673511352 1:11.81775 2:17.264906 3:20.587776 4:473 5:473 6:473 7:14 8:21 9:24 10:4.2509279 11:3.5758293 12:4.0197415 13:3137 14:2495 15:2352 #
-0.00022082540026799324373030231072335 1:72.322166 2:55.487782 3:46.788769 4:175 5:175 6:175 7:77 8:59 9:51 10:16.360073 11:17.363476 12:21.875946 13:3362 14:3356 15:3372 #
-3.4161087387484808481838416405196e-05 1:1.1958023 2:2.0269241 3:0.5965066 4:6 5:6 6:6 7:0 8:0 9:1 10:0.51242226 11:0.34822553 12:0.49290591 13:8749 14:8591 15:8479 #
-0.00015625449936364300463666199281221 1:0.29408997 2:21.49683 3:35.218742 4:47 5:47 6:47 7:5 8:23 9:37 10:11.048006 11:8.229003 12:8.9448891 13:7469 14:5428 15:1431 #
-0.00029514044982806552632967345140003 1:1.4822502 2:0.51490551 3:1.9877768 4:9 5:9 6:9 7:3 8:0 9:1 10:4.4075456 11:4.1839571 12:4.2723079 13:3763 14:3270 15:3179 #
-6.7136865915657222364195701180822e-06 1:119.3662 2:24.55727 3:29.195412 4:30 5:30 6:30 7:122 8:24 9:29 10:37.511662 11:15.918468 12:15.297904 13:1231 14:567 15:212 #
-0.00024327187959582996512608588091098 1:53.09409 2:60.446831 3:19.598742 4:12 5:12 6:12 7:61 8:66 9:18 10:13.241042 11:13.413678 12:11.071836 13:5613 14:4022 15:2125 #
-0.00016795692648558519367678332212535 1:60.916195 2:26.947269 3:24.565413 4:281 5:281 6:281 7:63 8:27 9:25 10:30.690155 11:11.79745 12:10.378028 13:3744 14:902 15:813 #
-5.0326246029537548504293603679471e-06 1:37.429337 2:41.330601 3:41.535183 4:501 5:501 6:501 7:39 8:41 9:42 10:6.2148528 11:10.858694 12:9.7076435 13:11221 14:10363 15:9471 #
-0.00016990047945771729904357316698338 1:13.877749 2:11.954906 3:12.147777 4:17 5:17 6:17 7:14 8:13 9:13 10:6.4931374 11:6.37186 12:6.5624471 13:3304 14:2944 15:2908 #
-3.2069618912143127778535678373828e-07 1:0.49808192 2:4.6770878 3:1.8723781 4:7 5:7 6:7 7:2 8:5 9:1 10:2.8472598 11:5.9012809 12:7.5761404 13:5745 14:6210 15:5766 #
0.00015729357502629326415188870669226 1:116.94688 2:119.65565 3:119.72163 4:145 5:145 6:145 7:131 8:134 9:135 10:8.2036858 11:8.5563869 12:10.001204 13:2597 14:2311 15:2396 #
-0.0006135828063637047526460155388861 1:40.599335 2:44.020599 3:45.045181 4:254 5:254 6:254 7:45 8:45 9:46 10:10.786538 11:15.301501 12:14.060943 13:11354 14:10422 15:9616 #
-0.00014233873546838418373654266968487 1:69.726196 2:5.5872698 3:13.405413 4:34 5:34 6:34 7:96 8:17 9:23 10:14.467364 11:5.1748595 12:4.4580317 13:4061 14:1935 15:1479 #
-0.00018161949241317053836165806846026 1:48.716194 2:21.577271 3:20.175413 4:23 5:23 6:23 7:55 8:22 9:21 10:26.041594 11:12.091246 12:11.183663 13:4174 14:1222 15:1026 #
0.00049204043770802868840164023822581 1:47.266872 2:43.395649 3:40.451626 4:158 5:158 6:158 7:7 8:3 9:1 10:45.736336 11:46.839764 12:46.3237 13:5677 14:5664 15:5721 #
-1.6881433473019119692257183906747e-06 1:8.0553045 2:4.8903627 3:1.9017575 4:284 5:284 6:284 7:19 8:16 9:12 10:0.50078124 11:0.49949175 12:0.65683675 13:7285 14:7312 15:7383 #
-3.691925549372604287569170355976e-06 1:0.64808196 2:27.807087 3:38.162376 4:3 5:3 6:3 7:0 8:29 9:39 10:1.1408323 11:0.059404057 12:3.2596698 13:5986 14:7206 15:7239 #
4.0802013254087204061351862923596e-08 1:75.206871 2:74.305649 3:68.171623 4:61 5:61 6:61 7:74 8:71 9:64 10:21.86944 11:21.081177 12:21.617294 13:4228 14:4140 15:4315 #
7.2596768568149072273741617689069e-05 1:26.137751 2:28.544905 3:33.547775 4:464 5:464 6:464 7:25 8:29 9:33 10:10.176348 11:10.864215 12:11.576057 13:2238 14:1690 15:1489 #
-0.00014264566926194821583351313165622 1:4.9540901 2:7.3868299 3:6.7187424 4:15 5:15 6:15 7:16 8:17 9:9 10:5.9187713 11:2.9246752 12:7.3700204 13:7405 14:6108 15:2760 #
-1.6212210718475739118895131984921e-05 1:12.685802 2:14.116924 3:16.076506 4:13 5:13 6:13 7:24 8:25 9:28 10:17.319817 11:17.263756 12:16.973627 13:10455 14:10280 15:10299 #
-0.0001194517399421610967828397131818 1:12.62883 2:9.8763142 3:6.8145819 4:19 5:19 6:19 7:16 8:13 9:13 10:0.3370471 11:2.1684635 12:3.0274618 13:9701 14:9342 15:8957 #
-3.5157191263358953531303896511417e-06 1:2.3480818 2:25.837088 3:33.622379 4:5 5:5 6:5 7:2 8:27 9:34 10:1.1431154 11:0.012206086 12:3.3427248 13:6216 14:7368 15:7283 #
-2.0913991186442547189294977397211e-07 1:11.15591 2:6.1868296 3:28.748743 4:47 5:47 6:47 7:10 8:5 9:27 10:6.8103018 11:5.0680647 12:6.7525969 13:8663 14:6769 15:2536 #
-4.2368250602516175840257274531897e-06 1:1.525305 2:6.3003626 3:4.2217574 4:545 5:545 6:545 7:16 8:22 9:19 10:0.99665272 11:1.6928697 12:2.4053354 13:6645 14:6403 15:6418 #
0.00014427972938513278222671942785382 1:98.204697 2:107.38964 3:105.96824 4:425 5:425 6:425 7:97 8:106 9:105 10:29.057455 11:28.129375 12:28.099207 13:9147 14:9326 15:9268 #
-0.00053173670952358885466448867873623 1:36.415863 2:65.706032 3:87.258942 4:611 5:611 6:611 7:40 8:75 9:102 10:3.5345092 11:4.7165179 12:9.4937849 13:8756 14:9050 15:9766 #
9.1489090888102549852835265742357e-05 1:82.216194 2:27.267269 3:25.335413 4:35 5:35 6:35 7:85 8:28 9:26 10:24.970913 11:9.4117832 12:8.9101353 13:3907 14:1776 15:1636 #
-6.8781472929173650965317676764244e-05 1:15.908082 2:19.407087 3:15.972378 4:20 5:20 6:20 7:17 8:19 9:15 10:5.5600491 11:7.1659746 12:8.1892538 13:4845 14:6380 15:5852 #
4.7835936584597615883751586807193e-05 1:116.79688 2:114.97565 3:109.72163 4:390 5:390 6:390 7:131 8:128 9:123 10:9.52036 11:8.6296911 12:9.0724201 13:2261 14:2210 15:2373 #
-0.00038074795652223714093054240947822 1:83.664139 2:67.80397 3:70.71106 4:86 5:86 6:86 7:85 8:63 9:65 10:2.7481289 11:6.4423718 12:14.490789 13:4146 14:3953 15:3706 #
-1.1514633623769946002599431130603e-07 1:20.319336 2:22.7906 3:20.245182 4:473 5:473 6:473 7:24 8:23 9:19 10:6.6486607 11:10.546937 12:9.3171043 13:11444 14:10485 15:9530 #
-1.229939414204166180447086453853e-07 1:66.012161 2:46.597778 3:44.00877 4:180 5:180 6:180 7:70 8:49 9:48 10:17.093414 11:18.152246 12:19.35848 13:3505 14:3570 15:3446 #
5.4136206731759205072231078137435e-05 1:48.643272 2:72.67968 3:85.069893 4:0 5:0 6:0 7:51 8:79 9:95 10:19.230078 11:27.022598 12:33.139084 13:3899 14:2162 15:166 #
-3.5985287832210528270737714962024e-05 1:28.835863 2:67.30603 3:98.128944 4:584 5:584 6:584 7:30 8:75 9:107 10:3.8456247 11:13.460443 12:22.546591 13:8136 14:8691 15:9716 #
5.2860056907098491581036003861271e-08 1:75.626877 2:79.015648 3:77.861626 4:98 5:98 6:98 7:75 8:77 9:76 10:34.81427 11:39.191463 12:39.647766 13:4811 14:4606 15:4624 #
3.3987836608351251754811528371647e-05 1:65.601921 2:75.507088 3:81.782379 4:67 5:67 6:67 7:70 8:83 9:90 10:21.287775 11:20.084244 12:18.706692 13:10537 14:11087 15:11020 #
-0.00017806938992670975495553886691624 1:24.133806 2:8.5527296 3:7.9945879 4:357 5:357 6:357 7:30 8:10 9:11 10:13.017578 11:4.1347141 12:2.5739205 13:8807 14:3953 15:3841 #
-0.00013384126912682065002613285287225 1:60.804089 2:45.806831 3:18.378742 4:449 5:449 6:449 7:70 8:51 9:20 10:9.6404228 11:8.5868979 12:9.9671316 13:5433 14:4731 15:2330 #
5.0354360735530543941723680134714e-05 1:73.136192 2:19.997271 3:19.195412 4:276 5:276 6:276 7:77 8:21 9:20 10:27.321964 11:7.737042 12:7.2597713 13:3690 14:1465 15:1334 #
-0.00012582600767994318630323136165572 1:9.8393364 2:16.3606 3:15.605183 4:21 5:21 6:21 7:15 8:19 9:17 10:8.9031515 11:13.532701 12:12.551054 13:11432 14:10655 15:9745 #
7.0827308217369966164729533364408e-05 1:21.077749 2:24.994905 3:28.907776 4:469 5:469 6:469 7:20 8:25 9:29 10:10.489655 11:10.472223 12:10.666834 13:2358 14:1779 15:1610 #
8.5619224898190078858629253888424e-06 1:58.936195 2:11.60727 3:9.6654119 4:454 5:454 6:454 7:62 8:11 9:10 10:25.358053 11:7.6156812 12:6.9960208 13:4539 14:2091 15:1999 #
0.00061989551279850686402173032263363 1:2.1593359 2:0.75940102 3:0.07481771 4:471 5:471 6:471 7:4 8:4 9:1 10:2.7283697 11:6.3988543 12:4.6376939 13:10358 14:9226 15:8365 #
-8.4492330619078803016774870116024e-07 1:61.942165 2:48.797779 3:48.82877 4:177 5:177 6:177 7:67 8:53 9:53 10:18.308756 11:19.216299 12:23.932667 13:3728 14:3588 15:3184 #
-2.011983523529008513475169195317e-07 1:81.322166 2:65.337784 3:56.808769 4:152 5:152 6:152 7:88 8:73 9:63 10:10.532496 11:12.07198 12:16.011637 13:2983 14:2974 15:2926 #
-3.9258624666088684339185568838992e-06 1:82.586197 2:33.517269 3:28.995413 4:285 5:285 6:285 7:86 8:33 9:29 10:30.974751 11:13.909637 12:12.176557 13:2882 14:604 15:609 #
1.545675526700659882474095385696e-05 1:64.784698 2:63.839638 3:67.36824 4:98 5:98 6:98 7:87 8:83 9:90 10:16.388124 11:20.693348 12:18.733326 13:12510 14:12381 15:12466 #
