SVM-light Version V6.02
0 # kernel type
3 # kernel parameter -d 
1 # kernel parameter -g 
1 # kernel parameter -s 
1 # kernel parameter -r 
empty# kernel parameter -u 
20 # highest feature index 
8469 # number of training documents 
29 # number of support vectors plus 1 
1.9509909 # threshold b, each following line is a SV (starting with alpha*y)
-0.00065501252968131114 1:19.068964 2:1.0950199 3:10.350431 4:32 5:32 6:32 7:24 8:3 9:6 10:13.64107 11:14.93266 12:17.852173 13:39991 14:40772 15:45402 #
-3.0886917040662486e-008 1:1.5261936 2:0.52486998 3:0.9441877 4:261 5:261 6:261 7:5 8:1 9:1 10:22.842083 11:2.3640351 12:1.3368278 13:133345 14:111651 15:110912 #
-0.00095078810675479255 1:4.45403 2:1.7755146 3:1.9542181 4:19 5:19 6:19 7:1 8:1 9:3 10:4.1867409 11:1.2927724 12:1.1120656 13:166766 14:165442 15:163404 #
0.001 1:3.6355152 2:3.4733288 3:5.5998969 4:0 5:0 6:0 7:0 8:0 9:5 10:3 11:5 12:0 13:7.2111378 14:14.411554 15:20.317078 16:0 17:65055 18:61626 19:54137 20:49980 #
-0.00096198213326371962 1:24.390085 2:23.031328 3:25.050297 4:0 5:0 6:0 7:0 8:0 9:22 10:16 11:14 12:0 13:8.1379118 14:15.558441 15:21.361116 16:0 17:69349 18:64387 19:56430 20:49980 #
-1.4132144594886576e-007 1:8.442606 2:1.0655301 3:2.0121877 4:0 5:0 6:0 7:5 8:1 9:2 10:23.913902 11:4.1031675 12:3.2603869 13:124743 14:100935 15:99316 #
-3.4145443607616144e-006 1:28.92271 2:30.38957 3:12.982058 4:347 5:347 6:347 7:28 8:32 9:15 10:12.551266 11:10.314288 12:4.2832274 13:95873 14:89154 15:73446 #
-5.0257338860743763e-005 1:25.121111 2:28.177971 3:0.93394226 4:349 5:349 6:349 7:24 8:28 9:1 10:16.071209 11:12.707755 12:5.9433603 13:89513 14:83241 15:63192 #
0.00071359802980764688 1:7.1136818 2:17.995888 3:21.672779 4:13 5:13 6:13 7:9 8:17 9:20 10:3.240948 11:4.8609242 12:5.761878 13:48863 14:54682 15:55548 #
-0.00013801723523229977 1:4.9983101 2:16.222029 3:30.528742 4:47 5:47 6:47 7:3 8:16 9:30 10:14.74788 11:12.44255 12:9.1316948 13:81952 14:71159 15:48857 #
0.00084515767658193644 1:3.107115 2:4.4642711 3:5.8865032 4:0 5:0 6:0 7:0 8:0 9:6 10:7 11:7 12:0 13:5.2235031 14:4.6932144 15:1.9101574 16:0 17:68796 18:62847 19:54590 20:49980 #
-0.00096245635011334542 1:14.697285 2:16.569328 3:18.143497 4:0 5:0 6:0 7:0 8:0 9:12 10:9 11:7 12:0 13:9.3525162 14:16.64572 15:22.612131 16:0 17:62703 18:58192 19:50318 20:49980 #
0.001 1:4.335464 2:9.7710009 3:8.3032179 4:28 5:28 6:28 7:6 8:8 9:8 10:0.81338465 11:3.1203992 12:2.211982 13:163520 14:156477 15:152132 #
-5.4743007210040683e-007 1:14.04791 2:1.4667703 3:3.4307423 4:1 5:1 6:1 7:13 8:1 9:3 10:6.2766409 11:4.1359725 12:6.7616096 13:95468 14:85904 15:67768 #
6.5181675779162065e-005 1:13.658315 2:29.468672 3:40.118504 4:0 5:0 6:0 7:0 8:0 9:19 10:45 11:68 12:0 13:0.73964989 14:3.4783776 15:7.216692 16:0 17:52541 18:44737 19:36130 20:49980 #
4.1787865603874756e-005 1:5.7651868 2:6.2004132 3:4.5746932 4:254 5:254 6:254 7:5 8:5 9:3 10:3.5302939 11:5.5209241 12:4.6625786 13:29823 14:29567 15:29718 #
-8.393373843827121e-008 1:3.8478065 2:2.02687 3:1.5826123 4:11 5:11 6:11 7:1 8:4 9:3 10:8.2524958 11:0.3788355 12:0.061071612 13:106172 14:81444 15:80599 #
-2.1948570530693023e-005 1:28.69191 2:24.225571 3:4.0704579 4:2 5:2 6:2 7:26 8:24 9:5 10:14.435306 11:11.962791 12:6.9778032 13:88291 14:80895 15:60149 #
6.4043860129813114e-005 1:13.637435 2:23.20462 3:26.560032 4:251 5:251 6:251 7:9 8:20 9:22 10:14.188232 11:15.077768 12:17.881548 13:44305 14:43087 15:44963 #
-4.5354106652546874e-006 1:1.1419101 2:11.334829 3:6.1683421 4:13 5:13 6:13 7:2 8:13 9:6 10:5.0837712 11:3.7922041 12:1.8884542 13:97888 14:88704 15:73520 #
-9.9172328753839241e-008 1:2.7487099 2:3.2475703 3:9.7611427 4:387 5:387 6:387 7:0 8:3 9:9 10:12.37304 11:9.4948187 12:5.1372066 13:90914 14:82851 15:63546 #
-2.2062396004764544e-008 1:14.402264 2:22.883801 3:23.611217 4:31 5:31 6:31 7:17 8:25 9:27 10:3.5320492 11:0.48846033 12:0.41768035 13:146637 14:139518 15:134258 #
1.4094480478769067e-005 1:44.371914 2:70.336273 3:85.373306 4:0 5:0 6:0 7:0 8:0 9:47 10:78 11:97 12:0 13:15.848941 14:23.866571 15:32.480282 16:0 17:31122 18:20520 19:5924 20:49980 #
-4.250726730748245e-008 1:1.11871 2:11.13443 3:23.903942 4:47 5:47 6:47 7:1 8:11 9:25 10:12.584782 11:10.376387 12:5.9472909 13:88219 14:79513 15:59753 #
1.0508480503553481e-005 1:74.041168 2:59.216484 3:43.891418 4:180 5:180 6:180 7:78 8:63 9:46 10:7.6020808 11:8.1386433 12:7.5980492 13:129045 14:130244 15:131753 #
-6.8769164319703823e-006 1:28.342207 2:8.6931305 3:8.6173878 4:239 5:239 6:239 7:26 8:9 9:9 10:26.406546 11:6.3004355 12:5.4316278 13:102462 14:76415 15:75320 #
-8.0823712154677795e-008 1:17.630606 2:6.9551301 3:5.7025876 4:10 5:10 6:10 7:25 8:8 9:7 10:0.66353714 11:0.096586183 12:0.062343571 13:105840 14:80584 15:79976 #
1.9652048878672303e-006 1:72.027573 2:58.123684 3:43.905819 4:190 5:190 6:190 7:76 8:62 9:46 10:7.573729 11:7.5055294 12:6.9643936 13:132826 14:133360 15:134856 #
