SVM-light Version V6.02
0 # kernel type
3 # kernel parameter -d 
1 # kernel parameter -g 
1 # kernel parameter -s 
1 # kernel parameter -r 
empty# kernel parameter -u 
15 # highest feature index 
8748 # number of training documents 
57 # number of support vectors plus 1 
-3.4791115 # threshold b, each following line is a SV (starting with alpha*y)
-3.229141388148031310834085161332 1:3.4468741 2:2.653482 3:9.6435518 4:227 5:227 6:227 7:3 8:3 9:10 10:11.624248 11:12.438622 12:16.546032 13:6180 14:5055 15:4255 #
3.7782639801332353890472859347938 1:15.956874 2:14.903481 3:16.963552 4:246 5:246 6:246 7:16 8:16 9:18 10:13.1103 11:14.499577 12:15.313523 13:5663 14:4513 15:3969 #
-5.9963301505578527894613216631114 1:0.48101237 2:4.364131 3:2.9365234 4:241 5:241 6:241 7:0 8:2 9:5 10:15.843366 11:18.083834 12:30.656231 13:2099 14:1117 15:987 #
0.56999913027783577490481548011303 1:19.001013 2:3.5458691 3:0.82652342 4:233 5:233 6:233 7:18 8:6 9:7 10:15.902815 11:17.77532 12:29.984791 13:2762 14:1338 15:996 #
-0.29259940419105157083379253890598 1:10.671012 2:121.72587 3:206.23347 4:460 5:460 6:460 7:10 8:125 9:214 10:15.123958 11:15.132047 12:28.964869 13:2483 14:5646 15:8464 #
0.62496051573249244981411720800679 1:56.139694 2:49.880737 3:11.585969 4:18 5:18 6:18 7:34 8:47 9:13 10:59.019588 11:63.037491 12:5.3179655 13:9218 14:6661 15:792 #
-0.010988106202055591964494851708878 1:51.369694 2:41.190739 3:1.9859692 4:5 5:5 6:5 7:33 8:40 9:4 10:52.116318 11:53.510792 12:1.7798164 13:9847 14:7148 15:2057 #
10 1:6.9210124 2:0.43413085 3:2.1965234 4:461 5:461 6:461 7:7 8:2 9:6 10:16.031086 11:17.672499 12:30.434189 13:2258 14:1197 15:924 #
-0.026535538217525619919534562995977 1:62.90329 2:51.99168 3:29.590561 4:270 5:270 6:270 7:61 8:47 9:27 10:9.9026976 11:7.5219455 12:4.9478226 13:5484 14:5096 15:4757 #
-9.7186507428621649040678676101379 1:13.201013 2:2.385869 3:1.4165235 4:456 5:456 6:456 7:13 8:5 9:6 10:15.798038 11:17.573063 12:30.347231 13:2489 14:1276 15:944 #
0.53703225941817722688398362151929 1:32.73103 2:42.072136 3:50.345905 4:4 5:4 6:4 7:16 8:27 9:47 10:36.064552 11:38.343761 12:41.600449 13:11519 14:11118 15:10800 #
-0.11078667618646528825188113387412 1:88.659866 2:64.783821 3:36.256359 4:452 5:452 6:452 7:84 8:48 9:27 10:54.536625 11:55.614502 12:31.649738 13:2917 14:1341 15:860 #
-0.030866005056712091797477270915806 1:40.159691 2:27.030739 3:3.7440307 4:6 5:6 6:6 7:23 8:31 9:3 10:51.265064 11:49.640877 12:0.1501573 13:8799 14:6095 15:1563 #
0.067060194880721013532820506952703 1:7.5302858 2:25.405464 3:23.281244 4:281 5:281 6:281 7:19 8:6 9:6 10:2.0950801 11:21.564089 12:17.329491 13:9265 14:6503 15:4326 #
-0.063754546314848503651973032901878 1:62.309692 2:63.950737 3:0.76403075 4:275 5:275 6:275 7:42 8:59 9:0 10:56.343845 11:55.38448 12:0.90136963 13:9965 14:7860 15:1929 #
-0.030281768504941908304317621514201 1:13.210286 2:0.43453601 3:5.0887556 4:27 5:27 6:27 7:4 8:0 9:1 10:23.21199 11:15.480725 12:7.2404776 13:9740 14:5739 15:3594 #
0.34385943657355966251998324878514 1:37.791012 2:25.675869 3:5.2034764 4:429 5:429 6:429 7:39 8:30 9:13 10:10.01945 11:12.273157 12:26.362946 13:3702 14:2509 15:1531 #
0.29166449221415291503944899886847 1:7.6210122 2:1.4458691 3:0.24347657 4:13 5:13 6:13 7:5 8:3 9:7 10:8.8817225 11:12.743434 12:27.863277 13:2397 14:1362 15:1077 #
0.036718439443844327896293577850884 1:28.419714 2:31.174536 3:17.508755 4:383 5:383 6:383 7:39 8:31 9:12 10:24.091942 11:19.573505 12:15.462587 13:7272 14:3585 15:2151 #
-0.092646335044847205608675722032785 1:29.109692 2:19.080738 3:0.015969239 4:123 5:123 6:123 7:17 8:29 9:0 10:44.532497 11:46.729427 12:0.92058945 13:8824 14:6175 15:1831 #
0.19686607374471007392280341719015 1:45.970287 2:63.765465 3:29.231245 4:281 5:281 6:281 7:47 8:75 9:42 10:19.114393 11:2.5919826 12:0.62337399 13:10205 14:7350 15:4041 #
-0.00082771247662094538100063800811768 1:16.900286 2:6.2454638 3:5.0712442 4:8 5:8 6:8 7:10 8:9 9:7 10:22.572777 11:16.036301 12:7.6777525 13:9483 14:5472 15:3523 #
0.31019813667475881757695788110141 1:61.320286 2:90.125465 3:49.651245 4:281 5:281 6:281 7:54 8:91 9:55 10:37.942677 11:25.352213 12:17.128138 13:9684 14:7224 15:3894 #
0.35193612297710374914316844296991 1:5.5503078 2:58.58926 3:3.3359692 4:2 5:2 6:2 7:28 8:67 9:2 10:51.378002 11:44.171875 12:5.9813285 13:7050 14:2925 15:1218 #
0.0076540302218786170768138887865462 1:49.430286 2:101.42546 3:84.861244 4:281 5:281 6:281 7:50 8:123 9:99 10:22.272699 11:16.860416 12:36.531742 13:9874 14:8478 15:5975 #
0.03194658134785491321316897028737 1:42.330284 2:105.28546 3:103.62125 4:281 5:281 6:281 7:51 8:139 9:141 10:14.516938 11:24.623615 12:53.327236 13:9858 14:9107 15:7430 #
-0.36119784932433329771583885303698 1:7.6035419 2:14.96539 3:13.375143 4:1 5:1 6:1 7:4 8:5 9:1 10:14.892185 11:22.715919 12:25.711552 13:2424 14:356 15:302 #
-0.083846022694579858125507598742843 1:34.019691 2:7.5207386 3:6.255969 4:8 5:8 6:8 7:15 8:12 9:6 10:54.320267 11:52.624218 12:5.639431 13:8738 14:5427 15:1395 #
-0.40053891387770024223868858825881 1:63.799694 2:47.550739 3:8.505969 4:18 5:18 6:18 7:44 8:42 9:10 10:57.583912 11:57.462135 12:3.4730284 13:9915 14:6848 15:1436 #
-0.82560337639133274389990901909187 1:80.640129 2:76.966179 3:35.193642 4:257 5:257 6:257 7:93 8:103 9:53 10:37.570267 11:34.240978 12:11.184319 13:12493 14:10084 15:7082 #
-0.033638937323311690619220826192759 1:21.839693 2:19.890739 3:1.4259692 4:3 5:3 6:3 7:0 8:19 9:2 10:54.078529 11:53.380733 12:4.2993531 13:8197 14:5724 15:1337 #
0.25466910516201224368160183075815 1:36.871014 2:25.985868 3:6.9534764 4:211 5:211 6:211 7:37 8:29 9:16 10:13.053231 11:15.23714 12:27.727606 13:3628 14:2430 15:1556 #
-0.15933220011406490357330767437816 1:49.769691 2:37.290737 3:3.3459692 4:18 5:18 6:18 7:33 8:37 9:5 10:51.390678 11:56.353584 12:0.066278212 13:9626 14:6906 15:1730 #
2.1913601974411900386030538356863 1:3.9810123 2:0.18586914 3:1.7534766 4:236 5:236 6:236 7:4 8:3 9:10 10:15.519632 11:18.258192 12:30.346146 13:2164 14:1178 15:1054 #
1.8411709907113333883899031206965 1:5.9410124 2:0.52413088 3:4.2365236 4:238 5:238 6:238 7:6 8:2 9:3 10:14.122714 11:17.300159 12:28.452698 13:2396 14:1293 15:989 #
-0.12867026799722491858801731723361 1:12.013291 2:10.971679 3:5.300561 4:245 5:245 6:245 7:8 8:9 9:4 10:3.5992584 11:2.2830877 12:1.1538122 13:7644 14:6950 15:6055 #
-0.00099204984595068846156551423121073 1:14.790286 2:24.345465 3:23.591244 4:157 5:157 6:157 7:6 8:22 9:26 10:17.507113 11:9.2236824 12:1.58267 13:10682 14:7567 15:5493 #
-0.0012739622014422541645267683563247 1:14.307725 2:14.018801 3:2.8100133 4:150 5:150 6:150 7:12 8:11 9:9 10:32.273071 11:32.770416 12:28.635918 13:4053 14:3837 15:4341 #
0.0048264396642352380695228930562735 1:44.733292 2:37.181679 3:27.620562 4:267 5:267 6:267 7:50 8:41 9:29 10:16.501972 11:15.652583 12:12.09577 13:5189 14:4695 15:3888 #
0.050866070165625387744512408971786 1:38.930286 2:43.995464 3:19.761244 4:281 5:281 6:281 7:34 8:26 9:3 10:19.57865 11:20.810482 12:21.382769 13:10428 14:7419 15:4438 #
0.013892225685040671123715583235025 1:30.921013 2:22.085869 3:1.8734765 4:211 5:211 6:211 7:31 8:26 9:10 10:12.199224 11:14.36886 12:27.567841 13:3356 14:2232 15:1328 #
-0.032506533940969362106443441007286 1:26.440287 2:22.005465 3:5.4212446 4:24 5:24 6:24 7:25 8:31 9:16 10:12.367101 11:2.2546511 12:0.15749662 13:12484 14:8775 15:5868 #
0.039054077724236968549575976794586 1:39.690285 2:76.435463 3:50.881245 4:281 5:281 6:281 7:47 8:89 9:60 10:13.279697 11:12.383155 12:20.198542 13:10386 14:8346 15:5624 #
-0.027271622900158831726002972573042 1:22.670286 2:31.565464 3:32.401245 4:148 5:148 6:148 7:15 8:34 9:41 10:21.867294 11:11.735056 12:1.8288809 13:9783 14:6615 15:4783 #
-0.0042583205000710222520865499973297 1:21.739693 2:12.720738 3:10.814031 4:7 5:7 6:7 7:3 8:12 9:12 10:45.998631 11:44.768646 12:0.61303329 13:8736 14:6160 15:2364 #
-0.0029535302203618496452719455191982 1:34.040287 2:20.075464 3:13.171245 4:171 5:171 6:171 7:24 8:20 9:19 10:32.352234 11:24.042236 12:11.848598 13:9479 14:5454 15:3180 #
0.12377331573974680034577744436319 1:6.5510125 2:1.3841308 3:3.3465235 4:238 5:238 6:238 7:6 8:1 9:5 10:16.121401 11:18.302618 12:30.447557 13:2286 14:1161 15:916 #
-7.9825273279401226522722367917595e-06 1:25.930286 2:9.4054642 3:1.2087555 4:182 5:182 6:182 7:17 8:9 9:5 10:30.679029 11:22.763247 12:12.875525 13:9616 14:5472 15:3195 #
-0.014553986898876658528934058267623 1:25.330286 2:7.815464 3:0.50124449 4:182 5:182 6:182 7:16 8:7 9:6 10:30.353218 11:22.592888 12:13.072462 13:9946 14:5766 15:3566 #
0.0011046537193237782048527151346207 1:20.051012 2:13.625869 3:1.8165234 4:12 5:12 6:12 7:20 8:18 9:5 10:10.156162 11:12.835592 12:27.432043 13:2942 14:1840 15:1110 #
0.0096892187474111324263503775000572 1:12.471012 2:6.2658691 3:9.2765236 4:234 5:234 6:234 7:11 8:8 9:2 10:12.701607 11:15.481188 12:28.326504 13:2643 14:1531 15:836 #
-0.00036496851112399752992132562212646 1:41.549694 2:4.6607385 3:6.3159695 4:7 5:7 6:7 7:22 8:4 9:6 10:54.306656 11:57.537457 12:5.5104465 13:8850 14:5334 15:1253 #
-0.00010398143861500841467204736545682 1:22.730286 2:6.3454642 3:2.1487556 4:191 5:191 6:191 7:12 8:5 9:3 10:28.242905 11:19.906509 12:12.033537 13:9835 14:5737 15:3419 #
-1.2350945018059413665900692080868e-07 1:22.039692 2:10.220738 3:7.2659693 4:142 5:142 6:142 7:1 8:9 9:6 10:59.629211 11:64.606544 12:7.5369577 13:7830 14:5072 15:853 #
-2.0794475173058918088947466529248e-07 1:59.449692 2:36.360737 3:7.5759692 4:12 5:12 6:12 7:38 8:32 9:9 10:57.431644 11:60.572201 12:4.3382154 13:9626 14:6505 15:1256 #
0.0019575235242825783643638715147972 1:26.449715 2:31.414536 3:14.598756 4:223 5:223 6:223 7:37 8:34 9:10 10:28.693825 11:19.504366 12:15.47546 13:6408 14:2727 15:1373 #
