SVM-light Version V6.02
0 # kernel type
3 # kernel parameter -d 
1 # kernel parameter -g 
1 # kernel parameter -s 
1 # kernel parameter -r 
empty# kernel parameter -u 
15 # highest feature index 
8748 # number of training documents 
8749 # number of support vectors plus 1 
0.31708714 # threshold b, each following line is a SV (starting with alpha*y)
-0.0010000000000000000208166817117217 1:0.18633224 2:0.14279498 3:0.15035751 4:0 5:0 6:0 7:0 8:0 9:0 10:0.51606619 11:0.59577674 12:0.63200021 13:0.99791586 14:0.9973461 15:0.99725252 #
0.0010000000000000000208166817117217 1:0.27589446 2:0.22276093 3:0.22038157 4:0 5:0 6:0 7:0 8:0 9:0 10:0.83181244 11:0.8570109 12:0.75158459 13:0.99829489 14:0.997742 15:0.99747443 #
-0.0010000000000000000208166817117217 1:0.79002231 2:0.89679015 3:0.85928637 4:0 5:0 6:0 7:0 8:0 9:0 10:0.92045242 11:0.94650692 12:0.87177646 13:0.99811053 14:0.99789912 15:0.99805921 #
0.0010000000000000000208166817117217 1:0.01221253 2:0.015484205 3:0.058976065 4:0 5:0 6:0 7:0 8:0 9:0 10:0.0084064361 11:0.023514809 12:0.061372843 13:0.99997342 14:0.99997538 15:0.99997818 #
-0.0010000000000000000208166817117217 1:0.033219833 2:0.021579342 3:0.0014569715 4:0 5:0 6:0 7:0 8:0 9:0 10:0.010834676 11:0.023280527 12:0.013359172 13:0.99997795 14:0.99997991 15:0.99998325 #
0.0010000000000000000208166817117217 1:1 2:1 3:1 4:0 5:0 6:0 7:1 8:1 9:1 10:0.65663016 11:0.75724906 12:0.77889609 13:1 14:1 15:1 #
-0.0010000000000000000208166817117217 1:0.97279376 2:0.97777593 3:0.98100001 4:0 5:0 6:0 7:1 8:0 9:1 10:0.39886257 11:0.40212777 12:0.45461327 13:0.99641889 14:0.99635208 15:0.99667275 #
0.0010000000000000000208166817117217 1:0.022848176 2:0.00075696717 3:0.0010223185 4:0 5:0 6:0 7:0 8:0 9:0 10:0.010714849 11:0.028273107 12:0.10334377 13:0.99997342 14:0.99997562 15:0.99997842 #
-0.0010000000000000000208166817117217 1:0.014129031 2:0.011925122 3:0.0065279244 4:0 5:0 6:0 7:0 8:0 9:0 10:0.0020259363 11:0.047726557 12:0.056836251 13:0.99997562 14:0.99997735 15:0.99997944 #
0.0010000000000000000208166817117217 1:0.84145063 2:0.88535726 3:0.94868368 4:0 5:0 6:0 7:0 8:0 9:0 10:0.70025462 11:0.81714195 12:0.83295375 13:0.99956143 14:0.99956071 15:0.99983007 #
-0.0010000000000000000208166817117217 1:0.8749904 2:0.88128161 3:0.89909095 4:0 5:0 6:0 7:1 8:1 9:0 10:0.66481566 11:0.68070555 12:0.69303763 13:0.99667782 14:0.99661326 15:0.99689382 #
0.0010000000000000000208166817117217 1:0.14820993 2:0.10319278 3:0.0099888928 4:0 5:0 6:0 7:0 8:0 9:0 10:0.031941149 11:0.0169055 12:0.0014185708 13:0.99997365 14:0.99997634 15:0.99998075 #
-0.0010000000000000000208166817117217 1:0.031190595 2:0.0088157365 3:0.018118674 4:0 5:0 6:0 7:0 8:0 9:0 10:0.017275482 11:0.019286808 12:0.018531187 13:0.99997431 14:0.99997687 15:0.99998003 #
0.0010000000000000000208166817117217 1:1 2:1 3:1 4:0 5:0 6:0 7:1 8:1 9:1 10:0.086381368 11:0.18703817 12:0.11364515 13:0.99446583 14:0.99266011 15:0.99191773 #
-0.0010000000000000000208166817117217 1:0.97060937 2:0.9689433 3:0.95899999 4:0 5:0 6:0 7:1 8:1 9:0 10:0.39931083 11:0.42980435 12:0.50424147 13:0.99645436 14:0.99644142 15:0.99675882 #
0.0010000000000000000208166817117217 1:0.05454113 2:0.0013535882 3:0.0080429735 4:0 5:0 6:0 7:0 8:0 9:0 10:0.90109563 11:0.95804691 12:0.95045024 13:0.99872923 14:0.99926716 15:0.99932587 #
-0.0010000000000000000208166817117217 1:0.0057402635 2:0.02930565 3:0.015854632 4:0 5:0 6:0 7:0 8:0 9:0 10:0.92571688 11:0.97465914 12:0.96861547 13:0.99883026 14:0.99940664 15:0.99945015 #
0.0010000000000000000208166817117217 1:1 2:1 3:0.96002263 4:0 5:0 6:0 7:1 8:1 9:0 10:0.19697918 11:0.091321893 12:0.0083250478 13:0.99982327 14:0.99997061 15:0.99937701 #
-0.0010000000000000000208166817117217 1:0.90050864 2:0.91395295 3:0.92699999 4:0 5:0 6:0 7:1 8:1 9:0 10:0.59384555 11:0.60156316 12:0.60964644 13:0.99657315 14:0.99652803 15:0.9968065 #
0.0010000000000000000208166817117217 1:0.089750946 2:0.010079904 3:0.015350076 4:0 5:0 6:0 7:0 8:0 9:0 10:0.93603534 11:0.96037805 12:0.95362651 13:0.99863213 14:0.99928153 15:0.99943173 #
-0.0010000000000000000208166817117217 1:0.031867005 2:0.0078751314 3:0.022175435 4:0 5:0 6:0 7:0 8:0 9:0 10:0.10282099 11:0.035607561 12:0.0030905386 13:0.99996758 14:0.99997002 15:0.99997312 #
0.0010000000000000000208166817117217 1:1 2:0.38586852 3:0.12633841 4:0 5:0 6:0 7:1 8:0 9:0 10:0.77808148 11:0.80265111 12:0.8849256 13:0.99630946 14:0.99716079 15:0.99815327 #
-0.0010000000000000000208166817117217 1:0.87952709 2:0.42932439 3:0.31591433 4:0 5:0 6:0 7:0 8:0 9:0 10:0.98651093 11:0.98759156 12:0.98473674 13:0.99993759 14:0.99994063 15:0.99995923 #
0.0010000000000000000208166817117217 1:0.65840101 2:0.8346923 3:0.93272465 4:0 5:0 6:0 7:0 8:0 9:0 10:0.11153677 11:0.00078874966 12:0.10210202 13:0.99692827 14:0.99772918 15:0.99777883 #
-0.0010000000000000000208166817117217 1:0.86553192 2:0.91984349 3:0.91430229 4:0 5:0 6:0 7:0 8:0 9:0 10:0.091260329 11:0.012274277 12:0.091404185 13:0.99950725 14:0.99982619 15:0.9993034 #
0.0010000000000000000208166817117217 1:0.059942279 2:0.022472402 3:0.059287272 4:0 5:0 6:0 7:0 8:0 9:0 10:0.93989652 11:0.96174103 12:0.94661021 13:0.9979949 14:0.99736542 15:0.99720532 #
-0.0010000000000000000208166817117217 1:0.0071102949 2:0.034985986 3:0.050760731 4:0 5:0 6:0 7:0 8:0 9:0 10:0.95591974 11:0.96210444 12:0.96174818 13:0.99888438 14:0.9994244 15:0.99969709 #
0.0010000000000000000208166817117217 1:0.82727951 2:0.92725492 3:0.97501415 4:0 5:0 6:0 7:0 8:0 9:0 10:0.17900188 11:0.016702501 12:0.24174508 13:0.99814051 14:0.99865693 15:0.99849319 #
-0.0010000000000000000208166817117217 1:0.79425794 2:0.79615051 3:0.89901561 4:0 5:0 6:0 7:0 8:0 9:0 10:0.11766476 11:0.038166746 12:0.0027814473 13:0.99999076 14:0.99999136 15:0.99999326 #
0.0010000000000000000208166817117217 1:0.03331567 2:0.052964088 3:0.032135088 4:0 5:0 6:0 7:0 8:0 9:0 10:0.93456954 11:0.96731108 12:0.91063362 13:0.99785286 14:0.99740648 15:0.99704838 #
-0.0010000000000000000208166817117217 1:0.13688004 2:0.0021420019 3:0.01484552 4:0 5:0 6:0 7:0 8:0 9:0 10:0.93534493 11:0.95734757 12:0.96496838 13:0.99853349 14:0.99923843 15:0.99941713 #
0.0010000000000000000208166817117217 1:0.65723169 2:0.82454181 3:0.94145107 4:0 5:0 6:0 7:0 8:0 9:0 10:0.03007704 11:0.072257891 12:0.13238716 13:0.99743176 14:0.99827552 15:0.99828285 #
-0.0010000000000000000208166817117217 1:0.83281344 2:0.80584592 3:0.73631048 4:0 5:0 6:0 7:0 8:0 9:0 10:0.30550984 11:0.22826084 12:0.069025762 13:0.99999309 14:0.99999332 15:0.99999213 #
0.0010000000000000000208166817117217 1:0.052760091 2:0.00046703167 3:0.0021259079 4:0 5:0 6:0 7:0 8:0 9:0 10:0.88691026 11:0.95012736 12:0.94438201 13:0.99870539 14:0.99925447 15:0.99934274 #
-0.0010000000000000000208166817117217 1:0.0057402635 2:0.023115544 3:0.053558722 4:0 5:0 6:0 7:0 8:0 9:0 10:0.94968361 11:0.95322776 12:0.94678062 13:0.99883825 14:0.99933898 15:0.9996503 #
0.0010000000000000000208166817117217 1:0.77114719 2:0.7930823 3:0.75862265 4:0 5:0 6:0 7:0 8:0 9:0 10:0.16431215 11:0.085711502 12:0.047417376 13:0.99999237 14:0.99999297 15:0.99999315 #
-0.0010000000000000000208166817117217 1:0.58964318 2:0.5887419 3:0.55317664 4:0 5:0 6:0 7:0 8:0 9:0 10:0.044412527 11:0.0078072948 12:0.058181353 13:0.99998891 14:0.99998969 15:0.99998993 #
0.0010000000000000000208166817117217 1:0.09482006 2:0.0031615491 3:0.010075172 4:0 5:0 6:0 7:0 8:0 9:0 10:0.9307915 11:0.92731434 12:0.95320779 13:0.99865443 14:0.99925113 15:0.99942559 #
-0.0010000000000000000208166817117217 1:0.0017671714 2:0.039719597 3:0.056081504 4:0 5:0 6:0 7:0 8:0 9:0 10:0.91340548 11:0.94905913 12:0.96605337 13:0.998878 14:0.99943197 15:0.99969935 #
0.0010000000000000000208166817117217 1:0.66583431 2:0.77298385 3:0.8718636 4:0 5:0 6:0 7:0 8:0 9:0 10:0.018373594 11:0.10793632 12:0.23759912 13:0.99706125 14:0.99761069 15:0.99760753 #
-0.0010000000000000000208166817117217 1:0.51253217 2:0.5427193 3:0.65604454 4:0 5:0 6:0 7:0 8:0 9:0 10:0.022520429 11:0.059113327 12:0.15758187 13:0.99997997 14:0.99998116 15:0.99998462 #
0.0010000000000000000208166817117217 1:0.090024948 2:0.0093516568 3:0.016955482 4:0 5:0 6:0 7:0 8:0 9:0 10:0.92680132 11:0.93704653 12:0.95531064 13:0.99861467 14:0.99927306 15:0.9994294 #
-0.0010000000000000000208166817117217 1:0.35359132 2:0.12441483 3:0.077181116 4:0 5:0 6:0 7:0 8:0 9:0 10:0.97884816 11:0.97852594 12:0.98678362 13:0.99960768 14:0.99980307 15:0.99987346 #
0.0010000000000000000208166817117217 1:0.55266601 2:0.54640108 3:0.50304663 4:0 5:0 6:0 7:0 8:0 9:0 10:0.021290785 11:0.019861961 12:0.036010031 13:0.99999207 14:0.99999249 15:0.99999285 #
-0.0010000000000000000208166817117217 1:0.43500876 2:0.51383722 3:0.67240018 4:0 5:0 6:0 7:0 8:0 9:0 10:0.0025396114 11:0.066094294 12:0.055356681 13:0.99996275 14:0.9999637 15:0.99996567 #
0.0010000000000000000208166817117217 1:0.12605679 2:0.0054317769 3:0.0035159453 4:0 5:0 6:0 7:0 8:0 9:0 10:0.9404937 11:0.9014414 12:0.89280999 13:0.99856848 14:0.99922746 15:0.99938184 #
-0.0010000000000000000208166817117217 1:0.11482252 2:0.001062289 3:0.0075065242 4:0 5:0 6:0 7:0 8:0 9:0 10:0.91751039 11:0.95912433 12:0.95951116 13:0.99857724 14:0.99923587 15:0.99937344 #
0.0010000000000000000208166817117217 1:0.70350593 2:0.72693247 3:0.74963981 4:0 5:0 6:0 7:0 8:0 9:0 10:0.19688445 11:0.12161923 12:0.094774425 13:0.99999177 14:0.99999255 15:0.99999309 #
-0.0010000000000000000208166817117217 1:0.62628222 2:0.593651 3:0.47551861 4:0 5:0 6:0 7:0 8:0 9:0 10:0.0563844 11:0.0019291209 12:0.010609983 13:0.9999848 14:0.99998486 15:0.99998444 #
0.0010000000000000000208166817117217 1:0.080708735 2:0.00804081 3:0.0070478371 4:0 5:0 6:0 7:0 8:0 9:0 10:0.88769507 11:0.9497155 12:0.96507156 13:0.99868226 14:0.99930859 15:0.9994325 #
-0.0010000000000000000208166817117217 1:0.12068592 2:0.097906604 3:0.076997638 4:0 5:0 6:0 7:0 8:0 9:0 10:0.95988077 11:0.96064693 12:0.97188485 13:0.99911755 14:0.99968386 15:0.99983662 #
0.0010000000000000000208166817117217 1:0.59595639 2:0.59708732 3:0.47305557 4:0 5:0 6:0 7:0 8:0 9:0 10:0.0033351185 11:0.0025521584 12:0.08915893 13:0.99999106 14:0.99999195 15:0.99999112 #
-0.0010000000000000000208166817117217 1:0.65187311 2:0.58776009 3:0.45103315 4:0 5:0 6:0 7:0 8:0 9:0 10:0.017236419 11:0.024179475 12:0.093187064 13:0.99998134 14:0.99998099 15:0.99997926 #
0.0010000000000000000208166817117217 1:0.074954607 2:0.0057104169 3:0.0010849028 4:0 5:0 6:0 7:0 8:0 9:0 10:0.88097155 11:0.89752287 12:0.92651153 13:0.99858999 14:0.99917841 15:0.99929136 #
-0.0010000000000000000208166817117217 1:0.018755564 2:0.048895519 3:0.05507239 4:0 5:0 6:0 7:0 8:0 9:0 10:0.93485087 11:0.95313472 12:0.96163255 13:0.99887407 14:0.99945146 15:0.99969172 #
0.0010000000000000000208166817117217 1:0.6027205 2:0.59659642 3:0.53637004 4:0 5:0 6:0 7:0 8:0 9:0 10:0.12769434 11:0.055151425 12:0.017598493 13:0.99998713 14:0.99998754 15:0.99998736 #
-0.0010000000000000000208166817117217 1:0.50486618 2:0.57622373 3:0.65242243 4:0 5:0 6:0 7:0 8:0 9:0 10:0.09316121 11:0.0073253918 12:0.023219319 13:0.999982 14:0.99998432 15:0.99998713 #
0.0010000000000000000208166817117217 1:0.12550877 2:0.011767534 3:0.015441814 4:0 5:0 6:0 7:0 8:0 9:0 10:0.89315188 11:0.92992479 12:0.9628014 13:0.99852788 14:0.99914885 15:0.99941099 #
-0.0010000000000000000208166817117217 1:0.1311259 2:0.00083115563 3:0.014203358 4:0 5:0 6:0 7:0 8:0 9:0 10:0.94067723 11:0.94635361 12:0.96040237 13:0.99856216 14:0.99925619 15:0.99944168 #
0.0010000000000000000208166817117217 1:0.39397499 2:0.51116604 3:0.61104125 4:0 5:0 6:0 7:0 8:0 9:0 10:0.07301344 11:0.052039456 12:0.019592982 13:0.99762279 14:0.99814987 15:0.99794209 #
-0.0010000000000000000208166817117217 1:0.54387259 2:0.59303737 3:0.60432082 4:0 5:0 6:0 7:0 8:0 9:0 10:0.12075838 11:0.03342627 12:0.033057667 13:0.99998051 14:0.99998188 15:0.99998271 #
0.0010000000000000000208166817117217 1:0.1441412 2:0.002810084 3:0.0045709261 4:0 5:0 6:0 7:0 8:0 9:0 10:0.89718217 11:0.92184216 12:0.95400637 13:0.99849451 14:0.99922913 15:0.99935198 #
-0.0010000000000000000208166817117217 1:0.039333779 2:0.020652158 3:0.033821195 4:0 5:0 6:0 7:0 8:0 9:0 10:0.91946059 11:0.94768691 12:0.95801711 13:0.998734 14:0.99916995 15:0.99915177 #
0.0010000000000000000208166817117217 1:0.63307548 2:0.70324302 3:0.74241346 4:0 5:0 6:0 7:0 8:0 9:0 10:0.38039982 11:0.067741126 12:0.02095915 13:0.99660939 14:0.99547118 15:0.99479473 #
-0.0010000000000000000208166817117217 1:0.65232408 2:0.66311443 3:0.63967258 4:0 5:0 6:0 7:0 8:0 9:0 10:0.16914719 11:0.17658588 12:0.16763565 13:0.99997962 14:0.99998033 15:0.99998111 #
0.0010000000000000000208166817117217 1:0.082763784 2:0.0011952796 3:0.0038230505 4:0 5:0 6:0 7:0 8:0 9:0 10:0.862391 11:0.90969104 12:0.94644821 13:0.99865043 14:0.99924606 15:0.99933279 #
-0.0010000000000000000208166817117217 1:0.043964148 2:0.049550943 3:0.065163508 4:0 5:0 6:0 7:0 8:0 9:0 10:0.94573343 11:0.94076455 12:0.97011971 13:0.9989019 14:0.9994303 15:0.99970859 #
0.0010000000000000000208166817117217 1:0.67780226 2:0.60396004 3:0.57621324 4:0 5:0 6:0 7:0 8:0 9:0 10:0.0700389 11:0.034618214 12:0.091976896 13:0.99998569 14:0.99998462 15:0.9999851 #
-0.0010000000000000000208166817117217 1:0.62910056 2:0.53486478 3:0.35874182 4:0 5:0 6:0 7:0 8:0 9:0 10:0.019039918 11:0.040022731 12:0.04892825 13:0.99998426 14:0.99998283 15:0.99998134 #
0.0010000000000000000208166817117217 1:0.025470357 2:0.033234172 3:0.0053726505 4:0 5:0 6:0 7:0 8:0 9:0 10:0.86293191 11:0.86031884 12:0.94372493 13:0.99774295 14:0.99735337 15:0.99696577 #
-0.0010000000000000000208166817117217 1:0.07563962 2:0.022387294 3:0.064475477 4:0 5:0 6:0 7:0 8:0 9:0 10:0.94191325 11:0.93216288 12:0.96888405 13:0.99871254 14:0.99936271 15:0.99977839 #
0.0010000000000000000208166817117217 1:0.50712091 2:0.52750117 3:0.57317066 4:0 5:0 6:0 7:0 8:0 9:0 10:0.054384783 11:0.07891234 12:0.049562629 13:0.99998492 14:0.99998629 15:0.99998802 #
-0.0010000000000000000208166817117217 1:0.54748017 2:0.53093749 3:0.57679278 4:0 5:0 6:0 7:0 8:0 9:0 10:0.060394347 11:0.053043317 12:0.022627605 13:0.99998391 14:0.99998403 15:0.99998623 #
0.0010000000000000000208166817117217 1:0.19346234 2:0.019195663 3:0.012735559 4:0 5:0 6:0 7:0 8:0 9:0 10:0.91868621 11:0.93428367 12:0.94873303 13:0.99840379 14:0.99913532 15:0.99941254 #
-0.0010000000000000000208166817117217 1:0.13057789 2:0.0082592843 3:0.063787445 4:0 5:0 6:0 7:0 8:0 9:0 10:0.93261731 11:0.95724171 12:0.96178681 13:0.99857408 14:0.99926633 15:0.99971777 #
0.0010000000000000000208166817117217 1:0.42459857 2:0.48172399 3:0.55303174 4:0 5:0 6:0 7:0 8:0 9:0 10:0.10469116 11:0.035652783 12:0.016414996 13:0.99998564 14:0.99998742 15:0.99999052 #
-0.0010000000000000000208166817117217 1:0.50783581 2:0.50585997 3:0.52577722 4:0 5:0 6:0 7:0 8:0 9:0 10:0.02960615 11:0.0081985276 12:0.045650344 13:0.99996185 14:0.99996448 15:0.99996835 #
0.0010000000000000000208166817117217 1:0.26525199 2:0.032231301 3:0.016267451 4:0 5:0 6:0 7:0 8:0 9:0 10:0.93663824 11:0.94823474 12:0.92924559 13:0.99829715 14:0.99910909 15:0.99944091 #
-0.0010000000000000000208166817117217 1:0.46456388 2:0.12135619 3:0.063879184 4:0 5:0 6:0 7:0 8:0 9:0 10:0.9616456 11:0.98986453 12:0.9877134 13:0.99982893 14:0.99979377 15:0.99979293 #
0.0010000000000000000208166817117217 1:0.34185082 2:0.39802417 3:0.4729107 4:0 5:0 6:0 7:0 8:0 9:0 10:0.029522996 11:0.030788524 12:0.022483803 13:0.99998254 14:0.99998474 15:0.99998754 #
-0.0010000000000000000208166817117217 1:0.33159187 2:0.39765599 3:0.49652684 4:0 5:0 6:0 7:0 8:0 9:0 10:0.012402563 11:0.011790101 12:0.068213753 13:0.99997991 14:0.99998236 15:0.99998641 #
0.0010000000000000000208166817117217 1:0.6358456 2:0.21676934 3:0.061388299 4:0 5:0 6:0 7:0 8:0 9:0 10:0.91871709 11:0.94552958 12:0.93807358 13:0.99745923 14:0.99828666 15:0.99890715 #
-0.0010000000000000000208166817117217 1:0.51265198 2:0.13213426 3:0.057365827 4:1 5:1 6:1 7:0 8:0 9:0 10:0.97961748 11:0.98469919 12:0.97191381 13:0.99998963 14:0.99989009 15:0.99976075 #
0.0010000000000000000208166817117217 1:0.12077671 2:0.17282018 3:0.31092998 4:0 5:0 6:0 7:0 8:0 9:0 10:0.0010042846 11:0.0094277058 12:0.020760581 13:0.99997216 14:0.99997443 15:0.99997902 #
-0.0010000000000000000208166817117217 1:0.047047764 2:0.021866007 3:0.031866431 4:0 5:0 6:0 7:0 8:0 9:0 10:0.0015587613 11:0.0032641215 12:0.0074211992 13:0.99997276 14:0.99997389 15:0.99997568 #
0.0010000000000000000208166817117217 1:1 2:0.47833934 3:0.32420549 4:0 5:0 6:0 7:0 8:0 9:0 10:0.87357455 11:0.93803751 12:0.91364706 13:0.99991906 14:0.9998762 15:0.99986011 #
-0.0010000000000000000208166817117217 1:0.92813814 2:0.79665142 3:0.6111089 4:0 5:0 6:0 7:0 8:0 9:0 10:0.93192172 11:0.91670895 12:0.85213548 13:0.99832761 14:0.9983356 15:0.99895239 #
0.0010000000000000000208166817117217 1:0.0018408743 2:0.051075026 3:0.021740783 4:0 5:0 6:0 7:0 8:0 9:0 10:0.12187745 11:0.015927045 12:0.002958568 13:0.99997503 14:0.99997729 15:0.99997866 #
-0.0010000000000000000208166817117217 1:0.037803464 2:0.023093278 3:0.019696146 4:0 5:0 6:0 7:0 8:0 9:0 10:0.021150043 11:0.0028946614 12:0.010762473 13:0.99997312 14:0.99997449 15:0.99997622 #
0.0010000000000000000208166817117217 1:0.7511968 2:0.75143296 3:0.89191091 4:0 5:0 6:0 7:0 8:0 9:0 10:0.81599522 11:0.8698408 12:0.9507522 13:0.99937016 14:0.99924088 15:0.99968845 #
-0.0010000000000000000208166817117217 1:0.8655892 2:0.96803445 3:0.89484185 4:0 5:0 6:0 7:0 8:0 9:0 10:0.73642021 11:0.79358077 12:0.74686718 13:0.99780875 14:0.99758798 15:0.99777299 #
0.0010000000000000000208166817117217 1:0.031264812 2:0.026611147 3:0.012613067 4:0 5:0 6:0 7:0 8:0 9:0 10:0.035681378 11:0.03220683 12:0.059566416 13:0.99997866 14:0.99997902 15:0.99998254 #
-0.0010000000000000000208166817117217 1:0.031715751 2:0.0095933098 3:0.0084114214 4:0 5:0 6:0 7:0 8:0 9:0 10:0.0046309037 11:0.011589849 12:0.13759376 13:0.99997252 14:0.99997401 15:0.99997652 #
0.0010000000000000000208166817117217 1:0.48839688 2:0.99590993 3:0.99124801 4:0 5:0 6:0 7:0 8:0 9:0 10:0.98468012 11:0.88462818 12:0.3120701 13:0.99975079 14:0.99970341 15:0.99972457 #
-0.0010000000000000000208166817117217 1:0.19017427 2:0.99045998 3:0.9939912 4:0 5:0 6:0 7:0 8:0 9:0 10:0.91169059 11:0.92375571 12:0.94907194 13:0.99833137 14:0.9950341 15:0.99331939 #
0.0010000000000000000208166817117217 1:0.032430682 2:0.0077524045 3:0.0082665365 4:0 5:0 6:0 7:0 8:0 9:0 10:0.029077431 11:0.044692539 12:0.090011634 13:0.99997288 14:0.99997574 15:0.99997824 #
-0.0010000000000000000208166817117217 1:0.035774227 2:0.02857478 3:0.020130798 4:0 5:0 6:0 7:0 8:0 9:0 10:0.027588032 11:0.027031247 12:3.9227842e-05 13:0.99996847 14:0.99996859 15:0.99997163 #
0.0010000000000000000208166817117217 1:0.68099737 2:0.63586706 3:0.62864387 4:0 5:0 6:0 7:0 8:0 9:0 10:0.51043355 11:1 12:1 13:0.99531609 14:0.99421448 15:0.99388349 #
-0.0010000000000000000208166817117217 1:0.86978662 2:0.84244365 3:0.49850351 4:0 5:0 6:0 7:0 8:0 9:0 10:0.90371084 11:0.95061255 12:0.97303176 13:0.99984741 14:0.99990028 15:0.99995327 #
0.0010000000000000000208166817117217 1:0.017970933 2:0.017509719 3:0.0023790875 4:0 5:0 6:0 7:0 8:0 9:0 10:0.18964532 11:0.034874398 12:0.0069924057 13:0.99972814 14:0.9998017 15:0.99987304 #
-0.0010000000000000000208166817117217 1:0.024049746 2:0.0045202929 3:0.094601363 4:0 5:0 6:0 7:0 8:0 9:0 10:0.022347474 11:0.023874711 12:0.013743863 13:0.99997646 14:0.99997771 15:0.99997884 #
0.0010000000000000000208166817117217 1:0.71281296 2:0.73364615 3:0.83838606 4:0 5:0 6:0 7:0 8:0 9:0 10:0.79962099 11:0.78767598 12:0.82277679 13:0.99937707 14:0.99928313 15:0.99961406 #
-0.0010000000000000000208166817117217 1:0.86153191 2:0.91755009 3:0.86165673 4:0 5:0 6:0 7:0 8:0 9:0 10:0.74959713 11:0.80123723 12:0.76524091 13:0.99773246 14:0.99756044 15:0.99772698 #
0.0010000000000000000208166817117217 1:0.013040197 2:0.028329326 3:0.040124841 4:0 5:0 6:0 7:0 8:0 9:0 10:0.067231305 11:0.02809093 12:0.11180067 13:0.99996895 14:0.9999702 15:0.99997246 #
-0.0010000000000000000208166817117217 1:0.029911986 2:0.032011136 3:0.071274981 4:0 5:0 6:0 7:0 8:0 9:0 10:0.017631954 11:0.019376909 12:0.00064406812 13:0.99997842 14:0.99997884 15:0.99998099 #
0.0010000000000000000208166817117217 1:0.89262903 2:0.94529432 3:0.9302358 4:0 5:0 6:0 7:0 8:0 9:0 10:0.57270676 11:0.64648825 12:0.67200941 13:0.99967247 14:0.99975502 15:0.99974155 #
-0.0010000000000000000208166817117217 1:0.88243735 2:0.88906956 3:0.90972728 4:0 5:0 6:0 7:1 8:1 9:0 10:0.64544392 11:0.66664296 12:0.65294635 13:0.99669832 14:0.99663115 15:0.99688536 #
0.0010000000000000000208166817117217 1:0.0016539227 2:0.028493263 3:0.0060770153 4:0 5:0 6:0 7:0 8:0 9:0 10:0.17179035 11:0.07587564 12:0.053622492 13:0.99997497 14:0.99997741 15:0.99997908 #
-0.0010000000000000000208166817117217 1:0.0051102005 2:0.0076296777 3:0.038096458 4:0 5:0 6:0 7:0 8:0 9:0 10:0.094917618 11:0.038803931 12:0.013680385 13:0.99997127 14:0.9999733 15:0.99997514 #
0.0010000000000000000208166817117217 1:0.47937396 2:0.98934096 3:0.97116065 4:0 5:0 6:0 7:0 8:1 9:0 10:0.93527293 11:0.79876196 12:0.32804433 13:0.9997533 14:0.99970567 15:0.99973154 #
-0.0010000000000000000208166817117217 1:0.16551369 2:0.92353398 3:0.965415 4:0 5:0 6:0 7:0 8:0 9:0 10:0.8958714 11:0.81889313 12:0.91839176 13:0.99845469 14:0.99535787 15:0.99354029 #
0.0010000000000000000208166817117217 1:0.26771808 2:0.098501861 3:0.049645904 4:0 5:0 6:0 7:0 8:0 9:0 10:0.0073817205 11:0.31606486 12:0.70194328 13:0.99806321 14:0.9986738 15:0.99892557 #
-0.0010000000000000000208166817117217 1:0.024838893 2:0.0040705954 3:0.068393551 4:0 5:0 6:0 7:0 8:0 9:0 10:0.031332221 11:0.053859208 12:0.041405976 13:0.99997121 14:0.99997234 15:0.99997681 #
0.0010000000000000000208166817117217 1:0.48901385 2:0.98884517 3:0.9440611 4:0 5:0 6:0 7:0 8:0 9:0 10:0.98317772 11:0.88697302 12:0.36483598 13:0.99975055 14:0.99970388 15:0.99973255 #
-0.0010000000000000000208166817117217 1:0.8195644 2:0.8943131 3:0.82847154 4:0 5:0 6:0 7:0 8:0 9:0 10:0.80833232 11:0.84610081 12:0.81633788 13:0.99775922 14:0.99754792 15:0.99775594 #
0.0010000000000000000208166817117217 1:0.052948523 2:0.025383878 3:0.025926173 4:0 5:0 6:0 7:0 8:0 9:0 10:0.042503577 11:0.016398827 12:0.12287174 13:0.99997431 14:0.99997658 15:0.9999792 #
-0.0010000000000000000208166817117217 1:0.013452619 2:0.025629332 3:0.037533179 4:0 5:0 6:0 7:0 8:0 9:0 10:0.056877878 11:0.040022634 12:0.0051877024 13:0.99997425 14:0.99997485 15:0.99997908 #
0.0010000000000000000208166817117217 1:0.86195624 2:0.88939744 3:0.90469563 4:0 5:0 6:0 7:0 8:0 9:0 10:0.5475778 11:0.80108833 12:0.66563058 13:0.99516523 14:0.99321747 15:0.99252391 #
-0.0010000000000000000208166817117217 1:0.83275056 2:0.91908348 3:0.87577116 4:0 5:0 6:0 7:0 8:0 9:0 10:0.74044025 11:0.78526521 12:0.7524206 13:0.99784333 14:0.99764311 15:0.99779838 #
0.0010000000000000000208166817117217 1:0.028784633 2:0.0085702827 3:0.0088460743 4:0 5:0 6:0 7:0 8:0 9:0 10:0.061000891 11:0.073008582 12:0.079371296 13:0.99997348 14:0.99997425 15:0.99997741 #
-0.0010000000000000000208166817117217 1:0.02250997 2:0.034833856 3:0.11865216 4:0 5:0 6:0 7:0 8:0 9:0 10:0.040706854 11:0.0028923571 12:0.0012772795 13:0.99997276 14:0.99997443 15:0.99997604 #
0.0010000000000000000208166817117217 1:0.71153927 2:0.73047477 3:0.68301713 4:0 5:0 6:0 7:0 8:0 9:0 10:0.78914171 11:0.82531595 12:0.77149743 13:0.99810547 14:0.99800372 15:0.99819976 #
-0.0010000000000000000208166817117217 1:0.90831345 2:0.84212238 3:0.68855196 4:0 5:0 6:0 7:0 8:0 9:0 10:0.86193335 11:0.78126645 12:0.51204807 13:0.99821156 14:0.998124 15:0.99870288 #
0.0010000000000000000208166817117217 1:0.023260597 2:0.031315982 3:0.10200672 4:0 5:0 6:0 7:0 8:0 9:0 10:0.008057869 11:0.0094471248 12:0.058983106 13:0.99997562 14:0.99997753 15:0.99998081 #
-0.0010000000000000000208166817117217 1:7.5627329e-05 2:0.043915652 3:0.069536366 4:0 5:0 6:0 7:0 8:0 9:0 10:0.0084926775 11:0.068165608 12:0.019183297 13:0.99997938 14:0.99998009 15:0.99998218 #
0.0010000000000000000208166817117217 1:0.48932233 2:0.96300322 3:0.91205835 4:0 5:0 6:0 7:0 8:0 9:0 10:0.99039972 11:0.78338009 12:0.3064304 13:0.99975103 14:0.99970591 15:0.99974042 #
-0.0010000000000000000208166817117217 1:0.65283543 2:0.79605728 3:0.78397328 4:0 5:0 6:0 7:0 8:0 9:0 10:0.89768505 11:0.91169721 12:0.88361329 13:0.99818343 14:0.99794197 15:0.99808311 #
0.0010000000000000000208166817117217 1:0.085641786 2:0.045020193 3:0.0046444274 4:0 5:0 6:0 7:0 8:0 9:0 10:0.038456541 11:0.084058709 12:0.18298756 13:0.99996918 14:0.99997222 15:0.99997586 #
-0.0010000000000000000208166817117217 1:0.041449513 2:0.033238403 3:0.025491521 4:0 5:0 6:0 7:0 8:0 9:0 10:0.046030406 11:0.040158216 12:0.022681719 13:0.99996787 14:0.99996978 15:0.99997282 #
0.0010000000000000000208166817117217 1:0.89658773 2:0.46329382 3:0.3152087 4:0 5:0 6:0 7:0 8:0 9:0 10:0.87798333 11:0.89601314 12:0.86685038 13:0.99970686 14:0.99973935 15:0.99972516 #
-0.0010000000000000000208166817117217 1:0.86189461 2:0.44182888 3:0.32358807 4:0 5:0 6:0 7:0 8:0 9:0 10:0.9879297 11:0.98622137 12:0.9829666 13:0.99986255 14:0.99989718 15:0.99989742 #
0.0010000000000000000208166817117217 1:0.029461045 2:0.054020476 3:0.097370423 4:0 5:0 6:0 7:0 8:0 9:0 10:0.0032014956 11:0.050589148 12:0.14224964 13:0.99996966 14:0.99997211 15:0.99997431 #
-0.0010000000000000000208166817117217 1:0.021005889 2:0.036920216 3:0.11401586 4:0 5:0 6:0 7:0 8:0 9:0 10:0.018924609 11:0.020769199 12:0.037437957 13:0.999973 14:0.99997312 15:0.99997485 #
0.0010000000000000000208166817117217 1:0.87876463 2:0.45072246 3:0.30841699 4:0 5:0 6:0 7:0 8:0 9:0 10:0.74882108 11:0.87399089 12:0.8572523 13:0.99978185 14:0.99983162 15:0.99983293 #
-0.0010000000000000000208166817117217 1:0.90344697 2:0.33250323 3:0.0029459158 4:0 5:0 6:0 7:0 8:0 9:0 10:0.99023265 11:0.89750129 12:0.44044694 13:0.9999848 14:0.99998194 15:0.99997663 #
0.0010000000000000000208166817117217 1:0.013185146 2:0.084872335 3:0.13492422 4:0 5:0 6:0 7:0 8:0 9:0 10:0.076284908 11:0.047013536 12:0.19445927 13:0.99967754 14:0.99973857 15:0.99977678 #
-0.0010000000000000000208166817117217 1:0.037052836 2:0.080488287 3:0.17906894 4:0 5:0 6:0 7:0 8:0 9:0 10:0.029024825 11:0.022650542 12:0.00016414739 13:0.99997443 14:0.9999752 15:0.99997658 #
0.0010000000000000000208166817117217 1:0.97670949 2:0.3611809 3:0.11221085 4:0 5:0 6:0 7:0 8:0 9:0 10:0.78336591 11:0.81753153 12:0.87103939 13:0.99643832 14:0.99734926 15:0.99835801 #
-0.0010000000000000000208166817117217 1:0.80537528 2:0.42919064 3:0.31688458 4:0 5:0 6:0 7:0 8:0 9:0 10:0.96440017 11:0.9719224 12:0.94100517 13:0.99982333 14:0.99988985 15:0.99990129 #
0.0010000000000000000208166817117217 1:0.033744991 2:0.06887044 3:0.085924558 4:0 5:0 6:0 7:0 8:0 9:0 10:0.10453673 11:0.04486908 12:0.019778734 13:0.99997258 14:0.99997479 15:0.99997741 #
-0.0010000000000000000208166817117217 1:0.0080413204 2:0.01769329 3:0.094907388 4:0 5:0 6:0 7:0 8:0 9:0 10:0.03895643 11:0.0032547442 12:0.053315248 13:0.99997157 14:0.99997336 15:0.99997717 #
0.0010000000000000000208166817117217 1:0.27337134 2:0.33893025 3:0.375503 4:0 5:0 6:0 7:0 8:0 9:0 10:1 11:0.93232465 12:0.931077 13:0.9940663 14:0.99443352 15:0.9938724 #
-0.0010000000000000000208166817117217 1:0.41499057 2:0.52337766 3:0.44883353 4:0 5:0 6:0 7:0 8:0 9:0 10:0.97411573 11:0.99709797 12:0.96192962 13:0.9994778 14:0.99963242 15:0.99988735 #
0.0010000000000000000208166817117217 1:0.21400887 2:0.19589286 3:0.083751291 4:0 5:0 6:0 7:0 8:0 9:0 10:0.064225189 11:0.0069216108 12:0.0003863693 13:0.99997073 14:0.99997133 15:0.99997181 #
-0.0010000000000000000208166817117217 1:0.043665703 2:0.01679299 3:0.090834364 4:0 5:0 6:0 7:0 8:0 9:0 10:0.025065118 11:0.023160763 12:0.051824536 13:0.99997115 14:0.99997163 15:0.9999733 #
0.0010000000000000000208166817117217 1:0.33727401 2:0.48776957 3:0.61324376 4:0 5:0 6:0 7:0 8:0 9:0 10:0.91572142 11:0.89509404 12:0.81813669 13:0.99861896 14:0.99869418 15:0.99896854 #
-0.0010000000000000000208166817117217 1:0.69125283 2:0.80761683 3:0.78946823 4:0 5:0 6:0 7:0 8:0 9:0 10:0.86535174 11:0.89279819 12:0.85104418 13:0.99820411 14:0.99798524 15:0.99812949 #
0.0010000000000000000208166817117217 1:0.1083016 2:0.073001944 3:0.018681955 4:0 5:0 6:0 7:0 8:0 9:0 10:0.021924807 11:0.039601106 12:0.0087015573 13:0.99997681 14:0.99997944 15:0.99998307 #
-0.0010000000000000000208166817117217 1:0.023824275 2:0.0036612039 3:0.014061911 4:0 5:0 6:0 7:0 8:0 9:0 10:0.024269044 11:0.048581462 12:0.085930608 13:0.99997056 14:0.99997151 15:0.99997473 #
0.0010000000000000000208166817117217 1:0.66919571 2:0.73738521 3:0.77107096 4:0 5:0 6:0 7:0 8:0 9:0 10:0.78186721 11:0.83897537 12:0.68813133 13:0.99588817 14:0.99447519 15:0.99390298 #
-0.0010000000000000000208166817117217 1:0.822227 2:0.90929329 3:0.84527963 4:0 5:0 6:0 7:0 8:0 9:0 10:0.75749046 11:0.79972619 12:0.76723546 13:0.99790096 14:0.99770242 15:0.99788606 #
0.0010000000000000000208166817117217 1:0.058535531 2:0.04495718 3:0.018920926 4:0 5:0 6:0 7:0 8:0 9:0 10:0.22341636 11:0.0060910773 12:0.071344182 13:0.99971551 14:0.99981177 15:0.99987715 #
-0.0010000000000000000208166817117217 1:0.03419593 2:0.017570563 3:0.018537071 4:0 5:0 6:0 7:0 8:0 9:0 10:0.041250214 11:0.041750442 12:0.048708972 13:0.99997556 14:0.99997675 15:0.99997848 #
0.0010000000000000000208166817117217 1:0.70174736 2:0.81226689 3:0.94673496 4:0 5:0 6:0 7:0 8:0 9:0 10:0.63659632 11:0.58930761 12:0.75235558 13:0.99928427 14:0.99938089 15:0.99991858 #
-0.0010000000000000000208166817117217 1:0.83209592 2:0.83930284 3:0.86245453 4:0 5:0 6:0 7:0 8:0 9:0 10:0.68531996 11:0.69506234 12:0.72743046 13:0.99618179 14:0.99613714 15:0.99642009 #
0.0010000000000000000208166817117217 1:0.0088689877 2:0.021456616 3:0.0084114214 4:0 5:0 6:0 7:0 8:0 9:0 10:0.11952893 11:0.085477322 12:0.04469946 13:0.99997193 14:0.99997348 15:0.99997693 #
-0.0010000000000000000208166817117217 1:0.0063502896 2:0.0093478551 3:0.068683319 4:0 5:0 6:0 7:0 8:0 9:0 10:0.045435712 11:0.033475216 12:0.052275792 13:0.99997252 14:0.99997443 15:0.99997795 #
0.0010000000000000000208166817117217 1:0.70434088 2:0.80135566 3:0.88957244 4:0 5:0 6:0 7:0 8:0 9:0 10:0.64051193 11:0.67516416 12:0.72467613 13:0.99926943 14:0.99935311 15:0.99961525 #
-0.0010000000000000000208166817117217 1:0.32786244 2:0.91654277 3:0.92995846 4:0 5:0 6:0 7:0 8:0 9:0 10:0.87774903 11:0.71014464 12:0.79270887 13:0.99809426 14:0.99534857 15:0.99369365 #
0.0010000000000000000208166817117217 1:0.20212673 2:0.091931291 3:0.02276969 4:0 5:0 6:0 7:0 8:0 9:0 10:0.0018648012 11:0.0024811674 12:0.027112452 13:0.99975282 14:0.99982703 15:0.99987203 #
-0.0010000000000000000208166817117217 1:0.014918179 2:0.0034157501 3:0.061277956 4:0 5:0 6:0 7:0 8:0 9:0 10:0.014583327 11:0.04594909 12:0.080001406 13:0.99997467 14:0.99997586 15:0.99997717 #
0.0010000000000000000208166817117217 1:0.5323053 2:0.6989693 3:0.75563037 4:0 5:0 6:0 7:0 8:0 9:0 10:0.65899706 11:0.77400571 12:0.80469185 13:0.99891442 14:0.99910694 15:0.9993757 #
-0.0010000000000000000208166817117217 1:0.62628126 2:0.04780785 3:0.22281313 4:0 5:0 6:0 7:0 8:0 9:0 10:0.8870151 11:0.79145426 12:0.36573109 13:0.99992961 14:0.99991351 15:0.99991137 #
0.0010000000000000000208166817117217 1:0.055725597 2:0.75412178 3:6.1450133e-05 4:0 5:0 6:0 7:0 8:0 9:0 10:0.92519134 11:0.93680799 12:0.37078872 13:0.99972159 14:0.9999541 15:0.99995869 #
-0.0010000000000000000208166817117217 1:0.40216821 2:0.94107562 3:0.044425242 4:0 5:0 6:0 7:0 8:0 9:0 10:0.94454175 11:0.83677965 12:0.12205745 13:0.99958795 14:0.99953896 15:0.99993974 #
0.0010000000000000000208166817117217 1:0.060304862 2:0.030951703 3:0.076296456 4:0 5:0 6:0 7:0 8:0 9:0 10:0.45164761 11:0.0052356645 12:0.23888198 13:0.99978304 14:0.99985385 15:0.99988973 #
-0.0010000000000000000208166817117217 1:0.0062375544 2:0.027511448 3:0.13619943 4:0 5:0 6:0 7:0 8:0 9:0 10:0.040637605 11:0.014001398 12:0.077889904 13:0.99996823 14:0.99997032 15:0.99997491 #
0.0010000000000000000208166817117217 1:0.48330703 2:0.9032011 3:0.80893254 4:0 5:0 6:0 7:0 8:0 9:0 10:0.95306075 11:0.69475901 12:0.25694895 13:0.999749 14:0.99971783 15:0.9997679 #
-0.0010000000000000000208166817117217 1:0.30073583 2:0.89433122 3:0.91885823 4:0 5:0 6:0 7:0 8:0 9:0 10:0.85604578 11:0.73635799 12:0.81465161 13:0.99801308 14:0.99534267 15:0.99366146 #
0.0010000000000000000208166817117217 1:0.21835586 2:0.09464515 3:0.003672438 4:0 5:0 6:0 7:0 8:0 9:0 10:0.023740865 11:0.14346595 12:0.0085936524 13:0.99881816 14:0.99896389 15:0.99911678 #
-0.0010000000000000000208166817117217 1:0.073766053 2:0.038802329 3:0.054903045 4:0 5:0 6:0 7:0 8:0 9:0 10:0.025787378 11:0.025606435 12:0.038409505 13:0.99997956 14:0.99998039 15:0.99998146 #
0.0010000000000000000208166817117217 1:0.33087671 2:0.45219591 3:0.53984195 4:0 5:0 6:0 7:0 8:0 9:0 10:0.91210818 11:0.86694616 12:0.86467475 13:0.99851936 14:0.99854696 15:0.99867469 #
-0.0010000000000000000208166817117217 1:0.56130636 2:0.66091222 3:0.47663146 4:0 5:0 6:0 7:0 8:0 9:0 10:0.96600574 11:0.97657627 12:0.96838182 13:0.99953443 14:0.99968368 15:0.99983698 #
0.0010000000000000000208166817117217 1:0.024275217 2:0.030456895 3:0.075492881 4:0 5:0 6:0 7:0 8:0 9:0 10:0.047529094 11:0.025490386 12:0.060551777 13:0.99997729 14:0.99997884 15:0.99998206 #
-0.0010000000000000000208166817117217 1:0.038028933 2:0.011802395 3:0.08503899 4:0 5:0 6:0 7:0 8:0 9:0 10:0.011641964 11:0.044053316 12:0.069466621 13:0.999964 14:0.99996531 15:0.99996632 #
0.0010000000000000000208166817117217 1:0.89515811 2:0.46061906 3:0.3104457 4:0 5:0 6:0 7:0 8:0 9:0 10:0.83293569 11:0.8589443 12:0.78616011 13:0.99965841 14:0.99968594 15:0.99971336 #
-0.0010000000000000000208166817117217 1:0.76248538 2:0.40973178 3:0.30506524 4:0 5:0 6:0 7:0 8:0 9:0 10:0.96479249 11:0.96054524 12:0.93705916 13:0.99978036 14:0.99985808 15:0.99988002 #
0.0010000000000000000208166817117217 1:0.029274093 2:0.050174728 3:0.058525156 4:0 5:0 6:0 7:0 8:0 9:0 10:0.028399786 11:0.053690143 12:0.074621961 13:0.99997199 14:0.99997324 15:0.99997568 #
-0.0010000000000000000208166817117217 1:0.074216992 2:0.066293173 3:0.063885875 4:0 5:0 6:0 7:0 8:0 9:0 10:0.030616932 11:0.0013337691 12:0.03827966 13:0.99997491 14:0.99997628 15:0.99997658 #
0.0010000000000000000208166817117217 1:0.5555656 2:0.37014532 3:0.28345528 4:0 5:0 6:0 7:0 8:0 9:0 10:0.90303993 11:0.91455942 12:0.85311687 13:0.99947387 14:0.99967384 15:0.99973035 #
-0.0010000000000000000208166817117217 1:0.50552779 2:0.13876131 3:0.071952082 4:0 5:0 6:0 7:0 8:0 9:0 10:0.98130018 11:0.98251861 12:0.97567827 13:0.99995226 14:0.99986732 15:0.99981594 #
0.0010000000000000000208166817117217 1:0.12618801 2:0.14680207 3:0.085055247 4:0 5:0 6:0 7:0 8:0 9:0 10:0.02904997 11:0.038213201 12:0.018814806 13:0.99997473 14:0.99997628 15:0.99997771 #
-0.0010000000000000000208166817117217 1:0.15711603 2:0.1351018 3:0.24644017 4:0 5:0 6:0 7:0 8:0 9:0 10:0.01557032 11:0.018261937 12:0.0043699765 13:0.99996984 14:0.99997252 15:0.99997389 #
0.0010000000000000000208166817117217 1:0.65173793 2:0.23097016 3:0.10606444 4:0 5:0 6:0 7:0 8:0 9:0 10:0.90817916 11:0.91947931 12:0.91810834 13:0.99743855 14:0.99822158 15:0.9986763 #
-0.0010000000000000000208166817117217 1:0.84059501 2:0.32326952 3:0.014017705 4:0 5:0 6:0 7:0 8:0 9:0 10:0.98657608 11:0.89017886 12:0.42793396 13:0.99997324 14:0.99997818 15:0.99997634 #
0.0010000000000000000208166817117217 1:0.035323285 2:0.10532035 3:0.18212777 4:0 5:0 6:0 7:0 8:0 9:0 10:0.051557787 11:0.01827215 12:0.1003046 13:0.99997437 14:0.99997741 15:0.99998116 #
-0.0010000000000000000208166817117217 1:0.022584185 2:0.031315982 3:0.067669123 4:0 5:0 6:0 7:0 8:0 9:0 10:0.0062714065 11:0.054545611 12:0.062642619 13:0.99997437 14:0.99997616 15:0.99997926 #
0.0010000000000000000208166817117217 1:0.89724761 2:0.33722153 3:0.097441114 4:0 5:0 6:0 7:0 8:0 9:0 10:0.78928882 11:0.81355858 12:0.88679135 13:0.99663728 14:0.99748451 15:0.99846232 #
-0.0010000000000000000208166817117217 1:0.75266838 2:0.40117255 3:0.27507591 4:0 5:0 6:0 7:0 8:0 9:0 10:0.93035203 11:0.96397811 12:0.94906396 13:0.99979192 14:0.99983668 15:0.9998517 #
0.0010000000000000000208166817117217 1:0.019353379 2:0.00087969413 3:0.046644635 4:0 5:0 6:0 7:0 8:0 9:0 10:0.15080634 11:0.070250787 12:0.00591429 13:0.99997067 14:0.99997246 15:0.99997455 #
-0.0010000000000000000208166817117217 1:0.071398608 2:0.021620553 3:0.08996506 4:0 5:0 6:0 7:0 8:0 9:0 10:0.016083043 11:0.020769572 12:0.095887795 13:0.99997872 14:0.99997914 15:0.99997944 #
0.0010000000000000000208166817117217 1:0.58644629 2:0.38104498 3:0.28424913 4:0 5:0 6:0 7:0 8:0 9:0 10:0.88885117 11:0.89998394 12:0.8221038 13:0.99947625 14:0.99966544 15:0.99968958 #
-0.0010000000000000000208166817117217 1:0.72607666 2:0.42023018 3:0.28248504 4:0 5:0 6:0 7:0 8:0 9:0 10:0.94550323 11:0.9714734 12:0.93646473 13:0.99976248 14:0.99987245 15:0.99986571 #
0.0010000000000000000208166817117217 1:0.015745847 2:0.020147828 3:0.029999191 4:0 5:0 6:0 7:0 8:0 9:0 10:0.1355675 11:0.074820437 12:0.022751279 13:0.999973 14:0.99997574 15:0.99997729 #
-0.0010000000000000000208166817117217 1:0.00082625577 2:0.067970142 3:0.042459246 4:0 5:0 6:0 7:0 8:0 9:0 10:0.085761391 11:0.01128126 12:0.032375347 13:0.99997193 14:0.99997199 15:0.99997652 #
0.0010000000000000000208166817117217 1:0.88839102 2:0.45847926 3:0.30118427 4:0 5:0 6:0 7:0 8:0 9:0 10:0.77486247 11:0.83544421 12:0.75595564 13:0.99957615 14:0.99958134 15:0.99958611 #
-0.0010000000000000000208166817117217 1:0.89334971 2:0.78742355 3:0.58156061 4:0 5:0 6:0 7:0 8:0 9:0 10:0.86481172 11:0.79914498 12:0.67626679 13:0.99821138 14:0.99822968 15:0.99883831 #
0.0010000000000000000208166817117217 1:0.0060120835 2:0.050215937 3:0.010584687 4:0 5:0 6:0 7:0 8:0 9:0 10:0.20210704 11:0.12696758 12:0.018308833 13:0.99996966 14:0.99997252 15:0.99997336 #
-0.0010000000000000000208166817117217 1:0.024088265 2:0.014134208 3:0.0073809745 4:0 5:0 6:0 7:0 8:0 9:0 10:0.048749223 11:0.034733757 12:0.073489912 13:0.99997097 14:0.99997294 15:0.9999758 #
0.0010000000000000000208166817117217 1:0.72802818 2:0.83065158 3:0.90256393 4:0 5:0 6:0 7:0 8:0 9:0 10:0.49167258 11:0.62943679 12:0.70487452 13:0.99901062 14:0.99911898 15:0.99955744 #
-0.0010000000000000000208166817117217 1:0.76504469 2:0.85149574 3:0.79550189 4:0 5:0 6:0 7:0 8:0 9:0 10:0.70679027 11:0.74473071 12:0.69394344 13:0.99783927 14:0.99765915 15:0.99784726 #
0.0010000000000000000208166817117217 1:0.0055242809 2:0.68480337 3:0.0054268544 4:0 5:0 6:0 7:0 8:0 9:0 10:0.95422232 11:0.95771796 12:0.3659533 13:0.99971139 14:0.99994302 15:0.99996096 #
-0.0010000000000000000208166817117217 1:0.012629529 2:0.091596454 3:0.090008661 4:0 5:0 6:0 7:0 8:0 9:0 10:0.82583928 11:0.82180822 12:0.03016221 13:0.99964267 14:0.9997384 15:0.99988842 #
0.0010000000000000000208166817117217 1:0.95107281 2:0.94931376 3:0.92408061 4:0 5:0 6:0 7:0 8:0 9:0 10:0.5147602 11:0.44338715 12:0.38033116 13:0.99999958 14:1 15:0.99999899 #
-0.0010000000000000000208166817117217 1:0.70951062 2:0.78980571 3:0.75412822 4:0 5:0 6:0 7:0 8:0 9:0 10:0.63250792 11:0.68115669 12:0.63907623 13:0.99754155 14:0.99734598 15:0.99748534 #
0.0010000000000000000208166817117217 1:0.18565549 2:0.011745531 3:0.0049694953 4:0 5:0 6:0 7:0 8:0 9:0 10:0.85990357 11:0.83179694 12:0.050258432 13:0.99959624 14:0.99971068 15:0.99989802 #
-0.0010000000000000000208166817117217 1:0.06745287 2:0.032788709 3:0.021000104 4:0 5:0 6:0 7:0 8:0 9:0 10:0.063886322 11:0.074022107 12:0.0037599183 13:0.99996632 14:0.99996698 15:0.99996865 #
0.0010000000000000000208166817117217 1:0.50256646 2:0.59643358 3:0.68196869 4:0 5:0 6:0 7:0 8:0 9:0 10:0.78597546 11:0.7580024 12:0.86554658 13:0.99881935 14:0.99888247 15:0.99913609 #
-0.0010000000000000000208166817117217 1:0.63725358 2:0.74808031 3:0.48385033 4:0 5:0 6:0 7:0 8:0 9:0 10:0.92462039 11:0.94219232 12:0.96781605 13:0.99948251 14:0.99965924 15:0.99979025 #
0.0010000000000000000208166817117217 1:0.045018528 2:0.022683885 3:0.01984103 4:0 5:0 6:0 7:0 8:0 9:0 10:0.081273556 11:0.055650894 12:0.04874764 13:0.99997473 14:0.99997514 15:0.99997818 #
-0.0010000000000000000208166817117217 1:0.021157146 2:0.058151983 3:0.10126604 4:0 5:0 6:0 7:0 8:0 9:0 10:0.093859635 11:0.024120396 12:0.0088385539 13:0.999973 14:0.99997389 15:0.99997586 #
0.0010000000000000000208166817117217 1:0.94341767 2:0.3582679 3:0.11147694 4:0 5:0 6:0 7:0 8:0 9:0 10:0.74499565 11:0.7724306 12:0.8865 13:0.99652267 14:0.99735349 15:0.9983542 #
-0.0010000000000000000208166817117217 1:0.94072378 2:0.84407866 3:0.0578411 4:0 5:0 6:0 7:0 8:0 9:0 10:0.98614532 11:0.98806983 12:0.42815274 13:0.99998033 14:0.99998713 15:0.9999637 #
0.0010000000000000000208166817117217 1:0.017398357 2:0.003538477 3:0.10068651 4:0 5:0 6:0 7:0 8:0 9:0 10:0.091226086 11:0.033024207 12:0.044983428 13:0.99997044 14:0.99997205 15:0.99997288 #
-0.0010000000000000000208166817117217 1:0.0054484066 2:0.0014521184 3:0.017088227 4:0 5:0 6:0 7:0 8:0 9:0 10:0.016049905 11:0.074587747 12:0.11001507 13:0.9999792 14:0.99998045 15:0.99998283 #
0.0010000000000000000208166817117217 1:0.47559515 2:0.94193304 3:0.88833308 4:0 5:0 6:0 7:0 8:0 9:0 10:0.89737314 11:0.65681833 12:0.22377463 13:0.99974048 14:0.99969512 15:0.99972898 #
-0.0010000000000000000208166817117217 1:0.17921402 2:0.83883876 3:0.91546392 4:0 5:0 6:0 7:0 8:0 9:0 10:0.81266564 11:0.68770933 12:0.84358776 13:0.99808228 14:0.99533588 15:0.99350268 #
0.0010000000000000000208166817117217 1:0.061477896 2:0.054265928 3:0.025201751 4:0 5:0 6:0 7:0 8:0 9:0 10:0.063182108 11:0.098139778 12:0.20640154 13:0.99996912 14:0.99997056 15:0.99997145 #
-0.0010000000000000000208166817117217 1:0.041787721 2:0.024811454 3:0.18401127 4:0 5:0 6:0 7:0 8:0 9:0 10:0.096594982 11:0.027250865 12:0.017436001 13:0.99997354 14:0.99997646 15:0.99998212 #
0.0010000000000000000208166817117217 1:0.40211153 2:0.55667478 3:0.61714125 4:0 5:0 6:0 7:0 8:0 9:0 10:0.83861703 11:0.8306427 12:0.83895743 13:0.99864304 14:0.99871105 15:0.99885404 #
-0.0010000000000000000208166817117217 1:0.69506985 2:0.6815542 3:0.44086045 4:0 5:0 6:0 7:0 8:0 9:0 10:0.96337551 11:0.97093529 12:0.91567391 13:0.9995839 14:0.99960834 15:0.9996953 #
0.0010000000000000000208166817117217 1:0.026906651 2:0.020842981 3:0.059990253 4:0 5:0 6:0 7:0 8:0 9:0 10:0.073868841 11:0.049680918 12:0.048328407 13:0.99997336 14:0.99997556 15:0.99997973 #
-0.0010000000000000000208166817117217 1:0.026117502 2:0.0099614905 3:0.049848348 4:0 5:0 6:0 7:0 8:0 9:0 10:0.084090941 11:0.021555159 12:0.059267513 13:0.9999693 14:0.99997193 15:0.99997568 #
0.0010000000000000000208166817117217 1:0.88886756 2:0.44597474 3:0.30471241 4:0 5:0 6:0 7:0 8:0 9:0 10:0.67932379 11:0.84471077 12:0.80861408 13:0.99977183 14:0.99980932 15:0.99981886 #
-0.0010000000000000000208166817117217 1:0.83806938 2:0.60105968 3:0.3815141 4:0 5:0 6:0 7:0 8:0 9:0 10:0.8968209 11:0.87530035 12:0.81336641 13:0.99829382 14:0.99848479 15:0.9990629 #
0.0010000000000000000208166817117217 1:0.037052836 2:0.0655156 3:0.058235385 4:0 5:0 6:0 7:0 8:0 9:0 10:0.13038278 11:0.080600098 12:0.0162706 13:0.99997836 14:0.99997979 15:0.99998224 #
-0.0010000000000000000208166817117217 1:0.018300241 2:0.013152392 3:0.057092566 4:0 5:0 6:0 7:0 8:0 9:0 10:0.078714542 11:0.056682333 12:0.041956168 13:0.99997526 14:0.99997693 15:0.99998033 #
0.0010000000000000000208166817117217 1:0.10427812 2:0.78754717 3:0.0029580551 4:0 5:0 6:0 7:0 8:0 9:0 10:0.95090514 11:0.95854098 12:0.39038366 13:0.99973702 14:0.99996692 15:0.99995923 #
-0.0010000000000000000208166817117217 1:0.042103153 2:0.13234998 3:0.021129502 4:0 5:0 6:0 7:0 8:0 9:0 10:0.84512293 11:0.79466468 12:0.017265171 13:0.99966264 14:0.99976879 15:0.99993205 #
0.0010000000000000000208166817117217 1:0.55107713 2:0.70273614 3:0.80898881 4:0 5:0 6:0 7:0 8:0 9:0 10:0.031147225 11:0.093089335 12:0.25988355 13:0.99622303 14:0.99695563 15:0.9970094 #
-0.0010000000000000000208166817117217 1:0.65006936 2:0.58996916 3:0.5653469 4:0 5:0 6:0 7:0 8:0 9:0 10:0.096297488 11:0.10375822 12:0.11157579 13:0.99997723 14:0.99997658 15:0.99997717 #
0.0010000000000000000208166817117217 1:0.13181092 2:0.010456688 3:0.0067127803 4:0 5:0 6:0 7:0 8:0 9:0 10:0.90469277 11:0.92434353 12:0.85615766 13:0.99852872 14:0.99919534 15:0.9992308 #
-0.0010000000000000000208166817117217 1:0.097223893 2:0.21682756 3:0.18651144 4:0 5:0 6:0 7:0 8:0 9:0 10:0.91953313 11:0.98321974 12:0.95614332 13:0.99758834 14:0.99665099 15:0.99633437 #
0.0010000000000000000208166817117217 1:0.38965061 2:0.33739707 3:0.21834886 4:0 5:0 6:0 7:0 8:0 9:0 10:0.01294178 11:0.020413492 12:0.01099714 13:0.9999795 14:0.99997962 15:0.99997944 #
-0.0010000000000000000208166817117217 1:0.55672443 2:0.54775107 3:0.45190245 4:0 5:0 6:0 7:0 8:0 9:0 10:0.0056386422 11:0.045447186 12:0.048347332 13:0.99998254 14:0.99998283 15:0.99998236 #
0.0010000000000000000208166817117217 1:0.26031989 2:0.02582272 3:0.0037911576 4:0 5:0 6:0 7:0 8:0 9:0 10:0.92334384 11:0.93270957 12:0.93913251 13:0.99825341 14:0.99913192 15:0.99937034 #
-0.0010000000000000000208166817117217 1:0.10906839 2:0.0048365192 3:0.014662045 4:0 5:0 6:0 7:0 8:0 9:0 10:0.90605736 11:0.94250673 12:0.96392471 13:0.99855179 14:0.99925536 15:0.99941254 #
0.0010000000000000000208166817117217 1:0.64537179 2:0.75453573 3:0.84613192 4:0 5:0 6:0 7:0 8:0 9:0 10:0.25527361 11:0.16456248 12:0.098330222 13:0.99776381 14:0.99832898 15:0.9982003 #
-0.0010000000000000000208166817117217 1:0.68513006 2:0.64139175 3:0.61170989 4:0 5:0 6:0 7:0 8:0 9:0 10:0.24397197 11:0.14741737 12:0.155452 13:0.99998808 14:0.99998736 15:0.99998754 #
0.0010000000000000000208166817117217 1:0.089202933 2:4.2741896e-05 3:0.0021398836 4:0 5:0 6:0 7:0 8:0 9:0 10:0.86042738 11:0.90431017 12:0.91992921 13:0.99863136 14:0.9992308 15:0.99932206 #
-0.0010000000000000000208166817117217 1:0.040703811 2:0.038627226 3:0.064337872 4:0 5:0 6:0 7:0 8:0 9:0 10:0.93099713 11:0.95628303 12:0.95463365 13:0.99875706 14:0.9994269 15:0.9997285 #
0.0010000000000000000208166817117217 1:0.76697594 2:0.75773692 3:0.66937387 4:0 5:0 6:0 7:0 8:0 9:0 10:0.20355421 11:0.14832664 12:0.12316164 13:0.99999541 14:0.99999529 15:0.99999398 #
-0.0010000000000000000208166817117217 1:0.52865332 2:0.50504214 3:0.48899284 4:0 5:0 6:0 7:0 8:0 9:0 10:0.059005007 11:0.015500875 12:0.024857309 13:0.99998039 14:0.99998057 15:0.99998128 #
0.0010000000000000000208166817117217 1:0.096464097 2:0.019255828 3:0.029156562 4:0 5:0 6:0 7:0 8:0 9:0 10:0.85486609 11:0.93612826 12:0.94223213 13:0.99862659 14:0.99931872 15:0.9995299 #
-0.0010000000000000000208166817117217 1:0.44360238 2:0.12375941 3:0.062182043 4:0 5:0 6:0 7:0 8:0 9:0 10:0.97385335 11:0.98062515 12:0.98394084 13:0.99981064 14:0.99980897 15:0.9998014 #
0.0010000000000000000208166817117217 1:0.43429384 2:0.40821052 3:0.35656855 4:0 5:0 6:0 7:0 8:0 9:0 10:0.036102723 11:0.0037747549 12:0.013498438 13:0.99998599 14:0.99998623 15:0.99998671 #
-0.0010000000000000000208166817117217 1:0.48968542 2:0.48340094 3:0.52968907 4:0 5:0 6:0 7:0 8:0 9:0 10:0.050756469 11:0.039530784 12:0.0075190095 13:0.99996209 14:0.99996501 15:0.99996847 #
0.0010000000000000000208166817117217 1:0.19716144 2:0.014899 3:0.0086532421 4:0 5:0 6:0 7:0 8:0 9:0 10:0.88068861 11:0.92522556 12:0.94192666 13:0.99837035 14:0.99911922 15:0.99937499 #
-0.0010000000000000000208166817117217 1:0.020701349 2:0.0385544 3:0.059888609 4:0 5:0 6:0 7:0 8:0 9:0 10:0.87296933 11:0.95365852 12:0.96733958 13:0.99877298 14:0.99939054 15:0.9997009 #
0.0010000000000000000208166817117217 1:0.76663774 2:0.71748251 3:0.61678088 4:0 5:0 6:0 7:0 8:0 9:0 10:0.21755534 11:0.15360452 12:0.08853332 13:0.99999231 14:0.99999201 15:0.99999082 #
-0.0010000000000000000208166817117217 1:0.52639866 2:0.51633298 3:0.45784271 4:0 5:0 6:0 7:0 8:0 9:0 10:0.05389275 11:0.012948542 12:0.010696555 13:0.99998242 14:0.99998295 15:0.99998355 #
0.0010000000000000000208166817117217 1:0.093587033 2:0.002506126 3:0.026220964 4:0 5:0 6:0 7:0 8:0 9:0 10:0.91026497 11:0.89085567 12:0.89260334 13:0.998586 14:0.99917251 15:0.99946088 #
-0.0010000000000000000208166817117217 1:0.43469718 2:0.12456048 3:0.060668375 4:0 5:0 6:0 7:0 8:0 9:0 10:0.97989738 11:0.97537845 12:0.98115855 13:0.99979627 14:0.99980813 15:0.99976611 #
0.0010000000000000000208166817117217 1:0.38142094 2:0.37237424 3:0.32005769 4:0 5:0 6:0 7:0 8:0 9:0 10:0.0019020237 11:0.048852433 12:0.014311436 13:0.9999854 14:0.99998653 15:0.99998647 #
-0.0010000000000000000208166817117217 1:0.29995176 2:0.345824 3:0.36350673 4:0 5:0 6:0 7:0 8:0 9:0 10:0.023289083 11:0.0012379963 12:0.010392559 13:0.9999634 14:0.99996495 15:0.99996859 #
0.0010000000000000000208166817117217 1:0.14153814 2:0.0098012649 3:0.012597953 4:0 5:0 6:0 7:0 8:0 9:0 10:0.88931495 11:0.91071838 12:0.93692172 13:0.99846107 14:0.99913698 15:0.99934351 #
-0.0010000000000000000208166817117217 1:0.090846971 2:0.020712325 3:0.034844283 4:0 5:0 6:0 7:0 8:0 9:0 10:0.91783822 11:0.94161892 12:0.96400547 13:0.99862421 14:0.99932885 15:0.9995575 #
0.0010000000000000000208166817117217 1:0.55548435 2:0.6100964 3:0.64937985 4:0 5:0 6:0 7:0 8:0 9:0 10:0.11329586 11:0.092880391 12:0.084484287 13:0.99998623 14:0.99998832 15:0.99998939 #
-0.0010000000000000000208166817117217 1:0.56172335 2:0.56476891 3:0.53157258 4:0 5:0 6:0 7:0 8:0 9:0 10:0.18025322 11:0.028931135 12:0.082973078 13:0.9999609 14:0.99996305 15:0.99996829 #
0.0010000000000000000208166817117217 1:0.16414367 2:0.01307838 3:0.011359497 4:0 5:0 6:0 7:0 8:0 9:0 10:0.8598581 11:0.92751408 12:0.96027088 13:0.99846423 14:0.99915558 15:0.99942249 #
-0.0010000000000000000208166817117217 1:0.36537358 2:0.11378241 3:0.062778339 4:0 5:0 6:0 7:0 8:0 9:0 10:0.94973397 11:0.9859277 12:0.98815936 13:0.99963081 14:0.99977857 15:0.99979985 #
0.0010000000000000000208166817117217 1:0.42008916 2:0.4712922 3:0.35888669 4:0 5:0 6:0 7:0 8:0 9:0 10:0.060080521 11:0.0023359782 12:0.046848059 13:0.99998003 14:0.99998236 15:0.99998176 #
-0.0010000000000000000208166817117217 1:0.44658199 2:0.4358241 3:0.3394722 4:0 5:0 6:0 7:0 8:0 9:0 10:0.029402973 11:0.015546951 12:0.0049889609 13:0.99998075 14:0.99998146 15:0.99998146 #
0.0010000000000000000208166817117217 1:0.19592839 2:0.023201026 3:0.008561505 4:0 5:0 6:0 7:0 8:0 9:0 10:0.88048446 11:0.9277491 12:0.93014991 13:0.99830753 14:0.99905586 15:0.99928141 #
-0.0010000000000000000208166817117217 1:0.014923453 2:0.0043866462 3:0.056299236 4:0 5:0 6:0 7:0 8:0 9:0 10:0.8857649 11:1 12:0.90617502 13:0.99779332 14:0.99736786 15:0.9972679 #
0.0010000000000000000208166817117217 1:0.84724355 2:0.7951687 3:0.67531413 4:0 5:0 6:0 7:0 8:0 9:0 10:0.16299286 11:0.16618545 12:0.22861628 13:0.99999863 14:0.99999785 15:0.99999595 #
-0.0010000000000000000208166817117217 1:0.63586468 2:0.54112387 3:0.40162757 4:0 5:0 6:0 7:0 8:0 9:0 10:0.041276056 11:0.068920843 12:0.13141246 13:0.99998295 14:0.99998176 15:0.99998063 #
0.0010000000000000000208166817117217 1:0.13400297 2:0.0001029077 3:0.016221581 4:0 5:0 6:0 7:0 8:0 9:0 10:0.88113868 11:0.88232327 12:0.93395782 13:0.99854702 14:0.99923337 15:0.99946851 #
-0.0010000000000000000208166817117217 1:0.57499969 2:0.67447692 3:0.49893448 4:0 5:0 6:0 7:0 8:0 9:0 10:0.94884068 11:0.96586555 12:0.96397573 13:0.99960458 14:0.99977994 15:0.99994928 #
0.0010000000000000000208166817117217 1:0.1376128 2:0.13215634 3:0.11024887 4:0 5:0 6:0 7:0 8:0 9:0 10:0.033005495 11:0.020809354 12:0.0061148927 13:0.99996817 14:0.99997014 15:0.99997413 #
-0.0010000000000000000208166817117217 1:0.013491139 2:0.022806613 3:0.0060932711 4:0 5:0 6:0 7:0 8:0 9:0 10:0.01190141 11:0.10094196 12:0.076724656 13:0.99997652 14:0.99997818 15:0.99998152 #
0.0010000000000000000208166817117217 1:0.46911713 2:0.9257586 3:0.84963459 4:0 5:0 6:0 7:0 8:0 9:0 10:0.91136533 11:0.67466474 12:0.20293364 13:0.99973828 14:0.99969363 15:0.99973702 #
-0.0010000000000000000208166817117217 1:0.88887006 2:0.83510113 3:0.70160615 4:0 5:0 6:0 7:0 8:0 9:0 10:0.79301828 11:0.66212249 12:0.36750856 13:0.99807549 14:0.99798143 15:0.99851274 #
0.0010000000000000000208166817117217 1:0.10441028 2:0.010529513 3:0.0011167959 4:0 5:0 6:0 7:0 8:0 9:0 10:0.51568753 11:0.6686756 12:0.87268609 13:0.9985438 14:0.99911165 15:0.99930823 #
-0.0010000000000000000208166817117217 1:0.0012468983 2:0.034112088 3:0.037963357 4:0 5:0 6:0 7:0 8:0 9:0 10:0.82140309 11:0.87999552 12:0.93868971 13:0.99883825 14:0.99939054 15:0.99959505 #
0.0010000000000000000208166817117217 1:0.8809514 2:0.90635931 3:0.92523968 4:0 5:0 6:0 7:0 8:0 9:0 10:0.31380191 11:0.26266989 12:0.24562483 13:0.99999833 14:0.99999893 15:0.99999911 #
-0.0010000000000000000208166817117217 1:0.60396057 2:0.58714646 3:0.53970236 4:0 5:0 6:0 7:0 8:0 9:0 10:0.20244142 11:0.11750355 12:0.035612557 13:0.99998277 14:0.99998295 15:0.99998313 #
0.0010000000000000000208166817117217 1:0.12276871 2:0.0040481058 3:0.009387142 4:0 5:0 6:0 7:0 8:0 9:0 10:0.83233136 11:0.93121898 12:0.92020065 13:0.99856931 14:0.99921054 15:0.99939877 #
-0.0010000000000000000208166817117217 1:0.015193482 2:0.045691229 3:0.079015866 4:0 5:0 6:0 7:0 8:0 9:0 10:0.90918511 11:0.93238795 12:0.95067173 13:0.99881995 14:0.99939394 15:0.99979985 #
0.0010000000000000000208166817117217 1:0.57250738 2:0.48994669 3:0.32005769 4:0 5:0 6:0 7:0 8:0 9:0 10:0.042021949 11:0.034919355 12:0.09970741 13:0.9999876 14:0.99998665 15:0.99998462 #
-0.0010000000000000000208166817117217 1:0.55180264 2:0.52561903 3:0.36365163 4:0 5:0 6:0 7:0 8:0 9:0 10:0.03071731 11:0.017403048 12:0.13632494 13:0.99995804 14:0.9999612 15:0.99996805 #
0.0010000000000000000208166817117217 1:0.12770082 2:0.011039286 3:0.0040205014 4:0 5:0 6:0 7:0 8:0 9:0 10:0.86708552 11:0.89263028 12:0.92192388 13:0.99843001 14:0.999066 15:0.99926072 #
-0.0010000000000000000208166817117217 1:0.034401666 2:0.024511874 3:0.042123437 4:0 5:0 6:0 7:0 8:0 9:0 10:0.86497104 11:0.94585562 12:0.96690786 13:0.99875867 14:0.99913532 15:0.99913108 #
0.0010000000000000000208166817117217 1:0.73563552 2:0.68741441 3:0.59113634 4:0 5:0 6:0 7:0 8:0 9:0 10:0.27278829 11:0.18304181 12:0.066351399 13:0.99999166 14:0.99999082 15:0.99998951 #
-0.0010000000000000000208166817117217 1:0.53523052 2:0.47149643 3:0.51128876 4:0 5:0 6:0 7:0 8:0 9:0 10:0.095070392 11:0.09536048 12:0.035293393 13:0.99996293 14:0.99996668 15:0.99997061 #
0.0010000000000000000208166817117217 1:0.081393749 2:0.0038169723 3:0.019432392 4:0 5:0 6:0 7:0 8:0 9:0 10:0.81998825 11:0.90777695 12:0.8911469 13:0.99854463 14:0.99916995 15:0.99937576 #
-0.0010000000000000000208166817117217 1:0.56155992 2:0.66114813 3:0.47415337 4:0 5:0 6:0 7:0 8:0 9:0 10:0.94804126 11:0.96133995 12:0.96737373 13:0.99947304 14:0.99962056 15:0.99977499 #
0.0010000000000000000208166817117217 1:0.18390852 2:0.13624755 3:0.076362185 4:0 5:0 6:0 7:0 8:0 9:0 10:0.026933672 11:0.044048838 12:0.00026084183 13:0.99998045 14:0.99998063 15:0.99998176 #
-0.0010000000000000000208166817117217 1:0.056517538 2:0.078688599 3:0.10852651 4:0 5:0 6:0 7:0 8:0 9:0 10:0.060876653 11:0.0035557691 12:0.0061863014 13:0.99997532 14:0.99997735 15:0.99998033 #
0.0010000000000000000208166817117217 1:0.35784912 2:0.5228948 3:0.63013268 4:0 5:0 6:0 7:0 8:0 9:0 10:0.85589921 11:0.80271232 12:0.82596624 13:0.99865562 14:0.99877024 15:0.99896026 #
-0.0010000000000000000208166817117217 1:0.67781311 2:0.77918988 3:0.78440428 4:0 5:0 6:0 7:0 8:0 9:0 10:0.79669863 11:0.84273249 12:0.80721062 13:0.99803358 14:0.99784225 15:0.99795705 #
0.0010000000000000000208166817117217 1:0.26745093 2:0.23459458 3:0.039443221 4:0 5:0 6:0 7:0 8:0 9:0 10:0.32471514 11:0.047456969 12:0.010156634 13:0.99974436 14:0.99981564 15:0.99991465 #
-0.0010000000000000000208166817117217 1:0.0084922621 2:0.0060342271 3:0.012017274 4:0 5:0 6:0 7:0 8:0 9:0 10:0.079237819 11:0.057401117 12:0.077141605 13:0.99997413 14:0.99997574 15:0.99997777 #
0.0010000000000000000208166817117217 1:0.77021581 2:0.75756121 3:0.7595278 4:0 5:0 6:0 7:0 8:0 9:0 10:0.61888367 11:0.66181272 12:0.68872833 13:0.99909306 14:0.99897414 15:0.99906647 #
-0.0010000000000000000208166817117217 1:0.77036983 2:0.78791845 3:0.69540775 4:0 5:0 6:0 7:0 8:0 9:0 10:0.73614907 11:0.77942711 12:0.7487663 13:0.99779451 14:0.99766928 15:0.99789619 #
0.0010000000000000000208166817117217 1:0.011415818 2:0.030833513 3:0.048775155 4:0 5:0 6:0 7:0 8:0 9:0 10:0.057228789 11:0.39451727 12:0.16529503 13:0.99979788 14:0.99987054 15:0.99993205 #
-0.0010000000000000000208166817117217 1:0.054526821 2:0.029311141 3:0.0098602651 4:0 5:0 6:0 7:0 8:0 9:0 10:0.079975165 11:0.037905514 12:0.042458434 13:0.99997568 14:0.99997795 15:0.99998134 #
0.0010000000000000000208166817117217 1:0.64205831 2:0.67869294 3:0.62558961 4:0 5:0 6:0 7:0 8:0 9:0 10:0.70295203 11:0.74512517 12:0.70590264 13:0.99801761 14:0.99789244 15:0.99810958 #
-0.0010000000000000000208166817117217 1:0.6467495 2:0.73342365 3:0.71652555 4:0 5:0 6:0 7:0 8:0 9:0 10:0.82472068 11:0.86193407 12:0.84026974 13:0.99806339 14:0.99789768 15:0.99803931 #
0.0010000000000000000208166817117217 1:0.10426269 2:0.062866837 3:0.00046794405 4:0 5:0 6:0 7:0 8:0 9:0 10:0.25317952 11:0.011817237 12:0.0066539729 13:0.99975348 14:0.99982679 15:0.9998824 #
-0.0010000000000000000208166817117217 1:0.09026394 2:0.03949748 3:0.0086849341 4:0 5:0 6:0 7:0 8:0 9:0 10:0.081561632 11:0.024384251 12:0.025482031 13:0.99996203 14:0.99996489 15:0.99996847 #
0.0010000000000000000208166817117217 1:0.6358456 2:0.68329316 3:0.62849867 4:0 5:0 6:0 7:0 8:0 9:0 10:0.70078838 11:0.71079671 12:0.69391984 13:0.99814242 14:0.99802184 15:0.9982233 #
-0.0010000000000000000208166817117217 1:0.69847989 2:0.79381615 3:0.76231676 4:0 5:0 6:0 7:0 8:0 9:0 10:0.73343503 11:0.77909404 12:0.74681252 13:0.99786878 14:0.99766821 15:0.99782515 #
0.0010000000000000000208166817117217 1:0.015256385 2:0.025261153 3:0.055643722 4:0 5:0 6:0 7:0 8:0 9:0 10:0.10646231 11:0.074294172 12:0.069047607 13:0.99997401 14:0.99997467 15:0.99997884 #
-0.0010000000000000000208166817117217 1:0.040621847 2:0.018429652 3:0.042877644 4:0 5:0 6:0 7:0 8:0 9:0 10:0.096104667 11:0.039356075 12:0.034606572 13:0.99996877 14:0.99997032 15:0.99997193 #
0.0010000000000000000208166817117217 1:0.80823708 2:0.81112319 3:0.85888261 4:0 5:0 6:0 7:0 8:0 9:0 10:0.6562258 11:0.55065912 12:0.474709 13:0.99999869 14:0.99999917 15:1 #
-0.0010000000000000000208166817117217 1:0.48743072 2:0.53285992 3:0.64269888 4:0 5:0 6:0 7:0 8:0 9:0 10:0.2546863 11:0.13823964 12:0.041519489 13:0.99996418 14:0.99996525 15:0.99996758 #
0.0010000000000000000208166817117217 1:0.020802056 2:0.033130087 3:0.0053726505 4:0 5:0 6:0 7:0 8:0 9:0 10:0.70273733 11:0.75844383 12:0.89018452 13:0.99778074 14:0.99717355 15:0.99708498 #
-0.0010000000000000000208166817117217 1:0.11578155 2:0.0057104169 3:0.013331852 4:0 5:0 6:0 7:0 8:0 9:0 10:0.90164864 11:0.95008612 12:0.95594198 13:0.99853271 14:0.9992156 15:0.9993903 #
0.0010000000000000000208166817117217 1:0.54072058 2:0.6431222 3:0.72403693 4:0 5:0 6:0 7:0 8:0 9:0 10:0.19478166 11:0.11229023 12:0.060827866 13:0.99649799 14:0.99698591 15:0.99678755 #
-0.0010000000000000000208166817117217 1:0.41077065 2:0.44486469 3:0.54707521 4:0 5:0 6:0 7:0 8:0 9:0 10:0.13412775 11:0.020195318 12:0.10607402 13:0.99996477 14:0.99996644 15:0.99996936 #
0.0010000000000000000208166817117217 1:0.083046086 2:0.050767433 3:0.013724818 4:0 5:0 6:0 7:0 8:0 9:0 10:0.81777477 11:0.94493729 12:0.86698323 13:0.99761814 14:0.99711198 15:0.99694687 #
-0.0010000000000000000208166817117217 1:0.12589204 2:0.032509942 3:0.0097859846 4:0 5:0 6:0 7:0 8:0 9:0 10:0.93643802 11:0.94390029 12:0.96030188 13:0.99914777 14:0.99944043 15:0.99935347 #
0.0010000000000000000208166817117217 1:0.44252351 2:0.43349227 3:0.34193522 4:0 5:0 6:0 7:0 8:0 9:0 10:0.035315245 11:0.049361672 12:0.0081086839 13:0.99999011 14:0.99999076 15:0.99999076 #
-0.0010000000000000000208166817117217 1:0.47837335 2:0.39458784 3:0.29919434 4:0 5:0 6:0 7:0 8:0 9:0 10:0.026008824 11:0.0045635053 12:0.0072748498 13:0.99998093 14:0.99998033 15:0.99998003 #
0.0010000000000000000208166817117217 1:0.13345496 2:0.018685888 3:0.012033552 4:0 5:0 6:0 7:0 8:0 9:0 10:0.91647893 11:0.86453903 12:0.87652993 13:0.9985255 14:0.99913871 15:0.99923307 #
-0.0010000000000000000208166817117217 1:0.054102384 2:0.055595402 3:0.062273782 4:0 5:0 6:0 7:0 8:0 9:0 10:0.94627374 11:0.94296509 12:0.94094139 13:0.99894249 14:0.99945652 15:0.99967945 #
0.0010000000000000000208166817117217 1:0.50305283 2:0.59486717 3:0.66101295 4:0 5:0 6:0 7:0 8:0 9:0 10:0.13986228 11:0.080875672 12:0.071853548 13:0.99649084 14:0.99699575 15:0.99667221 #
-0.0010000000000000000208166817117217 1:0.69888377 2:0.61071002 3:0.51405787 4:0 5:0 6:0 7:0 8:0 9:0 10:0.27077502 11:0.16814405 12:0.11525376 13:0.99999213 14:0.99999076 15:0.99998987 #
0.0010000000000000000208166817117217 1:0.10454728 2:0.0018507028 3:0.0062222001 4:0 5:0 6:0 7:0 8:0 9:0 10:0.84468955 11:0.85207599 12:0.91611886 13:0.99858677 14:0.9992249 15:0.99934351 #
-0.0010000000000000000208166817117217 1:0.061528292 2:0.00084381463 3:0.0049837446 4:0 5:0 6:0 7:0 8:0 9:0 10:0.87897575 11:0.94638813 12:0.94404119 13:0.99871409 14:0.9992528 15:0.99938416 #
0.0010000000000000000208166817117217 1:0.72830772 2:0.69612801 3:0.60997128 4:0 5:0 6:0 7:0 8:0 9:0 10:0.19950131 11:0.144907 12:0.16458589 13:0.99999708 14:0.9999972 15:0.99999613 #
-0.0010000000000000000208166817117217 1:0.65502971 2:0.62347364 3:0.44958431 4:0 5:0 6:0 7:0 8:0 9:0 10:0.1950589 11:0.12001004 12:0.12022405 13:0.99998885 14:0.99998862 15:0.99998677 #
0.0010000000000000000208166817117217 1:0.15907454 2:0.0055774264 3:0.010579729 4:0 5:0 6:0 7:0 8:0 9:0 10:0.89110488 11:0.87536776 12:0.86528879 13:0.99844038 14:0.99917674 15:0.99933892 #
-0.0010000000000000000208166817117217 1:0.13318095 2:0.012774422 3:0.064842433 4:0 5:0 6:0 7:0 8:0 9:0 10:0.93311888 11:0.94038796 12:0.94352424 13:0.99854141 14:0.99928069 15:0.99973619 #
0.0010000000000000000208166817117217 1:0.35819745 2:0.31199259 3:0.17517333 4:0 5:0 6:0 7:0 8:0 9:0 10:0.023985149 11:0.034329891 12:0.019984478 13:0.9999851 14:0.99998569 15:0.99998528 #
-0.0010000000000000000208166817117217 1:0.44601831 2:0.42367414 3:0.36294347 4:0 5:0 6:0 7:0 8:0 9:0 10:0.051241372 11:0.011990804 12:0.012006638 13:0.99998033 14:0.99998069 15:0.99998093 #
0.0010000000000000000208166817117217 1:0.25031865 2:0.025385771 3:0.010946679 4:0 5:0 6:0 7:0 8:0 9:0 10:0.83165246 11:0.88811803 12:0.94318765 13:0.99827886 14:0.99908119 15:0.99933815 #
-0.0010000000000000000208166817117217 1:0.14811429 2:0.0017177121 3:0.023056021 4:0 5:0 6:0 7:0 8:0 9:0 10:0.8781395 11:0.93815333 12:0.97029567 13:0.99848413 14:0.99923503 15:0.99946851 #
0.0010000000000000000208166817117217 1:0.88309342 2:0.8722412 3:0.81845987 4:0 5:0 6:0 7:0 8:0 9:0 10:0.41732901 11:0.28674546 12:0.21255228 13:0.99999976 14:0.99999988 15:0.99999928 #
-0.0010000000000000000208166817117217 1:0.65435332 2:0.60383731 3:0.49160078 4:0 5:0 6:0 7:0 8:0 9:0 10:0.31153029 11:0.19456531 12:0.067609712 13:0.99999064 14:0.9999904 15:0.99998933 #
0.0010000000000000000208166817117217 1:0.064953372 2:0.010820812 3:0.0073549426 4:0 5:0 6:0 7:0 8:0 9:0 10:0.81585693 11:0.84636891 12:0.87863004 13:0.99846983 14:0.99898064 15:0.99908739 #
-0.0010000000000000000208166817117217 1:0.56511003 2:0.6833235 3:0.49548668 4:0 5:0 6:0 7:0 8:0 9:0 10:0.90903038 11:0.96036035 12:0.97573388 13:0.99961036 14:0.99975973 15:0.99994856 #
0.0010000000000000000208166817117217 1:0.22877721 2:0.18092017 3:0.062308405 4:0 5:0 6:0 7:0 8:0 9:0 10:0.065642424 11:0.047261748 12:0.0051684096 13:0.99997842 14:0.99997896 15:0.99997896 #
-0.0010000000000000000208166817117217 1:0.091165818 2:0.07165195 3:0.017828904 4:0 5:0 6:0 7:0 8:0 9:0 10:0.040967226 11:0.017358147 12:0.031947732 13:0.99997181 14:0.99997383 15:0.9999789 #
0.0010000000000000000208166817117217 1:0.42499366 2:0.53714794 3:0.50599378 4:0 5:0 6:0 7:0 8:0 9:0 10:0.79380244 11:0.83510029 12:0.80665219 13:0.99814004 14:0.9979521 15:0.99815375 #
-0.0010000000000000000208166817117217 1:0.53479385 2:0.66512823 3:0.64207447 4:0 5:0 6:0 7:0 8:0 9:0 10:0.89586329 11:0.91561264 12:0.88690627 13:0.99822855 14:0.99803334 15:0.99821281 #
0.0010000000000000000208166817117217 1:0.084833115 2:0.096027143 3:0.013081817 4:0 5:0 6:0 7:0 8:0 9:0 10:0.24098527 11:0.03180274 12:0.038838118 13:0.99969745 14:0.99977088 15:0.99985838 #
-0.0010000000000000000208166817117217 1:0.10882676 2:0.065924995 3:0.022899857 4:0 5:0 6:0 7:0 8:0 9:0 10:0.060361605 11:0.020824114 12:0.012463428 13:0.99997967 14:0.99998045 15:0.99998218 #
0.0010000000000000000208166817117217 1:0.56048799 2:0.65098977 3:0.70379436 4:0 5:0 6:0 7:0 8:0 9:0 10:0.71247602 11:0.69633752 12:0.72334349 13:0.99901521 14:0.99901158 15:0.99913377 #
-0.0010000000000000000208166817117217 1:0.61340374 2:0.75630677 3:0.74992621 4:0 5:0 6:0 7:0 8:0 9:0 10:0.77797741 11:0.8169964 12:0.78771818 13:0.99794775 14:0.99771458 15:0.99784654 #
0.0010000000000000000208166817117217 1:0.089278162 2:0.76002914 3:0.002835155 4:0 5:0 6:0 7:0 8:0 9:0 10:0.92674959 11:0.92673033 12:0.3781856 13:0.99972713 14:0.99995399 15:0.99995559 #
-0.0010000000000000000208166817117217 1:0.017761098 2:0.094662316 3:0.07232412 4:0 5:0 6:0 7:0 8:0 9:0 10:0.80068594 11:0.77443606 12:0.0085865362 13:0.99966818 14:0.99976265 15:0.99991637 #
0.0010000000000000000208166817117217 1:0.68843406 2:0.7765438 3:0.86917585 4:0 5:0 6:0 7:0 8:0 9:0 10:0.34905186 11:0.28289115 12:0.54988241 13:0.99890298 14:0.99888247 15:0.9993391 #
-0.0010000000000000000208166817117217 1:0.56292492 2:0.55793744 3:0.43987706 4:0 5:0 6:0 7:0 8:0 9:0 10:0.043379165 11:0.10620447 12:0.17469004 13:0.99998742 14:0.99998868 15:0.99998766 #
0.0010000000000000000208166817117217 1:0.091050424 2:0.085389949 3:0.019147614 4:0 5:0 6:0 7:0 8:0 9:0 10:0.87094259 11:0.88534325 12:0.18408836 13:0.99964941 14:0.99976355 15:0.99993426 #
-0.0010000000000000000208166817117217 1:0.34994727 2:0.42476803 3:0.37201205 4:0 5:0 6:0 7:0 8:0 9:0 10:1 11:0.9803167 12:0.96443987 13:0.99939638 14:0.99950373 15:0.99975544 #
0.0010000000000000000208166817117217 1:0.45379704 2:0.40465143 3:0.32382467 4:0 5:0 6:0 7:0 8:0 9:0 10:0.021116508 11:0.027203035 12:0.10606752 13:0.99998116 14:0.99998099 15:0.9999814 #
-0.0010000000000000000208166817117217 1:0.18225601 2:0.16811535 3:0.15327953 4:0 5:0 6:0 7:0 8:0 9:0 10:0.0027888918 11:0.015294299 12:0.0039437721 13:0.99997246 14:0.99997431 15:0.99997747 #
0.0010000000000000000208166817117217 1:0.5881685 2:0.2014033 3:0.0933588 4:0 5:0 6:0 7:0 8:0 9:0 10:0.89470541 11:0.90701425 12:0.93442148 13:0.99747598 14:0.99828243 15:0.998707 #
-0.0010000000000000000208166817117217 1:0.84861875 2:0.82000041 3:0.042748261 4:0 5:0 6:0 7:0 8:0 9:0 10:0.96919936 11:0.97677308 12:0.41052336 13:0.99995679 14:0.99998415 15:0.99996644 #
0.0010000000000000000208166817117217 1:0.080868378 2:0.077952236 3:0.1485146 4:0 5:0 6:0 7:0 8:0 9:0 10:0.041169982 11:0.0033236698 12:0.081999362 13:0.99997026 14:0.99997193 15:0.99997503 #
-0.0010000000000000000208166817117217 1:0.0050359843 2:0.026897812 3:0.13590966 4:0 5:0 6:0 7:0 8:0 9:0 10:0.083919175 11:0.026384762 12:0.056982074 13:0.99997687 14:0.99997932 15:0.99998361 #
0.0010000000000000000208166817117217 1:0.4826901 2:0.84724116 3:0.72947931 4:0 5:0 6:0 7:0 8:0 9:0 10:0.95931667 11:0.67367822 12:0.28209382 13:0.99974358 14:0.99972302 15:0.99977958 #
-0.0010000000000000000208166817117217 1:0.085640848 2:0.7750442 3:0.88762164 4:0 5:0 6:0 7:0 8:0 9:0 10:0.82580703 11:0.62410957 12:0.80750686 13:0.99858046 14:0.99594957 15:0.99393678 #
0.0010000000000000000208166817117217 1:0.1644053 2:0.10286581 3:0.028389208 4:0 5:0 6:0 7:0 8:0 9:0 10:0.037060775 11:0.077215239 12:0.070768274 13:0.99997389 14:0.99997401 15:0.99997431 #
-0.0010000000000000000208166817117217 1:0.10296452 2:0.069606803 3:0.021451013 4:0 5:0 6:0 7:0 8:0 9:0 10:0.071523905 11:0.022219565 12:0.023955716 13:0.99996817 14:0.99996907 15:0.99997067 #
0.0010000000000000000208166817117217 1:0.24027707 2:0.39539769 3:0.5281496 4:0 5:0 6:0 7:0 8:0 9:0 10:0.79137504 11:0.8884443 12:0.85233384 13:0.99829262 14:0.99831522 15:0.99871713 #
-0.0010000000000000000208166817117217 1:0.66250432 2:0.40030324 3:0.28892392 4:0 5:0 6:0 7:0 8:0 9:0 10:0.9513523 11:0.95195085 12:0.93427032 13:0.99964684 14:0.99977714 15:0.99981165 #
0.0010000000000000000208166817117217 1:0.10232662 2:0.12810636 3:0.099092774 4:0 5:0 6:0 7:0 8:0 9:0 10:0.078912772 11:0.0083592907 12:0.041707586 13:0.99997413 14:0.99997568 15:0.99997914 #
-0.0010000000000000000208166817117217 1:0.028559161 2:0.075129516 3:0.1559037 4:0 5:0 6:0 7:0 8:0 9:0 10:0.068185002 11:0.0092944978 12:0.0081471801 13:0.99996799 14:0.99997044 15:0.99997497 #
0.0010000000000000000208166817117217 1:0.87930024 2:0.32811844 3:0.098633707 4:0 5:0 6:0 7:0 8:0 9:0 10:0.77340114 11:0.82520181 12:0.89035612 13:0.99672562 14:0.99757832 15:0.99851221 #
-0.0010000000000000000208166817117217 1:0.7104457 2:0.41227278 3:0.27604616 4:0 5:0 6:0 7:0 8:0 9:0 10:0.92244387 11:0.96544951 12:0.94155306 13:0.99972016 14:0.99982917 15:0.99982452 #
0.0010000000000000000208166817117217 1:0.034985077 2:0.05303866 3:0.14040108 4:0 5:0 6:0 7:0 8:0 9:0 10:0.065471098 11:0.032690655 12:0.052148156 13:0.99998075 14:0.99998254 15:0.99998641 #
-0.0010000000000000000208166817117217 1:0.12002608 2:0.097915523 3:0.12126008 4:0 5:0 6:0 7:0 8:0 9:0 10:0.0015698199 11:0.0082989773 12:0.032721739 13:0.99997115 14:0.99997324 15:0.99997592 #
0.0010000000000000000208166817117217 1:0.62209255 2:0.38124558 3:0.27763382 4:0 5:0 6:0 7:0 8:0 9:0 10:0.77535784 11:0.90303659 12:0.87142092 13:0.99953389 14:0.99972218 15:0.99976927 #
-0.0010000000000000000208166817117217 1:0.45113757 2:0.13883415 3:0.066447832 4:0 5:0 6:0 7:0 8:0 9:0 10:0.96594977 11:0.97598517 12:0.97515023 13:0.99982494 14:0.99986136 15:0.99980599 #
0.0010000000000000000208166817117217 1:0.068242021 2:0.12790212 3:0.14170504 4:0 5:0 6:0 7:0 8:0 9:0 10:0.07836853 11:0.059451148 12:0.045646179 13:0.99997252 14:0.99997509 15:0.99997777 #
-0.0010000000000000000208166817117217 1:0.10939044 2:0.091206744 3:0.10084765 4:0 5:0 6:0 7:0 8:0 9:0 10:0.010103818 11:0.01597462 12:0.033133294 13:0.99997705 14:0.99997848 15:0.9999814 #
0.0010000000000000000208166817117217 1:0.58351034 2:0.21152595 3:0.099000655 4:0 5:0 6:0 7:0 8:0 9:0 10:0.87134641 11:0.92654604 12:0.9288246 13:0.99752688 14:0.99825794 15:0.99868476 #
-0.0010000000000000000208166817117217 1:0.88640368 2:0.34781009 3:0.026618455 4:0 5:0 6:0 7:0 8:0 9:0 10:0.9295848 11:0.83745736 12:0.40649492 13:0.9999789 14:0.99998301 15:0.99998111 #
0.0010000000000000000208166817117217 1:0.023824275 2:0.095870376 3:0.12229053 4:0 5:0 6:0 7:0 8:0 9:0 10:0.12832692 11:0.094278045 12:0.034688555 13:0.99997109 14:0.99997437 15:0.99997711 #
-0.0010000000000000000208166817117217 1:0.010447283 2:0.046983827 3:0.15675676 4:0 5:0 6:0 7:0 8:0 9:0 10:0.038029552 11:0.029372787 12:0.12861831 13:0.99996734 14:0.99996841 15:0.99996966 #
0.0010000000000000000208166817117217 1:0.79489112 2:0.40331236 3:0.23758924 4:0 5:0 6:0 7:0 8:0 9:0 10:0.83788395 11:0.8528716 12:0.75090921 13:0.99960542 14:0.99964339 15:0.99960512 #
-0.0010000000000000000208166817117217 1:0.64397347 2:0.75810641 3:0.48891428 4:0 5:0 6:0 7:0 8:0 9:0 10:0.89972323 11:0.92126793 12:0.97050971 13:0.99957138 14:0.99974155 15:0.9998616 #
0.0010000000000000000208166817117217 1:0.082442425 2:0.0011493413 3:0.0089563159 4:0 5:0 6:0 7:0 8:0 9:0 10:0.2422743 11:0.014596891 12:0.00208579 13:0.99973756 14:0.9998306 15:0.99990296 #
-0.0010000000000000000208166817117217 1:0.038028933 2:0.054388657 3:0.092444353 4:0 5:0 6:0 7:0 8:0 9:0 10:0.043942574 11:0.0059697512 12:0.074228384 13:0.99996525 14:0.99996704 15:0.99997026 #
0.0010000000000000000208166817117217 1:0.49971199 2:0.63820809 3:0.77960247 4:0 5:0 6:0 7:0 8:0 9:0 10:0.6616286 11:0.68080813 12:0.75198293 13:0.99929118 14:0.99996614 15:1 #
-0.0010000000000000000208166817117217 1:0.65663916 2:0.67774928 3:0.67633706 4:0 5:0 6:0 7:0 8:0 9:0 10:0.79135942 11:0.81612027 12:0.79139197 13:0.99814379 14:0.99804592 15:0.99819905 #
0.0010000000000000000208166817117217 1:0.027962493 2:0.69056123 3:0.00051880884 4:0 5:0 6:0 7:0 8:0 9:0 10:0.92169559 11:0.92379725 12:0.26772663 13:0.99970478 14:0.9999302 15:0.99995118 #
-0.0010000000000000000208166817117217 1:0.042695258 2:0.074472494 3:0.1581551 4:0 5:0 6:0 7:0 8:0 9:0 10:0.80820972 11:0.78418243 12:0.01500152 13:0.99964672 14:0.99974382 15:0.99989587 #
0.0010000000000000000208166817117217 1:0.7219767 2:0.74037224 3:0.81526124 4:0 5:0 6:0 7:0 8:0 9:0 10:0.44919053 11:0.48245692 12:0.6684615 13:0.998927 14:0.99874246 15:0.99921989 #
-0.0010000000000000000208166817117217 1:0.70443898 2:0.71596646 3:0.61470747 4:0 5:0 6:0 7:0 8:0 9:0 10:0.65122628 11:0.70610416 12:0.68869972 13:0.99769276 14:0.99756396 15:0.99782044 #
0.0010000000000000000208166817117217 1:0.13039245 2:0.093091995 3:0.001738432 4:0 5:0 6:0 7:0 8:0 9:0 10:0.84949297 11:0.85742569 12:0.046729207 13:0.99960893 14:0.99973553 15:0.99989814 #
-0.0010000000000000000208166817117217 1:0.012649721 2:0.018811112 3:0.0090221604 4:0 5:0 6:0 7:0 8:0 9:0 10:0.2034855 11:0.056552827 12:0.021621907 13:0.99970502 14:0.99977988 15:0.99985301 #
0.0010000000000000000208166817117217 1:0.67892456 2:0.75681382 3:0.81188345 4:0 5:0 6:0 7:0 8:0 9:0 10:0.43768391 11:0.45773458 12:0.65692347 13:0.9988789 14:0.99886918 15:0.99921757 #
-0.0010000000000000000208166817117217 1:0.68567407 2:0.71620232 3:0.68183196 4:0 5:0 6:0 7:0 8:0 9:0 10:0.79300487 11:0.80831677 12:0.77333778 13:0.99814445 14:0.99802989 15:0.99817693 #
0.0010000000000000000208166817117217 1:0.045282517 2:0.022438431 3:0.0020365091 4:0 5:0 6:0 7:0 8:0 9:0 10:0.16553821 11:0.089672409 12:0.013590773 13:0.99997067 14:0.99997288 15:0.99997604 #
-0.0010000000000000000208166817117217 1:0.095523983 2:0.07844314 3:0.090415969 4:0 5:0 6:0 7:0 8:0 9:0 10:0.057395119 11:0.0087855114 12:0.011053937 13:0.99997622 14:0.99997741 15:0.99998003 #
0.0010000000000000000208166817117217 1:0.63242048 2:0.21087052 3:0.069644667 4:0 5:0 6:0 7:0 8:0 9:0 10:0.86820042 11:0.89450115 12:0.93988645 13:0.99736136 14:0.99821144 15:0.99877292 #
-0.0010000000000000000208166817117217 1:0.45894673 2:0.14801006 3:0.075942658 4:0 5:0 6:0 7:0 8:0 9:0 10:0.96870452 11:0.96818787 12:0.97775626 13:0.99980426 14:0.99985802 15:0.99982744 #
0.0010000000000000000208166817117217 1:0.23959981 2:0.25651997 3:0.34338406 4:0 5:0 6:0 7:0 8:0 9:0 10:0.0094175329 11:0.028587043 12:0.033737119 13:0.9999823 14:0.99998432 15:0.99998766 #
-0.0010000000000000000208166817117217 1:0.46138883 2:0.43026018 3:0.44015056 4:0 5:0 6:0 7:0 8:0 9:0 10:0.059164375 11:0.045075264 12:0.027478741 13:0.9999643 14:0.9999674 15:0.99997115 #
0.0010000000000000000208166817117217 1:0.52638006 2:0.16877779 3:0.051388919 4:0 5:0 6:0 7:0 8:0 9:0 10:0.87658232 11:0.91718423 12:0.93358183 13:0.99768049 14:0.99846166 15:0.99898231 #
-0.0010000000000000000208166817117217 1:0.38167697 2:0.11414654 3:0.060622506 4:0 5:0 6:0 7:0 8:0 9:0 10:0.94310826 11:0.98325282 12:0.98185807 13:0.99964911 14:0.99976671 15:0.99974692 #
0.0010000000000000000208166817117217 1:0.2724058 2:0.30462897 3:0.41698533 4:0 5:0 6:0 7:0 8:0 9:0 10:0.0013110517 11:0.000678382 12:0.10655703 13:0.9999842 14:0.99998587 15:0.99998945 #
-0.0010000000000000000208166817117217 1:0.38269955 2:0.33465585 3:0.2935276 4:0 5:0 6:0 7:0 8:0 9:0 10:0.0097656408 11:0.016052824 12:0.017862026 13:0.99996448 14:0.99996763 15:0.99997199 #
0.0010000000000000000208166817117217 1:0.56200087 2:0.1775896 3:0.045884669 4:0 5:0 6:0 7:0 8:0 9:0 10:0.86678165 11:0.90268826 12:0.93360668 13:0.99751657 14:0.99838811 15:0.99897462 #
-0.0010000000000000000208166817117217 1:0.41099563 2:0.13533854 3:0.07653895 4:0 5:0 6:0 7:0 8:0 9:0 10:0.95698947 11:0.97392946 12:0.9808231 13:0.99968332 14:0.99983943 15:0.99982977 #
0.0010000000000000000208166817117217 1:0.26180869 2:0.26437452 3:0.36786953 4:0 5:0 6:0 7:0 8:0 9:0 10:0.019972956 11:0.022758072 12:0.036072742 13:0.99997956 14:0.99998105 15:0.99998462 #
-0.0010000000000000000208166817117217 1:0.17756997 2:0.0068882727 3:0.03823857 4:0 5:0 6:0 7:0 8:0 9:0 10:0.87174958 11:0.91779894 12:0.84188271 13:0.99833137 14:0.99908882 15:0.99946547 #
0.0010000000000000000208166817117217 1:0.4246133 2:0.37389943 3:0.33942157 4:0 5:0 6:0 7:0 8:0 9:0 10:0.76120079 11:0.75793308 12:0.73696297 13:0.99824345 14:0.99821997 15:0.9984675 #
-0.0010000000000000000208166817117217 1:0.58862859 2:0.49976486 3:0.34034151 4:0 5:0 6:0 7:0 8:0 9:0 10:0.015729234 11:0.039629593 12:0.15090275 13:0.99998134 14:0.99998009 15:0.99997771 #
0.0010000000000000000208166817117217 1:0.12098767 2:0.020652158 3:0.011345522 4:0 5:0 6:0 7:0 8:0 9:0 10:0.89775401 11:0.83943182 12:0.8659938 13:0.99853426 14:0.99909556 15:0.99917787 #
-0.0010000000000000000208166817117217 1:0.021386364 2:0.63558471 3:0.8065716 4:0 5:0 6:0 7:0 8:0 9:0 10:0.81611443 11:0.59036684 12:0.71800774 13:0.99859953 14:0.9963671 15:0.99430257 #
0.0010000000000000000208166817117217 1:0.90957791 2:0.3236033 3:0.10037672 4:0 5:0 6:0 7:0 8:0 9:0 10:0.22707932 11:0.45815542 12:0.76906192 13:0.99661577 14:0.99757159 15:0.99846464 #
-0.0010000000000000000208166817117217 1:0.35774648 2:0.2670745 3:0.030288959 4:0 5:0 6:0 7:0 8:0 9:0 10:0.027418502 11:0.043442201 12:0.0090696532 13:0.99997735 14:0.9999764 15:0.99997491 #
0.0010000000000000000208166817117217 1:0.46032557 2:0.94757241 3:0.91458905 4:0 5:0 6:0 7:0 8:0 9:0 10:0.8327828 11:0.53228474 12:0.0021336409 13:0.99972761 14:0.99968034 15:0.99970758 #
-0.0010000000000000000208166817117217 1:0.86323148 2:0.68277359 3:0.46971801 4:0 5:0 6:0 7:0 8:0 9:0 10:0.7818383 11:0.75766945 12:0.58714229 13:0.99790704 14:0.99797261 15:0.99857068 #
0.0010000000000000000208166817117217 1:0.050919287 2:0.0046842303 3:0.067089587 4:0 5:0 6:0 7:0 8:0 9:0 10:0.082100011 11:0.033757441 12:0.070835978 13:0.99997622 14:0.9999792 15:0.99998295 #
-0.0010000000000000000208166817117217 1:0.13385402 2:0.082738586 3:0.054758161 4:0 5:0 6:0 7:0 8:0 9:0 10:0.023874914 11:0.021784728 12:0.044275329 13:0.99996722 14:0.9999671 15:0.99996769 #
0.0010000000000000000208166817117217 1:0.073159769 2:0.7429052 3:0.0095135299 4:0 5:0 6:0 7:0 8:0 9:0 10:0.98078501 11:0.97971541 12:0.40020144 13:0.99973458 14:0.99995977 15:0.99996209 #
-0.0010000000000000000208166817117217 1:0.40854979 2:0.86614895 3:0.18867524 4:0 5:0 6:0 7:0 8:0 9:0 10:0.95478594 11:0.94219732 12:0.2025211 13:0.99958026 14:0.99954873 15:0.99997354 #
0.0010000000000000000208166817117217 1:0.14197096 2:0.1423839 3:0.24066105 4:0 5:0 6:0 7:0 8:0 9:0 10:0.017427959 11:0.032971289 12:0.27195182 13:0.99997401 14:0.99997592 15:0.99997896 #
-0.0010000000000000000208166817117217 1:0.016721945 2:0.013520572 3:0.075927533 4:0 5:0 6:0 7:0 8:0 9:0 10:0.02951351 11:0.069426894 12:0.099978894 13:0.99997085 14:0.99997181 15:0.99997616 #
0.0010000000000000000208166817117217 1:0.48029941 2:0.80280787 3:0.5722599 4:0 5:0 6:0 7:0 8:0 9:0 10:0.95094633 11:0.71387142 12:0.2126689 13:0.99973971 14:0.99972326 15:0.99980599 #
-0.0010000000000000000208166817117217 1:0.62292629 2:0.72814608 3:0.49020723 4:0 5:0 6:0 7:0 8:0 9:0 10:0.92279619 11:0.937307 12:0.95748842 13:0.99961209 14:0.99977398 15:0.99988735 #
0.0010000000000000000208166817117217 1:0.074368246 2:0.051770177 3:0.087791793 4:0 5:0 6:0 7:0 8:0 9:0 10:0.054477282 11:0.013578421 12:0.092460789 13:0.99997663 14:0.99997896 15:0.99998122 #
-0.0010000000000000000208166817117217 1:0.010070558 2:0.039865661 3:0.12488219 4:0 5:0 6:0 7:0 8:0 9:0 10:0.088642344 11:0.017863614 12:0.055355825 13:0.99996614 14:0.9999668 15:0.99996865 #
0.0010000000000000000208166817117217 1:0.956981 2:0.37567303 3:0.1112476 4:0 5:0 6:0 7:0 8:0 9:0 10:0.68035924 11:0.73251617 12:0.86947507 13:0.99651712 14:0.99734336 15:0.99836111 #
-0.0010000000000000000208166817117217 1:0.81651354 2:0.78119111 3:0.057536192 4:0 5:0 6:0 7:0 8:0 9:0 10:0.97651851 11:0.98222435 12:0.43027109 13:0.99993688 14:0.99996418 15:0.99995607 #
0.0010000000000000000208166817117217 1:0.010408862 2:0.032134905 3:0.071709573 4:0 5:0 6:0 7:0 8:0 9:0 10:0.10971326 11:0.13891642 12:0.015944632 13:0.99978793 14:0.99986005 15:0.9999066 #
-0.0010000000000000000208166817117217 1:0.020706203 2:0.021743281 3:0.06274306 4:0 5:0 6:0 7:0 8:0 9:0 10:0.06778761 11:0.053629119 12:0.067296095 13:0.99996477 14:0.99996781 15:0.99997085 #
0.0010000000000000000208166817117217 1:0.086186059 2:0.76720774 3:0.0078365477 4:0 5:0 6:0 7:0 8:0 9:0 10:0.95987606 11:0.96485853 12:0.39258727 13:0.99973238 14:0.99995959 15:0.99995869 #
-0.0010000000000000000208166817117217 1:0.0090151634 2:0.1212082 3:0.031343848 4:0 5:0 6:0 7:0 8:0 9:0 10:0.9582873 11:0.94266719 12:0.33716556 13:0.99970579 14:0.999798 15:0.99995834 #
0.0010000000000000000208166817117217 1:0.63665384 2:0.62151003 3:0.54839545 4:0 5:0 6:0 7:0 8:0 9:0 10:0.071752913 11:0.10540983 12:0.2280708 13:0.99999082 14:0.999991 15:0.9999904 #
-0.0010000000000000000208166817117217 1:0.47694632 2:0.47836915 3:0.55446434 4:0 5:0 6:0 7:0 8:0 9:0 10:0.049101017 11:0.11879469 12:0.15513769 13:0.99995607 14:0.9999581 15:0.99996138 #
0.0010000000000000000208166817117217 1:0.12057666 2:0.016355496 3:0.020014711 4:0 5:0 6:0 7:0 8:0 9:0 10:0.92849004 11:0.83744621 12:0.82213444 13:0.99858284 14:0.99916744 15:0.99919474 #
-0.0010000000000000000208166817117217 1:0.33084878 2:0.13359076 3:0.077823281 4:0 5:0 6:0 7:0 8:0 9:0 10:0.96511465 11:0.97545898 12:0.9854632 13:0.99956554 14:0.9998377 15:0.99987346 #
0.0010000000000000000208166817117217 1:0.070084304 2:0.085520096 3:0.17269403 4:0 5:0 6:0 7:0 8:0 9:0 10:0.13139184 11:0.02453869 12:0.0020443755 13:0.99997157 14:0.99997306 15:0.99997479 #
-0.0010000000000000000208166817117217 1:0.17883544 2:0.18730196 3:0.18589477 4:0 5:0 6:0 7:0 8:0 9:0 10:0.019459853 11:0.010982087 12:0.0011385941 13:0.99997461 14:0.99997622 15:0.99997842 #
0.0010000000000000000208166817117217 1:0.58871651 2:0.20315109 3:0.078130387 4:0 5:0 6:0 7:0 8:0 9:0 10:0.86142844 11:0.9101491 12:0.93669385 13:0.99750936 14:0.99829853 15:0.99881357 #
-0.0010000000000000000208166817117217 1:0.65106702 2:0.39736101 3:0.2793979 4:0 5:0 6:0 7:0 8:0 9:0 10:0.92620265 11:0.94863683 12:0.91563493 13:0.99964792 14:0.9997974 15:0.99979758 #
0.0010000000000000000208166817117217 1:0.072339013 2:0.096074618 3:0.15110627 4:0 5:0 6:0 7:0 8:0 9:0 10:0.11058846 11:0.042263143 12:0.00948558 13:0.99996692 14:0.99996823 15:0.99997032 #
-0.0010000000000000000208166817117217 1:0.0054484066 2:0.057906527 3:0.059104692 4:0 5:0 6:0 7:0 8:0 9:0 10:0.093895115 11:0.014828381 12:0.046941917 13:0.99997473 14:0.99997497 15:0.99997765 #
0.0010000000000000000208166817117217 1:0.57446814 2:0.19994681 3:0.074506752 4:0 5:0 6:0 7:0 8:0 9:0 10:0.88922137 11:0.9041844 12:0.91388685 13:0.99757463 14:0.99835259 15:0.99886191 #
-0.0010000000000000000208166817117217 1:0.39003414 2:0.10853903 3:0.062227912 4:0 5:0 6:0 7:0 8:0 9:0 10:0.9578709 11:0.96679902 12:0.97328818 13:0.99969602 14:0.99973035 15:0.99976301 #
0.0010000000000000000208166817117217 1:0.43147543 2:0.45582858 3:0.44799057 4:0 5:0 6:0 7:0 8:0 9:0 10:0.12098393 11:0.090597145 12:0.0035378342 13:0.99998701 14:0.99998826 15:0.99998915 #
-0.0010000000000000000208166817117217 1:0.43241584 2:0.39773753 3:0.3398906 4:0 5:0 6:0 7:0 8:0 9:0 10:0.018450759 11:0.02449221 12:0.050916612 13:0.99996251 14:0.99996603 15:0.99997091 #
0.0010000000000000000208166817117217 1:0.1485253 2:0.021598881 3:0.0033643635 4:0 5:0 6:0 7:0 8:0 9:0 10:0.84558779 11:0.88172472 12:0.87792623 13:0.99850088 14:0.99914038 15:0.99929523 #
-0.0010000000000000000208166817117217 1:0.11865862 2:0.012992896 3:0.053742196 4:0 5:0 6:0 7:0 8:0 9:0 10:0.92691374 11:0.92828965 12:0.95750082 13:0.9985311 14:0.9992469 15:0.99962038 #
0.0010000000000000000208166817117217 1:0.58254087 2:0.56947374 3:0.59287494 4:0 5:0 6:0 7:0 8:0 9:0 10:0.16855012 11:0.095133029 12:0.05045082 13:0.9999904 14:0.9999904 15:0.99999195 #
-0.0010000000000000000208166817117217 1:0.50186086 2:0.48340094 3:0.46217299 4:0 5:0 6:0 7:0 8:0 9:0 10:0.16116735 11:0.047936905 12:0.035485435 13:0.99996805 14:0.99997109 15:0.99997568 #
0.0010000000000000000208166817117217 1:0.058240216 2:0.01475335 3:0.014785675 4:0 5:0 6:0 7:0 8:0 9:0 10:0.83819687 11:0.86973828 12:0.8432259 13:0.99855971 14:0.99907106 15:0.9991104 #
-0.0010000000000000000208166817117217 1:0.098108135 2:0.015468939 3:0.03828444 4:0 5:0 6:0 7:0 8:0 9:0 10:0.9326089 11:0.93496394 12:0.94322723 13:0.99861544 14:0.99927986 15:0.99957669 #
0.0010000000000000000208166817117217 1:0.40904111 2:0.42256957 3:0.40278664 4:0 5:0 6:0 7:0 8:0 9:0 10:0.017402228 11:0.062834002 12:0.053125948 13:0.99998271 14:0.99998415 15:0.99998474 #
-0.0010000000000000000208166817117217 1:0.45755583 2:0.43590561 3:0.40769646 4:0 5:0 6:0 7:0 8:0 9:0 10:0.088562839 11:0.042526223 12:0.042826638 13:0.99996704 14:0.99996984 15:0.99997425 #
0.0010000000000000000208166817117217 1:0.074120089 2:0.049077895 3:0.018531663 4:0 5:0 6:0 7:0 8:0 9:0 10:0.84066111 11:0.86092114 12:0.87062877 13:0.99773264 14:0.99713975 15:0.99672502 #
-0.0010000000000000000208166817117217 1:0.0020411778 2:0.036005531 3:0.048834246 4:0 5:0 6:0 7:0 8:0 9:0 10:0.89692122 11:0.89828908 12:0.94972807 13:0.99883986 14:0.9994024 15:0.99966717 #
0.0010000000000000000208166817117217 1:0.90101832 2:0.88230485 3:0.85163844 4:0 5:0 6:0 7:0 8:0 9:0 10:0.47337106 11:0.37119442 12:0.2667987 13:0.99999666 14:0.9999963 15:0.99999595 #
-0.0010000000000000000208166817117217 1:0.64093781 2:0.63353723 3:0.5505687 4:0 5:0 6:0 7:0 8:0 9:0 10:0.30691001 11:0.23494919 12:0.17492057 13:0.99998856 14:0.99998897 15:0.9999882 #
0.0010000000000000000208166817117217 1:0.0079944376 2:0.018533971 3:0.024322173 4:0 5:0 6:0 7:0 8:0 9:0 10:0.78374678 11:0.82793713 12:0.79301184 13:0.99867952 14:0.99866986 15:0.99892002 #
-0.0010000000000000000208166817117217 1:0.55178374 2:0.66406661 3:0.67730671 4:0 5:0 6:0 7:0 8:0 9:0 10:0.82960534 11:0.85560006 12:0.82750118 13:0.99828452 14:0.99809092 15:0.9982208 #
0.0010000000000000000208166817117217 1:0.015820062 2:0.0025566611 3:0.011582621 4:0 5:0 6:0 7:0 8:0 9:0 10:0.22814335 11:0.13612258 12:0.057056196 13:0.9999696 14:0.99997038 15:0.99997348 #
-0.0010000000000000000208166817117217 1:0.026004767 2:0.055451989 3:0.059410717 4:0 5:0 6:0 7:0 8:0 9:0 10:0.062194534 11:0.023455206 12:0.055958614 13:0.99996942 14:0.99997014 15:0.99997514 #
0.0010000000000000000208166817117217 1:0.36441931 2:0.49419674 3:0.61960959 4:0 5:0 6:0 7:0 8:0 9:0 10:0.84442586 11:0.77105248 12:0.74987191 13:0.9985972 14:0.99859524 15:0.9987101 #
-0.0010000000000000000208166817117217 1:0.14228237 2:0.11746915 3:0.28934932 4:0 5:0 6:0 7:0 8:0 9:0 10:0.97388142 11:0.8679167 12:0.39060682 13:0.99985421 14:0.99988455 15:0.99989778 #
0.0010000000000000000208166817117217 1:0.55378067 2:0.16309746 3:0.035151388 4:0 5:0 6:0 7:0 8:0 9:0 10:0.095639542 11:0.25990647 12:0.7087481 13:0.9973622 14:0.99824524 15:0.99886417 #
-0.0010000000000000000208166817117217 1:0.57637894 2:0.46364191 3:0.28295103 4:0 5:0 6:0 7:0 8:0 9:0 10:0.016941663 11:0.071106747 12:0.13706404 13:0.99995798 14:0.99996227 15:0.99996942 #
0.0010000000000000000208166817117217 1:0.033225641 2:0.62931877 3:0.021891767 4:0 5:0 6:0 7:0 8:0 9:0 10:0.97088796 11:0.97010589 12:0.35075015 13:0.99971837 14:0.99992722 15:0.9999525 #
-0.0010000000000000000208166817117217 1:0.18768047 2:0.074384198 3:0.018469149 4:0 5:0 6:0 7:0 8:0 9:0 10:0.95520031 11:0.94547099 12:0.95977157 13:0.99925917 14:0.99954695 15:0.99946624 #
0.0010000000000000000208166817117217 1:0.52155101 2:0.54836476 3:0.58302283 4:0 5:0 6:0 7:0 8:0 9:0 10:0.17517227 11:0.090158679 12:0.042083196 13:0.99998605 14:0.99998701 15:0.9999885 #
-0.0010000000000000000208166817117217 1:0.60869545 2:0.54038745 3:0.37801144 4:0 5:0 6:0 7:0 8:0 9:0 10:0.08794938 11:0.1226421 12:0.10261232 13:0.9999848 14:0.99998373 15:0.99998254 #
0.0010000000000000000208166817117217 1:0.14567514 2:0.014493187 3:0.040807005 4:0 5:0 6:0 7:0 8:0 9:0 10:0.85427386 11:0.87547094 12:0.85447466 13:0.99856901 14:0.99867719 15:0.99898088 #
-0.0010000000000000000208166817117217 1:0.055061404 2:0.061421383 3:0.061448142 4:0 5:0 6:0 7:0 8:0 9:0 10:0.9326424 11:0.93366951 12:0.96121728 13:0.99893212 14:0.99949455 15:0.99971396 #
0.0010000000000000000208166817117217 1:0.5533424 2:0.57696009 3:0.59012216 4:0 5:0 6:0 7:0 8:0 9:0 10:0.078610323 11:0.084248237 12:0.13276288 13:0.99998635 14:0.99998766 15:0.99998862 #
-0.0010000000000000000208166817117217 1:0.50046951 2:0.48638761 3:0.48942751 4:0 5:0 6:0 7:0 8:0 9:0 10:0.13581936 11:0.11570598 12:0.030609321 13:0.99998492 14:0.99998569 15:0.99998653 #
0.0010000000000000000208166817117217 1:0.16482869 2:0.030629156 3:0.0062540928 4:0 5:0 6:0 7:0 8:0 9:0 10:0.80930376 11:0.87470734 12:0.90808141 13:0.99841571 14:0.99909979 15:0.99925071 #
-0.0010000000000000000208166817117217 1:0.081777021 2:0.086400293 3:0.069566905 4:0 5:0 6:0 7:0 8:0 9:0 10:0.94742739 11:0.94396412 12:0.96000242 13:0.99904037 14:0.99963403 15:0.99979907 #
0.0010000000000000000208166817117217 1:0.3622559 2:0.31984711 3:0.31614581 4:0 5:0 6:0 7:0 8:0 9:0 10:0.071086384 11:0.0078341253 12:0.010245414 13:0.99997824 14:0.99997801 15:0.99997932 #
-0.0010000000000000000208166817117217 1:0.39622778 2:0.36926487 3:0.34293315 4:0 5:0 6:0 7:0 8:0 9:0 10:0.0011032486 11:0.075332738 12:0.021406474 13:0.99996239 14:0.99996555 15:0.99997002 #
0.0010000000000000000208166817117217 1:0.16749635 2:0.091665536 3:0.1272177 4:0 5:0 6:0 7:0 8:0 9:0 10:0.86560553 11:0.8972823 12:0.88183004 13:0.99906915 14:0.99899173 15:0.99930114 #
-0.0010000000000000000208166817117217 1:0.12945412 2:0.10781078 3:0.073695093 4:0 5:0 6:0 7:0 8:0 9:0 10:0.92182964 11:0.95088804 12:0.96970576 13:0.99915493 14:0.99975234 15:0.99983436 #
0.0010000000000000000208166817117217 1:0.38277376 2:0.29959714 3:0.25906137 4:0 5:0 6:0 7:0 8:0 9:0 10:0.072096094 11:0.051480774 12:0.017493213 13:0.99997503 14:0.99997431 15:0.99997514 #
-0.0010000000000000000208166817117217 1:0.34910437 2:0.30925137 3:0.27947381 4:0 5:0 6:0 7:0 8:0 9:0 10:0.0029484204 11:0.0081889238 12:0.051237214 13:0.99996692 14:0.9999702 15:0.99997431 #
0.0010000000000000000208166817117217 1:0.095321991 2:0.059586108 3:0.06634029 4:0 5:0 6:0 7:0 8:0 9:0 10:0.89911819 11:0.8588469 12:0.82896453 13:0.99763417 14:0.99715424 15:0.99684304 #
-0.0010000000000000000208166817117217 1:0.019029571 2:0.042559762 3:0.039477024 4:0 5:0 6:0 7:0 8:0 9:0 10:0.90506148 11:0.92075062 12:0.9415555 13:0.99887407 14:0.99942267 15:0.99959505 #
0.0010000000000000000208166817117217 1:0.60204411 2:0.63807815 3:0.70849264 4:0 5:0 6:0 7:0 8:0 9:0 10:0.20092453 11:0.18413812 12:0.097310744 13:0.99998605 14:0.9999876 15:0.99998927 #
-0.0010000000000000000208166817117217 1:0.58400643 2:0.51670116 3:0.41046554 4:0 5:0 6:0 7:0 8:0 9:0 10:0.136785 11:0.10760485 12:0.060641151 13:0.99998784 14:0.99998748 15:0.99998653 #
0.0010000000000000000208166817117217 1:0.086158283 2:0.097102843 3:0.12220363 4:0 5:0 6:0 7:0 8:0 9:0 10:0.92046738 11:0.88756943 12:0.78691554 13:0.99751049 14:0.99690682 15:0.99644768 #
-0.0010000000000000000208166817117217 1:0.64308596 2:0.75291646 3:0.47943282 4:0 5:0 6:0 7:0 8:0 9:0 10:0.9086048 11:0.9101944 12:0.9390769 13:0.99964088 14:0.99981201 15:0.99986595 #
0.0010000000000000000208166817117217 1:0.062267043 2:0.019288741 3:0.019857286 4:0 5:0 6:0 7:0 8:0 9:0 10:0.1394964 11:0.096244186 12:0.091255702 13:0.9999755 14:0.99997622 15:0.99997872 #
-0.0010000000000000000208166817117217 1:0.0040213661 2:0.0076296777 3:0.054629534 4:0 5:0 6:0 7:0 8:0 9:0 10:0.13482043 11:0.070019349 12:0.022538349 13:0.99997526 14:0.99997753 15:0.99998105 #
0.0010000000000000000208166817117217 1:0.81719381 2:0.42317244 3:0.29024699 4:0 5:0 6:0 7:0 8:0 9:0 10:0.64276898 11:0.86211222 12:0.8287217 13:0.99976552 14:0.99980026 15:0.99981844 #
-0.0010000000000000000208166817117217 1:0.84167469 2:0.28038549 3:0.0071241399 4:0 5:0 6:0 7:0 8:0 9:0 10:0.95154631 11:0.84279114 12:0.40363038 13:0.99997544 14:0.99997193 15:0.99997443 #
0.0010000000000000000208166817117217 1:0.012501999 2:0.67807347 3:9.1002767e-05 4:0 5:0 6:0 7:0 8:0 9:0 10:0.9210912 11:0.91896063 12:0.37947589 13:0.99971485 14:0.99994111 15:0.99996239 #
-0.0010000000000000000208166817117217 1:0.057390459 2:0.49437746 3:0.69717467 4:0 5:0 6:0 7:0 8:0 9:0 10:0.86722857 11:0.56485021 12:0.6987344 13:0.99885893 14:0.9970991 15:0.995058 #
0.0010000000000000000208166817117217 1:0.94547272 2:0.35455385 3:0.10056019 4:0 5:0 6:0 7:0 8:0 9:0 10:0.59904957 11:0.60768825 12:0.78898633 13:0.99646538 14:0.99737889 15:0.99840099 #
-0.0010000000000000000208166817117217 1:0.71434265 2:0.69033688 3:0.087112054 4:0 5:0 6:0 7:0 8:0 9:0 10:0.45505247 11:0.54459143 12:0.0070718816 13:0.99987376 14:0.99990773 15:0.99992555 #
0.0010000000000000000208166817117217 1:0.4860062 2:0.8660804 3:0.77613896 4:0 5:0 6:0 7:0 8:0 9:0 10:0.97313243 11:0.47408053 12:0.06521441 13:0.99974734 14:0.99971908 15:0.99976307 #
-0.0010000000000000000208166817117217 1:0.73893923 2:0.79927242 3:0.4708133 4:0 5:0 6:0 7:0 8:0 9:0 10:0.77552861 11:0.82075667 12:0.87907618 13:0.99948627 14:0.99961358 15:0.9996841 #
0.0010000000000000000208166817117217 1:0.050693817 2:0.02575206 3:0.0040648901 4:0 5:0 6:0 7:0 8:0 9:0 10:0.15898857 11:0.11133613 12:0.086292572 13:0.99997491 14:0.99997741 15:0.99998039 #
-0.0010000000000000000208166817117217 1:0.0030809636 2:0.020884192 3:0.043602064 4:0 5:0 6:0 7:0 8:0 9:0 10:0.13963026 11:0.061573893 12:0.02687249 13:0.99996978 14:0.99997187 15:0.99997365 #
0.0010000000000000000208166817117217 1:0.88553166 2:0.44323313 3:0.28521937 4:0 5:0 6:0 7:0 8:0 9:0 10:0.75459075 11:0.82360524 12:0.71628726 13:0.99969727 14:0.99968529 15:0.99968576 #
-0.0010000000000000000208166817117217 1:0.79000044 2:0.76406711 3:0.063481852 4:0 5:0 6:0 7:0 8:0 9:0 10:0.98235118 11:0.9810499 12:0.43665689 13:0.99993485 14:0.99996459 15:0.99995935 #
0.0010000000000000000208166817117217 1:0.0085307816 2:0.042320199 3:0.18732736 4:0 5:0 6:0 7:0 8:0 9:0 10:0.073538899 11:0.13103046 12:0.28738719 13:0.99996412 14:0.99996537 15:0.99996465 #
-0.0010000000000000000208166817117217 1:0.035136335 2:0.078156479 3:0.094182961 4:0 5:0 6:0 7:0 8:0 9:0 10:0.002459706 11:0.0086914785 12:0.1332607 13:0.99997556 14:0.99997693 15:0.99998271 #
0.0010000000000000000208166817117217 1:0.12868598 2:0.7825371 3:0.0104578 4:0 5:0 6:0 7:0 8:0 9:0 10:0.95011753 11:0.93410653 12:0.39341113 13:0.99974787 14:0.99996746 15:0.99996567 #
-0.0010000000000000000208166817117217 1:0.017796542 2:0.044016261 3:0.059384052 4:0 5:0 6:0 7:0 8:0 9:0 10:0.90420109 11:0.92728895 12:0.94620532 13:0.99876028 14:0.99929589 15:0.99962115 #
0.0010000000000000000208166817117217 1:0.75500059 2:0.77086395 3:0.81604069 4:0 5:0 6:0 7:0 8:0 9:0 10:0.26268977 11:0.18875636 12:0.24222156 13:0.99939191 14:0.99919868 15:0.99946773 #
-0.0010000000000000000208166817117217 1:0.49314168 2:0.55474651 3:0.53897798 4:0 5:0 6:0 7:0 8:0 9:0 10:0.20772305 11:0.15888755 12:0.0775695 13:0.99998605 14:0.99998778 15:0.9999882 #
0.0010000000000000000208166817117217 1:0.27251318 2:0.069663249 3:0.023271389 4:0 5:0 6:0 7:0 8:0 9:0 10:0.85276771 11:0.86173624 12:0.88461745 13:0.9981364 14:0.99885553 15:0.99910426 #
-0.0010000000000000000208166817117217 1:0.56866014 2:0.68167216 3:0.48482001 4:0 5:0 6:0 7:0 8:0 9:0 10:0.92846817 11:0.96192753 12:0.96649384 13:0.99950457 14:0.99968332 15:0.99985003 #
0.0010000000000000000208166817117217 1:0.10240084 2:0.098938547 3:0.038982023 4:0 5:0 6:0 7:0 8:0 9:0 10:0.047218651 11:0.085593566 12:0.04423007 13:0.99998021 14:0.99998176 15:0.99998295 #
-0.0010000000000000000208166817117217 1:0.10476828 2:0.12483394 3:0.066944703 4:0 5:0 6:0 7:0 8:0 9:0 10:0.0048744828 11:0.023102492 12:0.036133923 13:0.99997097 14:0.99997246 15:0.99997371 #
0.0010000000000000000208166817117217 1:0.60063577 2:0.2084673 3:0.075653471 4:0 5:0 6:0 7:0 8:0 9:0 10:0.8663007 11:0.88216686 12:0.91847926 13:0.99745208 14:0.99823511 15:0.99878138 #
-0.0010000000000000000208166817117217 1:0.23127522 2:0.021234756 3:0.027551157 4:0 5:0 6:0 7:0 8:0 9:0 10:0.9339565 11:0.94411767 12:0.9579165 13:0.99837196 14:0.99915814 15:0.99948692 #
0.0010000000000000000208166817117217 1:0.64236504 2:0.81519693 3:0.94085437 4:0 5:0 6:0 7:0 8:0 9:0 10:0.19835728 11:0.25675005 12:0.42226592 13:0.99795842 14:0.99878263 15:0.99904335 #
-0.0010000000000000000208166817117217 1:0.46510911 2:0.50635087 3:0.59459728 4:0 5:0 6:0 7:0 8:0 9:0 10:0.068615943 11:0.14797582 12:0.20074312 13:0.99996454 14:0.99996573 15:0.99996811 #
0.0010000000000000000208166817117217 1:0.012672345 2:0.030416995 3:0.0096171871 4:0 5:0 6:0 7:0 8:0 9:0 10:0.76834738 11:0.78238612 12:0.74838221 13:0.9984625 14:0.99839222 15:0.99863523 #
-0.0010000000000000000208166817117217 1:0.59046805 2:0.67388713 3:0.4565911 4:0 5:0 6:0 7:0 8:0 9:0 10:0.92131871 11:0.94349813 12:0.93030858 13:0.99958086 14:0.99971926 15:0.99982721 #
0.0010000000000000000208166817117217 1:0.18717785 2:0.1519566 3:0.075782649 4:0 5:0 6:0 7:0 8:0 9:0 10:0.056911301 11:0.014886358 12:0.042300045 13:0.99997604 14:0.99997663 15:0.99997753 #
-0.0010000000000000000208166817117217 1:0.07895188 2:0.067888625 3:0.042024594 4:0 5:0 6:0 7:0 8:0 9:0 10:0.084794238 11:0.028360398 12:0.017251607 13:0.9999786 14:0.99997991 15:0.9999817 #
0.0010000000000000000208166817117217 1:0.33752185 2:0.39952582 3:0.34809288 4:0 5:0 6:0 7:0 8:0 9:0 10:0.84322053 11:0.87413335 12:0.835262 13:0.99902642 14:0.99911588 15:0.99935222 #
-0.0010000000000000000208166817117217 1:0.058240216 2:0.012410298 3:0.053237643 4:0 5:0 6:0 7:0 8:0 9:0 10:0.9072454 11:0.92644644 12:0.95618498 13:0.99864805 14:0.99922913 15:0.99961656 #
0.0010000000000000000208166817117217 1:0.84994918 2:0.83284587 3:0.77745759 4:0 5:0 6:0 7:0 8:0 9:0 10:0.366301 11:0.30154732 12:0.24982049 13:0.99999613 14:0.9999963 15:0.99999529 #
-0.0010000000000000000208166817117217 1:0.57250738 2:0.53106022 3:0.45219222 4:0 5:0 6:0 7:0 8:0 9:0 10:0.097699933 11:0.11254048 12:0.14312939 13:0.99998492 14:0.99998492 15:0.99998468 #
0.0010000000000000000208166817117217 1:0.13756505 2:0.01125776 3:0.0064974125 4:0 5:0 6:0 7:0 8:0 9:0 10:0.72760248 11:0.77888709 12:0.87487006 13:0.99838787 14:0.99905413 15:0.99925917 #
-0.0010000000000000000208166817117217 1:0.71713132 2:0.70467317 3:0.45475945 4:0 5:0 6:0 7:0 8:0 9:0 10:0.81152248 11:0.80623734 12:0.90987301 13:0.99943101 14:0.9994821 15:0.99957794 #
0.0010000000000000000208166817117217 1:0.0062760739 2:0.020352073 3:0.021306129 4:0 5:0 6:0 7:0 8:0 9:0 10:0.19357988 11:0.092698373 12:0.08037141 13:0.9999752 14:0.99997658 15:0.99998003 #
-0.0010000000000000000208166817117217 1:0.026529925 2:0.011802395 3:0.068667062 4:0 5:0 6:0 7:0 8:0 9:0 10:0.14622834 11:0.063396737 12:0.0017727843 13:0.9999761 14:0.99997771 15:0.99997866 #
0.0010000000000000000208166817117217 1:0.60967797 2:0.19783488 3:0.075653471 4:0 5:0 6:0 7:0 8:0 9:0 10:0.84592927 11:0.89718586 12:0.92329401 13:0.99740756 14:0.99827397 15:0.99872613 #
-0.0010000000000000000208166817117217 1:0.37140173 2:0.13621245 3:0.078557178 4:0 5:0 6:0 7:0 8:0 9:0 10:0.98164135 11:0.97859001 12:0.96924144 13:0.99965304 14:0.99986053 15:0.99984813 #
0.0010000000000000000208166817117217 1:0.47306892 2:0.61001235 3:0.75021613 4:0 5:0 6:0 7:0 8:0 9:0 10:0.069432184 11:0.17023461 12:0.3359105 13:0.99767363 14:0.99832451 15:0.99845767 #
-0.0010000000000000000208166817117217 1:0.46563426 2:0.45055133 3:0.45537969 4:0 5:0 6:0 7:0 8:0 9:0 10:0.064616613 11:0.014083089 12:0.14568585 13:0.99998188 14:0.99998254 15:0.99998409 #
0.0010000000000000000208166817117217 1:0.27141714 2:0.059394948 3:0.017033244 4:0 5:0 6:0 7:0 8:0 9:0 10:0.88076812 11:0.85653639 12:0.81161416 13:0.99824941 14:0.99898064 15:0.99923921 #
-0.0010000000000000000208166817117217 1:0.20809394 2:0.036515307 3:0.038132858 4:0 5:0 6:0 7:0 8:0 9:0 10:0.96069282 11:0.94335127 12:0.94096124 13:0.99926955 14:0.99936777 15:0.99910039 #
0.0010000000000000000208166817117217 1:0.31152499 2:0.30389258 3:0.18517034 4:0 5:0 6:0 7:0 8:0 9:0 10:0.07894367 11:0.021013051 12:0.0095141251 13:0.99998063 14:0.99998146 15:0.99998128 #
-0.0010000000000000000208166817117217 1:0.33756685 2:0.29971987 3:0.31092998 4:0 5:0 6:0 7:0 8:0 9:0 10:0.00057799934 11:0.035256013 12:0.037530392 13:0.99998099 14:0.99998116 15:0.99998283 #
0.0010000000000000000208166817117217 1:0.56665897 2:0.17802654 3:0.039967604 4:0 5:0 6:0 7:0 8:0 9:0 10:0.86313409 11:0.89704514 12:0.91650659 13:0.99745446 14:0.99833399 15:0.99896771 #
