SVM-light Version V6.02
0 # kernel type
3 # kernel parameter -d 
1 # kernel parameter -g 
1 # kernel parameter -s 
1 # kernel parameter -r 
empty# kernel parameter -u 
15 # highest feature index 
8748 # number of training documents 
105 # number of support vectors plus 1 
2.0410406 # threshold b, each following line is a SV (starting with alpha*y)
-0.0010000000000000000208166817117217 1:0.45512706 2:0.44118059 3:0.54351717 4:197 5:197 6:197 7:27 8:29 9:42 10:8.0289288 11:10.676098 12:13.768599 13:7067 14:5954 15:5995 #
0.0010000000000000000208166817117217 1:0.27589446 2:0.22276093 3:0.22038157 4:246 5:246 6:246 7:16 8:16 9:18 10:13.1103 11:14.499577 12:15.313523 13:5663 14:4513 15:3969 #
-1.0157779697303507903489647179462e-05 1:0.0026169301 2:0.052318286 3:0.062870078 4:468 5:468 6:468 7:0 8:5 9:6 10:13.911426 11:17.061584 12:29.892935 13:2234 14:1103 15:702 #
0.0010000000000000000208166817117217 1:0.27337134 2:0.33893025 3:0.375503 4:4 5:4 6:4 7:16 8:27 9:47 10:36.064552 11:38.343761 12:41.600449 13:11519 14:11118 15:10800 #
-0.00016412097018226470628542157381702 1:0.053417366 2:0.034549035 3:0.041908067 4:4 5:4 6:4 7:5 8:2 9:1 10:15.503185 11:17.667936 12:30.626614 13:1986 14:1099 15:722 #
0.0010000000000000000208166817117217 1:0.05454113 2:0.0013535882 3:0.0080429735 4:236 5:236 6:236 7:4 8:3 9:10 10:15.519632 11:18.258192 12:30.346146 13:2164 14:1178 15:1054 #
-0.00046486564710025018998251766788599 1:0.075748883 2:0.013138546 3:0.0053825872 4:476 5:476 6:476 7:6 8:1 9:9 10:16.034628 11:17.597122 12:30.067274 13:1815 14:1141 15:1088 #
-6.347304814675376214913593564404e-05 1:0.025222452 2:0.020056901 3:0.050118569 4:239 5:239 6:239 7:1 8:0 9:3 10:15.344359 11:17.765114 12:30.312153 13:2183 14:1197 15:726 #
-0.00022513837618531984505372556260028 1:0.06862472 2:0.075476572 3:0.076447219 4:474 5:474 6:474 7:5 8:8 9:9 10:15.172729 11:17.179113 12:30.305422 13:1943 14:926 15:497 #
-3.4438304607096602129117333956909e-06 1:0.20611739 2:0.19417468 3:0.17589775 4:484 5:484 6:484 7:21 8:19 9:15 10:22.222086 11:19.722954 12:15.864033 13:6024 14:5310 15:4314 #
-0.0010000000000000000208166817117217 1:0.13758251 2:0.26520833 3:0.34017411 4:281 5:281 6:281 7:21 8:43 9:60 10:2.3938892 11:16.690659 12:29.650089 13:13084 14:10532 15:8950 #
-3.5121725683457604924326417306091e-05 1:0.035360686 2:0.026392659 3:0.036449689 4:466 5:466 6:466 7:2 8:1 9:0 10:15.644209 11:17.508438 12:30.537933 13:2068 14:1034 15:728 #
-0.00060135353312218658809740201576233 1:0.25316659 2:0.23586065 3:0.20992932 4:2 5:2 6:2 7:24 8:22 9:18 10:5.3085022 11:3.1099045 12:0.043759648 13:9376 14:8461 15:7220 #
-6.5989900730836523559154349616307e-05 1:0.095779084 2:0.014595042 3:0.042687837 4:3 5:3 6:3 7:6 8:1 9:1 10:16.022869 11:17.873369 12:30.286736 13:2359 14:1215 15:750 #
-0.00014560733419191976018708389872813 1:0.011933145 2:0.027994804 3:0.057595171 4:241 5:241 6:241 7:0 8:1 9:5 10:16.698576 11:18.48933 12:30.266642 13:2021 14:1043 15:579 #
-0.00055526301791597508592662757465064 1:0.043690141 2:0.0076038614 3:0.00080969051 4:236 5:236 6:236 7:3 8:2 9:8 10:15.146797 11:17.744791 12:29.82308 13:1950 14:1193 15:974 #
-0.00012854132654879806734252167821353 1:0.12479602 2:0.043652136 3:0.012781427 4:12 5:12 6:12 7:9 8:3 9:6 10:15.735134 11:17.443392 12:29.919676 13:1723 14:1028 15:977 #
-0.00051859853092559526042959472391658 1:0.050431035 2:0.022023171 3:0.0299822 4:5 5:5 6:5 7:3 8:1 9:1 10:14.917439 11:16.998102 12:29.971586 13:2194 14:1122 15:896 #
-9.3251329457715685113637638092854e-06 1:0.037524998 2:0.054066081 3:0.064888299 4:1 5:1 6:1 7:3 8:5 9:7 10:15.934001 11:18.160391 12:30.970913 13:1873 14:878 15:484 #
0.0010000000000000000208166817117217 1:0.23879382 2:0.29019186 3:0.32038498 4:203 5:203 6:203 7:33 8:42 9:49 10:3.1070585 11:3.9313483 12:6.3664308 13:8731 14:8422 15:8089 #
-2.3435790330522734959111524899456e-05 1:0.015906237 2:0.029742599 3:0.045577563 4:470 5:470 6:470 7:1 8:2 9:2 10:16.225689 11:18.119642 12:30.023039 13:2036 14:1021 15:628 #
-6.0641701989697701338690848799073e-07 1:0.17466517 2:0.042705413 3:0.0036395758 4:242 5:242 6:242 7:13 8:3 9:9 10:15.927385 11:18.299011 12:30.755671 13:1616 14:1010 15:1080 #
-3.2563050943257363777777468882846e-06 1:0.11906962 2:0.017944982 3:0.040210925 4:461 5:461 6:461 7:8 8:0 9:1 10:16.532093 11:18.366745 12:31.064205 13:2297 14:1073 15:641 #
-2.460032363338077036115508766656e-05 1:0.19042054 2:0.076933064 3:0.015350076 4:11 5:11 6:11 7:14 8:8 9:5 10:15.979857 11:17.93943 12:30.994673 13:1540 14:828 15:889 #
-8.9140346490658884938103681538912e-06 1:0.020290339 2:0.023261193 3:0.070346676 4:468 5:468 6:468 7:1 8:0 9:7 10:15.205451 11:17.108919 12:30.075666 13:2154 14:1148 15:539 #
-1.9554717586843796644884008184562e-05 1:0.46744093 2:0.12922128 3:0.058833625 4:2 5:2 6:2 7:35 8:15 9:5 10:16.459381 11:18.449762 12:30.736473 13:764 14:560 15:520 #
-0.0010000000000000000208166817117217 1:0.67610699 2:0.69978499 3:0.72972733 4:0 5:0 6:0 7:133 8:140 9:146 10:51.663071 11:51.701862 12:51.782368 13:11847 14:11822 15:12030 #
0.00038442203100870508437891803765751 1:0.88886756 2:0.44597474 3:0.30471241 4:0 5:0 6:0 7:95 8:54 9:28 10:37.739571 11:47.825783 12:26.22093 13:3437 14:1825 15:1353 #
-3.2428729648743309557212127769432e-05 1:0.048074242 2:0.053192183 3:0.058558416 4:1 5:1 6:1 7:4 8:5 9:5 10:16.062763 11:17.697899 12:30.602966 13:1826 14:874 15:506 #
-5.3524244774525726170682354831953e-05 1:0.018509297 2:0.026028534 3:0.060072083 4:1 5:1 6:1 7:1 8:1 9:5 10:15.40138 11:17.187424 12:30.834761 13:2114 14:1091 15:547 #
-9.6529916561908508837214389075587e-07 1:0.093696296 2:0.054138906 3:0.049797487 4:3 5:3 6:3 7:7 8:5 9:3 10:14.697374 11:16.860809 12:30.158468 13:1770 14:926 15:610 #
0.0010000000000000000208166817117217 1:0.48422822 2:0.52196956 3:0.36399984 4:62 5:62 6:62 7:48 8:53 9:35 10:27.562162 11:29.119453 12:25.57202 13:3444 14:3030 15:3394 #
-4.8762854005034676893245992879145e-07 1:0.31646344 2:0.11392806 3:0.071447529 4:2 5:2 6:2 7:24 8:13 9:8 10:14.987528 11:18.436306 12:31.304661 13:1208 14:629 15:383 #
-0.0010000000000000000208166817117217 1:0.18898809 2:0.13380857 3:0.094080918 4:1 5:1 6:1 7:14 8:9 9:2 10:13.748325 11:23.255354 12:25.837065 13:2253 14:251 15:256 #
-0.0010000000000000000208166817117217 1:0.26714575 2:0.22677885 3:0.13009803 4:33 5:33 6:33 7:24 8:21 9:23 10:13.71954 11:15.450069 12:15.038624 13:9531 14:8622 15:7099 #
-0.00066711727280455157540473010158166 1:0.028236523 2:0.044089083 3:0.076768294 4:3 5:3 6:3 7:2 8:3 9:9 10:15.484777 11:17.320469 12:30.299774 13:2163 14:1061 15:528 #
-0.0010000000000000000208166817117217 1:0.2634255 2:0.27734235 3:0.35032225 4:202 5:202 6:202 7:22 8:22 9:24 10:24.352589 11:22.736551 12:20.031418 13:7158 14:6329 15:5287 #
0.00062814427563201435944506556552369 1:0.74487984 2:0.66642809 3:0.70863754 4:51 5:51 6:51 7:69 8:55 9:50 10:21.615753 11:21.442036 12:19.071568 13:4390 14:4055 15:3136 #
0.0010000000000000000208166817117217 1:0.096464097 2:0.019255828 3:0.029156562 4:238 5:238 6:238 7:8 8:0 9:2 10:14.723418 11:17.840471 12:30.083755 13:2293 14:1117 15:788 #
6.4467808362440312403549881603571e-06 1:0.26525199 2:0.032231301 3:0.016267451 4:450 5:450 6:450 7:19 8:7 9:4 10:16.131786 11:18.071194 12:29.669119 13:2707 14:1365 15:904 #
-0.0010000000000000000208166817117217 1:0.2567741 2:0.38423756 3:0.47941422 4:497 5:497 6:497 7:28 8:34 9:37 10:9.3232098 11:12.624789 12:16.704117 13:9211 14:8765 15:7698 #
-6.5776613880102013346036493590674e-05 1:0.087022789 2:0.041201413 3:0.070367649 4:9 5:9 6:9 7:8 8:6 9:8 10:5.3154564 11:5.8690848 12:10.510534 13:7025 14:5849 15:5342 #
-0.00091338897107987374306831140913232 1:0.38496503 2:0.14021781 3:0.075942658 4:498 5:498 6:498 7:29 8:17 9:9 10:17.152769 11:18.987421 12:31.684881 13:922 14:418 15:310 #
0.0010000000000000000208166817117217 1:0.30948079 2:0.4113982 3:0.27448148 4:281 5:281 6:281 7:37 8:63 9:47 10:19.000166 11:11.81134 12:27.555229 13:11427 14:10269 15:7904 #
-0.0010000000000000000208166817117217 1:0.024360806 2:0.10034771 3:0.087793477 4:2 5:2 6:2 7:2 8:3 9:1 10:13.329866 11:21.218565 12:25.064381 13:2780 14:615 15:472 #
-0.0010000000000000000208166817117217 1:0.15656331 2:0.12593542 3:0.091235027 4:0 5:0 6:0 7:12 8:8 9:2 10:14.314692 11:23.006052 12:25.447924 13:2281 14:316 15:263 #
-0.0010000000000000000208166817117217 1:0.10995269 2:0.11071905 3:0.08977899 4:254 5:254 6:254 7:7 8:6 9:2 10:13.785928 11:21.771362 12:25.04545 13:2528 14:456 15:379 #
-0.00098571135148666985670296014632186 1:0.25564677 2:0.23978791 3:0.26875237 4:435 5:435 6:435 7:22 8:19 9:19 10:25.85079 11:23.963127 12:20.080328 13:7130 14:6245 15:5109 #
0.00047188435918568542339068816460212 1:0.21709222 2:0.27450401 3:0.29578149 4:281 5:281 6:281 7:16 8:48 9:66 10:8.8765163 11:27.210142 12:25.460869 13:12598 14:9995 15:8105 #
0.0010000000000000000208166817117217 1:0.080708735 2:0.00804081 3:0.0070478371 4:237 5:237 6:237 7:5 8:2 9:6 10:15.288834 11:18.099413 12:30.812977 13:2223 14:1129 15:915 #
-1.7142253944541765639519859121265e-08 1:0.18360884 2:0.14933813 3:0.10054162 4:437 5:437 6:437 7:19 8:14 9:10 10:19.982706 11:17.983067 12:12.356347 13:7183 14:6293 15:4957 #
-0.00021015812881230999664694536477327 1:0.015030915 2:0.10065673 3:0.22559308 4:11 5:11 6:11 7:6 8:14 9:23 10:12.588224 11:13.881672 12:15.574133 13:8939 14:7947 15:6686 #
0.0010000000000000000208166817117217 1:0.21531849 2:0.27438006 3:0.26557133 4:281 5:281 6:281 7:25 8:29 9:39 10:10.22066 11:25.855152 12:29.503517 13:11235 14:8933 15:6776 #
-1.9448137889629649029213940072958e-08 1:0.24865715 2:0.2283743 3:0.31265232 4:211 5:211 6:211 7:18 8:15 9:18 10:22.618208 11:20.351383 12:17.642073 13:7189 14:6311 15:5316 #
0.0010000000000000000208166817117217 1:0.41351879 2:0.45002154 3:0.44926718 4:479 5:479 6:479 7:54 8:63 9:73 10:17.612715 11:17.041096 12:18.050558 13:9162 14:8944 15:8667 #
-1.7566705193834463376951690594119e-05 1:0.42445397 2:0.30514231 3:0.11963623 4:179 5:179 6:179 7:41 8:30 9:8 10:33.581337 11:32.924164 12:28.893446 13:3057 14:3217 15:3798 #
8.599691831870329448766696045503e-06 1:0.39691204 2:0.10796909 3:0.034646831 4:459 5:459 6:459 7:30 8:20 9:18 10:3.8838661 11:8.8150492 12:24.261721 13:3223 14:1870 15:1470 #
-0.0010000000000000000208166817117217 1:0.17673197 2:0.13485634 3:0.29859856 4:539 5:539 6:539 7:21 8:15 9:27 10:22.231426 11:25.1812 12:24.266726 13:9261 14:8357 15:7574 #
-3.1494454839975060218219393010086e-07 1:0.18248148 2:0.19977891 3:0.17312868 4:23 5:23 6:23 7:18 8:20 9:16 10:20.001568 11:17.518267 12:14.680857 13:6759 14:6014 15:4777 #
-2.3217171919744897419513041114669e-07 1:0.073540583 2:0.091452204 3:0.04260413 4:473 5:473 6:473 7:10 8:11 9:2 10:13.027616 11:12.587885 12:14.554023 13:6207 14:5386 15:4451 #
0.0010000000000000000208166817117217 1:0.090024948 2:0.0093516568 3:0.016955482 4:10 5:10 6:10 7:6 8:1 9:4 10:15.962364 11:17.857971 12:30.501329 13:2308 14:1171 15:919 #
-0.0010000000000000000208166817117217 1:0.39743233 2:0.16024463 3:0.087272234 4:5 5:5 6:5 7:30 8:19 9:11 10:16.792898 11:18.451794 12:31.299067 13:955 14:353 15:274 #
-5.4156551326374610319525082502423e-05 1:0.014923453 2:0.0043866462 3:0.056299236 4:2 5:2 6:2 7:1 8:1 9:6 10:13.960651 11:16.918777 12:18.463301 13:6101 14:4823 15:4144 #
-8.9125848560689391320011054631323e-05 1:0.39863786 2:0.31093577 3:0.14518169 4:80 5:80 6:80 7:39 8:31 9:11 10:33.605995 11:34.259556 12:29.430426 13:3139 14:3183 15:3682 #
0.0006123392612593231421058703745075 1:0.37989044 2:0.40538701 3:0.34064859 4:281 5:281 6:281 7:47 8:58 9:48 10:23.764355 11:18.983793 12:34.650223 13:10705 14:8932 15:6922 #
0.0010000000000000000208166817117217 1:0.052760091 2:0.00046703167 3:0.0021259079 4:236 5:236 6:236 7:3 8:3 9:9 10:15.275316 11:18.107264 12:30.152397 13:2194 14:1193 15:1032 #
-0.00013031924393043980894141276039022 1:0.17713122 2:0.11829755 3:0.079933241 4:252 5:252 6:252 7:14 8:13 9:9 10:15.973295 11:18.51053 12:30.99168 13:1558 14:547 15:376 #
3.1932053267606548862579413788909e-06 1:0.35526308 2:0.16054858 3:0.1067066 4:204 5:204 6:204 7:29 8:28 9:32 10:2.5599225 11:9.9100742 12:27.594576 13:3141 14:2180 15:2030 #
0.0010000000000000000208166817117217 1:0.13400297 2:0.0001029077 3:0.016221581 4:460 5:460 6:460 7:9 8:2 9:4 10:15.175913 11:16.815071 12:29.819572 13:2393 14:1218 15:868 #
-2.9677311181221396017837488301438e-06 1:0.1242715 2:0.15797022 3:0.1772017 4:470 5:470 6:470 7:13 8:14 9:13 10:23.171665 11:21.923378 12:19.605288 13:6050 14:5268 15:4141 #
-3.7986205849040662807438329534593e-08 1:0.22114973 2:0.22898793 3:0.21021909 4:441 5:441 6:441 7:19 8:19 9:15 10:25.486038 11:22.425207 12:20.239145 13:7083 14:6304 15:5016 #
0.0010000000000000000208166817117217 1:0.17085682 2:0.045631062 3:0.042550229 4:234 5:234 6:234 7:11 8:8 9:2 10:12.701607 11:15.481188 12:28.326504 13:2643 14:1531 15:836 #
-7.8554446269059975465828826735049e-06 1:0.45579568 2:0.14873831 3:0.073970303 4:2 5:2 6:2 7:34 8:18 9:8 10:17.019043 11:18.853695 12:31.508638 13:732 14:372 15:316 #
-0.00018433641659226925827580467753819 1:0.0034039551 2:0.056252409 3:0.068121478 4:1 5:1 6:1 7:1 8:3 9:4 10:10.846443 11:12.238029 12:15.594488 13:6101 14:4807 15:4224 #
1.7199000764181933160069243315959e-05 1:0.57864249 2:0.61272568 3:0.61986941 4:255 5:255 6:255 7:34 8:42 9:48 10:10.630658 11:10.599243 12:9.3859777 13:5186 14:3726 15:2865 #
1.6709876411983712270653600409642e-06 1:0.51536107 2:0.54157841 3:0.56725395 4:270 5:270 6:270 7:32 8:40 9:49 10:5.6978498 11:3.2229359 12:6.5981603 13:5144 14:3708 15:2900 #
-5.6187045126204788934946290565597e-07 1:0.29221389 2:0.044161908 3:0.060058106 4:492 5:492 6:492 7:22 8:3 9:21 10:15.072095 11:15.679232 12:24.907349 13:1361 14:1068 15:1609 #
-3.4752602328531186140481417518044e-06 1:0.29916263 2:0.30053777 3:0.26672399 4:194 5:194 6:194 7:25 8:23 9:18 10:24.162043 11:20.693434 12:14.072252 13:7083 14:6221 15:4898 #
6.7145045884846942343439357703261e-05 1:0.30246297 2:0.33542162 3:0.12000366 4:281 5:281 6:281 7:41 8:67 9:35 10:12.79078 11:0.46040684 12:3.9486806 13:12089 14:9256 15:6049 #
1.2516695945773910242544701976186e-05 1:0.45885995 2:0.58742678 3:0.39011303 4:0 5:0 6:0 7:34 8:48 9:33 10:19.180443 11:24.348951 12:24.222622 13:5386 14:2905 15:1389 #
0.0010000000000000000208166817117217 1:0.29675615 2:0.38884073 3:0.17994949 4:281 5:281 6:281 7:47 8:70 9:37 10:8.7504673 11:6.1985688 12:12.874938 13:11886 14:9488 15:6412 #
-7.7684719709960421349381753941543e-08 1:0.36056489 2:0.28315175 3:0.18082382 4:10 5:10 6:10 7:34 8:25 9:9 10:16.976215 11:16.124037 12:14.230319 13:6185 14:5720 15:4991 #
-0.00051641143776631759365614016132895 1:0.0019041746 2:0.042778239 3:0.082410149 4:1 5:1 6:1 7:1 8:3 9:10 10:15.318648 11:17.307785 12:29.95698 13:2087 14:1047 15:426 #
-0.00029876443103139728885847548056631 1:0.38749719 2:0.85425937 3:0.4728179 4:280 5:280 6:280 7:39 8:117 9:31 10:53.982624 11:53.369144 12:5.5381451 13:10165 14:10081 15:3291 #
0.0010000000000000000208166817117217 1:0.10441028 2:0.010529513 3:0.0011167959 4:13 5:13 6:13 7:5 8:3 9:7 10:8.8817225 11:12.743434 12:27.863277 13:2397 14:1362 15:1077 #
-7.624214069517888325180194307451e-07 1:0.062322572 2:0.058508392 3:0.067044131 4:475 5:475 6:475 7:5 8:6 9:7 10:16.227375 11:17.940937 12:30.717844 13:1919 14:967 15:549 #
-0.0010000000000000000208166817117217 1:0.84864891 2:0.65743023 3:0.43884665 4:257 5:257 6:257 7:101 8:120 9:64 10:38.921883 11:36.896412 12:12.898678 13:13197 14:11279 15:8121 #
-2.3288479682438624658591397320606e-06 1:0.31231412 2:0.22817005 3:0.1493839 4:251 5:251 6:251 7:28 8:20 9:11 10:24.208105 11:23.911058 12:20.545431 13:5123 14:4763 15:3929 #
0.0010000000000000000208166817117217 1:0.44004294 2:0.46384504 3:0.37199983 4:68 5:68 6:68 7:39 8:43 9:33 10:26.890701 11:27.601215 12:24.527771 13:3298 14:2891 15:3054 #
-0.0010000000000000000208166817117217 1:0.34907019 2:0.15318063 3:0.089611538 4:496 5:496 6:496 7:26 8:18 9:12 10:16.383224 11:18.457357 12:31.041142 13:1112 14:444 15:300 #
0.00069359317209428711543950374363021 1:0.1441412 2:0.002810084 3:0.0045709261 4:13 5:13 6:13 7:10 8:3 9:7 10:15.45223 11:17.568211 12:30.459686 13:2459 14:1223 15:1020 #
0.0010000000000000000208166817117217 1:0.09482006 2:0.0031615491 3:0.010075172 4:461 5:461 6:461 7:7 8:2 9:6 10:16.031086 11:17.672499 12:30.434189 13:2258 14:1197 15:924 #
-9.9204070576806824549988359646102e-07 1:0.04451216 2:0.055741049 3:0.060622506 4:474 5:474 6:474 7:4 8:5 9:5 10:15.225066 11:17.282707 12:29.954346 13:2033 14:1036 15:638 #
-0.0010000000000000000208166817117217 1:0.14068839 2:0.1090488 3:0.086033776 4:4 5:4 6:4 7:11 8:13 9:10 10:15.903791 11:17.975468 12:30.870922 13:1637 14:681 15:337 #
-0.0010000000000000000208166817117217 1:0.45798773 2:0.17145965 3:0.088281348 4:260 5:260 6:260 7:34 8:21 9:11 10:15.871952 11:18.71454 12:31.165979 13:837 14:316 15:273 #
3.2025146017991919596116135067476e-07 1:0.49322528 2:0.13010782 3:0.022675097 4:229 5:229 6:229 7:31 8:18 9:12 10:3.9688597 11:8.6053057 12:25.207361 13:3463 14:1980 15:1334 #
0.00044525661964830526252587250546355 1:0.019150389 2:0.046895247 3:0.07534907 4:443 5:443 6:443 7:2 8:12 9:16 10:9.4264116 11:7.1327119 12:3.4586523 13:3216 14:1639 15:1726 #
0.0010000000000000000208166817117217 1:0.24442752 2:0.067260027 3:0.028697874 4:5 5:5 6:5 7:16 8:11 9:2 10:9.9273939 11:13.081282 12:27.815397 13:2736 14:1627 15:915 #
0.0010000000000000000208166817117217 1:1 2:0.47833934 3:0.32420549 4:0 5:0 6:0 7:102 8:56 9:29 10:48.531097 11:53.109749 12:29.626837 13:2762 14:1522 15:1171 #
-1.4553057216751184675803884593925e-07 1:0.15123762 2:0.10001852 3:0.066768914 4:250 5:250 6:250 7:12 8:11 9:6 10:15.94099 11:18.099119 12:30.575813 13:1681 14:731 15:556 #
-7.9684748849620654993959351780619e-07 1:0.15767971 2:0.071897402 3:0.098513238 4:225 5:225 6:225 7:16 8:10 9:10 10:8.7157631 11:4.8439612 12:0.87637842 13:7260 14:6244 15:5087 #
-9.6187864879180608179698452886441e-07 1:0.11728191 2:0.11820668 3:0.16025023 4:244 5:244 6:244 7:14 8:13 9:14 10:19.571405 11:18.465649 12:14.524231 13:6320 14:5604 15:4426 #
-1.2979128717519050617568154848414e-05 1:0.35192278 2:0.3584649 3:0.3630721 4:408 5:408 6:408 7:34 8:35 9:29 10:6.1465521 11:8.6563778 12:9.2882156 13:10277 14:9470 15:8221 #
-2.6598382252356482014811478453709e-05 1:0.1714644 2:0.12941778 3:0.093220532 4:0 5:0 6:0 7:13 8:8 9:2 10:16.506279 11:23.512362 12:26.238945 13:2207 14:330 15:277 #
