SVM-light Version V6.02
0 # kernel type
3 # kernel parameter -d 
1 # kernel parameter -g 
1 # kernel parameter -s 
1 # kernel parameter -r 
empty# kernel parameter -u 
15 # highest feature index 
8748 # number of training documents 
7183 # number of support vectors plus 1 
1.2718397 # threshold b, each following line is a SV (starting with alpha*y)
-0.0010000000000000000208166817117217 1:2.066874 2:0.34348193 3:3.963552 4:228 5:228 6:228 7:3 8:2 9:6 10:13.905477 11:13.040572 12:13.171206 13:0.99777269 14:0.99712646 15:0.99699289 #
0.0010000000000000000208166817117217 1:15.956874 2:14.903481 3:16.963552 4:246 5:246 6:246 7:16 8:16 9:18 10:13.1103 11:14.499577 12:15.313523 13:0.99829489 14:0.997742 15:0.99747443 #
-0.0010000000000000000208166817117217 1:15.271012 2:137.31587 3:218.01347 4:98 5:98 6:98 7:15 8:140 9:226 10:15.15027 11:16.962353 12:29.659815 13:0.99827087 14:0.99494028 15:0.99323428 #
0.0010000000000000000208166817117217 1:1.0967084 2:0.31832105 3:1.490561 4:1 5:1 6:1 7:1 8:0 9:1 10:19.216606 11:17.072668 12:13.507565 13:0.9999761 14:0.99997801 15:0.99998128 #
0.0010000000000000000208166817117217 1:32.260284 2:12.675464 3:7.0812445 4:0 5:0 6:0 7:22 8:7 9:5 10:28.331078 11:11.77992 12:1.3312398 13:0.99974805 14:0.99985278 15:0.99992001 #
-0.0010000000000000000208166817117217 1:22.793291 2:22.361679 3:20.020561 4:503 5:503 6:503 7:35 8:34 9:30 10:2.6538336 11:3.8703148 12:3.2889495 13:0.9999752 14:0.99997687 15:0.9999789 #
0.0010000000000000000208166817117217 1:11.613292 2:11.111679 3:5.550561 4:0 5:0 6:0 7:10 8:8 9:5 10:14.786991 11:14.048531 12:12.432333 13:0.99997914 14:0.99998093 15:0.99998224 #
-0.0010000000000000000208166817117217 1:68.193291 2:60.641678 3:48.07056 4:556 5:556 6:556 7:81 8:68 9:52 10:0.97419083 11:0.8524431 12:0.65820593 13:0.99998879 14:0.99998856 15:0.99998844 #
-0.0010000000000000000208166817117217 1:53.163292 2:43.191677 3:32.680561 4:565 5:565 6:565 7:45 8:36 9:27 10:8.9754887 11:10.874136 12:13.743132 13:0.99997932 14:0.99997866 15:0.99997944 #
-0.0010000000000000000208166817117217 1:6.0605254 2:1.4587138 3:5.9825959 4:362 5:362 6:362 7:4 8:3 9:11 10:24.000336 11:29.273884 12:27.709751 13:0.99888235 14:0.99877375 15:0.99894756 #
-0.0010000000000000000208166817117217 1:78.160522 2:78.051285 3:46.427402 4:0 5:0 6:0 7:76 8:76 9:42 10:28.00276 11:34.036694 12:33.202717 13:1 14:1 15:0.999933 #
0.0010000000000000000208166817117217 1:38.203293 2:36.90168 3:33.830563 4:554 5:554 6:554 7:40 8:39 9:34 10:3.3831947 11:5.2433648 12:9.2585211 13:0.99998015 14:0.99998146 15:0.99998313 #
0.0010000000000000000208166817117217 1:69.453293 2:58.33168 3:41.060562 4:532 5:532 6:532 7:72 8:61 9:41 10:25.006796 11:22.648544 12:18.160612 13:0.99999893 14:0.99999768 15:0.99999648 #
-0.0010000000000000000208166817117217 1:31.009693 2:21.760738 3:7.7340307 4:1 5:1 6:1 7:9 8:18 9:8 10:55.049152 11:57.885826 12:2.2638915 13:0.99962652 14:0.99970722 15:0.99992388 #
-0.0010000000000000000208166817117217 1:9.7710123 2:1.4941308 3:12.136523 4:238 5:238 6:238 7:9 8:1 9:5 10:14.656181 11:16.948734 12:29.831553 13:0.99850327 14:0.9992401 15:0.9996357 #
0.0010000000000000000208166817117217 1:8.3432913 2:6.6616788 3:6.1905608 4:483 5:483 6:483 7:11 8:10 9:9 10:9.1481142 11:6.4226117 12:5.4077215 13:0.99997795 14:0.99997932 15:0.99998188 #
0.0010000000000000000208166817117217 1:36.209694 2:7.1292615 3:3.1559691 4:1 5:1 6:1 7:13 8:14 9:2 10:53.463158 11:44.503708 12:5.278841 13:0.99961621 14:0.99976605 15:0.99994349 #
0.0010000000000000000208166817117217 1:54.179871 2:46.873821 3:19.626358 4:0 5:0 6:0 7:60 8:36 9:16 10:27.918486 11:36.052391 12:15.257824 13:0.99908537 14:0.99925786 15:0.99929249 #
0.0010000000000000000208166817117217 1:58.163292 2:49.13168 3:35.540562 4:529 5:529 6:529 7:65 8:57 9:41 10:14.13203 11:12.560084 12:11.978076 13:0.99999607 14:0.99999583 15:0.99999475 #
-0.0010000000000000000208166817117217 1:9.5498686 2:27.98382 3:20.596357 4:0 5:0 6:0 7:4 8:11 9:11 10:44.021511 11:45.427803 12:22.30019 13:0.99885333 14:0.99920952 15:0.99939412 #
0.0010000000000000000208166817117217 1:72.623291 2:62.731678 3:45.73056 4:547 5:547 6:547 7:77 8:66 9:47 10:17.102684 11:17.252245 12:18.749754 13:0.99999797 14:0.99999756 15:0.9999963 #
0.0010000000000000000208166817117217 1:5.5532918 2:12.951679 3:19.930561 4:229 5:229 6:229 7:5 8:10 9:17 10:14.408819 11:11.95357 12:13.24299 13:0.99998295 14:0.99998665 15:0.99999094 #
0.0010000000000000000208166817117217 1:29.993292 2:29.451679 3:31.170561 4:36 5:36 6:36 7:33 8:32 9:33 10:18.362732 11:16.150259 12:13.910979 13:0.99998504 14:0.99998659 15:0.99998975 #
0.0010000000000000000208166817117217 1:74.38987 2:61.353821 3:34.266357 4:0 5:0 6:0 7:68 8:46 9:28 10:35.094269 11:47.699631 12:26.083967 13:0.99948978 14:0.9996019 15:0.99965882 #
0.0010000000000000000208166817117217 1:68.299866 2:49.773819 3:17.426357 4:0 5:0 6:0 7:70 8:39 9:13 10:34.431477 11:36.717537 12:12.830168 13:0.99920404 14:0.99927044 15:0.99922073 #
-0.0010000000000000000208166817117217 1:16.740286 2:1.074536 3:11.108755 4:1 5:1 6:1 7:6 8:2 9:6 10:29.106764 11:20.754822 12:12.690273 13:0.99974388 14:0.99984318 15:0.99991864 #
-0.0010000000000000000208166817117217 1:43.603291 2:36.56168 3:22.07056 4:2 5:2 6:2 7:41 8:31 9:17 10:3.3023012 11:2.4118268 12:0.43731129 13:0.99997795 14:0.99997807 15:0.99997783 #
-0.0010000000000000000208166817117217 1:22.479692 2:9.3107386 3:3.9440308 4:4 5:4 6:4 7:4 8:8 9:5 10:49.79985 11:52.239101 12:0.021125801 13:0.99962687 14:0.99971449 15:0.99990994 #
-0.0010000000000000000208166817117217 1:9.7767086 2:8.6583214 3:8.3594389 4:3 5:3 6:3 7:15 8:10 9:8 10:13.513783 11:11.536644 12:5.7079725 13:0.99996525 14:0.9999671 15:0.99997026 #
-0.0010000000000000000208166817117217 1:14.429714 2:22.914536 3:19.728756 4:209 5:209 6:209 7:21 8:21 9:14 10:32.482224 11:25.968729 12:18.836985 13:0.99983448 14:0.99992645 15:0.99998367 #
0.0010000000000000000208166817117217 1:7.6832914 2:7.5116792 3:0.51056099 4:0 5:0 6:0 7:7 8:7 9:1 10:19.203268 11:18.560438 12:19.093103 13:0.99997991 14:0.99998152 15:0.99998218 #
-0.0010000000000000000208166817117217 1:27.460526 2:36.841286 3:40.847404 4:0 5:0 6:0 7:24 8:34 9:35 10:25.593922 11:30.995665 12:30.387402 13:0.99928451 14:0.99939805 15:0.99972504 #
0.0010000000000000000208166817117217 1:19.371012 2:11.375869 3:5.4465237 4:3 5:3 6:3 7:17 8:12 9:1 10:11.398416 11:12.591501 12:26.591093 13:0.9981547 14:0.99874735 15:0.99936962 #
-0.0010000000000000000208166817117217 1:51.913292 2:39.42168 3:27.160561 4:259 5:259 6:259 7:50 8:39 9:26 10:17.178173 11:15.062383 12:11.167025 13:0.99998671 14:0.99998522 15:0.99998474 #
0.0010000000000000000208166817117217 1:29.242275 2:33.471199 3:23.270014 4:109 5:109 6:109 7:30 8:35 9:28 10:34.594971 11:35.022053 12:30.695086 13:0.99826199 14:0.99825007 15:0.99874979 #
-0.0010000000000000000208166817117217 1:3.8432915 2:9.1116791 3:12.830561 4:4 5:4 6:4 7:1 8:5 9:12 10:0.4576773 11:0.91094124 12:1.1117116 13:0.99997485 14:0.99997777 15:0.99998146 #
0.0010000000000000000208166817117217 1:27.459869 2:36.353821 3:23.836357 4:0 5:0 6:0 7:21 8:19 9:14 10:46.079212 11:46.818066 12:23.720058 13:0.99891591 14:0.99919343 15:0.99934888 #
0.0010000000000000000208166817117217 1:4.2197142 2:10.654536 3:14.658755 4:214 5:214 6:214 7:16 8:11 9:12 10:24.1108 11:17.038891 12:10.31991 13:0.99979877 14:0.9998858 15:0.99995399 #
0.0010000000000000000208166817117217 1:4.5167084 2:0.38167897 3:4.6305609 4:0 5:0 6:0 7:14 8:10 9:1 10:2.9850903 11:1.3080176 12:2.6616848 13:0.99997622 14:0.9999792 15:0.99998295 #
-0.0010000000000000000208166817117217 1:6.5632915 2:4.1216788 3:6.3994389 4:242 5:242 6:242 7:8 8:7 9:6 10:10.587298 11:11.543572 12:7.2963414 13:0.99998075 14:0.99998152 15:0.99998134 #
-0.0010000000000000000208166817117217 1:1.6789876 2:5.5841308 3:12.316524 4:1 5:1 6:1 7:2 8:3 9:5 10:16.235388 11:18.187273 12:31.082315 13:0.99890828 14:0.99944723 15:0.99972469 #
0.0010000000000000000208166817117217 1:1.6502858 2:10.174536 3:13.388756 4:1 5:1 6:1 7:6 8:8 9:7 10:31.429121 11:24.102907 12:15.48925 13:0.99978644 14:0.99988037 15:0.99994648 #
-0.0010000000000000000208166817117217 1:29.719692 2:9.8207388 3:7.4140306 4:3 5:3 6:3 7:9 8:10 9:7 10:49.995312 11:50.637497 12:2.2549841 13:0.99960876 14:0.99970984 15:0.99990779 #
-0.0010000000000000000208166817117217 1:44.51329 2:41.051678 3:32.830563 4:530 5:530 6:530 7:49 8:47 9:36 10:1.7257971 11:0.56110144 12:0.82672465 13:0.9999786 14:0.9999795 15:0.99998116 #
0.0010000000000000000208166817117217 1:2.1167083 2:6.0416789 3:16.40056 4:453 5:453 6:453 7:4 8:5 9:16 10:15.059253 11:12.881283 12:10.392878 13:0.99997592 14:0.99997991 15:0.99998528 #
0.0010000000000000000208166817117217 1:0.33028582 2:9.3545361 3:15.798756 4:1 5:1 6:1 7:8 8:8 9:9 10:22.468136 11:15.971061 12:13.897411 13:0.99977976 14:0.99986798 15:0.99994266 #
-0.0010000000000000000208166817117217 1:12.803291 2:15.621679 3:15.620561 4:245 5:245 6:245 7:16 8:18 9:17 10:15.515797 11:13.832043 12:10.85343 13:0.99997777 14:0.99998057 15:0.99998373 #
-0.0010000000000000000208166817117217 1:9.293292 2:10.351679 3:11.550561 4:6 5:6 6:6 7:1 8:3 9:8 10:0.49504477 11:1.9021342 12:3.0280561 13:0.99997836 14:0.99998015 15:0.99998319 #
0.0010000000000000000208166817117217 1:4.5132918 2:5.2516789 3:5.220561 4:518 5:518 6:518 7:8 8:11 9:11 10:5.0229321 11:6.5121613 12:6.6594634 13:0.99996781 14:0.9999693 15:0.99997228 #
0.0010000000000000000208166817117217 1:2.9397142 2:3.7845361 3:2.7987556 4:3 5:3 6:3 7:14 8:4 9:1 10:28.31031 11:18.039419 12:7.8980188 13:0.99979484 14:0.99987286 15:0.99993497 #
-0.0010000000000000000208166817117217 1:6.4232917 2:10.171679 3:13.060561 4:1 5:1 6:1 7:5 8:4 9:9 10:10.912322 11:13.251811 12:12.236798 13:0.99997091 14:0.99997371 15:0.99997795 #
0.0010000000000000000208166817117217 1:15.419868 2:17.42382 3:0.55635768 4:0 5:0 6:0 7:4 8:6 9:11 10:28.218447 11:30.887203 12:12.821012 13:0.9989835 14:0.99920201 15:0.99930423 #
-0.0010000000000000000208166817117217 1:11.490286 2:10.194536 3:19.738756 4:2 5:2 6:2 7:6 8:8 9:14 10:28.31637 11:19.595942 12:12.748174 13:0.9997673 14:0.99987268 15:0.99994552 #
0.0010000000000000000208166817117217 1:32.039867 2:37.323822 3:22.356358 4:0 5:0 6:0 7:26 8:21 9:15 10:38.937389 11:43.837574 12:21.530886 13:0.9988448 14:0.99909341 15:0.99920803 #
-0.0010000000000000000208166817117217 1:8.5297146 2:15.464536 3:16.368755 4:0 5:0 6:0 7:15 8:13 9:10 10:29.424141 11:21.769428 12:17.988138 13:0.99982053 14:0.99990469 15:0.99997169 #
0.0010000000000000000208166817117217 1:0.28670838 2:2.431679 3:1.990561 4:1 5:1 6:1 7:2 8:1 9:2 10:14.543686 11:12.381387 12:9.896965 13:0.99997872 14:0.99998075 15:0.99998355 #
-0.0010000000000000000208166817117217 1:2.1567085 2:5.598321 3:9.529439 4:1 5:1 6:1 7:1 8:5 9:10 10:1.3986083 11:2.1223414 12:2.6642308 13:0.99996501 14:0.99996579 15:0.99996763 #
-0.0010000000000000000208166817117217 1:2.8067083 2:2.4383211 3:0.63056099 4:1 5:1 6:1 7:1 8:1 9:2 10:23.18516 11:21.925261 12:19.796209 13:0.99997872 14:0.99998069 15:0.99998403 #
-0.0010000000000000000208166817117217 1:8.1467085 2:7.1483212 3:11.329439 4:6 5:6 6:6 7:3 8:4 9:8 10:10.890557 11:9.591917 12:9.019474 13:0.99997133 14:0.99997318 15:0.99997491 #
-0.0010000000000000000208166817117217 1:24.499693 2:0.34073853 3:0.63403076 4:0 5:0 6:0 7:2 8:2 9:0 10:51.831615 11:55.647835 12:0.45384818 13:0.99962026 14:0.9997282 15:0.99991876 #
-0.0010000000000000000208166817117217 1:57.663292 2:48.071678 3:39.020561 4:557 5:557 6:557 7:59 8:51 9:39 10:3.5012991 11:4.0203753 12:4.1924963 13:0.99997723 14:0.99997658 15:0.99997717 #
-0.0010000000000000000208166817117217 1:4.6701312 2:14.42382 3:14.316358 4:0 5:0 6:0 7:12 8:2 9:2 10:34.516594 11:37.172951 12:17.307724 13:0.99841315 14:0.99877125 15:0.999093 #
-0.0010000000000000000208166817117217 1:98.982277 2:103.8212 3:106.99001 4:0 5:0 6:0 7:138 8:144 9:149 10:20.821171 11:21.361214 12:24.462769 13:0.99641025 14:0.99636811 15:0.99669862 #
0.0010000000000000000208166817117217 1:20.450285 2:0.914536 3:17.948755 4:0 5:0 6:0 7:12 8:1 9:11 10:30.255903 11:22.456736 12:15.505098 13:0.99976516 14:0.99986887 15:0.99995506 #
0.0010000000000000000208166817117217 1:1.4802858 2:4.9754639 3:9.2512445 4:0 5:0 6:0 7:23 8:18 9:3 10:2.3425806 11:14.254117 12:8.8147278 13:0.99979788 14:0.99987054 15:0.99993205 #
0.0010000000000000000208166817117217 1:28.211031 2:34.652134 3:42.035904 4:20 5:20 6:20 7:3 8:4 9:5 10:24.525127 11:28.182997 12:31.825283 13:0.99603111 14:0.99623823 15:0.99573952 #
-0.0010000000000000000208166817117217 1:0.96028578 2:17.554537 3:19.058756 4:4 5:4 6:4 7:6 8:16 9:13 10:30.131248 11:22.026926 12:15.798258 13:0.9997834 14:0.99988431 15:0.99994606 #
0.0010000000000000000208166817117217 1:46.08987 2:34.213821 3:9.416358 4:0 5:0 6:0 7:55 8:26 9:2 10:16.054136 11:20.51346 12:5.1883235 13:0.99888408 14:0.99900055 15:0.99909121 #
0.0010000000000000000208166817117217 1:17.049692 2:66.559265 3:1.1959692 4:4 5:4 6:4 7:4 8:70 9:1 10:54.0504 11:56.629982 12:8.249259 13:0.99967724 14:0.99989432 15:0.99996287 #
0.0010000000000000000208166817117217 1:64.603294 2:56.72168 3:42.100559 4:25 5:25 6:25 7:65 8:55 9:39 10:7.2537065 11:5.6147885 12:6.1843681 13:0.99999708 14:0.9999972 15:0.99999613 #
-0.0010000000000000000208166817117217 1:99.902275 2:104.2112 3:108.15002 4:512 5:512 6:512 7:138 8:144 9:151 10:19.26178 11:20.858898 12:24.145973 13:0.99639976 14:0.99639285 15:0.99669999 #
-0.0010000000000000000208166817117217 1:0.86329162 2:0.87167895 3:6.8305612 4:0 5:0 6:0 7:2 8:3 9:5 10:14.376483 11:11.87265 12:10.639559 13:0.99998111 14:0.99998295 15:0.99998689 #
-0.0010000000000000000208166817117217 1:6.5198689 2:26.74382 3:17.426357 4:0 5:0 6:0 7:1 8:8 9:7 10:43.255135 11:43.563553 12:21.644089 13:0.99876213 14:0.99912411 15:0.99930876 #
-0.0010000000000000000208166817117217 1:2.7932916 2:3.3416789 3:2.1094389 4:1 5:1 6:1 7:3 8:2 9:5 10:17.169384 11:13.919451 12:9.7738533 13:0.99997944 14:0.9999814 15:0.99998266 #
0.0010000000000000000208166817117217 1:5.5503078 2:58.58926 3:3.3359692 4:2 5:2 6:2 7:28 8:67 9:2 10:51.378002 11:44.171875 12:5.9813285 13:0.99970424 14:0.99986148 15:0.99995184 #
-0.0010000000000000000208166817117217 1:9.6967087 2:10.328321 3:9.6094389 4:5 5:5 6:5 7:4 8:4 9:5 10:6.5271416 11:4.3516049 12:1.7711979 13:0.99997032 14:0.99997181 15:0.99997455 #
0.0010000000000000000208166817117217 1:29.080286 2:4.9354639 3:20.568756 4:319 5:319 6:319 7:20 8:6 9:15 10:34.52766 11:26.643488 12:17.629265 13:0.99976599 14:0.99987441 15:0.99997056 #
0.0010000000000000000208166817117217 1:5.9303074 2:52.26926 3:3.6159692 4:5 5:5 6:5 7:31 8:62 9:4 10:47.461975 11:40.845463 12:6.1679311 13:0.99970323 14:0.99984974 15:0.99995315 #
-0.0010000000000000000208166817117217 1:2.2697141 2:11.804536 3:14.418756 4:3 5:3 6:3 7:5 8:6 9:8 10:19.574492 11:11.322584 12:15.302774 13:0.9998017 14:0.99988997 15:0.99996024 #
-0.0010000000000000000208166817117217 1:5.9232917 2:6.171679 3:6.780561 4:237 5:237 6:237 7:8 8:6 9:6 10:10.870242 11:9.3361902 12:5.9086485 13:0.99997592 14:0.99997807 15:0.99998063 #
-0.0010000000000000000208166817117217 1:11.066709 2:9.9183207 3:7.6194391 4:4 5:4 6:4 7:6 8:6 9:2 10:12.220503 11:8.5410671 12:3.799192 13:0.99997509 14:0.99997693 15:0.99998051 #
-0.0010000000000000000208166817117217 1:5.8835416 2:11.46539 3:11.535143 4:2 5:2 6:2 7:4 8:3 9:0 10:14.185559 11:20.106779 12:23.444845 13:0.99822885 14:0.99903119 15:0.99919009 #
-0.0010000000000000000208166817117217 1:9.330286 2:3.5345361 3:14.318755 4:3 5:3 6:3 7:5 8:1 9:8 10:25.633678 11:18.972343 12:14.095337 13:0.99975979 14:0.99985635 15:0.99993724 #
0.0010000000000000000208166817117217 1:32.453293 2:31.211679 3:33.82056 4:276 5:276 6:276 7:36 8:35 9:36 10:3.8392127 11:2.0222256 12:5.6160817 13:0.99998844 14:0.99998969 15:0.99999303 #
0.0010000000000000000208166817117217 1:2.7467084 2:1.231679 3:3.8505609 4:4 5:4 6:4 7:1 8:2 9:3 10:26.782278 11:23.274714 12:19.703188 13:0.99998182 14:0.99998444 15:0.9999879 #
0.0010000000000000000208166817117217 1:0.056708392 2:5.9116788 3:7.1705608 4:460 5:460 6:460 7:2 8:8 9:8 10:21.79965 11:18.734863 12:14.186182 13:0.99997836 14:0.99998152 15:0.9999845 #
0.0010000000000000000208166817117217 1:54.379868 2:43.863819 3:14.396358 4:0 5:0 6:0 7:67 8:42 9:14 10:16.438992 11:25.373718 12:8.2431889 13:0.99905092 14:0.99918085 15:0.99918717 #
0.0010000000000000000208166817117217 1:69.459869 2:52.67382 3:20.366358 4:0 5:0 6:0 7:73 8:45 9:20 10:31.785301 11:35.33128 12:13.305638 13:0.99933296 14:0.99942201 15:0.99941087 #
0.0010000000000000000208166817117217 1:90.019867 2:67.293823 3:33.576359 4:0 5:0 6:0 7:95 8:55 9:28 10:37.947811 11:45.662613 12:23.542297 13:0.99972779 14:0.99977183 15:0.99975729 #
-0.0010000000000000000208166817117217 1:2.0632915 2:1.3816789 3:3.8605609 4:249 5:249 6:249 7:4 8:4 9:6 10:12.513411 11:10.223958 12:7.1801286 13:0.99997562 14:0.99997669 15:0.99998039 #
0.0010000000000000000208166817117217 1:16.710285 2:11.025464 3:2.6287556 4:0 5:0 6:0 7:4 8:1 9:6 10:22.547777 11:1.2411462 12:4.5594263 13:0.99977094 14:0.99985468 15:0.99993658 #
0.0010000000000000000208166817117217 1:17.210285 2:1.535464 3:15.558756 4:2 5:2 6:2 7:9 8:2 9:12 10:29.668692 11:21.491842 12:12.084882 13:0.99975628 14:0.99985272 15:0.99994087 #
-0.0010000000000000000208166817117217 1:6.5767083 2:5.058321 3:0.61943901 4:454 5:454 6:454 7:6 8:7 9:3 10:10.083095 11:7.3664217 12:3.8591442 13:0.99997473 14:0.99997711 15:0.99998075 #
0.0010000000000000000208166817117217 1:14.136708 2:9.8983212 3:8.6294394 4:212 5:212 6:212 7:14 8:11 9:9 10:21.338144 11:19.184887 12:16.76137 13:0.99997789 14:0.99998033 15:0.99998379 #
0.0010000000000000000208166817117217 1:43.719692 2:34.100739 3:6.9859691 4:10 5:10 6:10 7:24 8:32 9:8 10:57.332867 11:60.467583 12:4.9530978 13:0.99961179 14:0.99969637 15:0.99995577 #
0.0010000000000000000208166817117217 1:104.91987 2:71.533821 3:36.756359 4:0 5:0 6:0 7:102 8:56 9:29 10:48.531097 11:53.109749 12:29.626837 13:0.99991906 14:0.9998762 15:0.99986011 #
0.0010000000000000000208166817117217 1:22.030285 2:3.2545359 3:22.088755 4:325 5:325 6:325 7:13 8:3 9:17 10:32.949574 11:23.850159 12:15.979383 13:0.9997611 14:0.99987167 15:0.99995846 #
0.0010000000000000000208166817117217 1:35.543293 2:32.201679 3:28.200562 4:263 5:263 6:263 7:42 8:37 9:31 10:9.345026 11:9.1107931 12:8.1421471 13:0.99998683 14:0.99998754 15:0.99998903 #
-0.0010000000000000000208166817117217 1:69.673294 2:62.661678 3:47.540562 4:535 5:535 6:535 7:75 8:69 9:49 10:7.1130905 11:1.8912216 12:3.6106622 13:0.99998862 14:0.99998927 15:0.99998951 #
0.0010000000000000000208166817117217 1:10.041013 2:1.5458691 3:1.4165235 4:235 5:235 6:235 7:9 8:3 9:6 10:12.531549 11:14.843814 12:27.933008 13:0.99838787 14:0.99905413 15:0.99925917 #
-0.0010000000000000000208166817117217 1:36.480309 2:53.879261 3:2.5959692 4:2 5:2 6:2 7:60 8:59 9:2 10:55.794598 11:59.084251 12:7.3665204 13:0.99976969 14:0.99986666 15:0.9999606 #
0.0010000000000000000208166817117217 1:1.9167084 2:2.538321 3:5.5805612 4:485 5:485 6:485 7:14 8:15 9:21 10:10.522999 11:14.919456 12:15.465918 13:0.99996597 14:0.99996758 15:0.99997264 #
0.0010000000000000000208166817117217 1:25.793291 2:23.781679 3:21.330561 4:248 5:248 6:248 7:27 8:24 9:21 10:27.626888 11:25.493626 12:19.786945 13:0.99998909 14:0.99999064 15:0.99999237 #
-0.0010000000000000000208166817117217 1:15.350286 2:8.0145359 3:22.468756 4:2 5:2 6:2 7:7 8:8 9:18 10:31.665455 11:23.074938 12:15.012948 13:0.9997611 14:0.99986851 15:0.99995124 #
0.0010000000000000000208166817117217 1:19.152275 2:8.4411993 3:31.729986 4:117 5:117 6:117 7:20 8:10 9:27 10:35.051891 11:35.549232 12:31.414738 13:0.9984113 14:0.9986487 15:0.99962115 #
-0.0010000000000000000208166817117217 1:3.5089877 2:7.304131 3:12.766523 4:1 5:1 6:1 7:4 8:5 9:5 10:16.062763 11:17.697899 12:30.602966 13:0.99899817 14:0.99952412 15:0.99974614 #
-0.0010000000000000000208166817117217 1:43.810287 2:29.715464 3:5.0212445 4:281 5:281 6:281 7:36 8:31 9:11 10:27.952217 11:18.257088 12:9.415494 13:0.99971086 14:0.99980289 15:0.99989665 #
-0.0010000000000000000208166817117217 1:22.919714 2:20.664536 3:12.488755 4:207 5:207 6:207 7:30 8:19 9:8 10:29.331758 11:22.659353 12:14.998088 13:0.99982953 14:0.9999066 15:0.99995673 #
0.0010000000000000000208166817117217 1:11.513291 2:14.231679 3:10.830561 4:472 5:472 6:472 7:12 8:14 9:6 10:10.670652 11:8.3008099 12:4.4750099 13:0.99997687 14:0.99997896 15:0.99998087 #
0.0010000000000000000208166817117217 1:2.9368742 2:2.123482 3:5.3435521 4:0 5:0 6:0 7:2 8:0 9:5 10:10.240063 11:11.187546 12:15.341401 13:0.99782997 14:0.99723387 15:0.9971121 #
0.0010000000000000000208166817117217 1:10.639714 2:7.5045362 3:7.2987556 4:0 5:0 6:0 7:19 8:7 9:4 10:30.529982 11:21.483816 12:12.903874 13:0.99981177 14:0.9998849 15:0.99994802 #
-0.0010000000000000000208166817117217 1:1.2501311 2:22.40382 3:20.706358 4:360 5:360 6:360 7:5 8:6 9:12 10:45.204208 11:45.83168 12:22.666813 13:0.99869668 14:0.99912012 15:0.99932349 #
0.0010000000000000000208166817117217 1:14.500308 2:91.619263 3:1.2859693 4:1 5:1 6:1 7:36 8:96 9:0 10:60.902275 11:63.20755 12:8.6899576 13:0.99973661 14:0.99994308 15:0.99996495 #
0.0010000000000000000208166817117217 1:51.33329 2:45.951679 3:35.410561 4:551 5:551 6:551 7:56 8:48 9:36 10:3.3259902 11:3.545167 12:4.6168928 13:0.99998283 14:0.99998349 15:0.99998331 #
-0.0010000000000000000208166817117217 1:60.873291 2:45.701679 3:26.39056 4:524 5:524 6:524 7:62 8:47 9:26 10:21.086885 11:17.476803 12:12.900516 13:0.99999022 14:0.99998832 15:0.99998587 #
-0.0010000000000000000208166817117217 1:31.653292 2:24.56168 3:11.490561 4:255 5:255 6:255 7:34 8:27 9:12 10:24.814791 11:23.229048 12:18.612082 13:0.99998754 14:0.99998772 15:0.99998629 #
-0.0010000000000000000208166817117217 1:19.282274 2:12.8312 3:6.6399865 4:119 5:119 6:119 7:20 8:13 9:4 10:33.087116 11:32.309097 12:24.330177 13:0.99833208 14:0.99849975 15:0.99915093 #
-0.0010000000000000000208166817117217 1:51.053291 2:48.641678 3:36.180561 4:528 5:528 6:528 7:56 8:55 9:41 10:11.783227 11:7.6104417 12:3.6320474 13:0.99998766 14:0.99998903 15:0.99998838 #
0.0010000000000000000208166817117217 1:23.693291 2:15.671679 3:4.6505609 4:238 5:238 6:238 7:20 8:13 9:4 10:13.97495 11:15.539634 12:13.547535 13:0.99998385 14:0.99998373 15:0.99998331 #
-0.0010000000000000000208166817117217 1:5.4967084 2:3.9383211 3:5.7094388 4:221 5:221 6:221 7:5 8:4 9:5 10:11.539783 11:10.761271 12:8.8373842 13:0.99997467 14:0.99997658 15:0.99997884 #
0.0010000000000000000208166817117217 1:52.289715 2:47.494537 3:16.788755 4:2 5:2 6:2 7:59 8:46 9:11 10:30.250542 11:24.724396 12:17.35428 13:0.9998821 14:0.99995404 15:0.99998063 #
-0.0010000000000000000208166817117217 1:4.1289878 2:9.4841309 3:13.346523 4:474 5:474 6:474 7:5 8:7 9:6 10:16.569635 11:17.281027 12:30.415943 13:0.9989807 14:0.99954271 15:0.99971473 #
0.0010000000000000000208166817117217 1:30.830286 2:30.885464 3:14.891245 4:281 5:281 6:281 7:22 8:32 9:21 10:22.776505 11:13.389147 12:5.2174001 13:0.99971151 14:0.99978548 15:0.99986446 #
0.0010000000000000000208166817117217 1:14.899714 2:20.744535 3:15.348756 4:207 5:207 6:207 7:21 8:19 9:10 10:27.912697 11:22.127886 12:14.647715 13:0.99982178 14:0.99990827 15:0.99995989 #
0.0010000000000000000208166817117217 1:33.999714 2:23.454536 3:5.1987557 4:6 5:6 6:6 7:58 8:33 9:2 10:5.7668509 11:4.9714184 12:7.3352275 13:0.99979782 14:0.9998703 15:0.99991345 #
0.0010000000000000000208166817117217 1:17.816874 2:19.733482 3:25.663551 4:231 5:231 6:231 7:16 8:19 9:24 10:5.5260015 11:5.2522941 12:5.9057465 13:0.99823767 14:0.99795681 15:0.99785799 #
0.0010000000000000000208166817117217 1:9.9467087 2:6.2383208 3:3.4094391 4:0 5:0 6:0 7:9 8:5 9:3 10:23.876278 11:21.541059 12:18.89435 13:0.9999783 14:0.99998105 15:0.99998438 #
0.0010000000000000000208166817117217 1:17.883291 2:23.941679 3:22.860561 4:263 5:263 6:263 7:24 8:29 9:25 10:13.862813 11:10.231493 12:4.6922345 13:0.99997896 14:0.99998176 15:0.99998432 #
0.0010000000000000000208166817117217 1:40.099693 2:15.680738 3:3.0359693 4:4 5:4 6:4 7:23 8:20 9:3 10:52.327621 11:46.604664 12:5.1399412 13:0.9996177 14:0.99972963 15:0.99995083 #
-0.0010000000000000000208166817117217 1:3.7402859 2:11.684536 3:17.198755 4:2 5:2 6:2 7:3 8:8 9:11 10:25.950472 11:17.124809 12:14.578458 13:0.9997803 14:0.99987936 15:0.9999525 #
-0.0010000000000000000208166817117217 1:61.439693 2:113.56074 3:5.7359691 4:18 5:18 6:18 7:42 8:118 9:10 10:57.00761 11:52.176876 12:1.4510303 13:0.99958092 14:0.99954766 15:0.99995083 #
0.0010000000000000000208166817117217 1:14.333292 2:16.451679 3:18.680561 4:21 5:21 6:21 7:17 8:19 9:20 10:16.107794 11:17.403984 12:16.705967 13:0.99998176 14:0.99998415 15:0.99998742 #
-0.0010000000000000000208166817117217 1:4.6932917 2:5.9516788 3:7.0905609 4:255 5:255 6:255 7:3 8:7 9:5 10:0.0081590526 11:1.1278366 12:1.2301317 13:0.99996799 14:0.99996978 15:0.99997312 #
-0.0010000000000000000208166817117217 1:39.933292 2:35.521679 3:24.290562 4:521 5:521 6:521 7:43 8:40 9:28 10:0.49702513 11:0.58490402 12:0.3475841 13:0.99997967 14:0.99998039 15:0.99998075 #
0.0010000000000000000208166817117217 1:43.800285 2:30.105465 3:25.761244 4:281 5:281 6:281 7:40 8:35 9:31 10:23.029362 11:6.3839931 12:5.5480227 13:0.99969554 14:0.99977398 15:0.99984902 #
-0.0010000000000000000208166817117217 1:46.940285 2:38.035465 3:9.6812449 4:281 5:281 6:281 7:39 8:39 9:15 10:28.81599 11:18.076017 12:9.1597357 13:0.99967861 14:0.99975729 15:0.99985629 #
0.0010000000000000000208166817117217 1:20.580286 2:1.2654639 3:14.048756 4:324 5:324 6:324 7:13 8:1 9:8 10:33.465416 11:24.750254 12:17.137901 13:0.99976879 14:0.99987078 15:0.99995279 #
-0.0010000000000000000208166817117217 1:6.6322746 2:3.0311997 3:2.5199866 4:361 5:361 6:361 7:7 8:4 9:2 10:33.949352 11:34.314587 12:30.413576 13:0.99859148 14:0.99871421 15:0.99911928 #
0.0010000000000000000208166817117217 1:93.259872 2:66.693817 3:34.546356 4:0 5:0 6:0 7:95 8:54 9:28 10:37.739571 11:47.825783 12:26.22093 13:0.99977183 14:0.99980932 15:0.99981886 #
-0.0010000000000000000208166817117217 1:0.32101238 2:13.755869 3:25.113476 4:469 5:469 6:469 7:0 8:17 9:33 10:15.662023 11:17.146553 12:28.341131 13:0.99876821 14:0.99878031 15:0.9986226 #
-0.0010000000000000000208166817117217 1:39.890526 2:35.061287 3:28.847404 4:394 5:394 6:394 7:38 8:34 9:23 10:24.135666 11:28.91844 12:27.368662 13:0.99919599 14:0.9991281 15:0.99929535 #
-0.0010000000000000000208166817117217 1:21.856709 2:20.798321 3:14.189439 4:23 5:23 6:23 7:18 8:17 9:10 10:1.2936816 11:2.7221687 12:6.3388252 13:0.99996096 14:0.99996316 15:0.99996716 #
0.0010000000000000000208166817117217 1:20.149714 2:35.874535 3:21.608755 4:369 5:369 6:369 7:29 8:38 9:16 10:25.540771 11:18.246725 12:16.304676 13:0.99983811 14:0.99993587 15:0.99997646 #
0.0010000000000000000208166817117217 1:41.883293 2:36.961678 3:32.700562 4:510 5:510 6:510 7:45 8:39 9:33 10:25.260509 11:23.330158 12:20.958061 13:0.99999118 14:0.9999916 15:0.99999303 #
-0.0010000000000000000208166817117217 1:3.8210123 2:101.86587 3:189.49347 4:463 5:463 6:463 7:4 8:106 9:200 10:14.033133 11:9.8417892 12:22.310316 13:0.99859953 14:0.99597406 15:0.99399507 #
0.0010000000000000000208166817117217 1:27.629475 2:18.498714 3:14.362597 4:324 5:324 6:324 7:32 8:22 9:22 10:19.434614 11:24.508451 12:22.694389 13:0.99807423 14:0.9981432 15:0.99842113 #
-0.0010000000000000000208166817117217 1:38.730286 2:25.855465 3:3.8812444 4:176 5:176 6:176 7:31 8:28 9:10 10:30.759851 11:21.469748 12:16.713608 13:0.99977082 14:0.9998666 15:0.99995673 #
-0.0010000000000000000208166817117217 1:29.339714 2:17.144535 3:3.3412445 4:205 5:205 6:205 7:37 8:17 9:9 10:34.838322 11:27.502909 12:19.274302 13:0.99985391 14:0.99991614 15:0.99995381 #
0.0010000000000000000208166817117217 1:2.1767085 2:7.0683212 3:4.1594391 4:455 5:455 6:455 7:4 8:10 9:7 10:19.284426 11:16.282122 12:12.006274 13:0.99998116 14:0.99998152 15:0.99998486 #
0.0010000000000000000208166817117217 1:32.790527 2:40.701286 3:30.257404 4:0 5:0 6:0 7:31 8:40 9:26 10:19.34931 11:24.180431 12:24.115496 13:0.99889523 14:0.9989928 15:0.99911165 #
-0.0010000000000000000208166817117217 1:61.279694 2:90.670738 3:8.1159697 4:18 5:18 6:18 7:41 8:91 9:11 10:56.301357 11:53.0014 12:1.2109038 13:0.99956864 14:0.99958485 15:0.99994493 #
0.0010000000000000000208166817117217 1:18.702274 2:7.1911998 3:29.019987 4:119 5:119 6:119 7:19 8:8 9:25 10:34.813896 11:35.213501 12:30.99457 13:0.9984113 14:0.99865788 15:0.9995659 #
0.0010000000000000000208166817117217 1:10.680285 2:0.73546398 3:13.008756 4:0 5:0 6:0 7:3 8:0 9:11 10:12.5367 11:1.7548025 12:7.4742494 13:0.9997763 14:0.99986655 15:0.99994642 #
-0.0010000000000000000208166817117217 1:29.130285 2:25.745464 3:24.711245 4:157 5:157 6:157 7:24 8:30 9:29 10:24.10766 11:19.269512 12:11.320785 13:0.99974799 14:0.9998306 15:0.99989176 #
0.0010000000000000000208166817117217 1:58.613293 2:49.81168 3:34.540562 4:520 5:520 6:520 7:61 8:51 9:34 10:22.922514 11:21.115719 12:16.189442 13:0.99999487 14:0.99999422 15:0.9999935 #
-0.0010000000000000000208166817117217 1:15.699474 2:14.738713 3:3.9625962 4:344 5:344 6:344 7:16 8:15 9:9 10:23.017628 11:28.259005 12:26.150522 13:0.99857986 14:0.99853975 15:0.9989233 #
0.0010000000000000000208166817117217 1:83.269867 2:62.463821 3:31.776358 4:0 5:0 6:0 7:92 8:52 9:27 10:33.185013 11:44.078232 12:22.433756 13:0.99965775 14:0.99971223 15:0.99974281 #
0.0010000000000000000208166817117217 1:11.923291 2:13.111679 3:10.660561 4:478 5:478 6:478 7:17 8:17 9:16 10:5.0120807 11:1.5802563 12:3.6677697 13:0.9999752 14:0.99997711 15:0.99997872 #
0.0010000000000000000208166817117217 1:13.316709 2:11.338321 3:6.299439 4:198 5:198 6:198 7:20 8:16 9:5 10:9.3466616 11:9.8114204 12:6.6040068 13:0.99997127 14:0.99997336 15:0.99997771 #
-0.0010000000000000000208166817117217 1:14.040286 2:2.2654641 3:11.328755 4:0 5:0 6:0 7:8 8:8 9:6 10:17.082979 11:11.084559 12:12.077386 13:0.99974871 14:0.99984545 15:0.9999299 #
-0.0010000000000000000208166817117217 1:93.820129 2:121.36618 3:69.953644 4:257 5:257 6:257 7:103 8:143 9:84 10:47.165638 11:44.617565 12:20.981543 13:0.99817538 14:0.99813634 15:0.99875021 #
-0.0010000000000000000208166817117217 1:40.900288 2:33.185463 3:17.681244 4:281 5:281 6:281 7:33 8:32 9:16 10:26.276642 11:13.312068 12:3.9494116 13:0.99971521 14:0.99980003 15:0.99987906 #
-0.0010000000000000000208166817117217 1:65.581032 2:64.862137 3:61.995907 4:65 5:65 6:65 7:54 8:55 9:54 10:9.7516279 11:5.235815 12:0.2264325 13:0.99891359 14:0.99891537 15:0.99805301 #
0.0010000000000000000208166817117217 1:1.0732917 2:1.658321 3:0.78056097 4:453 5:453 6:453 7:3 8:5 9:0 10:20.09214 11:19.39572 12:19.891325 13:0.99998373 14:0.99998468 15:0.99998808 #
-0.0010000000000000000208166817117217 1:58.973293 2:48.06168 3:28.39056 4:535 5:535 6:535 7:72 8:62 9:40 10:3.3833296 11:5.5374837 12:6.8068695 13:0.99998564 14:0.99998444 15:0.99998242 #
0.0010000000000000000208166817117217 1:9.1610126 2:1.6158692 3:3.3665235 4:10 5:10 6:10 7:8 8:4 9:4 10:15.382816 11:17.722248 12:30.740496 13:0.99852788 14:0.99914885 15:0.99941099 #
0.0010000000000000000208166817117217 1:9.0532913 2:10.091679 3:13.170561 4:483 5:483 6:483 7:12 8:15 9:19 10:5.3456516 11:0.26792637 12:4.8678131 13:0.99997741 14:0.99997956 15:0.99998277 #
-0.0010000000000000000208166817117217 1:30.07897 2:32.797867 3:34.604095 4:3 5:3 6:3 7:20 8:21 9:21 10:30.037937 11:34.553749 12:39.557709 13:0.99728447 14:0.99722481 15:0.99639887 #
0.0010000000000000000208166817117217 1:47.510284 2:50.945465 3:22.261244 4:281 5:281 6:281 7:47 8:59 9:33 10:22.303598 11:8.5348873 12:2.5233407 13:0.99971873 14:0.99978817 15:0.99988532 #
-0.0010000000000000000208166817117217 1:50.899715 2:42.604534 3:15.608755 4:392 5:392 6:392 7:58 8:41 9:10 10:30.145805 11:22.505638 12:14.453318 13:0.99986213 14:0.99993038 15:0.99995941 #
0.0010000000000000000208166817117217 1:23.839474 2:19.098713 3:10.652596 4:59 5:59 6:59 7:27 8:22 9:16 10:22.494413 11:26.794804 12:24.189148 13:0.99821258 14:0.9982276 15:0.99854285 #
-0.0010000000000000000208166817117217 1:95.582275 2:100.1812 3:105.87001 4:0 5:0 6:0 7:138 8:143 9:150 10:26.228853 11:26.660339 12:27.245956 13:0.99652582 14:0.99647945 15:0.99675703 #
0.0010000000000000000208166817117217 1:14.583292 2:8.3816786 3:1.959439 4:494 5:494 6:494 7:27 8:23 9:7 10:1.3474998 11:2.9919 12:2.6591408 13:0.99997389 14:0.99997401 15:0.99997431 #
-0.0010000000000000000208166817117217 1:4.0189877 2:8.4341307 3:13.396523 4:1 5:1 6:1 7:4 8:6 9:5 10:16.062965 11:17.793613 12:30.689919 13:0.99893212 14:0.99949455 15:0.99971396 #
-0.0010000000000000000208166817117217 1:73.842278 2:79.501198 3:86.530014 4:0 5:0 6:0 7:134 8:141 9:147 10:48.080231 11:48.138691 12:47.249962 13:0.99620092 14:0.99614543 15:0.99639022 #
-0.0010000000000000000208166817117217 1:87.942276 2:92.661201 3:98.860016 4:0 5:0 6:0 7:138 8:144 9:151 10:38.137711 11:38.578754 12:38.16441 13:0.99667102 14:0.99661833 15:0.99688268 #
0.0010000000000000000208166817117217 1:18.623291 2:19.681679 3:20.660561 4:26 5:26 6:26 7:18 8:20 9:22 10:23.800987 11:24.22382 12:23.022406 13:0.99998742 14:0.99998969 15:0.99999207 #
-0.0010000000000000000208166817117217 1:5.5189691 2:7.0378656 3:9.5040941 4:489 5:489 6:489 7:5 8:6 9:5 10:28.664402 11:32.909172 12:38.088871 13:0.99784237 14:0.99780673 15:0.99696857 #
0.0010000000000000000208166817117217 1:1.4967084 2:0.80832106 3:1.080561 4:458 5:458 6:458 7:3 8:1 9:1 10:15.840594 11:14.839121 12:12.336203 13:0.99997789 14:0.99997985 15:0.99998295 #
-0.0010000000000000000208166817117217 1:12.013291 2:11.241679 3:5.0405612 4:533 5:533 6:533 7:15 8:15 9:11 10:7.055419 11:8.1402597 12:8.2186975 13:0.99997211 14:0.99997342 15:0.99997461 #
0.0010000000000000000208166817117217 1:17.841013 2:9.2358694 3:6.2565236 4:5 5:5 6:5 7:16 8:11 9:2 10:9.9273939 11:13.081282 12:27.815397 13:0.99827409 14:0.99888766 15:0.9994325 #
0.0010000000000000000208166817117217 1:12.956708 2:7.9183211 3:6.239439 4:434 5:434 6:434 7:12 8:7 9:6 10:18.761194 11:16.38069 12:14.37699 13:0.9999786 14:0.99998146 15:0.99998444 #
0.0010000000000000000208166817117217 1:10.936708 2:10.908321 3:11.829439 4:441 5:441 6:441 7:11 8:11 9:13 10:9.8808308 11:7.4098005 12:3.9160511 13:0.9999702 14:0.99997181 15:0.99997467 #
-0.0010000000000000000208166817117217 1:5.3667083 2:3.798321 3:5.1794391 4:1 5:1 6:1 7:7 8:5 9:8 10:12.837812 11:10.543721 12:11.127804 13:0.99997509 14:0.99997687 15:0.99997908 #
0.0010000000000000000208166817117217 1:0.78329158 2:3.9483211 3:13.859439 4:5 5:5 6:5 7:1 8:4 9:11 10:8.7518148 11:6.4434338 12:3.3808377 13:0.99997604 14:0.9999764 15:0.99997663 #
0.0010000000000000000208166817117217 1:13.839692 2:11.419262 3:1.2559693 4:8 5:8 6:8 7:7 8:15 9:2 10:54.742958 11:60.41256 12:4.0441294 13:0.99964941 14:0.99976355 15:0.99993426 #
0.0010000000000000000208166817117217 1:12.206708 2:10.768321 3:7.6094389 4:494 5:494 6:494 7:19 8:15 9:10 10:1.2000531 11:0.80631113 12:0.22976907 13:0.99996817 14:0.99997014 15:0.99997413 #
0.0010000000000000000208166817117217 1:6.9602857 2:7.8254638 3:12.331244 4:0 5:0 6:0 7:9 8:10 9:17 10:3.1108687 11:15.43027 12:1.8691154 13:0.99979502 14:0.9998731 15:0.99992967 #
0.0010000000000000000208166817117217 1:0.63052547 2:1.5712863 3:2.2574039 4:354 5:354 6:354 7:2 8:0 9:2 10:22.625107 11:28.180243 12:26.346811 13:0.99867952 14:0.99866986 15:0.99892002 #
0.0010000000000000000208166817117217 1:17.619692 2:7.2992616 3:5.3759694 4:7 5:7 6:7 7:1 8:2 9:5 10:51.062481 11:45.618027 12:5.8158226 13:0.99965847 14:0.99976939 15:0.9999525 #
0.0010000000000000000208166817117217 1:20.573292 2:20.091679 3:11.040561 4:487 5:487 6:487 7:28 8:29 9:20 10:1.2554721 11:1.920266 12:3.2694569 13:0.99997902 14:0.99998021 15:0.99998039 #
0.0010000000000000000208166817117217 1:8.3832912 2:7.151679 3:5.1005611 4:478 5:478 6:478 7:13 8:12 9:7 10:16.074587 11:13.831453 12:11.864532 13:0.99997693 14:0.99997836 15:0.99998027 #
-0.0010000000000000000208166817117217 1:5.7667084 2:1.428321 3:6.700561 4:219 5:219 6:219 7:7 8:2 9:9 10:14.711662 11:11.690684 12:12.786629 13:0.99997783 14:0.99998045 15:0.9999851 #
-0.0010000000000000000208166817117217 1:19.233292 2:14.031679 3:16.010561 4:522 5:522 6:522 7:20 8:15 9:19 10:6.9079514 11:6.3571353 12:7.9755139 13:0.9999727 14:0.99997312 15:0.99997652 #
-0.0010000000000000000208166817117217 1:58.150131 2:47.136181 3:15.093642 4:297 5:297 6:297 7:66 8:66 9:25 10:37.698635 11:34.853771 12:16.406452 13:0.99808091 14:0.99834865 15:0.99883968 #
-0.0010000000000000000208166817117217 1:12.763291 2:10.241679 3:4.449439 4:518 5:518 6:518 7:0 8:1 9:13 10:10.754727 11:10.784328 12:7.0034537 13:0.99997354 14:0.99997455 15:0.9999736 #
-0.0010000000000000000208166817117217 1:7.6532917 2:7.2416792 3:1.369439 4:514 5:514 6:514 7:1 8:0 9:3 10:6.4016147 11:4.0731258 12:2.1306586 13:0.99997503 14:0.99997646 15:0.99997681 #
-0.0010000000000000000208166817117217 1:38.899693 2:10.120739 3:4.2659693 4:4 5:4 6:4 7:18 8:8 9:3 10:53.34444 11:57.41396 12:3.8983431 13:0.99960858 14:0.99972606 15:0.9999491 #
0.0010000000000000000208166817117217 1:69.011009 2:48.685867 3:21.923477 4:35 5:35 6:35 7:70 8:52 9:31 10:10.317472 11:11.581153 12:25.190897 13:0.99646538 14:0.99737889 15:0.99840099 #
0.0010000000000000000208166817117217 1:0.56329161 2:2.1183209 3:5.1294389 4:489 5:489 6:489 7:1 8:2 9:5 10:14.488711 11:10.771876 12:5.4637632 13:0.99997658 14:0.99997759 15:0.99997914 #
0.0010000000000000000208166817117217 1:17.440287 2:0.96453601 3:18.218756 4:2 5:2 6:2 7:12 8:2 9:11 10:28.653332 11:21.352959 12:16.18531 13:0.99976909 14:0.99987298 15:0.99995959 #
0.0010000000000000000208166817117217 1:14.940286 2:4.875464 3:7.6487556 4:5 5:5 6:5 7:4 8:2 9:9 10:19.71417 11:5.9206367 12:0.048182484 13:0.99972391 14:0.99981475 15:0.9998877 #
-0.0010000000000000000208166817117217 1:10.011031 2:8.4921341 3:6.0259056 4:37 5:37 6:37 7:20 8:21 9:20 10:28.651957 11:32.896538 12:38.076187 13:0.99855119 14:0.99849921 15:0.99766785 #
0.0010000000000000000208166817117217 1:31.330286 2:17.085464 3:8.1012449 4:183 5:183 6:183 7:21 8:12 9:7 10:24.711933 11:12.498734 12:0.17111544 13:0.99971282 14:0.99980551 15:0.99988669 #
0.0010000000000000000208166817117217 1:1.7732916 2:3.451679 3:11.740561 4:468 5:468 6:468 7:2 8:4 9:10 10:9.1236029 11:7.3538289 12:1.1237081 13:0.99997461 14:0.99997658 15:0.99998152 #
-0.0010000000000000000208166817117217 1:38.960526 2:51.721287 3:43.177402 4:0 5:0 6:0 7:36 8:49 9:38 10:24.877905 11:30.230801 12:30.764685 13:0.99940926 14:0.99956757 15:0.99982536 #
-0.0010000000000000000208166817117217 1:18.663126 2:22.546518 3:25.796448 4:17 5:17 6:17 7:18 8:21 9:24 10:12.779305 11:14.194622 12:16.563086 13:0.9968555 14:0.99602461 15:0.99569589 #
-0.0010000000000000000208166817117217 1:56.343292 2:46.38168 3:29.580561 4:531 5:531 6:531 7:65 8:54 9:37 10:1.2957495 11:3.145474 12:4.2271252 13:0.99997729 14:0.99997628 15:0.99997503 #
0.0010000000000000000208166817117217 1:14.950286 2:10.375464 3:8.7387552 4:1 5:1 6:1 7:8 8:12 9:3 10:31.764336 11:24.561428 12:16.100286 13:0.99977052 14:0.99985582 15:0.99994165 #
0.0010000000000000000208166817117217 1:31.319693 2:16.890739 3:5.6559691 4:6 5:6 6:6 7:11 8:16 9:5 10:54.5826 11:57.821957 12:4.7624841 13:0.99962175 14:0.99971181 15:0.99994868 #
-0.0010000000000000000208166817117217 1:2.3989692 2:4.1578655 3:7.0640941 4:496 5:496 6:496 7:2 8:2 9:1 10:16.637564 11:21.563595 12:26.072054 13:0.99723715 14:0.99720609 15:0.99634385 #
0.0010000000000000000208166817117217 1:11.68103 2:17.972134 3:26.595905 4:3 5:3 6:3 7:11 8:13 9:11 10:22.26408 11:27.330027 12:32.173206 13:0.9959079 14:0.99606442 15:0.99554694 #
-0.0010000000000000000208166817117217 1:0.84670842 2:0.88832104 3:2.8105609 4:0 5:0 6:0 7:0 8:1 9:1 10:6.2227178 11:4.3139796 12:2.3816259 13:0.99996924 14:0.99997085 15:0.99997437 #
0.0010000000000000000208166817117217 1:50.783291 2:39.92168 3:22.090561 4:19 5:19 6:19 7:42 8:30 9:14 10:1.5278842 11:1.3530389 12:3.7465382 13:0.9999876 14:0.99998665 15:0.99998462 #
-0.0010000000000000000208166817117217 1:51.593292 2:45.521679 3:29.770561 4:533 5:533 6:533 7:56 8:51 9:30 10:1.6725429 11:0.68672019 12:4.3078585 13:0.99998659 14:0.99998701 15:0.99998629 #
-0.0010000000000000000208166817117217 1:8.2989693 2:10.217866 3:12.484095 4:498 5:498 6:498 7:2 8:3 9:3 10:11.461499 11:15.765491 12:20.8864 13:0.99713713 14:0.99708843 15:0.9962613 #
0.0010000000000000000208166817117217 1:13.110286 2:2.7445359 3:17.458755 4:332 5:332 6:332 7:5 8:0 9:12 10:28.768705 11:21.204342 12:13.818479 13:0.99975425 14:0.99985224 15:0.99993587 #
-0.0010000000000000000208166817117217 1:26.953291 2:29.091679 3:25.56056 4:535 5:535 6:535 7:27 8:28 9:21 10:7.4031672 11:10.314505 12:11.803579 13:0.9999736 14:0.99997586 15:0.99997741 #
0.0010000000000000000208166817117217 1:16.603292 2:12.381679 3:5.2305608 4:497 5:497 6:497 7:31 8:26 9:14 10:2.0692492 11:0.57680964 12:1.589438 13:0.99997604 14:0.99997663 15:0.99997753 #
0.0010000000000000000208166817117217 1:2.2432916 2:4.6816788 3:9.8105612 4:484 5:484 6:484 7:11 8:11 9:15 10:8.3611965 11:5.7799659 12:1.8372182 13:0.99996555 14:0.99996805 15:0.99997199 #
-0.0010000000000000000208166817117217 1:12.096708 2:8.1283207 3:2.519439 4:435 5:435 6:435 7:20 8:15 9:11 10:11.637264 11:11.746781 12:7.7940931 13:0.99997574 14:0.9999783 15:0.99998206 #
0.0010000000000000000208166817117217 1:11.386708 2:5.5283213 3:3.960561 4:0 5:0 6:0 7:11 8:6 9:2 10:19.110516 11:17.252518 12:14.327435 13:0.99997348 14:0.99997628 15:0.99998152 #
-0.0010000000000000000208166817117217 1:35.703293 2:32.481678 3:31.240561 4:536 5:536 6:536 7:31 8:33 9:28 10:7.266891 11:8.1253119 12:5.8439474 13:0.99997401 14:0.99997437 15:0.99997663 #
-0.0010000000000000000208166817117217 1:52.393291 2:42.801678 3:24.780561 4:520 5:520 6:520 7:60 8:48 9:24 10:12.902894 11:12.73574 12:12.743756 13:0.99999046 14:0.99999011 15:0.99998814 #
0.0010000000000000000208166817117217 1:30.443291 2:26.281679 3:22.080561 4:491 5:491 6:491 7:32 8:28 9:23 10:28.023457 11:25.401758 12:21.373755 13:0.99998999 14:0.99999076 15:0.99999231 #
0.0010000000000000000208166817117217 1:26.622274 2:30.971199 3:19.060013 4:146 5:146 6:146 7:28 8:33 9:25 10:32.800858 11:33.431751 12:28.106905 13:0.99824607 14:0.99822986 15:0.99874669 #
0.0010000000000000000208166817117217 1:15.539692 2:59.879261 3:1.7159692 4:1 5:1 6:1 7:6 8:67 9:1 10:55.876911 11:52.808369 12:6.9064803 13:0.99967605 14:0.99987841 15:0.99996078 #
-0.0010000000000000000208166817117217 1:21.172276 2:22.8312 3:18.020014 4:384 5:384 6:384 7:22 8:25 9:23 10:33.057632 11:33.403225 12:27.857128 13:0.99820739 14:0.9982363 15:0.9986468 #
0.0010000000000000000208166817117217 1:2.6132915 2:4.401679 3:6.720561 4:474 5:474 6:474 7:3 8:1 9:2 10:0.1164038 11:1.9602047 12:5.3450761 13:0.99996966 14:0.99997211 15:0.99997431 #
0.0010000000000000000208166817117217 1:3.5767083 2:0.058321044 3:4.0705609 4:0 5:0 6:0 7:8 8:5 9:1 10:10.039085 11:7.6560774 12:5.2703223 13:0.99997449 14:0.99997699 15:0.99998087 #
0.0010000000000000000208166817117217 1:13.703292 2:14.011679 3:18.250561 4:471 5:471 6:471 7:12 8:13 9:21 10:21.393333 11:20.174694 12:18.982155 13:0.99998474 14:0.99998665 15:0.99999022 #
-0.0010000000000000000208166817117217 1:6.2997141 2:14.854536 3:18.838755 4:0 5:0 6:0 7:12 8:13 9:13 10:27.502527 11:20.404886 12:13.779425 13:0.99980205 14:0.99989045 15:0.9999603 #
-0.0010000000000000000208166817117217 1:9.0777254 2:15.1088 3:6.9999866 4:149 5:149 6:149 7:10 8:15 9:2 10:32.105854 11:32.552761 12:28.39683 13:0.9985196 14:0.99867988 15:0.99887145 #
-0.0010000000000000000208166817117217 1:10.819693 2:15.069262 3:4.7159691 4:171 5:171 6:171 7:10 8:18 9:4 10:59.714851 11:64.048973 12:8.6900148 13:0.99969095 14:0.99980628 15:0.99997079 #
0.0010000000000000000208166817117217 1:20.393291 2:13.871679 3:5.1005611 4:495 5:495 6:495 7:24 8:13 9:2 10:4.8775196 11:2.9723959 12:0.24694613 13:0.9999789 14:0.99997896 15:0.99998003 #
-0.0010000000000000000208166817117217 1:83.729866 2:63.143822 3:35.836357 4:8 5:8 6:8 7:79 8:46 9:26 10:53.557652 11:55.373554 12:31.373592 13:0.99986696 14:0.99992543 15:0.99995089 #
0.0010000000000000000208166817117217 1:6.7432914 2:8.4216785 3:3.8405609 4:491 5:491 6:491 7:12 8:15 9:13 10:6.5789499 11:1.9713361 12:3.8909633 13:0.9999696 14:0.99997109 15:0.99997258 #
0.0010000000000000000208166817117217 1:5.4532914 2:4.421679 3:1.739439 4:499 5:499 6:499 7:8 8:8 9:3 10:2.2972503 11:3.8026745 12:7.7556047 13:0.99996912 14:0.99997056 15:0.99997145 #
0.0010000000000000000208166817117217 1:13.833292 2:15.961679 3:12.040561 4:475 5:475 6:475 7:16 8:21 9:17 10:10.146876 11:8.7512693 12:9.5979242 13:0.99997932 14:0.99998146 15:0.99998367 #
-0.0010000000000000000208166817117217 1:5.7667084 2:6.8783212 3:8.0394392 4:200 5:200 6:200 7:12 8:14 9:12 10:5.8607187 11:7.6413584 12:4.1111813 13:0.99996984 14:0.99997103 15:0.99997365 #
-0.0010000000000000000208166817117217 1:18.203291 2:18.241678 3:18.540562 4:231 5:231 6:231 7:7 8:8 9:9 10:0.5850305 11:1.088394 12:3.8378754 13:0.99998045 14:0.99998194 15:0.99998426 #
-0.0010000000000000000208166817117217 1:97.752274 2:102.0212 3:105.49001 4:0 5:0 6:0 7:138 8:144 9:150 10:22.692785 11:24.182943 12:27.595175 13:0.99645436 14:0.99644142 15:0.99675882 #
0.0010000000000000000208166817117217 1:1.9932916 2:1.931679 3:0.42943901 4:487 5:487 6:487 7:0 8:1 9:0 10:14.183042 11:12.350889 12:11.403026 13:0.99997675 14:0.99997842 15:0.99998021 #
-0.0010000000000000000208166817117217 1:47.269714 2:40.964535 3:12.188756 4:395 5:395 6:395 7:56 8:41 9:7 10:37.928764 11:29.343014 12:21.639065 13:0.99989229 14:0.99996191 15:0.99998611 #
-0.0010000000000000000208166817117217 1:7.6702857 2:7.0945358 3:15.918756 4:0 5:0 6:0 7:0 8:5 9:9 10:29.872799 11:21.168026 12:13.489459 13:0.99976093 14:0.99985623 15:0.99993277 #
-0.0010000000000000000208166817117217 1:15.493292 2:11.791679 3:8.2905607 4:520 5:520 6:520 7:16 8:15 9:12 10:0.70785284 11:1.1850926 12:0.2964713 13:0.99998158 14:0.99998271 15:0.99998426 #
-0.0010000000000000000208166817117217 1:26.049715 2:19.994535 3:3.6687555 4:207 5:207 6:207 7:35 8:19 9:2 10:35.051605 11:26.928337 12:18.229441 13:0.99984264 14:0.9999097 15:0.99995166 #
0.0010000000000000000208166817117217 1:22.100286 2:10.425464 3:1.0312445 4:19 5:19 6:19 7:14 8:13 9:7 10:17.343294 11:8.2516375 12:6.3419337 13:0.99974 14:0.99983561 15:0.99991053 #
0.0010000000000000000208166817117217 1:45.193291 2:39.111679 3:22.670561 4:5 5:5 6:5 7:51 8:42 9:22 10:2.5137558 11:3.1012967 12:2.5876167 13:0.99998128 14:0.99998128 15:0.99997985 #
-0.0010000000000000000208166817117217 1:22.689692 2:14.840738 3:1.5940307 4:0 5:0 6:0 7:4 8:17 9:1 10:52.267883 11:52.66132 12:6.5666046 13:0.99965602 14:0.99974144 15:0.99994808 #
-0.0010000000000000000208166817117217 1:53.793293 2:49.201679 3:33.03056 4:533 5:533 6:533 7:56 8:54 9:38 10:7.5920177 11:4.5871034 12:0.27855581 13:0.99998635 14:0.99998683 15:0.99998552 #
0.0010000000000000000208166817117217 1:22.49897 2:24.207865 3:26.074095 4:4 5:4 6:4 7:12 8:13 9:13 10:28.538017 11:33.153191 12:37.75045 13:0.99739337 14:0.99737364 15:0.99651426 #
-0.0010000000000000000208166817117217 1:20.623291 2:14.361679 3:11.460561 4:518 5:518 6:518 7:26 8:25 9:22 10:11.531896 11:10.974474 12:12.373182 13:0.99996823 14:0.99996835 15:0.99997061 #
0.0010000000000000000208166817117217 1:35.779694 2:8.0692616 3:0.35403076 4:6 5:6 6:6 7:12 8:12 9:0 10:51.051762 11:42.940987 12:3.6878424 13:0.9996103 14:0.99975944 15:0.99991882 #
-0.0010000000000000000208166817117217 1:29.873291 2:27.481678 3:23.760561 4:531 5:531 6:531 7:39 8:38 9:35 10:13.983156 11:17.413074 12:22.518192 13:0.99996489 14:0.99996608 15:0.99996704 #
-0.0010000000000000000208166817117217 1:0.72898763 2:2.8941309 3:10.156524 4:470 5:470 6:470 7:1 8:0 9:2 10:16.176481 11:17.985155 12:30.623211 13:0.99882549 14:0.99931198 15:0.99961346 #
-0.0010000000000000000208166817117217 1:36.603291 2:25.791679 3:21.420561 4:256 5:256 6:256 7:40 8:28 9:23 10:9.4019995 11:8.6698694 12:5.293786 13:0.99998057 14:0.99997979 15:0.99998134 #
-0.0010000000000000000208166817117217 1:33.723125 2:34.876518 3:40.996449 4:191 5:191 6:191 7:34 8:33 9:40 10:10.821858 11:11.835026 12:15.372875 13:0.99584663 14:0.99514967 15:0.99456531 #
0.0010000000000000000208166817117217 1:4.2868743 2:3.2834818 3:1.426448 4:4 5:4 6:4 7:4 8:3 9:1 10:13.249764 11:14.565733 12:17.739046 13:0.99773264 14:0.99713975 15:0.99672502 #
0.0010000000000000000208166817117217 1:45.961014 2:27.835869 3:17.873476 4:32 5:32 6:32 7:46 8:31 9:26 10:14.640478 11:16.496952 12:29.761692 13:0.99742901 14:0.99829853 15:0.9987576 #
-0.0010000000000000000208166817117217 1:1.3667084 2:5.4383211 3:7.9294391 4:499 5:499 6:499 7:5 8:1 9:8 10:0.054970719 11:4.1404724 12:6.392725 13:0.99997133 14:0.99997205 15:0.99997437 #
0.0010000000000000000208166817117217 1:12.013291 2:14.621679 3:12.270561 4:240 5:240 6:240 7:14 8:15 9:14 10:25.085409 11:22.688553 12:18.359989 13:0.99998325 14:0.99998522 15:0.99998778 #
-0.0010000000000000000208166817117217 1:3.7467084 2:0.71832103 3:5.3405609 4:3 5:3 6:3 7:5 8:1 9:2 10:4.7556658 11:2.6738596 12:0.87897331 13:0.99997199 14:0.99997461 15:0.9999789 #
-0.0010000000000000000208166817117217 1:13.479714 2:19.104536 3:18.078756 4:0 5:0 6:0 7:19 8:16 9:10 10:26.839655 11:20.645668 12:14.23375 13:0.99979937 14:0.99988347 15:0.99994504 #
0.0010000000000000000208166817117217 1:22.052275 2:8.9411993 3:31.179987 4:115 5:115 6:115 7:23 8:10 9:27 10:34.850166 11:34.711235 12:30.562683 13:0.99835032 14:0.99863267 15:0.99961042 #
-0.0010000000000000000208166817117217 1:26.539474 2:37.778713 3:47.142597 4:327 5:327 6:327 7:30 8:41 9:54 10:26.092766 11:31.44566 12:29.716047 13:0.9985761 14:0.99840933 15:0.99851608 #
-0.0010000000000000000208166817117217 1:9.5522747 2:12.1012 3:9.7700129 4:376 5:376 6:376 7:10 8:14 9:15 10:31.87907 11:32.433224 12:28.745447 13:0.99849635 14:0.99852037 15:0.9988817 #
-0.0010000000000000000208166817117217 1:67.949478 2:77.788712 3:79.972595 4:284 5:284 6:284 7:71 8:81 9:87 10:21.639278 11:27.271467 12:25.424156 13:0.99773246 14:0.99756044 15:0.99772698 #
-0.0010000000000000000208166817117217 1:30.820286 2:6.2654638 3:11.528755 4:183 5:183 6:183 7:21 8:6 9:7 10:30.403221 11:22.522978 12:12.875148 13:0.99974924 14:0.99985749 15:0.99994415 #
0.0010000000000000000208166817117217 1:18.243292 2:12.841679 3:2.270561 4:482 5:482 6:482 7:20 8:13 9:1 10:9.0969057 11:9.023531 12:7.2217155 13:0.99997962 14:0.99998039 15:0.99998027 #
0.0010000000000000000208166817117217 1:10.106709 2:6.578321 3:0.99056101 4:480 5:480 6:480 7:8 8:3 9:5 10:5.9077525 11:2.3534436 12:0.44258854 13:0.99997383 14:0.99997652 15:0.99998093 #
0.0010000000000000000208166817117217 1:1.4532917 2:4.3216791 3:6.5805612 4:487 5:487 6:487 7:5 8:9 9:11 10:14.885048 11:13.37993 12:10.89551 13:0.99997979 14:0.99998206 15:0.99998498 #
0.0010000000000000000208166817117217 1:22.461012 2:14.53587 3:1.6365235 4:433 5:433 6:433 7:22 8:17 9:6 10:7.1599388 11:9.9904575 12:23.745264 13:0.99806559 14:0.9986552 15:0.99926376 #
0.0010000000000000000208166817117217 1:7.2005253 2:12.951286 3:11.827404 4:376 5:376 6:376 7:6 8:11 9:7 10:18.910078 11:23.185078 12:21.568146 13:0.99878907 14:0.99883342 15:0.99907976 #
0.0010000000000000000208166817117217 1:20.463291 2:13.921679 3:2.3305609 4:3 5:3 6:3 7:22 8:13 9:2 10:10.643266 11:10.912358 12:7.9172835 13:0.99997425 14:0.99997437 15:0.99997419 #
0.0010000000000000000208166817117217 1:13.843291 2:11.911679 3:9.3705606 4:474 5:474 6:474 7:15 8:15 9:7 10:14.212252 11:10.942165 12:5.0491228 13:0.99997592 14:0.99997711 15:0.99997878 #
-0.0010000000000000000208166817117217 1:31.649693 2:25.490738 3:1.4140308 4:133 5:133 6:133 7:12 8:23 9:2 10:55.552406 11:58.633484 12:2.3261337 13:0.99963641 14:0.99971747 15:0.99993712 #
0.0010000000000000000208166817117217 1:31.659693 2:8.2292614 3:4.505969 4:9 5:9 6:9 7:9 8:14 9:5 10:56.612507 11:58.221859 12:5.7868042 13:0.9996385 14:0.99977261 15:0.99995941 #
-0.0010000000000000000208166817117217 1:29.97897 2:32.697865 3:34.564095 4:3 5:3 6:3 7:20 8:21 9:21 10:29.651043 11:34.166855 12:39.176239 13:0.99703449 14:0.99697524 15:0.99615306 #
0.0010000000000000000208166817117217 1:21.599869 2:25.81382 3:8.5963573 4:0 5:0 6:0 7:10 8:5 9:2 10:33.867714 11:40.795036 12:20.345037 13:0.99885595 14:0.99910206 15:0.99918491 #
0.0010000000000000000208166817117217 1:38.189693 2:25.440739 3:2.5759692 4:5 5:5 6:5 7:24 8:31 9:4 10:48.293491 11:50.496979 12:2.8129478 13:0.99957871 14:0.99966508 15:0.99991691 #
0.0010000000000000000208166817117217 1:0.68947452 2:6.6812863 3:8.3974037 4:349 5:349 6:349 7:4 8:4 9:3 10:17.178392 11:22.925083 12:22.159332 13:0.99853235 14:0.99859869 15:0.99884576 #
-0.0010000000000000000208166817117217 1:27.108988 2:18.70413 3:17.126524 4:497 5:497 6:497 7:28 8:16 9:9 10:16.906878 11:18.649696 12:30.946114 13:0.99965304 14:0.99986053 15:0.99984813 #
0.0010000000000000000208166817117217 1:27.217726 2:26.8188 3:16.209988 4:347 5:347 6:347 7:27 8:26 9:13 10:32.773415 11:34.134758 12:29.863441 13:0.99911851 14:0.99919951 15:0.99934703 #
0.0010000000000000000208166817117217 1:25.960526 2:34.451286 3:30.177404 4:0 5:0 6:0 7:20 8:29 9:24 10:16.603672 11:23.341154 12:25.625755 13:0.99906343 14:0.99916017 15:0.99935693 #
0.0010000000000000000208166817117217 1:1.6064583 2:6.1946092 3:11.384857 4:443 5:443 6:443 7:2 8:12 9:16 10:9.4264116 11:7.1327119 12:3.4586523 13:0.99825239 14:0.99852151 15:0.99843383 #
-0.0010000000000000000208166817117217 1:12.270286 2:5.4945359 3:10.038755 4:194 5:194 6:194 7:2 8:6 9:5 10:28.819447 11:20.1404 12:12.900962 13:0.99976385 14:0.99986368 15:0.99993235 #
-0.0010000000000000000208166817117217 1:0.37101236 2:63.745869 3:145.36348 4:472 5:472 6:472 7:0 8:65 9:152 10:14.730274 11:11.698895 12:21.234056 13:0.99861705 14:0.99708724 15:0.99515384 #
-0.0010000000000000000208166817117217 1:30.129692 2:11.510738 3:3.9359694 4:6 5:6 6:6 7:10 8:10 9:5 10:55.227375 11:59.489746 12:4.2140422 13:0.999632 14:0.99973422 15:0.99994767 #
-0.0010000000000000000208166817117217 1:3.0432916 2:8.3016787 3:21.460562 4:20 5:20 6:20 7:0 8:5 9:21 10:7.3058972 11:8.4899178 12:8.8572836 13:0.99997866 14:0.99998164 15:0.9999873 #
0.0010000000000000000208166817117217 1:28.510286 2:6.105464 3:19.568756 4:3 5:3 6:3 7:22 8:8 9:11 10:30.005436 11:21.241379 12:14.589306 13:0.99975777 14:0.99986452 15:0.99996108 #
0.0010000000000000000208166817117217 1:5.7932916 2:4.3416791 3:6.0205612 4:483 5:483 6:483 7:15 8:13 9:13 10:8.7534513 11:8.249094 12:6.0562139 13:0.99997813 14:0.99997938 15:0.99998266 #
0.0010000000000000000208166817117217 1:15.733292 2:12.821679 3:4.3805609 4:509 5:509 6:509 7:16 8:13 9:0 10:3.5465772 11:4.3262782 12:2.5726964 13:0.99997598 14:0.99997723 15:0.99997818 #
0.0010000000000000000208166817117217 1:17.439474 2:28.378714 3:22.602596 4:132 5:132 6:132 7:18 8:28 9:26 10:19.681158 11:23.717413 12:19.441763 13:0.99817091 14:0.99800962 15:0.99828023 #
0.0010000000000000000208166817117217 1:2.1932917 2:3.6216791 3:1.890561 4:472 5:472 6:472 7:5 8:5 9:2 10:22.399622 11:19.680704 12:15.59772 13:0.99997967 14:0.99998182 15:0.99998397 #
0.0010000000000000000208166817117217 1:18.983292 2:15.961679 3:5.780561 4:475 5:475 6:475 7:23 8:18 9:7 10:2.3351762 11:0.26819536 12:0.014517952 13:0.99997073 14:0.99997133 15:0.99997181 #
0.0010000000000000000208166817117217 1:20.389713 2:5.1545358 3:16.601244 4:413 5:413 6:413 7:29 8:16 9:8 10:12.404424 11:7.7457876 12:17.480196 13:0.99977398 14:0.99982631 15:0.99986285 #
-0.0010000000000000000208166817117217 1:59.519691 2:63.82074 3:2.2959692 4:285 5:285 6:285 7:41 8:65 9:4 10:52.579704 11:55.5284 12:0.032704394 13:0.99956447 14:0.99962234 15:0.99992359 #
-0.0010000000000000000208166817117217 1:19.920286 2:5.9154639 3:8.6287556 4:1 5:1 6:1 7:15 8:10 9:4 10:21.140476 11:12.103714 12:10.060215 13:0.99974167 14:0.99983633 15:0.99992174 #
-0.0010000000000000000208166817117217 1:36.33329 2:30.351679 3:25.520561 4:259 5:259 6:259 7:43 8:35 9:31 10:9.3646612 11:9.3268881 12:7.0376606 13:0.99998099 14:0.9999814 15:0.99998313 #
-0.0010000000000000000208166817117217 1:1.6794745 2:0.88128626 3:5.5674038 4:45 5:45 6:45 7:6 8:3 9:2 10:20.35323 11:24.285658 12:21.594128 13:0.99879485 14:0.99881595 15:0.99909937 #
-0.0010000000000000000208166817117217 1:10.556708 2:7.328321 3:5.5194392 4:214 5:214 6:214 7:13 8:9 9:8 10:13.442327 11:11.5324 12:7.7414885 13:0.99997091 14:0.99997371 15:0.99997693 #
0.0010000000000000000208166817117217 1:24.339693 2:17.739262 3:3.6859694 4:5 5:5 6:5 7:3 8:19 9:4 10:56.390739 11:61.375385 12:6.0125742 13:0.99965256 14:0.99979544 15:0.99995834 #
-0.0010000000000000000208166817117217 1:54.093292 2:40.58168 3:24.370562 4:534 5:534 6:534 7:60 8:46 9:29 10:6.9042969 11:6.8428106 12:7.7807012 13:0.99999028 14:0.99998868 15:0.99998754 #
-0.0010000000000000000208166817117217 1:27.003292 2:22.171679 3:21.380562 4:253 5:253 6:253 7:28 8:25 9:24 10:16.04343 11:15.681623 12:12.514793 13:0.99998313 14:0.99998379 15:0.99998611 #
-0.0010000000000000000208166817117217 1:0.78329158 2:0.79832107 3:5.3394389 4:242 5:242 6:242 7:3 8:4 9:9 10:2.9318862 11:4.1328335 12:6.0498834 13:0.9999671 14:0.99996877 15:0.99997032 #
-0.0010000000000000000208166817117217 1:21.896708 2:16.378321 3:15.029439 4:222 5:222 6:222 7:14 8:13 9:13 10:2.3060055 11:1.1985595 12:1.2361498 13:0.999964 14:0.99996686 15:0.99997014 #
-0.0010000000000000000208166817117217 1:1.1432916 2:5.7216787 3:2.1705611 4:474 5:474 6:474 7:4 8:12 9:5 10:4.8160334 11:1.6395657 12:0.79057032 13:0.99997395 14:0.99997675 15:0.99997854 #
0.0010000000000000000208166817117217 1:72.991013 2:52.98587 3:27.543476 4:395 5:395 6:395 7:73 8:56 9:36 10:13.400951 11:15.296701 12:28.254065 13:0.99630946 14:0.99716079 15:0.99815327 #
-0.0010000000000000000208166817117217 1:1.0367084 2:1.8783211 3:3.8294389 4:10 5:10 6:10 7:17 8:16 9:11 10:1.4254426 11:0.62244737 12:2.1659291 13:0.99997669 14:0.99997813 15:0.99998009 #
-0.0010000000000000000208166817117217 1:0.49028581 2:15.634536 3:9.3787556 4:2 5:2 6:2 7:8 8:16 9:5 10:33.273407 11:24.425718 12:17.591185 13:0.99979526 14:0.99989313 15:0.99994862 #
0.0010000000000000000208166817117217 1:50.893291 2:42.021679 3:39.100559 4:267 5:267 6:267 7:52 8:42 9:38 10:15.115349 11:14.329227 12:11.963016 13:0.9999885 14:0.9999882 15:0.99998987 #
-0.0010000000000000000208166817117217 1:61.289692 2:93.620735 3:0.45596924 4:18 5:18 6:18 7:43 8:101 9:9 10:53.739746 11:44.923508 12:8.3009338 13:0.99956143 14:0.99957347 15:0.99991071 #
-0.0010000000000000000208166817117217 1:5.5496922 2:14.999262 3:1.3440307 4:8 5:8 6:8 7:18 8:19 9:1 10:51.896217 11:54.209896 12:1.02547 13:0.99963808 14:0.99974489 15:0.99990207 #
0.0010000000000000000208166817117217 1:8.9194746 2:1.5087137 3:8.0874043 4:48 5:48 6:48 7:12 8:5 9:1 10:22.426062 11:27.511759 12:26.224558 13:0.9984805 14:0.99856246 15:0.99892181 #
-0.0010000000000000000208166817117217 1:1.6867085 2:2.1883211 3:1.610561 4:1 5:1 6:1 7:3 8:3 9:0 10:24.371431 11:21.994122 12:19.723883 13:0.99998349 14:0.99998522 15:0.99998879 #
-0.0010000000000000000208166817117217 1:96.352272 2:100.4512 3:105.76001 4:512 5:512 6:512 7:138 8:144 9:151 10:24.932915 11:26.628794 12:28.235615 13:0.99650764 14:0.99649185 15:0.99679935 #
0.0010000000000000000208166817117217 1:16.996708 2:17.718321 3:19.479439 4:197 5:197 6:197 7:23 8:24 9:27 10:13.184817 11:10.423342 12:6.6847482 13:0.99997163 14:0.99997318 15:0.99997544 #
-0.0010000000000000000208166817117217 1:3.2867084 2:3.758321 3:2.549439 4:226 5:226 6:226 7:2 8:3 9:2 10:21.394958 11:19.386364 12:15.979615 13:0.99997675 14:0.9999783 15:0.99998182 #
-0.0010000000000000000208166817117217 1:21.108969 2:23.827866 3:24.894094 4:3 5:3 6:3 7:17 8:18 9:18 10:18.594124 11:23.109936 12:27.636166 13:0.99660957 14:0.99655104 15:0.99572355 #
-0.0010000000000000000208166817117217 1:5.5194745 2:11.028714 3:1.502596 4:142 5:142 6:142 7:9 8:14 9:7 10:22.221691 11:28.125338 12:26.814659 13:0.99852151 14:0.99841946 15:0.99877435 #
0.0010000000000000000208166817117217 1:52.203293 2:44.42168 3:30.450562 4:509 5:509 6:509 7:51 8:43 9:29 10:22.492899 11:21.400608 12:18.983829 13:0.99999571 14:0.99999577 15:0.99999434 #
-0.0010000000000000000208166817117217 1:19.763292 2:17.491678 3:15.830561 4:21 5:21 6:21 7:26 8:23 9:19 10:0.12805514 11:0.99357504 12:1.3842847 13:0.99997771 14:0.99997854 15:0.99998081 #
0.0010000000000000000208166817117217 1:10.129714 2:8.4545364 3:12.158755 4:0 5:0 6:0 7:21 8:7 9:6 10:12.092463 11:7.9201984 12:12.650968 13:0.99979275 14:0.99986482 15:0.99993992 #
-0.0010000000000000000208166817117217 1:62.889694 2:105.94073 3:12.605969 4:18 5:18 6:18 7:42 8:106 9:14 10:59.695942 11:61.508778 12:5.9409962 13:0.99958986 14:0.99957776 15:0.99998349 #
0.0010000000000000000208166817117217 1:29.993292 2:30.021679 3:30.030561 4:256 5:256 6:256 7:30 8:31 9:30 10:23.986677 11:21.96213 12:19.628571 13:0.99998754 14:0.99998939 15:0.99999207 #
-0.0010000000000000000208166817117217 1:33.036709 2:22.69832 3:15.879439 4:207 5:207 6:207 7:30 8:20 9:14 10:17.661255 11:15.95149 12:13.895862 13:0.99996889 14:0.99997288 15:0.99997753 #
0.0010000000000000000208166817117217 1:12.499475 2:1.9212862 3:7.637404 4:40 5:40 6:40 7:15 8:0 9:2 10:24.10113 11:29.506037 12:27.41202 13:0.99869376 14:0.9988547 15:0.99915874 #
-0.0010000000000000000208166817117217 1:8.0332918 2:3.961679 3:5.9105611 4:249 5:249 6:249 7:10 8:5 9:7 10:14.508389 11:14.126306 12:12.539182 13:0.99998367 14:0.99998468 15:0.9999876 #
0.0010000000000000000208166817117217 1:29.329868 2:34.683819 3:14.146358 4:0 5:0 6:0 7:19 8:16 9:2 10:32.271061 11:38.808987 12:17.81216 13:0.99880159 14:0.99905592 15:0.9991231 #
0.0010000000000000000208166817117217 1:2.2202859 2:2.7745359 3:15.188756 4:213 5:213 6:213 7:2 8:3 9:8 10:25.429441 11:18.621138 12:14.503052 13:0.99978793 14:0.99987036 15:0.99995142 #
0.0010000000000000000208166817117217 1:18.333292 2:22.13168 3:23.500561 4:475 5:475 6:475 7:20 8:24 9:25 10:22.523626 11:19.928598 12:15.857103 13:0.99998432 14:0.99998689 15:0.99998975 #
-0.0010000000000000000208166817117217 1:48.193291 2:36.351681 3:30.930561 4:523 5:523 6:523 7:59 8:43 9:34 10:12.511443 11:16.017267 12:14.292311 13:0.99999022 14:0.99998927 15:0.99999034 #
-0.0010000000000000000208166817117217 1:19.129869 2:36.003819 3:23.636358 4:0 5:0 6:0 7:13 8:20 9:16 10:44.645054 11:47.035191 12:23.190636 13:0.998999 14:0.99935979 15:0.99948716 #
0.0010000000000000000208166817117217 1:15.850307 2:105.31926 3:0.19403076 4:1 5:1 6:1 7:36 8:107 9:1 10:59.768993 11:65.407303 12:8.5761099 13:0.99973702 14:0.99996692 15:0.99995923 #
0.0010000000000000000208166817117217 1:42.361012 2:24.265869 3:5.2634764 4:439 5:439 6:439 7:43 8:27 9:13 10:7.5322351 11:9.783741 12:24.972921 13:0.997168 14:0.99803561 15:0.99879211 #
-0.0010000000000000000208166817117217 1:47.849869 2:47.56382 3:26.676357 4:0 5:0 6:0 7:43 8:32 9:19 10:43.633266 11:45.400032 12:22.145493 13:0.99899095 14:0.99920332 15:0.99927235 #
-0.0010000000000000000208166817117217 1:2.8710124 2:2.8358691 3:7.3734765 4:22 5:22 6:22 7:3 8:6 9:15 10:15.835934 11:18.060755 12:30.587742 13:0.998734 14:0.99916995 15:0.99915177 #
0.0010000000000000000208166817117217 1:24.531012 2:11.085869 3:4.8134766 4:14 5:14 6:14 7:19 8:8 9:10 10:6.0888991 11:8.9708719 12:24.73564 13:0.99792475 14:0.99868733 15:0.99906206 #
0.0010000000000000000208166817117217 1:16.089693 2:20.029261 3:4.3359694 4:5 5:5 6:5 7:5 8:20 9:4 10:56.448357 11:56.003269 12:6.3242121 13:0.99966508 14:0.99979639 15:0.999955 #
-0.0010000000000000000208166817117217 1:51.17329 2:43.521679 3:34.290562 4:529 5:529 6:529 7:63 8:54 9:38 10:4.764535 11:4.9689093 12:2.542901 13:0.99998218 14:0.99998224 15:0.99998254 #
-0.0010000000000000000208166817117217 1:52.33329 2:47.891678 3:35.71056 4:531 5:531 6:531 7:59 8:53 9:40 10:0.72237575 11:2.8726707 12:3.4513087 13:0.99997932 14:0.99997991 15:0.9999795 #
-0.0010000000000000000208166817117217 1:59.369869 2:56.483822 3:28.626358 4:9 5:9 6:9 7:55 8:40 9:20 10:50.976959 11:53.681873 12:29.473511 13:0.99949199 14:0.99970365 15:0.99971294 #
0.0010000000000000000208166817117217 1:55.873291 2:49.051678 3:29.940561 4:529 5:529 6:529 7:59 8:52 9:30 10:17.053825 11:14.582747 12:10.386662 13:0.99999076 14:0.999991 15:0.9999882 #
0.0010000000000000000208166817117217 1:33.193291 2:31.001678 3:26.110561 4:27 5:27 6:27 7:33 8:32 9:26 10:18.237175 11:17.847097 12:15.737305 13:0.99998808 14:0.99998963 15:0.99999082 #
-0.0010000000000000000208166817117217 1:40.933292 2:36.63168 3:20.630562 4:10 5:10 6:10 7:42 8:39 9:19 10:6.0941854 11:4.5257988 12:5.5982099 13:0.99998468 14:0.99998575 15:0.99998432 #
-0.0010000000000000000208166817117217 1:14.680285 2:0.80546397 3:11.878756 4:2 5:2 6:2 7:10 8:5 9:6 10:14.307271 11:12.121552 12:12.325292 13:0.99972683 14:0.99982339 15:0.99990499 #
0.0010000000000000000208166817117217 1:54.213291 2:42.761681 3:26.22056 4:517 5:517 6:517 7:56 8:44 9:25 10:22.242926 11:21.859442 12:18.398094 13:0.99999434 14:0.99999356 15:0.99999189 #
0.0010000000000000000208166817117217 1:14.210308 2:87.459259 3:0.23596925 4:2 5:2 6:2 7:37 8:92 9:1 10:55.1376 11:60.507004 12:5.7023001 13:0.9997192 14:0.99991626 15:0.99994844 #
-0.0010000000000000000208166817117217 1:41.023293 2:35.17168 3:19.030561 4:259 5:259 6:259 7:44 8:36 9:19 10:18.835127 11:18.546999 12:16.017927 13:0.99999017 14:0.99999022 15:0.99998891 #
0.0010000000000000000208166817117217 1:2.7267084 2:4.328321 3:5.949439 4:0 5:0 6:0 7:0 8:2 9:5 10:7.7582955 11:5.2946248 12:2.7915399 13:0.99996769 14:0.99996912 15:0.99997121 #
-0.0010000000000000000208166817117217 1:41.030285 2:29.845465 3:7.0612445 4:158 5:158 6:158 7:33 8:30 9:12 10:29.352444 11:19.831753 12:9.3799677 13:0.99972016 14:0.99980921 15:0.9999032 #
0.0010000000000000000208166817117217 1:58.271011 2:38.585869 3:12.783477 4:33 5:33 6:33 7:59 8:43 9:22 10:8.2754908 11:10.395663 12:24.449095 13:0.99672878 14:0.99763077 15:0.99862111 #
-0.0010000000000000000208166817117217 1:28.848969 2:31.207865 3:34.154095 4:3 5:3 6:3 7:19 8:20 9:20 10:30.047382 11:34.482922 12:39.342239 13:0.99725139 14:0.99719 15:0.99634564 #
0.0010000000000000000208166817117217 1:34.553291 2:26.681679 3:25.06056 4:498 5:498 6:498 7:35 8:28 9:24 10:22.849981 11:20.944748 12:17.178028 13:0.99998981 14:0.99998963 15:0.99999183 #
0.0010000000000000000208166817117217 1:22.663292 2:26.191679 3:23.630562 4:273 5:273 6:273 7:20 8:23 9:21 10:6.9388766 11:5.7822914 12:5.4863119 13:0.99997944 14:0.99998188 15:0.99998391 #
-0.0010000000000000000208166817117217 1:29.459692 2:17.570738 3:5.494031 4:138 5:138 6:138 7:7 8:15 9:4 10:52.384857 11:55.340084 12:2.9078827 13:0.99958456 14:0.99967802 15:0.99987775 #
-0.0010000000000000000208166817117217 1:44.730286 2:34.615463 3:4.3312445 4:281 5:281 6:281 7:37 8:34 9:8 10:27.412861 11:16.175222 12:8.1131248 13:0.99969959 14:0.99978209 15:0.99988228 #
0.0010000000000000000208166817117217 1:42.951012 2:26.05587 3:14.723476 4:426 5:426 6:426 7:43 8:29 9:23 10:14.773352 11:16.912918 12:29.546675 13:0.99746561 14:0.99832302 15:0.9988274 #
0.0010000000000000000208166817117217 1:39.891014 2:28.775869 3:21.923477 4:427 5:427 6:427 7:41 8:32 9:30 10:11.803017 11:15.075568 12:28.906044 13:0.99747121 14:0.99816662 15:0.99857813 #
-0.0010000000000000000208166817117217 1:2.2932916 2:4.0016789 3:5.2705612 4:1 5:1 6:1 7:0 8:2 9:1 10:15.707356 11:14.349711 12:12.644739 13:0.99998093 14:0.99998283 15:0.99998564 #
0.0010000000000000000208166817117217 1:31.093292 2:24.781679 3:27.790562 4:259 5:259 6:259 7:34 8:27 9:27 10:16.697325 11:15.311529 12:13.452618 13:0.99998367 14:0.99998373 15:0.99998689 #
0.0010000000000000000208166817117217 1:85.739868 2:63.283821 3:32.906357 4:0 5:0 6:0 7:90 8:49 9:26 10:35.708782 11:48.811016 12:26.872961 13:0.99976552 14:0.99980026 15:0.99981844 #
0.0010000000000000000208166817117217 1:61.529869 2:56.983822 3:32.226357 4:0 5:0 6:0 7:59 8:41 9:24 10:49.379784 11:50.955235 12:26.658363 13:0.99947625 14:0.99966544 15:0.99968958 #
-0.0010000000000000000208166817117217 1:17.378988 2:4.1041307 3:12.513476 4:486 5:486 6:486 7:18 8:2 9:20 10:15.536908 11:16.950842 12:28.497124 13:0.99929023 14:0.99933392 15:0.99899149 #
-0.0010000000000000000208166817117217 1:35.866707 2:37.638321 3:33.619438 4:21 5:21 6:21 7:35 8:36 9:34 10:12.91683 11:12.102704 12:8.0093021 13:0.99996525 14:0.99996692 15:0.99997026 #
-0.0010000000000000000208166817117217 1:61.869694 2:107.54074 3:14.524031 4:286 5:286 6:286 7:41 8:108 9:16 10:58.788036 11:59.114685 12:3.3728285 13:0.99958462 14:0.99957031 15:0.99991792 #
0.0010000000000000000208166817117217 1:5.1367083 2:3.8983212 3:3.0694389 4:0 5:0 6:0 7:10 8:8 9:5 10:14.250953 11:11.882678 12:9.7209682 13:0.99997538 14:0.99997747 15:0.99998027 #
0.0010000000000000000208166817117217 1:8.7967081 2:4.078321 3:2.030561 4:0 5:0 6:0 7:11 8:8 9:1 10:19.07033 11:15.340359 12:13.792516 13:0.9999786 14:0.99998093 15:0.9999854 #
-0.0010000000000000000208166817117217 1:5.2702856 2:12.384536 3:18.938755 4:2 5:2 6:2 7:2 8:13 9:13 10:28.331299 11:19.144094 12:14.061374 13:0.99978393 14:0.99988556 15:0.99995774 #
-0.0010000000000000000208166817117217 1:5.5135417 2:14.00539 3:12.675143 4:449 5:449 6:449 7:4 8:5 9:0 10:17.646414 11:23.052338 12:25.557854 13:0.99874246 14:0.99964398 15:0.99968034 #
-0.0010000000000000000208166817117217 1:3.6722748 2:3.8111997 3:0.20001329 4:135 5:135 6:135 7:4 8:5 9:4 10:32.453037 11:32.958942 12:28.221102 13:0.99843675 14:0.99850023 15:0.9988969 #
0.0010000000000000000208166817117217 1:59.103291 2:54.451679 3:39.080563 4:527 5:527 6:527 7:61 8:56 9:40 10:13.780719 11:11.020376 12:9.8621569 13:0.99999106 14:0.99999177 15:0.9999907 #
-0.0010000000000000000208166817117217 1:62.049694 2:122.54074 3:13.205969 4:18 5:18 6:18 7:41 8:122 9:14 10:59.123398 11:62.314667 12:6.8366704 13:0.99957466 14:0.99953634 15:0.99997461 #
0.0010000000000000000208166817117217 1:21.532274 2:10.821199 3:30.389986 4:335 5:335 6:335 7:22 8:12 9:26 10:33.403133 11:33.900478 12:29.746914 13:0.99830294 14:0.99853963 15:0.99953198 #
0.0010000000000000000208166817117217 1:17.099714 2:17.134537 3:10.068755 4:3 5:3 6:3 7:22 8:15 9:3 10:25.259609 11:22.488245 12:17.056982 13:0.99982744 14:0.99991059 15:0.99996769 #
-0.0010000000000000000208166817117217 1:32.703293 2:31.751678 3:29.330561 4:529 5:529 6:529 7:41 8:39 9:33 10:19.498137 11:18.65237 12:14.492636 13:0.99997979 14:0.99998116 15:0.99998307 #
-0.0010000000000000000208166817117217 1:32.949867 2:43.613819 3:25.376358 4:0 5:0 6:0 7:28 8:27 9:16 10:46.708626 11:47.30962 12:24.117945 13:0.99908823 14:0.99939114 15:0.99948221 #
0.0010000000000000000208166817117217 1:20.603292 2:23.741678 3:25.990561 4:256 5:256 6:256 7:23 8:27 9:26 10:18.874071 11:15.764891 12:10.380428 13:0.99998522 14:0.99998778 15:0.99999094 #
0.0010000000000000000208166817117217 1:59.553291 2:48.621677 3:31.120562 4:522 5:522 6:522 7:61 8:50 9:31 10:26.327877 11:23.564262 12:21.1805 13:0.99999726 14:0.99999648 15:0.99999434 #
0.0010000000000000000208166817117217 1:2.9932916 2:5.6116791 3:5.9305611 4:0 5:0 6:0 7:0 8:3 9:3 10:3.8008711 11:1.7385662 12:0.74319232 13:0.99997258 14:0.99997479 15:0.99997741 #
0.0010000000000000000208166817117217 1:2.1932917 2:0.68167895 3:1.250561 4:479 5:479 6:479 7:8 8:6 9:6 10:10.746303 11:8.445756 12:3.4525704 13:0.99997509 14:0.99997628 15:0.99997944 #
-0.0010000000000000000208166817117217 1:5.0967083 2:4.4583211 3:0.41943902 4:223 5:223 6:223 7:3 8:2 9:2 10:23.631714 11:21.755659 12:17.104818 13:0.99998128 14:0.99998319 15:0.99998653 #
-0.0010000000000000000208166817117217 1:30.403292 2:32.22168 3:31.47056 4:545 5:545 6:545 7:51 8:47 9:37 10:26.830894 11:23.626163 12:17.786444 13:0.99997061 14:0.9999724 15:0.99997514 #
-0.0010000000000000000208166817117217 1:23.173292 2:23.64168 3:20.040562 4:459 5:459 6:459 7:9 8:9 9:9 10:1.8713814 11:3.9806917 12:0.80813617 13:0.99998301 14:0.99998444 15:0.99998635 #
-0.0010000000000000000208166817117217 1:1.7067084 2:2.4283211 3:3.0894389 4:231 5:231 6:231 7:2 8:1 9:0 10:23.955811 11:21.934238 12:19.154142 13:0.99998099 14:0.99998266 15:0.99998504 #
-0.0010000000000000000208166817117217 1:8.9032917 2:11.761679 3:10.860561 4:476 5:476 6:476 7:12 8:14 9:12 10:18.672953 11:16.543751 12:14.507398 13:0.99998355 14:0.99998575 15:0.99998808 #
-0.0010000000000000000208166817117217 1:16.656708 2:16.258322 3:10.359439 4:3 5:3 6:3 7:9 8:8 9:8 10:2.8499279 11:1.8392335 12:3.0577765 13:0.99997044 14:0.99997276 15:0.99997735 #
-0.0010000000000000000208166817117217 1:57.853291 2:51.81168 3:42.540562 4:542 5:542 6:542 7:64 8:58 9:48 10:5.8661618 11:5.3723841 12:4.05129 13:0.99998617 14:0.99998659 15:0.99998695 #
0.0010000000000000000208166817117217 1:50.273293 2:40.701679 3:35.89056 4:520 5:520 6:520 7:54 8:44 9:37 10:22.290644 11:22.159014 12:18.425652 13:0.9999944 14:0.99999416 15:0.99999553 #
-0.0010000000000000000208166817117217 1:0.16670839 2:2.151679 3:1.409439 4:461 5:461 6:461 7:1 8:4 9:0 10:24.402473 11:22.886938 12:18.896717 13:0.99998069 14:0.99998242 15:0.99998432 #
-0.0010000000000000000208166817117217 1:0.68670839 2:0.13167895 3:3.1105609 4:222 5:222 6:222 7:1 8:1 9:2 10:18.389755 11:16.799007 12:14.157524 13:0.99998027 14:0.99998224 15:0.99998546 #
0.0010000000000000000208166817117217 1:8.2532911 2:10.791679 3:11.740561 4:456 5:456 6:456 7:9 8:13 9:13 10:14.586406 11:12.96317 12:11.9574 13:0.99997628 14:0.99997866 15:0.99998194 #
-0.0010000000000000000208166817117217 1:26.637726 2:26.348801 3:10.319986 4:160 5:160 6:160 7:26 8:25 9:5 10:32.808792 11:33.306137 12:29.012115 13:0.99899882 14:0.99905878 15:0.99912059 #
-0.0010000000000000000208166817117217 1:34.883293 2:27.39168 3:21.57056 4:258 5:258 6:258 7:38 8:31 9:25 10:14.667572 11:13.442774 12:10.448223 13:0.99998647 14:0.99998653 15:0.99998772 #
0.0010000000000000000208166817117217 1:31.713291 2:31.231678 3:26.290562 4:33 5:33 6:33 7:39 8:38 9:32 10:8.0950432 11:6.8230481 12:5.6025691 13:0.99998522 14:0.99998677 15:0.99998826 #
0.0010000000000000000208166817117217 1:4.7867084 2:1.8783211 3:5.0205612 4:7 5:7 6:7 7:4 8:1 9:6 10:27.454666 11:25.161777 12:23.063662 13:0.99998134 14:0.99998373 15:0.99998796 #
-0.0010000000000000000208166817117217 1:25.148987 2:17.86413 3:17.486523 4:254 5:254 6:254 7:26 8:15 9:10 10:16.404205 11:18.684937 12:30.891672 13:0.99960053 14:0.99986476 15:0.99984813 #
0.0010000000000000000208166817117217 1:49.363293 2:41.791679 3:28.510561 4:514 5:514 6:514 7:53 8:44 9:28 10:21.521488 11:20.979208 12:18.666788 13:0.99999076 14:0.99999094 15:0.99998987 #
-0.0010000000000000000208166817117217 1:35.633293 2:33.321678 3:20.440561 4:542 5:542 6:542 7:39 8:39 9:27 10:9.4255371 11:10.961062 12:10.902787 13:0.99997866 14:0.99997967 15:0.99997956 #
0.0010000000000000000208166817117217 1:94.06987 2:69.283821 3:35.736359 4:0 5:0 6:0 7:90 8:54 9:28 10:48.776024 11:50.730415 12:28.109358 13:0.99970686 14:0.99973935 15:0.99972516 #
-0.0010000000000000000208166817117217 1:67.609871 2:59.663818 3:33.056358 4:0 5:0 6:0 7:62 8:44 9:23 10:52.332863 11:53.237377 12:29.616695 13:0.9996137 14:0.99977779 15:0.99979419 #
0.0010000000000000000208166817117217 1:43.913292 2:39.121677 3:33.71056 4:507 5:507 6:507 7:47 8:41 9:34 10:26.436785 11:23.663723 12:21.370483 13:0.99999279 14:0.99999398 15:0.99999505 #
-0.0010000000000000000208166817117217 1:50.720524 2:63.831287 3:44.497402 4:0 5:0 6:0 7:48 8:61 9:39 10:26.229492 11:30.980009 12:31.199636 13:0.99964088 14:0.99981201 15:0.99986595 #
0.0010000000000000000208166817117217 1:35.33987 2:35.90382 3:18.726358 4:0 5:0 6:0 7:17 8:13 9:10 10:23.755518 11:33.539093 12:17.942659 13:0.9990893 14:0.99931014 15:0.9994272 #
0.0010000000000000000208166817117217 1:19.779692 2:48.56926 3:1.4059693 4:1 5:1 6:1 7:1 8:51 9:1 10:56.942749 11:55.677414 12:6.9648361 13:0.99966013 14:0.99985349 15:0.99995643 #
-0.0010000000000000000208166817117217 1:17.713291 2:17.591679 3:13.380561 4:219 5:219 6:219 7:17 8:17 9:11 10:10.51739 11:8.6250019 12:5.9492669 13:0.99996883 14:0.99997061 15:0.99997205 #
0.0010000000000000000208166817117217 1:11.239869 2:20.17382 3:4.5963578 4:379 5:379 6:379 7:6 8:2 9:6 10:46.360123 11:45.577946 12:22.532993 13:0.99888474 14:0.99920464 15:0.99926531 #
0.0010000000000000000208166817117217 1:2.0202858 2:6.6854639 3:1.6487556 4:3 5:3 6:3 7:1 8:12 9:5 10:22.326054 11:17.512012 12:12.601213 13:0.99979532 14:0.99986619 15:0.99993128 #
-0.0010000000000000000208166817117217 1:21.903292 2:18.351679 3:13.720561 4:239 5:239 6:239 7:18 8:17 9:9 10:8.9350061 11:8.1353464 12:5.8739643 13:0.99997962 14:0.99998033 15:0.99998212 #
0.0010000000000000000208166817117217 1:4.7132916 2:8.6616793 3:11.460561 4:466 5:466 6:466 7:6 8:9 9:9 10:18.207956 11:15.364561 12:11.367202 13:0.99998158 14:0.99998409 15:0.99998754 #
-0.0010000000000000000208166817117217 1:4.2822747 2:0.77119976 3:1.4000133 4:132 5:132 6:132 7:5 8:2 9:6 10:34.408962 11:34.856686 12:30.749731 13:0.99860013 14:0.9987179 15:0.99903101 #
0.0010000000000000000208166817117217 1:42.823292 2:36.291679 3:22.510561 4:504 5:504 6:504 7:44 8:38 9:22 10:25.719353 11:23.720615 12:21.253515 13:0.99999422 14:0.99999428 15:0.9999935 #
0.0010000000000000000208166817117217 1:34.809715 2:37.494537 3:13.518756 4:3 5:3 6:3 7:53 8:46 9:8 10:15.082194 11:8.4268036 12:15.2684 13:0.99984205 14:0.9999274 15:0.99996048 #
0.0010000000000000000208166817117217 1:4.6932917 2:4.461679 3:4.6505609 4:478 5:478 6:478 7:9 8:9 9:6 10:18.227051 11:15.848542 12:12.881038 13:0.99998003 14:0.9999817 15:0.99998432 #
-0.0010000000000000000208166817117217 1:37.853291 2:33.841679 3:34.98056 4:46 5:46 6:46 7:42 8:36 9:37 10:9.7768316 11:8.3679152 12:4.8294282 13:0.99997985 14:0.99998093 15:0.99998355 #
-0.0010000000000000000208166817117217 1:17.536709 2:20.52832 3:12.739439 4:217 5:217 6:217 7:9 8:11 9:3 10:3.2152078 11:3.3966315 12:0.2197537 13:0.99997354 14:0.99997449 15:0.99997836 #
0.0010000000000000000208166817117217 1:48.930286 2:42.045464 3:8.7612448 4:281 5:281 6:281 7:45 8:49 9:17 10:26.734394 11:8.9764624 12:5.757226 13:0.99970818 14:0.99978358 15:0.99989218 #
-0.0010000000000000000208166817117217 1:48.619713 2:41.124535 3:11.748755 4:397 5:397 6:397 7:58 8:41 9:6 10:38.095291 11:30.251511 12:21.695683 13:0.99989194 14:0.99995959 15:0.99998575 #
-0.0010000000000000000208166817117217 1:27.160286 2:24.585464 3:29.241245 4:41 5:41 6:41 7:17 8:24 9:34 10:31.754066 11:22.950539 12:17.121521 13:0.99978471 14:0.999865 15:0.9999215 #
-0.0010000000000000000208166817117217 1:60.209694 2:119.26074 3:10.82597 4:16 5:16 6:16 7:40 8:118 9:12 10:57.168346 11:61.349407 12:5.7770653 13:0.99957192 14:0.9995383 15:0.99995887 #
-0.0010000000000000000208166817117217 1:19.876709 2:17.168322 3:18.27944 4:198 5:198 6:198 7:15 8:11 9:10 10:11.216357 11:7.8795705 12:1.9004997 13:0.99996608 14:0.99996829 15:0.99997044 #
0.0010000000000000000208166817117217 1:47.039715 2:47.924538 3:16.118755 4:400 5:400 6:400 7:60 8:50 9:9 10:24.504618 11:19.958073 12:16.502203 13:0.99986798 14:0.99995196 15:0.99997467 #
0.0010000000000000000208166817117217 1:52.633293 2:46.83168 3:30.57056 4:513 5:513 6:513 7:53 8:48 9:30 10:27.917168 11:25.79475 12:20.54361 13:0.99999601 14:0.99999672 15:0.99999517 #
-0.0010000000000000000208166817117217 1:20.853292 2:18.72168 3:14.090561 4:205 5:205 6:205 7:30 8:28 9:22 10:3.2789032 11:5.0795097 12:5.8563805 13:0.99997729 14:0.99997842 15:0.99998003 #
0.0010000000000000000208166817117217 1:57.913292 2:53.031677 3:39.190559 4:517 5:517 6:517 7:57 8:52 9:35 10:16.635664 11:14.432892 12:10.171431 13:0.99999166 14:0.99999177 15:0.99999064 #
0.0010000000000000000208166817117217 1:41.931011 2:27.45587 3:16.243477 4:427 5:427 6:427 7:42 8:30 9:24 10:15.315122 11:17.231695 12:29.178743 13:0.99757463 14:0.99835259 15:0.99886191 #
0.0010000000000000000208166817117217 1:16.639692 2:43.049263 3:0.79596925 4:2 5:2 6:2 7:6 8:50 9:1 10:52.303505 11:43.685162 12:6.1808043 13:0.99966556 14:0.99984163 15:0.9999519 #
0.0010000000000000000208166817117217 1:92.199867 2:67.403824 3:34.966358 4:0 5:0 6:0 7:92 8:52 9:28 10:41.600468 11:49.483562 12:27.798124 13:0.99978185 14:0.99983162 15:0.99983293 #
0.0010000000000000000208166817117217 1:15.129714 2:0.67453599 3:11.031244 4:4 5:4 6:4 7:32 8:20 9:1 10:9.8017902 11:5.7159128 12:10.515211 13:0.99979728 14:0.99986416 15:0.99991339 #
0.0010000000000000000208166817117217 1:12.779693 2:71.659264 3:2.4959693 4:3 5:3 6:3 7:8 8:74 9:2 10:58.839386 11:61.560326 12:8.4064684 13:0.99968827 14:0.99990845 15:0.99996895 #
0.0010000000000000000208166817117217 1:22.133291 2:25.511679 3:26.81056 4:257 5:257 6:257 7:25 8:28 9:28 10:24.455009 11:23.02573 12:20.998606 13:0.99998921 14:0.99999177 15:0.9999944 #
-0.0010000000000000000208166817117217 1:21.803291 2:19.791679 3:12.400561 4:17 5:17 6:17 7:30 8:26 9:16 10:5.3372464 11:6.5887337 12:7.7552233 13:0.99997824 14:0.99997926 15:0.99998021 #
0.0010000000000000000208166817117217 1:19.640526 2:15.391286 3:18.347404 4:371 5:371 6:371 7:16 8:13 9:11 10:24.27943 11:28.99868 12:27.635513 13:0.99906307 14:0.99898928 15:0.9992975 #
-0.0010000000000000000208166817117217 1:23.723291 2:24.041679 3:21.260561 4:239 5:239 6:239 7:14 8:14 9:16 10:1.5912446 11:0.92365122 12:0.13585293 13:0.99997836 14:0.99997997 15:0.99998224 #
-0.0010000000000000000208166817117217 1:28.933292 2:24.501678 3:11.980561 4:520 5:520 6:520 7:57 8:46 9:29 10:27.01733 11:27.838802 12:21.547329 13:0.99997628 14:0.99997687 15:0.9999764 #
0.0010000000000000000208166817117217 1:66.111015 2:42.98587 3:20.863476 4:394 5:394 6:394 7:69 8:49 9:30 10:7.1408958 11:9.468647 12:24.970203 13:0.99665397 14:0.99765611 15:0.99852908 #
0.0010000000000000000208166817117217 1:53.803291 2:39.861679 3:27.73056 4:514 5:514 6:514 7:55 8:41 9:28 10:24.582567 11:21.368353 12:16.545666 13:0.99999142 14:0.99998963 15:0.99998939 #
0.0010000000000000000208166817117217 1:19.762276 2:8.7311993 3:30.639986 4:336 5:336 6:336 7:20 8:10 9:26 10:35.381584 11:35.650517 12:32.017773 13:0.99844676 14:0.99868351 15:0.99965054 #
-0.0010000000000000000208166817117217 1:53.819714 2:44.944534 3:15.348756 4:0 5:0 6:0 7:61 8:43 9:8 10:35.320267 11:27.205498 12:18.779083 13:0.99989039 14:0.99995804 15:0.99998277 #
0.0010000000000000000208166817117217 1:4.9296923 2:77.219261 3:1.2359692 4:0 5:0 6:0 7:18 8:83 9:0 10:55.101406 11:56.132488 12:7.7651358 13:0.99969614 14:0.99991089 15:0.99995905 #
0.0010000000000000000208166817117217 1:20.512276 2:24.401199 3:15.730013 4:385 5:385 6:385 7:22 8:26 9:21 10:33.632732 11:33.491753 12:29.588274 13:0.99834347 14:0.99833024 15:0.99881488 #
-0.0010000000000000000208166817117217 1:9.5167084 2:10.408321 3:3.209439 4:217 5:217 6:217 7:9 8:8 9:4 10:5.3798966 11:2.895735 12:3.4309692 13:0.99997073 14:0.99997234 15:0.99997652 #
-0.0010000000000000000208166817117217 1:22.428968 2:24.747866 3:26.734095 4:254 5:254 6:254 7:12 8:13 9:13 10:29.526766 11:34.154274 12:39.127277 13:0.99739873 14:0.99735934 15:0.99653375 #
-0.0010000000000000000208166817117217 1:48.790527 2:61.951286 3:44.237404 4:0 5:0 6:0 7:48 8:61 9:40 10:24.542332 11:30.140276 12:29.667593 13:0.99951136 14:0.99968088 15:0.99976814 #
0.0010000000000000000208166817117217 1:92.909866 2:66.283821 3:32.336357 4:0 5:0 6:0 7:91 8:53 9:26 10:41.920998 11:46.630829 12:23.227049 13:0.99969727 14:0.99968529 15:0.99968576 #
-0.0010000000000000000208166817117217 1:21.796709 2:15.988321 3:7.9394388 4:439 5:439 6:439 7:24 8:18 9:10 10:11.087021 11:8.8633995 12:6.7094154 13:0.9999674 14:0.99997056 15:0.99997503 #
-0.0010000000000000000208166817117217 1:17.053291 2:13.841679 3:8.010561 4:213 5:213 6:213 7:11 8:8 9:4 10:2.7445757 11:0.65668535 12:1.862426 13:0.99997681 14:0.99997807 15:0.9999792 #
0.0010000000000000000208166817117217 1:10.610308 2:88.689262 3:0.79596925 4:0 5:0 6:0 7:31 8:89 9:0 10:57.320732 11:62.198917 12:7.1601739 13:0.99972719 14:0.99993223 15:0.9999612 #
-0.0010000000000000000208166817117217 1:13.788969 2:15.067865 3:16.214094 4:8 5:8 6:8 7:7 8:6 9:6 10:21.84564 11:26.294954 12:30.043118 13:0.99759156 14:0.99755365 15:0.99672902 #
0.0010000000000000000208166817117217 1:9.3210125 2:1.5158691 3:0.87652344 4:236 5:236 6:236 7:9 8:4 9:7 10:14.933874 11:17.011499 12:29.43535 13:0.99843001 14:0.999066 15:0.99926072 #
-0.0010000000000000000208166817117217 1:15.659869 2:24.093821 3:15.336358 4:0 5:0 6:0 7:10 8:5 9:4 10:41.869698 11:42.956417 12:20.772566 13:0.99882865 14:0.99910206 15:0.99928069 #
0.0010000000000000000208166817117217 1:7.5302858 2:25.405464 3:23.281244 4:281 5:281 6:281 7:19 8:6 9:6 10:2.0950801 11:21.564089 12:17.329491 13:0.9997527 14:0.99980336 15:0.99987179 #
-0.0010000000000000000208166817117217 1:24.820286 2:17.875463 3:7.9612446 4:167 5:167 6:167 7:20 8:21 9:12 10:17.320845 11:12.64897 12:7.2809925 13:0.99972212 14:0.99980992 15:0.99989212 #
-0.0010000000000000000208166817117217 1:43.620308 2:60.979263 3:1.2059692 4:2 5:2 6:2 7:65 8:63 9:1 10:60.527962 11:65.343063 12:8.018611 13:0.99978888 14:0.99988407 15:0.99996006 #
-0.0010000000000000000208166817117217 1:66.733292 2:60.571678 3:43.630562 4:514 5:514 6:514 7:64 8:57 9:40 10:10.863895 11:7.7029877 12:6.4613261 13:0.99998736 14:0.99998742 15:0.99998635 #
0.0010000000000000000208166817117217 1:35.029694 2:7.2007384 3:8.3659697 4:10 5:10 6:10 7:19 8:15 9:8 10:49.824932 11:41.584316 12:6.2390122 13:0.99962622 14:0.99974716 15:0.99995816 #
-0.0010000000000000000208166817117217 1:36.773293 2:27.461679 3:26.350561 4:501 5:501 6:501 7:41 8:28 9:32 10:1.1267728 11:2.6600323 12:5.4134092 13:0.99997705 14:0.99997628 15:0.99997896 #
0.0010000000000000000208166817117217 1:15.733292 2:16.041679 3:13.800561 4:11 5:11 6:11 7:16 8:17 9:13 10:20.322653 11:18.252943 12:14.465489 13:0.99997824 14:0.99997979 15:0.99998182 #
-0.0010000000000000000208166817117217 1:34.649715 2:36.044537 3:20.228756 4:7 5:7 6:7 7:43 8:35 9:15 10:34.413803 11:26.96129 12:18.431746 13:0.99986506 14:0.99994397 15:0.99998868 #
0.0010000000000000000208166817117217 1:41.693291 2:35.08168 3:19.110561 4:275 5:275 6:275 7:54 8:46 9:27 10:5.8447843 11:5.1514473 12:6.7346387 13:0.99998826 14:0.99998838 15:0.9999873 #
-0.0010000000000000000208166817117217 1:47.49329 2:42.781677 3:35.090561 4:520 5:520 6:520 7:60 8:49 9:35 10:2.4308913 11:0.7693004 12:0.74629635 13:0.99998277 14:0.99998361 15:0.99998438 #
-0.0010000000000000000208166817117217 1:31.820526 2:40.681286 3:39.397404 4:0 5:0 6:0 7:31 8:40 9:37 10:20.74424 11:25.789322 12:24.517784 13:0.99916273 14:0.99928051 15:0.99953991 #
0.0010000000000000000208166817117217 1:20.959692 2:0.9392615 3:1.7459693 4:168 5:168 6:168 7:5 8:11 9:2 10:50.645718 11:51.579784 12:3.6001656 13:0.99965209 14:0.9997558 15:0.99994826 #
-0.0010000000000000000208166817117217 1:37.973125 2:43.066517 3:56.606449 4:186 5:186 6:186 7:39 8:44 9:58 10:10.650172 11:11.067856 12:14.333093 13:0.99597943 14:0.99520397 15:0.99439061 #
-0.0010000000000000000208166817117217 1:17.863291 2:19.191679 3:20.97056 4:516 5:516 6:516 7:14 8:16 9:21 10:8.0250025 11:5.4939508 12:2.2264419 13:0.99998069 14:0.99998289 15:0.99998593 #
0.0010000000000000000208166817117217 1:33.156708 2:28.008322 3:24.26944 4:199 5:199 6:199 7:32 8:26 9:24 10:27.029413 11:25.490416 12:19.869396 13:0.99997497 14:0.99997795 15:0.99998116 #
-0.0010000000000000000208166817117217 1:67.209869 2:59.553822 3:32.926357 4:0 5:0 6:0 7:63 8:43 9:24 10:51.093063 11:52.112179 12:28.101757 13:0.99955112 14:0.99970716 15:0.99971473 #
-0.0010000000000000000208166817117217 1:33.933292 2:28.441679 3:26.07056 4:521 5:521 6:521 7:37 8:33 9:28 10:2.8214228 11:5.8334756 12:5.2259774 13:0.99998379 14:0.99998379 15:0.99998629 #
0.0010000000000000000208166817117217 1:10.649869 2:3.0138202 3:13.703642 4:152 5:152 6:152 7:9 8:24 9:30 10:23.506124 11:27.857119 12:10.39715 13:0.99875951 14:0.99890298 15:0.99896556 #
0.0010000000000000000208166817117217 1:5.7467084 2:2.348321 3:1.3205611 4:1 5:1 6:1 7:7 8:2 9:0 10:19.11986 11:17.528303 12:13.714802 13:0.99997771 14:0.99998039 15:0.99998373 #
-0.0010000000000000000208166817117217 1:39.090527 2:45.581287 3:34.667404 4:0 5:0 6:0 7:38 8:44 9:30 10:20.109787 11:25.367767 12:25.13633 13:0.99906474 14:0.99914521 15:0.99929029 #
-0.0010000000000000000208166817117217 1:63.479713 2:1.475464 3:50.271244 4:413 5:413 6:413 7:72 8:0 9:55 10:36.194164 11:25.492064 12:15.687341 13:0.99990857 14:0.99990314 15:0.99990118 #
0.0010000000000000000208166817117217 1:4.4964585 2:0.75460935 3:4.3851433 4:7 5:7 6:7 7:8 8:10 9:6 10:7.4741769 11:13.837767 12:17.763042 13:0.99799252 14:0.99840385 15:0.9987613 #
0.0010000000000000000208166817117217 1:15.063292 2:18.47168 3:22.240561 4:483 5:483 6:483 7:16 8:19 9:23 10:15.50702 11:11.883232 12:8.7942562 13:0.99998248 14:0.9999851 15:0.99998862 #
0.0010000000000000000208166817117217 1:28.859692 2:13.749262 3:3.3859692 4:5 5:5 6:5 7:8 8:17 9:3 10:57.540588 11:58.577057 12:6.3511424 13:0.9996407 14:0.99978209 15:0.99995601 #
-0.0010000000000000000208166817117217 1:19.73897 2:22.457865 3:24.324095 4:5 5:5 6:5 7:10 8:11 9:11 10:28.876505 11:33.392319 12:38.401699 13:0.99760044 14:0.9975403 15:0.99671566 #
-0.0010000000000000000208166817117217 1:88.122276 2:92.791199 3:98.900017 4:0 5:0 6:0 7:138 8:144 9:150 10:37.781395 11:38.299896 12:37.927258 13:0.99667782 14:0.99661326 15:0.99689382 #
0.0010000000000000000208166817117217 1:16.540308 2:89.739258 3:1.2559693 4:3 5:3 6:3 7:37 8:90 9:1 10:57.451679 11:58.346287 12:8.3667316 13:0.99973488 14:0.9999314 15:0.99995971 #
-0.0010000000000000000208166817117217 1:12.176708 2:12.438321 3:16.299438 4:227 5:227 6:227 7:5 8:5 9:9 10:2.8083653 11:2.4532485 12:9.2232933 13:0.99996072 14:0.99996257 15:0.99996436 #
-0.0010000000000000000208166817117217 1:23.203291 2:15.821679 3:9.8805609 4:510 5:510 6:510 7:27 8:23 9:13 10:3.8034115 11:2.6886003 12:2.9788272 13:0.99997938 14:0.99997944 15:0.99998039 #
0.0010000000000000000208166817117217 1:50.340286 2:41.975464 3:10.851245 4:281 5:281 6:281 7:46 8:46 9:18 10:26.333521 11:6.3499794 12:4.2348361 13:0.99969471 14:0.99976641 15:0.99986809 #
0.0010000000000000000208166817117217 1:33.269691 2:18.369261 3:2.5259693 4:11 5:11 6:11 7:10 8:23 9:3 10:53.826248 11:48.410389 12:3.3375533 13:0.99960738 14:0.99977195 15:0.99993074 #
-0.0010000000000000000208166817117217 1:40.053291 2:34.24168 3:21.270561 4:503 5:503 6:503 7:43 8:36 9:22 10:2.8463871 11:2.7974098 12:1.6955376 13:0.99997801 14:0.99997842 15:0.99997777 #
0.0010000000000000000208166817117217 1:53.733292 2:42.771679 3:38.350559 4:513 5:513 6:513 7:53 8:44 9:40 10:20.518768 11:20.192978 12:17.546789 13:0.99999392 14:0.99999279 15:0.9999944 #
0.0010000000000000000208166817117217 1:53.559692 2:52.73074 3:2.3559692 4:18 5:18 6:18 7:34 8:52 9:3 10:53.293289 11:56.360794 12:0.33041304 13:0.99958646 14:0.99965519 15:0.99994111 #
-0.0010000000000000000208166817117217 1:33.270287 2:15.135464 3:6.4987555 4:323 5:323 6:323 7:24 8:14 9:3 10:26.383465 11:17.387629 12:8.6008739 13:0.99971211 14:0.99981171 15:0.99990231 #
-0.0010000000000000000208166817117217 1:39.879715 2:32.534534 3:11.648755 4:220 5:220 6:220 7:47 8:32 9:7 10:29.199551 11:20.412619 12:11.204873 13:0.99983144 14:0.99990058 15:0.99993682 #
-0.0010000000000000000208166817117217 1:54.690132 2:44.606178 3:16.453642 4:113 5:113 6:113 7:65 8:68 9:30 10:36.440105 11:36.10606 12:14.313948 13:0.99802595 14:0.99828947 15:0.99873257 #
0.0010000000000000000208166817117217 1:2.6767085 2:3.3716791 3:0.55056101 4:249 5:249 6:249 7:0 8:8 9:3 10:6.5044231 11:4.0907884 12:1.9460324 13:0.99996865 14:0.99997187 15:0.99997407 #
0.0010000000000000000208166817117217 1:8.6897144 2:9.7045364 3:11.628756 4:6 5:6 6:6 7:27 8:20 9:8 10:15.477764 11:3.5803497 12:7.0792332 13:0.99980241 14:0.99988276 15:0.99994993 #
-0.0010000000000000000208166817117217 1:55.223293 2:47.071678 3:28.020561 4:516 5:516 6:516 7:56 8:47 9:27 10:11.62075 11:10.503838 12:11.295002 13:0.99998724 14:0.99998659 15:0.99998504 #
-0.0010000000000000000208166817117217 1:16.390285 2:8.605464 3:4.8787556 4:327 5:327 6:327 7:12 8:10 9:0 10:21.052507 11:15.0587 12:4.6206365 13:0.99971604 14:0.99981582 15:0.99990213 #
-0.0010000000000000000208166817117217 1:66.073288 2:53.161678 3:40.310562 4:531 5:531 6:531 7:67 8:53 9:39 10:19.37999 11:16.603779 12:10.710164 13:0.99999517 14:0.99999374 15:0.99999291 #
0.0010000000000000000208166817117217 1:6.1932917 2:6.211679 3:12.070561 4:235 5:235 6:235 7:8 8:9 9:13 10:23.729162 11:22.170847 12:18.579861 13:0.9999817 14:0.99998343 15:0.99998748 #
-0.0010000000000000000208166817117217 1:37.320286 2:23.015465 3:6.4212446 4:299 5:299 6:299 7:33 8:26 9:16 10:21.808722 11:13.742299 12:6.3124156 13:0.99972308 14:0.99981648 15:0.99989933 #
0.0010000000000000000208166817117217 1:10.206874 2:7.2134819 3:5.3535519 4:2 5:2 6:2 7:8 8:7 9:4 10:5.3054099 11:8.5324707 12:13.067406 13:0.99811971 14:0.99746561 15:0.997105 #
0.0010000000000000000208166817117217 1:32.223293 2:32.281677 3:28.660561 4:29 5:29 6:29 7:28 8:29 9:28 10:5.3946342 11:4.7589974 12:7.5941415 13:0.99998534 14:0.99998695 15:0.99998868 #
-0.0010000000000000000208166817117217 1:2.4897141 2:11.034536 3:17.158756 4:5 5:5 6:5 7:10 8:8 9:13 10:28.137625 11:18.442139 12:14.465733 13:0.99981529 14:0.99990267 15:0.99997461 #
-0.0010000000000000000208166817117217 1:5.9710307 2:5.2521343 3:2.3859057 4:476 5:476 6:476 7:16 8:17 9:17 10:28.860767 11:33.376579 12:38.17754 13:0.99834406 14:0.99834681 15:0.99748504 #
-0.0010000000000000000208166817117217 1:19.763292 2:18.501678 3:11.020561 4:25 5:25 6:25 7:24 8:21 9:14 10:5.8138189 11:6.0079751 12:2.2658887 13:0.9999758 14:0.99997735 15:0.99997813 #
-0.0010000000000000000208166817117217 1:17.989868 2:18.543819 3:2.9363577 4:392 5:392 6:392 7:14 8:1 9:7 10:45.612133 11:46.086937 12:21.71207 13:0.99894691 14:0.99914992 15:0.99924201 #
0.0010000000000000000208166817117217 1:79.029869 2:61.113819 3:31.336357 4:0 5:0 6:0 7:88 8:51 9:26 10:26.441109 11:39.362759 12:22.5133 13:0.9994486 14:0.99954343 15:0.99959087 #
0.0010000000000000000208166817117217 1:25.501013 2:10.755869 3:3.3465235 4:225 5:225 6:225 7:25 8:13 9:5 10:13.456978 11:16.046299 12:28.37204 13:0.99782526 14:0.99863577 15:0.99915177 #
0.0010000000000000000208166817117217 1:26.609474 2:16.658714 3:14.182596 4:68 5:68 6:68 7:31 8:20 9:22 10:17.865496 11:22.767107 12:22.229944 13:0.99822277 14:0.99829561 15:0.99857152 #
-0.0010000000000000000208166817117217 1:27.288969 2:30.007866 3:31.874094 4:0 5:0 6:0 7:17 8:18 9:18 10:30.558105 11:35.073917 12:40.083302 13:0.99741387 14:0.99735403 15:0.99653023 #
-0.0010000000000000000208166817117217 1:102.14103 2:112.72214 3:121.4559 4:299 5:299 6:299 7:127 8:144 9:159 10:25.009447 11:22.532307 12:20.255424 13:0.99753797 14:0.99792886 15:0.9974336 #
0.0010000000000000000208166817117217 1:2.1767085 2:1.7083211 3:2.1005609 4:1 5:1 6:1 7:5 8:5 9:0 10:13.99285 11:12.412714 12:9.9503479 13:0.99997759 14:0.99997967 15:0.99998331 #
-0.0010000000000000000208166817117217 1:29.458969 2:32.027866 3:33.034096 4:0 5:0 6:0 7:19 8:20 9:20 10:27.741682 11:32.980072 12:37.819702 13:0.99698895 14:0.9969672 15:0.99614775 #
-0.0010000000000000000208166817117217 1:61.259693 2:121.00074 3:10.425969 4:18 5:18 6:18 7:40 8:120 9:15 10:59.038887 11:61.433159 12:1.8668281 13:0.99958265 14:0.9995383 15:0.99996918 #
0.0010000000000000000208166817117217 1:31.713291 2:29.781679 3:26.670561 4:281 5:281 6:281 7:36 8:36 9:33 10:6.179554 11:4.3974876 12:2.0597274 13:0.99998468 14:0.99998575 15:0.99998736 #
-0.0010000000000000000208166817117217 1:9.2697144 2:12.174536 3:15.578755 4:24 5:24 6:24 7:8 8:3 9:11 10:11.521348 11:7.0697608 12:10.773584 13:0.99978352 14:0.9998666 15:0.99994105 #
-0.0010000000000000000208166817117217 1:5.9467082 2:7.268321 3:5.299439 4:459 5:459 6:459 7:1 8:3 9:0 10:10.452899 11:8.4748001 12:5.0523586 13:0.99996924 14:0.99997073 15:0.99997419 #
0.0010000000000000000208166817117217 1:43.791012 2:23.29587 3:9.2334766 4:15 5:15 6:15 7:42 8:24 9:15 10:2.98808 11:7.3550758 12:22.546858 13:0.99711233 14:0.9980635 15:0.99868244 #
0.0010000000000000000208166817117217 1:7.5967083 2:3.6683211 3:0.32056099 4:261 5:261 6:261 7:8 8:6 9:5 10:1.3982488 11:3.2570677 12:6.8758168 13:0.99996918 14:0.99997222 15:0.99997586 #
-0.0010000000000000000208166817117217 1:16.286709 2:16.748322 3:16.499439 4:192 5:192 6:192 7:17 8:17 9:21 10:11.772322 11:11.260877 12:6.1975079 13:0.99997133 14:0.99997288 15:0.99997538 #
0.0010000000000000000208166817117217 1:1.4497142 2:3.6045361 3:14.608755 4:3 5:3 6:3 7:1 8:3 9:8 10:12.302676 11:11.700331 12:13.018079 13:0.99979711 14:0.99988091 15:0.99995625 #
-0.0010000000000000000208166817117217 1:17.503292 2:11.831679 3:12.920561 4:510 5:510 6:510 7:18 8:13 9:14 10:1.6456238 11:0.36655983 12:1.0305141 13:0.99997663 14:0.99997681 15:0.99998003 #
0.0010000000000000000208166817117217 1:11.979714 2:18.734535 3:10.158755 4:1 5:1 6:1 7:17 8:17 9:5 10:26.091032 11:19.608089 12:13.385573 13:0.99979049 14:0.99987686 15:0.9999283 #
0.0010000000000000000208166817117217 1:2.7732916 2:2.1683211 3:0.870561 4:250 5:250 6:250 7:2 8:5 9:4 10:1.2973461 11:1.2479353 12:2.2382274 13:0.99997866 14:0.99997902 15:0.99998254 #
-0.0010000000000000000208166817117217 1:51.487724 2:46.098801 3:26.869987 4:189 5:189 6:189 7:51 8:45 9:22 10:34.517242 11:34.951012 12:29.947598 13:0.99955446 14:0.99954039 15:0.99951553 #
0.0010000000000000000208166817117217 1:13.519714 2:10.144536 3:0.088755526 4:8 5:8 6:8 7:33 8:20 9:0 10:10.363549 11:0.42696303 12:0.35483798 13:0.99975348 14:0.99982679 15:0.9998824 #
-0.0010000000000000000208166817117217 1:0.50645834 2:9.2153902 3:11.315144 4:2 5:2 6:2 7:3 8:0 9:1 10:15.174546 11:20.189064 12:23.803558 13:0.99813551 14:0.99893105 15:0.99923688 #
-0.0010000000000000000208166817117217 1:22.630285 2:10.845464 3:8.3687553 4:0 5:0 6:0 7:17 8:14 9:5 10:24.455725 11:15.685904 12:9.656126 13:0.99973774 14:0.99983102 15:0.99991578 #
0.0010000000000000000208166817117217 1:69.649872 2:51.643822 3:21.056358 4:35 5:35 6:35 7:68 8:39 9:16 10:39.563042 11:42.781406 12:19.382948 13:0.99923611 14:0.99931282 15:0.99928141 #
0.0010000000000000000208166817117217 1:0.48971421 2:0.70453602 3:8.4487553 4:24 5:24 6:24 7:10 8:3 9:3 10:9.5013952 11:6.2268648 12:5.7153559 13:0.99975258 14:0.99983311 15:0.99990678 #
0.0010000000000000000208166817117217 1:20.306709 2:19.268322 3:10.889439 4:16 5:16 6:16 7:24 8:22 9:13 10:13.841959 11:12.399487 12:10.500755 13:0.99997002 14:0.99997181 15:0.99997687 #
-0.0010000000000000000208166817117217 1:39.109715 2:21.795464 3:66.011246 4:168 5:168 6:168 7:49 8:21 9:71 10:36.097408 11:27.252848 12:17.235046 13:0.99987823 14:0.99987686 15:0.99988031 #
-0.0010000000000000000208166817117217 1:24.993292 2:27.06168 3:21.030561 4:507 5:507 6:507 7:40 8:39 9:25 10:2.8283503 11:3.4969742 12:4.0430174 13:0.99997747 14:0.99997944 15:0.99998057 #
-0.0010000000000000000208166817117217 1:12.063292 2:14.601679 3:20.540562 4:19 5:19 6:19 7:9 8:11 9:19 10:14.625382 11:12.301336 12:10.135939 13:0.99998242 14:0.99998474 15:0.99998879 #
-0.0010000000000000000208166817117217 1:49.503292 2:41.88168 3:27.73056 4:508 5:508 6:508 7:53 8:45 9:28 10:16.459873 11:12.499579 12:9.5684528 13:0.99999189 14:0.99999171 15:0.99999094 #
-0.0010000000000000000208166817117217 1:41.400524 2:52.281288 3:44.497402 4:0 5:0 6:0 7:38 8:49 9:40 10:27.149281 11:31.907215 12:31.833843 13:0.99954629 14:0.99968928 15:0.99988735 #
0.0010000000000000000208166817117217 1:17.440287 2:2.3954639 3:13.148755 4:5 5:5 6:5 7:13 8:7 9:6 10:23.661453 11:16.494249 12:13.212387 13:0.99976391 14:0.99986148 15:0.99994814 #
-0.0010000000000000000208166817117217 1:12.097725 2:17.848801 3:12.899986 4:93 5:93 6:93 7:12 8:17 9:8 10:33.441032 11:33.922806 12:29.553129 13:0.99886 14:0.99901938 15:0.99923158 #
-0.0010000000000000000208166817117217 1:58.280525 2:67.761284 3:43.697403 4:0 5:0 6:0 7:56 8:66 9:40 10:22.387863 11:27.935844 12:29.20619 13:0.99948627 14:0.99961358 15:0.9996841 #
0.0010000000000000000208166817117217 1:10.613292 2:8.1316786 3:0.61056101 4:1 5:1 6:1 7:15 8:12 9:0 10:13.195824 11:13.204556 12:13.19848 13:0.99997574 14:0.99997652 15:0.99997789 #
0.0010000000000000000208166817117217 1:19.560308 2:104.64926 3:0.68596923 4:0 5:0 6:0 7:39 8:106 9:0 10:59.719486 11:63.739983 12:8.6426191 13:0.99974787 14:0.99996746 15:0.99996567 #
