SVM-light Version V6.02
0 # kernel type
3 # kernel parameter -d 
1 # kernel parameter -g 
1 # kernel parameter -s 
1 # kernel parameter -r 
empty# kernel parameter -u 
15 # highest feature index 
8748 # number of training documents 
6752 # number of support vectors plus 1 
-3.3654878 # threshold b, each following line is a SV (starting with alpha*y)
-0.00010000000000000000479217360238593 1:0.45512706 2:0.44118059 3:0.54351717 4:197 5:197 6:197 7:27 8:29 9:42 10:8.0289288 11:10.676098 12:13.768599 13:7067 14:5954 15:5995 #
0.00010000000000000000479217360238593 1:0.27589446 2:0.22276093 3:0.22038157 4:246 5:246 6:246 7:16 8:16 9:18 10:13.1103 11:14.499577 12:15.313523 13:5663 14:4513 15:3969 #
0.00010000000000000000479217360238593 1:0.15478006 2:0.13760976 3:0.010603845 4:321 5:321 6:321 7:12 8:23 9:7 10:23.025108 11:14.824924 12:6.3820982 13:9526 14:6084 15:3384 #
0.00010000000000000000479217360238593 1:0.27337134 2:0.33893025 3:0.375503 4:4 5:4 6:4 7:16 8:27 9:47 10:36.064552 11:38.343761 12:41.600449 13:11519 14:11118 15:10800 #
-0.00010000000000000000479217360238593 1:0.41469473 2:0.10744666 3:0.062824205 4:500 5:500 6:500 7:31 8:12 9:6 10:16.804514 11:18.372885 12:30.935852 13:903 14:636 15:529 #
-0.00010000000000000000479217360238593 1:0.10443008 2:0.039415963 3:0.091993444 4:482 5:482 6:482 7:12 8:4 9:6 10:18.464087 11:16.859932 12:13.179976 13:6077 14:5556 15:4788 #
-0.00010000000000000000479217360238593 1:0.47538713 2:0.12070077 3:0.06557633 4:253 5:253 6:253 7:35 8:14 9:6 10:16.543804 11:18.614054 12:31.021729 13:821 14:640 15:485 #
0.00010000000000000000479217360238593 1:0.23344144 2:0.28733203 3:0.16118017 4:289 5:289 6:289 7:29 8:43 9:32 10:16.695452 11:2.4148746 12:9.4951906 13:10239 14:7269 15:4730 #
-0.00010000000000000000479217360238593 1:0.18897672 2:0.20572659 3:0.14572738 4:133 5:133 6:133 7:19 8:22 9:20 10:32.204697 11:33.155861 12:27.439932 13:5725 14:5521 15:5286 #
-0.00010000000000000000479217360238593 1:0.14730804 2:0.15375629 3:0.095470667 4:444 5:444 6:444 7:14 8:14 9:7 10:17.365988 11:14.976838 12:9.4745026 13:7286 14:6497 15:5216 #
0.00010000000000000000479217360238593 1:0.18390852 2:0.13624755 3:0.076362185 4:221 5:221 6:221 7:2 8:0 9:6 10:0.97928661 11:1.7067839 12:0.0098012164 13:6493 14:5959 15:5062 #
-0.00010000000000000000479217360238593 1:0.0019041746 2:0.042778239 3:0.082410149 4:1 5:1 6:1 7:1 8:3 9:10 10:15.318648 11:17.307785 12:29.95698 13:2087 14:1047 15:426 #
-0.00010000000000000000479217360238593 1:0.29221389 2:0.044161908 3:0.060058106 4:492 5:492 6:492 7:22 8:3 9:21 10:15.072095 11:15.679232 12:24.907349 13:1361 14:1068 15:1609 #
-0.00010000000000000000479217360238593 1:0.095779084 2:0.014595042 3:0.042687837 4:3 5:3 6:3 7:6 8:1 9:1 10:16.022869 11:17.873369 12:30.286736 13:2359 14:1215 15:750 #
-0.00010000000000000000479217360238593 1:0.011933145 2:0.027994804 3:0.057595171 4:241 5:241 6:241 7:0 8:1 9:5 10:16.698576 11:18.48933 12:30.266642 13:2021 14:1043 15:579 #
-0.00010000000000000000479217360238593 1:0.043690141 2:0.0076038614 3:0.00080969051 4:236 5:236 6:236 7:3 8:2 9:8 10:15.146797 11:17.744791 12:29.82308 13:1950 14:1193 15:974 #
0.00010000000000000000479217360238593 1:0.025289835 2:0.057456829 3:0.14213969 4:484 5:484 6:484 7:11 8:11 9:15 10:8.3611965 11:5.7799659 12:1.8372182 13:8669 14:7798 15:6499 #
-0.00010000000000000000479217360238593 1:0.075748883 2:0.013138546 3:0.0053825872 4:476 5:476 6:476 7:6 8:1 9:9 10:16.034628 11:17.597122 12:30.067274 13:1815 14:1141 15:1088 #
-0.00010000000000000000479217360238593 1:0.015906237 2:0.029742599 3:0.045577563 4:470 5:470 6:470 7:1 8:2 9:2 10:16.225689 11:18.119642 12:30.023039 13:2036 14:1021 15:628 #
-0.00010000000000000000479217360238593 1:0.49169052 2:0.12361376 3:0.045439959 4:253 5:253 6:253 7:36 8:14 9:2 10:16.354559 11:18.581186 12:30.461639 13:723 14:560 15:672 #
-0.00010000000000000000479217360238593 1:0.30611578 2:0.34936425 3:0.40512881 4:275 5:275 6:275 7:33 8:55 9:30 10:41.880898 11:40.94421 12:7.2385802 13:10989 14:8851 15:4374 #
-0.00010000000000000000479217360238593 1:0.053417366 2:0.034549035 3:0.041908067 4:4 5:4 6:4 7:5 8:2 9:1 10:15.503185 11:17.667936 12:30.626614 13:1986 14:1099 15:722 #
-0.00010000000000000000479217360238593 1:0.020290339 2:0.023261193 3:0.070346676 4:468 5:468 6:468 7:1 8:0 9:7 10:15.205451 11:17.108919 12:30.075666 13:2154 14:1148 15:539 #
-0.00010000000000000000479217360238593 1:0.19042054 2:0.076933064 3:0.015350076 4:11 5:11 6:11 7:14 8:8 9:5 10:15.979857 11:17.93943 12:30.994673 13:1540 14:828 15:889 #
-0.00010000000000000000479217360238593 1:0.08019197 2:0.11489306 3:0.23790826 4:236 5:236 6:236 7:12 8:14 9:22 10:10.546358 11:8.6360979 12:2.4058843 13:7190 14:6351 15:5006 #
-0.00010000000000000000479217360238593 1:0.46744093 2:0.12922128 3:0.058833625 4:2 5:2 6:2 7:35 8:15 9:5 10:16.459381 11:18.449762 12:30.736473 13:764 14:560 15:520 #
-0.00010000000000000000479217360238593 1:0.037799004 2:0.043724962 3:0.022322122 4:10 5:10 6:10 7:3 8:3 9:3 10:15.942284 11:18.117792 12:30.709335 13:1969 14:1022 15:887 #
0.00010000000000000000479217360238593 1:0.30246297 2:0.33542162 3:0.12000366 4:281 5:281 6:281 7:41 8:67 9:35 10:12.79078 11:0.46040684 12:3.9486806 13:12089 14:9256 15:6049 #
-0.00010000000000000000479217360238593 1:0.048074242 2:0.053192183 3:0.058558416 4:1 5:1 6:1 7:4 8:5 9:5 10:16.062763 11:17.697899 12:30.602966 13:1826 14:874 15:506 #
-0.00010000000000000000479217360238593 1:0.018509297 2:0.026028534 3:0.060072083 4:1 5:1 6:1 7:1 8:1 9:5 10:15.40138 11:17.187424 12:30.834761 13:2114 14:1091 15:547 #
0.00010000000000000000479217360238593 1:0.30716723 2:0.36027202 3:0.14615418 4:281 5:281 6:281 7:44 8:64 9:40 10:16.145147 11:7.037725 12:10.643853 13:10609 14:8263 15:5066 #
0.00010000000000000000479217360238593 1:0.10679752 2:0.19577013 3:0.23196799 4:473 5:473 6:473 7:9 8:17 9:17 10:19.528208 11:15.968959 12:13.20569 13:5931 14:4992 15:3920 #
-0.00010000000000000000479217360238593 1:0.072351545 2:0.0073125623 3:0.051815711 4:464 5:464 6:464 7:5 8:2 9:4 10:15.102554 11:16.920431 12:28.68121 13:2311 14:1239 15:719 #
0.00010000000000000000479217360238593 1:0.12201679 2:0.12765665 3:0.15604858 4:234 5:234 6:234 7:14 8:12 9:10 10:9.851655 11:8.8311787 12:5.5762801 13:6643 14:5901 15:4724 #
-0.00010000000000000000479217360238593 1:0.053135477 2:0.10028855 3:0.22964984 4:242 5:242 6:242 7:6 8:10 9:17 10:8.478651 11:6.4859643 12:2.6699173 13:7307 14:6448 15:5033 #
-0.00010000000000000000479217360238593 1:0.26658207 2:0.25647879 3:0.28483453 4:426 5:426 6:426 7:30 8:27 9:25 10:6.4792299 11:6.0142436 12:7.4628353 13:7468 14:6620 15:5455 #
0.00010000000000000000479217360238593 1:0.36823088 2:0.3467243 3:0.44741103 4:500 5:500 6:500 7:36 8:30 9:32 10:18.021706 11:17.601068 12:15.411785 13:5973 14:5387 15:4153 #
-0.00010000000000000000479217360238593 1:0.12163515 2:0.10799374 3:0.08785966 4:0 5:0 6:0 7:8 8:6 9:1 10:15.115314 11:22.443304 12:25.458841 13:2580 14:494 15:362 #
0.00010000000000000000479217360238593 1:0.65097171 2:0.33283246 3:0.15370731 4:0 5:0 6:0 7:70 8:39 9:13 10:34.431477 11:36.717537 12:12.830168 13:6040 14:4267 15:3995 #
0.00010000000000000000479217360238593 1:0.0058251321 2:0.046288677 3:0.061873753 4:237 5:237 6:237 7:0 8:3 9:4 10:21.56813 11:19.299442 12:17.942446 13:6819 14:5913 15:4784 #
-0.00010000000000000000479217360238593 1:0.22821353 2:0.215161 3:0.088677362 4:496 5:496 6:496 7:28 8:23 9:10 10:9.9080477 11:10.794267 12:11.064241 13:6258 14:5587 15:4904 #
0.00010000000000000000479217360238593 1:0.3832247 2:0.35568339 3:0.32614282 4:265 5:265 6:265 7:37 8:32 9:27 10:8.1121702 11:9.0911398 12:5.3482947 13:6356 14:5751 15:4901 #
0.00010000000000000000479217360238593 1:0.072976902 2:0.094765827 3:0.16285816 4:7 5:7 6:7 7:8 8:8 9:11 10:17.144268 11:14.797557 12:13.321589 13:6552 14:5759 15:4465 #
0.00010000000000000000479217360238593 1:0.15978315 2:0.19638376 3:0.26239371 4:248 5:248 6:248 7:15 8:16 9:18 10:14.396227 11:10.780416 12:6.9252033 13:6215 14:5414 15:4223 #
-0.00010000000000000000479217360238593 1:0.23137012 2:0.19822466 3:0.11461166 4:488 5:488 6:488 7:25 8:20 9:10 10:11.411816 11:9.6049919 12:7.5721955 13:6496 14:5888 15:5058 #
-0.00010000000000000000479217360238593 1:0.17080614 2:0.19803365 3:0.16509101 4:119 5:119 6:119 7:18 8:23 9:23 10:33.867428 11:34.14682 12:30.225954 13:5299 14:5239 15:5007 #
0.00010000000000000000479217360238593 1:0.39387181 2:0.42329085 3:0.31936347 4:69 5:69 6:69 7:38 8:42 9:29 10:32.340271 11:32.920353 12:27.029339 13:3159 14:2742 15:3042 #
-0.00010000000000000000479217360238593 1:0.38496503 2:0.14021781 3:0.075942658 4:498 5:498 6:498 7:29 8:17 9:9 10:17.152769 11:18.987421 12:31.684881 13:922 14:418 15:310 #
0.00010000000000000000479217360238593 1:0.15601397 2:0.21587931 3:0.085892007 4:155 5:155 6:155 7:15 8:37 9:20 10:17.863361 11:10.669862 12:7.3353233 13:9621 14:6667 15:4057 #
0.00010000000000000000479217360238593 1:1 2:0.47833934 3:0.32420549 4:0 5:0 6:0 7:102 8:56 9:29 10:48.531097 11:53.109749 12:29.626837 13:2762 14:1522 15:1171 #
-0.00010000000000000000479217360238593 1:0.052346326 2:0.064452268 3:0.039126907 4:471 5:471 6:471 7:3 8:2 9:1 10:12.006757 11:10.22861 12:8.5912771 13:7187 14:6389 15:5346 #
0.00010000000000000000479217360238593 1:0.27188066 2:0.2638424 3:0.2294887 4:428 5:428 6:428 7:28 8:26 9:20 10:17.559397 11:15.53114 12:13.533394 13:7969 14:7142 15:5748 #
-0.00010000000000000000479217360238593 1:0.032617636 2:0.078197688 3:0.14793506 4:7 5:7 6:7 7:3 8:7 9:9 10:23.109171 11:21.948187 12:17.224174 13:6337 14:5458 15:4213 #
-0.00010000000000000000479217360238593 1:0.0037957125 2:0.037218686 3:0.08172714 4:138 5:138 6:138 7:1 8:3 9:4 10:33.127689 11:32.869926 12:28.208269 13:4676 14:4330 15:4100 #
0.00010000000000000000479217360238593 1:0.20938031 2:0.015526643 3:0.11851431 4:318 5:318 6:318 7:19 8:3 9:17 10:34.499874 11:25.92614 12:17.592485 13:8740 14:4375 15:1468 #
-0.00010000000000000000479217360238593 1:0.1714644 2:0.12941778 3:0.093220532 4:0 5:0 6:0 7:13 8:8 9:2 10:16.506279 11:23.512362 12:26.238945 13:2207 14:330 15:277 #
-0.00010000000000000000479217360238593 1:0.34783718 2:0.12776478 3:0.077181116 4:495 5:495 6:495 7:26 8:15 9:9 10:17.163483 11:18.998135 12:31.698759 13:1018 14:478 15:300 #
-0.00010000000000000000479217360238593 1:0.061340339 2:0.036933765 3:0.01872715 4:142 5:142 6:142 7:5 8:2 9:3 10:34.385689 11:34.883034 12:30.748537 13:4266 14:4122 15:4086 #
0.00010000000000000000479217360238593 1:0.057370327 2:0.6178031 3:0.032411017 4:1 5:1 6:1 7:27 8:84 9:1 10:55.192375 11:57.171692 12:6.6276894 13:6891 14:1885 15:1168 #
0.00010000000000000000479217360238593 1:0.39742935 2:0.43275592 3:0.4246642 4:265 5:265 6:265 7:39 8:40 9:31 10:19.20722 11:17.581781 12:15.715449 13:5461 14:4629 15:3734 #
-0.00010000000000000000479217360238593 1:0.38993141 2:0.49510485 3:0.20953172 4:275 5:275 6:275 7:43 8:71 9:10 10:49.422829 11:49.249622 12:3.0551608 13:10272 14:8274 15:2798 #
0.00010000000000000000479217360238593 1:0.33271924 2:0.324388 3:0.3135379 4:28 5:28 6:28 7:27 8:25 9:23 10:17.321381 11:15.058123 12:14.552225 13:5490 14:4846 15:3920 #
-0.00010000000000000000479217360238593 1:0.10217537 2:0.090224929 3:0.027246388 4:10 5:10 6:10 7:2 8:0 9:8 10:3.4219499 11:6.5726867 12:7.1643066 13:6815 14:6075 15:5217 #
-0.00010000000000000000479217360238593 1:0.20691474 2:0.30501422 3:0.30321959 4:122 5:122 6:122 7:19 8:28 9:35 10:23.030949 11:28.509167 12:25.351635 13:7838 14:6193 15:4365 #
-0.00010000000000000000479217360238593 1:0.16233489 2:0.078462385 3:0.030807836 4:481 5:481 6:481 7:12 8:8 9:1 10:16.364574 11:18.063524 12:30.277334 13:1611 14:780 15:782 #
-0.00010000000000000000479217360238593 1:0.070947669 2:0.065311357 3:0.1373585 4:230 5:230 6:230 7:10 8:8 9:12 10:20.22716 11:18.036037 12:14.469588 13:6568 14:5773 15:4610 #
-0.00010000000000000000479217360238593 1:0.012325265 2:0.012170576 3:0.023044741 4:230 5:230 6:230 7:1 8:1 9:1 10:14.606183 11:13.175272 12:8.6582451 13:7284 14:6477 15:5387 #
-0.00010000000000000000479217360238593 1:0.11833505 2:0.12749273 3:0.1386462 4:3 5:3 6:3 7:19 8:20 9:17 10:5.8355064 11:7.0006514 12:7.9940009 13:7783 14:7028 15:5907 #
-0.00010000000000000000479217360238593 1:0.035524223 2:0.031235281 3:0.004181697 4:141 5:141 6:141 7:3 8:2 9:4 10:33.66589 11:34.163235 12:30.02874 13:4345 14:4129 15:4129 #
-0.00010000000000000000479217360238593 1:0.14068839 2:0.1090488 3:0.086033776 4:4 5:4 6:4 7:11 8:13 9:10 10:15.903791 11:17.975468 12:30.870922 13:1637 14:681 15:337 #
0.00010000000000000000479217360238593 1:0.0093199294 2:0.0055021085 3:0.063177712 4:229 5:229 6:229 7:2 8:3 9:7 10:22.234009 11:19.841072 12:15.195187 13:7154 14:6371 15:5079 #
-0.00010000000000000000479217360238593 1:0.060501795 2:0.046615645 3:0.075041972 4:1 5:1 6:1 7:7 8:5 9:8 10:12.837812 11:10.543721 12:11.127804 13:7272 14:6509 15:5464 #
-0.00010000000000000000479217360238593 1:0.26193619 2:0.10191197 3:0.065209381 4:489 5:489 6:489 7:20 8:11 9:6 10:16.661482 11:18.461451 12:30.722816 13:1370 14:732 15:539 #
-0.00010000000000000000479217360238593 1:0.68456542 2:0.69961256 3:0.7451449 4:186 5:186 6:186 7:39 8:46 9:57 10:13.811065 11:14.592764 12:17.587711 13:7691 14:6730 15:6571 #
-0.00010000000000000000479217360238593 1:0.18898809 2:0.13380857 3:0.094080918 4:1 5:1 6:1 7:14 8:9 9:2 10:13.748325 11:23.255354 12:25.837065 13:2253 14:251 15:256 #
0.00010000000000000000479217360238593 1:0.30104059 2:0.29554716 3:0.29687619 4:483 5:483 6:483 7:25 8:23 9:18 10:18.502428 11:16.000671 12:11.854837 13:6075 14:5407 15:4434 #
0.00010000000000000000479217360238593 1:0.77430397 2:0.42150071 3:0.27586976 4:0 5:0 6:0 7:83 8:52 9:26 10:36.563488 11:43.464378 12:22.284382 13:4364 14:2538 15:1948 #
-0.00010000000000000000479217360238593 1:0.26632029 2:0.10948575 3:0.072915323 4:252 5:252 6:252 7:20 8:13 9:8 10:15.393608 11:18.122124 12:30.833424 13:1304 14:610 15:370 #
-0.00010000000000000000479217360238593 1:0.15656331 2:0.12593542 3:0.091235027 4:0 5:0 6:0 7:12 8:8 9:2 10:14.314692 11:23.006052 12:25.447924 13:2281 14:316 15:263 #
-0.00010000000000000000479217360238593 1:0.10995269 2:0.11071905 3:0.08977899 4:254 5:254 6:254 7:7 8:6 9:2 10:13.785928 11:21.771362 12:25.04545 13:2528 14:456 15:379 #
-0.00010000000000000000479217360238593 1:0.04451216 2:0.055741049 3:0.060622506 4:474 5:474 6:474 7:4 8:5 9:5 10:15.225066 11:17.282707 12:29.954346 13:2033 14:1036 15:638 #
0.00010000000000000000479217360238593 1:0.41914403 2:0.39962369 3:0.10202519 4:281 5:281 6:281 7:50 8:65 9:25 10:30.311668 11:15.513438 12:6.8230286 13:10931 14:8099 15:4397 #
-0.00010000000000000000479217360238593 1:0.072638698 2:0.10630216 3:0.091719933 4:235 5:235 6:235 7:3 8:8 9:5 10:17.89735 11:17.298611 12:14.444861 13:6406 14:5585 15:4564 #
-0.00010000000000000000479217360238593 1:0.099244252 2:0.098079458 3:0.14503737 4:238 5:238 6:238 7:10 8:11 9:12 10:1.6536108 11:2.514662 12:4.07762 13:6926 14:6197 15:5037 #
-0.00010000000000000000479217360238593 1:0.17713122 2:0.11829755 3:0.079933241 4:252 5:252 6:252 7:14 8:13 9:9 10:15.973295 11:18.51053 12:30.99168 13:1558 14:547 15:376 #
0.00010000000000000000479217360238593 1:0.070271254 2:0.12090667 3:0.13953178 4:13 5:13 6:13 7:7 8:11 9:11 10:23.58341 11:22.845526 12:19.054043 13:6294 14:5353 15:4247 #
0.00010000000000000000479217360238593 1:0.046654798 2:0.12515357 3:0.20673268 4:358 5:358 6:358 7:21 8:19 9:41 10:9.0078783 11:1.2458624 12:12.08202 13:10449 14:7840 15:6554 #
-0.00010000000000000000479217360238593 1:0.024360806 2:0.10034771 3:0.087793477 4:2 5:2 6:2 7:2 8:3 9:1 10:13.329866 11:21.218565 12:25.064381 13:2780 14:615 15:472 #
-0.00010000000000000000479217360238593 1:0.10479356 2:0.095721863 3:0.070163198 4:478 5:478 6:478 7:8 8:11 9:7 10:15.863246 11:17.669975 12:30.67716 13:1704 14:690 15:397 #
-0.00010000000000000000479217360238593 1:0.14640616 2:0.12970181 3:0.15617721 4:435 5:435 6:435 7:25 8:22 9:20 10:7.8569174 11:9.1232605 12:7.8853354 13:8350 14:7578 15:6464 #
0.00010000000000000000479217360238593 1:0.34151259 2:0.34500614 3:0.29571712 4:249 5:249 6:249 7:31 8:29 9:20 10:15.546689 11:14.631958 12:11.980461 13:5567 14:4893 15:4091 #
-0.00010000000000000000479217360238593 1:0.26669481 2:0.30839229 3:0.42377862 4:435 5:435 6:435 7:24 8:24 9:28 10:15.259355 11:14.053596 12:11.641653 13:7950 14:7241 15:6270 #
-0.00010000000000000000479217360238593 1:0.06862472 2:0.075476572 3:0.076447219 4:474 5:474 6:474 7:5 8:8 9:9 10:15.172729 11:17.179113 12:30.305422 13:1943 14:926 15:497 #
0.00010000000000000000479217360238593 1:0.25752473 2:0.24252911 3:0.23660429 4:478 5:478 6:478 7:24 8:20 9:16 10:24.873457 11:22.776215 12:20.697489 13:5344 14:4686 15:3671 #
-0.00010000000000000000479217360238593 1:0.074255511 2:0.033606585 3:0.017522881 4:207 5:207 6:207 7:6 8:3 9:3 10:18.848015 11:15.963759 12:12.459685 13:7230 14:6326 15:5211 #
-0.00010000000000000000479217360238593 1:0.14546576 2:0.16692929 3:0.12591264 4:4 5:4 6:4 7:6 8:9 9:3 10:4.9098754 11:4.7045965 12:2.4410405 13:7657 14:6909 15:6014 #
0.00010000000000000000479217360238593 1:0.41351879 2:0.45002154 3:0.44926718 4:479 5:479 6:479 7:54 8:63 9:73 10:17.612715 11:17.041096 12:18.050558 13:9162 14:8944 15:8667 #
-0.00010000000000000000479217360238593 1:0.1135895 2:0.01881888 3:0.056631926 4:1 5:1 6:1 7:8 8:0 9:5 10:15.895571 11:17.268301 12:30.379705 13:2381 14:1145 15:611 #
-0.00010000000000000000479217360238593 1:0.010800323 2:0.0042852559 3:0.051363751 4:114 5:114 6:114 7:0 8:2 9:10 10:34.558819 11:35.084122 12:30.607164 13:4571 14:4381 15:4475 #
0.00010000000000000000479217360238593 1:0.023862794 2:0.074147701 3:0.23761848 4:453 5:453 6:453 7:4 8:5 9:16 10:15.059253 11:12.881283 12:10.392878 13:7152 14:6064 15:4551 #
0.00010000000000000000479217360238593 1:0.24442752 2:0.067260027 3:0.028697874 4:5 5:5 6:5 7:16 8:11 9:2 10:9.9273939 11:13.081282 12:27.815397 13:2736 14:1627 15:915 #
0.00010000000000000000479217360238593 1:0.039043553 2:0.079179503 3:0.21762444 4:467 5:467 6:467 7:5 8:9 9:17 10:25.593267 11:24.07044 12:20.641569 13:6427 14:5575 15:4141 #
-0.00010000000000000000479217360238593 1:0.34907019 2:0.15318063 3:0.089611538 4:496 5:496 6:496 7:26 8:18 9:12 10:16.383224 11:18.457357 12:31.041142 13:1112 14:444 15:300 #
-0.00010000000000000000479217360238593 1:0.17210983 2:0.16357446 3:0.069971018 4:209 5:209 6:209 7:18 8:16 9:6 10:14.265838 11:11.88172 12:9.2705336 13:7053 14:6225 15:4854 #
-0.00010000000000000000479217360238593 1:0.048874628 2:0.079885118 3:0.0258183 4:132 5:132 6:132 7:6 8:10 9:7 10:33.834824 11:34.271065 12:30.235359 13:4932 14:4835 15:4544 #
0.00010000000000000000479217360238593 1:0.90957791 2:0.3236033 3:0.10037672 4:189 5:189 6:189 7:71 8:50 9:31 10:3.9110029 11:8.7313986 12:24.554747 13:4820 14:3184 15:2177 #
-0.00010000000000000000479217360238593 1:0.38315511 2:0.47887823 3:0.32280424 4:280 5:280 6:280 7:40 8:63 9:22 10:53.417511 11:53.239429 12:1.1336057 13:10097 14:8119 15:2914 #
0.00010000000000000000479217360238593 1:0.46307886 2:0.45415762 3:0.31727257 4:66 5:66 6:66 7:45 8:46 9:29 10:32.613216 11:33.359093 12:27.412991 13:3037 14:2775 15:3137 #
-0.00010000000000000000479217360238593 1:0.40447083 2:0.4393959 3:0.056193668 4:18 5:18 6:18 7:43 8:57 9:8 10:54.777981 11:58.355625 12:3.1927593 13:10058 14:7576 15:1711 #
0.00010000000000000000479217360238593 1:0.35465115 2:0.38530096 3:0.31090894 4:72 5:72 6:72 7:35 8:39 9:29 10:33.721066 11:34.088917 12:29.347157 13:3482 14:3109 15:3282 #
-0.00010000000000000000479217360238593 1:0.14618069 2:0.19081984 3:0.14096436 4:220 5:220 6:220 7:8 8:10 9:6 10:6.7969203 11:4.3131671 12:2.8770273 13:8088 14:7392 15:6032 #
0.00010000000000000000479217360238593 1:0.019765802 2:0.14667934 3:0.1772017 4:460 5:460 6:460 7:2 8:13 9:13 10:26.490883 11:24.625582 12:20.509188 13:6077 14:4954 15:3839 #
0.00010000000000000000479217360238593 1:0.29675615 2:0.38884073 3:0.17994949 4:281 5:281 6:281 7:47 8:70 9:37 10:8.7504673 11:6.1985688 12:12.874938 13:11886 14:9488 15:6412 #
-0.00010000000000000000479217360238593 1:0.021767702 2:0.032017868 3:0.023727391 4:135 5:135 6:135 7:3 8:5 9:7 10:32.212982 11:32.598953 12:28.87669 13:5020 14:4837 15:4707 #
0.00010000000000000000479217360238593 1:0.21709222 2:0.27450401 3:0.29578149 4:281 5:281 6:281 7:16 8:48 9:66 10:8.8765163 11:27.210142 12:25.460869 13:12598 14:9995 15:8105 #
-0.00010000000000000000479217360238593 1:0.45798773 2:0.17145965 3:0.088281348 4:260 5:260 6:260 7:34 8:21 9:11 10:15.871952 11:18.71454 12:31.165979 13:837 14:316 15:273 #
-0.00010000000000000000479217360238593 1:0.86553192 2:0.91984349 3:0.91430229 4:109 5:109 6:109 7:115 8:129 9:142 10:3.2912629 11:0.50480479 12:4.0839319 13:5424 14:5067 15:4680 #
0.00010000000000000000479217360238593 1:0.095455363 2:0.090853713 3:0.09892974 4:240 5:240 6:240 7:1 8:1 9:1 10:28.829584 11:33.70525 12:38.096203 13:7412 14:7339 15:7396 #
-0.00010000000000000000479217360238593 1:0.43489602 2:0.45259649 3:0.43406543 4:40 5:40 6:40 7:46 8:45 9:37 10:3.1749508 11:0.10061076 12:0.34510162 13:9120 14:8288 15:6946 #
-0.00010000000000000000479217360238593 1:0.48968542 2:0.48340094 3:0.52968907 4:43 5:43 6:43 7:49 8:46 9:44 10:1.8454642 11:1.5317203 12:0.28252923 13:9180 14:8237 15:7012 #
0.00010000000000000000479217360238593 1:0.27263129 2:0.25799271 3:0.30919135 4:13 5:13 6:13 7:24 8:19 9:21 10:5.3044949 11:2.4561737 12:2.2481759 13:7066 14:6423 15:5350 #
0.00010000000000000000479217360238593 1:0.1065636 2:0.104146 3:0.10318106 4:2 5:2 6:2 7:17 8:16 9:17 10:5.2244654 11:2.3904214 12:0.2182326 13:9948 14:9898 15:9838 #
-0.00010000000000000000479217360238593 1:0.18879467 2:0.19401075 3:0.15385906 4:14 5:14 6:14 7:17 8:17 9:12 10:14.71822 11:11.498215 12:7.6420283 13:8016 14:7234 15:6009 #
0.00010000000000000000479217360238593 1:0.10434392 2:0.77692878 3:0.010610253 4:1 5:1 6:1 7:38 8:106 9:0 10:59.00502 11:65.032074 12:8.7264071 13:6326 14:849 15:881 #
-0.00010000000000000000479217360238593 1:0.36408105 2:0.22356373 3:0.062114026 4:281 5:281 6:281 7:40 8:38 9:19 10:28.890551 11:18.849342 12:10.984941 13:9946 14:5984 15:3320 #
0.00010000000000000000479217360238593 1:0.33136642 2:0.30143806 3:0.20516439 4:10 5:10 6:10 7:29 8:23 9:13 10:21.329638 11:21.270897 12:20.060917 13:5209 14:4612 15:3888 #
0.00010000000000000000479217360238593 1:0.38953787 2:0.32745618 3:0.36308834 4:498 5:498 6:498 7:35 8:28 9:24 10:22.849981 11:20.944748 12:17.178028 13:5121 14:4646 15:3585 #
0.00010000000000000000479217360238593 1:0.23562004 2:0.27915522 3:0.3135232 4:20 5:20 6:20 7:3 8:4 9:5 10:24.525127 11:28.182997 12:31.825283 13:9318 14:9093 15:8696 #
0.00010000000000000000479217360238593 1:0.20882304 2:0.26682904 3:0.27007258 4:251 5:251 6:251 7:23 8:25 9:21 10:22.399961 11:20.476728 12:17.966585 13:5858 14:5049 15:3973 #
-0.00010000000000000000479217360238593 1:0.10559595 2:0.056801986 3:0.045195792 4:450 5:450 6:450 7:9 8:4 9:3 10:24.916864 11:21.085911 12:17.65818 13:6599 14:5671 15:4482 #
-0.00010000000000000000479217360238593 1:0.37179294 2:0.24184521 3:0.083203144 4:281 5:281 6:281 7:42 8:41 9:22 10:29.599113 11:20.235279 12:12.400502 13:10010 14:6174 15:3218 #
-0.00010000000000000000479217360238593 1:0.35778502 2:0.33919674 3:0.29077479 4:437 5:437 6:437 7:26 8:22 9:17 10:16.259979 11:14.535777 12:11.898351 13:8045 14:7110 15:5722 #
0.00010000000000000000479217360238593 1:0.17930014 2:0.17084809 3:0.081454411 4:157 5:157 6:157 7:17 8:17 9:4 10:33.488796 11:33.734516 12:29.625492 13:4127 14:3914 15:4109 #
-0.00010000000000000000479217360238593 1:0.97875136 2:0.98110002 3:0.98545456 4:0 5:0 6:0 7:138 8:144 9:151 10:21.670616 11:21.984596 12:24.154861 13:9504 14:9485 15:9547 #
0.00010000000000000000479217360238593 1:0.20759858 2:0.2053239 3:0.098090775 4:155 5:155 6:155 7:19 8:19 9:5 10:33.131664 11:33.629009 12:29.494513 13:3910 14:3658 15:3946 #
-0.00010000000000000000479217360238593 1:0.22218207 2:0.31937107 3:0.35678178 4:316 5:316 6:316 7:21 8:51 9:75 10:20.716547 11:9.16922 12:2.9946814 13:11125 14:8265 15:6952 #
0.00010000000000000000479217360238593 1:0.24170117 2:0.23004012 3:0.11009078 4:113 5:113 6:113 7:25 8:25 9:8 10:34.370392 11:34.569817 12:25.996096 13:5442 14:5226 15:3822 #
-0.00010000000000000000479217360238593 1:0.45862454 2:0.29494873 3:0.079604872 4:405 5:405 6:405 7:68 8:46 9:9 10:38.40871 11:29.9002 12:20.954062 13:4990 14:1857 15:1131 #
-0.00010000000000000000479217360238593 1:0.155425 2:0.18468349 3:0.15429372 4:448 5:448 6:448 7:14 8:15 9:10 10:21.315058 11:20.95542 12:17.330824 13:6889 14:6188 15:4894 #
-0.00010000000000000000479217360238593 1:0.3382462 2:0.20088229 3:0.0039080488 4:289 5:289 6:289 7:36 8:32 9:6 10:29.466637 11:17.259541 12:9.8056707 13:10224 14:6394 15:3246 #
-0.00010000000000000000479217360238593 1:0.076707907 2:0.43182096 3:0.6503886 4:477 5:477 6:477 7:7 8:60 9:147 10:14.877576 11:12.292807 12:23.591297 13:1928 14:3438 15:6254 #
-0.00010000000000000000479217360238593 1:0.96802771 2:0.97350204 3:0.97663635 4:0 5:0 6:0 7:138 8:144 9:151 10:23.350746 11:23.328939 12:25.563284 13:9591 14:9604 15:9668 #
0.00010000000000000000479217360238593 1:0.14456545 2:0.16134311 3:0.16329627 4:10 5:10 6:10 7:7 8:8 9:8 10:29.602081 11:34.117893 12:39.127277 13:7548 14:7620 15:7584 #
-0.00010000000000000000479217360238593 1:0.97279376 2:0.97777593 3:0.98100001 4:0 5:0 6:0 7:138 8:143 9:151 10:22.667311 11:22.625719 12:24.879215 13:9595 14:9617 15:9672 #
0.00010000000000000000479217360238593 1:0.81719381 2:0.42317244 3:0.29024699 4:0 5:0 6:0 7:90 8:49 9:26 10:35.708782 11:48.811016 12:26.872961 13:3466 14:1866 15:1355 #
-0.00010000000000000000479217360238593 1:0.51662916 2:0.46830553 3:0.3953813 4:164 5:164 6:164 7:62 8:51 9:38 10:1.3395014 11:0.95862067 12:1.7500311 13:9081 14:8046 15:6553 #
-0.00010000000000000000479217360238593 1:0.33454448 2:0.40699828 3:0.34043771 4:281 5:281 6:281 7:36 8:67 9:71 10:24.609226 11:14.915374 12:6.518043 13:11715 14:9203 15:7278 #
0.00010000000000000000479217360238593 1:0.87876463 2:0.45072246 3:0.30841699 4:0 5:0 6:0 7:92 8:52 9:28 10:41.600468 11:49.483562 12:27.798124 13:3391 14:1724 15:1291 #
0.00010000000000000000479217360238593 1:0.40325311 2:0.29432899 3:0.088515028 4:2 5:2 6:2 7:59 8:46 9:11 10:30.250542 11:24.724396 12:17.35428 13:5637 14:2285 15:1322 #
-0.00010000000000000000479217360238593 1:0.12911913 2:0.12127486 3:0.084330827 4:248 5:248 6:248 7:7 8:8 9:3 10:6.6933608 11:6.8203659 12:5.6699867 13:7099 14:6456 15:5552 #
-0.00010000000000000000479217360238593 1:0.63443768 2:0.56648713 3:0.5224449 4:172 5:172 6:172 7:60 8:50 9:40 10:18.023632 11:17.073269 12:10.888144 13:8488 14:7349 15:5881 #
0.00010000000000000000479217360238593 1:0.17736988 2:0.19687468 3:0.19994855 4:11 5:11 6:11 7:16 8:17 9:13 10:20.322653 11:18.252943 12:14.465489 13:6811 14:6077 15:5061 #
0.00010000000000000000479217360238593 1:0.66383868 2:0.33758014 3:0.13006866 4:427 5:427 6:427 7:64 8:33 9:4 10:46.356552 11:44.656254 12:21.401501 13:4995 14:3218 15:2978 #
0.00010000000000000000479217360238593 1:0.27025232 2:0.25471073 3:0.1473635 4:347 5:347 6:347 7:27 8:26 9:13 10:32.773415 11:34.134758 12:29.863441 13:3663 14:3403 15:3672 #
0.00010000000000000000479217360238593 1:0.21088074 2:0.21427059 3:0.21095583 4:513 5:513 6:513 7:15 8:15 9:16 10:27.181625 11:31.637619 12:35.824276 13:8148 14:8165 15:8112 #
-0.00010000000000000000479217360238593 1:0.16110381 2:0.24227901 3:0.33326742 4:159 5:159 6:159 7:13 8:31 9:61 10:18.848312 11:3.7278354 12:10.237178 13:10640 14:7584 15:6334 #
0.00010000000000000000479217360238593 1:0.29078168 2:0.29186535 3:0.30904648 4:248 5:248 6:248 7:27 8:24 9:21 10:27.626888 11:25.493626 12:19.786945 13:5226 14:4496 15:3513 #
0.00010000000000000000479217360238593 1:0.22892846 2:0.23647428 3:0.15777095 4:16 5:16 6:16 7:24 8:22 9:13 10:13.841959 11:12.399487 12:10.500755 13:8015 14:7246 15:5786 #
0.00010000000000000000479217360238593 1:0.2037815 2:0.20476459 3:0.20521282 4:515 5:515 6:515 7:19 8:19 9:20 10:7.4467211 11:11.20138 12:15.233628 13:9085 14:9122 15:9091 #
0.00010000000000000000479217360238593 1:0.47747147 2:0.436315 3:0.40090317 4:256 5:256 6:256 7:43 8:37 9:28 10:23.336935 11:22.121515 12:15.603509 13:5029 14:4504 15:3649 #
-0.00010000000000000000479217360238593 1:0.053445678 2:0.010625173 3:0.048814755 4:24 5:24 6:24 7:5 8:6 9:5 10:6.2740598 11:0.40934652 12:3.8497009 13:10443 14:6531 15:3671 #
0.00010000000000000000479217360238593 1:0.0059213494 2:0.025635056 3:0.070302755 4:258 5:258 6:258 7:12 8:12 9:9 10:12.381385 11:14.631099 12:17.957537 13:9347 14:9244 15:8939 #
0.00010000000000000000479217360238593 1:0.36800542 2:0.3625561 3:0.36178437 4:494 5:494 6:494 7:34 8:30 9:24 10:28.384163 11:25.516504 12:19.966408 13:5151 14:4460 15:3547 #
-4.5487267845746931428825565735252e-05 1:0.21578497 2:0.096198909 3:0.13295543 4:327 5:327 6:327 7:29 8:32 9:26 10:44.656315 11:45.035965 12:21.541504 13:9260 14:6524 15:5064 #
0.00010000000000000000479217360238593 1:0.0085307816 2:0.042320199 3:0.18732736 4:404 5:404 6:404 7:2 8:6 9:21 10:2.673815 11:5.077107 12:10.798667 13:8880 14:8189 15:7575 #
-0.00010000000000000000479217360238593 1:0.018973481 2:0.069497749 3:0.069271207 4:24 5:24 6:24 7:3 8:7 9:6 10:12.340174 11:6.2688055 12:8.094017 13:10183 14:5993 15:3671 #
0.00010000000000000000479217360238593 1:0.1169437 2:0.10470671 3:0.070711695 4:468 5:468 6:468 7:9 8:9 9:5 10:13.46871 11:12.4215 12:8.8343563 13:7264 14:6600 15:5550 #
0.00010000000000000000479217360238593 1:0.79489112 2:0.40331236 3:0.23758924 4:239 5:239 6:239 7:80 8:46 9:19 10:46.548321 11:48.28783 12:24.349735 13:4200 14:2577 15:2297 #
0.00010000000000000000479217360238593 1:0.0072906921 2:0.060974702 3:0.13241617 4:447 5:447 6:447 7:1 8:4 9:8 10:11.42399 11:9.2859478 12:3.4230328 13:7321 14:6726 15:5741 #
-0.00010000000000000000479217360238593 1:0.75414073 2:0.8575114 3:0.84969711 4:302 5:302 6:302 7:61 8:74 9:83 10:19.318151 11:24.63806 12:22.931545 13:9963 14:8452 15:6709 #
-0.00010000000000000000479217360238593 1:0.013565355 2:0.03597961 3:0.02666685 4:244 5:244 6:244 7:6 8:6 9:3 10:1.3404684 11:0.33909622 12:2.1313548 13:7530 14:6733 15:5632 #
0.00010000000000000000479217360238593 1:0.023824275 2:0.095870376 3:0.12229053 4:234 5:234 6:234 7:3 8:8 9:8 10:4.6658635 11:3.6530418 12:1.3034338 13:7863 14:6876 15:5752 #
0.00010000000000000000479217360238593 1:0.2340584 2:0.30679095 3:0.34096494 4:281 5:281 6:281 7:31 8:54 9:71 10:9.2664642 11:7.3311362 12:17.623156 13:12659 14:9862 15:8218 #
0.00010000000000000000479217360238593 1:0.41744426 2:0.43640703 3:0.42502719 4:477 5:477 6:477 7:22 8:24 9:25 10:30.476135 11:29.732162 12:30.332882 13:9005 14:8771 15:8549 #
0.00010000000000000000479217360238593 1:0.17094396 2:0.24265184 3:0.2309538 4:494 5:494 6:494 7:13 8:18 9:16 10:1.0699332 11:2.5144312 12:4.8965516 13:7290 14:6321 15:5309 #
0.00010000000000000000479217360238593 1:0.12957007 2:0.15723386 3:0.17865054 4:209 5:209 6:209 7:17 8:19 9:17 10:7.1144977 11:4.3508062 12:3.7672055 13:6564 14:5828 15:4744 #
0.00010000000000000000479217360238593 1:0.23580532 2:0.20161982 3:0.12980826 4:407 5:407 6:407 7:35 8:29 9:21 10:11.87956 11:16.474613 12:16.236311 13:8885 14:7953 15:6619 #
-0.00010000000000000000479217360238593 1:0.19533332 2:0.20554708 3:0.19949764 4:437 5:437 6:437 7:18 8:18 9:17 10:9.2642994 11:5.4797258 12:0.88718659 13:8175 14:7436 15:6163 #
0.00010000000000000000479217360238593 1:0.13208877 2:0.10564732 3:0.08286573 4:207 5:207 6:207 7:19 8:16 9:13 10:9.7231293 11:8.3210011 12:6.3038635 13:8293 14:7416 15:6175 #
0.00010000000000000000479217360238593 1:0.236369 2:0.25193787 3:0.32380843 4:433 5:433 6:433 7:26 8:27 9:31 10:7.5098276 11:4.2783074 12:1.2547415 13:8935 14:8104 15:6968 #
0.00010000000000000000479217360238593 1:0.10521922 2:0.12569302 3:0.21805909 4:232 5:232 6:232 7:9 8:8 9:17 10:16.710371 11:15.010534 12:13.436248 13:5937 14:5138 15:3877 #
-0.00010000000000000000479217360238593 1:0.92791343 2:0.93988103 3:0.95109093 4:0 5:0 6:0 7:138 8:144 9:150 10:29.282164 11:29.363924 12:29.257776 13:9359 14:9313 15:9470 #
0.00010000000000000000479217360238593 1:0.097560599 2:0.14478229 3:0.19836454 4:3 5:3 6:3 7:11 8:13 9:11 10:22.26408 11:27.330027 12:32.173206 13:9456 14:9288 15:8913 #
0.00010000000000000000479217360238593 1:0.35077873 2:0.3758035 3:0.25927258 4:336 5:336 6:336 7:35 8:39 9:25 10:33.83382 11:33.833118 12:30.46801 13:3209 14:2859 15:3115 #
-0.00010000000000000000479217360238593 1:0.22915393 2:0.14356996 3:0.106337 4:446 5:446 6:446 7:20 8:12 9:9 10:26.383743 11:23.390924 12:17.515795 13:6877 14:5846 15:4616 #
0.00010000000000000000479217360238593 1:0.030175976 2:0.041379597 3:0.0079767676 4:249 5:249 6:249 7:0 8:8 9:3 10:6.5044231 11:4.0907884 12:1.9460324 13:8218 14:7235 15:6196 #
-0.00010000000000000000479217360238593 1:0.17154615 2:0.13583815 3:0.030417588 4:451 5:451 6:451 7:13 8:8 9:1 10:11.215401 11:7.9152098 12:6.3516369 13:7389 14:6491 15:4985 #
0.00010000000000000000479217360238593 1:0.48198089 2:0.46810129 3:0.42582327 4:506 5:506 6:506 7:45 8:40 9:30 10:22.860497 11:22.354551 12:18.737064 13:4630 14:4059 15:3248 #
0.00010000000000000000479217360238593 1:0.19296588 2:0.22726975 3:0.32453284 4:199 5:199 6:199 7:18 8:16 9:21 10:0.99043924 11:4.9044333 12:8.6002035 13:9136 14:8484 15:7511 #
0.00010000000000000000479217360238593 1:0.13813795 2:0.10937034 3:0.2328373 4:455 5:455 6:455 7:13 8:12 9:17 10:4.2477293 11:2.6579969 12:0.8330031 13:7808 14:7199 15:5820 #
0.00010000000000000000479217360238593 1:0.60655349 2:0.48921034 3:0.40177247 4:514 5:514 6:514 7:55 8:41 9:28 10:24.582567 11:21.368353 12:16.545666 13:4886 14:4649 15:3950 #
-0.00010000000000000000479217360238593 1:0.18385392 2:0.04068692 3:0.048129361 4:182 5:182 6:182 7:14 8:6 9:5 10:31.811544 11:24.026613 12:15.159597 13:8671 14:4518 15:1942 #
-0.00010000000000000000479217360238593 1:0.2529026 2:0.16263385 3:0.10736744 4:493 5:493 6:493 7:29 8:18 9:10 10:10.786266 11:10.889857 12:10.513463 13:6513 14:6029 15:5120 #
0.00010000000000000000479217360238593 1:0.17842302 2:0.13718815 3:0.063306339 4:223 5:223 6:223 7:13 8:8 9:1 10:19.376423 11:16.801607 12:10.697715 13:7798 14:6885 15:5538 #
0.00010000000000000000479217360238593 1:0.037165571 2:0.063674696 3:0.11734821 4:228 5:228 6:228 7:0 8:2 9:6 10:5.7285123 11:8.1544752 12:11.109925 13:8132 14:7479 15:6450 #
0.00010000000000000000479217360238593 1:0.16519445 2:0.2028883 3:0.30020854 4:228 5:228 6:228 7:10 8:13 9:17 10:13.056844 11:11.423556 12:9.106473 13:6421 14:5605 15:4372 #
0.00010000000000000000479217360238593 1:0.1644053 2:0.10286581 3:0.028389208 4:494 5:494 6:494 7:27 8:23 9:7 10:1.3474998 11:2.9919 12:2.6591408 13:7452 14:6928 15:6160 #
0.00010000000000000000479217360238593 1:0.032006592 2:0.040433288 3:0.089622207 4:24 5:24 6:24 7:1 8:4 9:11 10:23.396063 11:19.007347 12:14.12627 13:8419 14:4421 15:1955 #
0.00010000000000000000479217360238593 1:0.88886756 2:0.44597474 3:0.30471241 4:0 5:0 6:0 7:95 8:54 9:28 10:37.739571 11:47.825783 12:26.22093 13:3437 14:1825 15:1353 #
0.00010000000000000000479217360238593 1:0.12023074 2:0.081216037 3:0.067913532 4:281 5:281 6:281 7:2 8:1 9:4 10:12.518885 11:19.840647 12:12.768888 13:10342 14:7100 15:4952 #
0.00010000000000000000479217360238593 1:0.47882429 2:0.4089469 3:0.32744679 4:260 5:260 6:260 7:45 8:35 9:24 10:24.376318 11:23.337914 12:20.16987 13:4820 14:4387 15:3659 #
0.00010000000000000000479217360238593 1:0.47025642 2:0.39986509 3:0.26456699 4:12 5:12 6:12 7:41 8:32 9:17 10:19.030949 11:17.71645 12:14.88297 13:5073 14:4668 15:4039 #
-0.00010000000000000000479217360238593 1:0.56474572 2:0.48049095 3:0.52545905 4:187 5:187 6:187 7:35 8:33 9:41 10:9.0427418 11:10.697322 12:14.143419 13:7566 14:6366 15:6195 #
-0.00010000000000000000479217360238593 1:0.62111109 2:0.59199488 3:0.61237198 4:192 5:192 6:192 7:36 8:41 9:50 10:6.8245864 11:7.5177469 12:10.437814 13:8241 14:7225 15:6956 #
0.00010000000000000000479217360238593 1:0.22377783 2:0.11192331 3:0.025291868 4:341 5:341 6:341 7:20 8:11 9:3 10:18.935783 11:24.140959 12:22.992937 13:9584 14:7297 15:4973 #
0.00010000000000000000479217360238593 1:0.41770208 2:0.40818986 3:0.29045439 4:180 5:180 6:180 7:41 8:42 9:27 10:33.847984 11:34.369057 12:30.081381 13:3172 14:2908 15:3216 #
0.00010000000000000000479217360238593 1:0.26295596 2:0.15061226 3:0.034506049 4:329 5:329 6:329 7:24 8:15 9:10 10:15.796262 11:21.102802 12:18.056471 13:9872 14:7633 15:5425 #
0.00010000000000000000479217360238593 1:0.36269388 2:0.39156929 3:0.25154531 4:176 5:176 6:176 7:36 8:40 9:23 10:34.109047 11:34.245014 12:29.887306 13:3312 14:2941 15:3349 #
0.00010000000000000000479217360238593 1:0.43209952 2:0.42433557 3:0.28918165 4:66 5:66 6:66 7:43 8:44 9:28 10:33.003544 11:33.751881 12:28.127209 13:3123 14:2864 15:3190 #
0.00010000000000000000479217360238593 1:0.37401325 2:0.38017231 3:0.29281804 4:159 5:159 6:159 7:37 8:39 9:28 10:22.667652 11:21.811127 12:16.506392 13:3916 14:3623 15:3769 #
0.00010000000000000000479217360238593 1:0.062374055 2:0.12348281 3:0.10701776 4:141 5:141 6:141 7:10 8:14 9:17 10:18.612329 11:23.542757 12:21.004 13:9550 14:7773 15:5740 #
0.00010000000000000000479217360238593 1:0.21270768 2:0.21617381 3:0.17672737 4:384 5:384 6:384 7:22 8:24 9:23 10:34.439556 11:34.883427 12:30.86536 13:5305 14:5123 15:4916 #
-0.00010000000000000000479217360238593 1:0.96991432 2:0.97264731 3:0.96399999 4:0 5:0 6:0 7:138 8:144 9:149 10:22.984615 11:23.947264 12:26.182423 13:9527 14:9502 15:9560 #
0.00010000000000000000479217360238593 1:0.24636793 2:0.2635662 3:0.21445464 4:389 5:389 6:389 7:25 8:29 9:28 10:34.534332 11:34.860115 12:30.692862 13:5445 14:5300 15:5077 #
0.00010000000000000000479217360238593 1:0.25738943 2:0.28797469 3:0.15909101 4:112 5:112 6:112 7:27 8:31 9:22 10:33.710995 11:35.080853 12:30.7658 13:5480 14:5431 15:4907 #
0.00010000000000000000479217360238593 1:0.34476706 2:0.33631679 3:0.027636481 4:142 5:142 6:142 7:34 8:35 9:5 10:30.87368 11:30.229984 12:19.117796 13:6039 14:5871 15:4567 #
-0.00010000000000000000479217360238593 1:0.50897914 2:0.55259341 3:0.58185208 4:381 5:381 6:381 7:46 8:81 9:100 10:1.7007225 11:7.1695108 12:7.5835915 13:5049 14:4475 15:5135 #
0.00010000000000000000479217360238593 1:0.37669414 2:0.37675324 3:0.25109076 4:350 5:350 6:350 7:33 8:36 9:21 10:19.522724 11:19.153645 12:14.427651 13:4800 14:4515 15:4836 #
-0.00010000000000000000479217360238593 1:0.29578054 2:0.30274683 3:0.30685696 4:447 5:447 6:447 7:25 8:24 9:20 10:11.184141 11:8.7013683 12:3.086983 13:8436 14:7651 15:6379 #
0.00010000000000000000479217360238593 1:0.13619438 2:0.13358164 3:0.017721424 4:328 5:328 6:328 7:9 8:20 9:8 10:26.158213 11:16.311054 12:7.0629425 13:8581 14:5254 15:2590 #
0.00010000000000000000479217360238593 1:0.1223662 2:0.10401927 3:0.059786327 4:473 5:473 6:473 7:24 8:24 9:21 10:26.058071 11:30.629255 12:35.038696 13:6663 14:6692 15:6770 #
0.00010000000000000000479217360238593 1:0.016873199 2:0.0099202795 3:0.015655639 4:458 5:458 6:458 7:3 8:1 9:1 10:15.840594 11:14.839121 12:12.336203 13:6862 14:6068 15:4895 #
0.00010000000000000000479217360238593 1:0.12765357 2:0.12201122 3:0.17184098 4:495 5:495 6:495 7:12 8:13 9:14 10:15.136143 11:14.328506 12:11.059906 13:6764 14:6105 15:4886 #
-0.00010000000000000000479217360238593 1:0.088691026 2:0.12708755 3:0.10000011 4:377 5:377 6:377 7:9 8:15 9:16 10:33.35397 11:33.858055 12:29.780352 13:5116 14:5027 15:4835 #
0.00010000000000000000479217360238593 1:0.10430855 2:0.10317929 3:0.088413306 4:251 5:251 6:251 7:9 8:11 9:10 10:8.7053995 11:8.9169092 12:8.3171883 13:8693 14:8668 15:8512 #
0.00010000000000000000479217360238593 1:0.48028985 2:0.41680142 3:0.32063723 4:268 5:268 6:268 7:46 8:37 9:23 10:20.897665 11:19.181339 12:17.097622 13:4789 14:4347 15:3658 #
-4.9550181415367738901878169599513e-05 1:0.011874324 2:0.013397845 3:0.014480309 4:231 5:231 6:231 7:4 8:5 9:2 10:19.917389 11:17.757215 12:15.194364 13:7044 14:6265 15:5236 #
-0.00010000000000000000479217360238593 1:0.24437322 2:0.25390151 3:0.26440585 4:438 5:438 6:438 7:22 8:21 9:18 10:5.495995 11:2.6104572 12:1.4272127 13:8365 14:7547 15:6422 #
-0.00010000000000000000479217360238593 1:0.028784633 2:0.0097975526 3:0.05113605 4:199 5:199 6:199 7:7 8:8 9:8 10:9.2631531 11:7.3260293 12:3.6493268 13:7630 14:6992 15:5983 #
-0.00010000000000000000479217360238593 1:0.10683604 2:0.13583815 3:0.11995612 4:211 5:211 6:211 7:13 8:14 9:9 10:10.01769 11:8.5929718 12:6.4627409 13:7988 14:7224 15:6086 #
0.00010000000000000000479217360238593 1:0.30874512 2:0.29697868 3:0.24455668 4:196 5:196 6:196 7:30 8:24 9:19 10:3.4673634 11:1.2110614 12:0.5027436 13:8576 14:7711 15:6331 #
0.00010000000000000000479217360238593 1:0.050880767 2:0.064452268 3:0.075637765 4:518 5:518 6:518 7:8 8:11 9:11 10:5.0229321 11:6.5121613 12:6.6594634 13:8337 14:7616 15:6453 #
0.00010000000000000000479217360238593 1:0.7643916 2:0.41521502 3:0.26413861 4:0 5:0 6:0 7:77 8:49 9:25 10:41.216755 11:45.093136 12:22.433506 13:5436 14:3583 15:3131 #
0.00010000000000000000479217360238593 1:0.067153186 2:0.10110642 3:0.093442284 4:366 5:366 6:366 7:11 8:10 9:7 10:8.2953825 11:11.756925 12:10.448869 13:9063 14:8365 15:7212 #
0.00010000000000000000479217360238593 1:0.57110125 2:0.36385965 3:0.26881343 4:0 5:0 6:0 7:54 8:37 9:21 10:44.211811 11:49.229042 12:26.737881 13:5037 14:2789 15:2114 #
0.00010000000000000000479217360238593 1:0.66383868 2:0.34533694 3:0.18572533 4:35 5:35 6:35 7:68 8:39 9:16 10:39.563042 11:42.781406 12:19.382948 13:5893 14:4075 15:3727 #
-0.00010000000000000000479217360238593 1:0.0434158 2:0.12924367 3:0.18269108 4:149 5:149 6:149 7:10 8:29 9:34 10:3.082077 11:4.8952084 12:8.7935333 13:11159 14:8372 15:6485 #
-0.00010000000000000000479217360238593 1:0.16654728 2:0.15023842 3:0.14054596 4:265 5:265 6:265 7:15 8:12 9:11 10:10.853959 11:10.82626 12:10.72049 13:6906 14:6201 15:5163 #
0.00010000000000000000479217360238593 1:0.12894914 2:0.71778011 3:0.010305347 4:1 5:1 6:1 7:39 8:98 9:0 10:58.122463 11:64.206665 12:7.9328547 13:6349 14:1301 15:1161 #
-0.00010000000000000000479217360238593 1:0.37736562 2:0.70567721 3:0.30679667 4:283 5:283 6:283 7:39 8:103 9:20 10:52.779785 11:38.970737 12:12.769017 13:9795 14:9573 15:2611 #
0.00010000000000000000479217360238593 1:0.019991271 2:0.042361412 3:0.17010237 4:468 5:468 6:468 7:2 8:4 9:10 10:9.1236029 11:7.3538289 12:1.1237081 13:7344 14:6548 15:5099 #
0.00010000000000000000479217360238593 1:0.20367204 2:0.23174965 3:0.14300011 4:385 5:385 6:385 7:22 8:26 9:21 10:33.632732 11:33.491753 12:29.588274 13:5366 14:5300 15:4866 #
0.00010000000000000000479217360238593 1:0.89658773 2:0.46329382 3:0.3152087 4:0 5:0 6:0 7:90 8:54 9:28 10:48.776024 11:50.730415 12:28.109358 13:3735 14:2142 15:1767 #
0.00010000000000000000479217360238593 1:0.22272801 2:0.22506067 3:0.22659102 4:435 5:435 6:435 7:24 8:23 9:20 10:9.4162216 11:5.8636074 12:3.0314591 13:8558 14:7721 15:6484 #
0.00010000000000000000479217360238593 1:0.18033952 2:0.15989265 3:0.12444754 4:435 5:435 6:435 7:16 8:12 9:7 10:7.9865346 11:5.5870161 12:2.9192526 13:8881 14:8050 15:6698 #
0.00010000000000000000479217360238593 1:0.25474626 2:0.25941819 3:0.24214572 4:221 5:221 6:221 7:23 8:24 9:25 10:8.6421633 11:5.858788 12:4.7485147 13:9338 14:9226 15:9110 #
0.00010000000000000000479217360238593 1:0.36439788 2:0.41336507 3:0.34555733 4:501 5:501 6:501 7:37 8:34 9:21 10:10.690778 11:9.0222206 12:8.2601442 13:5894 14:5104 15:4375 #
-0.00010000000000000000479217360238593 1:0.22272801 2:0.19732437 3:0.12444754 4:41 5:41 6:41 7:36 8:30 9:21 10:9.4456015 11:7.9821391 12:10.013574 13:7945 14:7064 15:5704 #
-0.00010000000000000000479217360238593 1:0.28924191 2:0.23193339 3:0.24209364 4:424 5:424 6:424 7:28 8:22 9:21 10:13.358801 11:10.61137 12:8.2576084 13:8122 14:7121 15:5938 #
-0.00010000000000000000479217360238593 1:0.89697146 2:0.85389131 3:0.70037127 4:257 5:257 6:257 7:105 8:150 9:94 10:45.882076 11:43.273163 12:14.701813 13:11575 14:10518 15:7605 #
0.00010000000000000000479217360238593 1:0.32381314 2:0.34169251 3:0.31542137 4:249 5:249 6:249 7:29 8:27 9:21 10:26.112705 11:23.037394 12:19.043535 13:5268 14:4553 15:3667 #
0.00010000000000000000479217360238593 1:0.61940533 2:0.58186918 3:0.46016085 4:274 5:274 6:274 7:57 8:49 9:32 10:23.650917 11:22.517149 12:20.654316 13:4400 14:3902 15:3346 #
-0.00010000000000000000479217360238593 1:0.12479602 2:0.043652136 3:0.012781427 4:12 5:12 6:12 7:9 8:3 9:6 10:15.735134 11:17.443392 12:29.919676 13:1723 14:1028 15:977 #
0.00010000000000000000479217360238593 1:0.22904582 2:0.22403392 3:0.1302726 4:88 5:88 6:88 7:23 8:22 9:10 10:33.940521 11:34.493687 12:30.072662 13:3858 14:3619 15:3840 #
-0.00010000000000000000479217360238593 1:0.23603079 2:0.22726975 3:0.17935871 4:440 5:440 6:440 7:19 8:17 9:12 10:12.807947 11:9.7268734 12:6.9207654 13:7812 14:6947 15:5577 #
0.00010000000000000000479217360238593 1:0.30948079 2:0.4113982 3:0.27448148 4:281 5:281 6:281 7:37 8:63 9:47 10:19.000166 11:11.81134 12:27.555229 13:11427 14:10269 15:7904 #
-0.00010000000000000000479217360238593 1:0.74963778 2:0.68580091 3:0.47618163 4:213 5:213 6:213 7:75 8:71 9:48 10:34.840893 11:35.338238 12:31.203739 13:1797 14:1689 15:2301 #
0.00010000000000000000479217360238593 1:0.30104059 2:0.28511536 3:0.30658343 4:247 5:247 6:247 7:29 8:27 9:26 10:11.643863 11:9.0001192 12:4.2247252 13:6360 14:5709 15:4687 #
-0.00010000000000000000479217360238593 1:0.1334416 2:0.1046655 3:0.083300382 4:460 5:460 6:460 7:8 8:5 9:3 10:15.702398 11:12.523441 12:8.3440466 13:7541 14:6672 15:5471 #
0.00010000000000000000479217360238593 1:0.20923243 2:0.1944246 3:0.024818057 4:122 5:122 6:122 7:20 8:20 9:2 10:30.223558 11:29.239452 12:21.276932 13:5974 14:5689 15:4810 #
-0.00010000000000000000479217360238593 1:0.045620725 2:0.058151983 3:0.16081351 4:7 5:7 6:7 7:1 8:2 9:9 10:18.515509 11:17.674168 12:16.945866 13:6954 14:6173 15:5322 #
-0.00010000000000000000479217360238593 1:0.29093292 2:0.26568329 3:0.33481964 4:429 5:429 6:429 7:29 8:23 9:22 10:17.420343 11:17.155975 12:16.235443 13:7476 14:6580 15:5521 #
0.00010000000000000000479217360238593 1:0.1283685 2:0.067847408 3:0.057382334 4:0 5:0 6:0 7:11 8:6 9:2 10:19.110516 11:17.252518 12:14.327435 13:7507 14:6593 15:5097 #
0.00010000000000000000479217360238593 1:0.54100662 2:0.49480245 3:0.33672795 4:77 5:77 6:77 7:46 8:46 9:35 10:18.133579 11:21.655972 12:19.480959 13:9177 14:7191 15:4834 #
-0.00010000000000000000479217360238593 1:0.17714441 2:0.14802934 3:0.13170801 4:246 5:246 6:246 7:20 8:19 9:11 10:6.3000102 11:4.2620411 12:4.2047906 13:6892 14:6263 15:5309 #
-0.00010000000000000000479217360238593 1:0.45894673 2:0.14801006 3:0.075942658 4:3 5:3 6:3 7:34 8:18 9:9 10:16.684065 11:18.451456 12:31.217976 13:813 14:479 15:400 #
0.00010000000000000000479217360238593 1:0.40828332 2:0.11248422 3:0.031986449 4:21 5:21 6:21 7:29 8:18 9:15 10:10.346157 11:12.996309 12:28.182035 13:3201 14:1829 15:1359 #
0.00010000000000000000479217360238593 1:0.27432331 2:0.27066651 3:0.15227258 4:85 5:85 6:85 7:26 8:26 9:11 10:31.021128 11:31.48447 12:27.401533 13:4340 14:4023 15:4329 #
-0.00010000000000000000479217360238593 1:0.022696922 2:0.0015748454 3:0.033911068 4:482 5:482 6:482 7:5 8:2 9:1 10:6.5760999 11:4.7653489 12:2.8984396 13:6738 14:6043 15:4875 #
0.00010000000000000000479217360238593 1:0.20014243 2:0.23295641 3:0.30151248 4:245 5:245 6:245 7:17 8:20 9:19 10:17.084146 11:15.813209 12:11.571519 13:6265 14:5392 15:4243 #
-0.00010000000000000000479217360238593 1:0.062322572 2:0.058508392 3:0.067044131 4:475 5:475 6:475 7:5 8:6 9:7 10:16.227375 11:17.940937 12:30.717844 13:1919 14:967 15:549 #
0.00010000000000000000479217360238593 1:0.12868598 2:0.7825371 3:0.0104578 4:0 5:0 6:0 7:39 8:106 9:0 10:59.719486 11:63.739983 12:8.6426191 13:6199 14:822 15:946 #
-0.00010000000000000000479217360238593 1:0.22261529 2:0.20763344 3:0.23513919 4:419 5:419 6:419 7:20 8:18 9:19 10:6.842186 11:4.8404794 12:2.3490269 13:8097 14:7220 15:6044 #
-0.00010000000000000000479217360238593 1:0.1372993 2:0.17550185 3:0.05718169 4:96 5:96 6:96 7:13 8:16 9:2 10:32.529854 11:32.743591 12:28.849463 13:4206 14:3876 15:4172 #
-0.00010000000000000000479217360238593 1:0.11179639 2:0.13043816 3:0.08996506 4:447 5:447 6:447 7:10 8:11 9:7 10:23.328505 11:21.995646 12:17.415197 13:6739 14:6031 15:4783 #
-0.00010000000000000000479217360238593 1:0.093043804 2:0.089611299 3:0.070421927 4:231 5:231 6:231 7:7 8:7 9:7 10:3.3670037 11:2.8111291 12:3.0847738 13:7586 14:6871 15:5818 #
-0.00010000000000000000479217360238593 1:0.4568409 2:0.37986058 3:0.2505132 4:10 5:10 6:10 7:38 8:28 9:12 10:7.8684783 11:6.9495077 12:4.7355256 13:5886 14:5474 15:4818 #
0.00010000000000000000479217360238593 1:0.3263979 2:0.37801069 3:0.2460001 4:151 5:151 6:151 7:33 8:40 9:31 10:32.801117 11:33.519382 12:29.101851 13:6276 14:6273 15:5707 #
0.00010000000000000000479217360238593 1:0.12314285 2:0.054004587 3:0.10711169 4:340 5:340 6:340 7:18 8:26 9:22 10:45.406769 11:45.69627 12:21.400909 13:8555 14:6016 15:4566 #
-0.00010000000000000000479217360238593 1:0.023287926 2:0.070217781 3:0.078924879 4:2 5:2 6:2 7:1 8:0 9:0 10:13.559765 11:19.149694 12:23.34889 13:3409 14:1328 15:903 #
0.00010000000000000000479217360238593 1:0.18898162 2:0.21111101 3:0.22689705 4:235 5:235 6:235 7:15 8:17 9:16 10:14.775135 11:12.391843 12:9.0303984 13:6534 14:5754 15:4694 #
-0.00010000000000000000479217360238593 1:0.22667375 2:0.18701531 3:0.17863429 4:25 5:25 6:25 7:26 8:22 9:21 10:5.0422139 11:1.1097348 12:1.5136994 13:8266 14:7348 15:6117 #
0.00010000000000000000479217360238593 1:0.2407148 2:0.29389757 3:0.34559458 4:86 5:86 6:86 7:34 8:43 9:53 10:6.3471317 11:8.5397654 12:12.680382 13:7692 14:7394 15:6901 #
-0.00010000000000000000479217360238593 1:0.82882172 2:0.42785326 3:0.31432664 4:238 5:238 6:238 7:82 8:48 9:26 10:55.554615 11:56.104538 12:31.938299 13:2694 14:1035 15:604 #
-0.00010000000000000000479217360238593 1:0.44222435 2:0.35085592 3:0.36016983 4:252 5:252 6:252 7:27 8:25 9:29 10:11.831181 11:13.627364 12:14.139575 13:5232 14:4082 15:3420 #
-0.00010000000000000000479217360238593 1:0.055390183 2:0.071570434 3:0.054484647 4:1 5:1 6:1 7:5 8:6 9:3 10:19.030506 11:17.862053 12:16.233747 13:6400 14:5608 15:4563 #
0.00010000000000000000479217360238593 1:0.34342909 2:0.30045626 3:0.28238776 4:487 5:487 6:487 7:30 8:24 9:19 10:19.563122 11:17.146101 12:14.244663 13:5420 14:4859 15:3969 #
-0.00010000000000000000479217360238593 1:0.04325328 2:0.037533849 3:0.10343931 4:471 5:471 6:471 7:3 8:2 9:7 10:11.696452 11:9.5484295 12:7.8348541 13:7257 14:6516 15:5543 #
0.00010000000000000000479217360238593 1:0.20025516 2:0.18497016 3:0.16082977 4:255 5:255 6:255 7:26 8:24 9:17 10:11.693192 11:9.6713629 12:6.8751125 13:6627 14:5965 15:5025 #
-0.00010000000000000000479217360238593 1:0.018113289 2:0.0764383 3:0.18616828 4:474 5:474 6:474 7:7 8:3 9:4 10:12.248266 11:10.03452 12:6.7321162 13:7317 14:6697 15:5825 #
0.00010000000000000000479217360238593 1:0.19540754 2:0.23639277 3:0.27949005 4:26 5:26 6:26 7:18 8:21 9:22 10:10.458057 11:7.9933767 12:7.2352347 13:6741 14:5863 15:4819 #
-0.00010000000000000000479217360238593 1:0.06749139 2:0.10000188 3:0.17935871 4:21 5:21 6:21 7:11 8:13 9:12 10:2.5298107 11:2.4520319 12:5.1941657 13:7880 14:7154 15:6125 #
-0.00010000000000000000479217360238593 1:0.0026169301 2:0.052318286 3:0.062870078 4:468 5:468 6:468 7:0 8:5 9:6 10:13.911426 11:17.061584 12:29.892935 13:2234 14:1103 15:702 #
0.00010000000000000000479217360238593 1:0.027319072 2:0.053529568 3:0.11012024 4:462 5:462 6:462 7:2 8:4 9:8 10:24.098904 11:21.323624 12:16.444489 13:6233 14:5411 15:4206 #
0.00010000000000000000479217360238593 1:0.24861863 2:0.25676543 3:0.18966176 4:25 5:25 6:25 7:25 8:25 9:14 10:15.087437 11:15.502585 12:16.588594 13:5899 14:5152 15:4294 #
-0.00010000000000000000479217360238593 1:0.073947184 2:0.10557719 3:0.14477117 4:228 5:228 6:228 7:5 8:9 9:11 10:13.059353 11:15.107852 12:19.451561 13:5858 14:4605 15:3976 #
-0.00010000000000000000479217360238593 1:0.16822602 2:0.1019848 3:0.076814167 4:252 5:252 6:252 7:13 8:12 9:9 10:15.224503 11:16.707523 12:29.595709 13:1630 14:784 15:465 #
-0.00010000000000000000479217360238593 1:0.37984264 2:0.35028338 3:0.21907328 4:257 5:257 6:257 7:37 8:32 9:17 10:23.911741 11:22.542173 12:20.910753 13:4959 14:4326 15:3866 #
-0.00010000000000000000479217360238593 1:0.12092796 2:0.083065554 3:0.048399504 4:2 5:2 6:2 7:11 8:7 9:1 10:21.399977 11:18.411478 12:16.750959 13:6583 14:5696 15:4229 #
0.00010000000000000000479217360238593 1:0.14080702 2:0.15771794 3:0.15993996 4:10 5:10 6:10 7:7 8:8 9:8 10:29.809563 11:34.325375 12:39.334759 13:7480 14:7552 15:7516 #
0.00010000000000000000479217360238593 1:0.35041869 2:0.39569238 3:0.40858203 4:254 5:254 6:254 7:32 8:32 9:27 10:18.800161 11:18.700451 12:16.436422 13:5576 14:4787 15:3833 #
0.00010000000000000000479217360238593 1:0.25801113 2:0.12808302 3:0.016241372 4:49 5:49 6:49 7:23 8:14 9:5 10:20.907005 11:26.42378 12:25.221611 13:8486 14:6200 15:3754 #
-0.00010000000000000000479217360238593 1:0.44360238 2:0.12375941 3:0.062182043 4:0 5:0 6:0 7:33 8:14 9:6 10:16.772743 11:18.68848 12:31.41544 13:805 14:537 15:434 #
-0.00010000000000000000479217360238593 1:0.039043553 2:0.092556745 3:0.05086254 4:8 5:8 6:8 7:1 8:6 9:3 10:7.9607606 11:9.8965282 12:10.649329 13:7447 14:6580 15:5598 #
0.00010000000000000000479217360238593 1:0.013378403 2:0.045552313 3:0.034780376 4:461 5:461 6:461 7:2 8:4 9:2 10:17.146538 11:15.933746 12:13.235757 13:6915 14:5954 15:4907 #
-0.00010000000000000000479217360238593 1:0.19393983 2:0.099747904 3:0.09683264 4:237 5:237 6:237 7:12 8:8 9:8 10:12.587131 11:12.70126 12:17.090382 13:5720 14:4670 15:4153 #
-0.00010000000000000000479217360238593 1:0.14073087 2:0.14717025 3:0.23414126 4:250 5:250 6:250 7:15 8:13 9:16 10:14.451644 11:11.656743 12:5.8285804 13:7285 14:6538 15:5312 #
0.00010000000000000000479217360238593 1:0.25865209 2:0.26056996 3:0.22631751 4:249 5:249 6:249 7:26 8:24 9:15 10:23.271593 11:23.455225 12:21.014904 13:5253 14:4544 15:3637 #
-0.00010000000000000000479217360238593 1:0.4762314 2:0.44564226 3:0.38829821 4:511 5:511 6:511 7:48 8:41 9:32 10:12.141018 11:12.031319 12:10.860427 13:5325 14:4799 15:3996 #
-0.00010000000000000000479217360238593 1:0.28649774 2:0.26658359 3:0.21226372 4:249 5:249 6:249 7:25 8:24 9:17 10:15.292569 11:15.474957 12:13.299053 13:5900 14:5233 15:4464 #
-0.00010000000000000000479217360238593 1:0.87320316 2:0.88004696 3:0.8987273 4:0 5:0 6:0 7:138 8:144 9:151 10:38.137711 11:38.578754 12:38.16441 13:9041 14:9036 15:9201 #
0.00010000000000000000479217360238593 1:0.6703617 2:0.62531453 3:0.527677 4:32 5:32 6:32 7:63 8:52 9:36 10:18.037952 11:19.136864 12:16.137049 13:4329 14:3897 15:3253 #
-0.00010000000000000000479217360238593 1:0.090267874 2:0.10649741 3:0.053576738 4:330 5:330 6:330 7:13 8:16 9:17 10:13.462953 11:17.876539 12:16.133736 13:7430 14:5575 15:3372 #
-0.00010000000000000000479217360238593 1:0.33666497 2:0.24854273 3:0.32121676 4:245 5:245 6:245 7:30 8:20 9:22 10:24.43795 11:22.282274 12:17.837349 13:5255 14:4849 15:3712 #
-0.00010000000000000000479217360238593 1:0.011247927 2:0.0088011594 3:0.085237116 4:171 5:171 6:171 7:14 8:23 9:22 10:28.7647 11:32.798103 12:13.204269 13:9454 14:7024 15:5759 #
0.00010000000000000000479217360238593 1:0.32475355 2:0.34410584 3:0.36973676 4:182 5:182 6:182 7:30 8:32 9:29 10:18.660349 11:13.865404 12:10.274201 13:8001 14:7230 15:5994 #
0.00010000000000000000479217360238593 1:0.30295709 2:0.25995633 3:0.26051021 4:498 5:498 6:498 7:32 8:27 9:22 10:15.755511 11:15.53036 12:11.670493 13:5438 14:4882 15:3932 #
-0.00010000000000000000479217360238593 1:0.18965803 2:0.14692479 3:0.11504631 4:244 5:244 6:244 7:20 8:16 9:9 10:18.382998 11:17.53623 12:14.797072 13:5922 14:5337 15:4341 #
0.00010000000000000000479217360238593 1:0.3704856 2:0.34782887 3:0.31933326 4:500 5:500 6:500 7:33 8:29 9:22 10:17.902073 11:16.910315 12:14.244415 13:5322 14:4723 15:3856 #
-7.7456069326739131306221175510274e-05 1:0.4173049 2:0.31017599 3:0.12463623 4:179 5:179 6:179 7:41 8:32 9:10 10:34.634602 11:34.670345 12:31.011114 13:2988 14:3117 15:3686 #
-0.00010000000000000000479217360238593 1:0.50418979 2:0.44318771 3:0.34642664 4:264 5:264 6:264 7:48 8:39 9:26 10:23.462378 11:21.569466 12:17.43741 13:4957 14:4543 15:3877 #
0.00010000000000000000479217360238593 1:0.43928638 2:0.22878431 3:0.083055966 4:0 5:0 6:0 7:55 8:26 9:2 10:16.054136 11:20.51346 12:5.1883235 13:7507 14:5490 15:4567 #
0.00010000000000000000479217360238593 1:0.34376732 2:0.35678792 3:0.39148569 4:32 5:32 6:32 7:30 8:29 9:28 10:21.085995 11:20.265533 12:19.350716 13:5415 14:4749 15:3719 #
-0.00010000000000000000479217360238593 1:0.61331761 2:0.49976486 3:0.37207118 4:270 5:270 6:270 7:55 8:44 9:26 10:19.647097 11:18.171356 12:13.275552 13:4913 14:4586 15:3993 #
-0.00010000000000000000479217360238593 1:0.39743233 2:0.16024463 3:0.087272234 4:5 5:5 6:5 7:30 8:19 9:11 10:16.792898 11:18.451794 12:31.299067 13:955 14:353 15:274 #
-0.00010000000000000000479217360238593 1:0.11637479 2:0.025374303 3:0.10438459 4:202 5:202 6:202 7:8 8:2 9:15 10:27.935099 11:19.233135 12:12.41394 13:8426 14:4152 15:1629 #
0.00010000000000000000479217360238593 1:0.29856041 2:0.29542443 3:0.36192927 4:490 5:490 6:490 7:30 8:26 9:26 10:16.775331 11:15.431287 12:11.240103 13:6044 14:5365 15:4260 #
0.00010000000000000000479217360238593 1:0.29641843 2:0.33518797 3:0.31933326 4:481 5:481 6:481 7:24 8:25 9:20 10:12.023249 11:8.2960501 12:4.2454753 13:5867 14:5100 15:4178 #
-0.00010000000000000000479217360238593 1:0.43695411 2:0.30238524 3:0.078128636 4:0 5:0 6:0 7:67 8:48 9:9 10:33.573193 11:28.338535 12:19.602163 13:5294 14:2048 15:1387 #
0.00010000000000000000479217360238593 1:0.063507132 2:0.14017481 3:0.13054894 4:462 5:462 6:462 7:4 8:12 9:10 10:16.289173 11:15.814279 12:14.334752 13:6548 14:5591 15:4609 #
0.00010000000000000000479217360238593 1:0.62209255 2:0.38124558 3:0.27763382 4:0 5:0 6:0 7:57 8:39 9:22 10:43.074703 11:51.128067 12:28.257568 13:4528 14:2220 15:1572 #
0.00010000000000000000479217360238593 1:0.20006821 2:0.23009248 3:0.30758137 4:456 5:456 6:456 7:12 8:15 9:18 10:12.130908 11:10.84276 12:8.942379 13:8162 14:7392 15:6372 #
0.00010000000000000000479217360238593 1:0.12122765 2:0.16533384 3:0.19125548 4:23 5:23 6:23 7:14 8:17 9:16 10:19.242849 11:16.984488 12:13.602335 13:6510 14:5674 15:4568 #
-0.00010000000000000000479217360238593 1:0.062065542 2:0.055531338 3:0.083359182 4:2 5:2 6:2 7:8 8:2 9:1 10:15.239666 11:20.566353 12:24.098774 13:3343 14:1084 15:734 #
-0.00010000000000000000479217360238593 1:0.43185213 2:0.30501494 3:0.17893364 4:413 5:413 6:413 7:42 8:30 9:12 10:49.650867 11:50.589485 12:26.376003 13:5487 14:3018 15:2447 #
0.00010000000000000000479217360238593 1:0.27127844 2:0.28499264 3:0.32020256 4:485 5:485 6:485 7:25 8:24 9:22 10:22.39563 11:20.072769 12:15.549831 13:5780 14:5102 15:3989 #
-0.00010000000000000000479217360238593 1:0.19349103 2:0.18938833 3:0.15952581 4:14 5:14 6:14 7:18 8:16 9:9 10:8.1503048 11:7.7009788 12:5.2942691 13:7209 14:6535 15:5551 #
-0.00010000000000000000479217360238593 1:0.27901438 2:0.16220656 3:0.019079095 4:210 5:210 6:210 7:43 8:24 9:3 10:32.822533 11:25.467556 12:16.515329 13:6436 14:3323 15:2182 #
-0.00010000000000000000479217360238593 1:0.31479761 2:0.25212666 3:0.091783844 4:0 5:0 6:0 7:49 8:40 9:11 10:35.753002 11:27.572496 12:19.648094 13:5867 14:2363 15:1259 #
-0.00010000000000000000479217360238593 1:0.26316923 2:0.1110879 3:0.062961809 4:1 5:1 6:1 7:20 8:13 9:5 10:16.124985 11:18.008638 12:30.293404 13:1333 14:684 15:557 #
0.00010000000000000000479217360238593 1:0.30532452 2:0.29346082 3:0.34932432 4:255 5:255 6:255 7:33 8:29 9:28 10:15.995779 11:14.297491 12:11.4028 13:6231 14:5589 15:4475 #
-0.00010000000000000000479217360238593 1:0.42804655 2:0.30631414 3:0.31742787 4:208 5:208 6:208 7:25 8:22 9:28 10:12.166157 11:13.542062 12:14.603889 13:5258 14:4202 15:3510 #
-0.00010000000000000000479217360238593 1:0.282552 2:0.25234726 3:0.2032809 4:231 5:231 6:231 7:25 8:19 9:15 10:6.4387498 11:5.5228724 12:2.8691418 13:7715 14:7105 15:6209 #
-0.00010000000000000000479217360238593 1:0.15099582 2:0.1407478 3:0.11960534 4:211 5:211 6:211 7:10 8:10 9:11 10:10.581267 11:10.652966 12:15.060907 13:6587 14:5406 15:4792 #
-0.00010000000000000000479217360238593 1:0.00063930429 2:0.03107053 3:0.097080648 4:215 5:215 6:215 7:1 8:2 9:7 10:16.717594 11:14.512627 12:9.9550619 13:7026 14:6216 15:4942 #
-0.00010000000000000000479217360238593 1:0.28263757 2:0.23441951 3:0.20050462 4:235 5:235 6:235 7:14 8:13 9:15 10:7.0767021 11:6.5171695 12:6.6357741 13:5638 14:4495 15:4052 #
-0.00010000000000000000479217360238593 1:0.031603016 2:0.008202102 3:0.023752907 4:475 5:475 6:475 7:8 8:5 9:3 10:14.258253 11:12.007772 12:5.8479209 13:7036 14:6418 15:5353 #
-0.00010000000000000000479217360238593 1:0.20165479 2:0.10722818 3:0.069016486 4:251 5:251 6:251 7:15 8:12 9:7 10:16.165752 11:18.114889 12:30.787508 13:1500 14:679 15:478 #
-0.00010000000000000000479217360238593 1:0.26015615 2:0.27243328 3:0.27208471 4:440 5:440 6:440 7:20 8:18 9:17 10:3.9880688 11:1.3377517 12:1.7405932 13:8586 14:7770 15:6511 #
0.00010000000000000000479217360238593 1:0.084701382 2:0.091820382 3:0.10838163 4:457 5:457 6:457 7:6 8:7 9:8 10:18.908476 11:16.872784 12:13.790948 13:6113 14:5341 15:4243 #
-0.00010000000000000000479217360238593 1:0.07345406 2:0.12753962 3:0.074545324 4:145 5:145 6:145 7:7 8:12 9:3 10:34.298347 11:33.872662 12:30.012833 13:4354 14:3924 15:4019 #
-0.00010000000000000000479217360238593 1:0.72868699 2:0.66101253 3:0.46381801 4:42 5:42 6:42 7:73 8:69 9:46 10:35.88266 11:36.440407 12:30.062918 13:1781 14:1719 15:2362 #
0.00010000000000000000479217360238593 1:0.56569993 2:0.19783488 3:0.08730413 4:31 5:31 6:31 7:42 8:31 9:27 10:12.388455 11:15.243469 12:29.229696 13:3749 14:2418 15:1921 #
-0.00010000000000000000479217360238593 1:0.45481166 2:0.43705136 3:0.33266261 4:261 5:261 6:261 7:42 8:36 9:21 10:10.960849 11:10.758026 12:9.2152538 13:5626 14:5014 15:4351 #
0.00010000000000000000479217360238593 1:0.27470523 2:0.099230111 3:0.0083321612 4:12 5:12 6:12 7:20 8:18 9:5 10:10.156162 11:12.835592 12:27.432043 13:2942 14:1840 15:1110 #
0.00010000000000000000479217360238593 1:0.13565777 2:0.17809744 3:0.23341684 4:237 5:237 6:237 7:11 8:12 9:16 10:11.577584 11:9.3328295 12:8.1139078 13:6866 14:5997 15:4872 #
-0.00010000000000000000479217360238593 1:0.30825567 2:0.24044275 3:0.052166499 4:231 5:231 6:231 7:20 8:15 9:3 10:10.475914 11:10.411194 12:10.708646 13:5682 14:5255 15:4678 #
-0.00010000000000000000479217360238593 1:0.16838956 2:0.22088794 3:0.16704354 4:450 5:450 6:450 7:10 8:14 9:11 10:12.575374 11:11.283813 12:6.8943591 13:8106 14:7364 15:6149 #
-0.00010000000000000000479217360238593 1:0.2478295 2:0.25357455 3:0.28325707 4:238 5:238 6:238 7:19 8:19 9:20 10:19.431534 11:19.222862 12:15.979792 13:5494 14:4773 15:3696 #
-0.00010000000000000000479217360238593 1:0.26823461 2:0.23712912 3:0.082592212 4:493 5:493 6:493 7:33 8:28 9:10 10:0.095954768 11:0.45592993 12:1.7535375 13:7030 14:6462 15:5718 #
-0.00010000000000000000479217360238593 1:0.024241596 2:0.0023119084 3:0.009167375 4:443 5:443 6:443 7:2 8:8 9:10 10:12.550567 11:18.404133 12:19.809917 13:3796 14:2099 15:1833 #
-0.00010000000000000000479217360238593 1:0.15624532 2:0.073283732 3:0.016864736 4:324 5:324 6:324 7:15 8:16 9:3 10:22.43268 11:11.182294 12:5.1930685 13:10302 14:6487 15:3828 #
-0.00010000000000000000479217360238593 1:0.2535651 2:0.22039744 3:0.096212558 4:226 5:226 6:226 7:42 8:36 9:13 10:29.20435 11:22.216261 12:15.340861 13:6952 14:3281 15:1909 #
-0.00010000000000000000479217360238593 1:0.26387644 2:0.20824707 3:0.21557981 4:207 5:207 6:207 7:22 8:16 9:15 10:11.476069 11:10.626163 12:7.3549562 13:7663 14:6717 15:5559 #
-0.00010000000000000000479217360238593 1:0.010838659 2:0.04025922 3:0.046035968 4:224 5:224 6:224 7:1 8:4 9:6 10:14.055898 11:14.982851 12:14.475283 13:6219 14:4911 15:4401 #
-0.00010000000000000000479217360238593 1:0.13084868 2:0.10896095 3:0.098658122 4:444 5:444 6:444 7:13 8:11 9:6 10:17.202566 11:15.86971 12:15.498397 13:7119 14:6305 15:5079 #
0.00010000000000000000479217360238593 1:0.1879126 2:0.19501692 3:0.19447263 4:4 5:4 6:4 7:12 8:13 9:13 10:28.538017 11:33.153191 12:37.75045 13:7792 14:7819 15:7823 #
-0.00010000000000000000479217360238593 1:0.39880237 2:0.11749648 3:0.058466677 4:499 5:499 6:499 7:30 8:13 9:5 10:16.821171 11:18.58806 12:31.157417 13:938 14:591 15:512 #
0.00010000000000000000479217360238593 1:0.1092777 2:0.12029304 3:0.18125847 4:16 5:16 6:16 7:12 8:13 9:15 10:21.281199 11:21.362576 12:17.97764 13:5890 14:5106 15:3933 #
-0.00010000000000000000479217360238593 1:0.0068718879 2:0.057499625 3:0.072505072 4:450 5:450 6:450 7:1 8:1 9:1 10:15.119485 11:19.635834 12:23.927341 13:3152 14:1112 15:802 #
-0.00010000000000000000479217360238593 1:0.056105115 2:0.0048884735 3:0.114177 4:436 5:436 6:436 7:15 8:8 9:0 10:1.5816752 11:0.8113448 12:0.84486455 13:6904 14:6016 15:4573 #
-0.00010000000000000000479217360238593 1:0.056842446 2:0.059600767 3:0.06479656 4:245 5:245 6:245 7:5 8:6 9:6 10:16.757679 11:18.551582 12:31.020391 13:1859 14:896 15:492 #
-0.00010000000000000000479217360238593 1:0.12616605 2:0.092663221 3:0.07319054 4:248 5:248 6:248 7:9 8:10 9:8 10:15.562019 11:18.423 12:30.711035 13:1708 14:696 15:387 #
-0.00010000000000000000479217360238593 1:0.024275217 2:0.02947508 3:0.016074037 4:218 5:218 6:218 7:1 8:1 9:3 10:0.79694641 11:1.7981834 12:0.18491411 13:7466 14:6728 15:5718 #
-0.00010000000000000000479217360238593 1:0.16904804 2:0.086618766 3:0.05686127 4:1 5:1 6:1 7:13 8:9 9:5 10:15.899966 11:18.241983 12:30.857002 13:1532 14:709 15:476 #
-0.00010000000000000000479217360238593 1:0.84695107 2:0.92498118 3:0.87803382 4:123 5:123 6:123 7:69 8:81 9:87 10:19.979614 11:25.856083 12:23.875868 13:10233 14:8604 15:6776 #
-0.00010000000000000000479217360238593 1:0.29621631 2:0.1570687 3:0.010076617 4:281 5:281 6:281 7:31 8:26 9:7 10:24.503847 11:10.550525 12:4.9921112 13:10588 14:6565 15:3858 #
-0.00010000000000000000479217360238593 1:0.08968395 2:0.060985152 3:0.065091021 4:127 5:127 6:127 7:11 8:8 9:14 10:31.79525 11:31.916174 12:25.744143 13:5229 14:4920 15:4961 #
0.00010000000000000000479217360238593 1:0.26264894 2:0.086558595 3:0.040747374 4:19 5:19 6:19 7:18 8:13 9:15 10:10.847079 11:12.834327 12:24.275509 13:3792 14:2714 15:2447 #
-0.00010000000000000000479217360238593 1:0.17376234 2:0.23909275 3:0.30759764 4:252 5:252 6:252 7:14 8:21 9:22 10:12.009382 11:11.35742 12:10.395947 13:5887 14:4983 15:3810 #
-0.00010000000000000000479217360238593 1:0.45579568 2:0.14873831 3:0.073970303 4:2 5:2 6:2 7:34 8:18 9:8 10:17.019043 11:18.853695 12:31.508638 13:732 14:372 15:316 #
-0.00010000000000000000479217360238593 1:0.20987618 2:0.17842442 3:0.13792178 4:213 5:213 6:213 7:15 8:12 9:8 10:18.999479 11:16.456345 12:12.433778 13:7368 14:6510 15:5178 #
0.00010000000000000000479217360238593 1:0.33835602 2:0.34193796 3:0.37163651 4:263 5:263 6:263 7:38 8:35 9:29 10:16.196209 11:15.656706 12:13.856791 13:5839 14:5154 15:4096 #
-0.00010000000000000000479217360238593 1:0.73765802 2:0.83061785 3:0.78612816 4:133 5:133 6:133 7:62 8:74 9:81 10:21.463537 11:26.816431 12:25.023899 13:10045 14:8497 15:6629 #
-0.00010000000000000000479217360238593 1:0.25344199 2:0.11196179 3:0.065301113 4:252 5:252 6:252 7:19 8:13 9:6 10:16.597605 11:18.741922 12:31.052837 13:1315 14:601 15:463 #
0.00010000000000000000479217360238593 1:0.33608264 2:0.080732614 3:0.022078803 4:14 5:14 6:14 7:19 8:8 9:10 10:6.0888991 11:8.9708719 12:24.73564 13:3175 14:1864 15:1398 #
0.00010000000000000000479217360238593 1:0.65649527 2:0.61046457 3:0.4792856 4:38 5:38 6:38 7:61 8:52 9:36 10:20.037031 11:19.454212 12:17.280592 13:4225 14:3761 15:3276 #
-0.00010000000000000000479217360238593 1:0.15123762 2:0.10001852 3:0.066768914 4:250 5:250 6:250 7:12 8:11 9:6 10:15.94099 11:18.099119 12:30.575813 13:1681 14:731 15:556 #
0.00010000000000000000479217360238593 1:0.66213202 2:0.59978735 3:0.44509289 4:34 5:34 6:34 7:63 8:52 9:33 10:24.694815 11:22.573521 12:21.429386 13:3983 14:3608 15:3087 #
-0.00010000000000000000479217360238593 1:0.0040962254 2:0.049623769 3:0.053008299 4:243 5:243 6:243 7:1 8:4 9:4 10:13.809006 11:16.95112 12:29.95561 13:2042 14:955 15:613 #
0.00010000000000000000479217360238593 1:0.26936194 2:0.28008357 3:0.38337216 4:28 5:28 6:28 7:28 8:26 9:28 10:13.776882 11:14.572998 12:10.911272 13:5972 14:5305 15:4026 #
-0.00010000000000000000479217360238593 1:0.11608034 2:0.11043368 3:0.071564749 4:464 5:464 6:464 7:8 8:8 9:9 10:14.541568 11:11.36034 12:5.7741404 13:8032 14:7264 15:6025 #
0.00010000000000000000479217360238593 1:0.25436816 2:0.25492454 3:0.30136761 4:231 5:231 6:231 7:13 8:13 9:17 10:0.63177633 11:0.38695642 12:4.8998003 13:5920 14:5270 15:4153 #
-0.00010000000000000000479217360238593 1:0.02248239 2:0.0081136348 3:0.0031948641 4:467 5:467 6:467 7:1 8:2 9:8 10:15.632814 11:17.434456 12:29.687128 13:2145 14:1181 15:1011 #
-0.00010000000000000000479217360238593 1:0.36477461 2:0.35920125 3:0.3009167 4:410 5:410 6:410 7:45 8:40 9:29 10:3.699374 11:3.0996556 12:5.7060652 13:8011 14:7114 15:5673 #
0.00010000000000000000479217360238593 1:0.34128878 2:0.11066361 3:0.042169303 4:18 5:18 6:18 7:27 8:20 9:16 10:6.5085988 11:10.99374 12:25.166235 13:3879 14:2721 15:2295 #
-0.00010000000000000000479217360238593 1:0.24099471 2:0.1962287 3:0.090413049 4:222 5:222 6:222 7:37 8:30 9:11 10:30.341721 11:22.898388 12:13.873616 13:7289 14:3751 15:2300 #
-0.00010000000000000000479217360238593 1:0.0034112094 2:0.046565127 3:0.070209071 4:242 5:242 6:242 7:1 8:4 9:8 10:14.715702 11:16.989668 12:29.935163 13:2113 14:1060 15:551 #
-0.00010000000000000000479217360238593 1:0.13321613 2:0.1342427 3:0.17863429 4:488 5:488 6:488 7:4 8:8 9:10 10:4.4693542 11:8.9707909 12:10.512535 13:8123 14:7307 15:6201 #
0.00010000000000000000479217360238593 1:0.40486988 2:0.37642425 3:0.3930794 4:30 5:30 6:30 7:38 8:32 9:28 10:19.962362 11:18.988861 12:15.59595 13:5165 14:4603 15:3589 #
0.00010000000000000000479217360238593 1:0.56134659 2:0.55118746 3:0.49435356 4:285 5:285 6:285 7:55 8:49 9:36 10:13.356913 11:11.157143 12:11.248287 13:5122 14:4528 15:3799 #
-0.00010000000000000000479217360238593 1:0.40137875 2:0.4054471 3:0.16870391 4:18 5:18 6:18 7:41 8:52 9:12 10:58.097103 11:56.569702 12:5.7214341 13:9559 14:7112 15:1034 #
-0.00010000000000000000479217360238593 1:0.36755449 2:0.31506076 3:0.17749147 4:250 5:250 6:250 7:34 8:27 9:13 10:20.291569 11:19.033642 12:16.819565 13:5980 14:5461 15:4809 #
0.00010000000000000000479217360238593 1:0.23407646 2:0.046879735 3:0.020367239 4:303 5:303 6:303 7:18 8:0 9:1 10:49.602558 11:44.899429 12:2.219481 13:9121 14:5195 15:1824 #
0.00010000000000000000479217360238593 1:0.17532843 2:0.15783656 3:0.072636232 4:359 5:359 6:359 7:17 8:15 9:3 10:33.15398 11:33.413368 12:30.137478 13:4206 14:3973 15:4171 #
0.00010000000000000000479217360238593 1:0.058321305 2:0.085438579 3:0.15387532 4:251 5:251 6:251 7:9 8:10 9:11 10:14.20451 11:11.487295 12:10.10761 13:7063 14:6297 15:5047 #
0.00010000000000000000479217360238593 1:0.78997397 2:0.72165525 3:0.57157695 4:287 5:287 6:287 7:73 8:61 9:40 10:25.69508 11:23.900949 12:20.507025 13:3630 14:3294 15:2817 #
-0.00010000000000000000479217360238593 1:0.70773554 2:0.71867937 3:0.66233033 4:288 5:288 6:288 7:59 8:65 9:69 10:22.855366 11:28.101603 12:27.075977 13:8928 14:7231 15:5264 #
0.00010000000000000000479217360238593 1:0.1057829 2:0.14606571 3:0.18647431 4:478 5:478 6:478 7:13 8:15 9:14 10:19.174692 11:16.795872 12:13.768693 13:6339 14:5499 15:4358 #
0.00010000000000000000479217360238593 1:0.082034253 2:0.091410995 3:0.086632721 4:459 5:459 6:459 7:3 8:2 9:2 10:12.103004 11:10.360511 12:6.1994748 13:8101 14:7357 15:6248 #
0.00010000000000000000479217360238593 1:0.055164713 2:0.1119476 3:0.16227861 4:467 5:467 6:467 7:7 8:12 9:16 10:16.76874 11:14.10069 12:10.235309 13:6782 14:5911 15:4699 #
-0.00010000000000000000479217360238593 1:0.028373526 2:0.60987759 3:0.78771955 4:470 5:470 6:470 7:1 8:84 9:178 10:13.084955 11:7.7984271 12:20.378773 13:2248 14:4350 15:7352 #
0.00010000000000000000479217360238593 1:0.2640577 2:0.15669687 3:0.11278064 4:281 5:281 6:281 7:33 8:21 9:24 10:13.975492 11:12.745117 12:11.287896 13:12083 14:8756 15:6323 #
-0.00010000000000000000479217360238593 1:0.59273696 2:0.70004261 3:0.69896328 4:303 5:303 6:303 7:52 8:64 9:70 10:21.169556 11:26.316975 12:24.313713 13:9849 14:8280 15:6483 #
0.00010000000000000000479217360238593 1:0.29929098 2:0.25777271 3:0.029454421 4:110 5:110 6:110 7:30 8:28 9:1 10:32.949406 11:32.795021 12:23.762447 13:5634 14:5336 15:4134 #
-0.00010000000000000000479217360238593 1:0.77689666 2:0.81345499 3:0.91698128 4:58 5:58 6:58 7:70 8:66 9:62 10:13.282327 11:12.676873 12:10.490288 13:4471 14:3839 15:2776 #
0.00010000000000000000479217360238593 1:0.265389 2:0.082844533 3:0.024982508 4:3 5:3 6:3 7:17 8:12 9:1 10:11.398416 11:12.591501 12:26.591093 13:2886 14:1793 15:997 #
-0.00010000000000000000479217360238593 1:0.8762812 2:0.88337106 3:0.90554547 4:0 5:0 6:0 7:138 8:144 9:149 10:37.460854 11:38.39151 12:36.26292 13:9000 14:8981 15:9287 #
-0.00010000000000000000479217360238593 1:0.34177765 2:0.54721349 3:0.017623086 4:3 5:3 6:3 7:72 8:75 9:1 10:58.104801 11:64.221405 12:7.7385359 13:5161 14:2112 15:1038 #
-0.00010000000000000000479217360238593 1:0.50806129 2:0.43983287 3:0.39175919 4:174 5:174 6:174 7:47 8:40 9:28 10:5.5647564 11:3.1067462 12:2.7492552 13:8822 14:7729 15:6257 #
0.00010000000000000000479217360238593 1:0.11653128 2:0.045879282 3:0.038837139 4:437 5:437 6:437 7:16 8:9 9:5 10:5.3215413 11:2.5796628 12:3.5216994 13:8331 14:7359 15:6071 #
-0.00010000000000000000479217360238593 1:0.85598785 2:0.68651825 3:0.47060007 4:257 5:257 6:257 7:99 8:125 9:68 10:44.259644 11:40.89753 12:18.076471 13:11859 14:10078 15:6766 #
0.00010000000000000000479217360238593 1:0.030536924 2:0.093362384 3:0.096225679 4:281 5:281 6:281 7:16 8:8 9:2 10:8.164361 11:24.902746 12:31.088671 13:10330 14:7634 15:6102 #
0.00010000000000000000479217360238593 1:0.40250245 2:0.29456535 3:0.1244638 4:257 5:257 6:257 7:45 8:31 9:13 10:11.17617 11:11.761087 12:12.274647 13:5911 14:5568 15:4981 #
0.00010000000000000000479217360238593 1:0.028259475 2:0.00026605924 3:0.068683319 4:234 5:234 6:234 7:1 8:3 9:6 10:9.4213543 11:7.2318673 12:6.362956 13:7387 14:6509 15:5199 #
-0.00010000000000000000479217360238593 1:0.037954718 2:0.035324764 3:0.067652866 4:9 5:9 6:9 7:3 8:2 9:4 10:15.72718 11:14.756209 12:13.757152 13:7129 14:6321 15:5224 #
-0.00010000000000000000479217360238593 1:0.38749719 2:0.85425937 3:0.4728179 4:280 5:280 6:280 7:39 8:117 9:31 10:53.982624 11:53.369144 12:5.5381451 13:10165 14:10081 15:3291 #
-0.00010000000000000000479217360238593 1:0.51893163 2:0.35518464 3:0.096687064 4:415 5:415 6:415 7:76 8:57 9:12 10:37.874886 11:29.751184 12:20.926924 13:4766 14:1579 15:1081 #
-0.00010000000000000000479217360238593 1:0.16480094 2:0.27058685 3:0.48177516 4:480 5:480 6:480 7:12 8:40 9:113 10:14.985411 11:12.754163 12:20.82003 13:1783 14:2781 15:5067 #
-0.00010000000000000000479217360238593 1:0.022845861 2:0.051594768 3:0.078527778 4:2 5:2 6:2 7:6 8:3 9:1 10:9.8274813 11:17.57485 12:23.224083 13:3482 14:1274 15:836 #
-0.00010000000000000000479217360238593 1:0.31979486 2:0.38581899 3:0.41295156 4:190 5:190 6:190 7:28 8:60 9:73 10:8.3478642 11:12.4868 12:14.550507 13:5537 14:4955 15:5193 #
0.00010000000000000000479217360238593 1:0.50554258 2:0.3729879 3:0.14981855 4:510 5:510 6:510 7:49 8:34 9:12 10:19.334158 11:18.116175 12:15.968305 13:5346 14:5057 15:4707 #
-0.00010000000000000000479217360238593 1:0.34793851 2:0.2926017 3:0.34468803 4:27 5:27 6:27 7:33 8:26 9:25 10:23.427916 11:23.97591 12:21.28009 13:4996 14:4444 15:3370 #
-0.00010000000000000000479217360238593 1:0.07081677 2:0.070087537 3:0.051586367 4:476 5:476 6:476 7:6 8:7 9:3 10:15.764239 11:17.349571 12:30.190884 13:1835 14:858 15:674 #
0.00010000000000000000479217360238593 1:0.88553166 2:0.44323313 3:0.28521937 4:0 5:0 6:0 7:91 8:53 9:26 10:41.920998 11:46.630829 12:23.227049 13:3779 14:2387 15:1941 #
-0.00010000000000000000479217360238593 1:0.54937476 2:0.60898203 3:0.5490914 4:104 5:104 6:104 7:46 8:54 9:58 10:22.089972 11:27.419111 12:25.914537 13:9852 14:8154 15:6115 #
0.00010000000000000000479217360238593 1:0.85798687 2:0.44998688 3:0.29615664 4:0 5:0 6:0 7:95 8:55 9:28 10:37.947811 11:45.662613 12:23.542297 13:3639 14:1995 15:1625 #
0.00010000000000000000479217360238593 1:0.84778857 2:0.43661308 3:0.28927675 4:0 5:0 6:0 7:91 8:53 9:28 10:34.612156 11:43.60685 12:22.382685 13:3614 14:2063 15:1417 #
0.00010000000000000000479217360238593 1:0.26525199 2:0.032231301 3:0.016267451 4:450 5:450 6:450 7:19 8:7 9:4 10:16.131786 11:18.071194 12:29.669119 13:2707 14:1365 15:904 #
-0.00010000000000000000479217360238593 1:0.26654357 2:0.35776973 3:0.51637602 4:554 5:554 6:554 7:23 8:35 9:42 10:13.935839 11:14.381999 12:8.6986103 13:7011 14:6061 15:4772 #
-0.00010000000000000000479217360238593 1:0.20864196 2:0.12246122 3:0.30123585 4:485 5:485 6:485 7:16 8:20 9:73 10:14.856775 11:14.103303 12:22.296711 13:1646 14:1953 15:3534 #
0.00010000000000000000479217360238593 1:0.12036429 2:0.11117003 3:0.02911363 4:3 5:3 6:3 7:10 8:9 9:1 10:13.321916 11:11.252944 12:8.1064024 13:7493 14:6724 15:5288 #
0.00010000000000000000479217360238593 1:0.11980061 2:0.12135638 3:0.080257811 4:1 5:1 6:1 7:13 8:10 9:5 10:14.993943 11:13.766592 12:13.742661 13:7484 14:6716 15:5445 #
0.00010000000000000000479217360238593 1:0.029461045 2:0.054020476 3:0.097370423 4:474 5:474 6:474 7:3 8:1 9:2 10:0.1164038 11:1.9602047 12:5.3450761 13:8065 14:7202 15:6162 #
0.00010000000000000000479217360238593 1:0.12656473 2:0.088711001 3:0.048383251 4:448 5:448 6:448 7:12 8:10 9:5 10:9.1821413 11:5.9208555 12:3.5128152 13:8180 14:7276 15:6027 #
-0.00010000000000000000479217360238593 1:0.14343916 2:0.14386885 3:0.34201941 4:164 5:164 6:164 7:27 8:24 9:70 10:38.69582 11:30.099043 12:20.598219 13:6489 14:4450 15:3967 #
-0.00010000000000000000479217360238593 1:0.21416013 2:0.21867886 3:0.2220996 4:201 5:201 6:201 7:22 8:21 9:19 10:6.4221635 11:4.4609423 12:2.4848423 13:8579 14:7763 15:6585 #
-0.00010000000000000000479217360238593 1:0.24001569 2:0.099448584 3:0.28151232 4:486 5:486 6:486 7:18 8:14 9:66 10:15.738701 11:14.300496 12:23.266777 13:1525 14:1793 15:3315 #
0.00010000000000000000479217360238593 1:0.2434328 2:0.28057447 3:0.32295537 4:484 5:484 6:484 7:24 8:25 9:24 10:19.384453 11:16.297327 12:14.046816 13:5998 14:5157 15:4110 #
0.00010000000000000000479217360238593 1:0.25031865 2:0.025385771 3:0.010946679 4:10 5:10 6:10 7:18 8:6 9:5 10:14.323607 11:16.925507 12:30.114264 13:2730 14:1398 15:1038 #
-0.00010000000000000000479217360238593 1:0.376313 2:0.44597629 3:0.025521085 4:285 5:285 6:285 7:40 8:61 9:2 10:51.322556 11:49.842415 12:1.8225033 13:10379 14:8257 15:2528 #
0.00010000000000000000479217360238593 1:0.14167127 2:0.14774267 3:0.076345928 4:455 5:455 6:455 7:12 8:11 9:5 10:12.15398 11:9.8308802 12:5.0806808 13:7793 14:7025 15:5669 #
-0.00010000000000000000479217360238593 1:0.63563925 2:0.6213873 3:0.63431185 4:280 5:280 6:280 7:58 8:52 9:45 10:22.5499 11:19.664547 12:15.918954 13:4525 14:3972 15:3115 #
-0.00010000000000000000479217360238593 1:0.46894798 2:0.1193171 3:0.062778339 4:504 5:504 6:504 7:35 8:14 9:6 10:17.113699 11:18.948351 12:31.645813 13:709 14:529 15:421 #
-0.00010000000000000000479217360238593 1:0.88562948 2:0.65636033 3:0.3818669 4:257 5:257 6:257 7:97 8:115 9:52 10:48.925907 11:47.514397 12:23.808441 13:10729 14:8642 15:5188 #
0.00010000000000000000479217360238593 1:0.11332333 2:0.055861142 3:0.052425258 4:382 5:382 6:382 7:9 8:7 9:14 10:40.297157 11:41.839813 12:17.891024 13:9312 14:6894 15:5874 #
0.00010000000000000000479217360238593 1:0.956981 2:0.37567303 3:0.1112476 4:182 5:182 6:182 7:71 8:56 9:32 10:11.717875 11:13.96009 12:27.760756 13:4944 14:3454 15:2312 #
0.00010000000000000000479217360238593 1:0.20589192 2:0.2647427 3:0.26297325 4:477 5:477 6:477 7:18 8:22 9:20 10:22.109713 11:19.69828 12:15.71992 13:5918 14:5078 15:4054 #
-0.00010000000000000000479217360238593 1:0.10972864 2:0.12974302 3:0.12040703 4:237 5:237 6:237 7:9 8:10 9:7 10:23.298725 11:21.988747 12:19.108137 13:5922 14:5153 15:4130 #
0.00010000000000000000479217360238593 1:0.44113517 2:0.46859378 3:0.33645439 4:64 5:64 6:64 7:41 8:47 9:31 10:26.938896 11:30.184969 12:25.282169 13:3568 14:3187 15:3506 #
-0.00010000000000000000479217360238593 1:0.18575081 2:0.1915562 3:0.21398607 4:208 5:208 6:208 7:15 8:14 9:14 10:9.7982483 11:7.7363372 12:4.5003815 13:8306 14:7474 15:6327 #
-0.00010000000000000000479217360238593 1:0.62760699 2:0.60896635 3:0.39172709 4:48 5:48 6:48 7:63 8:63 9:39 10:34.999973 11:34.880661 12:31.135395 13:2254 14:2025 15:2663 #
0.00010000000000000000479217360238593 1:0.23882169 2:0.23944262 3:0.099909201 4:140 5:140 6:140 7:24 8:28 9:19 10:25.003857 11:25.211227 12:19.497747 13:6735 14:6575 15:6003 #
0.00010000000000000000479217360238593 1:0.16384162 2:0.18582925 3:0.23298219 4:474 5:474 6:474 7:15 8:16 9:15 10:18.794111 11:16.975258 12:13.826401 13:6063 14:5281 15:4182 #
0.00010000000000000000479217360238593 1:0.3607111 2:0.24875011 3:0.15690324 4:134 5:134 6:134 7:30 8:21 9:20 10:19.62953 11:24.237503 12:22.573214 13:8563 14:6310 15:4084 #
-0.00010000000000000000479217360238593 1:0.31582743 2:0.3825101 3:0.40449893 4:85 5:85 6:85 7:28 8:36 9:44 10:25.169109 11:30.537386 12:28.517736 13:7826 14:6109 15:4332 #
-0.00010000000000000000479217360238593 1:0.51108414 2:0.58149874 3:0.54682875 4:324 5:324 6:324 7:41 8:50 9:56 10:20.56542 11:25.56885 12:24.07707 13:9680 14:8033 15:6085 #
0.00010000000000000000479217360238593 1:0.1422518 2:0.050941017 3:0.05901574 4:146 5:146 6:146 7:17 8:10 9:3 10:15.339525 11:20.682161 12:22.31534 13:8345 14:6100 15:3885 #
0.00010000000000000000479217360238593 1:0.31349099 2:0.3225936 3:0.25212702 4:281 5:281 6:281 7:44 8:50 9:50 10:15.108386 11:20.919306 12:21.22014 13:12042 14:9466 15:7432 #
-0.00010000000000000000479217360238593 1:0.35852408 2:0.20472451 3:0.46612889 4:154 5:154 6:154 7:55 8:34 9:95 10:39.94075 11:31.809397 12:21.774754 13:5340 14:4686 15:4719 #
-0.00010000000000000000479217360238593 1:0.14126414 2:0.29265276 3:0.29660311 4:462 5:462 6:462 7:10 8:43 9:73 10:14.464887 11:16.025486 12:27.797443 13:2377 14:2639 15:3322 #
-0.00010000000000000000479217360238593 1:0.51881832 2:0.62797266 3:0.64616871 4:104 5:104 6:104 7:41 8:53 9:63 10:21.983759 11:27.103449 12:25.490734 13:9504 14:7960 15:6245 #
-0.00010000000000000000479217360238593 1:0.19664763 2:0.2092701 3:0.21009046 4:247 5:247 6:247 7:16 8:16 9:13 10:8.4046326 11:8.0393486 12:5.1510725 13:7286 14:6518 15:5518 #
-0.00010000000000000000479217360238593 1:0.15696476 2:0.091452204 3:0.034200836 4:463 5:463 6:463 7:12 8:5 9:2 10:7.8645091 11:7.0657825 12:8.22752 13:6477 14:5951 15:5083 #
-0.00010000000000000000479217360238593 1:0.12413415 2:0.028560074 3:0.031864252 4:363 5:363 6:363 7:7 8:0 9:4 10:24.718075 11:29.312588 12:26.911083 13:6216 14:4527 15:2566 #
-0.00010000000000000000479217360238593 1:0.46391824 2:0.55236405 3:0.5386402 4:315 5:315 6:315 7:39 8:49 9:55 10:25.768587 11:31.133936 12:28.905119 13:7614 14:5978 15:4140 #
0.00010000000000000000479217360238593 1:0.35814288 2:0.2302566 3:0.16492349 4:281 5:281 6:281 7:42 8:37 9:35 10:25.794733 11:2.0282443 12:1.3659565 13:10777 14:7443 15:5237 #
0.00010000000000000000479217360238593 1:0.33993429 2:0.41459233 3:0.37395465 4:499 5:499 6:499 7:33 8:36 9:28 10:20.275415 11:18.782532 12:17.046743 13:5874 14:5031 15:4216 #
0.00010000000000000000479217360238593 1:0.39261508 2:0.3180697 3:0.069442496 4:281 5:281 6:281 7:48 8:54 9:21 10:26.427042 11:14.321993 12:6.2907877 13:11667 14:8534 15:5300 #
-0.00010000000000000000479217360238593 1:0.51580334 2:0.49062791 3:0.3166362 4:192 5:192 6:192 7:52 8:51 9:31 10:33.756748 11:34.254093 12:30.119596 13:2841 14:2625 15:3129 #
-0.00010000000000000000479217360238593 1:0.29360005 2:0.33629251 3:0.44320938 4:502 5:502 6:502 7:32 8:34 9:39 10:6.5743313 11:4.4868851 12:0.43921655 13:7197 14:6426 15:5200 #
-0.00010000000000000000479217360238593 1:0.77949876 2:0.86954272 3:0.83051872 4:293 5:293 6:293 7:64 8:76 9:83 10:19.298756 11:24.651649 12:22.922037 13:9931 14:8383 15:6547 #
-0.00010000000000000000479217360238593 1:0.10341439 2:0.15731658 3:0.3184523 4:73 5:73 6:73 7:22 8:25 9:65 10:36.770496 11:27.510509 12:17.309065 13:6867 14:4709 15:4016 #
-0.00010000000000000000479217360238593 1:0.12762976 2:0.17311922 3:0.36616644 4:162 5:162 6:162 7:24 8:29 9:76 10:34.73531 11:26.486553 12:17.584284 13:7074 14:5134 15:4690 #
-0.00010000000000000000479217360238593 1:0.31899717 2:0.33167186 3:0.31270105 4:75 5:75 6:75 7:26 8:28 9:32 10:18.489344 11:23.136097 12:21.488091 13:8651 14:6709 15:4736 #
0.00010000000000000000479217360238593 1:0.19833866 2:0.23958366 3:0.30977088 4:238 5:238 6:238 7:18 8:21 9:20 10:16.229727 11:16.445004 12:15.185628 13:6134 14:5294 15:4098 #
-0.00010000000000000000479217360238593 1:0.14505865 2:0.1551476 3:0.33026221 4:364 5:364 6:364 7:27 8:27 9:69 10:33.721561 11:25.254057 12:15.20648 13:6915 14:4955 15:4331 #
-0.00010000000000000000479217360238593 1:0.098382436 2:0.21702044 3:0.27542162 4:136 5:136 6:136 7:11 8:20 9:31 10:22.975439 11:28.707386 12:26.807312 13:8071 14:6362 15:4634 #
-0.00010000000000000000479217360238593 1:0.66158396 2:0.75984538 3:0.70876795 4:316 5:316 6:316 7:54 8:66 9:71 10:22.154657 11:27.507551 12:25.777937 13:9376 14:7828 15:5920 #
-0.00010000000000000000479217360238593 1:0.704261 2:0.64002311 3:0.44045436 4:210 5:210 6:210 7:71 8:67 9:44 10:35.045063 11:35.535976 12:31.106077 13:1938 14:1841 15:2437 #
-0.00010000000000000000479217360238593 1:0.38811281 2:0.36754069 3:0.24790893 4:74 5:74 6:74 7:38 8:37 9:22 10:33.752972 11:34.317478 12:29.40782 13:3210 14:2982 15:3377 #
-0.00010000000000000000479217360238593 1:0.046860814 2:0.00071575656 3:0.095486924 4:454 5:454 6:454 7:3 8:1 9:8 10:15.667121 11:13.224092 12:7.8152795 13:6764 14:5884 15:4495 #
-0.00010000000000000000479217360238593 1:0.8749904 2:0.88128161 3:0.89909095 4:0 5:0 6:0 7:138 8:144 9:150 10:37.781395 11:38.299896 12:37.927258 13:9026 14:9047 15:9176 #
-0.00010000000000000000479217360238593 1:0.40170717 2:0.46175194 3:0.40439463 4:102 5:102 6:102 7:29 8:66 9:96 10:14.228125 11:16.004641 12:29.347942 13:3153 14:3591 15:4287 #
-0.00010000000000000000479217360238593 1:0.12774956 2:0.13675508 3:0.12631044 4:439 5:439 6:439 7:11 8:26 9:31 10:9.9970036 11:12.481563 12:12.997269 13:5168 14:3685 15:3614 #
-0.00010000000000000000479217360238593 1:0.0017459115 2:0.084671199 3:0.10844086 4:452 5:452 6:452 7:1 8:18 9:27 10:9.1345682 11:12.162049 12:13.080419 13:4770 14:3678 15:3799 #
0.00010000000000000000479217360238593 1:0.51829904 2:0.29331288 3:0.12698153 4:0 5:0 6:0 7:67 8:42 9:14 10:16.438992 11:25.373718 12:8.2431889 13:6742 14:4673 15:4143 #
0.00010000000000000000479217360238593 1:0.10747393 2:0.14815207 3:0.18256243 4:22 5:22 6:22 7:10 8:14 9:15 10:23.140427 11:21.482117 12:16.793074 13:6132 14:5230 15:4099 #
-0.00010000000000000000479217360238593 1:0.86618358 2:0.42945811 3:0.31626713 4:4 5:4 6:4 7:87 8:48 9:27 10:52.945808 11:55.440208 12:30.964882 13:2598 14:1148 15:647 #
-0.00010000000000000000479217360238593 1:0.17261012 2:0.15100855 3:0.32935339 4:482 5:482 6:482 7:13 8:24 9:80 10:14.826648 11:14.996026 12:23.323309 13:1750 14:2130 15:3824 #
-0.00010000000000000000479217360238593 1:0.53281301 2:0.34948331 3:0.087513298 4:3 5:3 6:3 7:79 8:56 9:11 10:38.31749 11:30.834831 12:22.175817 13:4660 14:1593 15:1036 #
-0.00010000000000000000479217360238593 1:0.380503 2:0.16382356 3:0.43539149 4:91 5:91 6:91 7:59 8:24 9:84 10:30.719662 11:21.487494 12:12.748787 13:5435 14:4641 15:4678 #
0.00010000000000000000479217360238593 1:0.34421825 2:0.33126071 3:0.40539458 4:36 5:36 6:36 7:34 8:30 9:30 10:21.198559 11:19.362896 12:17.191093 13:5383 14:4700 15:3584 #
-0.00010000000000000000479217360238593 1:0.45453575 2:0.39465937 3:0.39404777 4:74 5:74 6:74 7:40 8:35 9:41 10:16.472029 11:20.641483 12:19.335661 13:8379 14:6308 15:4492 #
0.00010000000000000000479217360238593 1:0.19867685 2:0.16643839 3:0.084475711 4:249 5:249 6:249 7:19 8:15 9:6 10:16.448721 11:16.356659 12:14.766629 13:6187 14:5642 15:4753 #
0.00010000000000000000479217360238593 1:0.0060120835 2:0.048497759 3:0.10302091 4:465 5:465 6:465 7:2 8:4 9:8 10:21.8503 11:18.959806 12:14.54376 13:6454 14:5555 15:4389 #
-0.00010000000000000000479217360238593 1:0.26940385 2:0.25235918 3:0.10000011 4:112 5:112 6:112 7:28 8:28 9:16 10:34.87812 11:35.496284 12:30.108948 13:5445 14:5191 15:4594 #
-0.00010000000000000000479217360238593 1:0.33717868 2:0.39169449 3:0.35040712 4:445 5:445 6:445 7:24 8:56 9:85 10:15.931454 11:17.395218 12:29.376402 13:2909 14:3153 15:3768 #
0.00010000000000000000479217360238593 1:0.23559637 2:0.12818441 3:0.0034862664 4:11 5:11 6:11 7:40 8:18 9:2 10:13.863524 11:8.085268 12:0.52295572 13:8583 14:5317 15:4121 #
-0.00010000000000000000479217360238593 1:0.28574711 2:0.29145595 3:0.25600255 4:431 5:431 6:431 7:25 8:23 9:17 10:19.695118 11:17.559729 12:15.151656 13:7519 14:6717 15:5424 #
0.00010000000000000000479217360238593 1:0.073159769 2:0.7429052 3:0.0095135299 4:359 5:359 6:359 7:33 8:102 9:1 10:61.647087 11:66.852165 12:8.791791 13:6458 14:975 15:1016 #
-0.00010000000000000000479217360238593 1:0.45922077 2:0.13890697 3:0.072364897 4:2 5:2 6:2 7:34 8:16 9:8 10:16.926577 11:18.853374 12:31.496244 13:770 14:431 15:396 #
-0.00010000000000000000479217360238593 1:0.082221203 2:0.07844314 3:0.099978335 4:472 5:472 6:472 7:12 8:12 9:12 10:1.7195636 11:1.571424 12:4.0747638 13:7451 14:6739 15:5587 #
0.00010000000000000000479217360238593 1:0.28649774 2:0.25786999 3:0.30064318 4:508 5:508 6:508 7:25 8:23 9:23 10:4.748487 11:6.426209 12:2.6236844 13:6836 14:6245 15:5100 #
0.00010000000000000000479217360238593 1:0.89515811 2:0.46061906 3:0.3104457 4:0 5:0 6:0 7:91 8:55 9:29 10:46.273422 11:48.631653 12:25.492815 13:3957 14:2384 15:1819 #
0.00010000000000000000479217360238593 1:0.28578717 2:0.31760678 3:0.19436373 4:147 5:147 6:147 7:29 8:35 9:25 10:33.01078 11:33.468723 12:29.327782 13:5879 14:5807 15:5303 #
0.00010000000000000000479217360238593 1:0.069343992 2:0.6944496 3:0.0089332704 4:356 5:356 6:356 7:31 8:95 9:0 10:61.19025 11:66.38533 12:9.2378025 13:6500 14:1265 15:867 #
0.00010000000000000000479217360238593 1:0.15516566 2:0.20292734 3:0.091902412 4:154 5:154 6:154 7:19 8:34 9:23 10:15.527507 11:7.3030553 12:0.13865092 13:9983 14:6924 15:4297 #
-0.00010000000000000000479217360238593 1:0.21957143 2:0.20861526 3:0.27454773 4:413 5:413 6:413 7:18 8:16 9:21 10:10.565642 11:8.2639332 12:6.606286 13:7495 14:6663 15:5558 #
0.00010000000000000000479217360238593 1:0.10341546 2:0.14999297 3:0.16503142 4:217 5:217 6:217 7:0 8:4 9:2 10:7.3664818 11:6.8411803 12:4.5337048 13:6090 14:5187 15:4142 #
0.00010000000000000000479217360238593 1:0.39744633 2:0.38881502 3:0.27190894 4:71 5:71 6:71 7:40 8:40 9:26 10:33.694504 11:34.1996 12:29.993345 13:3151 14:2888 15:3212 #
0.00010000000000000000479217360238593 1:0.10237024 2:0.71643412 3:0.021434408 4:2 5:2 6:2 7:37 8:98 9:1 10:61.113194 11:65.610863 12:9.2485733 13:6340 14:1133 15:901 #
0.00010000000000000000479217360238593 1:0.27462301 2:0.31546691 3:0.25613394 4:281 5:281 6:281 7:31 8:52 9:56 10:20.977915 11:9.0572901 12:1.9184251 13:12078 14:9212 15:7156 #
0.00010000000000000000479217360238593 1:0.34906587 2:0.35727882 3:0.33512565 4:265 5:265 6:265 7:36 8:34 9:26 10:14.88367 11:13.843118 12:10.557168 13:6055 14:5318 15:4425 #
-0.00010000000000000000479217360238593 1:0.43182012 2:0.13198861 3:0.073328145 4:255 5:255 6:255 7:32 8:16 9:8 10:16.419615 11:18.436306 12:30.549805 13:854 14:501 15:404 #
-0.00010000000000000000479217360238593 1:0.31646344 2:0.11392806 3:0.071447529 4:2 5:2 6:2 7:24 8:13 9:8 10:14.987528 11:18.436306 12:31.304661 13:1208 14:629 15:383 #
-0.00010000000000000000479217360238593 1:0.11785524 2:0.024644386 3:0.080049999 4:2 5:2 6:2 7:14 8:7 9:0 10:12.355634 11:18.605072 12:23.971167 13:3562 14:1370 15:815 #
-0.00010000000000000000479217360238593 1:0.20247681 2:0.081229731 3:0.045669302 4:247 5:247 6:247 7:16 8:8 9:2 10:10.92212 11:15.82032 12:28.929611 13:1518 14:843 15:726 #
-0.00010000000000000000479217360238593 1:0.32644457 2:0.29157868 3:0.25426394 4:17 5:17 6:17 7:26 8:22 9:15 10:13.902505 11:12.635057 12:10.719062 13:7731 14:6768 15:5441 #
-0.00010000000000000000479217360238593 1:0.43173942 2:0.43799198 3:0.41160834 4:421 5:421 6:421 7:39 8:37 9:30 10:14.988982 11:12.505617 12:7.3513179 13:8379 14:7544 15:6142 #
0.00010000000000000000479217360238593 1:0.37989044 2:0.40538701 3:0.34064859 4:281 5:281 6:281 7:47 8:58 9:48 10:23.764355 11:18.983793 12:34.650223 13:10705 14:8932 15:6922 #
0.00010000000000000000479217360238593 1:0.25233892 2:0.24866545 3:0.25355577 4:249 5:249 6:249 7:27 8:24 9:24 10:12.681537 11:10.403019 12:6.4970231 13:6390 14:5743 15:4694 #
-0.00010000000000000000479217360238593 1:0.15271935 2:0.11755183 3:0.12314358 4:19 5:19 6:19 7:15 8:12 9:9 10:21.428211 11:16.240772 12:13.735459 13:6970 14:6084 15:4926 #
0.00010000000000000000479217360238593 1:0.028935887 2:0.014379662 3:0.12547798 4:455 5:455 6:455 7:2 8:2 9:8 10:21.710268 11:19.620634 12:16.618019 13:6764 14:5918 15:4519 #
-0.00010000000000000000479217360238593 1:0.33493006 2:0.28956297 3:0.093747705 4:281 5:281 6:281 7:49 8:58 9:32 10:14.710382 11:5.4835234 12:3.6204536 13:11913 14:9252 15:6050 #
-0.00010000000000000000479217360238593 1:0.3341848 2:0.32843798 3:0.26688513 4:256 5:256 6:256 7:37 8:31 9:21 10:1.1228513 11:1.1421862 12:2.3078489 13:6869 14:6204 15:5347 #
-0.00010000000000000000479217360238593 1:0.061665297 2:0.016270012 3:0.058053859 4:464 5:464 6:464 7:4 8:0 9:5 10:14.741363 11:17.223772 12:28.760014 13:2258 14:1199 15:625 #
-0.00010000000000000000479217360238593 1:0.41565374 2:0.14080042 3:0.078603044 4:256 5:256 6:256 7:31 8:17 9:9 10:16.228872 11:18.470196 12:31.207054 13:940 14:512 15:412 #
0.00010000000000000000479217360238593 1:0.35683188 2:0.42819238 3:0.18638168 4:281 5:281 6:281 7:48 8:73 9:43 10:20.307583 11:8.5788107 12:1.2287253 13:11889 14:9414 15:6158 #
0.00010000000000000000479217360238593 1:0.15767817 2:0.17399094 3:0.17500605 4:9 5:9 6:9 7:8 8:9 9:9 10:29.694765 11:34.210579 12:39.219963 13:7580 14:7652 15:7616 #
0.00010000000000000000479217360238593 1:0.04911552 2:0.072142854 3:0.12053566 4:459 5:459 6:459 7:2 8:3 9:9 10:21.952265 11:20.021482 12:15.053557 13:6790 14:6092 15:5049 #
0.00010000000000000000479217360238593 1:0.1650075 2:0.17793351 3:0.19761415 4:204 5:204 6:204 7:14 8:13 9:14 10:24.766071 11:22.513922 12:18.829203 13:6764 14:6024 15:4895 #
-0.00010000000000000000479217360238593 1:0.13039774 2:0.11325639 3:0.075621508 4:210 5:210 6:210 7:14 8:11 9:6 10:22.981508 11:20.863543 12:17.547865 13:6560 14:5701 15:4507 #
0.00010000000000000000479217360238593 1:0.30600095 2:0.3025426 3:0.27485377 4:21 5:21 6:21 7:27 8:25 9:19 10:19.909357 11:18.190117 12:16.126194 13:5858 14:5181 15:4276 #
0.00010000000000000000479217360238593 1:0.18789278 2:0.21401525 3:0.19312273 4:447 5:447 6:447 7:14 8:16 9:12 10:20.11628 11:17.666704 12:13.767368 13:7452 14:6697 15:5421 #
-0.00010000000000000000479217360238593 1:0.23066516 2:0.049114995 3:0.01391226 4:16 5:16 6:16 7:26 8:11 9:4 10:18.18631 11:7.6699462 12:8.9526834 13:9363 14:5048 15:2665 #
0.00010000000000000000479217360238593 1:0.45774278 2:0.46122858 3:0.49870011 4:39 5:39 6:39 7:45 8:41 9:36 10:19.072851 11:19.280914 12:17.000769 13:5317 14:4656 15:3666 #
0.00010000000000000000479217360238593 1:0.24967177 2:0.25120151 3:0.12691057 4:206 5:206 6:206 7:21 8:19 9:8 10:24.564621 11:22.335464 12:18.644051 13:7374 14:6543 15:5023 #
-0.00010000000000000000479217360238593 1:0.32890013 2:0.37522727 3:0.36640936 4:0 5:0 6:0 7:24 8:29 9:29 10:21.548611 11:25.625019 12:26.287495 13:6247 14:4018 15:1899 #
0.00010000000000000000479217360238593 1:0.36654887 2:0.38214785 3:0.20963243 4:281 5:281 6:281 7:46 8:63 9:32 10:23.559021 11:18.065233 12:21.541786 13:11088 14:9173 15:6395 #
0.00010000000000000000479217360238593 1:0.33072853 2:0.34435129 3:0.27483749 4:434 5:434 6:434 7:28 8:26 9:19 10:25.808273 11:23.731966 12:19.533295 13:7354 14:6569 15:5145 #
0.00010000000000000000479217360238593 1:0.11585487 2:0.10761095 3:0.065479606 4:457 5:457 6:457 7:8 8:7 9:2 10:25.133381 11:23.060415 12:18.911634 13:7021 14:6199 15:4961 #
-0.00010000000000000000479217360238593 1:0.00054203719 2:0.034979828 3:0.067320459 4:24 5:24 6:24 7:5 8:1 9:6 10:20.117764 11:13.829212 12:9.5008574 13:9217 14:5486 15:3135 #
0.00010000000000000000479217360238593 1:0.40144798 2:0.14172091 3:0.058423124 4:218 5:218 6:218 7:41 8:12 9:10 10:31.495157 11:35.503273 12:13.37443 13:7407 14:5775 15:5334 #
-0.00010000000000000000479217360238593 1:0.014923453 2:0.0043866462 3:0.056299236 4:2 5:2 6:2 7:1 8:1 9:6 10:13.960651 11:16.918777 12:18.463301 13:6101 14:4823 15:4144 #
-0.00010000000000000000479217360238593 1:0.23282009 2:0.1610291 3:0.059886545 4:9 5:9 6:9 7:37 8:24 9:5 10:29.899685 11:24.494291 12:17.41605 13:6617 14:3086 15:1714 #
0.00010000000000000000479217360238593 1:0.50766081 2:0.44490784 3:0.31356299 4:312 5:312 6:312 7:44 8:40 9:34 10:19.035809 11:22.438307 12:20.986231 13:9138 14:7085 15:4821 #
0.00010000000000000000479217360238593 1:0.23246695 2:0.27895209 3:0.18909101 4:116 5:116 6:116 7:24 8:30 9:25 10:33.965969 11:33.7384 12:27.007835 13:5546 14:5577 15:5158 #
0.00010000000000000000479217360238593 1:0.35380271 2:0.38636848 3:0.20700009 4:101 5:101 6:101 7:37 8:42 9:30 10:32.797932 11:31.829367 12:25.004204 13:5930 14:5859 15:5117 #
0.00010000000000000000479217360238593 1:0.3582257 2:0.38482609 3:0.27045441 4:73 5:73 6:73 7:36 8:39 9:25 10:32.948933 11:33.109882 12:29.185999 13:3536 14:3188 15:3430 #
-0.00010000000000000000479217360238593 1:0.19827077 2:0.12967171 3:0.052189015 4:207 5:207 6:207 7:30 8:19 9:5 10:28.995726 11:24.207438 12:14.804313 13:7396 14:4106 15:2460 #
0.00010000000000000000479217360238593 1:0.20070846 2:0.18691482 3:0.13295384 4:466 5:466 6:466 7:33 8:34 9:29 10:23.167873 11:27.125305 12:30.868509 13:6607 14:6603 15:6703 #
-0.00010000000000000000479217360238593 1:0.094627231 2:0.042788189 3:0.13322397 4:13 5:13 6:13 7:4 8:6 9:19 10:30.981911 11:25.362431 12:18.42819 13:8453 14:4090 15:1462 #
-0.00010000000000000000479217360238593 1:0.32005328 2:0.38375658 3:0.34650829 4:446 5:446 6:446 7:23 8:55 9:83 10:15.272681 11:16.621925 12:28.234482 13:2892 14:3131 15:3782 #
0.00010000000000000000479217360238593 1:0.39487496 2:0.41172838 3:0.4352245 4:435 5:435 6:435 7:34 8:35 9:34 10:12.930807 11:11.280636 12:4.2898598 13:8997 14:8175 15:6915 #
0.00010000000000000000479217360238593 1:0.18424673 2:0.22817005 3:0.31064022 4:32 5:32 6:32 7:20 8:21 9:24 10:25.047232 11:23.214901 12:20.10132 13:5624 14:4795 15:3561 #
-0.00010000000000000000479217360238593 1:0.50509167 2:0.44416952 3:0.3533811 4:15 5:15 6:15 7:46 8:36 9:21 10:10.72472 11:8.6543207 12:3.5662355 13:5306 14:4885 15:4192 #
0.00010000000000000000479217360238593 1:0.029235573 2:0.017325109 3:0.061149329 4:462 5:462 6:462 7:2 8:2 9:6 10:10.373967 11:6.48844 12:0.48565361 13:6845 14:6146 15:4945 #
-0.00010000000000000000479217360238593 1:0.41700703 2:0.40942454 3:0.28072712 4:178 5:178 6:178 7:41 8:42 9:26 10:33.324684 11:34.009495 12:28.629454 13:3305 14:3041 15:3407 #
0.00010000000000000000479217360238593 1:0.36263976 2:0.33869117 3:0.12018193 4:151 5:151 6:151 7:38 8:38 9:19 10:31.047718 11:30.93786 12:23.953146 13:6025 14:5742 15:4874 #
-0.00010000000000000000479217360238593 1:0.0010047512 2:0.057723232 3:0.0681113 4:175 5:175 6:175 7:5 8:4 9:7 10:9.9352093 11:7.4957423 12:11.912363 13:9308 14:5403 15:3041 #
-0.00010000000000000000479217360238593 1:0.38875914 2:0.32903859 3:0.10640118 4:281 5:281 6:281 7:46 8:54 9:24 10:26.803751 11:13.80254 12:5.5690627 13:11529 14:8709 15:5394 #
-0.00010000000000000000479217360238593 1:0.022208383 2:0.034767509 3:0.07153926 4:242 5:242 6:242 7:1 8:2 9:8 10:15.230339 11:17.459442 12:29.838688 13:2217 14:1106 15:538 #
-0.00010000000000000000479217360238593 1:0.18045224 2:0.14356996 3:0.071709633 4:422 5:422 6:422 7:25 8:21 9:9 10:3.7984369 11:1.0334505 12:2.8847847 13:7918 14:7035 15:5692 #
